nep4_zbl 2 Te Ge 
zbl 1 1.5
cutoff 8 8 136 136
n_max 4 4
basis_size 8 8
l_max 8 2 1
ANN 70 0
  7.9541910e-01
 -3.1846738e+00
  1.0044639e+00
 -4.8737440e-01
 -1.7629513e+00
  1.7780349e-01
  6.4257301e-02
 -7.5647286e-03
  8.5852545e-01
  3.2582888e-01
 -1.1736760e-01
 -7.4920557e-03
  1.7996794e-01
 -3.6752656e-02
 -4.1717175e-02
  4.9178995e-02
  1.5543012e-01
  2.5121766e-01
  9.3711525e-02
  1.8168586e-01
  2.6476261e-01
 -1.5173935e+00
 -9.2727667e-01
 -4.5870280e-01
  4.2021853e-01
 -3.0311687e-02
 -3.3067930e-01
 -2.9040191e-01
  2.4642657e-02
  5.1369077e-01
  1.5689152e-01
  7.1909651e-02
 -1.2939821e-01
  6.1614392e-03
  4.4515961e-01
  3.1603396e-01
 -8.6957514e-02
 -6.2246341e-02
 -7.6135352e-02
  2.9049540e-01
  7.2047196e-02
  2.6570024e-02
 -2.3829853e-02
 -1.7568411e-01
 -3.5036981e-04
  4.0661115e-02
 -5.2481260e-02
 -1.0102986e-01
  2.4407495e-02
  1.2147418e-02
  1.3763172e-03
 -2.5797249e-03
 -4.1476965e-02
  3.8598485e-02
  2.4445666e-02
  1.0728139e+00
 -2.5907207e+00
  1.8548373e+00
 -5.1497889e-01
 -2.8232357e-01
  2.4553382e-01
  2.6439840e-01
  2.9832268e-01
 -7.7487946e-02
  4.6703521e-02
 -1.8229596e-01
 -2.6641032e-01
 -3.8033187e-01
 -5.5369150e-02
 -5.4703034e-02
  1.8750550e-01
 -7.2018206e-02
 -2.7294931e-01
  8.7904610e-02
 -3.7783809e-02
  3.3940795e-01
 -3.2272813e-01
 -1.4958224e-01
 -1.0638522e-01
 -7.0811427e-01
  2.1602067e-01
 -2.3393151e-01
 -1.6832925e-01
 -3.7367529e-01
 -1.8187131e-01
  1.9278659e-01
  1.6700117e-01
 -3.8805410e-01
 -1.8136770e-01
  9.0162344e-02
  2.6734871e-01
 -2.1880712e-02
 -1.4587913e-01
  7.9366699e-02
  3.0354436e-02
  2.7778350e-02
 -3.4708910e-02
  2.8350271e-02
  2.7689859e-01
 -6.0178239e-02
  1.1453435e-01
 -9.3453780e-02
  5.0048489e-02
 -1.6779890e-02
  4.1356437e-02
  8.5008681e-02
  2.9178670e-02
  1.0541731e-01
 -7.2645538e-02
  1.2548746e+00
  2.0588660e-01
 -2.1369511e-01
 -5.3664315e-01
  3.1726024e-01
  1.3822730e+00
 -2.9789194e-01
 -1.2950450e-01
  2.3019725e-01
 -4.8631307e-02
 -1.3544777e-01
  1.1893533e-01
 -2.1550824e-01
  3.0940957e-02
 -1.3302876e-01
 -2.7614022e-03
 -1.5368174e-01
  4.5615664e-01
  3.6423534e-02
 -1.6111155e-01
  1.4522978e-02
  3.2714691e-02
  3.8033819e-01
  8.3564751e-02
 -8.1097052e-02
  8.7366396e-01
 -1.4835747e-01
 -1.5439779e+00
 -5.8691133e-02
  9.1375500e-02
  2.8602956e-02
  1.0889013e-01
 -1.7337081e-01
 -3.9246181e-01
 -3.6880100e-01
 -7.0394233e-02
 -1.7650174e-01
  2.6981520e-02
  2.4419378e-02
 -6.5729775e-02
  1.3260099e-02
 -9.7599193e-02
 -1.5801403e-01
  1.5775712e-01
  2.6513332e-01
 -4.2879049e-02
 -5.7918862e-02
  8.7028340e-02
  2.9863584e-01
 -1.7494192e-04
  3.5278823e-02
 -1.9885691e-02
  2.7457684e-02
 -1.0586159e-01
 -2.7455522e-02
 -9.3057550e-02
 -1.1716036e-01
  1.1524887e+00
 -1.5863271e+00
  1.9172379e-01
 -6.6837376e-01
  1.8416521e-01
 -8.0002725e-01
 -1.0299385e+00
 -2.9069591e-01
 -2.8472373e-04
  1.6710365e-01
  3.7853935e-01
  1.1160760e+00
 -2.1231521e-02
 -1.5731798e-01
 -8.1632279e-02
 -1.0991489e+00
  9.4151580e-01
 -5.8011595e-02
  1.8916184e-01
 -7.1950197e-01
 -5.2987796e-01
  5.4904920e-01
 -5.5575514e-01
  2.9590034e-01
  5.7657397e-01
 -2.9397768e-01
  4.7036210e-01
 -4.3215796e-01
  7.7530253e-01
  6.4935446e-02
 -4.3896824e-02
  3.9543179e-01
  4.7040659e-01
  1.3694216e+00
  3.9046392e-01
  9.0779342e-02
  9.3455631e-01
 -5.9504122e-01
  4.9480575e-01
  2.6078817e-01
  1.5390860e-01
  8.2649007e-02
 -2.1188228e+00
  2.6459413e-02
  1.9693224e-01
 -1.1254185e-01
 -4.8477224e-01
 -5.2221380e-03
 -1.5278560e-01
 -3.6221968e-03
  4.5774510e-04
  2.2231141e-02
  6.3082047e-02
  1.3654079e-01
  9.1907853e-01
 -1.3414109e+00
  9.2993832e-01
 -2.0899631e-01
  9.5386618e-01
 -8.0480546e-02
 -6.7959899e-01
 -5.1522881e-01
 -2.4797294e-02
  1.1354034e-01
  1.1867587e-01
 -1.6754910e-01
  3.2675096e-01
  2.4331872e-01
 -2.1197081e-01
 -4.4015300e-02
  2.0205319e-01
 -5.5264843e-01
 -1.6866039e-01
  1.5243433e-02
 -2.1132667e-01
  2.0477512e-01
 -1.2659541e+00
  1.8644431e-01
 -4.1553941e-01
  1.4114830e-01
 -1.6589007e-01
 -5.4366010e-01
  3.5043019e-01
 -8.8247865e-02
 -7.1727968e-04
 -7.3639464e-01
 -2.4865650e-01
  3.3063000e-01
 -1.9880752e-01
  1.3652138e-01
 -4.4881988e-01
 -2.3781464e-01
 -1.9857270e-01
 -2.4238130e-01
  2.0313253e-01
 -2.4322346e-01
 -1.2468196e-01
  7.9206027e-02
  1.6215062e-02
 -2.4138220e-02
  2.0892305e-04
 -2.1836913e-01
 -7.5650603e-02
  1.0631641e-02
 -5.0465707e-02
  6.1319035e-02
  8.8571226e-03
 -4.2680256e-02
  2.3680680e-02
 -4.4988120e-01
 -2.3345938e-01
 -5.5328321e-02
  1.6307744e-01
 -4.2873728e-01
  8.8043600e-02
  2.1877015e-02
 -8.7074913e-02
  3.7217014e-02
  5.8432456e-02
 -8.8631183e-02
  4.9190488e-02
  1.4913672e-01
 -7.7262200e-02
  1.2452057e-02
  4.9192786e-02
 -9.2887752e-02
 -1.0789184e-01
 -1.5083972e-02
  4.7049761e-02
  3.0640587e-02
 -7.2492965e-02
 -7.6844737e-02
 -5.7323057e-02
 -2.7013072e-01
  4.4942219e-02
  5.1204544e-02
 -1.5207422e-02
  8.2725927e-02
  3.7750074e-01
  3.1780764e-02
  1.3079026e-01
  8.7667042e-03
  2.7178442e-02
  9.7252363e-03
  1.5995072e-01
  1.3008057e-03
 -3.7676528e-02
 -6.2245142e-02
 -1.3190827e-01
  6.6889763e-02
  4.6677232e-02
  5.5980716e-02
 -9.6985228e-02
  4.3805916e-02
  1.0544953e-01
  5.1687763e-04
  1.2989415e-02
  8.1742723e-03
  4.6454299e-02
  2.0688139e-02
 -1.1545571e-02
 -5.5101532e-02
  7.5911760e-02
  4.7801679e-01
  1.1483731e+00
 -1.0772730e+00
 -8.7620682e-01
 -9.7725987e-01
 -1.0458226e+00
 -1.0546017e-01
  5.2130222e-01
  2.8257549e-01
  4.1992617e-01
  8.2002115e-01
  7.1208739e-01
 -6.0138416e-01
 -7.1265203e-01
  4.8855782e-01
  6.3489419e-01
 -3.1280497e-01
 -4.9072596e-01
  8.5962951e-01
  1.0485059e+00
  1.2024264e+00
  7.3716259e-01
 -1.6635896e+00
  1.8991388e+00
  5.0692409e-01
  7.1449941e-01
 -2.8939104e-01
 -1.6387568e+00
  2.3433239e+00
  6.8802834e-01
  5.9293967e-01
  5.7773781e-01
 -3.4106901e-01
  2.4529532e-01
 -6.3688390e-02
  1.0418003e+00
  3.3014563e-01
  5.9991017e-02
  2.3120661e-01
  2.5316492e-01
 -8.0275357e-02
  1.5151607e-01
 -2.2078998e-01
  2.9681021e-01
  7.3573756e-01
  2.4917281e-01
  7.4447125e-02
 -1.4032836e-01
  5.4050460e-02
  8.3958313e-02
  5.1995129e-03
 -2.3430271e-02
  1.2257911e-01
  3.9025322e-02
 -2.5434427e-02
 -9.1231935e-02
 -5.8696038e-01
 -8.0501151e-01
 -3.0560768e-01
 -1.0001049e+00
 -1.0381230e+00
 -2.4046411e-01
 -8.5083686e-02
 -1.5431026e-01
 -6.9087163e-02
 -1.5450433e-01
  1.1141287e-01
  5.4884765e-02
 -1.3201353e-01
  1.3572954e-02
 -7.7939175e-02
 -1.5801331e-01
  8.1981093e-02
 -6.3241467e-02
  4.0042404e-02
 -3.3214819e-04
 -1.1423045e-01
  3.2149407e-01
 -1.8444994e-01
 -7.9828370e-01
  8.1570884e-03
 -2.0104681e-01
  8.9685887e-02
 -2.8180182e-01
 -1.7231916e-01
 -1.5764462e-02
 -6.8961725e-02
 -3.9953705e-02
 -1.0581955e-02
 -7.1894944e-02
 -1.0793872e-01
 -9.8117821e-02
 -1.0290379e-01
 -4.9840949e-02
  7.2365820e-02
  7.3547222e-02
 -7.8324161e-02
  8.3373167e-02
 -8.6230867e-02
 -3.0973470e-02
 -7.0973076e-02
 -1.0507294e-01
  8.5016631e-02
  3.8163420e-02
 -3.0930724e-02
  6.9568560e-02
 -3.6820356e-02
  1.8689629e-02
 -6.8184026e-02
 -8.4265783e-02
 -3.7154708e-02
 -1.2981569e+00
  5.9294993e-01
  1.0892872e+00
 -7.0546985e-02
 -3.0088386e-01
  4.9995056e-01
  7.1822965e-01
 -9.6224815e-01
 -2.4605678e-01
  9.5888264e-02
 -3.0943963e-01
  9.8911983e-01
 -1.1176581e-01
  1.0236102e-01
  1.7619063e-01
  7.4841961e-02
 -4.2137015e-01
  8.1055760e-01
  7.6158255e-01
  2.4579047e-01
 -6.2945008e-01
 -2.3646719e+00
 -2.2933399e-02
  3.4078369e-01
 -8.4289324e-01
  3.0272412e-01
  3.6454561e-01
  5.1132735e-02
 -3.3838543e-01
 -4.4750699e-01
 -6.6520020e-02
  1.7432313e-01
 -2.3339991e-01
  1.2901685e+00
  7.0705628e-01
  1.2668841e-01
  2.3971815e-01
  2.5099376e-01
  3.3198854e-01
  5.3294841e-02
  2.0523648e-01
  9.7199565e-01
 -5.5483526e-01
 -1.9509215e+00
  3.8662896e-01
  6.3853055e-02
 -1.5823688e-01
 -1.7057972e-01
 -2.5420610e-02
  2.2438432e-01
 -9.4183438e-02
 -1.7120424e-01
  7.1605141e-03
 -3.6521491e-02
  3.9388062e-03
 -5.3959006e-01
 -1.8622822e+00
  2.0280373e+00
  4.0916201e-02
 -7.6073128e-01
 -1.4087704e-01
  1.6061223e+00
 -1.1023844e+00
  1.4925888e-01
 -1.2128970e-01
 -4.4717684e-01
 -7.8688276e-01
 -6.0737646e-01
  4.4905782e-01
 -1.0836743e+00
 -2.1253835e-01
 -3.5445303e-01
 -7.1027607e-01
  2.7594665e-01
  4.5975578e-01
  5.2081764e-01
  1.1026936e-01
 -3.3411148e-01
  1.7441610e-01
  5.7250071e-01
  8.1296340e-02
 -1.7551628e+00
  7.8502856e-02
  4.2666277e-01
  8.0976093e-01
  2.5828296e-01
 -7.5326633e-01
 -7.7511352e-01
 -3.8215095e-01
  8.4636694e-01
  6.2028390e-01
 -8.5602023e-02
 -5.0502115e-01
 -1.0707672e-01
 -2.1600252e-01
 -1.4105313e-01
 -1.8822052e-01
 -6.7032382e-02
  2.6835429e-02
  4.0995085e-01
 -1.5595676e-01
  2.1935861e-01
 -3.7132496e-01
  8.5664280e-02
 -1.9447766e-01
  1.1317482e+00
  2.0808302e-02
 -8.4568247e-02
 -9.7261416e-03
  1.3102375e-01
  4.5928639e-01
 -6.6892731e-01
 -2.3846922e+00
  3.2997835e-01
 -1.2043675e+00
  5.0434190e-01
 -2.4676865e-01
  1.0400057e+00
  6.7808791e-03
  6.3803685e-01
 -5.0086979e-02
 -8.1518918e-01
  5.1518261e-01
 -8.3995068e-01
  1.7078933e-01
 -2.2751632e-01
  1.8251835e-01
 -1.4080106e+00
 -1.4165713e+00
  3.8364968e-01
 -1.8695723e+00
 -5.7016993e-01
 -7.8675252e-01
  5.7779001e-03
 -2.0275860e+00
  2.4942137e-01
  6.5352857e-01
 -7.8095067e-01
 -4.4978302e-02
  1.0299186e+00
  9.1544604e-01
  1.7888415e+00
 -4.5011586e-01
 -4.7540793e-01
  4.6359178e-01
  1.3765818e+00
  1.0741718e+00
 -1.6389902e-01
 -8.1245601e-01
  1.2262049e-01
  2.5308156e-01
 -2.6472373e-02
  4.2290786e-01
 -2.3006980e+00
  4.5456767e-01
  3.1772649e-01
  1.5607429e-02
 -3.2763690e-01
 -1.7270470e-01
  5.4840753e-03
  2.7931014e-02
 -2.8439506e-03
  2.4959008e-01
 -4.2758383e-02
 -3.9647333e-02
 -6.0334688e-01
  1.9207591e+00
  1.4060467e-02
  6.3010257e-01
  1.3758736e+00
  2.2017911e-01
  4.2578134e-01
 -6.2540120e-01
 -2.2226766e-01
 -4.7119775e-01
 -6.1727917e-01
  6.1407375e-01
 -6.3828003e-01
 -1.6992073e-01
 -2.4248263e-01
  1.4767596e-01
 -1.7772911e-01
 -2.3196493e-01
  2.3213337e-01
 -4.7909915e-01
  1.6075129e-02
  3.6705592e+00
 -8.6372530e-01
 -8.4585428e-02
 -1.5252609e+00
  2.6264438e-01
 -4.8174304e-01
 -4.2089316e-01
 -5.0502443e-01
 -4.9979866e-01
 -8.0825865e-01
  9.0725356e-01
 -1.6550931e-01
 -1.8832946e-01
 -8.7102735e-01
  1.0609722e+00
 -2.1544951e-01
 -2.4301948e-01
 -3.1221071e-01
 -1.3144131e-01
 -2.3049854e-01
  2.7477586e-01
 -6.5969914e-01
 -6.4578003e-01
 -8.7796189e-02
 -2.8547215e-01
  5.0605733e-02
  2.5889751e-01
  1.5578628e-02
  8.3979167e-02
  2.4397429e-02
 -6.9256067e-02
 -1.3810541e-01
  4.3895788e-02
  2.2650251e-02
 -1.5819746e+00
 -1.2499714e+00
  2.3409822e+00
 -5.9598416e-01
 -1.4811168e+00
 -1.2271991e-01
 -2.9314114e-02
  6.4022440e-01
 -8.1929632e-02
  2.4145653e-02
 -1.1118495e+00
 -1.5877153e-01
 -3.3431432e-01
 -4.9656028e-01
 -7.4285425e-02
  4.9334552e-02
  3.2724062e-01
  1.2704109e+00
 -4.8880994e-01
 -5.0347716e-01
  7.0126943e-02
  9.8920465e-02
  2.3537297e+00
  9.3186207e-02
  4.3674725e-01
  1.8430927e-01
 -4.0172827e-01
  4.2940459e-01
  2.5510722e-01
 -8.2672492e-02
 -8.5305655e-01
 -8.1649238e-01
  5.6618232e-02
  2.6583803e-01
  6.0980499e-02
 -3.9948955e-01
 -3.4044048e-01
  1.6886161e-01
  1.4589748e-01
  1.0510334e+00
 -2.5930780e-01
 -6.4610332e-01
 -2.6053201e-02
  6.6884899e-01
 -6.3977563e-01
 -8.8947383e-04
  6.2887281e-02
  9.2916980e-02
 -3.9949913e-02
 -4.3484308e-03
  3.0483253e-02
  2.3685720e-02
  4.4733462e-01
  6.1089173e-02
 -2.9379612e-02
  3.1736603e-01
 -3.1807548e-01
  4.1345656e-01
 -1.7894384e-01
  2.5879779e-01
  7.5996570e-02
 -2.4190910e-02
  8.5899621e-02
 -1.1108024e-02
  8.3445363e-02
 -1.2555647e-03
  5.3504787e-02
  4.6315957e-02
 -7.4503653e-02
 -5.2927360e-02
  3.1351589e-02
  3.4223255e-02
 -2.2531265e-02
 -5.0052322e-02
  3.4589618e-02
  3.8918748e-01
 -1.0204593e+00
 -8.5683309e-02
 -1.4306709e-01
  1.7313984e-01
  6.6492140e-02
 -1.8209246e-01
  1.1329117e+00
 -1.2359062e-01
 -7.1776636e-02
 -1.7660329e-04
  3.2028936e-02
 -1.6153687e-01
 -4.1901875e-02
 -1.3138116e-02
  1.0449158e-01
  4.0567182e-02
  2.3023359e-02
 -6.4311326e-02
 -9.1258436e-02
  1.0111374e-01
 -2.6789108e-02
  4.6990081e-03
 -6.4793266e-02
 -5.7761814e-02
  1.0110606e-01
 -5.2940927e-02
 -1.5790459e-02
  1.6083011e-02
  5.4655146e-02
  2.2175455e-02
 -4.2758831e-03
 -4.6832271e-02
  2.2413060e-02
  8.8083930e-02
 -4.1039628e-01
 -1.6874398e+00
 -2.1981003e+00
  1.8393620e+00
 -2.1274182e-01
 -6.0224396e-01
 -1.1761282e-01
  9.3452312e-02
 -1.0712081e-02
 -7.3954254e-01
  5.9316244e-02
 -4.9153587e-01
 -2.1170080e+00
  7.5573385e-02
 -5.3392011e-01
 -1.2008443e-01
  6.7240494e-01
  7.5837117e-01
  3.4484088e-01
 -2.4989544e-01
  1.2428533e+00
 -2.1330217e-01
 -1.1191998e+00
  9.2107195e-01
 -2.1085875e+00
 -2.1531421e-01
  9.8430729e-01
 -3.2398281e-01
  1.2909468e+00
 -1.8146515e+00
 -7.9212976e-01
 -1.6646092e+00
  1.6911043e+00
 -2.4595365e-01
 -2.2449304e-01
 -5.8312440e-01
  8.6846983e-01
 -2.2334050e-01
  2.5118658e-01
 -9.6515769e-01
 -2.7468628e-01
  1.2926468e-01
  2.4316023e-01
 -8.5256791e-01
 -1.0822755e+00
 -3.2972646e-01
  1.4664964e-01
  3.1767628e-01
  8.7218679e-02
 -1.7985452e-02
  7.5144835e-02
  5.3640711e-03
 -9.2606559e-02
 -7.8438465e-03
  4.9733676e-02
  1.2626220e-01
 -1.6044611e-01
  1.0344839e-01
  1.4918749e-01
  4.1638996e-02
  1.1849657e-01
  2.8783919e-02
  1.2060236e-01
 -4.3748282e-02
  1.0864894e-01
  6.1668012e-02
  9.2124507e-02
  5.9252068e-02
 -1.2404834e-03
  9.1654219e-02
  5.3488508e-02
  5.6770388e-02
  9.2590347e-02
  1.2103579e-02
  5.1468657e-03
  7.9098158e-02
  7.4048769e-01
  2.2518195e-01
 -7.3420599e-02
 -6.9364393e-01
  3.7590177e-03
 -2.5184917e-01
  6.6081882e-02
 -8.3567068e-02
 -1.2448150e-01
  8.6293835e-03
  2.1639653e-01
 -4.3019526e-02
 -1.3709080e-01
  1.1638713e-02
  1.8775943e-01
 -9.8639848e-03
 -3.0824985e-02
 -9.7181048e-04
  6.0991801e-02
  8.8308323e-03
  2.8090857e-02
  4.2805314e-02
  3.1471673e-02
 -8.9275530e-03
  3.7565965e-02
 -2.3290879e-01
  1.4906448e-02
  3.5013992e-02
 -5.5751961e-01
  4.7956672e-02
 -2.2298636e-02
  6.1770871e-02
  5.4179918e-02
  2.1683078e-02
 -1.1005521e+00
 -1.2031864e+00
 -6.5380341e-01
  5.8408695e-01
 -5.9273601e-01
 -6.6112596e-01
 -4.9704719e-01
 -2.0282058e-01
 -3.4248045e-01
 -4.7942141e-01
  2.9050365e-01
 -4.4050357e-01
 -9.7659677e-01
 -3.6297354e-01
 -4.7162330e-01
 -7.3946065e-01
  3.0714014e-01
  3.8140312e-01
 -7.4229991e-01
 -8.0605578e-01
 -1.0299472e+00
 -6.1373639e-01
 -9.7976220e-01
 -1.0482673e-01
  5.9406614e-01
 -7.6819277e-01
  7.7482796e-01
 -8.0123949e-01
 -8.3751619e-01
  3.4787368e-02
 -2.7785790e-01
  3.4524181e-01
 -5.7211590e-01
 -1.4194658e-01
 -3.3702117e-01
 -4.4197524e-01
  1.4761721e-01
  1.9533946e-01
 -6.2432361e-01
 -4.7187197e-01
 -8.7615743e-02
  2.1287501e-01
 -2.5845930e-01
 -9.2305589e-01
 -2.5917366e-01
 -7.9960704e-02
  1.5332223e-01
 -2.2674879e-01
 -2.6855594e-01
 -7.5151511e-02
  5.0096169e-02
 -2.9729608e-02
 -1.5403832e-01
 -6.2507130e-02
 -3.7575562e-02
 -7.8395295e-01
  1.9650971e+00
  8.1812747e-02
 -7.1895128e-01
 -3.8571870e-01
 -5.5882268e-02
  2.8666725e-02
 -1.7849596e-01
  3.2433844e-01
 -3.4836095e-02
 -1.3977802e+00
  1.4580183e-01
  3.9666429e-02
 -9.8241568e-01
  3.1482793e-02
 -2.0138606e-01
  3.3316296e-01
 -1.1080542e+00
 -1.9454392e+00
 -5.4570381e-02
 -5.0899160e-01
  8.4186429e-01
 -1.2503220e+00
 -1.3233478e+00
  1.9149926e-01
 -3.7479755e-01
 -1.6159348e-01
 -5.6915474e-01
 -1.3345536e+00
  1.8846557e-02
 -6.0688233e-01
 -4.2297173e-01
 -7.0896739e-01
 -7.2127134e-01
 -2.8770670e-01
 -9.1934013e-01
  1.9359049e-01
 -8.3221644e-01
 -8.1851560e-01
 -4.4105592e-01
 -3.7542918e-01
 -3.4434608e-01
 -2.3517971e-01
 -5.0582085e+00
 -2.6590031e-01
  7.2761722e-02
  1.5269492e-02
 -1.4807973e-02
 -2.9550728e-01
  4.6189362e-03
 -4.0335441e-03
  6.0860004e-02
  9.7579211e-03
  7.0990399e-02
 -4.8647329e-02
 -1.8700235e+00
  1.7390194e+00
  3.5967174e-01
 -1.1717793e+00
 -5.1679516e-01
  1.6708703e+00
  6.5902454e-01
  2.6622200e-01
  4.5902005e-01
  9.4486487e-01
  8.6153537e-02
  1.1794407e-01
  1.0434947e-01
  3.6275033e-02
  7.1749336e-01
  1.6797690e+00
  2.4789128e+00
  3.9061800e-01
  8.2099771e-01
  1.1535864e+00
  6.8300974e-01
  1.5483491e+00
  9.5304400e-01
  6.1068290e-01
  2.3835340e+00
  7.1514642e-01
  1.8617862e+00
  3.7387961e-01
  9.1551220e-01
  7.9363811e-01
  1.6102785e+00
 -3.9482358e-01
  2.3623755e+00
  1.3012412e-01
  1.5414543e+00
 -8.7905639e-01
  1.2283325e+00
 -2.2926456e-01
  1.1807789e+00
  5.3331232e-01
 -7.8390248e-02
  3.2423612e-01
 -1.1125426e-01
 -6.9058537e-02
 -4.0263388e-01
  3.5379496e-01
 -1.6452192e-01
 -4.9977899e-01
  4.7790810e-02
  1.0460147e-01
 -6.2947668e-02
  4.1550897e-02
  1.3890103e-01
  5.4541685e-02
  8.6315028e-02
  9.1417438e-01
  2.7884986e+00
  6.0525829e-01
  9.6707898e-01
 -2.9874110e-01
 -2.3598225e-01
  9.5453396e-02
  5.6928962e-02
 -4.6036676e-02
  2.1868646e-02
 -4.5307678e-01
 -1.7983191e-01
 -4.3284577e-01
 -4.9537136e-03
  2.1600563e-03
  8.4367543e-02
 -1.1547460e-01
 -7.8974053e-02
  9.9699432e-01
 -1.0725633e-01
 -6.0509163e-01
 -1.6762598e+00
 -4.8563242e-01
  3.1209412e-01
  6.2575454e-01
 -2.9767472e-01
  5.8155292e-01
 -1.1510521e+00
 -2.6403329e-01
 -5.0024575e-01
 -2.7945149e-01
 -7.6947170e-01
  1.7006280e-01
  2.0500486e-01
 -2.1017857e-01
 -6.3495302e-01
 -3.9018327e-01
 -3.6414486e-01
  1.4771321e-01
 -1.8128464e-01
 -1.1868823e-01
  4.8146680e-02
  3.1790680e-01
  2.8360367e-01
 -9.9496758e-03
 -1.0316929e-01
  1.7190166e-02
 -4.2528367e-01
 -4.2221356e-02
  5.2032787e-02
 -9.4093019e-03
  9.1137746e-03
  2.4094861e-02
  2.5437690e-02
  7.8156620e-02
 -2.3743652e-01
  1.5180271e+00
  2.5065291e-01
  2.0614517e+00
  1.8123322e+00
 -4.9206683e-01
 -5.7122511e-01
  4.1988827e-02
  2.5952584e-01
 -4.2469389e-04
  5.3162514e-03
 -6.5093827e-01
 -3.1244731e-01
 -5.6091756e-01
 -3.2132402e-01
 -9.8834343e-02
  9.0122879e-01
 -1.2237967e+00
 -2.2824253e-01
 -9.0449768e-01
 -1.2356036e+00
 -2.4968586e+00
 -3.0829099e-01
  4.5233417e-01
 -2.5083819e-01
 -5.4265660e-01
 -8.1009829e-01
 -9.2098105e-01
  1.6333323e+00
  4.5938842e-04
 -4.8261303e-01
 -9.4838643e-01
  3.1113622e-01
  5.0444597e-01
  1.1583763e-01
 -3.7524489e-01
  5.5465871e-01
 -1.3528484e-01
  6.9761032e-01
 -2.2902279e+00
  1.8390660e-01
 -7.8634870e-01
  3.8797367e-01
 -1.8940166e-02
 -2.6513141e-01
 -1.8896192e-01
  2.0992485e-01
  7.5108282e-02
 -5.5393670e-02
  6.0375579e-02
 -1.1420010e-02
 -9.9822089e-02
 -1.3222334e-01
 -1.5442630e-02
 -2.6923325e-03
  6.2904638e-01
 -2.2274606e+00
  4.8207194e-01
 -4.3648750e-01
  2.0071664e+00
  1.7924264e-01
  3.0289009e-01
  2.3472455e-01
 -1.0886703e-01
 -4.4794977e-02
 -1.3186842e-01
 -3.9663855e-02
 -5.6316656e-01
 -1.5594493e-01
  1.4570384e-01
 -4.4153413e-01
  4.6050131e-01
  1.5393156e-01
 -1.0125012e-01
 -2.2893350e-01
  9.7149096e-02
 -1.0831277e+00
 -3.4889033e-01
  1.1638376e-03
 -2.8718686e-01
  2.3199195e-01
 -6.1290288e-01
  1.7673410e-01
 -2.9721865e-01
 -6.0585606e-01
 -3.4826849e-02
  7.6259035e-01
 -6.6357337e-02
 -7.2193660e-02
 -9.0348107e-01
  4.9560051e-03
 -2.0530044e-01
 -9.6856974e-02
 -1.2300500e-01
 -3.0129015e-02
  8.8258646e-02
 -2.7661535e-01
 -1.1341628e-01
  3.6285672e-02
 -3.0211965e-02
 -1.5257055e-02
 -6.2156182e-02
  8.5356340e-02
 -1.9444533e-02
  3.6442094e-02
 -4.4006500e-02
 -1.4189777e-01
  4.4920757e-02
  7.3856719e-02
 -2.1364044e-02
  1.3896253e-02
  4.2494678e-01
 -2.5680497e-01
 -1.5806636e-01
 -1.3333972e+00
  8.3184682e-02
 -2.9067190e-02
 -2.2826937e-01
 -6.9808878e-02
  1.4215510e-01
  4.6129458e-02
 -1.4175346e-01
  5.2891654e-01
 -6.2269613e-02
 -5.5933435e-02
  6.7230910e-02
 -4.2454264e-01
 -3.9762739e-02
 -1.5971527e-01
 -1.4595300e-01
  2.2256756e-01
 -2.1261510e-01
  2.7404532e-01
 -9.6822508e-02
  1.5931364e-02
  2.4750444e-01
  4.4107404e-02
 -4.9198803e-02
  6.8565898e-02
  5.0779987e-02
  1.3949645e-01
 -4.6949662e-02
  2.6711633e-02
  1.6678020e-01
  1.8579477e-01
  3.4440824e-01
 -2.6321902e-03
  2.5459495e-01
 -1.2336850e-01
  1.1385828e-01
  2.0071048e-01
 -1.3920078e-01
 -5.7512738e-02
 -7.6768227e-02
  1.4993988e-01
  1.0473582e-01
  3.2293595e-02
 -3.0539933e-01
 -5.3182799e-02
 -6.0666300e-02
 -4.2722519e-02
  4.8036058e-03
 -3.6259472e-02
  6.8476126e-02
 -1.2993827e-02
  2.6871702e-01
  5.0361980e-02
 -3.2410905e-01
  3.2553589e-01
 -4.7307467e-01
  1.1618272e-01
 -8.8486932e-02
  7.5149924e-01
  6.3615113e-02
  8.1401303e-02
 -9.2957437e-02
 -2.4965579e-02
  1.6182783e-01
 -2.1698415e-02
  3.7914600e-02
  7.2401628e-02
  2.6938161e-03
 -6.4185530e-02
  2.4313748e-02
  6.1602224e-02
  1.1784361e-01
  2.5419471e-01
 -2.6348913e-02
 -1.5100121e-01
 -1.5003783e-01
  1.6494630e-01
 -2.7447146e-01
 -4.1906936e-03
  2.4170866e-02
 -5.3148583e-02
  1.1727492e-01
 -1.7286735e-02
 -3.8459666e-02
  2.7397785e-02
 -2.6870118e-02
  1.3604023e-01
  9.9847563e-02
  1.3684037e-02
 -6.6864133e-02
  1.1746964e-01
  1.0077556e-01
 -9.1504939e-02
  7.7664778e-02
 -7.9389133e-02
  1.5629804e-01
  3.5506943e-03
  6.5215170e-02
  4.0570602e-02
  8.9008003e-02
  5.6104274e-03
  4.3314420e-02
  1.9312929e-02
  4.3389026e-02
  4.6231713e-02
 -6.1143555e-02
 -1.2815404e+00
 -2.3649570e-02
 -2.6732076e-02
 -4.1099358e-02
 -1.0913870e-01
  2.5331742e-01
 -2.2474814e-02
  6.8510198e-03
  4.8476398e-02
 -1.7888376e-02
 -1.9000785e-01
 -1.3011308e-02
  1.4539844e-01
  3.5541590e-02
 -8.0588693e-03
  6.8724327e-02
  5.0326869e-02
  3.3668678e-02
  4.2383827e-02
 -1.8173615e-02
 -9.5389538e-02
  1.2003683e-01
 -5.4098740e-03
  1.1874527e-01
 -1.2734278e-01
 -5.7051394e-02
  1.8507849e-01
  6.3490546e-03
 -1.5429208e-02
 -2.7955841e-02
 -1.1205825e-02
 -5.5959009e-02
 -6.1494924e-02
  7.6474376e-02
  8.0662161e-02
  2.0446086e-02
  8.2582505e-03
 -4.8321113e-02
 -9.1621034e-02
 -3.5227006e-03
  2.4280289e-02
  4.1833493e-01
  1.1340532e-02
 -3.4278401e-03
 -8.6231031e-02
  2.5276687e-02
  5.3770777e-02
 -2.0848207e-02
  8.0403332e-03
  2.5465624e-02
  5.9393393e-03
  1.1187551e+00
  3.3465207e-02
 -8.6222343e-02
 -1.3730953e-02
 -1.1767139e-01
 -2.1959832e+00
 -2.1781178e+00
 -9.5256710e-01
 -5.5229920e-01
  3.6435831e-01
  2.7623811e-01
 -2.2977021e-01
 -2.7502295e-01
 -2.4692681e-01
  1.3223585e-01
  4.4931108e-01
 -2.8617480e-01
  6.0689647e-02
  1.3067456e-01
 -9.7603016e-02
  1.2369640e+00
  1.1801978e+00
  2.9581645e-01
  2.3358595e-01
 -6.5310799e-02
  2.6691504e+00
 -4.5206052e-01
 -1.9173582e-01
  6.3378519e-01
  3.0846658e-01
  7.3148072e-01
  4.0996918e-01
 -2.9227367e-01
  3.0349386e-01
  1.0323702e-01
  1.2517396e+00
 -3.9616331e-01
 -7.6555140e-02
  2.3754753e-02
  2.7843183e-01
  4.1190269e-03
  3.8288906e-01
 -1.3810551e-01
 -2.5684786e-01
  8.4466189e-02
  9.4013238e-01
 -3.3018595e-01
 -3.3109647e-01
  2.9334247e-03
  6.5079294e-02
 -6.1205920e-02
 -1.6713537e-01
  4.7645769e-03
  2.8221866e-03
 -2.6330503e-02
  5.3896513e-02
  3.2468520e-02
  1.0755222e-01
  3.7850015e-02
 -1.8032213e-01
  2.3526877e-01
  1.3007565e-01
  2.7333859e-02
  3.0553181e-02
 -8.5420437e-02
 -2.5256163e-02
 -3.8344640e-02
  2.8605593e-02
 -1.4170459e-01
 -5.0012073e-03
 -3.6830527e-03
  7.6944666e-04
  4.6240106e-02
  1.4347385e-03
 -1.5650373e-02
  1.0394844e-01
 -8.3684111e-01
  1.8673802e-02
 -2.1441873e-02
 -6.2884726e-02
  7.5903669e-02
 -2.8615952e-02
  1.0176795e-01
  7.4830008e-01
 -5.0623745e-02
  1.1819011e-01
 -6.3431442e-02
  1.3506881e-02
 -1.9391415e-01
 -1.9431116e-02
 -1.0021549e-01
  1.4111638e-02
 -1.2638396e-02
  3.7126556e-01
 -6.4245351e-02
  9.1639362e-02
  3.1593454e-01
  3.9275840e-02
  5.3785857e-02
  6.5334201e-02
 -1.1199943e-02
 -8.0178902e-02
  3.7902247e-02
  6.7232929e-02
 -4.0193155e-02
 -2.8970862e-02
  2.1781689e-02
 -1.0072195e-01
  6.3277602e-02
 -1.0483637e-02
 -8.2476515e-01
 -3.7861414e-02
  2.3727855e-02
 -6.3269943e-02
  6.4441967e-01
  3.4464002e-01
  8.3951630e-02
 -2.5530267e-01
 -1.3243356e+00
  1.1539753e-01
 -3.9142025e-01
 -1.5681119e-01
 -3.8448889e-03
  2.6268202e-01
  2.2172666e-01
 -3.2256526e-01
  1.0034675e-01
 -2.1827917e-01
  1.6430683e-01
 -1.8471541e-03
 -2.7496156e-01
 -1.1561101e-01
 -2.9032999e-01
 -8.2483469e-03
  2.8831580e-01
  3.8234833e-01
  2.1284905e-01
 -8.4961280e-02
  1.5022065e-02
  2.0855097e-01
 -2.7419856e-01
  1.5200089e-01
  1.1414164e-01
  1.1376102e-01
  1.6928960e-01
 -1.0484733e-01
  4.2298539e-03
  6.3196272e-02
  2.1838889e-02
  2.8278515e-01
 -4.4556554e-02
  1.9018394e-01
 -2.5290179e-01
 -1.3769286e-02
  9.7033583e-02
 -1.9264959e-01
  2.8735286e-01
  3.8521188e-01
  5.5766251e-02
  6.5807514e-02
  4.7336914e-02
 -1.8069088e-01
 -6.5958440e-02
  1.5793154e-02
  2.8628713e-02
 -9.4929948e-02
  1.8576177e-02
  1.4744540e-01
  2.5993718e-02
  1.3070651e+00
 -2.2555611e+00
  1.1038520e+00
 -4.1423547e-01
  3.6976359e+00
 -1.1166426e-01
 -5.0926811e-01
 -3.8366938e-01
  1.0217868e-01
 -2.1932285e-01
  1.4220747e-01
 -4.0538183e-01
 -2.9661447e-01
  4.1438499e-01
 -1.8304352e-01
  1.0597949e-01
 -1.0503864e+00
 -5.4530698e-01
  7.3806822e-02
 -3.2294080e-01
  6.3609652e-02
 -4.6260545e-01
 -7.3588979e-01
  4.6480477e-01
 -3.8590440e-01
  1.7788553e-01
 -7.9525107e-01
 -8.3428782e-01
  3.1331468e-01
 -4.6644419e-01
 -3.9654709e-02
 -7.9284149e-01
 -2.8628346e-01
  1.7281330e-01
 -6.3090509e-01
  6.0835097e-02
 -4.7868976e-01
 -4.6075669e-01
 -8.0313019e-02
 -3.7241852e-01
  1.3672388e-01
 -3.3724090e-01
 -1.1929015e-01
  2.5181776e-01
 -1.3038607e-01
  4.0306594e-02
 -4.4093311e-02
 -1.1139056e-01
 -1.8563928e-02
 -3.4283739e-02
  8.2745023e-02
  8.8306747e-02
 -3.2475717e-02
  1.1079255e-02
  3.1930909e-02
  5.3991437e-01
 -3.1909761e-01
 -5.2132938e-02
 -1.3759658e-01
  8.3240084e-03
  1.7282064e-01
 -7.0990704e-02
 -2.9409006e-01
 -3.9518621e-02
  2.9857721e-02
  2.4859283e-02
 -2.5666969e-02
 -5.0815092e-03
  8.9949826e-03
  1.1081895e-02
  5.4777879e-01
 -6.9496311e-02
  9.9741824e-02
 -2.2641614e-02
  1.3856296e-01
  1.1547004e-02
  3.6814937e-01
 -1.4644444e-01
  1.8545096e-01
 -4.2831395e-02
 -3.3103708e-02
  8.7508567e-02
  1.2528353e-03
  2.4122629e-02
 -1.3440565e-02
 -1.0664288e+00
  5.0969642e-02
 -7.1836248e-02
  5.2152723e-01
  7.7768732e-03
  1.1784532e-01
 -1.1604309e-01
  5.8072604e-02
 -8.5214400e-01
  4.9257886e-02
  1.8709302e-01
 -2.2909181e-02
 -2.7416730e-03
 -1.0672744e-01
  1.7872846e-02
  6.7524008e-02
  2.9189115e-02
 -1.1996034e-01
  4.4572402e-02
  2.7275644e-02
  1.1746014e-02
  1.5997935e-02
  1.4957781e-01
 -5.7200450e-03
 -1.1475334e-01
  6.3695288e-01
  1.1345104e+00
  5.5164802e-01
  2.0169751e-01
  1.0293025e-01
  1.3436897e+00
  1.1077640e-01
 -3.6797104e-03
  1.0978729e-01
  1.1177606e-01
 -2.6690847e-01
 -1.3330030e-01
 -1.1793866e-01
  1.3043331e-01
  3.5389915e+00
  1.0299712e-01
 -6.2678263e-02
 -8.4884331e-02
  3.1560365e-02
 -5.4120608e-02
 -2.0581581e-01
  7.1135052e-02
 -2.8101152e-01
  8.4073715e-02
  1.1810582e-02
 -2.6133478e-02
 -2.0195666e-01
 -1.2998979e-01
  1.1670855e-01
  1.0355866e-01
 -1.0644539e-01
 -8.6669073e-02
  1.3422577e-01
  1.2471896e-01
 -1.1454546e-01
 -3.1498143e-01
  5.4357793e-02
  9.3196612e-04
  1.1115920e-01
  1.0305324e-01
 -1.5806009e-01
 -3.8336527e-02
  3.1984431e-01
 -3.1778447e-02
 -3.6462799e-01
 -1.2053436e-01
  6.1892644e-02
  8.4781289e-02
 -3.1686321e-02
  8.2250513e-02
 -8.9699607e-03
 -1.8828157e-02
  1.5984367e-01
 -2.1799121e-02
 -8.5001253e-02
  5.1174873e-01
  2.7289693e+00
 -3.3865848e-01
 -9.8549314e-02
 -3.0590677e-01
  2.6114674e-03
 -1.8397564e-01
 -1.6779871e-01
  8.5235216e-02
 -1.1014765e-01
  3.1885397e-01
 -1.4800364e-01
 -1.8276553e+00
  1.3103388e-01
  8.2478084e-02
  3.1780815e-03
 -1.4945358e-01
  1.1101387e-01
  2.7212629e-02
  7.4999616e-03
  4.1159098e-03
 -3.8542874e-02
  2.6668204e-02
  7.5946912e-02
  2.2514686e-02
  3.0456308e-02
 -1.9662686e-02
 -2.1080272e-01
  3.6602110e-02
  1.2408065e-01
  1.4058396e-01
 -1.3766736e-01
  8.7013461e-02
  8.1207037e-02
 -1.6068915e-02
  1.6431239e-01
 -1.2133101e-01
 -9.5607392e-02
 -1.3372251e-01
 -6.1577778e-02
  1.2332171e-01
  1.4098436e-01
 -2.2030099e-04
 -5.3982642e-02
  1.2035834e-02
 -6.0675338e-02
  2.7810693e-02
 -1.4378721e-01
 -8.2339738e-03
 -1.0412458e-01
  2.3485415e-02
 -4.7267836e-02
 -2.1863913e-02
  3.4890261e-02
 -5.2385595e-02
  6.3389438e-01
  3.0006931e+00
  6.1296433e-01
 -1.5288574e+00
 -1.5925657e+00
  1.8331718e-01
  7.2492570e-01
  1.8999776e-01
 -2.1684952e-02
 -1.4155699e-03
 -5.0383830e-01
  1.3171420e+00
  6.4157206e-01
  5.0552856e-02
  2.0975524e-01
  3.4202930e-01
  9.1728216e-01
  5.4040498e-01
  6.1996073e-01
  2.7115425e-01
  6.8779322e-03
  2.5863545e+00
  4.0661663e-01
  2.0045182e-01
  3.2291242e-01
  2.1924011e-03
  5.9725457e-01
  4.2397410e-01
 -8.3442956e-02
  5.5765712e-01
 -7.9779387e-02
  7.9040456e-01
  1.0771083e-01
 -1.2981020e-01
  5.7205987e-01
 -2.4480364e-01
  2.3346713e-01
  8.7259449e-02
 -1.1492420e-01
  8.4215993e-01
 -2.0823111e-01
  4.5554334e-01
 -7.0144683e-02
  1.0983015e-01
  1.2729083e-01
  1.0234532e-01
 -8.9195371e-02
  2.6501262e-01
  1.1571710e-02
  3.9709728e-02
 -3.7801188e-01
 -5.0828535e-02
  5.3525034e-02
  2.7464692e-02
  1.0325386e-01
 -2.4198020e-01
  1.1359756e+00
 -7.6350123e-02
  1.0737980e-02
 -1.4833283e+00
 -1.3966328e-01
 -8.9059640e-03
  3.7192922e-02
  1.9422332e-02
 -1.2474018e-01
 -3.3605170e-02
  9.1253199e-02
 -1.1663696e-01
  9.1668405e-02
 -1.0528632e-02
 -1.2613581e-01
  6.7523964e-02
  8.6010963e-02
  5.7912119e-02
 -1.7538062e-01
 -1.7544217e-01
 -7.2375839e-03
 -7.4712962e-02
  2.1048132e-01
 -4.4129261e-01
  2.6454380e-02
 -2.6869496e-02
 -3.3641417e-02
 -1.3105172e-01
 -1.5889354e-01
 -2.2808777e-01
 -1.4620544e-01
  1.2153690e-01
  3.5871174e-02
 -2.1295726e-01
 -1.6479339e-01
  1.9307791e-01
  4.6368998e-01
  5.0343160e-02
 -5.8121271e-02
 -4.6648022e-02
  1.5251723e-01
  5.6973420e-02
 -1.4454982e-02
 -1.9682115e-01
 -3.2344248e-02
  3.3784233e-02
 -3.9145771e-02
 -7.1860140e-04
  6.5180510e-02
 -3.5341471e-02
  2.2170050e-02
 -1.4523156e-01
 -6.5232337e-02
  8.7857299e-02
 -3.4382243e-02
  1.0098372e-01
 -2.3313747e-01
  1.0175876e-01
 -4.7435310e-02
 -8.5175440e-02
  7.4498221e-02
 -3.1296410e-02
 -3.1841032e-02
 -1.1203937e-01
 -7.3857945e-03
  4.4241078e-02
 -4.5673985e-02
  2.4753414e-02
  7.2455965e-02
 -8.3265185e-02
  8.1586661e-03
 -2.6724669e-03
 -4.6572257e-03
 -4.5106191e-02
 -5.2329078e-02
 -3.4901574e-02
  1.1345291e-01
  3.0466235e-01
  1.0962309e-01
 -1.2474079e-01
 -1.1015535e-01
 -3.3696737e-02
 -8.3840095e-02
  5.3816918e-02
  4.1273069e-02
  1.1466666e-01
  2.0401597e-02
 -4.5730684e-02
 -7.7960290e-02
 -5.2144563e-01
 -1.5552725e-02
  2.4349092e-02
  4.1728400e-02
 -9.9904932e-02
 -6.3532196e-02
 -4.7973949e-02
 -2.2582674e-02
 -2.2053600e-03
 -9.5692612e-03
 -4.2856904e-03
  3.8329963e-02
  3.1929214e-02
 -5.6866026e-01
  1.8622546e-02
  3.2674351e-03
 -4.9540438e-02
 -4.2893734e-02
  1.3688466e-02
  1.6722223e-02
  5.8191162e-01
  4.4359607e-01
 -7.2921669e-01
  2.8112054e-01
  2.9252398e+00
  5.8861065e-01
  4.1092396e-01
  3.2274345e-01
  6.2490427e-01
  6.1461365e-01
  1.5703383e-01
 -1.3513578e-01
  7.0488858e-01
  4.5075440e+00
  4.1363630e-01
  9.2048770e-01
 -1.3627305e+00
  1.2047458e+00
  1.2355460e+00
  6.3664925e-01
  4.9801812e-01
  1.4171313e-01
  1.4969172e+00
  9.3824041e-01
  1.7162134e-01
  1.0140600e+00
 -1.6299649e-01
  3.2179916e-01
  2.0292373e+00
  6.9284952e-01
  7.0573783e-01
 -7.7755731e-01
  4.0007195e-01
  2.7501366e-01
  6.9462174e-01
  7.3827881e-01
  3.4873463e-02
  1.6081290e-01
  6.3951951e-01
  1.8265919e-01
  3.0910897e-01
 -4.6139181e-01
  2.3008205e-01
 -1.6232687e-01
  8.7066852e-02
 -1.1916937e-02
 -5.4997195e-02
  1.4385866e-01
  2.2612338e-01
  2.6786022e-02
  4.1801702e-02
  1.6208148e-01
  6.6739082e-02
  7.4632667e-02
  4.3634050e-02
  2.8841362e+00
 -1.9326385e+00
 -3.6917920e+00
 -1.8117069e+00
  1.9607481e+00
  1.0370972e+00
  3.7943247e-01
  2.0058419e-01
  1.1930594e-01
  1.3443801e-01
 -3.6627150e-01
 -2.8364131e-01
  6.9513094e-01
 -1.1173294e-01
 -1.6441475e-01
  7.8964412e-01
 -2.4199468e-01
  4.5684393e-02
 -3.2705206e-01
 -2.1144834e-01
  5.1614034e-01
 -2.2376897e+00
 -1.1162877e+00
 -8.2173073e-01
 -4.3193138e-01
  1.4358411e+00
 -5.3523934e-01
 -6.2229818e-01
 -1.2338740e+00
 -9.7012258e-01
  6.6652423e-01
  1.8817301e+00
 -6.4494753e-01
 -5.8549756e-01
 -1.9573979e+00
  7.3387462e-01
  5.4581183e-01
 -2.3941685e-01
  1.3447307e-02
 -1.8306094e-01
  6.2643223e-02
 -1.1232650e-01
 -1.6119802e-02
  7.9645032e-01
  3.9530404e-02
  1.2886100e-01
 -2.4293631e-01
  1.2537841e-01
  9.2266999e-02
  7.9296902e-02
  5.8258865e-03
  1.2287947e-01
  3.6548600e-02
  2.4247125e-02
 -1.1373849e-02
 -3.6099820e+00
 -2.0498035e+00
 -1.3136667e+00
 -7.0914799e-01
 -8.0390722e-01
 -2.9202884e-01
 -7.1025915e-02
  1.1858667e+00
 -1.7952833e-02
 -8.2959461e-01
  7.8541350e-01
 -2.9986007e-03
 -1.0882808e+00
 -2.3149136e-02
 -5.0926524e-01
 -2.5333121e-01
  7.4551016e-01
  6.2551552e-01
  7.4939921e-02
 -1.1983542e+00
  7.7905986e-03
  9.9600333e-01
  4.3207234e-01
  5.0567675e-02
 -2.9963189e-01
 -1.5279655e-01
  8.4244698e-01
 -1.6974699e-01
  1.3168135e+00
  3.8296157e-01
 -9.3888626e-02
  1.1242714e+00
  6.6206627e-02
 -1.3018198e-01
 -3.1397071e-01
 -1.2143095e-01
  4.7308639e-01
  5.0798500e-01
 -2.3771751e-01
 -3.0776465e-01
 -2.1875858e-01
  4.6094394e-01
 -2.7694231e-01
 -1.7678459e-01
 -5.9453988e-01
 -1.6910724e-01
  1.5600707e-01
  8.7337248e-02
  5.3332299e-02
  9.8926716e-02
  3.1523973e-02
  6.0738936e-02
 -7.1668603e-02
 -3.9849132e-02
  1.0730015e-02
  8.5137028e-01
  1.3094904e+00
  7.2970343e-01
 -2.5615091e+00
 -1.3000985e+00
  4.9460146e-01
  4.1224620e-01
  7.9393542e-01
  2.7392381e-01
  5.0163198e-01
 -1.4476691e-02
  1.3379450e-01
  6.2976366e-01
  4.7278687e-01
  7.1537364e-01
  6.3605964e-01
  3.0621061e-01
  1.7579374e+00
  6.3508874e-01
  8.7557882e-01
  2.3478827e-01
 -4.1005981e-01
  5.1671678e-01
  9.3358982e-01
  7.9438686e-01
  2.7365613e-01
  3.0333057e-01
  5.9668821e-01
  7.2888702e-01
  2.4972987e-01
  5.6977391e-01
 -2.2570938e-01
  6.2851250e-01
  5.2857548e-01
 -3.4714806e-01
  1.2956744e-01
  4.8414567e-01
  3.6393803e-01
 -2.5527400e-03
  1.0493429e+00
  1.7600800e-01
 -1.5073476e-02
  4.0667149e-01
  3.5876101e-01
  5.0259754e-02
  5.4416876e-02
 -1.5294042e-01
  3.6667567e-01
  2.0615272e-01
 -2.4629340e-02
  9.0768911e-02
  3.7379727e-02
  1.4433563e-01
 -6.9080507e-03
 -1.2621698e-02
 -1.4608284e+00
 -7.0723248e-01
 -9.1818899e-01
  7.6590073e-01
 -5.4127187e-01
 -6.9569379e-02
  2.3297827e-01
 -4.3257159e-01
  9.4464771e-02
 -8.5551232e-02
 -6.1413264e-01
  8.2050091e-01
  2.7523348e-01
  2.0622672e-01
 -3.9653935e-02
 -1.1960045e+00
  6.8352940e-03
 -2.0562305e-01
  5.6259364e-01
  2.4784781e-01
 -4.8215383e-01
 -4.6279666e-01
 -3.4176767e-01
  2.3541838e-01
 -6.2848970e-02
 -1.3381393e-01
  7.9607677e-01
  1.0782027e+00
  8.6277825e-01
  1.8869482e-01
 -5.9778017e-01
 -2.9546300e-01
  2.8743511e-01
  1.1869044e-01
  4.6395934e-01
 -2.2521064e-02
 -2.6264030e-03
 -4.5696687e-02
  7.0559657e-01
  6.5357083e-01
 -9.0365805e-02
  2.2745386e-01
 -2.4307404e-02
 -1.7492093e-01
 -3.9864790e-01
 -1.5155244e-01
  3.1882782e-02
 -1.7064903e-02
  4.7738101e-02
 -1.3529216e-01
  6.5427864e-01
  6.1979718e-03
 -5.0337512e-02
 -2.2124209e-01
  6.9694586e-02
 -5.5623668e-01
 -1.0080994e+00
 -9.0369850e-01
 -2.0862494e-01
 -1.5476090e-01
  1.2609777e-01
 -2.5748423e-01
  3.7050816e-01
  1.2362917e-01
  5.8004606e-01
  8.5203871e-02
 -6.3318539e-01
  5.3037572e-01
 -1.0015088e-01
  7.9258628e-02
  2.9283976e-02
 -3.1614801e-01
 -9.0865934e-01
 -2.7826825e-01
  6.6515297e-02
  2.0962979e-01
  1.8953860e+00
  1.7798164e-01
 -2.4777734e-01
  8.6812556e-01
  4.3560192e-02
  3.1335957e-02
 -5.5897608e-02
  1.9554883e-01
 -8.5611098e-02
 -2.8779645e+00
  3.1303164e-01
 -9.0476461e-03
 -9.7790342e-03
 -4.2628251e-02
  2.7976909e-01
  2.5038311e-01
 -1.1710107e-01
 -3.3093952e-02
  1.7423995e-01
  5.7119556e-02
 -6.0369122e-01
  3.7449294e-01
 -1.9926733e-01
 -4.2790290e-02
 -4.7270793e-02
 -9.2704922e-02
 -2.8686938e-01
  3.5517663e-03
 -9.2840493e-02
 -8.3303414e-02
 -7.1951419e-02
  9.5613621e-02
  2.6812304e-02
 -6.6746607e-02
 -2.3950772e-01
 -1.2657456e-01
 -1.6054623e-02
 -6.5481469e-02
  3.9747223e-01
  8.9006528e-02
  1.7994234e-02
  4.0564846e-04
 -1.6228918e-02
  1.8454332e-02
 -2.6005942e-03
  2.3535090e-02
  1.1377822e-01
  7.5064331e-02
  1.0798161e-01
 -1.9887863e-02
 -3.6870185e-01
 -7.4586235e-02
 -4.3194477e-02
 -1.2871393e-02
  2.4361027e-02
  2.4472611e-01
 -2.3908464e-02
  5.2107695e-02
  4.6487950e-02
 -1.8095631e-02
 -1.1153741e+00
 -2.1846853e-02
 -1.1040244e-02
 -8.8894321e-03
  6.1951742e-02
  9.1902949e-02
  2.6040651e-02
  1.6850237e-03
  4.6968712e-03
  4.1060504e-02
 -1.2112062e-01
 -3.3762313e-02
 -4.0029529e-02
  6.7195985e-03
  5.8087703e-02
 -2.0411350e-02
  6.0728133e-02
  3.2475576e-02
 -7.1591106e-03
  1.3443423e-02
 -3.8531199e-02
 -1.0758503e-01
  5.7864808e-02
  2.1931116e-02
 -2.5108546e-02
  4.9799949e-02
 -1.3682355e-02
 -4.3714926e-02
 -1.2554309e-02
 -2.0164020e-01
  4.2717565e-02
 -1.6744886e-02
  1.1801689e-02
  6.2407561e-02
 -8.1965365e-02
 -1.7136939e-02
 -1.0072979e-01
  8.9952431e-04
  2.6613086e-02
  2.4803845e-02
 -1.1599522e-02
 -4.6644635e-02
  8.2132615e-02
 -6.3926451e-02
  3.0948546e-02
  4.6519754e-03
 -1.5999466e-01
  3.2305025e-02
  8.2967006e-02
 -9.4323188e-02
  9.6660599e-02
  7.8612864e-03
  3.8280930e-02
  3.8807638e-02
  1.0657438e+00
  4.5673411e-02
  3.5194349e-02
  7.6832443e-02
 -5.4232992e-04
 -5.8243979e-02
 -1.4050379e-01
  1.0542420e-01
  7.2659001e-02
  6.0243558e-02
 -7.2887406e-02
  1.0183455e-01
 -4.0546969e-02
  3.7232310e-02
 -1.1393329e-01
 -5.2397516e-02
 -3.6633126e-02
 -7.7485978e-03
 -3.7630551e-02
 -4.0209852e-02
  1.1144450e-01
  7.5077184e-02
 -3.8505580e-02
  2.9833088e-02
 -2.8698184e-02
 -1.4939731e-02
 -5.8097754e-02
 -5.8989756e-02
  1.9175096e-01
 -2.6523545e-02
  7.4404567e-02
 -1.8267776e-01
 -8.1859928e-01
  4.7732535e-01
 -2.3089291e-01
 -1.0724182e-01
  4.8665974e-01
  7.0439495e-02
  6.6536903e-02
 -2.1940520e-01
  3.3509590e-02
  6.9484942e-02
  7.5102830e-03
  1.9611216e-01
  7.8823484e-02
 -1.0956804e-01
  4.9180511e-01
  4.0681300e-01
  8.2074231e-01
 -1.7332262e-01
  1.3027868e-01
 -4.4481295e-01
 -1.3591209e-01
  4.7788680e-01
  1.3508289e+00
 -4.0164924e-01
 -1.2169729e-01
  8.8725734e-01
 -2.1396534e-01
  4.4875182e-02
 -1.4434585e-01
 -4.4755399e-02
  2.5233316e-01
  1.5262806e-01
 -6.3963336e-01
 -5.7924592e-01
 -2.4404807e-01
  3.5744774e-01
  6.8351487e-04
 -2.6925609e-01
 -2.2591712e-01
  4.8865899e-01
 -6.3207434e-03
 -1.6999276e-01
 -4.1767186e-01
  9.1030069e-02
 -2.1778407e-02
  1.4709458e-01
  6.1059762e-02
 -5.6631644e-03
  1.6332259e-02
  4.0228263e-02
 -6.4590953e-02
 -3.5735961e-02
 -1.3940220e-03
  3.8750759e-01
 -3.5103935e-01
 -3.5315957e+00
 -2.5234541e-01
  1.0603932e+00
  2.8264752e-01
  1.0278114e-01
 -2.6347747e-01
 -1.1769398e-01
 -8.4760860e-02
 -2.5420177e-01
 -5.4180037e-02
  1.0824147e-01
  6.0257047e-02
 -2.0736510e-01
  3.5980368e-01
  1.2515710e-01
  8.9861755e-04
  1.4378545e-02
  2.4768475e-01
 -3.8676926e-01
 -1.3735143e+00
 -9.4474770e-02
 -1.2814969e-01
 -1.4328907e+00
  5.1368546e-01
  1.2937056e-01
 -5.0278343e-02
 -1.7091194e-01
  2.3861024e+00
  6.9081567e-02
 -4.2747171e-03
 -2.6589960e-01
  1.0311907e-01
  9.2628829e-02
  2.8177777e-01
 -1.3442032e-02
 -1.2846066e-01
 -2.6802692e-01
 -2.3904536e-02
  6.2791765e-02
  3.6459729e-02
  3.6188383e-02
 -2.4892132e-01
  9.8852389e-02
  3.5191230e-02
 -3.4459181e-02
  6.3223031e-04
 -6.1767336e-02
  5.7598576e-02
 -9.7810859e-03
  1.9802637e-02
  8.1362778e-01
 -4.2158850e-02
  1.0754515e-02
  1.6158385e-02
 -8.6622104e-02
 -7.7578759e-01
 -1.0534956e-01
  4.1491598e-02
  7.4606705e-03
 -8.0830365e-02
  1.5018785e-01
 -1.2514904e-01
 -9.3509533e-02
  5.2088384e-02
  2.0329176e-02
 -3.5135265e-02
 -1.1040218e-02
 -3.3725008e-02
 -5.3786181e-02
  2.0012522e-01
  9.3786925e-02
 -2.3994511e-02
 -2.9678190e-01
 -2.1725449e-01
 -1.7347036e-01
 -9.2432320e-01
  9.0834744e-02
  3.0050886e-01
 -7.5930245e-02
  3.4626487e-01
  1.1169808e-01
 -1.3737444e-02
  1.1767275e-01
 -1.1978160e-02
 -2.6924437e-02
  5.4801550e-02
  1.5210630e-01
  8.7596372e-02
 -5.1683277e-02
  1.4615972e-01
 -3.5419598e-02
  4.2603899e-02
  1.3626376e-02
 -3.4083351e-02
 -5.4492913e-03
 -3.8028404e-02
 -8.0019251e-02
 -7.3312460e-03
 -4.1665386e-02
  1.5967794e-02
  1.0634076e-02
  4.2744350e-02
  1.8244422e-04
  4.3447331e-02
 -4.6355274e-02
 -9.2033669e-02
  6.6467776e-04
  4.5779231e-03
 -6.5567732e-02
  2.1164639e-01
 -1.3851060e-02
  1.9520919e-01
  8.3069004e-02
 -1.0456769e-01
 -8.4501363e-02
  7.3981263e-02
  3.4257637e-03
 -4.2257119e-02
 -2.4417870e-02
  3.0165204e-01
 -8.3273657e-02
  5.0218470e-02
 -9.8051272e-02
 -1.5236768e-02
  9.5689241e-03
 -3.4720059e-02
  1.3869908e-03
 -4.5819629e-02
 -1.7243302e-01
  1.3477589e-01
  6.6217296e-02
 -2.0192238e-02
  1.0698159e-02
 -5.0317582e-02
  2.0796729e-02
  1.2756336e-02
  1.6014474e-02
 -4.1180324e-02
 -2.6394380e-02
  1.1941470e-02
  7.8830682e-02
  3.7033450e-02
 -7.4900024e-02
 -2.2272881e-02
 -3.6706887e-02
 -1.6734393e-02
 -4.8779305e-02
 -1.4425642e-02
 -1.5289877e-02
  9.2219763e-02
 -9.1435611e-02
  8.0174141e-02
 -2.7354553e-02
  7.7062078e-02
 -1.2551805e-02
 -2.8261775e-02
 -4.1570336e-02
  1.3444280e-02
 -7.2540781e-03
 -5.0095569e-02
 -4.3792035e-02
 -8.8392064e-02
 -5.9237051e-01
 -1.4352696e+00
  9.0934372e-01
 -3.5674150e+00
 -1.1704241e+00
 -1.1593413e+00
  2.3082179e-01
  1.8604268e-01
  1.7978711e-01
 -3.8567383e-02
 -1.3045751e-01
 -6.0597375e-02
 -2.6289985e-01
 -3.1321618e-01
 -2.0520239e-01
  1.9410608e-02
  1.0194683e-02
  2.8511833e-02
 -2.4745724e-01
  5.5904100e-03
 -1.1611501e-01
  6.9384229e-01
 -2.4927914e-01
  1.7344664e-01
 -2.1337922e-01
 -1.3341346e-01
  1.6045840e-01
  2.1918668e-01
 -3.1921767e-02
 -2.8222132e-01
 -5.4810053e-01
  1.8333603e-01
  9.4925332e-01
 -2.7739429e-01
 -2.5431645e-01
  4.6305278e-01
  1.2671655e+00
  1.8872656e-01
  1.1294078e-02
  5.7898093e-02
  1.8315470e-01
  5.6131486e-02
  1.0245966e-01
 -4.9507309e-02
  4.6015266e-01
  2.7017590e-01
  5.6082897e-02
 -1.3172264e-02
 -4.3819614e-02
  1.7812287e-02
  1.8157791e-02
 -3.6627081e-01
 -7.1303725e-02
  4.8311740e-02
 -3.6359008e-02
 -2.0636372e-01
  2.5570163e-01
 -2.7424797e-01
  9.8446809e-02
  2.6428785e+00
 -1.1101861e-01
  1.4672729e-01
  5.9996200e-01
  5.9662449e-01
  2.2625227e-01
  4.3348652e-01
  5.3621036e-01
 -7.1120992e-02
  8.0885279e-01
  4.9639520e-01
  3.4779516e-01
  2.6007760e-01
  5.6771874e-01
  1.5154088e+00
  7.3120540e-01
  3.3783190e-02
  5.7904047e-01
 -8.5848039e-03
  7.4946350e-01
  4.8793927e-01
  4.7131044e-01
 -1.1519746e-01
  7.0887566e-01
  1.3222433e+00
  3.0351478e-01
  6.7103361e-03
  5.0432074e-01
 -3.0809936e-01
  1.4214277e+00
  4.5114481e-01
  1.6854806e-01
  3.9427614e-01
  2.8873184e-01
  5.5109066e-01
  1.3706072e-01
 -2.9038754e-01
  2.4136250e-01
  1.7900540e-01
  2.0456976e-01
 -3.1670392e-01
 -6.2861496e-01
  1.1204746e-01
 -7.8807488e-02
  3.7621251e-01
  2.0967686e-01
  9.9729776e-02
 -1.3896059e-02
  3.8157925e-02
 -2.4403404e-02
 -2.8189959e-03
  1.7744452e-02
  6.0881577e-02
 -6.8098718e-01
 -9.9236168e-02
 -8.4152468e-02
  2.0924378e-02
 -3.2394655e-02
  4.6842624e-03
 -5.1542651e-03
 -1.1882714e-01
  2.9656040e-02
  3.6382508e-02
 -2.7411241e-02
 -1.1183531e-02
 -5.7925943e-02
  9.8774135e-02
  2.4503594e-02
  3.1648306e-04
 -2.2157975e-02
 -5.4368887e-02
  3.4317158e-02
  3.7431270e-02
 -9.1953024e-02
 -1.5015893e-01
 -1.2471213e-01
 -3.2324094e-02
 -8.1895061e-02
  4.3701649e-02
  6.0875872e-03
  1.3020984e-04
 -8.5276738e-03
  1.9155093e-02
  4.9366575e-02
  3.6397134e-03
  5.6885909e-02
  6.7731626e-02
  1.1538064e-01
  1.5152405e-01
 -1.1784533e-01
  9.6754888e-03
  3.6846608e-02
 -4.3263689e-02
 -2.1373619e-01
 -8.8990115e-02
 -6.6830951e-04
  1.3333211e-02
 -1.6050776e-02
  6.3868538e-02
  7.2339438e-03
  1.1106856e-03
  6.9721945e-02
 -2.5699374e-01
 -1.2157163e-01
 -4.3064475e-02
  1.9286020e-02
  2.7255427e-02
 -7.5295776e-02
  5.0969744e+00
  9.2943263e-01
  7.3628199e-01
  3.7924528e-01
 -4.8997673e-01
 -5.4879260e-01
 -9.5952070e-01
 -2.4309345e-01
 -7.7239734e-01
  1.9516578e+00
  1.0074540e+00
 -3.2513183e-01
  4.6895850e-01
  5.7089031e-01
 -4.3593979e-01
  6.1513525e-01
  8.7339990e-02
  2.4989355e-01
 -9.2400610e-02
 -1.2686982e+00
 -1.2319304e+00
 -1.3214282e+00
  9.1317886e-01
  2.3200693e+00
 -4.4544363e-01
  1.4170150e-01
 -3.6604756e-01
 -7.1986866e-01
 -1.3007159e+00
  8.1713483e-02
 -3.0220073e-01
  5.0955820e-01
  3.8871258e-01
  7.7437913e-01
  4.1027236e-01
 -1.1602600e+00
  2.9920444e-01
 -5.4685569e-01
 -5.2458447e-01
  1.5068021e-01
  1.0724550e+00
 -1.0352497e+00
 -2.8216097e+00
 -2.6707716e-02
  1.5997279e-02
  1.1641242e-01
  8.9527652e-02
  9.8865591e-02
 -1.8411350e-02
  1.5811272e-02
  1.6993035e-01
  1.3021447e-01
 -1.1848154e-02
  7.4618928e-02
 -5.7859617e-01
  9.9356681e-01
  1.2795030e+00
 -2.3444754e-01
 -2.0908117e-01
 -6.1278213e-03
  5.1817857e-02
  2.9135209e-03
 -1.7634746e-02
  1.6627647e+00
 -1.4801624e-01
  7.5913563e-02
 -9.9535935e-02
 -1.6634688e-02
 -1.2915080e-02
  1.9226347e-01
 -3.3512425e-02
 -9.0558298e-02
  6.8541467e-02
  1.3075216e-02
  9.2671975e-02
  1.0447258e-01
 -3.1304204e-01
  8.3076142e-02
  4.1426620e-01
 -3.4989726e-02
 -1.6751622e-01
 -1.2037078e-01
 -2.5830042e-02
  8.9281820e-02
 -1.3483609e-01
  5.5247194e-01
  2.4180122e-02
  5.7676394e-02
 -2.8764522e-01
 -9.1253340e-02
  8.7379657e-02
 -3.0845037e-02
  7.3327303e-02
  1.3127422e-01
 -3.5154302e-02
 -4.9905768e-03
 -4.6320342e-02
 -1.8086269e-02
 -8.0169573e-02
 -3.2794513e-02
 -5.7569988e-02
  1.5714973e-01
 -5.4690209e-03
 -6.8026654e-02
 -3.3064354e-02
  3.7278101e-02
 -4.3268111e-02
  1.8047678e+00
 -2.8387619e-02
  1.0540615e+00
  2.8219548e-01
  1.0604560e+00
  2.4188884e-01
 -1.4616877e+00
  1.1567263e-01
 -1.1734101e+00
  3.9236110e-01
  8.1212334e-02
 -3.5461981e-02
  4.1737288e-01
 -8.2533562e-01
  4.6450201e-01
 -4.5178416e-01
 -2.1758735e-01
 -1.5112828e-01
  4.5514321e-01
  3.3087322e-01
 -8.9696890e-01
 -1.3012902e-01
  8.0882847e-01
  5.5282152e-01
 -1.4536458e-01
 -6.9084632e-01
  8.6458676e-02
  4.9145898e-01
 -1.9192591e+00
 -1.4565772e-02
  2.0312148e-01
  2.4979644e-01
  7.5080538e-01
  3.9058772e-01
  7.3916987e-02
 -6.6705775e-03
  2.5127938e-01
  5.1170433e-01
  6.7445141e-01
  4.7668922e-01
 -7.5063658e-01
 -1.5331428e-01
  2.3393346e-01
 -5.2437359e-01
  4.4719467e-01
  5.7015014e-01
  2.2367625e+00
  1.7241892e-01
  3.4881413e-02
 -2.0583391e-01
 -1.3966359e-02
 -1.2175872e-02
  1.6642505e-03
  1.8127929e-02
  1.4410569e-01
  6.0147615e-03
  1.4129403e-01
 -4.5513412e-01
 -2.7043936e-01
 -8.2718635e-01
  1.0039861e+00
 -1.2920617e+00
 -3.3041644e-01
 -4.7112584e-01
 -4.8338732e-01
  4.0189032e-02
 -2.4762897e-02
 -2.1332991e-01
 -1.5517160e-02
  6.2213349e-01
  1.5847383e-01
 -2.1037963e-01
  1.1601388e-01
 -1.5603463e-01
  1.0241122e-01
  9.9577233e-02
  2.2677924e-01
 -1.3106258e-01
  3.8629383e-01
  6.6032726e-01
 -3.5515528e-02
  5.7833612e-01
  3.3203989e-01
  2.9425034e-01
  3.2237414e-01
  3.6923134e-01
  4.4760621e-01
 -1.5147839e-01
  2.2677535e-01
  3.5414633e-01
  2.2745205e-01
  6.1589223e-01
  8.1817903e-02
  5.9137946e-01
  3.6234745e-01
  1.3284378e-01
  1.3240640e+00
 -1.1561959e-01
  1.4508651e-02
  1.4911617e-01
  4.1548371e-02
  3.3797011e-01
  3.9339520e-02
  1.6242418e-01
 -1.4302337e-01
 -5.2425701e-02
  2.0882435e+00
  5.3615522e-02
  1.5390510e-02
  1.2924342e+00
 -5.0786033e-02
  1.0003759e-01
 -1.8496124e+00
 -7.9086494e-01
  4.9924040e+00
  7.3803407e-01
 -8.3534294e-01
  5.9548151e-02
 -7.7708028e-02
 -1.3276563e+00
 -1.8729946e-02
  7.8929329e-01
  1.2319846e-01
  1.5789649e+00
  6.0449809e-01
  4.9192044e-01
 -4.3089557e-01
  6.4039332e-01
  1.0447927e+00
  5.8619231e-01
  2.7179486e-01
 -2.1346040e-01
 -1.9777051e-01
  3.4176669e+00
  1.7307130e+00
 -2.5128525e-02
 -2.0298094e-01
  3.1458387e-01
  7.3115295e-01
  6.8036497e-01
 -2.4793164e-01
  9.7491540e-02
 -1.2824740e-01
  1.7006465e+00
  2.9714739e-01
 -2.4845311e-02
 -5.9346664e-01
  5.0418204e-01
  1.4580597e+00
 -7.8206860e-02
  1.5065397e-01
  2.3989236e-01
 -1.7428507e-01
  1.0360144e+00
  9.2125751e-02
  7.0757248e-02
  3.1435886e-01
  1.0071555e-02
  2.3399994e-02
  3.0291903e-01
  5.9318870e-02
 -5.9119925e-02
  2.2145709e-02
 -1.7302060e-02
 -1.0992993e-01
  3.3924397e-02
  3.3676952e-02
  1.2004830e+00
 -2.7716544e+00
  7.3251873e-01
 -2.0488349e-01
  2.7709806e+00
 -1.6418476e-02
  3.0837101e-01
  1.0758049e-01
  1.8565817e-02
 -3.3069167e-01
  3.2930776e-02
 -4.0001822e-01
 -2.2520442e+00
  1.3427705e-01
  1.8082418e-02
  5.7748981e-02
  5.3095520e-02
 -7.7552128e-01
 -8.2246423e-02
 -3.2249504e-01
  6.1113137e-01
 -4.6368277e-01
 -8.9943415e-01
  2.0617792e-01
 -6.3077289e-01
  2.3902187e-02
 -5.9784180e-01
 -8.4794772e-01
 -3.7893459e-01
 -6.0130072e-01
  3.5587944e-02
 -2.6975697e-01
 -6.9338131e-01
 -2.7828723e-01
 -5.2120608e-01
 -1.3179208e-01
 -1.0935797e-01
 -7.2819602e-01
  9.1669276e-02
 -1.1462435e+00
 -8.0860838e-02
  1.3080015e-02
 -1.7537320e-01
  1.5469350e-01
 -1.8818156e-01
  1.0527930e+00
  7.4802898e-02
  3.6435601e-01
 -1.2558444e-01
  3.0170167e-02
  1.5937713e-01
  6.0355976e-02
 -3.1185953e-02
 -4.3950936e-01
  4.2480730e-02
 -6.8228625e-02
 -2.0320113e-01
 -1.6670374e-02
  1.0180321e-01
  1.7293830e-01
 -5.9639961e-02
  4.1520625e-02
  1.7055916e-02
 -1.0769081e-02
 -1.6619980e-01
 -9.9023310e-03
 -1.2838946e-01
 -9.9217780e-03
 -4.5859698e-02
 -4.6536475e-02
  1.8780012e-02
  8.3404161e-02
 -2.8477306e-02
 -2.1301348e-02
 -5.1108766e-02
 -1.1831032e-01
 -3.3625424e-02
  1.9028872e-01
  1.2641904e-02
  7.8893557e-02
  5.4364249e-02
  7.6661222e-02
  6.7147985e-02
  5.7060957e-02
 -4.9890779e-02
 -1.2443858e-01
  1.0345987e-02
 -1.3619116e-02
  4.5979008e-02
 -6.9390170e-02
 -6.5531909e-02
 -6.4359619e-03
 -1.5038934e-01
 -1.6737470e-01
 -5.3250238e-02
 -6.4732328e-02
 -7.0797898e-02
 -9.8597474e-02
  5.1369637e-02
 -7.9954572e-02
  1.7521579e-02
  4.4747997e-02
  1.1349534e-02
 -3.2988086e-01
  5.4993345e-03
  1.4822188e-02
 -7.5556740e-02
 -6.4009346e-02
  7.1382090e-02
  5.8636490e-02
 -5.6299800e-01
 -1.3058202e+00
  7.9062361e-01
 -1.3745576e-01
 -6.3420594e-01
 -2.0353030e-01
 -2.4285881e-01
 -4.0124065e-01
 -1.1514920e-02
 -2.9139391e-01
  1.4510034e-02
 -1.3153221e-01
  1.3111703e-01
  1.4292546e-01
 -3.0430713e-01
 -3.1579213e+00
  1.8182246e-01
 -8.9793347e-02
  2.2830196e-01
 -4.9223747e-02
 -1.4286623e-02
 -1.2310601e-01
  3.4952492e-01
  1.3267413e-01
  6.1920428e-01
 -1.6312003e-01
  5.7152224e-01
 -1.5345483e-01
  1.6832954e-01
  1.7603137e-01
  6.7360096e-02
  8.9337960e-02
 -9.9552415e-02
 -3.2788049e-02
 -6.0028881e-01
 -1.3997522e-02
 -4.3822247e-01
  7.9923183e-02
 -1.3597187e-02
 -2.1625012e-01
  1.1916292e-01
 -5.5966541e-02
 -1.6898884e-01
  1.5683243e-02
 -6.7625031e-02
 -9.1767140e-02
  2.4556647e-01
 -7.8960568e-02
  8.6067170e-02
 -1.1046457e-01
 -3.4189634e-03
 -1.3468805e-01
 -4.7203689e-03
  6.7525759e-02
 -2.1928590e-02
 -1.9843314e+00
  5.1299697e-01
 -1.9594257e-01
  2.3153527e-01
  1.1052760e-01
 -7.3330536e-02
  1.2948384e-02
 -3.7941735e-02
 -2.1277895e-02
 -9.4018064e-02
  1.1442279e-01
  9.3853980e-02
 -8.9008987e-02
  2.1065274e-02
 -9.0897523e-02
 -1.5699421e-01
 -1.0985658e-01
  6.1202221e-02
  1.3120584e-01
 -1.5502091e-01
 -5.5810954e-02
 -7.2924718e-02
  1.1522362e-01
  1.0534400e-01
  2.9009750e-01
 -9.5939107e-02
  1.0706744e-01
  3.7657019e-02
  2.3385270e-02
 -2.5760965e-02
 -2.9589241e-02
  1.5721535e-02
  1.5651546e-01
  1.6861575e-02
 -1.4214401e-01
 -1.1652256e-01
 -2.1445718e-02
  2.0091418e-02
 -4.0295869e-03
  1.6577482e-02
 -2.3751479e-01
  5.2263413e-02
  2.1839829e-02
  6.5258622e-02
  3.3385672e-02
  5.2850538e-01
  1.8740784e-01
  3.9884247e-02
  1.6585976e-02
  1.9498095e-02
  3.7354158e-04
 -8.2150206e-02
  2.0679298e-01
  5.4268152e-03
  1.4900249e-02
 -5.2817845e-01
  1.7255456e+00
  2.2536342e+00
  3.1190097e-01
 -1.2855448e+00
  9.6113354e-01
  1.2543831e+00
  2.4048982e+00
  6.3024509e-01
 -4.5091820e-01
  3.6016408e-01
  1.8068093e-01
 -1.6441095e+00
  2.6763728e-01
  1.1991787e-01
  9.6105963e-01
  4.1284881e+00
  2.1033170e+00
  3.4795795e-02
 -1.0929832e+00
 -1.4008012e+00
  2.8995135e+00
  1.1032180e+00
 -1.7879192e-02
 -3.8351631e-01
  1.1316966e+00
  3.2840209e+00
  1.8260673e+00
  8.7146235e-01
 -3.6255512e-01
  1.3749398e+00
  5.8870139e+00
  3.5142344e-01
 -1.6799451e-01
 -1.3816410e-01
  7.4209362e-01
  4.4430251e+00
  1.9559033e-01
 -1.6219671e+00
 -7.7694678e-01
 -8.8611156e-01
  1.4243011e+00
  7.8326011e-01
 -2.9173179e+00
  1.0529304e+00
 -2.1786079e-01
 -9.0617873e-02
  8.6764282e-01
  5.9820004e-02
  1.5144448e-01
 -4.1799482e-02
 -1.8872159e-02
 -1.0278982e-02
  4.5591660e-02
  1.3985658e+00
  2.2887406e-01
 -8.6562067e-02
  1.0592425e+00
 -6.2658876e-01
 -6.1067653e-01
  1.5312345e-01
 -6.6260411e-03
 -5.5805687e-03
 -3.6818255e-02
  6.5003134e-02
  1.8305469e-02
 -2.3069629e-02
  3.2736135e-01
 -1.4681355e-02
  2.1686548e-02
  1.4551991e-01
  1.7617838e-01
  2.5494982e-02
  3.0060571e-01
  2.2657289e-01
  1.7530282e-01
  3.7273201e-01
 -1.6987118e-01
  3.2789357e-02
  3.8070790e-02
  1.1355171e-01
 -9.0850003e-02
  3.5919871e-02
  2.9187646e-02
 -1.4460008e-02
  8.2881764e-02
 -5.9404794e-02
 -8.0900684e-02
  5.0286174e-02
  1.9117160e-02
  1.5876073e-01
  1.6704343e-02
 -8.8632293e-03
  8.9842699e-02
 -2.2889566e-02
  2.2076862e-01
  8.4470827e-03
  2.9079905e-03
 -6.5575957e-02
  7.6756746e-02
  3.6069956e-02
  7.9914622e-02
  2.2260886e-02
 -5.4255500e-03
  2.0053745e-03
  1.5750341e-02
  3.9600305e-02
  7.0467308e-02
  2.1269375e-02
 -8.8454166e-04
  1.1876661e+00
  1.4206148e+00
  4.0159202e+00
 -9.6934736e-01
  1.4339073e+00
  3.3519042e-01
  2.6766771e-01
  4.2553625e-01
 -3.0407641e-02
  3.1505454e-02
  4.7543833e-01
  2.3863792e-01
 -6.7727953e-01
 -1.1439941e-01
  3.2929295e-01
 -4.1126698e-01
 -1.2007471e+00
  9.7330578e-02
  1.6420735e-01
 -4.1188851e-01
  2.4667313e-02
  2.8717902e-01
 -3.3744702e-01
 -1.3977957e-01
 -4.8141947e-01
  3.5289952e-01
  5.4322886e-01
  1.4022557e-01
 -4.6033311e-01
 -5.7207513e-01
  1.8871056e-01
 -5.2579826e-01
  6.7299083e-02
 -8.2978092e-02
  1.5765275e-01
  5.8872604e-01
  2.9346478e-01
  3.4105924e-01
  2.5273222e-01
  1.1005337e-01
  1.7710157e-01
  3.5196316e-01
 -3.3745813e-01
 -1.5171565e+00
  1.0540047e-01
  1.5033578e-02
 -3.7722021e-02
 -1.1215457e-01
 -3.2645080e-03
  4.5541998e-02
  2.1054361e-02
  4.1914634e-02
 -1.4593408e-02
  9.0537064e-02
 -3.0612037e-02
  2.4047081e+00
  2.0574567e-01
  7.5627410e-01
 -1.9223855e+00
  5.0309997e-02
  1.6693296e-01
 -1.2759204e-01
  1.2228600e-01
  7.1145904e-01
  4.9408785e-01
 -7.8957856e-02
 -1.2132281e-01
  6.5390974e-01
  6.1492726e-02
  3.2609701e-01
  2.9519436e-01
  2.4193336e-01
  4.4451648e-01
  1.2127510e-01
  4.7376809e-01
  6.9428605e-01
 -1.4013480e+00
 -3.0455086e-01
 -4.5832950e-01
  5.5189276e-01
  2.2973971e-01
  5.6936458e-02
  1.2885139e+00
 -2.9486753e-02
 -3.6542797e-01
  3.9881507e-01
  1.9115145e+00
 -6.1931595e-02
  3.7477639e-01
  1.2823021e-01
  3.9452416e-01
 -3.2003593e-02
  7.4259952e-02
 -9.0646261e-01
 -9.6511565e-02
  3.3486065e-01
 -7.2344258e-02
  8.6434580e-02
 -2.0546652e-01
  1.9193444e-01
  1.4877123e-01
  9.5578724e-01
  3.9811587e-01
 -7.6085396e-02
 -4.5490779e-02
 -5.7994422e-02
 -3.5783388e-02
  1.9765815e-01
 -5.1984418e-02
 -3.2017369e-02
 -3.6916783e-01
 -1.4092930e-01
  1.4012988e+00
  7.5376850e-01
 -3.8589239e+00
  4.9930626e-01
  6.0420984e-01
 -5.8807087e-01
 -4.5484856e-01
 -3.4194252e-01
 -3.6472720e-01
  5.0056440e-01
 -7.2051305e-01
 -5.5358246e-02
 -3.3405501e-01
 -5.2000895e-02
  4.3217027e-01
  4.4180670e-01
 -6.7723848e-02
 -8.9894807e-01
  4.8696119e-01
  2.6708651e+00
 -8.8159972e-01
 -8.2255882e-01
  2.6687604e-01
  1.8781003e-01
  3.9204875e-01
 -2.2065346e-01
 -1.1351579e+00
 -1.2344369e+00
 -3.6839610e-01
  1.2381841e+00
 -3.4976614e-01
 -3.6415356e-01
 -1.1797924e+00
  1.2768527e-02
 -3.8707075e-01
  1.6063946e-01
 -2.0697448e-01
  7.0306920e-02
  9.5711835e-02
  4.1847017e-01
  1.8587020e-01
 -1.0974538e-01
 -1.3915095e-01
  7.7478252e-02
  1.1326807e-03
  2.9192764e-02
  1.0567606e-01
 -3.9506727e-03
  1.5703458e-02
  6.5942295e-02
  4.8271567e-03
 -3.1566080e-01
  3.4483550e-03
 -3.8013062e-01
  3.4353215e-02
  2.7762234e-01
  7.1290620e-02
 -2.5936902e-01
  3.8901534e-02
  6.8673524e-03
 -4.2824220e-02
  5.4161865e-02
 -1.0563244e-01
 -1.0011183e-01
 -2.5780980e-02
 -5.3671040e-02
 -6.4811166e-03
 -6.8914317e-02
  7.7057175e-02
 -1.6342891e-02
 -6.6425353e-02
  4.0928807e-02
 -6.7222416e-02
 -9.0761222e-02
 -9.1060698e-02
 -2.5219667e-01
  1.3427596e-02
  2.6864255e-02
 -1.7999161e-02
 -6.4765853e-03
  3.1644788e-02
 -3.1324215e-02
  1.3049549e-01
 -1.3333547e-01
  6.6300832e-02
 -4.8584379e-02
 -1.3024514e+00
  8.1054866e-03
 -1.3619725e-01
 -9.3670815e-02
 -6.0183380e-02
 -3.5882723e-01
  1.1420512e-01
 -1.3992704e-01
 -9.4934314e-02
 -7.2352566e-02
  1.4937322e-01
  1.5135485e+00
 -7.7873632e-02
  5.2926704e-02
  7.3477864e-02
  1.4872725e-02
 -6.8775095e-02
 -8.8760279e-02
  8.2210332e-02
  1.9342132e-02
 -2.3738738e-02
 -1.8680975e-02
 -2.0633228e+00
 -8.2622910e-01
  1.4547122e+00
  6.9802970e-01
 -3.1780005e-01
  2.1633592e-01
 -2.4720734e-01
  8.7146288e-01
  1.8070482e-01
  7.2945988e-01
  5.6091422e-01
  1.3970251e-01
 -1.6564944e-01
 -5.1013350e-01
  7.2275412e-01
 -2.6979870e-01
 -6.3703734e-01
  1.4979806e+00
 -3.0879700e-01
 -6.7461573e-02
  9.4233185e-01
  1.2813890e+00
 -1.0358542e+00
 -5.2260327e-01
  1.7871976e+00
 -6.0873020e-01
  1.4716373e-01
 -1.5162672e+00
  7.7416755e-02
 -4.1560623e-01
 -4.6478435e-02
 -2.9182754e+00
  3.4195554e-01
 -3.8474709e-01
  4.3228316e-01
  4.8889229e-01
 -2.6422480e-02
 -3.1858668e-01
 -3.1515354e-01
 -6.3789654e-01
  3.2739615e-01
 -3.8782907e-01
  5.8427846e-01
 -1.9753470e-01
  4.6778548e-01
  2.0056815e-01
 -7.5675778e-02
 -3.3853366e-03
  3.0402524e-02
  5.0276607e-02
 -6.8513818e-02
 -2.3805516e-04
  1.5770227e-01
 -7.1302331e-03
 -1.6205272e-02
  7.6583855e-02
  5.5563212e-03
 -6.9788761e-02
  3.3443555e-01
 -4.9231816e-02
  9.8860878e-01
  4.1095537e-01
  1.7888552e+00
  4.8128802e-01
 -4.5537162e-01
  1.3474056e+00
  6.3459128e-01
 -1.2890313e+00
  7.6558816e-01
  8.4285253e-01
  1.2410519e+00
  2.2782676e+00
  3.5305697e-01
  2.0327225e+00
 -1.1799241e+00
  2.2457523e+00
  2.3902056e+00
  1.0662755e+00
  2.7670181e+00
 -1.9734826e+00
  9.9265206e-01
  1.1550348e+00
  9.4516718e-01
  2.9082475e+00
 -1.9534780e-01
  1.2049987e+00
  1.0810643e+00
  1.6157973e+00
  8.5319269e-01
 -6.4316696e-01
  1.0595746e+00
  3.2051347e-02
  1.1524284e+00
  8.2055086e-01
  3.3145145e-01
  3.2677817e-01
 -9.9177323e-03
 -1.8568523e-01
  8.1221378e-01
 -1.2927995e-02
 -1.5873538e-02
 -8.0293626e-02
  2.4075054e-01
  2.6352194e-01
  1.6319294e-01
  7.9727955e-02
  7.8614217e-01
  7.8796491e-02
  3.1090200e-02
  7.9499140e-02
  2.3100228e+00
 -1.4666939e+00
 -4.8295012e-01
  1.7139864e+00
  2.3973837e+00
 -2.1190564e-01
 -9.3604350e-01
 -7.1467113e-01
  1.7804098e-01
  2.2374921e-01
  2.5985107e-01
 -4.1711357e-01
  3.6393380e-01
  1.3639687e-01
 -2.8364983e-01
 -4.1619157e-03
 -2.1088901e+00
 -1.3954800e+00
  3.7113681e-02
 -1.3521291e-01
 -2.3075281e-01
 -6.0986024e-01
 -9.4820255e-01
  2.8903288e-01
 -1.1341789e+00
 -1.0166652e-01
 -1.1879952e+00
 -5.4576027e-01
  6.4829093e-01
 -3.8704050e-01
 -3.1715026e-01
 -1.6969930e+00
 -2.8806287e-01
  3.5852087e-01
  1.6314875e-01
  2.0199671e-01
 -6.2011302e-01
 -9.0618953e-02
  3.5518381e-01
 -1.7737354e-01
  3.3654907e-01
 -8.4859324e-01
 -7.9790987e-02
  2.6179665e-01
 -7.5277016e-02
  1.7307548e-01
  5.9105568e-02
 -3.3243787e-01
 -8.4639885e-02
 -1.2234855e-01
  6.0799018e-02
  2.9818311e-03
  3.4577359e-02
  9.6704744e-02
  1.4943574e-02
  1.1347618e-01
  9.0787190e-01
 -8.7415743e-01
 -8.5235178e-02
 -6.1205393e-01
  7.2463743e-02
 -1.6363978e-02
 -1.1783535e-02
 -7.9424046e-02
  4.5345735e-02
  2.1161292e-02
 -5.4915138e-02
  9.4300643e-02
  1.1564594e-02
 -9.4578013e-02
  7.4780703e-01
 -7.1080402e-02
 -2.5142944e-01
 -4.0169522e-02
  1.9765908e-01
  1.4606020e-01
  7.6329835e-02
  1.4015336e-01
  9.2133485e-02
  6.5889008e-02
  5.8414094e-02
  3.9529212e-02
  2.8138213e-02
  1.0122889e-02
 -2.6850911e-02
  1.1814424e-01
  9.1984995e-02
 -2.4827568e-02
  3.5245426e-02
  1.7703837e-01
  7.8876384e-02
  1.0459521e-02
  4.6396516e-02
 -6.1324090e-01
 -8.3132990e-02
  7.8916140e-03
 -9.2571788e-02
  5.9141301e-02
 -3.3270672e-03
  1.4118864e-01
  1.2282755e-01
 -1.2015083e-02
 -4.4615455e-02
 -3.7541844e-02
 -1.2024105e-01
 -7.3812771e-01
 -1.1043998e-01
  8.1508785e-02
  8.1903860e-02
 -7.2325192e-02
  3.5332581e-01
 -9.1047210e-01
 -8.1372285e-01
  2.9409498e-01
  4.5416006e-01
  1.0506015e-01
 -3.4475970e-01
  3.7480211e-01
  1.8934624e-02
  6.1572373e-01
  1.7333226e-01
 -5.5945873e-01
  2.4182954e-01
 -7.1893781e-02
 -1.1988550e-02
 -2.0953726e-02
 -4.2063275e-01
 -4.2735469e-01
 -4.9651042e-01
 -5.7765443e-02
  5.0089270e-01
  1.8656911e+00
 -8.2676664e-02
 -5.3129780e-01
  7.4758065e-01
  1.5338835e-02
 -2.3999444e-01
 -6.3098542e-02
 -1.6156247e-02
 -1.7521185e-01
  2.9842728e-01
  1.9213954e-01
 -1.0151953e-01
 -4.5224655e-02
 -1.2171528e-01
  1.7750923e-01
  7.3556200e-02
  4.3568021e-01
 -2.5920290e-01
  6.3246682e-02
  1.4861083e-01
 -7.0776641e-01
  4.5372099e-01
  5.7977742e-01
  4.0580299e-01
  8.5306130e-03
  5.9936270e-02
  4.0045686e-02
  5.9485022e-02
 -3.1751126e-02
 -3.6902558e-02
 -1.5396927e-02
  7.2563879e-02
  1.1977503e-02
  5.5201616e-02
 -9.4673413e-01
 -1.9604743e+00
  1.0870203e+00
 -2.6478164e-02
  6.8677795e-01
 -1.5138897e+00
  9.8888505e-01
 -1.0262620e+00
 -8.3014989e-01
 -2.6351287e+00
  7.6529133e-01
 -3.2980907e-01
  9.6013665e-01
 -7.1332490e-01
 -5.9902512e-02
  1.0862006e+00
 -1.2723933e+00
 -1.3184884e+00
  1.4678322e+00
  4.7527123e-03
 -8.0688530e-01
 -2.6477339e+00
 -1.0687528e+00
 -2.0520116e-01
 -1.2192553e+00
  1.3610020e+00
  1.2997398e-01
 -1.5051924e+00
  4.5091888e-01
  1.2124336e+00
 -8.2011241e-01
 -1.4676011e+00
 -4.0017900e-01
  5.3116125e-01
  8.6141396e-01
  1.1551309e+00
 -1.4683564e+00
 -3.8287569e-02
  1.4846230e+00
  2.0300546e+00
 -9.7286528e-01
 -7.0141202e-01
 -1.1089036e+00
 -1.1901733e+00
 -1.1890237e+00
 -1.2002294e+00
 -1.0151595e+00
  2.1111789e+00
  1.7546163e+00
 -6.1148173e-01
 -7.0298320e-01
 -1.0732697e+00
 -1.3677377e+00
  1.8004878e+00
 -1.2519747e+00
 -1.1923760e+00
  1.7003703e+00
 -1.6969401e+00
  5.4494047e-01
  4.6658468e-02
  9.8285288e-01
 -1.6121603e+00
 -4.4653195e-01
  2.2015319e+00
 -1.3408664e+00
 -8.1329513e-01
  1.5842500e+00
  4.4330618e-01
  1.1373038e-01
 -8.9471406e-01
  2.4531505e-01
  2.0954379e-01
 -7.6487684e-01
  1.0160879e+00
  1.7768799e+00
  8.8356680e-01
  1.3051128e+00
 -4.1208336e-01
  6.6267437e-01
 -2.6741350e+00
  1.1230388e+00
 -8.6522490e-01
 -1.8716292e+00
  1.4507644e-01
 -9.9245352e-01
  4.7982359e-01
 -1.3949662e+00
 -2.5939856e+00
  1.5137662e+00
 -5.3804260e-01
 -9.8679632e-01
  3.2997587e-01
  1.6284672e+00
  1.9920062e-01
  2.7386183e-01
  6.7092746e-01
 -1.4572030e-01
  2.4037218e+00
  1.8818840e+00
  6.6401094e-01
 -4.1571152e-01
  2.0068791e+00
 -1.1551102e+00
 -1.7718731e-01
 -6.5543212e-02
  1.5216266e+00
  7.0416051e-01
 -6.1009139e-01
  1.0681174e+00
 -2.4188783e+00
  1.0024042e+00
  6.5554366e-02
 -2.4035929e-01
 -2.0744026e+00
  7.9702526e-01
 -5.5950421e-01
 -2.3342824e-01
  2.6402056e-01
  1.4945250e+00
  7.7260636e-02
  2.1422465e+00
 -5.4287064e-01
  2.0241206e+00
 -8.3458179e-01
 -9.1854769e-01
 -3.9422297e-01
 -9.7351837e-01
 -9.9394292e-01
 -1.4198603e-01
 -1.5172856e+00
  4.5216787e-01
  4.7152194e-01
  5.4582733e-01
  1.4448349e+00
 -5.3304267e-01
  1.0118582e+00
  1.8777808e+00
  2.3751192e+00
  1.2332244e-01
  5.9408861e-01
 -8.1174427e-01
 -2.9500477e+00
 -2.7630818e-01
 -2.7515590e+00
  1.8146230e-01
  8.0020052e-01
  2.0782416e-01
 -7.2512192e-01
  4.2039356e-01
 -9.1980755e-02
 -1.0263119e+00
 -5.5026889e-01
 -7.6713824e-01
  1.6226245e+00
  6.0412124e-02
  7.8146085e-02
 -8.4605670e-01
  1.5958525e+00
 -9.7506088e-01
 -2.4523130e-01
  1.2627437e+00
 -6.4665514e-01
 -1.5498777e-01
 -1.7147970e+00
 -8.4613591e-01
  4.7889075e-01
 -2.3821071e-01
  2.9515031e-01
  2.8763527e-02
  5.6469321e-01
 -3.4842703e-01
 -5.4699268e-02
 -5.5976140e-01
 -3.2238260e-01
  8.7101477e-01
 -2.3195033e-01
  4.1988423e-01
  5.1115447e-01
 -6.5198052e-01
  6.1364329e-01
  1.2014594e-02
 -4.0298492e-01
  1.8412344e-01
  4.1124377e-01
  1.5894641e-01
 -2.8177479e-01
 -1.0027958e-01
 -2.0096998e-01
  3.7679979e-01
  2.1590492e-01
  3.7415288e-02
  1.0682964e-01
  2.4371980e-02
 -7.2788954e-02
 -2.6226394e-02
  1.4700995e-01
 -9.6811078e-02
 -7.7464201e-02
 -4.6000028e-01
  1.6243444e-01
 -6.4703360e-02
  6.6213876e-02
 -5.0269123e-02
  4.6295466e-04
  3.6820088e-02
  2.7502891e-02
 -1.0199744e-01
  1.4708107e-02
  8.1839293e-02
 -1.2364760e-01
  6.8235502e-02
 -9.0632364e-02
 -9.4420858e-02
  6.4979650e-02
 -5.2963912e-02
  7.1644381e-02
 -1.3413945e-01
  9.1569752e-02
  1.0005978e-01
  1.8798562e-02
 -8.7330788e-02
 -1.1826158e-01
  2.3423178e-02
  5.7598262e-04
 -2.8319497e-02
 -5.2242972e-02
 -1.5277511e-02
 -1.0359223e-03
 -1.0577287e-01
 -1.6608255e-01
  5.5620387e-02
 -6.2731586e-02
  6.0134727e-01
 -5.0777208e-02
  4.1788224e-02
 -8.3699122e-02
 -1.0507419e-01
  1.0463093e-02
 -3.8529463e-02
  6.3299067e-02
 -7.9875350e-02
  4.6034619e-02
 -2.4762308e-02
  1.0203730e-01
  2.9397223e-03
  1.3379191e-01
 -1.7405419e-02
  5.1506098e-02
 -2.4358302e-01
 -3.4838900e-02
 -1.2260541e+00
 -9.8438555e-01
 -1.4295813e-01
 -8.5483187e-01
  2.7834490e-01
  1.5079141e-02
 -8.9653991e-02
 -1.1752260e-01
  5.3697385e-02
  4.0055595e-02
 -2.1236297e-01
  6.3125469e-02
 -1.8705927e-01
 -1.5164031e-01
  4.6267409e-02
  8.2412519e-02
 -2.0727138e-01
 -3.1522366e-01
 -2.1026786e-01
  3.6801327e-02
  1.9332705e-01
  5.1480603e-01
 -1.4622398e-01
 -4.9753585e-01
  4.4524476e-01
 -3.6003727e-01
 -1.1478715e-01
 -2.2824830e-01
 -2.4458373e-01
 -6.0888212e-02
  8.6503871e-02
  1.3088961e-01
 -1.0706760e-01
  9.1049105e-02
  5.7470802e-02
  1.6081168e-01
 -2.5200152e-01
 -1.4551164e-01
 -3.9288901e-02
  6.0654338e-02
  5.5540018e-02
  2.5421143e-01
 -8.7033302e-02
 -9.1939032e-02
  3.9678246e-02
  4.2435233e-02
 -9.7317524e-02
  9.1905743e-02
 -1.2738611e-01
 -1.2129538e-01
 -2.8495690e-02
  1.7835187e-02
  7.3625453e-02
  2.5378412e-03
  5.9414525e-02
 -1.8491137e-01
  4.3343958e-01
 -1.1955998e-02
  3.4665540e-01
  1.1244128e-01
 -6.8412274e-02
  1.1078923e-02
 -9.1870867e-02
  4.2323720e-02
  7.1423337e-02
  1.5362006e-02
  4.8476346e-02
  1.1750613e-02
 -1.0704792e-01
  9.0151183e-02
 -3.6724415e-02
  1.5312910e-02
 -1.8000218e-01
 -8.0989443e-02
  4.3639645e-02
  1.8614462e-02
  1.0638180e-01
 -9.6718125e-02
 -1.3499118e-01
  3.9196275e-02
 -4.7850795e-02
 -1.3849618e-01
  6.1429417e-01
 -1.0261925e-01
 -5.9170559e-02
 -1.2250535e+00
  1.3563536e-01
 -1.4941001e-01
  1.1791785e-01
  2.0630810e-02
  1.7467866e-02
 -1.8026382e-01
  4.8411496e-02
 -3.3532113e-01
 -7.8337528e-02
  6.6873223e-02
  1.3145424e-01
 -3.0095728e-02
 -9.0393528e-02
 -8.1832655e-02
  5.6071360e-02
 -4.1994996e-02
 -1.9088598e-02
 -1.7120153e-01
 -7.8234926e-04
 -4.6538789e-02
 -6.8352960e-02
  5.5032447e-02
  3.4063775e-03
 -1.6407007e-02
  3.0891328e+00
  3.4294784e+00
  1.2338498e+00
  5.2994285e-02
 -5.5532980e-01
  5.2287436e-01
 -2.0221043e-03
  1.4677086e-01
  2.9363167e-01
 -1.6226622e-01
 -6.9531143e-01
 -2.1213359e-01
 -6.1893713e-01
 -2.3534076e-01
  2.3696275e-02
 -1.8120784e-01
  1.9835389e-01
 -2.6647633e-01
 -2.5385538e-01
  5.0511247e-01
  3.1107605e-01
 -1.0236205e-01
  2.4850646e-01
 -8.2503945e-02
  6.5959412e-01
  3.6413214e-01
 -6.3912374e-01
 -6.3437857e-02
  3.4913579e-01
  5.1531479e-02
  2.3534115e-01
 -4.0345526e-01
 -6.7749932e-02
 -1.5729128e-01
 -2.3811045e-01
  8.4588505e-02
 -3.7773159e-01
  2.3573911e-02
  4.1917065e-01
  1.1198845e-01
  5.1374312e-02
  2.5712393e-02
 -7.5925782e-02
  4.5116836e-01
  5.9668003e-03
 -9.1784500e-02
 -8.6045787e-02
  1.1915760e-01
 -2.2479091e-03
 -1.0000085e-02
  7.4793048e-02
  4.3238699e-02
 -5.9524290e-02
 -1.6062364e-02
 -8.2774252e-02
 -8.5927111e-01
  1.5200164e+00
 -1.0310251e+00
  4.7170866e-01
  5.7511848e-01
  3.1552610e-01
 -2.4077305e-01
  3.0932665e-01
  5.9683061e-01
 -1.2875709e-01
  4.2824168e-02
 -1.0693780e-01
  6.9305703e-02
  3.2748729e-01
 -1.0973784e-01
  1.0037771e-01
 -4.4457632e-01
  1.0770886e-01
  1.1615213e-01
 -3.4596264e-01
 -6.3175064e-01
  3.1537524e-01
  8.1411928e-01
 -2.2502936e-01
 -3.8333124e-01
  2.5618279e-01
  2.3680460e-02
  4.4726044e-01
 -2.2576077e-01
  1.0468244e-01
  1.3280104e-01
  1.2758215e-01
  3.3165219e-01
  1.9222133e-01
 -1.4226222e-02
  2.1218991e-02
  6.4335413e-02
  2.8179517e-01
 -1.8909767e-01
  2.3429929e-01
 -1.8124688e-01
 -4.1668344e-01
  2.8130618e-01
  6.4583756e-02
 -2.4872655e-02
 -5.0560236e-02
 -1.2031253e-02
 -1.0487068e-01
  4.1092041e-01
  1.9122809e-01
  4.5675594e-02
  1.8860476e-02
  1.1092833e-01
 -3.3743340e-01
 -4.2399175e-02
 -6.7261320e-01
 -3.4656129e+00
  2.5042961e+00
  1.6850901e+00
  7.3352629e-01
  7.4771047e-02
 -1.7927477e-01
  1.2940115e-01
  2.0993076e-02
  5.7241037e-02
  2.6741064e-01
 -4.5058947e-02
  1.3751753e-01
  4.0597019e-01
  1.7115866e+00
  1.5215965e-02
  1.6157185e-01
  1.9877779e-01
  4.7516203e-01
 -5.4115118e-03
  3.8192263e-01
 -1.7813431e-01
  2.9289308e-01
 -1.8174087e-01
  2.4410887e-02
 -4.2737089e-02
  1.9869852e-01
  1.8732196e-01
  7.0639342e-02
 -2.2240445e-01
  1.2591144e-01
 -1.9671959e-01
  7.6534666e-02
  1.6980214e-01
  8.5360005e-02
 -4.3267612e-03
  1.7074500e-01
  2.9290825e-02
  2.8349290e-02
  1.9920750e-02
 -6.7858517e-02
 -2.7506006e-01
  1.4163638e-02
  4.1721236e-02
 -9.0339072e-02
  1.9552378e-02
 -7.3101602e-02
  5.3654715e-02
 -2.3605699e-02
 -3.8831230e-02
 -1.3556257e-02
 -2.4046665e-02
 -3.4653995e-02
 -9.2810504e-02
 -3.1010211e-02
  1.7246560e+00
  1.6588787e+00
 -3.0773408e+00
  3.5281900e-01
  2.4035637e+00
  3.7060505e-01
  5.2833766e-01
  4.3382189e-01
  1.6565232e-01
  1.8560266e-01
  1.9088997e+00
  2.4844997e-01
  1.0829070e+00
  1.0047826e+00
 -9.5561899e-02
 -7.5245136e-01
  9.2117888e-01
 -1.1781237e+00
 -1.5058548e+00
  2.3983626e-01
 -4.3633598e-01
  2.3412375e-01
  1.3416911e+00
  1.3925782e+00
 -7.7327687e-01
  8.0435252e-01
  9.5061409e-01
 -2.1159798e-01
  2.1079823e-01
  4.8306039e-01
 -4.6970457e-01
 -7.3332793e-01
  3.6881763e-01
 -4.2235374e-02
 -1.3233757e-01
 -5.1467174e-01
  5.6811523e-02
 -4.9355036e-01
  2.1987008e-01
  2.8793347e-01
 -4.2643932e-01
  1.2581167e+00
 -3.1877714e-01
 -7.2094584e-01
 -3.1180075e-01
  3.3594891e-02
  5.4586887e-01
 -3.4120795e-01
  3.7872049e-01
  1.6920013e-02
  6.0827073e-02
 -3.6437213e-02
 -7.3830332e-03
 -7.8361504e-02
 -9.3070485e-02
  2.8665075e-01
  1.1349756e+00
 -1.3458308e+00
  2.1541931e-01
 -1.6021938e+00
  2.3791711e-01
 -4.5367643e-01
 -4.1462023e-02
 -4.7172092e-02
  1.4596489e-01
  5.7619029e-01
  3.8090020e-01
  4.5418295e-01
  4.7351149e-01
  2.9597822e-01
  5.2771765e-01
 -3.2187466e-02
  1.9583353e-01
  9.1429934e-02
  1.8662585e-01
  1.6928443e+00
 -5.4480416e-01
  1.7973113e+00
 -7.2042805e-01
  3.4740689e-01
  9.0562517e-04
  2.7256774e-02
  3.7853920e-01
 -1.4045643e+00
  1.3147287e-01
  3.1758606e+00
  1.8763049e-01
 -3.8211506e-02
  2.8411838e-01
  7.5604719e-01
 -4.4454336e-02
 -4.6872976e-01
 -1.5814122e+00
  1.6328253e-01
 -1.7617793e-01
  7.5759761e-02
 -2.6279268e-01
  3.2104388e-01
  4.8387355e-01
  1.5876113e-02
 -7.2063021e-02
 -1.3030715e-01
  1.0850149e-01
 -3.8254431e-01
 -1.1711280e-02
 -5.0171275e-02
 -3.2568637e-02
  4.0948424e-02
 -1.1655257e-01
  7.5246068e-03
 -1.3406556e+00
  2.0035901e+00
 -3.0094597e+00
  1.3037503e+00
 -7.2370601e-01
 -1.7352749e-01
  3.2212857e-02
 -1.8017597e-01
 -1.0522285e-01
  2.3719479e-01
  1.9645025e-01
  3.2256955e-01
 -1.1691635e-01
 -7.7824056e-01
  4.3757108e-01
 -1.0841336e-01
  9.8454911e-01
 -1.4742887e+00
  1.7033341e+00
  3.5395727e-01
 -8.8326138e-01
  1.4151664e+00
 -3.0831447e-01
 -1.2530643e+00
  1.6301088e+00
 -4.1807294e-01
  3.9041722e-01
 -9.3973732e-01
  1.1784275e-01
 -1.0108890e-01
  2.6286086e-01
  1.2076809e+00
 -4.4514126e-01
 -9.8443037e-01
 -3.6228931e-01
 -2.3170009e-01
 -1.5230742e-01
 -2.7660689e-01
  1.0874884e+00
 -5.3943753e-01
  4.0885010e-01
  8.8062829e-01
 -2.0266886e-01
 -1.0742697e-01
  1.5448929e-01
  4.0512767e-02
 -3.4685653e-02
  1.0104886e-01
 -5.8729029e-01
 -2.1888676e-01
 -6.2121999e-02
  2.4978645e-02
 -2.5627214e-01
  1.5395524e-02
 -9.6508395e-03
 -2.9417083e-01
  1.3843749e+00
  1.9812683e+00
 -1.5419587e+00
  6.8658739e-01
 -2.3484515e-01
 -6.9414124e-02
  1.8062557e-01
  2.5814697e-01
 -2.3432493e-01
  5.0758831e-02
 -1.2795652e-01
 -2.9623269e-03
  2.9512504e-01
 -2.3286775e-01
 -5.4782007e-02
 -2.9811811e-01
  3.0836791e-01
  5.0787109e-01
 -2.6699868e-01
 -4.4628972e-01
 -2.9756141e-01
 -1.4733578e-01
  5.4892272e-01
  2.7903607e-01
  1.1296652e-01
 -6.1086285e-01
  1.8755375e-01
  3.1460455e-01
  1.0361259e-01
 -1.2036792e-01
 -3.2931560e-01
  3.6386743e-02
 -2.8670209e-02
  1.1982167e-01
 -5.0580870e-02
  1.2849091e-01
  1.8658167e-01
 -3.2533297e-01
  2.8854519e-02
 -1.1686673e-01
 -3.9292541e-01
  2.5382575e-01
  1.7695637e-02
 -5.7910237e-02
 -5.6739267e-02
  4.5674149e-02
 -7.8425698e-02
  3.5035092e-01
  1.2426338e-01
  1.9593397e-02
 -3.0490594e-02
  5.3410046e-02
  3.1960566e-02
  1.4281435e-01
 -9.7636767e-02
 -1.9630024e-01
  1.1708996e-01
  1.4852235e+00
  1.4397644e+00
 -2.4499790e-01
  4.8426550e-02
 -2.4866599e-01
 -3.5191962e-01
  1.1256619e-01
  2.1873604e-01
  3.2169458e-01
  1.1864523e-01
  2.6370454e-01
 -1.0563493e-01
  3.1830060e-01
  5.9115335e-02
  7.1626827e-02
 -2.6938340e-01
 -8.8545680e-02
  1.7752181e-01
 -4.6103346e-01
 -2.0486388e-02
 -8.7231435e-02
  2.5310462e-02
 -2.2577041e-01
  1.0335594e-01
  1.4163081e-01
 -2.4331452e-01
 -2.2896673e-01
 -2.3721249e-01
  8.4698252e-02
 -4.9981356e-01
 -3.0313945e-01
  5.5640195e-03
 -1.0465374e-01
 -2.0186035e-01
 -7.8535125e-02
 -1.5658745e-01
  5.5701494e-02
 -1.6997908e-01
  4.5596784e-01
 -9.5092282e-02
 -2.0110559e-01
 -2.7455306e-03
 -1.2992448e-01
 -1.2882265e-01
 -2.3702183e-01
  8.2636967e-02
  1.3246632e-02
 -3.1437576e-02
 -2.0743119e-02
  3.3328559e-02
 -1.1659531e-02
 -2.0097453e-02
 -3.2780781e-01
  1.4161284e+00
 -2.7360566e+00
  2.5554707e+00
 -4.0182185e-01
  4.7674355e-01
  2.5333214e-01
 -3.0827728e-01
  7.4342149e-01
  8.6887759e-01
 -3.9878137e-02
  7.4107093e-01
 -5.3397173e-01
 -6.4569843e-01
  6.7646796e-01
 -2.7103460e-01
  1.6813109e+00
 -4.3401834e-01
 -1.2724797e+00
  2.8399476e-01
  6.0565692e-01
  6.9528294e-01
 -5.3219575e-01
 -5.0362909e-01
 -3.3382323e-01
 -1.0335414e+00
 -1.2429468e-01
 -3.0944818e-01
  1.3933619e+00
  1.6039271e+00
 -5.5771637e-01
  7.3813468e-01
 -5.5715197e-01
  3.9979488e-01
  8.0690813e-01
  6.2707859e-01
  8.5321581e-01
 -1.8477358e-01
 -5.0033087e-01
 -3.1387329e-01
  7.3157310e-01
 -8.8990107e-02
 -4.8322278e-01
 -5.1735979e-01
  3.3017054e-01
  1.0588668e-01
  1.2528253e-01
 -4.0165232e-03
 -7.9825908e-01
  1.1891226e-01
  2.8642905e+00
  1.2748316e-01
  1.0418493e-01
 -3.1749272e+00
 -8.2514882e-03
  2.2960782e-01
  4.2183259e-01
  2.7143676e-02
  4.5190614e-01
  8.5085523e-01
 -6.4957064e-01
 -8.6339265e-01
 -3.7004074e-01
  1.6564633e+00
 -7.3317504e-01
  1.2213358e+00
  9.9712121e-01
  9.7153187e-01
 -8.7068981e-01
 -7.6797330e-01
  1.3127158e+00
 -2.0944951e-02
  5.7409072e-01
  2.8492028e-01
  1.3563563e+00
  3.3317548e-01
  9.8195302e-01
  8.9157814e-01
  1.3947988e-01
  9.0203173e-02
  3.3903401e-02
  4.2321754e-01
  8.2974017e-01
  1.0462145e+00
  9.7465776e-02
  3.1325528e-01
  1.3495761e-01
  3.8902605e-01
  2.7118313e-01
  8.1534564e-01
  4.2287341e-01
 -1.5733120e-01
  7.0406294e-01
  6.3600862e-01
  5.3217679e-01
  4.5692986e-01
 -3.2409242e-01
 -1.3102569e-01
 -1.0466827e+00
  2.6758222e-02
  5.3027496e-02
 -3.3388264e-02
 -1.4408265e-01
  8.4404051e-01
  2.7272612e-01
  5.4468166e-02
 -5.6378510e-02
  4.9967426e-03
  1.4136075e-02
 -4.5414351e-02
  6.7914140e-01
 -1.1750869e-01
 -3.5697136e-02
  4.9376893e-01
 -2.3514304e-01
  2.2371272e-02
  3.2317969e-01
  6.9312714e-02
  1.5465868e-01
 -1.0991505e-01
  4.0468386e-01
  3.4767561e-02
  2.7272102e-01
  2.6224375e-01
 -2.8733602e-01
 -1.4744022e-01
  1.5340393e+00
  6.2928987e-01
 -1.5594642e-01
 -1.2310761e-01
 -2.4454062e-01
 -1.4096578e+00
 -1.7348540e-01
 -6.7218882e-01
  3.4721756e-01
  5.7925475e-01
 -4.2394775e-01
  3.6575896e-01
 -3.5400480e-01
  2.0157322e-02
  1.5740541e-01
 -2.6700684e-01
  3.1138331e-01
  1.3507063e+00
  3.5403597e-01
 -2.2090453e-01
  1.1671086e-01
  1.9161491e-01
 -5.4493958e-01
  2.1910535e-01
 -1.0520840e-01
 -1.6455317e+00
  1.7617412e-01
  3.5224018e-01
 -1.2713809e-01
 -1.7294931e-01
  1.4476918e-03
 -4.3520328e-02
  1.9787332e-01
  6.1921772e-02
 -1.0218914e-02
 -8.9154020e-02
  8.0413483e-02
 -3.6113005e-02
  3.0990114e-02
  7.4973786e-01
 -7.3816429e-04
  1.2963493e-01
  4.6377099e-01
 -7.8300232e-01
  2.0410525e-02
 -1.0058386e-02
 -3.5980895e-02
 -4.8352066e-02
  1.5897000e-01
  1.9000314e-02
 -4.1929097e-03
  1.6733168e-01
 -7.3434566e-03
  3.2935247e-02
 -7.0094943e-02
 -3.7183130e-01
 -7.4784577e-01
  1.7259642e-01
 -6.2460735e-02
  3.3093670e-01
 -1.2389108e-01
  2.4149443e-01
  6.0520500e-01
  4.7732943e-01
 -2.6930866e-01
  1.2906098e-01
 -1.3266024e-01
 -2.7685264e-01
 -7.4496873e-02
 -1.7427912e-02
  3.5994031e-02
  9.4955927e-03
  6.9869511e-02
 -1.2208485e-01
 -5.0908513e-02
  3.1629577e-01
 -1.6854425e-01
 -7.8544756e-03
  2.0864960e-03
 -1.2514036e-02
  4.4891279e-02
 -4.0994421e-02
 -2.1823023e-01
 -2.5723131e-02
  1.0208251e-01
  3.6183815e-02
  4.5764321e-03
 -1.1297770e-01
 -9.1104776e-02
  5.1985472e-03
  2.8057298e-02
 -2.1983081e-01
 -5.0647143e-02
 -2.4791228e-02
 -7.6549854e+00
 -2.6915987e+00
  1.5360588e+00
  5.7703871e-01
  2.7549741e-01
 -4.5971581e-01
 -6.2808536e-02
 -5.2071935e-01
 -3.3688521e-01
 -5.6767279e-01
 -1.0474570e+00
  2.6999930e-01
  1.3124559e+00
 -9.1692865e-01
 -7.6254505e-01
 -1.0227129e+00
 -1.0098412e-02
 -2.5736356e-01
 -3.7032515e-02
 -1.0841228e+00
 -1.5337448e+00
  5.3624399e-02
 -4.0711141e-01
 -1.5115720e+00
 -1.5461442e+00
 -1.1378253e+00
  3.9328036e-01
 -2.7151678e+00
  1.3875008e-01
 -1.2833478e+00
 -6.0290861e-01
  1.7292492e-01
  1.7963946e+00
 -1.1639255e-01
 -6.7505687e-01
 -5.3681546e-01
  4.4306632e-02
 -7.8627932e-01
 -1.8766578e-01
 -5.4008991e-01
 -1.7572327e-01
  1.7409390e-01
  1.0043962e-01
  1.5781154e-01
 -2.7035278e-01
  3.0102155e-01
 -8.5010588e-02
  6.3983244e-01
 -4.7654629e-02
 -4.2028636e-02
 -5.6672141e-02
 -2.4681019e-02
 -6.0950920e-02
  2.5913766e-02
 -1.4237975e-03
 -1.5603395e-01
 -5.0281078e-01
  6.6493593e-02
 -5.6692547e-01
  1.8992539e-01
 -3.1947181e-02
  4.4838138e-02
 -1.5725512e-02
 -5.2290101e-02
  1.5389304e-01
  5.8075398e-02
 -4.3303601e-02
  2.6616538e-02
 -8.0689944e-02
 -2.2971115e-01
  2.8105440e-02
  4.1724801e-02
  1.1379061e-01
  1.1165681e+00
  9.3551606e-02
  1.8274216e-02
  1.1136823e-01
 -2.1803727e-02
 -1.9345063e-01
 -6.3455373e-02
 -9.9111244e-02
 -9.0828210e-02
  3.9379638e-02
  2.5737843e-02
  1.1471721e-02
 -1.5636379e-02
 -1.9707789e-01
 -9.9046171e-02
  1.2425350e-03
 -5.4300977e-03
 -4.9594860e-03
 -4.3260951e-02
 -5.2953117e-02
 -5.6687899e-02
 -5.5860901e-01
  4.4340421e-03
  4.4167042e-02
  5.1230239e-03
  7.4181005e-02
  7.8690335e-02
  5.0696835e-02
  9.9987444e-03
 -3.7777755e-02
 -2.2707630e-02
 -8.5394777e-02
 -1.7098496e-02
  6.9549697e-04
  7.9039119e-02
 -7.5142063e-02
 -2.2000412e-02
 -3.5742974e-01
  1.3010095e-01
 -6.3610297e-01
  1.3334893e-01
  4.7831592e-01
  7.1107492e-02
  4.4102088e-01
  2.1246068e-02
 -1.1587945e+00
  1.7915605e-01
  2.8165242e-01
  4.3189022e-01
 -2.0861381e-01
  4.1441679e-01
 -5.1476455e-01
 -1.7269221e-01
 -5.8213633e-01
 -1.3652090e+00
 -1.9994663e+00
  6.4589393e-01
  2.5523769e-02
 -4.9014035e-01
 -6.9545227e-01
 -4.4911252e-03
 -5.7982135e-01
  1.9082217e-01
 -1.8362588e-01
 -9.2869222e-02
 -2.6159763e-01
  1.6061120e-01
  2.3510435e-01
 -7.6617926e-02
 -8.6786330e-01
 -5.3519368e-01
 -9.6815550e-01
 -3.5837632e-01
  3.9140612e-01
 -7.0564663e-01
 -6.7427021e-01
 -3.5330474e-02
 -1.8604365e-01
  3.2313141e-01
 -3.3523905e-01
 -5.5060517e-02
 -2.1364814e-01
 -1.6386636e-01
 -1.0363486e-01
  1.4988606e-01
 -2.5776023e-01
 -1.5230189e-01
 -6.6619456e-02
 -2.1680598e-03
 -5.8074165e-02
  1.6551137e-01
  1.6529890e-02
  4.0621623e-01
 -9.9147713e-01
 -1.8375254e-01
 -8.0845028e-02
 -3.4884888e-01
  2.9150244e-02
 -5.4203697e-02
  1.9667463e-02
  3.1087171e-02
 -1.1734903e-01
  1.0044796e-01
 -9.0115473e-02
  3.9558146e-02
  6.4113550e-02
 -2.5186609e-02
 -3.5561729e-02
 -2.0004328e-01
  1.3156882e-01
  9.8594442e-02
 -9.3114071e-02
  1.3395961e-01
 -2.0278302e-01
  2.2663496e-01
  7.2026528e-02
 -1.5488863e-01
  9.8970294e-02
 -1.1217047e-01
  1.3192262e-03
  1.5143666e-01
  3.6915526e-02
  5.0646342e-02
 -4.4890732e-02
  1.2126247e-01
 -4.3614671e-02
  1.0376463e-01
 -1.2819110e-02
 -2.7132386e-02
 -4.9774978e-02
 -2.1121322e-01
  9.6168146e-02
 -6.7434362e-03
 -2.2529438e-01
  4.7063224e-02
  4.1998863e-02
  1.2476140e-03
  3.3365607e-02
  9.6476533e-02
  1.5837310e-02
  1.0288384e-01
 -3.8149939e-03
  4.1149024e-02
 -2.9078536e-02
 -6.4536832e-02
 -1.3150795e-01
  7.7165022e-02
  9.2607659e-01
 -2.8090863e+00
 -9.6414381e-01
 -6.4349437e-01
 -2.3714423e+00
  1.9986925e-01
 -2.1049786e-01
  3.0638683e-01
  9.4621414e-01
 -2.4548924e-01
 -2.0370373e-01
  1.4132474e-01
  3.4755164e-01
 -1.4418554e+00
  1.7656067e-01
 -2.4085238e-03
 -1.7847133e+00
  4.9771762e-01
 -4.0190909e-02
 -2.2268005e-01
 -3.6642417e-01
  5.8334649e-01
  2.0309522e+00
  2.0323431e+00
 -1.2221423e+00
 -2.9779680e+00
 -5.7555050e-01
  8.9620304e-01
  1.8580785e+00
  1.3349411e-01
 -1.8547455e-02
  8.1753656e-02
  3.5108775e-01
  1.0610486e+00
  5.8692630e-02
 -3.6429825e-01
 -2.3799561e-01
  3.5656190e-01
  6.4308047e-01
  7.4778281e-02
  1.7478536e-01
 -4.1549233e-01
  7.7926442e-02
  3.7013438e-01
 -9.3613463e-03
  2.0606264e-01
  1.1179560e-01
 -6.3141316e-02
  9.1621481e-02
  5.1003378e-02
 -3.5960663e-02
 -1.5140921e-02
  3.3119522e-02
  6.0572755e-02
  1.3823442e-02
 -6.0626809e-02
 -1.1845050e+00
  1.2974627e-01
  3.1913328e-01
  1.6735730e-01
  1.3738135e-01
 -9.1978468e-02
  6.2918723e-02
  6.2732276e-04
  1.0597859e-01
  9.8053177e-05
  3.8810253e-02
 -1.4897226e-02
 -1.6192542e-01
 -6.5467723e-02
  1.4665820e-02
  6.8169713e-02
  1.6079437e-02
 -8.1286356e-03
  1.0401801e-01
 -1.3995397e-01
  2.0927900e-02
 -1.0011547e-02
  1.3603899e+00
 -5.9864190e-03
 -6.3888445e-03
  5.3992096e-02
 -8.2895473e-02
 -5.1228028e-02
  2.5132550e-03
 -1.8456981e-02
 -2.0659856e-02
 -4.2843353e-02
 -5.9485670e-02
  5.5682152e-03
  3.6377236e-02
 -1.0198243e-01
 -1.0200444e+00
  3.0156316e-02
 -3.4270370e-03
  5.6420717e-02
  6.8386853e-02
 -3.0328302e-02
 -5.9007458e-02
 -8.8572137e-02
  1.0410124e-01
 -2.0365475e-02
  6.0277823e-03
  1.4698906e-02
 -6.3397169e-02
 -3.6304865e-02
  1.1393049e-02
  4.7002751e-02
 -3.9534885e-02
 -2.8283169e-02
  1.7869304e+00
 -2.3495827e+00
 -3.4082301e+00
  1.2359704e+00
  3.4633480e-02
  5.1018250e-01
  4.6355747e-02
 -2.9443878e-01
 -2.2165111e-01
  1.7138837e-01
 -1.3797240e+00
 -6.3394225e-01
 -1.0326699e+00
 -1.4663761e+00
 -6.6270851e-02
 -1.0108547e+00
  9.2948514e-01
 -1.9224529e+00
  2.1485905e-01
  9.9949181e-02
 -6.7286342e-01
 -8.7475139e-01
  2.0776265e+00
  6.8761182e-01
  1.9005381e-01
 -1.3117391e-01
  3.5863453e-01
 -1.0691113e+00
  2.3224368e+00
  7.9275233e-01
 -1.2018397e+00
 -7.6655829e-01
 -1.0985223e+00
  5.2319236e-02
 -1.9765750e-01
 -5.9025496e-01
 -2.2599451e-02
 -7.3126888e-01
 -2.4420890e-01
  1.2573546e-01
 -6.0284358e-01
 -1.2347999e-01
 -8.3174743e-02
  1.0335603e+00
  2.4502322e-01
 -7.5928174e-02
 -1.3592775e-01
  6.6900209e-02
 -5.2635032e-01
 -1.3475136e-01
 -5.5201907e-02
  6.5502107e-02
 -1.2094752e-01
 -8.7547358e-03
 -1.7087726e-03
  3.6979284e+00
  2.0437829e-01
 -1.2909892e-01
 -5.4760838e-01
  1.6257392e+00
  1.2734421e-01
 -7.6667833e-01
 -1.4747192e-01
 -2.2809294e-01
  4.1134175e-02
  8.0625087e-01
  2.9728055e-01
 -7.1726434e-02
  1.0318242e+00
 -2.0678432e-01
  6.5208048e-01
  1.0346712e+00
  1.2425071e+00
  8.8680357e-01
  5.6987500e-01
  2.3705044e-01
 -4.1506982e-01
 -6.5433401e-01
  4.1247672e-01
  2.0035398e-01
  6.3641579e-03
  1.4309375e-01
 -7.2209626e-01
  6.9068611e-01
 -7.7399760e-01
  6.5275824e-01
 -1.2011044e+00
  3.1763300e-01
  1.7077744e+00
  7.9945874e-01
  4.7101164e-01
  8.9573890e-01
  8.6871052e-01
  1.9489557e-02
 -5.9765238e-01
  8.5176092e-01
  9.1309249e-01
  7.8629792e-02
  7.2386807e-01
  1.2155969e-01
 -7.1345888e-02
 -1.9094336e-01
  1.8833584e-01
 -2.9189283e-01
 -1.6908348e-02
  2.9732296e-02
 -1.3233316e-01
 -4.8766207e-02
  1.2789783e-01
  6.3701831e-02
  1.5382429e+00
  3.4822136e-01
  1.5404509e+00
  6.2089598e-01
 -8.4407037e-01
  1.3333964e-01
  4.8456633e-01
 -2.2815891e-01
 -1.1620510e-01
  3.7415776e-01
 -6.8150884e-01
  1.9137955e-01
 -7.5286245e-01
  6.7176300e-01
  6.9104433e-02
  4.5300531e-01
 -8.3550358e-01
 -1.6906725e-01
 -9.8246837e-01
 -7.7199213e-02
  5.5500114e-01
 -8.3737022e-01
  4.5668760e-01
  4.5787123e-01
  3.7387189e-01
 -3.5237622e-01
  1.2905130e+00
 -9.0226340e-01
  1.6380862e+00
  1.0613295e-01
 -4.0955409e-01
  8.4711248e-01
 -1.1075701e+00
  1.0527663e+00
  2.0076428e-01
  1.9726443e-01
  2.1686800e+00
 -5.7411957e-01
  8.5697226e-02
  7.9861619e-03
 -6.7413576e-02
  5.4654932e-01
 -9.2024431e-02
 -8.5235797e-03
 -2.4964133e-02
 -6.3840158e-02
 -1.5685688e-01
 -2.0865320e-01
 -9.1091812e-02
  3.3873886e-02
  8.3057456e-02
  1.4713968e-03
  7.9242483e-02
 -1.2470342e-01
 -4.5591448e-03
 -1.2778770e+00
 -4.8183602e-01
  3.2179642e-02
 -9.5431238e-01
  3.5230482e-01
 -9.9230474e-03
  7.6790355e-02
 -2.6641466e-02
 -2.6358001e-02
  5.0519383e-01
 -1.2365647e-02
  2.0915170e-01
 -8.5155420e-02
 -1.6790764e-01
  8.3094656e-02
 -3.5185900e-02
  1.9970946e-01
 -2.4994829e-01
 -1.9770667e-01
  7.1797311e-02
 -6.9154412e-01
  2.8587386e-01
 -2.2157879e-01
 -3.3137140e-01
  3.0834222e-02
 -3.0342439e-01
  3.1588729e-02
 -2.2706868e-01
 -1.6487600e-01
  1.8425797e-01
  1.8807400e-02
 -2.1992333e-01
 -2.6249948e-01
  5.5299163e-01
  1.4876643e-01
 -3.8732689e-02
 -1.9153854e-01
 -9.7074531e-02
  1.2861314e-01
 -5.5218589e-02
  2.4413313e-01
  3.9325488e-01
 -1.1615270e-01
 -4.6372369e-02
 -8.9099333e-02
 -6.7872688e-02
 -1.0028742e-01
  4.4794071e-02
 -2.3221789e-01
 -6.1695043e-02
 -2.7008852e-02
 -7.2080396e-02
  1.6433287e-03
 -7.8305736e-02
  7.2541736e-02
  2.2041392e-02
  1.0553415e-01
 -2.1427268e-02
 -2.8252339e-01
  3.2604405e-01
  8.1079125e-02
 -1.1010023e-01
  6.0407255e-02
  1.5193347e-02
 -1.2678510e-01
  3.7747461e-02
 -1.0750458e-01
  5.2909199e-02
  1.3249236e-01
 -4.1963231e-02
  7.4743745e-03
 -1.9069679e-02
  1.4372389e-01
  2.4585433e-01
  1.1129408e-01
 -7.2429026e-04
 -1.0976005e-01
 -8.9899607e-02
  1.6283461e-01
 -1.2283934e-02
  1.0132872e-01
  2.1015307e-01
  1.3140959e-01
  1.4917041e-01
  4.5444056e-02
 -5.4831272e-01
 -1.6166341e-01
  7.2260000e-02
 -1.9679677e-02
 -1.3845004e-01
  1.4420849e-01
  5.4433919e-02
  3.7262727e-02
 -3.5496254e-02
 -1.8015349e-02
 -9.1891475e-03
 -1.4491124e-01
  1.1678242e-01
  1.1279763e-01
  3.5667032e-02
 -3.2164373e-02
 -5.3380303e-02
 -9.3021192e-02
  8.2020104e-02
  4.0803015e-02
  1.1040022e-02
  5.2797962e-02
  3.2502510e-02
  3.6549777e-02
  2.1494105e-02
 -2.2982648e-01
 -1.2058423e-01
  5.8112305e-01
 -2.8301498e-01
 -5.2152697e-02
  4.7239754e-02
  3.0704808e-01
 -7.0652701e-02
 -9.0300572e-01
  2.9773125e-01
 -5.2663200e-02
  2.4231040e-01
  2.4804728e-01
  7.9949009e-01
 -1.4843091e-02
 -7.5253062e-02
  8.2762457e-02
 -1.0798267e-01
 -1.4096090e-01
  5.1371771e-01
 -3.6858481e-01
 -3.1253493e-01
 -1.0845882e-01
 -7.7517956e-02
 -4.7665352e-01
 -2.2056313e-01
  1.3947815e-01
 -2.5429964e-01
 -5.7055712e-01
 -5.1508907e-02
 -5.0670922e-01
  1.8751784e-01
 -1.9926246e-01
 -4.3374524e-01
 -2.3481645e-01
 -1.5640164e-03
  2.2720541e-01
 -1.8393721e-01
  3.7094159e-03
 -3.4462535e-01
 -5.8422443e-02
 -3.7528679e-02
 -2.3085175e-01
 -3.1170759e-01
  7.8742102e-02
  5.1191948e-02
  6.3661709e-03
  3.3619902e-01
 -1.7468797e-01
 -1.7196357e-01
  3.6734186e-02
  1.2999801e-02
  1.0594425e-01
  1.8200587e-02
  3.8259331e-02
 -5.7767682e-02
 -1.3366486e+00
  4.7071159e-01
 -7.1794170e-01
 -1.1022894e+00
  1.1719770e+00
  1.6407263e+00
  3.0675623e+00
  4.7948751e-01
 -5.8677524e-01
 -1.8005606e-02
 -1.9677225e-01
  1.6600304e+00
  1.2215850e+00
 -1.6175114e+00
 -7.6033098e-01
  1.3503692e+00
 -4.7509491e-01
 -2.0644445e+00
  2.0298672e+00
  6.2314063e-01
  4.3213779e-01
  1.5581478e+00
 -5.2982527e-01
 -2.6826100e+00
 -5.5475700e-01
  2.4588598e-01
  3.5757294e-01
 -2.1553412e-01
 -7.7783573e-01
 -8.8435876e-01
 -7.8804922e-01
  1.6758220e+00
 -6.3589895e-01
 -1.4322989e+00
 -7.6197207e-01
 -2.4411919e+00
  1.3070977e-02
 -2.9688509e-02
 -5.9639728e-01
 -1.2312582e-02
 -1.5228118e-01
 -4.2998677e-01
 -1.1820986e+00
 -6.0615700e-02
 -1.3920259e-01
  8.7703925e-01
 -4.6673089e-01
  1.2270105e+00
  2.5995347e-01
  5.4912560e-02
 -9.2888348e-02
 -1.2786022e+00
  5.9564016e-03
  1.1858845e-01
  2.7530357e-01
 -2.3144624e+00
  5.0726438e-01
 -5.4377306e-01
  7.2183281e-01
 -5.5062658e-01
  2.3662800e-01
 -4.0628070e-01
 -1.0234498e+00
  1.9138333e-01
  4.1656565e-02
  2.7076465e-01
  2.3778759e-01
  1.4986504e+00
 -2.7971745e-01
  4.2193422e-01
 -1.8783981e-02
  6.4974940e-01
 -4.6935081e-02
  6.7833506e-02
 -4.8750350e-01
 -6.3971597e-01
 -6.6607130e-01
 -1.8474849e-01
  3.0911654e-01
 -1.2085109e+00
 -5.2520162e-01
  2.4859148e-01
 -9.1940135e-01
  2.0489633e-01
 -6.2410629e-01
 -4.0456483e-01
 -3.4072334e-01
 -1.2634182e+00
  6.1862594e-01
  1.2772982e-01
  8.3777237e-01
 -1.3474771e-01
 -4.4594383e-01
 -3.7372172e-01
 -1.3137282e-01
 -5.8666173e-02
 -1.8339434e-01
 -1.6583504e-01
  1.0124793e+00
 -1.6944315e-01
  3.5856314e-02
 -7.1488053e-02
 -1.3708480e-01
 -8.5504495e-02
  7.5193450e-02
  3.0653276e-02
  4.7043931e-02
 -3.0811191e-02
 -2.9343005e-02
 -2.9274645e+00
 -8.7143993e-01
 -5.0289226e-01
 -3.2708282e+00
  2.4936252e+00
  2.9227737e-01
  1.6408265e-01
  7.6539898e-01
  1.4605036e+00
 -4.5230907e-01
  8.4353322e-01
 -4.4400120e-01
  2.2647097e+00
  4.7728673e-01
 -3.3096004e-01
  8.2187444e-01
 -2.7562127e-01
  3.5280206e+00
 -8.8073367e-01
 -1.7312478e-01
 -4.7828904e-01
 -2.2535124e+00
 -5.9556637e-02
  7.7521302e-02
  1.1753192e+00
 -3.5971814e-01
  8.0012232e-02
  3.2627285e-01
  7.2416586e-01
  2.9324323e-01
  6.9499213e-01
  4.2473075e-01
  4.4277519e-01
  2.8448966e-01
  3.9251748e-01
  7.4871391e-01
  7.2562075e-01
  6.0380560e-01
  1.1954217e+00
  4.6888277e-02
 -3.6185633e-02
  6.2910986e-01
  2.0474885e-01
  3.5646346e-01
  8.5614463e-03
 -2.5004447e-01
  5.1357176e-02
 -1.7886589e-01
  6.1674738e-01
  3.1571066e-01
  1.2349737e-01
 -6.0297385e-02
  4.7187295e-02
 -6.6821687e-02
  3.0142495e-02
  1.7227098e+00
 -2.3744690e+00
  3.4545348e+00
 -1.5914283e+00
  4.3516371e-01
  1.4159325e-01
  1.0787223e-01
 -5.1788795e-01
 -1.1977772e-01
  5.5341291e-01
 -5.5898148e-01
 -1.8744312e-02
 -5.4343112e-02
 -7.8054804e-01
  5.3611225e-01
  5.1226377e-01
  5.4695463e-01
 -1.6135257e-01
  4.7798198e-01
  3.2435074e-01
 -1.8529183e+00
  1.2935616e+00
 -1.4531009e+00
  1.7329946e+00
  1.8116012e+00
  3.2215050e-01
  9.0821832e-01
 -1.7530511e-01
  3.3527318e-01
 -2.4141163e-01
  4.3455568e-01
 -1.1357701e+00
 -2.3354138e-01
  2.9435751e-01
  5.7123240e-02
  6.9137877e-01
 -3.6692306e-01
  5.1373415e-02
 -1.6615938e-01
 -2.3126118e-01
  4.8169997e-01
  1.4838800e+00
 -2.7557313e-01
 -8.1490278e-01
  8.1189565e-02
  2.9029229e-01
  1.9896135e-01
  2.6086441e-01
 -7.2857535e-01
 -2.1290523e-01
 -6.1976453e-03
  2.0174900e-02
 -3.2540762e-01
  1.0608952e-02
 -3.4218416e-02
 -2.0002325e+00
  2.6491618e-01
 -4.5696640e+00
  7.6950079e-01
  1.6323731e+00
  4.6952933e-01
  2.5616464e-01
  1.2233236e-01
  1.4302255e-01
  7.3826686e-02
 -4.4056037e-01
 -6.6686295e-02
 -6.2593156e-03
 -6.9023830e-01
  2.5346953e-01
  5.5612230e-01
  2.0460087e-01
 -1.1161739e-01
  1.0938965e-01
  5.1903301e-01
  6.7071217e-01
  8.0498278e-01
  2.5026411e-01
 -9.3727833e-01
  4.6793088e-01
 -7.1091515e-01
  3.7495917e-01
 -4.6697530e-01
 -1.1963677e+00
 -4.6408480e-01
  2.5523993e-01
  5.8992797e-01
 -3.3949584e-01
  4.8627563e-02
 -1.5778325e-01
 -4.8848474e-01
  1.9471028e-01
 -4.1333517e-01
 -3.1793125e-02
  3.3776567e+00
  4.3096614e-01
  3.6423296e-01
 -1.0764296e-01
 -1.4729990e-01
  1.5516368e-01
  1.2422576e-01
  1.1539336e-01
  1.9363383e-02
 -2.8044891e-01
 -1.3212023e-02
 -7.2536297e-02
  4.4627491e-02
 -1.0644147e-01
  3.3974733e-02
  5.7476148e-02
  1.8578186e+00
 -3.2663510e+00
  7.4791044e-01
 -2.6478035e+00
  6.9829071e-01
 -7.6907165e-02
 -1.5001925e+00
 -3.3789918e-01
  2.6003429e-01
 -2.2925192e-01
  6.2518001e-01
 -9.1549581e-01
 -1.0693008e-01
 -2.2707996e+00
  1.8917218e-01
  1.6157846e+00
 -1.0348592e+00
  2.4977705e+00
  1.5562491e+00
 -3.3680648e-01
 -1.9998381e-01
 -8.7018716e-01
 -9.6841770e-01
  1.1137781e+00
  3.4547138e-01
  1.0727173e-01
 -1.4349525e-01
  1.0185747e-01
  1.2722483e-01
 -1.3117847e-01
  1.1671904e+00
 -1.4557204e+00
  2.9976223e-02
  1.0462872e+00
  9.0135568e-01
  6.9727904e-01
 -1.0262620e+00
  7.2051376e-01
  8.7281626e-01
 -1.2495735e+00
  1.1468275e+00
 -4.9148202e-01
  1.2106490e-01
  1.0604665e+00
  2.8630146e-01
  3.9149505e-01
 -6.5432650e-01
  4.7113630e-01
 -7.5143713e-01
 -1.1761285e-01
  2.2651773e-02
  4.3780137e-02
 -2.6548902e-02
  7.7144084e-03
  9.0732099e-03
 -4.0072691e-01
  3.0825001e-01
  3.3762002e-01
 -8.2073444e-01
  3.6171812e-01
 -1.8021293e-01
 -2.6803714e-01
  6.1940098e-01
  1.3888925e-01
 -3.6403185e-01
 -5.3833461e-01
 -3.0858660e-01
  1.6718490e-01
 -3.1677356e-01
 -4.2046720e-01
  7.7068031e-01
 -5.0525045e-01
 -5.2127153e-02
  5.6828123e-01
  1.4620502e-01
 -4.8755851e-01
 -3.7623107e-01
  4.5295337e-01
  1.0496647e+00
  1.3911793e-01
 -6.3400376e-01
 -2.6243368e-01
 -1.9133471e-01
 -1.4897056e-01
 -3.9499752e-02
  7.9863928e-02
 -8.1943005e-01
  6.2971538e-01
 -7.9461193e-01
 -8.7653226e-01
  4.7708422e-01
 -4.2955700e-01
  4.6085811e-01
 -3.7301630e-01
 -1.4057299e-01
  2.9793081e-01
 -1.9966607e-01
  1.5030481e-01
 -3.4825274e-01
  1.6092260e-01
  1.0464083e-01
  8.7591056e-03
  3.0451840e-02
  5.8337659e-01
  1.9834596e-01
  6.1709728e-02
 -8.6484723e-02
 -4.8867770e-02
 -1.3343188e-01
 -2.2002268e-01
 -9.0441100e-02
  1.9321635e-01
 -2.2532207e-01
 -1.0252257e-01
 -1.5935196e+00
 -6.1974611e-02
  1.2369128e-01
 -1.0459690e-01
 -2.5242904e-01
  2.6168311e-02
  7.5074770e-02
  2.1986878e-02
  7.4141815e-02
 -1.3588646e-02
 -3.7263513e-02
  5.0100420e-02
  4.8183475e-02
  2.9578028e+00
 -4.0674973e-01
 -2.8365975e-02
  2.7276544e-02
 -2.7052674e-02
 -2.2752883e-01
 -3.8674101e-01
  1.9144733e-02
  3.8171491e-01
 -1.3398686e-01
  3.9953154e-01
  8.4738389e-02
  1.6271196e-01
  1.8812105e-01
  9.5070377e-02
  2.4016881e-02
  2.3043467e-02
 -3.2214701e-02
 -9.7956575e-02
 -9.5688410e-02
 -1.9952891e-02
 -4.4192863e-01
 -2.3509826e-01
  4.3838382e-02
  4.7304742e-02
 -3.3315066e-02
 -1.2945649e-01
 -1.6572556e-02
 -9.6178621e-02
 -2.5098665e-02
  7.0895560e-02
 -4.9116820e-02
 -5.5742320e-03
  1.6140355e-01
  6.4200215e-02
  9.3744501e-02
  5.5331877e-03
 -3.5542719e-02
 -2.4010541e+00
 -9.7132951e-01
  1.2932419e+00
 -4.8488086e-01
  1.8456925e+00
 -1.4320680e-01
  1.6051760e-01
 -9.5668390e-02
  2.0205401e-01
 -4.2687006e-02
  6.4861792e-01
 -9.8188609e-02
  2.1510172e-01
  2.1689306e-01
 -7.2991110e-02
 -2.1933025e-01
 -5.4153364e-02
  5.6684560e-01
  7.5322080e-01
  1.4023483e-02
  1.4122410e-01
 -7.0931441e-01
  3.0688232e-01
  1.9073664e+00
  1.3828269e-01
  8.1838556e-02
  1.7512035e-01
  1.8447369e-01
  9.6185930e-02
 -1.1841038e-01
 -1.0263297e-01
 -5.3073876e-02
  2.4906826e-01
  6.8954967e-02
  8.0438955e-03
 -5.7450064e-02
  1.0134724e-01
  1.7725936e-01
 -2.7015934e-02
 -8.6181290e-02
  5.7584506e-01
  8.6294867e-02
  1.2136846e-01
  1.6818641e-01
 -1.3086739e-01
 -7.7861197e-02
  9.4126844e-01
 -6.8359390e-02
  1.3929355e-01
  2.8631756e-02
 -2.3435531e-02
  1.4410226e-01
 -3.6617037e-02
  3.1453721e-02
  2.0164113e-02
  5.2081567e-01
  5.9288472e-01
  1.0697994e+00
  4.4277458e+00
 -1.7280462e+00
  1.8113187e-01
 -7.9754519e-01
  1.3364402e+00
 -1.2798093e-01
 -4.3412853e-02
  2.8140396e-01
  4.7892556e-02
  6.7957067e-01
  2.2472513e-01
 -2.5080022e-01
  3.5185415e-02
 -1.0080860e+00
  1.9889039e+00
  1.7672771e-01
  6.3738477e-01
  6.3985276e-01
  2.2843438e-01
 -6.0743824e-02
 -1.0549104e+00
  2.6562813e-01
  4.5775914e-01
 -3.6494061e-01
  6.1637461e-01
 -3.4113783e-01
 -4.3311667e-01
  3.6916450e-01
 -6.9399887e-01
  7.0907217e-01
  6.4792943e-01
  4.4554693e-01
 -5.3659081e-02
  5.8991605e-01
  1.7453165e+00
 -1.3231435e-01
  6.2893695e-01
  2.8197461e-01
 -3.7198249e-01
 -4.5238915e-03
  1.1027014e-01
 -2.4870609e-01
 -3.1690046e-02
 -1.5937591e-01
  3.3384132e-01
 -3.3178461e-01
 -2.9704278e-02
  1.2980288e-01
  4.6046168e-02
  3.9026342e-02
  5.8668628e-02
 -7.7713557e-02
 -2.0044317e-02
  2.0922728e+00
 -2.8130391e+00
 -3.3014209e+00
 -2.7727346e+00
 -3.9401686e-01
  3.9252716e-01
 -2.4653712e-01
 -1.3206415e-01
 -1.1213782e-01
 -6.1863315e-01
  2.0417443e-01
 -8.6936325e-01
 -2.5488603e-01
  4.0104769e-02
 -4.3217242e-01
  1.3556790e-01
  4.4616699e-01
 -1.6022454e-01
 -1.0233033e-01
 -1.2555206e+00
  3.8001660e-01
  9.3221080e-01
  2.7012739e+00
 -3.3142748e-01
 -1.2595183e-01
 -2.6257377e-02
  3.7576967e-01
 -2.3270082e-01
  3.0194134e-01
 -4.7327572e-01
  3.7331957e-01
 -3.0144945e-01
 -3.1054795e-01
 -7.5681351e-02
 -9.0220012e-02
 -1.1199337e-02
 -3.4194911e-01
 -1.4574932e-01
  5.0228629e-02
 -9.0215869e-02
  2.5922242e-01
  1.0571439e-01
 -5.6878857e-02
  1.3543009e-02
  1.6096900e-01
 -2.2794539e-02
  3.5087323e-01
  6.2509932e-02
 -1.3037595e-02
 -4.0828585e-04
  2.4012691e-01
 -6.3018098e-02
  3.0575013e-02
 -4.4869259e-02
  1.0273781e-01
  1.3855891e+00
 -4.3301082e-01
  4.0269837e-01
  1.5030096e+00
 -6.8337357e-01
 -1.5877903e-02
 -3.4151387e-01
  1.5435901e-02
 -3.0217996e-01
  3.9504880e-01
 -1.5263581e-01
 -8.4572375e-01
  1.4686688e+00
 -1.5934730e-02
 -1.7314301e+00
 -4.0656728e-01
  4.7477278e-01
 -2.1117918e-01
  3.6035448e-02
  1.9591054e-02
 -8.1164032e-01
 -1.1071005e+00
  1.8147603e+00
  3.0383158e-01
  2.5478134e-01
 -4.7920489e-01
 -7.1778899e-01
 -1.2206224e+00
 -1.1594279e+00
 -8.6102135e-02
 -6.7133826e-01
 -6.5826887e-01
 -7.9743940e-01
  2.5049371e-01
  2.7358231e-01
 -7.9838586e-01
  2.3647545e-01
  6.8239564e-01
  8.3326660e-02
 -2.2797139e-01
 -2.3772551e-01
  9.8120809e-02
 -3.2868168e-01
 -1.5800016e-02
 -5.6183517e-01
 -3.1607315e-01
 -9.5210202e-02
  3.1025058e-01
  2.4026553e-01
  2.1952178e-02
 -9.1727614e-02
  3.9259043e-02
 -7.5456604e-02
  6.9878511e-03
  9.0917528e-01
  3.9162096e-02
  1.7439431e-01
  1.3763431e+00
  9.1215408e-01
  4.2479864e-01
  4.1757036e-02
  6.0048971e-02
  2.7280140e-01
  2.6996669e-01
 -1.8116286e-01
 -2.5126601e-02
 -4.2972237e-02
 -7.1571839e-01
  1.8694194e-01
 -1.3643573e-01
  9.6122876e-02
 -1.0667029e-01
 -1.6713388e-01
  2.2736099e-01
  5.7024318e-01
 -2.5998169e-01
  4.4154754e-01
  1.0890977e-01
 -9.3612187e-02
 -1.6539609e-01
  8.5098833e-02
 -2.7785829e-01
 -2.1481511e-01
 -5.0569065e-02
  9.0480387e-02
  1.3457681e-01
  1.1348187e-01
 -1.6991332e-01
 -1.3999061e-01
  4.2827509e-02
  2.3171094e-01
 -2.1892488e-01
  1.2296911e-01
  4.9209762e-02
  2.3160212e-01
 -1.0818690e-01
 -3.5774026e-02
 -1.3361268e-01
  1.3947140e-01
  1.8437032e-01
  2.2502167e-02
  4.3145135e-02
 -2.6705530e-01
 -1.7857267e-01
 -1.2715294e-02
  2.1185584e+00
  1.1422681e-01
 -4.4936880e-02
