nep4 2 Te Ge 
cutoff 8 8 136 136
n_max 4 4
basis_size 8 8
l_max 8 2 1
ANN 70 0
 -1.1059246e+00
 -2.4345629e-02
  4.4995168e-01
 -1.1487436e+00
  2.8770146e-01
  5.4838811e-03
 -9.6818157e-02
 -5.6859440e-01
  5.6211710e-01
 -4.9947307e-01
 -7.0264500e-01
 -6.9121921e-01
 -4.3157330e-01
  1.6822554e-01
  8.8786863e-02
 -3.5654789e-01
  9.8445630e-01
 -8.5898989e-01
 -8.0349676e-02
 -3.7394789e-01
  5.9839493e-01
 -6.9209313e-01
 -1.4721724e+00
  1.1737735e+00
  2.1472370e-02
  1.7344961e-01
 -9.4480157e-01
 -2.3117745e+00
  1.0874627e+00
 -3.4194846e-02
 -2.0199271e-01
 -4.4716960e-01
 -1.2127764e+00
  1.3040158e+00
  1.9073497e-01
  1.4647646e-01
 -3.2384971e-01
 -5.6378126e-01
  3.1951952e-01
 -1.6421840e-01
  6.6209960e-01
  1.2497850e-01
 -3.8229749e-01
  1.0680474e-01
  2.2307889e-01
 -3.8717855e-02
  1.4142773e-01
  3.1644809e-01
  9.1011986e-02
  2.1435907e-01
 -1.3017182e-01
 -6.8432838e-02
  2.0329952e-02
 -4.3081567e-02
 -8.8020666e-03
 -3.3425629e+00
  5.8529234e-01
  3.6416963e-01
 -2.0019035e+00
 -1.1161596e-01
  9.3269080e-02
 -3.8711697e-02
 -1.6458847e-02
 -2.9304806e-02
  2.2739044e-01
  5.7537395e-01
  3.3116567e-01
 -1.3091117e-01
  5.7055309e-02
 -7.9699111e-01
  2.1073362e-01
  2.1180518e+00
  3.0572653e-01
  2.1799010e-01
 -1.0778726e-01
  5.1026469e-01
  5.0719100e-01
 -2.4567109e-01
  8.9285553e-02
 -8.9861035e-01
  4.5915043e-01
  7.1735673e-02
  5.7205862e-01
 -1.5613581e-01
 -5.6478076e-02
  1.7905514e-01
 -7.8975573e-02
  4.1534764e-01
 -1.5118080e-01
  2.2125919e-01
  4.3278471e-02
 -2.2422767e-03
  7.6518223e-02
 -1.2934902e-01
 -1.0921301e-01
  6.1021984e-02
 -1.6453756e-01
 -3.5987724e-02
 -1.2180910e-01
 -1.2659062e-01
  3.2466534e-01
  8.4744999e-03
 -1.2616056e-01
 -9.2436850e-01
 -1.2968247e-01
  4.1399047e-02
 -6.9770329e-02
  7.7822641e-02
  5.2711487e-02
  4.0763575e-03
 -3.5401833e-01
  1.1956455e+00
  1.5245524e-01
 -9.3773448e-01
 -2.2265134e-02
 -2.0362841e-02
  5.6420418e-04
 -2.1580705e-02
  3.8782665e-01
 -4.4756666e-02
  5.9608364e-04
 -2.6226126e-02
  5.9170066e-03
  8.7280907e-02
  2.3227412e-02
 -3.1084523e-02
 -3.9635148e-02
 -1.6743356e-02
  1.1735103e-02
  1.8179066e-02
  4.2688318e-02
  5.4574511e-03
  1.0363782e-01
  4.5388822e-02
  3.8042165e-02
 -2.3718854e-02
  1.3992181e-02
 -3.3982247e-02
 -3.2916644e-01
 -3.4316562e-02
  3.7778083e-02
 -5.5577949e-02
 -9.5619492e-02
  1.8050694e-01
  1.3633217e-02
  1.6992036e-01
  5.0455634e-03
  9.8309562e-02
  1.1716676e-01
 -4.2375740e-02
  7.4226777e-03
 -3.8354855e-02
 -3.6389507e-02
 -3.6087863e-02
 -2.4242457e-02
 -3.8355142e-02
  6.2347479e-02
 -2.8517589e-03
  5.4565747e-03
  1.9232094e-02
 -1.6697643e-02
 -1.8015407e-02
 -1.1448356e-02
 -1.2970106e-01
  6.9104172e-02
 -5.0034761e-01
  5.3205854e-01
 -1.1026900e-01
  2.0716763e-01
  1.3873409e-02
 -1.8591902e-03
  3.5051104e-02
 -5.3460621e-03
 -1.8930277e-01
  1.5271730e-02
 -8.6714350e-02
 -5.6769405e-03
  1.2241000e-02
 -1.1206035e-01
  1.1379264e-01
  6.7014538e-02
 -2.3119686e-02
 -5.8726738e-03
 -6.1943762e-02
  8.1367092e-04
 -4.7871649e-02
 -2.5955191e-01
 -9.8984903e-03
 -4.1566093e-02
  2.6502723e-01
  1.9673035e-02
  5.7941195e-02
 -3.3547845e-02
 -2.7385347e-03
  4.3284982e-02
  2.3516921e-02
  1.1466405e-02
  1.9204833e-02
 -2.8666638e-02
  6.0323447e-01
 -1.8736823e-02
  3.6228832e-02
  2.8810449e-02
 -3.0569602e-02
  4.9463335e-02
  9.0734281e-02
 -2.7022300e-02
  1.4823055e-02
 -6.4099833e-02
  3.8045686e-02
 -5.2102722e-02
 -1.8783424e-02
  9.1021903e-02
 -8.8447437e-02
  2.8558329e-02
  3.3279374e-02
  1.9585546e-02
  5.9330645e-03
 -1.6454842e-02
 -4.4494122e-02
 -1.4223000e+00
  7.5942320e-01
  2.1140957e+00
 -1.7957808e+00
  2.6524189e-01
  2.9225326e-01
  4.9819455e-01
 -1.5935676e-01
  6.1907226e-01
 -3.8724279e-01
 -5.9519106e-01
 -2.7443936e-01
 -2.9328343e-01
  5.2532166e-01
  4.0442926e-01
 -1.8092026e-01
 -1.2217332e+00
 -2.1007875e-02
  4.2291522e-01
 -7.4803317e-01
  8.5504621e-01
  1.4818491e-01
  4.8110989e-01
 -3.5237148e-03
 -8.2288039e-01
  7.3803091e-01
 -8.9882410e-01
 -2.9297984e-01
 -2.1581721e-01
 -1.8939221e-01
 -1.2955919e-01
  4.6027768e-01
  9.5979854e-02
  2.2360487e+00
 -2.1342976e-01
 -5.8072490e-01
 -4.2424586e-01
  1.7789078e-01
 -1.0392097e-01
 -2.8621125e-01
  2.1886252e-01
 -3.1956592e-01
 -7.5570948e-02
 -2.2517310e-02
 -2.7967310e-01
  1.2813888e-01
 -5.2064648e-03
  1.3870730e-01
  2.3162369e-01
  2.0920102e-01
 -5.8270127e-02
  6.1455734e-02
  2.5016770e-02
  1.2475152e-02
 -5.8974650e-02
  1.0479035e+00
 -1.8761824e+00
  1.3231370e+00
 -4.4237396e-01
  2.6084397e-02
  9.8656947e-03
 -1.0861975e-01
 -7.3529750e-02
 -1.2019783e-01
  4.6113111e-02
  1.3175476e-02
 -1.3204549e-01
  1.9337107e-01
 -6.9032021e-02
  1.8076245e-01
  2.8065217e-01
  4.9426030e-02
 -2.4554946e-02
  1.2907598e-02
 -1.0592372e-01
 -7.1150392e-02
 -6.8204021e-01
  7.5014643e-02
 -4.1703835e-01
  3.7368935e-01
 -1.5737250e-02
 -2.2389971e-01
 -1.1070412e-01
 -1.0358324e-01
  1.2181992e-02
  2.5746813e-02
 -8.7424129e-02
 -2.9057017e-01
 -2.2759251e-01
  1.3924277e-01
  1.5946570e-01
 -6.5898240e-02
 -6.5329209e-02
 -1.6224509e-01
  6.5352716e-02
 -1.6683858e-02
  1.3557348e-01
 -8.5521869e-02
  1.3719007e-01
  6.8326585e-02
 -8.9920886e-02
  3.8131740e-02
  6.4451367e-02
 -8.9361090e-03
 -1.4240329e-01
  1.3822776e-03
  8.8144988e-03
 -7.0430478e-04
 -4.2200290e-02
 -3.8408898e-02
 -1.7399641e+00
  7.4828881e-01
  3.0945721e-01
 -3.0447108e-01
 -2.8746331e-03
  7.9887792e-02
  3.3459652e-02
 -2.8562230e-01
  5.7710256e-02
 -2.1294376e-01
 -2.3826644e-01
 -1.8852693e-01
 -1.0944419e-01
  2.8293112e-02
 -2.2264728e-02
 -1.1656538e-01
  1.3335207e-01
 -2.7338874e-01
  1.3179117e-01
 -1.1459074e-01
  1.4003956e-01
 -6.2497699e-01
  2.3150837e-01
  5.4203022e-01
  1.5684272e-01
  3.4772925e-02
 -2.3802713e-01
 -1.7820537e-01
  1.1138146e+00
 -2.9878698e-03
 -3.9446838e-02
  6.1570637e-02
 -6.6930190e-02
  4.0292636e-02
 -1.7366293e-01
  7.6795958e-02
  3.4854993e-02
 -6.0735770e-02
  1.0779597e-01
 -9.1567285e-02
  1.1395136e-01
  1.9478819e-01
 -1.0295842e-01
 -1.3629835e-02
 -1.2651321e-01
  4.7773078e-02
  3.6970526e-02
  7.6207548e-02
  5.0365034e-02
 -1.2386705e-03
 -7.7912621e-02
 -4.5667123e-03
  3.2252181e-02
 -3.4209676e-02
  3.0417053e-02
  2.3039967e-01
 -2.3763387e+00
 -1.8028332e+00
 -7.1344865e-03
 -1.4549061e+00
 -3.7836021e-01
 -4.1256142e-01
 -4.9125978e-01
  1.0975672e+00
 -2.6450169e-01
  4.2254660e-01
  7.3208046e-01
 -4.5810667e-01
  1.1332984e+00
 -4.7770228e-02
 -6.7397499e-01
 -1.1901534e+00
 -3.1837240e-01
  1.4870232e-01
  1.1629448e-02
  3.8932768e-01
  8.5650706e-01
  1.3325213e-02
  9.5812392e-01
  2.6356038e-02
 -3.3064461e-01
 -1.7851441e+00
 -1.6763829e-01
  1.5280260e-01
 -2.0400180e-01
 -2.0378172e-01
 -8.8204193e-01
 -3.0052641e-02
 -2.4762040e-01
 -9.2147899e-01
 -3.0813533e-01
 -5.0230193e-01
 -2.7085170e-01
 -3.1439918e-01
 -9.4082825e-02
 -5.2314967e-01
  1.9426872e-01
 -5.3841609e-01
  2.2593747e-01
 -5.1408434e-01
  5.3114343e-02
 -3.4393794e-03
  6.5817505e-02
  2.8621563e-01
  6.5632112e-02
 -2.8916106e-01
 -1.1178212e-02
 -4.1096948e-02
 -6.0134757e-01
  7.2763995e-03
  3.0482011e+00
  2.7074213e+00
 -2.1727577e-01
  3.3273771e+00
  2.2579204e-02
  1.3710995e-01
  2.8116941e-01
  4.8811216e-02
  1.9160374e-01
 -1.0028569e-01
 -3.3937886e-01
 -3.0599814e-02
 -2.3163193e-01
  2.2874060e-01
 -9.3349129e-02
 -9.8923989e-02
  1.6917921e+00
  1.4402036e-01
  4.8413578e-01
 -2.0806809e-01
 -2.1687958e-01
  6.1417121e-01
 -3.1149924e-01
  1.6574936e+00
 -1.3533190e-03
 -2.0844166e-01
 -1.1260929e-01
 -2.5935596e-01
  1.4944679e-01
 -5.3375316e-01
  5.0355785e-02
 -1.4975673e-01
  3.5888527e-02
  3.5949677e-01
 -6.0911345e-01
 -2.2765374e-01
 -5.8432695e-02
 -1.2417671e-01
 -2.7141346e-02
 -2.4064755e-01
 -1.5358834e-01
 -6.0596984e-02
 -1.2322593e-01
 -1.2383503e-01
 -2.3014361e-01
  5.1957127e-02
  1.5668048e-02
  1.7723387e-02
  1.2868989e-01
  8.0486730e-02
 -4.0990349e-02
 -7.0485640e-03
 -2.6218438e-01
 -3.0867385e-02
 -6.6490382e-02
 -1.8046430e-01
 -2.5850103e+00
  2.5232189e+00
  1.8797507e+00
 -1.5177251e-01
 -3.5619250e-01
 -1.2085883e-01
  8.9569800e-02
  8.5564923e-01
  1.0199500e-01
 -3.0626944e-01
 -6.2724060e-01
 -2.4148887e-01
  7.6334737e-02
  1.5866453e-02
 -1.2425901e+00
 -5.8290762e-01
 -1.5611477e-01
  4.1932163e-01
  9.2964686e-02
 -2.6545674e-01
 -9.7826862e-01
 -8.8504650e-02
  2.9105246e-02
  3.9281234e-01
 -3.5306391e-01
  6.0388945e-02
  6.0685672e-02
  5.5270469e-01
  5.9455657e-01
  8.3317804e-01
 -4.7455782e-01
  9.2152320e-03
  1.3016774e-01
  3.1926833e-02
 -1.0914651e-01
 -2.7220538e-01
 -3.9924953e-02
  1.7196827e-02
  1.7511503e-01
 -1.4887302e-01
 -4.8056990e-02
  1.2885851e-01
  2.1207546e-01
  6.4848267e-02
 -8.3877057e-02
  1.2605360e-01
 -5.5644207e-02
 -2.3145851e-02
  4.9732134e-02
 -8.3593661e-03
 -3.5102915e-02
  3.4982758e-03
 -2.8250916e-02
  1.4558801e-02
 -8.3966888e-02
 -2.7613390e-02
 -5.1500253e-02
  5.2792892e-02
 -3.0547265e-02
 -2.2985561e-02
  2.5594756e-02
 -8.7425023e-02
  3.0056048e-02
 -1.7625198e-02
  3.5037093e-02
  1.9188473e+00
  2.8102841e-02
  4.9461335e-02
  2.0181490e-02
  6.3464858e-02
 -2.3281244e-03
  1.2163797e-02
  4.2195737e-02
 -5.2639794e-02
 -2.7455091e-02
 -5.2397110e-02
 -5.3667732e-02
  3.3781994e-02
 -2.2839690e-03
 -7.4288204e-02
 -9.0137847e-02
 -8.8785551e-03
  4.4361837e-02
  1.2005459e-02
 -2.8249308e-02
  4.7172356e-02
 -2.2337998e-01
  2.5408559e-03
  1.1978109e-02
  5.5894841e-02
  1.8130844e-02
 -5.1543899e-02
 -3.7423738e-03
 -3.2389548e-03
  2.3371540e-02
 -2.7862228e-02
 -9.0138324e-02
 -1.7317008e-02
 -5.3711936e-02
 -4.8996288e-02
 -4.9974054e-02
  8.5735982e-03
 -4.1358739e-02
 -4.7419704e-02
 -5.3858388e-02
  2.5916820e-02
 -4.1037515e-02
 -3.8889884e-03
 -2.9620225e-02
 -6.8368897e-02
  5.3712422e-01
  8.4008031e-02
 -3.6412019e-01
  1.3351412e-01
  1.0761195e-01
  1.7437422e-01
  8.0005839e-02
  2.3278886e-01
 -1.4025687e-01
 -3.1138551e-01
 -3.0794585e-01
 -7.0957310e-02
  2.1509221e-01
 -1.8950258e-01
  6.1413068e-03
  7.3940977e-02
 -1.9408749e-01
  4.1053751e-01
 -1.7803981e-03
 -6.3897341e-02
  1.8342119e+00
  1.7543314e-02
  1.0035684e-03
  1.0061013e-01
  4.1623507e-02
  6.2960796e-02
  1.9051936e-01
  1.7899616e-01
 -7.5246682e-03
 -1.2083435e+00
 -1.6425006e-01
  2.4358545e-01
 -1.9278049e-02
 -3.6878601e-01
 -4.0188709e-01
 -4.3891098e-02
  8.3441027e-02
  5.7983559e-02
 -1.4853758e-01
  1.7064694e-01
 -5.4837391e-02
 -2.5980926e-01
 -7.1381949e-02
 -2.9866508e-01
 -9.5995300e-04
  4.2754721e-02
 -4.4649713e-02
  4.6647381e-02
  1.5093477e-01
  8.0187079e-03
  5.1461315e-01
  8.1138149e-02
  1.9541830e-02
  2.0931944e-02
  1.4680322e+00
  4.1795731e-02
  5.6229013e-01
 -3.1617776e-01
  3.5280636e-01
 -3.1734619e-02
  3.4583747e-02
 -1.8286714e-02
  1.4285305e+00
 -2.5143471e-01
 -6.7166097e-02
  2.6979601e-01
  1.7315251e-01
  8.1513208e-01
 -1.7483193e-01
 -1.7457269e-01
  7.4625891e-01
 -1.2521999e+00
  1.0527332e+00
 -2.3796754e-02
 -4.0767172e-01
  7.8507888e-01
  4.0023032e-01
 -5.4002994e-01
 -1.6613241e-01
 -2.7865395e-01
  1.8642981e+00
  5.6979412e-01
  2.4210474e-01
  3.0107757e-02
  4.9574330e-01
 -1.3609253e+00
  8.3381191e-02
  1.2840037e+00
  5.7198322e-01
 -8.3346777e-02
 -4.0164456e-01
  1.0248524e-01
  4.1579586e-01
 -8.3700550e-01
 -1.0645840e-01
  1.1059476e-01
 -1.6184396e-01
 -5.2424073e-01
 -5.4162341e-01
  9.5118776e-02
  1.4774440e-01
 -4.3513998e-02
  1.0491638e-01
  1.3328426e-01
 -6.3955031e-02
 -1.3195339e-03
 -1.3723168e-01
 -3.5467295e-03
 -3.6186662e-02
  7.4889892e-01
  7.7304812e-03
 -8.8349342e-01
 -2.2167890e-01
 -7.6124340e-01
 -2.0027159e-02
 -9.9519349e-04
  9.5355168e-02
 -1.9217770e-01
  8.4978886e-02
  8.7203635e-03
  6.7036964e-02
  1.7580914e-01
 -2.1674563e-01
  1.9966573e-02
 -1.1434841e-01
 -2.2988352e-03
  2.9253485e-04
 -1.4970960e-01
 -7.9014031e-03
 -1.7414589e-01
 -4.0737718e-01
  4.2152140e-02
 -8.8036679e-02
  9.8242901e-02
 -1.0708463e-01
  6.7843445e-02
  3.2881591e-02
 -3.3068481e-01
  1.1512090e-01
 -1.2202761e-01
  1.7656358e-02
  2.8311528e-02
 -7.6045506e-02
  2.5388277e-01
 -1.1947460e-01
  4.9036507e-02
 -4.8217990e-02
 -7.7201508e-02
  1.1158077e-01
 -5.0581858e-02
 -6.0261495e-02
  7.1770400e-02
 -2.9269056e-02
  4.7615089e-02
 -5.5690136e-02
 -2.7222505e-02
  2.0580949e-02
 -9.3519188e-02
 -1.3608773e-01
  7.0062540e-02
 -2.4865340e-02
  1.9571755e-02
 -5.8191169e-02
  3.7787624e-02
 -1.4112581e+00
 -2.8484344e-01
  1.3032249e+00
  4.1535494e-01
  4.0436707e-02
  8.2042374e-02
  1.1474711e-01
 -4.6032120e-02
  2.9007612e-02
 -1.8759292e-01
 -3.8869163e-01
 -1.3391814e-01
 -2.1711425e-01
  1.4235940e-02
 -1.7623092e-01
  5.0628150e-01
  1.9644929e-01
 -1.3101852e-01
  1.0016725e-02
  3.3886489e-02
  2.7521873e-02
 -4.0580428e-01
  1.9678645e-02
 -1.7787299e-01
 -2.5307072e-02
 -7.3642544e-02
  6.1694894e-02
 -1.1175570e-01
  1.7207046e-01
 -1.1745015e-01
  2.0473978e-02
 -2.4054905e-02
  1.1467998e-01
  1.1600184e-01
 -4.3410636e-02
 -2.8765582e-02
  9.8396637e-02
  8.7713435e-02
  6.2487125e-02
 -1.0987452e-01
  1.0756847e-03
  6.4321563e-02
  1.8901195e-03
  6.9711432e-02
 -7.0334293e-02
  1.0015302e-01
  3.7738536e-02
  2.4716621e-02
  6.4384609e-02
  4.7321420e-02
  4.1803956e-02
  3.1777781e-03
 -4.2585284e-02
 -2.1779730e-03
 -2.1466784e-02
 -1.0061749e-01
 -2.1866448e-01
 -1.5219140e+00
  2.3313496e-02
 -7.7266837e-03
  7.0040531e-02
 -2.4219180e-02
  9.8165609e-03
  7.3071681e-02
 -5.5792127e-02
  5.4310806e-02
 -1.8366287e-02
 -3.4610804e-02
  1.4169635e-01
 -1.1749828e-02
  1.3146800e-01
  7.7000998e-02
 -1.0754456e-01
  9.2826933e-02
 -5.9813462e-02
  5.9691109e-02
  6.8694681e-02
  2.6630089e-02
  6.3515507e-02
  1.1793309e-01
  2.7335051e-02
 -3.0583318e-02
  5.4882351e-02
  9.2060640e-02
  2.2399949e-02
  3.3415423e-03
 -7.1798541e-02
 -1.5492923e-02
  7.9074301e-02
 -1.4939179e-01
  2.1869123e-01
 -2.1144382e-03
 -4.0361140e-02
  4.4786103e-02
  3.2101139e-02
 -3.6363799e-02
  9.9167340e-02
 -8.3532505e-02
  4.9520712e-02
 -4.7427371e-02
  3.3829946e-02
  5.7569973e-02
  2.2735752e-02
  8.6267171e-03
  5.7190459e-02
 -8.5382357e-02
 -4.8984997e-02
  2.5280777e-02
 -8.1097543e-02
 -8.9609072e-02
 -1.1316342e+00
 -1.6443816e+00
 -2.3487861e+00
  3.9038993e-02
 -5.5291079e-02
 -2.4453050e-01
  1.2454646e-01
 -1.3665341e-01
  3.1659365e-01
 -3.2509258e-01
 -6.7494452e-01
 -3.2910004e-01
 -3.4428492e-01
  1.9285004e-01
 -5.6665516e-03
  5.8505064e-01
  7.4087101e-01
 -6.4310282e-01
  3.6527765e-01
 -3.6811730e-01
  4.4419125e-01
 -1.5632324e-01
  2.0094341e-01
 -1.9542775e+00
 -3.2569835e-01
 -2.0007081e+00
  7.6907992e-01
 -6.7999268e-01
  1.0840193e-01
 -5.7514191e-01
  3.4746852e-02
 -7.7634014e-02
  2.5106984e-01
  2.1550135e-01
  7.8001976e-02
  1.2006449e-01
 -2.5255198e-02
 -5.3278077e-01
  7.1780931e-04
 -2.7392617e-01
  3.1658366e-02
  1.5701726e-01
 -3.0537352e-02
  2.1151823e-01
 -2.0848864e-01
  3.0009804e-02
  1.1143681e-01
  5.4192021e-02
  2.1147106e-02
  5.3789735e-02
 -9.1751821e-02
  1.7073354e-02
  1.1659005e-02
  4.4083130e-02
 -4.2154431e-02
  1.0552727e+00
  7.7021801e-01
 -1.0158898e+00
  2.0709207e+00
 -2.9264305e+00
  1.7361566e-01
  3.2772762e-01
 -1.2499319e-01
  6.6984731e-01
 -2.8320074e-01
 -3.6310691e-01
 -5.2665189e-02
 -3.3799160e-01
  8.5032237e-01
 -2.9957467e-01
 -1.8648931e-01
 -8.8528305e-01
 -5.3078014e-01
  5.6802577e-01
 -1.1120872e+00
 -4.5372999e-01
  7.0027210e-02
 -7.8861344e-01
 -5.6513685e-01
 -3.9110136e-01
 -1.2817225e-01
 -2.4085324e-01
 -1.1751021e-01
  7.8718275e-01
 -1.2478032e-01
 -5.2171004e-01
 -1.9432737e-02
 -2.6805136e-01
  5.3397083e-01
 -1.7324647e+00
 -5.7951772e-01
  5.0989544e-01
 -2.4346577e-01
 -2.5246468e-01
 -5.3267705e-01
  4.2699406e-01
 -9.7728394e-02
 -2.9843241e-01
 -4.5319937e-02
  9.2776656e-01
  8.6093225e-02
  1.3771059e-01
  8.1393659e-02
  2.4641785e-01
  7.5731337e-02
 -1.5879878e-01
 -3.9519608e-02
  1.8127197e-02
 -5.6076264e-03
  4.3042216e-02
  5.0990671e-01
 -9.8093361e-01
  4.1048598e-01
  1.1631059e-02
 -1.2863997e-03
  3.0191282e-02
  4.4427568e-01
  1.3505989e-01
  8.4121481e-02
 -6.8432286e-02
  6.1646840e-03
  6.6344045e-02
  7.7554793e-03
  2.0712227e-01
 -1.1766876e+00
 -1.3920739e-01
  3.4673032e-03
  4.2106368e-02
  8.2823843e-02
 -6.8501145e-02
 -1.0815866e-01
  8.9655295e-02
 -4.7710519e-02
 -3.3895791e-01
 -1.4845999e-01
 -1.0312285e-01
  8.2864404e-02
 -1.1915851e-01
  1.3000175e-01
 -2.1411289e-01
  1.0029259e-01
  1.7296676e-01
  8.8695936e-02
  1.5167813e+00
  1.4022562e-01
  7.4907176e-02
  5.1987283e-02
  6.9839634e-02
 -3.2762956e-02
 -9.6634932e-02
 -1.1141459e-03
 -5.7071182e-03
  9.5448263e-02
  1.2859897e-01
 -7.1713641e-02
  1.1397669e-02
  5.8476519e-02
  5.2807100e-02
  1.6995223e-02
 -3.0964402e-02
 -2.5185421e-02
  2.8822500e-02
  3.5274524e-02
  1.2973431e-02
  1.4654332e-02
 -1.3830176e-01
 -8.3421305e-02
  7.3606104e-02
 -1.8457992e-02
  8.2162485e-02
  5.6894157e-02
 -2.0277621e-02
  1.3893977e-02
 -1.2100980e-01
  1.4866762e-02
  3.8964722e-02
 -5.1960964e-02
 -2.6631113e-02
  1.3135207e-02
 -2.3241356e-02
  3.0399105e-02
  5.9693530e-02
 -1.9804442e-03
  2.9572589e-02
 -6.2885471e-02
  4.0456317e-02
  3.0669527e-02
 -2.5829453e-02
 -7.2261669e-02
 -5.3554401e-02
  2.7688431e-02
  7.1391284e-02
  7.0431858e-02
 -7.2134115e-02
 -2.9911580e-02
  3.7662908e-02
 -6.0199521e-02
 -1.2016489e-02
 -1.9183619e-02
 -9.0069519e-03
 -1.8842077e-01
 -1.7559813e-01
 -3.3928998e-02
 -2.8512703e-02
 -4.6248235e-02
  1.8533522e-03
 -2.3197018e-02
 -3.8002960e-02
  6.2832169e-02
 -3.5889421e-02
  2.1797825e-02
 -1.4139812e-02
 -1.8810511e-02
  5.2890037e-03
  6.2568635e-02
 -2.7105702e-02
 -1.9396042e-02
 -1.1748434e-02
 -3.0885883e-02
 -2.7572192e-02
 -1.1654754e+00
  1.2621262e+00
  3.4209517e-01
  1.4054556e-02
 -1.0402784e-01
  1.9582298e-02
  2.0273449e-03
  8.0832830e-03
 -1.4465295e-01
  3.6581751e-02
  3.6678249e-01
  2.3421636e-02
  6.3069321e-02
 -1.0888227e+00
 -1.0960474e-02
 -9.3811862e-02
 -8.7420672e-02
  1.1734471e-01
  1.1522316e+00
  1.0332423e-01
  3.6185181e-01
  2.9712602e-01
 -8.2601741e-02
 -9.7356796e-01
 -1.1371895e-01
 -1.4114353e-01
 -1.1121234e-01
 -8.9621775e-02
 -2.2069448e-01
 -5.2196933e-03
 -2.5958979e-01
  1.7106068e-01
  4.5533415e-02
 -8.6693302e-02
  5.9205431e-02
  3.0325202e-03
  6.1424347e-03
  5.3454787e-02
 -7.6410741e-02
  4.5518670e-02
  9.1889322e-02
 -1.7007418e-01
 -5.2433508e-03
 -5.8194327e-01
  1.4756447e-01
  1.9924777e-02
  6.1851945e-02
 -3.9084222e-02
 -3.0478176e-02
 -3.8730517e-02
  9.9457642e-03
  4.4566229e-02
  1.0109318e-03
 -6.8168715e-03
 -5.2518053e-03
  1.4678777e+00
 -1.9609907e+00
 -3.4124681e-01
 -5.0718927e-01
 -5.7343179e-01
 -3.2430193e-01
 -8.9073494e-02
 -2.7459043e-01
  6.3544130e-01
 -1.2478149e-02
  2.4439821e-01
  1.6925307e-02
 -3.3955240e-01
  3.7085912e-01
 -6.2514085e-01
 -6.2427193e-01
 -5.4993081e-01
  6.0402110e-02
  3.1193665e-01
  9.6419444e-03
 -4.1686428e-01
 -1.6908759e-01
 -7.6614362e-01
  1.7713723e-01
 -1.8324284e-01
 -2.3663156e-01
 -7.4272823e-01
  1.4073931e-01
 -5.6871674e-03
 -4.3774810e-01
 -4.7189271e-01
 -4.3876430e-01
 -2.1877307e-01
  5.9276212e-02
 -1.2113506e-01
 -3.7780976e-01
 -7.5877029e-01
 -1.5440126e-01
 -2.0924479e-01
 -8.5051470e-02
  6.2649828e-01
 -3.3317459e-01
  1.1217711e-01
  9.2711560e-02
 -4.1591969e-01
 -6.2380068e-02
  7.8424867e-03
 -1.3857570e-01
  8.4493011e-02
 -1.2226076e-01
 -1.3654257e-01
 -8.8359304e-02
 -7.6487809e-02
 -2.1203544e-02
 -2.9168282e-02
 -2.9301134e-01
  7.0728755e-01
  1.3431601e-01
 -1.6195560e-01
  1.1393357e-01
 -9.9946596e-02
  1.3886543e-02
  1.0846663e-01
 -1.7915371e-01
  1.1474427e-01
  9.6799815e-03
  1.2817684e-01
  4.1420985e-02
 -1.5678710e-01
  4.3846369e-02
  5.2579511e-03
 -1.3516635e-01
  4.0392786e-02
 -1.4373180e-01
  5.9701569e-02
  7.9731964e-02
  1.6105408e-02
  1.0550638e-01
 -1.2094040e-01
  2.2189493e-01
 -7.8922868e-02
  8.0170751e-02
 -2.0162729e-03
 -1.5701576e-01
  1.6586620e-01
  1.5980719e-02
  4.2238291e-02
 -4.9832460e-02
 -3.9377745e-02
  1.9413784e-02
 -2.2122731e-02
  1.7413894e-02
  1.8512821e-02
 -6.3005976e-02
 -2.6445838e-02
  1.0969282e-01
 -3.6275782e-02
  5.0575589e-03
 -1.8237604e-02
  7.1073726e-02
 -6.7104459e-02
  1.4199580e-03
 -1.2262929e-01
 -5.1450290e-02
  2.9832508e-02
  4.0248077e-02
 -1.5459273e-03
 -2.3480851e-02
  3.9496254e-02
  6.6635437e-02
 -2.8848987e+00
 -2.7938154e+00
  1.4499871e+00
 -2.8347418e+00
 -4.3515000e-01
 -3.9206120e-01
 -1.6975407e-01
  5.6619935e-02
  4.3560758e-01
  4.4620112e-01
  7.5986013e-02
 -5.0120169e-01
 -6.3260674e-02
  3.9984030e-01
  1.9111733e-01
 -5.6916237e-01
 -7.1402574e-01
 -2.0351081e-01
  3.8217816e-01
 -2.6680437e-01
  1.0806438e-01
 -5.2036041e-01
 -1.0016749e+00
  3.6138210e-01
 -7.3617780e-01
 -1.9839724e+00
 -3.2099405e-01
  1.4357281e-01
  8.9229780e-01
 -6.8961099e-02
  2.6930693e-01
 -9.8124343e-01
 -1.3832125e-01
 -6.5186337e-02
 -9.6909338e-01
 -3.2490662e-01
 -1.4931995e+00
 -9.7678207e-02
  1.9462445e-01
 -7.4157670e-02
 -3.6598858e-01
  1.1281871e-01
 -1.9888543e-01
  2.5598505e-01
 -1.8560706e-01
 -2.6613444e-01
  8.7739915e-02
 -1.7910616e-01
 -1.1081564e-01
 -4.6199966e-02
  1.9605772e-03
  8.3937138e-02
 -6.8183611e-03
  8.3558131e-03
  2.0802945e-02
  1.0589024e+00
  1.5737522e-02
 -4.5248959e-02
 -1.1933395e-01
  3.8822360e-02
 -7.3835686e-02
 -2.0003697e-02
 -4.2729206e-02
 -3.0143978e-02
 -5.9949718e-02
  3.1352069e-02
  5.1957332e-02
 -3.2852490e-02
 -3.5353366e-02
 -3.1251166e-02
  7.1637191e-02
  2.7127115e-02
  2.7776910e-02
 -8.3637275e-03
  2.2271728e-02
 -3.7505105e-02
  1.0772939e-01
 -9.5994763e-02
  5.7877805e-02
 -2.3848122e-02
 -3.0324357e+00
 -2.4163373e-02
 -6.9908388e-02
 -1.5963105e-02
  6.9450825e-03
 -2.1906956e-01
 -5.9888405e-03
 -5.2721281e-02
  6.7921586e-02
  5.2015759e-02
  6.1384737e-03
 -4.9778946e-02
  1.0771578e-02
 -3.4268096e-02
  5.3906765e-02
 -2.8428063e-02
 -6.2422026e-03
  1.8348314e-02
  5.8488745e-02
 -6.6127987e-03
  3.3551730e-02
  2.8116854e-02
  2.9287817e-02
 -5.3472575e-02
 -8.5789181e-02
  1.9379437e-02
 -6.8689667e-02
 -1.6831346e-02
 -2.2543758e-02
  2.7093287e+00
  2.9974726e-01
  2.0653431e+00
 -1.5907238e+00
  3.3851163e+00
  2.7575821e-01
 -2.3424289e-01
 -1.2450004e-01
 -3.2983932e-01
 -2.9885268e-01
  2.7365321e-01
 -3.9402876e-02
 -2.0640492e-01
 -6.0373628e-01
 -5.5373782e-01
 -1.0609607e-01
  7.9337108e-01
 -5.2546918e-01
 -7.0487350e-01
 -4.7327659e-01
 -1.6126016e-01
  2.2388746e-01
 -1.1022871e+00
 -4.1223294e-01
 -1.5809945e+00
  1.5865949e-01
 -7.7879854e-02
 -5.5892891e-01
 -1.2919648e+00
 -1.8709842e+00
 -7.2076231e-01
  7.6931998e-02
 -1.0716320e+00
 -4.5764980e-01
 -1.1553661e+00
 -7.1163774e-01
 -1.3414210e-01
 -4.9381739e-01
 -5.9841770e-01
 -4.3974257e-01
  1.0411645e-01
 -2.9088882e-01
 -1.6655105e-01
 -6.5613270e-01
 -1.9023305e-01
  3.0866979e-02
 -2.1562298e-01
  5.5093732e-02
 -4.6173971e-02
 -1.4158934e-01
 -1.1432342e-01
  9.8006286e-02
 -3.9002185e-03
 -3.6844209e-02
  1.8542860e-02
 -9.3651973e-03
  8.7891811e-01
 -5.4951042e-02
 -7.2463199e-02
 -7.5814821e-02
 -1.5701059e-02
 -3.8555097e-02
 -2.5234718e-02
  8.3052889e-02
 -1.9885648e-02
  1.2770097e-01
  1.1691998e-01
  6.9332751e-03
 -6.9862478e-03
 -3.1610876e-02
 -6.9997855e-02
  1.0057305e-01
 -1.0501716e-01
  3.8837161e-02
  2.3516594e-02
  3.4464378e-02
 -1.4049053e-01
  1.7010076e-02
 -9.2665054e-02
 -6.7389436e-02
 -4.2021878e-02
 -5.7810396e-02
 -2.9684046e-01
  4.8286490e-02
  2.7075738e-01
  6.8694524e-02
  3.3354975e-02
  8.0150020e-01
  3.1669158e-02
  3.9290871e-02
  1.6486745e-01
 -6.0413297e-02
  1.6897914e-01
 -1.3408659e-01
 -4.6395797e-02
  9.2999779e-02
 -1.9328965e-01
 -9.3080126e-02
 -4.1346131e-03
 -2.9519677e-02
  6.1307475e-03
 -6.3629940e-02
 -3.0388469e-02
 -5.3338896e-02
 -2.2059036e-02
 -8.1289351e-02
  3.6019865e-02
  6.8511203e-04
 -5.6242917e-02
 -2.9598424e-02
  3.9237384e-02
 -5.9254271e-01
 -6.8481725e-01
 -8.7426953e-02
 -3.3930483e+00
  3.1017908e-01
  6.6845194e-02
 -6.7818359e-02
  2.2000764e-01
 -5.8904582e-01
  3.1328976e-01
 -3.9703164e-02
  6.4033166e-02
  2.8260958e-01
 -4.7806472e-01
  5.7751268e-01
  2.1507774e-01
  1.0610093e+00
  6.8834275e-01
 -7.3142655e-02
  3.4598899e-01
  1.3989547e+00
  5.6398284e-01
  9.3941584e-02
 -1.8439397e+00
  1.2342777e+00
  8.3164656e-01
  2.4725621e+00
  1.9492847e-01
 -1.2182152e+00
  7.2871250e-01
  4.7520307e-01
 -9.9538451e-01
  4.6851000e-01
 -1.8930656e-01
  1.0108514e+00
  3.2272682e-01
  6.0488892e-01
  4.7820270e-01
 -1.3553955e-01
  4.6819729e-01
  3.0619645e-01
 -2.6093754e-01
  3.4429777e-01
 -2.1235147e-01
  3.1639332e-01
 -1.4633958e-01
 -8.7456934e-02
  9.8221466e-02
 -6.1268844e-02
 -4.3066170e-02
  5.8752455e-02
  1.0049582e-01
  6.0693339e-02
  8.9493260e-02
 -5.6331493e-03
 -2.0212591e+00
  3.7126538e-01
 -1.4662609e-01
  3.3874387e-01
  2.0079203e-01
  4.2872746e-02
  2.1961370e-01
  1.2739453e-01
 -2.1876919e-01
 -1.7271988e-02
 -1.4803563e-01
  2.8646618e-02
  5.7949524e-02
 -2.9414883e-02
  2.0292775e-01
 -1.1283485e-01
  4.0221315e-02
 -5.5886945e-03
 -1.1484870e-01
  7.4641854e-02
 -2.0671982e-01
 -4.6811728e-03
  1.0625351e-01
  6.9454446e-02
  3.5790324e-02
  7.7322803e-02
 -2.9912900e-02
 -9.1124974e-02
  4.0429130e-02
 -4.5307605e-03
  8.7381147e-02
  2.7008364e-01
  8.0974050e-02
  4.6018243e-02
  3.3149485e-02
  2.4747927e-01
  1.3654371e-01
  1.3017929e-01
 -8.9334004e-02
 -4.9246624e-03
  1.4301962e-01
 -1.4467530e-01
  5.3635005e-02
  8.1160273e-03
  1.0811733e-02
 -8.8623371e-03
  7.9152279e-02
  2.1069510e-02
  5.0571315e-02
  3.6990330e-02
  4.3942899e-02
 -8.3785858e-03
  1.5786102e-02
  4.9661934e-02
 -2.3323691e-02
  3.1416565e-01
  2.0349604e-01
 -1.0731053e-01
 -4.9293157e-01
  1.4050370e-01
 -4.7676466e-02
 -1.2710559e-01
  6.2111545e-01
 -9.4337380e-01
 -7.9778306e-02
 -5.6028390e-01
 -3.1042546e-01
 -8.4571496e-02
 -4.3912369e-01
 -8.3781339e-02
 -1.0319688e+00
  7.3549993e-02
 -7.8931404e-03
 -6.2513292e-01
  1.8544929e-01
  3.5589015e-01
  3.6784362e-02
 -3.5184267e-01
 -1.7258117e-02
  5.4798797e-02
 -4.9818897e-01
 -3.6024785e-01
  3.8166732e-01
 -7.9163563e-01
 -1.7962040e-02
 -1.0919233e-01
  1.9599576e-01
  5.5868387e-01
  2.7385216e-02
  1.1787856e-01
 -1.7039703e-01
  3.0877474e-01
 -1.1173236e-01
 -8.1759053e-01
 -3.5717238e-02
  5.7256377e-01
 -4.4441015e-01
 -2.8338840e-02
 -5.0792348e-01
  1.9066870e-01
  1.2098465e-01
 -1.1736576e-01
  2.0906469e-01
 -8.2220145e-02
  1.8311784e-02
  1.2574235e-01
 -6.4881884e-02
  6.5040328e-02
 -2.3907604e-02
  1.5283493e-02
 -1.0103801e+01
 -3.1751130e+00
  1.6060616e+00
  5.5477840e-01
  8.0376405e-01
 -1.5804771e-02
  6.0741544e-01
 -5.5030638e-01
  6.0414366e-02
  3.5201296e-02
  2.1291891e-01
  1.1642151e+00
 -9.6230721e-01
  1.3425420e-01
  9.2148848e-02
  3.6751729e-01
  6.7161107e-01
 -1.2410485e+00
  1.1533681e-01
  9.8545305e-02
  7.2816387e-02
  2.2904668e+00
 -1.3239238e+00
  2.4179783e-01
  2.8333604e-01
  1.0387566e+00
  1.5922470e+00
 -1.8226341e+00
  1.2187304e-01
 -6.7719392e-02
  3.1427076e-01
  1.1262025e+00
 -8.7041497e-01
  1.5535577e-01
  1.1118596e-01
  2.6317537e-01
  1.2051482e+00
 -4.3709761e-01
  7.3510826e-02
 -8.1500876e-01
  1.6718255e-01
  4.5837003e-01
 -5.5504322e-01
  1.8883150e-02
 -5.3118542e-02
 -8.5709453e-02
 -1.6100827e-01
  4.2475906e-01
  1.5668962e-02
  1.5120132e-01
 -1.0722943e-01
  3.9516035e-02
 -3.1535719e-02
 -5.2306909e-02
  1.2873122e-01
  6.5332097e-01
 -1.0278040e+00
  1.7691251e+00
 -1.2229789e-01
 -1.0167385e+00
  4.6380541e-01
  2.8368527e-01
  3.0870563e-01
  6.7686045e-01
 -4.8747987e-01
 -9.5238179e-01
 -1.4987674e-01
  1.0645058e+00
  5.8408064e-01
  5.9486069e-02
  4.6950233e-01
  1.5741949e+00
  8.4344226e-01
  1.9544242e-01
 -5.2427495e-01
 -1.9206783e-01
  4.1959085e-02
  1.5284323e+00
  1.4001709e+00
 -2.1767119e-01
  5.8591366e-01
  3.7874478e-01
  3.1786957e-01
  9.6686405e-01
 -6.2227178e-01
  2.0250811e-01
  1.0394155e+00
  1.2742745e+00
  7.7971828e-01
 -4.3856856e-01
  2.9582658e-01
  4.7625244e-01
  6.2514925e-01
  5.3636050e-01
 -4.1914785e-01
  7.1241874e-01
 -3.1571993e-01
  1.1965346e+00
  5.7114321e-01
 -1.3119474e-02
  4.5155987e-01
  1.9092397e-01
 -1.0120240e-01
  3.3913773e-01
  9.5452294e-02
 -6.9163151e-02
  8.1874421e-03
 -1.3873345e-01
  1.0297146e-02
 -1.6134037e-02
 -1.2340925e+00
 -5.0068349e-01
 -1.2116832e+00
 -1.3697128e+00
  2.0343125e-01
 -2.3471715e-01
 -5.2085561e-01
  3.4616694e-01
 -7.1143085e-01
 -5.2137487e-02
  1.8367802e-01
 -7.5038202e-02
  3.0076590e-01
 -3.5448965e-01
  3.5074230e-02
 -6.5192473e-01
  3.0339675e-02
  2.1460447e-01
 -8.2052135e-01
 -1.6223903e+00
 -8.7937039e-01
  1.3557405e+00
 -2.3893368e-01
 -8.4560418e-01
  4.9107140e-01
  2.3507068e-02
 -7.0943463e-01
  3.9545873e-01
 -1.6071519e+00
 -3.3441240e-01
  3.1055525e-01
  4.2368197e-01
  8.8746041e-02
 -7.6841950e-01
  5.2597243e-01
  5.4898393e-01
 -3.0132318e-02
  1.1981879e-01
 -2.7290744e-01
 -2.2823395e-01
  8.1661832e-01
 -3.4694493e-01
  2.9521081e-01
 -4.8489720e-01
  1.8389520e-01
 -4.6416696e-02
 -1.1668345e-01
 -1.6499043e-01
 -1.7296505e-01
 -7.9622835e-02
  5.2764527e-02
 -8.0884799e-02
  4.9062639e-02
  3.0419398e-02
  4.3003377e-02
  5.3228575e-01
 -1.3608949e+00
  1.4568208e+00
  2.7019078e-01
 -1.3168885e-01
  2.8812423e-02
 -2.4469241e-01
 -6.6612460e-02
 -4.9150802e-02
  1.1689983e-01
  5.0579590e-01
  1.8858631e-01
  4.9555320e-01
 -3.6159143e-02
  6.3985425e-01
  4.7464520e-01
 -5.6126755e-02
  1.4508548e-01
 -4.0706226e-01
 -1.5612656e-01
 -8.6897558e-01
 -7.6739097e-01
  1.0893420e+00
 -1.6142972e+00
  6.6695589e-01
 -7.5683153e-01
 -4.1996846e-01
 -4.9479783e-01
 -4.4763960e-02
  4.0717697e-01
  3.8848948e-01
  2.0516966e-02
 -4.8801246e-01
 -8.3204317e-01
  4.3825415e-01
  5.9444737e-01
 -1.3897692e-01
 -7.1622767e-02
  3.6030319e-01
  4.1908464e-01
 -5.4795629e-01
  5.7876927e-01
  1.9273178e-01
  2.2043428e-01
  4.5900136e-01
 -1.3138495e-01
 -6.3944057e-02
  8.5367255e-02
 -3.9448109e-02
 -2.1175703e-02
  2.7868599e-02
 -1.3287908e-02
 -2.5587358e-02
  6.2982053e-02
 -1.8906172e-02
 -3.7365623e-02
  4.7624301e-02
  3.5721559e-02
  6.1448380e-02
  5.6502052e-02
  1.9830614e-02
 -5.8872364e-02
 -1.8019889e-02
  4.6691250e-02
  4.6277571e-02
  3.5730090e-02
  1.1234602e-01
  4.9903527e-02
 -4.3054581e-02
 -6.7631580e-02
  4.0672820e-02
 -5.4830853e-02
 -7.3618800e-03
 -3.3627179e-02
 -6.5002926e-02
 -3.4373190e-02
 -2.6608485e-01
 -1.5510009e-03
  4.9835730e-02
  1.8494454e-01
 -5.2923977e-02
 -3.2371532e-02
 -5.8301657e-02
 -6.1825342e-02
  4.0925808e-02
 -9.1269715e-03
  2.8641525e-01
 -1.0392928e-02
  2.0506324e-02
  9.4636761e-02
 -7.6570176e-02
 -2.5512535e-02
 -8.8373214e-02
 -2.9574003e-02
  4.8291720e-02
 -1.3695445e-02
  5.1202681e-02
  4.3182019e-02
  1.8890446e-02
  5.3018712e-02
 -8.4764101e-02
 -4.2128712e-02
  3.9355852e-02
  5.3213093e-02
  2.3898417e-02
 -5.0255541e-02
 -2.6618661e-02
 -1.0163395e-02
  4.9861457e-02
 -1.1526164e-01
  6.3714516e-01
 -7.0947272e-01
 -2.3992670e-01
  1.0732654e-01
 -8.4982008e-02
  4.2009931e-02
 -2.9137509e-02
 -4.7749911e-02
  1.3902558e-01
 -7.5546369e-02
  6.2545897e-03
  6.8571322e-02
 -2.7284753e-02
  1.3533381e-01
 -6.8360001e-02
  1.0026655e-01
 -6.2995070e-01
 -8.0624849e-02
  2.0229779e-01
 -1.0523306e-01
  7.2766580e-02
  1.1746219e-01
  3.6197398e-02
  1.2521806e-01
 -1.3365862e-01
  2.6349353e-02
 -6.7531645e-02
  3.4371164e-02
  7.5906873e-02
 -8.2718879e-02
  6.4985201e-02
 -6.5511629e-02
 -8.4227007e-03
  6.1158612e-02
 -3.5072066e-02
  6.6663027e-02
  1.1025208e-01
 -6.6941090e-02
  3.3359628e-03
 -7.2037391e-02
 -2.9393327e-03
  5.0761770e-02
 -4.1345004e-02
  1.0444859e-01
 -3.7464105e-02
  4.7451131e-02
 -2.5080502e-02
 -9.4533421e-02
  6.1578038e-03
 -4.8334956e-02
 -1.9583741e-02
  8.0113858e-04
 -6.5388717e-02
  5.5248499e-02
  4.9114082e-02
 -6.7306548e-01
  5.8009642e-01
  8.9000410e-01
  2.7442095e-01
  1.2380866e-01
  5.6829635e-02
 -2.7229154e-02
 -1.0426052e-01
  5.7418231e-02
 -7.9723127e-02
 -3.7480488e-02
 -1.2335916e-01
 -1.2110960e-01
  1.0053164e-01
 -1.5843017e-02
 -7.8725837e-02
  1.4887530e-01
 -1.4739880e-01
  2.5601868e-02
 -3.4149401e-02
 -3.0810004e-01
 -1.1408967e-02
 -1.0730653e+00
 -1.2016280e+00
 -1.2895136e-01
  1.4767474e+00
  1.2228378e-01
  1.0199108e-01
  1.3833497e-01
 -1.3788950e-01
 -1.9566523e-02
 -2.5601032e-01
 -1.4547060e-01
 -3.3026651e-01
 -2.0611289e-01
 -7.9894789e-02
  3.7458724e-01
  4.6856212e-03
  2.4581178e-01
 -6.3348818e-03
 -1.6919638e-01
 -7.5112119e-02
 -6.3078362e-03
 -1.4804487e-01
 -1.2771858e-01
 -4.3510687e-02
 -1.4894806e-02
  4.7120959e-02
 -4.4066183e-02
  7.1408652e-02
  3.5154097e-02
  1.6092818e-02
 -2.4692034e-02
 -3.0977348e-02
  4.5827277e-02
 -1.2299336e-01
 -5.2053720e-02
 -6.2675872e-03
 -2.6042037e-02
  2.4588849e-02
  4.7732063e-02
  8.4314696e-02
 -4.5650166e-02
  4.4554159e-02
 -5.2592654e-02
 -2.4211984e-02
 -7.0928924e-02
 -6.3328914e-02
  7.5932965e-03
  5.3062625e-02
 -1.4652731e-02
 -4.9457490e-03
 -5.3147320e-02
  9.4608784e-02
 -8.3175927e-02
  1.4840636e-01
  5.3043772e-02
  8.7236743e-03
  1.3896383e-01
 -2.5935953e-02
  3.0990575e-02
 -3.2731105e-02
  8.1686588e-04
  1.5389372e-02
 -1.6299749e-02
 -2.2259559e-02
 -5.9031047e-02
  2.1326134e-02
  6.1102342e-02
 -9.8122761e-02
  9.7871266e-02
  3.6701355e-02
 -5.1147126e-02
  3.1802628e-02
 -1.3008639e-02
 -8.0270704e-04
  2.8641764e-02
  3.0750239e-02
 -2.1474045e-02
  1.3496548e-01
  2.0828400e-02
  7.1330711e-02
  3.0510763e-02
  2.2549976e-03
  3.9244976e-02
 -1.3440482e-02
 -8.4119989e-03
 -5.8450658e-02
 -1.0633273e-02
 -1.3100400e-02
  1.7924157e+00
 -8.0513132e-01
  2.3419654e+00
  1.9626604e+00
  3.0675060e-01
  1.8482700e-01
  1.6505386e-01
 -4.8644442e-02
 -3.2146800e-01
  1.3424413e-01
  2.2088976e-01
  3.6792564e-01
 -8.7843686e-02
  5.7962082e-02
  9.3161523e-02
 -5.4507959e-01
  4.0275366e-03
  1.8066424e-01
 -1.7986587e-01
  4.9193332e-01
  1.6068178e-01
  1.1397898e-01
 -6.6481596e-01
 -2.7499473e-01
 -7.3273070e-02
  1.8426900e-01
  8.1197143e-01
  1.5936084e-01
  4.2660961e-01
 -4.0921584e-01
  1.8080291e-01
  4.6552168e-03
  3.5206950e-01
 -2.2886008e-01
  1.0309089e-01
  7.3945493e-02
  7.7622497e-01
  2.8096569e-01
 -1.6710956e-01
 -1.2302536e+00
  1.4608565e-02
 -1.5517770e-01
  3.5092160e-01
 -1.3393548e-01
  5.7302762e-02
  9.1067106e-02
 -1.0766859e-01
 -5.6213774e-02
 -1.8418767e-02
 -1.4181895e-02
  7.6633498e-02
  3.3277921e-02
  3.4303330e-02
 -1.8174328e-02
  1.0890380e-01
  1.0227200e-02
 -6.1547323e-03
 -1.1112721e-01
 -1.0393019e+00
 -5.7023242e-02
  1.0510048e-01
  6.1200947e-01
 -1.2528615e-01
 -2.3599687e-01
  7.4661531e-02
 -3.7980515e-01
  5.9820288e-01
  1.4105465e-01
  7.2943246e-01
  4.6228543e-01
  5.2573532e-01
 -4.3482476e-01
  4.8670933e-02
 -4.1622245e-01
  8.6244345e-03
 -1.1327081e+00
 -2.1880461e-01
  7.1203724e-02
 -4.5751378e-01
 -6.7345911e-01
  6.4550537e-01
  1.0893518e-01
 -5.6054211e-01
  7.8572834e-01
 -3.0359572e-01
 -1.6759288e-02
 -2.4274193e-01
 -1.8769541e-01
 -4.1209748e-01
 -3.9320674e-02
  4.0686300e-01
 -2.1181166e-01
  3.3969447e-01
 -1.8870768e-01
  3.6462244e-01
 -2.0991434e-01
  2.4873084e-01
 -1.3579303e+00
  1.8232574e-01
  2.7196631e-01
  5.1057383e-02
 -2.2802725e-01
  1.1866033e-01
 -7.8897979e-03
  2.6371984e-03
 -1.3589521e-02
  9.5282709e-03
 -3.6633980e-02
  2.9426217e-02
 -3.2328304e-02
 -2.4013530e-01
  5.9368068e-01
  2.0001407e-01
  6.8300992e-01
 -4.6235278e-01
 -6.0343247e-02
 -3.8637839e-02
  8.4675926e-01
 -3.2128996e-01
  5.3220961e-02
  3.3100480e-01
  1.9953792e-01
 -1.9805382e-01
 -8.9517102e-02
 -5.4282550e-02
 -8.4576428e-02
 -5.8547735e-01
 -1.0726029e-01
 -9.9515110e-01
  2.5930920e-01
  1.2950835e-01
 -1.8466104e+00
 -6.2415165e-01
  7.6583058e-01
 -7.3566973e-01
 -3.7776080e-01
 -6.9737405e-02
  6.1531432e-02
 -4.8283726e-01
 -4.5294413e-01
 -1.4363648e-01
 -4.7368817e-02
  6.8748683e-01
  1.9535400e-01
  4.2388719e-04
  4.8008391e-01
 -2.7233317e+00
 -2.3759688e-01
 -3.4990412e-01
  1.7428878e-01
  3.4217764e-02
 -6.9724792e-01
  3.0412692e-01
 -2.2505663e-01
 -9.8381646e-02
  1.6824777e-01
 -9.5307507e-02
  1.1785265e-01
 -5.3687941e-04
 -1.5896772e-01
  1.3797237e-01
  1.9457685e-02
 -2.2140490e-01
  2.2889523e-02
  2.1681191e-02
 -3.6309701e-01
  2.0432453e-01
  9.1891009e-01
 -1.6603659e+00
  2.0153317e+00
  1.2252626e+00
  7.7566791e-01
  1.2132794e+00
 -7.6592457e-01
  3.2838655e-01
  7.0489687e-01
  1.1581655e+00
  9.8071235e-01
  3.1980896e-01
  4.5839041e-01
 -2.3822051e-02
  1.3497356e+00
  1.1796068e+00
 -5.5347073e-01
  4.4455183e-01
 -3.3046478e-01
  1.4363197e+00
  1.0358770e+00
  1.7045519e+00
  4.8210493e-01
  3.2833862e-01
 -6.2309438e-01
  6.4517468e-01
  9.4078910e-01
  5.9144080e-01
  1.5934691e-01
  1.6005174e+00
  7.2554964e-01
 -7.9415238e-01
  3.5163243e+00
 -6.5431607e-01
  1.4509312e+00
  6.9995385e-01
 -5.2485800e-01
 -2.7678860e-02
 -1.3909196e+00
  4.1549635e-01
  5.6885749e-01
  6.0126230e-02
  1.3215140e-02
  2.3373578e-01
 -1.8359782e-01
  2.6155564e-01
  1.1337134e-01
 -4.4828188e-03
  1.8393865e-01
  1.0550593e-02
  2.0427948e-02
 -5.4045048e-02
  2.6946301e-02
 -8.0301408e-03
  3.3327740e-01
 -1.7798014e-02
 -4.9795613e-02
 -1.2490541e+00
  4.1215423e-02
 -5.0925642e-02
 -2.8556040e-03
 -7.7356853e-02
  8.6819336e-02
 -6.9450788e-02
 -3.6707679e-03
  4.1622794e-03
 -1.6691910e-01
 -1.0527539e-02
  5.3425715e-03
 -1.0509659e-01
  9.3690589e-02
 -6.5373838e-02
  6.3072436e-02
 -1.4224699e-01
  4.0908061e-02
  5.0041739e-02
 -8.8450618e-02
  6.4151570e-02
  2.9246237e-03
  2.7113570e-02
 -1.4158731e-02
  2.4816062e-02
  8.1074603e-02
 -3.1703388e-05
  3.8708236e-02
  1.9706921e-03
  7.2156377e-02
  1.1670179e-01
 -4.8824530e-02
  7.5637167e-03
  2.5797913e-02
 -5.7755742e-02
  9.4882771e-02
  3.3792444e-02
  1.9588469e-01
  4.0322408e-02
 -2.7962198e-02
  1.1854449e-01
  5.0517127e-02
  5.1080678e-02
  5.6366682e-02
 -8.9815306e-03
  1.5192832e-02
  2.4716895e-02
 -1.0587160e-01
 -1.1320090e-01
  3.3733994e-03
  2.3050075e-02
  3.2600892e-01
 -8.5791692e-02
  9.2451878e-02
  3.8556033e-01
  4.9443800e-02
  3.3484433e-02
  7.3532626e-02
  7.2763339e-02
 -1.2048720e-01
  9.1120780e-02
  8.6322822e-02
  3.7830546e-02
 -2.0595951e-02
 -4.6111334e-02
  4.5246598e-03
 -3.9489377e-02
 -7.3477034e-03
  6.2019318e-02
 -1.0137105e-01
  1.1970318e-01
 -1.4708889e-01
  8.0159761e-02
 -1.2800898e-01
 -2.5322628e-01
  3.9414331e-02
  6.4596549e-02
  3.3102688e-01
  1.2095231e-01
 -6.5006189e-02
 -3.5743829e-02
 -5.6318197e-02
 -2.2760665e-02
  7.4326664e-02
 -7.7803530e-02
  2.5563505e-01
 -7.1238123e-02
 -3.0083196e-02
  1.7613910e-02
 -6.1779767e-02
 -7.6621026e-04
 -4.9581662e-02
  3.4780034e-01
  5.2146968e-02
 -6.7697436e-02
  1.6544398e-02
 -3.0764308e-02
  4.3209009e-02
  4.3840203e-02
  5.8427230e-02
 -2.3343341e-02
  1.0253199e-01
  5.0098293e-02
  8.9231804e-03
 -2.1365587e-02
  4.2263791e-02
 -5.0007850e-02
  2.6080450e-01
 -2.8042021e-01
 -6.9119610e-02
  4.2187039e-02
 -1.0429225e-02
  1.7420040e-02
  1.7802450e-01
 -6.3218832e-02
  4.1479733e-02
  4.3089453e-02
  1.3185094e-01
  2.5122439e-02
 -1.1420530e-01
  8.9589432e-02
 -2.1461695e-01
 -1.2829357e-01
  6.2774372e-01
 -1.3655686e-01
  4.3784123e-02
 -2.1156661e-01
 -1.4961322e-01
 -2.4778476e-02
 -5.2803297e-02
  2.5753371e-02
 -3.7790578e-02
  1.2978251e-01
  9.6047930e-02
 -9.2866026e-02
  6.9772385e-02
 -4.3318469e-02
  2.8153952e-02
 -8.1946924e-03
  6.9992937e-02
  1.5007766e-01
 -1.6766723e-02
  1.2531480e-01
 -6.0023773e-02
 -9.5556408e-02
  6.6055678e-02
  2.5302421e-02
 -1.2450923e-01
  1.0965211e-01
  2.8666565e-02
 -5.7657663e-02
 -2.8294448e-03
 -2.2618880e-02
 -7.7749096e-02
 -3.8220793e-02
 -5.7897925e-02
  7.3195197e-02
 -1.0315747e-02
 -7.4082717e-02
  2.2226444e-02
  2.8757155e-02
  2.1202005e-01
 -3.9554739e-01
 -8.7725604e-01
  5.1369023e-01
 -6.6246659e-01
  6.2843353e-01
 -5.6743181e-01
  4.3151954e-01
  1.1575918e+00
 -1.5272468e-01
  5.9784800e-01
 -1.1014314e-02
  5.4963499e-01
  1.3340213e+00
  6.0854954e-01
  1.6382498e-01
  1.2328136e+00
  6.2544681e-02
  6.9620121e-01
 -4.0800235e-01
 -5.1866210e-01
  2.4148023e+00
 -2.9726020e-01
  1.9619638e-02
  2.1721582e-01
  9.1201830e-01
  1.6214367e+00
 -1.5081148e-02
 -7.2917312e-01
 -1.4692952e-01
  2.4511427e-01
  5.7729703e-01
 -2.5577325e-01
 -1.1690824e-01
  7.6864892e-01
 -5.9456098e-01
  2.0101249e+00
  6.3457066e-01
  9.4216490e-01
 -5.1589346e-01
 -2.2369714e+00
  1.0302035e+00
  8.0769062e-01
  6.8986261e-01
 -1.8274617e-01
  2.9038784e-01
  1.6284788e-01
  1.1322124e-01
  1.2902275e-01
  1.0592214e-01
 -7.9689801e-02
  4.3852732e-02
 -1.6463614e-01
  1.5051408e-02
 -9.4395384e-02
  6.1329615e-01
  1.0071123e-01
 -2.8733581e-01
 -1.1814447e-01
  8.0593839e-02
 -1.1125468e-01
 -4.2475681e-03
  1.8760795e-02
 -1.5441701e-01
  1.1674830e-01
  5.0623298e-02
  3.6184385e-02
 -4.2362865e-02
 -1.7728540e-01
 -3.6486715e-02
 -3.4692865e-02
 -1.1967015e-01
  1.0498859e-01
 -1.2510708e-01
  1.3224974e-01
  2.7780819e-01
  1.1735521e-01
 -4.9714185e-02
  1.3567196e-01
  9.8648392e-02
  7.6406584e-03
  8.0770098e-02
  1.8408665e-02
 -3.2499708e-02
  7.4436769e-02
  2.7507728e-02
  2.2672346e-02
 -6.1584793e-02
 -3.8663056e-01
  6.7883112e-02
 -8.8595510e-02
  8.5137367e-02
  3.6450833e-02
 -6.5978840e-02
  8.7020129e-02
  9.4879568e-02
 -2.0369425e-02
  5.0181855e-02
 -3.1824328e-02
  6.8415120e-02
 -4.3076541e-02
 -2.8655505e-02
  4.0478688e-02
  4.0230821e-03
  3.7969310e-02
  2.6194980e-02
  2.8393375e-02
  2.3898676e-02
 -3.7638585e-03
 -1.9173574e-02
 -7.3110509e-01
  7.4316007e-01
  1.7354436e+00
 -1.8583941e-01
  2.6552495e-02
 -2.5003783e-02
 -3.9474264e-02
 -4.4763349e-02
  2.5033918e-01
 -1.3695207e-01
 -1.0784804e-01
 -4.8776362e-02
 -1.1204336e-02
  1.0310622e-01
 -6.7431852e-02
  5.9363998e-02
  2.5888375e-04
 -9.4078168e-02
  1.3673800e-01
 -1.9671984e-01
  2.5780496e-01
  4.9574882e-01
 -1.2524462e-02
  4.6817511e-01
 -3.0610031e-01
  1.0492658e-01
 -6.4376414e-02
  1.1749528e-01
  2.0158464e-01
 -6.1739184e-02
  2.8563717e-02
  1.6113165e-01
 -2.0313524e-01
  1.5781634e-01
 -1.0973531e-01
  8.0922291e-02
 -1.8161695e-01
  1.1582628e-01
  1.1063512e-01
 -1.6146569e-02
  3.5880622e-02
  6.7436717e-02
 -1.6060758e-02
  4.8126619e-02
 -1.0291929e-01
  8.9975439e-02
  5.1491514e-02
  9.5904239e-02
  2.1422574e-02
 -2.5382083e-02
 -6.8851717e-02
 -5.5421991e-03
  1.2066163e-02
  3.1604224e-03
  3.2386512e-02
  1.4282947e+00
 -9.4396500e-03
  8.7442851e-01
 -7.3348761e-01
  2.4423400e-01
  7.7313763e-01
  5.9405285e-01
  3.4658873e-01
 -8.2298225e-01
  2.6009604e-01
 -1.4670850e+00
 -1.2853776e-01
  1.0143694e-01
 -1.3973266e-01
  8.1834561e-01
 -4.6607733e-01
  1.9654769e-01
  4.7587164e-02
 -1.2135319e-01
 -3.7913328e-01
 -8.1717181e-01
  1.1946980e+00
  3.6147901e-01
 -4.7670078e-01
 -1.5955545e-01
 -1.2802296e+00
  1.4629942e-01
 -7.2662717e-01
  6.3294923e-01
 -1.4513126e-01
 -1.5841191e-01
 -1.7773285e+00
  4.8919395e-01
 -2.0352237e-01
 -2.7285948e+00
 -6.4175463e-01
 -5.4694915e-01
  2.7473891e-01
 -3.4360865e-01
 -2.6844993e-01
 -4.9395930e-02
 -3.6881995e-01
 -5.6855762e-01
 -3.1931072e-01
  8.4152780e-02
  8.0680393e-02
 -5.4938905e-02
  2.6793000e-01
  7.9971878e-03
  1.7211720e-01
  1.0184231e-01
  5.1471718e-02
 -5.6381512e-02
  6.0156181e-02
 -1.6966488e-02
 -1.2249377e+00
 -4.0044615e-01
  1.2666571e+00
 -5.9588152e-01
  1.7849262e-01
  2.0802531e-02
 -9.7348221e-02
 -1.2305995e-01
  4.4073254e-01
 -1.2714757e-01
  2.6839468e-01
  4.6235099e-02
  1.5881526e+00
  4.3981597e-01
 -2.8477052e-02
  5.2304435e-01
  1.4705259e-01
 -2.0810571e-01
  4.8989886e-01
 -1.6765310e-01
  6.4811188e-01
 -1.4640611e-01
 -1.6056587e-01
  2.9785711e-01
  4.4072069e-02
  5.3715844e-02
 -6.9364929e-01
 -8.1400953e-02
  3.8913533e-01
 -1.3279358e-01
  5.0310194e-01
 -1.6758341e-01
 -1.0741466e-01
 -2.5624382e-01
 -6.6381246e-02
  4.5074877e-01
  7.4913025e-02
 -2.5786942e-01
  1.5864544e-02
 -3.5753340e-01
 -5.1111564e-02
  1.2997049e-01
 -7.4183203e-02
  1.6385654e-01
 -3.1222734e-01
  2.5891538e+00
  1.6534093e-01
  1.6184028e-02
  4.1091025e-02
 -3.8149778e-02
 -7.3108815e-02
 -7.9595000e-03
 -3.4272347e-02
  4.1014098e-02
  4.6331245e-02
  5.4287016e-01
 -1.3955708e+00
  3.1895992e-01
  9.5440894e-02
  1.8481513e-02
  5.1963851e-02
  9.1129720e-02
  1.4215216e-01
 -1.7887330e-01
  1.1940870e-02
 -2.8390769e-02
 -2.1064670e-01
 -5.9708785e-02
 -7.5637937e-02
  8.5076354e-03
 -1.9598928e-01
 -4.4433221e-02
  8.2700327e-02
  1.2447748e-02
  1.9303359e-01
 -2.6220673e-01
 -1.2423529e-01
 -1.3386449e-02
 -1.1015009e-01
  3.7526578e-02
 -8.3085932e-02
  9.8733418e-02
  1.0346885e-01
 -1.9022021e-02
 -3.2118518e-02
  1.3115737e-01
  1.0296492e-01
  1.4250605e-01
 -6.3472465e-02
 -1.0890075e-01
  2.3271713e-02
  2.1091327e-01
  9.4780765e-02
 -1.6269445e-01
 -3.7116505e-02
 -4.5596708e-02
  1.9693509e-02
  7.8648977e-02
 -7.0160188e-02
  1.0007706e-02
  6.0202975e-02
  1.5528131e-02
 -7.1491905e-02
 -5.3963743e-02
 -2.6856659e-02
  6.9768779e-02
  5.8960672e-03
  2.6072518e-04
  7.8056470e-02
 -1.1977230e-02
  5.8574986e-01
  6.3933417e-02
  1.4836111e+00
  1.1260039e+00
  2.9244179e-01
  1.4325733e-01
  1.7644842e-01
  4.6930817e-01
 -3.9583975e-01
  1.9887884e-01
  5.3404368e-02
  3.4427732e-01
  1.7557737e-01
  6.6540010e-02
  3.0984614e-02
 -2.8094733e-01
  5.6159669e-01
  4.5610017e-01
  1.6633559e-02
  4.6502480e-01
 -4.1545507e-01
 -1.0148682e-01
 -1.5516433e-01
 -1.2767190e-01
 -6.3161083e-02
 -1.3258338e-02
  2.5719392e-01
  8.6221421e-01
  1.2105986e-01
  8.2385033e-02
  3.1199199e-01
  4.2958796e-01
  6.4576310e-01
 -9.8665699e-02
  1.5649742e-02
  2.6391625e-01
  7.6932853e-01
  1.9628075e+00
 -9.4941832e-02
  3.9091566e-01
  1.4646398e-02
 -1.6136779e-01
  4.3769577e-01
 -1.9935192e-01
  4.8885714e-02
  5.4213367e-02
 -1.2417068e-01
  1.2725748e-02
  5.2726205e-02
  1.0262450e+00
  1.2257164e-01
 -1.8821141e-02
  7.4071586e-02
  5.3402111e-02
  7.3006406e-02
 -2.9673377e-01
 -1.3082503e-02
  6.3575715e-02
  1.0715657e-01
 -3.1496886e-02
  2.1145750e-02
 -1.0799882e-01
 -2.6524230e-03
  6.0480427e-02
  1.0918890e-02
 -1.7195651e-02
 -4.5595311e-02
 -6.1028000e-02
 -3.3483149e-03
 -4.4241887e-02
  8.9257516e-02
  2.9237770e-02
 -4.1918095e-02
 -1.6505999e-02
 -6.0343314e-02
 -2.5089310e-02
 -4.0558454e-02
  8.9603163e-02
  8.5983224e-02
 -1.1261052e-02
 -2.6362989e-02
  4.0625267e-02
  6.0321921e-03
  8.9549990e-03
 -1.5514106e-02
 -7.7557745e-03
 -1.1658111e-01
 -7.8771412e-02
  6.1598606e-02
 -1.1348720e-02
  3.2316274e-03
 -1.4912529e-03
 -2.5982931e-02
  4.5545921e-02
 -4.7062550e-02
 -1.4230963e-03
  8.7337233e-03
 -1.8590738e-01
 -9.5581658e-02
 -1.6170796e-02
 -2.0652613e-01
  2.5178673e-02
 -2.0496950e-02
  6.2715754e-02
  8.8713244e-03
 -1.0418092e-02
  4.1988003e-03
 -8.2392497e-03
  2.1768205e+00
 -4.3435730e-02
 -1.4639567e+00
 -4.0996847e+00
 -3.0773432e+00
 -3.8251722e-01
 -5.3279451e-03
  3.2314157e-01
  7.7897646e-02
  2.1087807e-02
  4.6175116e-01
 -1.9318315e-01
 -4.5471978e-01
 -1.1728670e-01
 -2.7831826e-01
  4.2267653e-01
 -1.5791112e-01
  5.3389229e-02
  9.8014402e-01
 -2.1294588e-01
  3.4410739e-01
 -5.6411880e-01
 -8.2746863e-02
  8.7651217e-01
 -1.6374967e-01
  6.1883485e-01
 -3.0808923e-01
 -7.2509542e-02
  3.6774990e-01
 -1.8326414e-01
  6.5784371e-01
 -4.9233657e-01
  1.4724337e-03
 -2.1024594e-01
 -3.0726904e-02
  2.3465329e-01
 -3.5769364e-01
  7.6561928e-02
 -1.3279408e-01
 -6.3466743e-02
  7.9857752e-02
 -3.5497314e-01
 -5.9952941e-02
  3.4711916e-02
 -9.9076372e-01
  1.0544652e-01
 -2.5326970e-01
  2.6694005e-02
  7.0938028e-02
  1.0906217e-01
  2.4043018e-02
  9.1799222e-02
 -4.7549617e-02
  1.7568182e-02
 -9.8007303e-03
 -8.9656506e-03
 -3.2348905e-02
 -1.5348798e-01
 -6.7813003e-01
 -2.1303380e+00
 -1.0963718e+00
  8.2965386e-01
 -8.0651365e-04
 -1.9065401e-01
 -1.2288079e-02
  8.4733531e-02
  3.2662642e-03
  2.5921428e-01
 -1.8378904e-01
 -7.9656035e-01
 -5.1615462e-02
 -6.8831342e-01
 -9.8355144e-01
  6.0063136e-01
 -2.1005021e-02
  2.1238621e-01
 -5.5607539e-02
 -3.2682803e-01
 -1.0161037e+00
  1.3295670e+00
  4.1838226e+00
  2.3449978e-01
 -4.3254149e-01
  3.8258955e-01
  7.1273738e-01
 -4.5980692e-01
 -3.5087347e-01
 -8.5734123e-01
 -1.8541706e+00
  9.1533983e-01
  3.4369245e-01
  1.0354239e+00
 -4.8563144e-01
  1.3643389e+00
  2.8554961e-01
  4.2285052e-01
  3.6111791e-02
  5.7745069e-01
 -3.2852177e-02
 -2.8298166e-01
 -6.5982777e-01
 -5.2661020e-01
 -4.6583847e-03
 -1.1403700e-02
 -8.3546333e-02
 -4.0572759e-02
  4.5979327e-01
 -4.4255625e-02
 -2.3269124e-02
  3.1854533e-02
 -4.4237942e-02
  6.8514869e-02
  8.0031836e-01
  1.7760531e+00
 -1.4676454e+00
 -9.0769899e-01
  5.8387991e-02
  8.9559339e-02
  1.4585021e-01
 -1.9377671e-02
 -2.7045034e-02
 -1.7165822e-01
 -1.0042570e-01
  1.3273489e-01
  7.8174956e-02
 -9.4521709e-02
  1.2637267e-01
 -2.3821533e-01
 -5.3116154e-02
 -8.7473251e-02
 -2.7937648e-01
 -5.4200090e-02
 -7.2491062e-01
 -1.1166813e-01
  1.7592181e-02
 -2.7679878e-01
  1.2123287e-01
 -2.5418761e-01
  6.5994933e-02
  2.0878994e+00
 -1.7502117e-01
 -1.6557652e-01
  6.3823558e-02
  2.1379581e-01
 -5.1942658e-02
 -5.2154131e-02
 -5.2118588e-02
 -1.7290430e-02
  1.3585368e-01
 -1.0917853e-01
 -7.1090236e-02
  1.5399159e-01
 -5.9755221e-02
  5.2572798e-02
 -3.5760645e-02
  3.9085940e-02
  3.7439901e-02
  9.3098685e-02
 -5.6056939e-03
  5.2182045e-02
  1.2481180e-02
  2.3629915e-02
  6.1601143e-02
 -3.0837053e-02
  7.9508657e-03
  1.0723704e-02
 -1.2093347e-01
 -2.9525065e-01
  6.5314007e-01
  1.5341637e-01
  7.6586686e-02
  1.3098203e-01
 -1.4321057e-01
  4.3284666e-02
  8.5722186e-02
 -2.6455942e-01
  1.3631272e-01
 -8.4262677e-03
  5.5524725e-02
 -1.0153011e-02
 -1.6788216e-01
  1.6046107e-01
  2.0339689e-01
 -1.5183656e-01
  1.1840932e-01
  1.1544186e-01
  2.1506543e-01
 -3.5508251e-01
  6.3245255e-01
 -4.4034460e-01
  3.0776657e-02
  3.0415353e-01
 -1.1693752e-01
  1.6324143e-01
 -6.1291996e-02
 -1.1990955e-01
  4.1803386e-02
  8.8809595e-02
  9.6416190e-02
 -7.9087861e-02
 -1.6685236e-01
  2.8407380e-01
  2.9737514e-02
  7.3341295e-02
  1.4942679e-02
 -1.1170244e-02
  1.7240667e-01
  1.4242308e-01
 -5.3577386e-02
  7.4053407e-02
 -6.2542550e-02
  2.7338141e-01
 -4.5780055e-02
 -3.8721859e-02
  6.0033701e-02
 -3.3963967e-02
  4.3577079e-02
  4.6748210e-02
 -7.9097629e-02
 -1.2358613e+00
  4.6684671e-02
  1.8359601e-02
  1.4594142e+00
 -4.1979390e-01
 -8.8646221e-01
 -7.6380384e-01
  1.6295896e-01
 -7.7106327e-02
  1.8889636e-01
 -9.5740251e-02
  2.0624368e-01
 -2.0086633e-01
 -3.6362776e-01
  2.8409648e-01
 -2.8819226e-02
  1.5456910e-01
  4.1026634e-01
  4.8987009e-02
 -2.3439041e-01
 -2.7469200e-01
 -9.4471022e-02
  4.3309081e-02
  1.1130141e-01
 -6.9128305e-01
 -4.6087530e-02
 -1.2649913e-01
  2.9352063e-01
  1.7598070e-03
  5.3882158e-01
  2.4752963e-01
  5.8447272e-01
 -4.9122259e-01
  1.7366377e-01
  2.1966815e+00
 -2.5598323e-01
 -1.0214752e-01
 -1.8207948e-01
  1.3898137e-01
  1.4489654e-01
 -4.0615641e-02
  3.7760016e-01
  6.4097546e-02
 -3.1400111e-01
  2.6040417e-01
 -1.1268517e-01
 -2.4303836e-04
 -1.3782331e-01
  1.2313935e-01
 -6.8704560e-02
  7.7794969e-02
  1.7268442e-01
  1.0435966e-01
  5.1021403e-01
 -3.2976571e-02
 -1.1153246e-02
  3.2667688e-01
 -8.4743397e-03
  6.0849065e-01
  6.2516682e-02
 -3.5278806e-01
  1.6009942e-02
 -7.9700276e-02
 -2.8998313e-02
  7.1899787e-02
  1.5999688e-01
 -3.1387964e-01
 -3.9017703e-02
 -7.6576710e-02
  4.9689483e-02
 -2.7289795e-02
 -9.0628974e-02
  7.2589726e-03
 -2.6271090e-01
 -2.0643470e-01
 -4.9843680e-02
 -1.9550225e-01
  1.0641826e-01
  8.3210416e-02
 -2.1339571e-01
 -6.2720284e-02
  8.9818455e-02
  1.6079447e-01
 -1.2348744e-01
 -7.4046016e-02
  2.9851262e-02
 -1.3391672e-01
  5.1583275e-02
 -3.6641560e-02
  1.4164431e-01
  1.3763106e-01
  1.4902332e-01
  6.0739413e-02
  5.2186497e-02
  4.5255262e-02
  8.1165925e-02
 -9.2156135e-02
 -1.5720280e-02
  5.7396933e-02
 -1.2764622e-01
  4.2512730e-02
 -1.5073647e-01
  9.2989899e-02
  1.7489625e-02
  1.1101184e-02
  9.7785145e-02
  4.1694444e-02
  4.6678302e-03
  2.7004548e-03
  2.6518293e-02
  1.5390832e+00
 -3.6461748e-02
  2.6194612e-03
  2.1120074e+00
 -4.0204942e-01
 -8.5188580e-01
 -5.3903055e-01
 -1.1842600e-01
 -4.6873256e-03
  2.1904740e-01
  1.5692124e-02
  3.3378866e-01
 -2.5591668e-01
 -4.0478200e-01
 -2.1698574e-02
 -1.4152003e-02
  2.2898299e-01
  4.5323408e-01
 -1.9183340e+00
  1.9584438e-01
 -1.5212559e-02
 -2.7986954e-03
 -4.8345885e-01
 -3.6052266e-01
 -1.5004860e+00
  2.0014554e-01
 -8.1008291e-01
 -4.2992482e-01
 -5.5662602e-01
 -1.8813974e-01
 -2.9260516e-01
  1.2755403e-01
 -9.3006179e-02
  1.9607280e-01
 -1.7030802e-02
 -1.9127703e-01
  5.8611676e-02
 -1.5571146e-02
  1.2964776e-01
  1.4949639e-01
  1.5374331e-02
  1.2900594e-01
  7.7195026e-02
 -1.9351792e-01
  3.6936116e-01
  7.5307742e-02
  2.3889306e-01
  3.8801845e-02
  7.8133829e-02
 -6.8619534e-02
  7.1016237e-02
  1.0650965e-01
  1.3998993e-01
 -4.4430833e-02
 -7.4132033e-02
  4.3433617e-04
  7.5923517e-02
  5.4370619e-02
  2.1624214e-03
  1.1309848e+00
 -6.0157555e-01
 -2.0316344e-01
  1.6323124e-01
  5.4652327e-01
  7.8710818e-01
  9.4771779e-01
  3.5501111e-02
  1.9116513e-01
 -2.6418647e-01
 -3.5161176e-01
  1.0550320e+00
 -2.7037910e-01
  3.5692820e-01
  1.3125057e+00
  2.1793208e+00
  6.8924832e-01
 -5.7085180e-01
  1.2600556e-01
  9.1037935e-01
  1.9649028e+00
  9.0639174e-01
 -1.6949055e+00
 -3.8174695e-01
  1.5685946e+00
  6.5812236e-01
  2.8283596e-01
 -7.9202138e-02
  1.0724182e-01
  1.7504343e-01
  2.3305962e+00
  4.1337696e-01
  1.3159509e+00
  6.0822541e-01
  4.7003254e-01
  1.3067684e+00
  2.2442904e-01
  3.6886597e-01
  4.1135851e-02
  2.6275483e-01
  5.0264376e-01
  1.0282462e+00
  5.4016030e-01
  2.6283062e-01
  9.1731407e-02
 -1.1102792e-02
 -2.3400575e-02
 -1.1004888e-01
 -7.3238060e-02
  1.5674244e-01
  9.5993496e-02
  7.1247458e-02
  9.8484932e-03
 -3.9207648e-02
  1.1537775e-01
  3.3894861e-01
 -1.6957831e-01
 -1.2176630e-01
 -4.3990523e-02
 -4.3240510e-02
 -3.8584698e-02
  3.5596859e-02
 -2.4851017e-02
  1.8417511e-02
  3.9911173e-02
  4.2123403e-02
  6.5091901e-02
 -3.2968950e-02
 -6.1386969e-02
 -1.1653433e-01
 -4.5290757e-02
  7.0695076e-03
 -7.0502749e-04
  4.8322659e-02
 -3.5682492e-02
 -7.1695350e-02
 -4.7121570e-02
 -3.8729236e-02
 -3.6772046e-02
  2.3090741e-02
  2.5194673e-02
 -2.2957260e-02
 -8.3382942e-02
  1.0327855e-01
  1.8167196e-02
 -3.9041609e-02
 -1.1753564e-02
 -3.2714237e-02
 -1.1620414e+00
 -7.8944102e-02
  1.0240114e-01
 -5.5307906e-02
  6.1039865e-02
  9.1468627e-03
 -1.2408967e+00
 -6.0960196e-02
 -5.2640159e-02
 -5.5673659e-02
  4.3398075e-02
  5.0285435e-01
  3.0644516e-02
 -3.1435711e-04
 -9.3110092e-02
  2.3558903e-02
 -4.5582107e-03
  8.1762582e-02
  3.0479228e-02
 -2.2689031e-02
 -1.8729834e-02
 -2.3083565e+00
 -1.4295148e+00
 -3.1739664e-01
 -1.0043318e+00
 -5.6691289e-02
  4.5733246e-01
  3.3851382e-01
  1.9103827e-01
  1.3870163e-01
 -2.2764125e-01
 -8.0939066e-01
 -3.3247110e-02
  1.3711369e+00
 -2.4137306e-01
  4.5652482e-01
 -1.6276352e-01
  7.3175311e-01
  1.0280383e+00
 -1.3716497e-01
  7.5077492e-01
 -5.2368236e-01
  1.7496568e+00
 -2.4082062e+00
 -1.2909470e-01
  4.2147666e-01
  4.8075143e-02
  3.7080607e-01
  5.8676678e-01
 -6.4878845e-01
  9.4076253e-02
  3.2890382e-01
  1.3209522e+00
  9.5558792e-02
  5.8222950e-01
  6.0479027e-01
 -2.8969055e-01
 -5.0129440e-02
  3.1925127e-01
  1.3325430e-01
  4.9280041e-01
 -3.0688241e-01
  6.5897328e-01
  2.8674152e-01
  1.7309599e-01
  2.5917978e-03
  2.8368548e-01
 -5.9809707e-02
  2.3114142e-01
  8.2452692e-02
  1.0428581e-01
 -5.7601050e-02
 -2.0002203e-01
 -5.5176392e-02
 -3.0627009e-02
 -1.0785703e-04
  1.6354707e+00
 -4.7290125e+00
 -6.1032224e-01
  8.5713148e-02
 -7.1952082e-02
 -8.9964390e-01
 -1.4449983e+00
 -3.5254031e-01
 -1.2751627e+00
  4.4443053e-01
  2.4979613e+00
 -7.2099167e-01
  6.3439876e-01
 -2.1922822e-01
  1.0713788e+00
 -1.2873442e+00
 -1.8253522e-01
 -6.4756721e-01
 -2.5998461e+00
  7.2814941e-02
  8.3674186e-01
  1.2557858e+00
 -2.9753396e-01
 -6.3146228e-01
 -9.4359148e-01
  1.2586298e+00
 -2.0940900e-01
  3.7301931e-01
 -8.8909864e-01
 -4.5158812e-01
  1.0066379e+00
 -6.2932128e-01
 -4.6374848e-01
 -7.8861982e-02
 -5.6728208e-01
  6.1807416e-02
 -2.3786931e-01
 -8.0575943e-01
  2.5295910e-01
  4.3546785e-02
  1.9864319e-01
  3.5897335e-01
 -5.6676793e-01
  2.6165265e-01
  4.6218544e-01
 -4.1002592e-01
  2.6568866e-01
  1.8001610e-01
 -3.9314511e-01
 -4.3642674e-02
  9.7281814e-02
 -3.3558846e-02
  2.2776416e-02
  2.9144792e-02
  2.4857547e-02
 -1.1054375e-01
 -2.2232582e-01
  1.5061077e+00
 -1.3827400e-01
  2.5027562e-02
 -3.4132507e-02
 -5.3791061e-02
 -5.6516897e-02
 -1.2523563e-01
  6.1726954e-02
  4.6315737e-02
 -9.2466146e-02
 -3.0530442e-02
 -4.4357937e-02
  9.8972954e-02
  1.6399078e-01
 -1.1976232e-01
  1.0554481e-02
 -4.0970124e-02
 -2.5428168e-02
 -1.2516135e-01
 -1.8608797e-01
  5.6350283e-02
 -1.2235849e-01
  2.5509173e-02
 -1.7093219e-02
 -1.7728299e-01
 -1.1970154e-01
 -6.5963887e-02
  6.4202540e-02
 -8.5073579e-03
 -7.4549787e-02
 -2.1168661e-01
 -2.2048275e-01
  1.1496748e-02
 -3.2088116e-01
 -5.1527679e-02
 -3.3988670e-02
  6.6673905e-02
  5.1930983e-02
 -1.2769464e-01
  1.2987383e-01
 -5.1697560e-02
  3.2711793e-02
  1.0078238e-01
 -6.4394906e-02
  8.7349266e-03
 -1.6618328e-02
  1.1754754e-02
 -1.0986742e-01
  6.4048115e-03
 -2.1742815e-01
 -5.5654030e-02
  5.7135511e-02
  6.3921032e-03
  1.3148768e+00
 -3.4496638e-01
  7.9434246e-01
  6.4851397e-01
  2.9419938e-02
 -9.2401102e-02
 -1.5484900e-02
 -1.5668351e-02
  1.1797621e-01
 -3.6142491e-02
  1.4292616e-01
  6.7461212e-03
 -8.2154505e-02
  1.2092483e-01
 -1.3074400e-01
 -1.2513541e-01
  1.6605736e-01
  6.5516777e-02
  2.4228010e-01
  1.1438208e-01
  3.0447441e-01
 -7.5548464e-01
 -7.4990553e-01
 -1.0495613e+00
 -5.1639336e-01
  9.2700414e-02
  1.9317788e-01
  2.5766048e-01
  2.1285523e-01
 -1.0441508e-01
  7.7144895e-03
 -1.5316971e-01
  5.6440926e-01
 -1.6538748e-01
 -1.7566964e-01
  2.3871101e-02
  1.5136701e-01
  2.0578098e+00
  1.0826272e-01
  3.7551265e-02
  3.0894298e-02
 -1.0571859e-01
  6.8505853e-02
 -1.2696129e-02
 -1.2883702e-01
  3.8899463e-02
  3.4615632e-02
 -2.3752838e-02
  2.1912379e-02
 -4.3507099e-02
  3.3385269e-02
 -3.7479855e-02
  1.0609082e+00
  1.3505921e-02
 -7.7811060e-03
 -4.5263648e-02
 -3.0695516e-01
  2.7192393e-01
 -4.9354512e-02
  1.3174592e-02
  4.9971670e-02
  4.2742651e-02
 -3.0071071e-01
  3.4232445e-02
 -1.2230786e-01
  1.1567063e-02
 -2.1612143e-02
 -2.5880665e-02
  6.6771947e-02
 -2.3177981e-02
 -2.9538244e-01
  8.9527920e-02
  3.0111244e-02
  7.8906350e-02
 -7.4799843e-02
  1.6299041e-02
 -6.1639352e-03
  8.3116099e-02
  1.3716252e-01
 -6.3125335e-02
  1.1108972e-02
  2.0167181e-02
 -2.3672011e-02
  7.0297711e-02
 -3.7914339e-02
  1.1932639e-02
  9.6135184e-02
 -1.8541882e-02
  1.3124569e-01
 -8.2154855e-02
  6.4060643e-02
  5.3445332e-02
 -1.6149027e-02
  4.3104641e-02
 -1.9996785e-02
  9.0404101e-02
  3.0809050e-04
 -4.3318585e-02
  3.3072129e-02
  6.2544845e-02
 -4.2954005e-02
  3.6982594e-03
 -4.2429056e-02
  4.2293813e-02
 -4.8901271e-02
 -8.6311512e-02
  4.4353947e-04
  8.1044964e-02
  3.2684933e-02
 -1.8323895e-01
  1.2204641e+00
  3.2954156e+00
  2.5258806e-02
  4.0335884e+00
 -7.2463953e-01
 -1.4448304e-01
 -2.7820352e-01
 -1.2644844e+00
 -5.4555845e-01
 -9.4528899e-02
  1.0883963e+00
 -1.5851656e-02
 -9.7918391e-01
  6.5814227e-01
 -2.3575306e-01
 -9.5997006e-01
 -2.4237027e+00
 -1.5922747e+00
  6.1383528e-01
 -3.4078863e-01
 -1.4200785e+00
 -2.1729367e+00
 -8.6359507e-01
  1.5522320e+00
  6.4825802e-03
 -4.7427216e-01
 -2.0370271e+00
 -1.6894417e+00
  1.5253597e+00
 -6.2447602e-01
 -3.7593311e-01
 -5.7290703e-01
 -2.9470927e-01
  2.8139982e-01
 -6.9632554e-01
 -2.5517869e-01
 -1.0495852e+00
 -1.4202077e+00
 -4.9286896e-01
 -4.6524990e-01
  8.7531960e-01
 -5.9465658e-02
 -1.7969402e+00
 -1.3881418e-01
  3.3481544e-01
 -4.0311641e-01
  2.1733771e-01
  7.4493960e-02
 -9.2111148e-02
 -1.7060576e-01
  3.9314058e-02
 -1.0683933e-01
 -1.9034654e-02
  5.7150409e-02
 -2.4542896e-02
 -5.8045053e-01
  8.3003497e-01
 -4.1912809e-01
 -3.2205582e-03
 -1.2314548e-01
  9.7462125e-03
 -4.1183300e+00
 -4.7933023e-02
  1.3498330e-01
 -8.6038910e-02
 -1.9743990e-02
 -7.7694297e-02
  2.9904101e-04
  9.3682304e-02
 -4.1292305e-03
  5.6244876e-02
  1.1899494e-01
 -1.0048830e-01
  1.2060490e-01
 -9.2052624e-02
  2.7164617e-01
 -7.0179895e-02
  9.8330721e-02
 -8.7695822e-02
 -2.5690089e-03
  8.2025945e-01
  3.5716761e-02
  2.9015200e-02
  1.5363011e-01
 -4.8622388e-02
 -4.1563343e-02
 -1.8126917e-01
 -1.8391936e-01
 -1.3812640e-02
 -1.6867937e-01
  1.4140014e-01
 -7.1507052e-02
 -9.3819976e-02
  9.6504521e-03
 -1.2052081e-01
 -1.0705816e-01
  7.1907274e-02
 -8.0418430e-02
 -1.5144607e-01
 -5.8734573e-02
  8.8488892e-02
  1.6480651e-02
 -1.7513623e-02
 -1.8273043e-02
  1.4698421e-02
 -2.4923708e-02
 -5.2778501e-02
 -5.2403376e-02
 -1.1268660e-02
 -5.1574830e-02
  8.7466615e-01
 -4.4203544e-01
  1.2571187e+00
 -6.6192293e-01
  1.3888587e-01
  4.3580681e-02
  6.0826528e-01
  2.0106084e+00
 -2.2248799e-01
  9.5880732e-02
  4.5335042e-01
  1.0652229e+00
  4.5264050e-01
  2.5226209e-01
 -1.8165554e-01
  3.0723125e-01
  9.8308289e-01
  5.7050502e-01
 -2.3295563e-01
 -6.7496493e-02
  1.3658257e+00
  1.9101623e+00
  1.3138059e+00
  6.9910474e-02
  9.8548877e-01
 -1.3245586e-01
  1.2539997e+00
  6.9017738e-01
  3.8300946e-01
  2.5915870e-01
 -3.7746066e-01
  2.6074606e-01
  1.2949674e+00
 -2.2022223e-01
 -3.4960729e-01
  1.0283332e-01
  5.4250205e-01
  6.5978962e-01
 -3.8844042e-02
  2.6090953e-01
  1.3491350e+00
  8.2338053e-01
  9.3430990e-01
  2.1565960e-01
  5.9785964e-03
  2.4503842e-01
 -3.4342369e-01
  5.5468220e-02
  1.1182810e-01
  2.8853664e-02
  1.1997259e-01
  1.3257867e-01
  7.7656128e-02
 -4.8321169e-02
 -4.1587759e-02
 -5.7216614e-01
 -4.2311504e-01
 -1.2467484e+00
  1.0460156e+00
  3.0489147e-01
 -1.7910656e+00
 -3.3818448e-01
 -8.5038948e-01
 -1.4652102e+00
 -6.4223224e-01
  2.1331893e-02
  5.8942360e-01
 -4.2078394e-01
 -7.3372066e-01
  3.4255064e-01
 -6.9027442e-01
 -7.6228821e-01
 -8.1586665e-01
 -6.5633702e-01
  9.0024590e-02
 -5.5708468e-01
 -1.2518258e+00
  1.1469568e+00
 -3.0013189e-01
  5.1746428e-01
 -6.6399199e-01
  1.3904179e+00
  4.4799363e-03
  2.1492660e+00
 -2.0302160e+00
 -1.6891804e-01
  3.9977157e-01
 -1.1469041e+00
 -1.3415745e-01
  9.6811838e-03
 -6.9082409e-01
 -1.1875734e+00
 -5.0910044e-01
  1.7263583e+00
 -2.0554235e+00
 -1.7896085e+00
  1.5599835e+00
  5.2734834e-01
  1.3491588e+00
 -1.1067497e+00
 -1.0526776e+00
 -1.6115642e-01
  4.4223520e-01
 -1.7650834e+00
  1.4948375e+00
  1.4394431e+00
  1.5966945e+00
 -4.1679403e-01
  1.0523274e+00
  9.8680371e-01
  3.8210273e-01
  1.3923372e+00
  5.4767013e-01
 -1.4309858e+00
 -7.1858668e-01
  1.0567445e+00
 -1.2443492e-01
  5.8417927e-02
 -2.0024979e-01
 -8.0019397e-01
 -1.2734077e+00
 -7.2619390e-01
  2.4967413e-01
 -7.5810248e-01
  1.9698284e+00
 -9.8208439e-01
  8.5919011e-01
 -5.5466346e-02
  2.4595195e-01
 -5.9614950e-01
  2.5644519e+00
 -3.0706418e-01
 -1.4301059e+00
 -2.4245252e-01
  2.8945005e+00
  2.2997775e-03
 -4.2227364e-01
 -7.1242815e-01
  1.4049935e-01
 -3.5444894e-01
 -7.2855271e-02
 -8.8992119e-01
 -6.3168705e-01
 -2.7944064e-01
 -1.5507706e-02
  2.1781859e-01
 -7.6821542e-01
  5.5811250e-01
  2.8432589e+00
  9.5592275e-02
  5.3000665e-01
  9.9037147e-01
  4.9200046e-01
  3.3430043e-01
  2.5095837e+00
 -3.9983501e+00
 -1.1448597e+00
  1.0706323e+00
  4.8167762e-01
 -5.5671539e-03
 -1.5198611e-01
 -5.4734015e-01
 -8.5562333e-02
  3.5474536e-01
  2.3768666e+00
  2.1430130e+00
  1.0327444e+00
  9.1477908e-02
  4.6091112e-01
  2.4011120e-01
 -2.3976121e+00
  1.1468736e-01
 -1.7280661e-01
  9.8250133e-01
 -2.8701168e-01
  1.9478793e-01
  5.6440932e-01
 -5.8351677e-02
 -3.6878055e-01
 -8.6425650e-01
 -1.1507217e+00
  8.9812839e-01
 -1.1832584e+00
  3.3456275e-01
 -3.9646938e-01
  1.1134361e+00
  3.7203178e-02
 -1.7000865e+00
  1.8568002e+00
  5.7246065e-01
 -2.5434199e-01
 -1.5225942e-01
  3.2655327e+00
 -1.4420147e-01
  1.1332428e+00
  1.0969676e-01
 -4.0233886e-01
  7.0215516e-02
  2.4799017e-02
  4.4028911e-01
 -1.2275457e-01
 -4.7968544e-02
 -1.0457160e-01
 -2.1232867e-03
 -5.2951001e-02
 -1.3926966e-01
 -3.7188787e-02
 -4.0589947e-02
 -6.9831967e-02
  8.9282580e-02
  1.6974276e-02
 -1.1421828e-01
  1.2392700e-01
  4.4557847e-02
 -3.5883057e-01
  1.0318176e-01
 -2.0319678e-01
 -3.5699338e-01
 -2.3797260e-01
 -3.8694855e-02
 -1.2526977e-02
 -1.3149929e-01
  1.8310766e-01
  6.4309388e-02
  1.6701689e-03
  1.8177143e-01
 -2.2553144e-01
 -7.8616075e-02
  5.4809529e-02
  1.5790656e-01
 -9.5575318e-02
 -8.6927302e-02
 -2.3291321e-01
  1.2683062e-01
 -2.6865229e-02
 -9.1742925e-02
 -1.6148825e-01
  8.4208995e-03
 -1.5225224e-01
 -5.8915514e-02
  2.1420123e-02
 -8.5823312e-02
 -3.7960891e-02
 -1.9842725e-01
 -1.1649962e-02
 -7.2193645e-02
  2.9148601e-02
  1.7308936e-02
 -1.6025677e-02
  1.9651389e-02
  9.2383307e-01
 -2.3969777e+00
 -3.0321372e-01
  3.9310117e+00
  3.9347990e+00
  2.7528921e-01
  3.9583412e-01
  4.9433064e-01
  4.3076456e-01
 -1.7095536e-01
  7.2982359e-01
  4.4011676e-01
  5.6118554e-01
 -7.0933193e-01
  7.0131898e-02
  1.4176491e+00
  8.4763920e-01
 -9.6502417e-01
 -2.7770841e-01
  6.2556662e-02
  1.4349902e+00
  5.7853180e-01
  9.2781693e-01
  4.9549305e-01
 -9.5920011e-02
  1.0633678e+00
  8.7791681e-02
  1.0323796e+00
  2.1192604e-01
  1.3612362e+00
 -1.8307084e-02
  3.4820250e-01
  3.6617050e-01
 -8.2272939e-02
  4.3029889e-01
 -1.1288300e-01
  2.6668173e-01
  1.9147611e-01
  3.7976325e-01
  6.3348573e-01
  2.9846409e-01
  3.3049262e-01
 -2.2012582e-03
 -7.0113599e-01
 -4.1361761e-01
 -1.1935046e-01
 -2.0957252e-03
 -4.4160181e-01
  1.7014314e-01
  6.1694168e-02
  5.3118989e-02
 -2.4550203e-02
  3.4529295e-02
 -3.9311364e-02
 -5.1032067e-03
 -2.4518553e-02
 -8.5968727e-01
 -5.2180260e-02
 -2.6339090e-01
 -1.1508977e-01
 -1.0499641e-01
 -1.2951255e-02
  6.0100876e-02
 -5.1625051e-02
 -1.0275393e-01
 -4.6114448e-02
 -2.2141416e-02
  2.4661031e-02
  6.9685996e-01
  1.2417240e-01
  1.1223696e+00
  2.2310989e-01
 -3.5011422e-02
  2.3342752e-01
  4.1653477e-02
 -1.2479023e-02
  6.4326283e-03
 -4.9315230e-03
 -2.9249698e-01
  1.8221331e-01
  1.5366574e-02
  2.2721636e-01
  8.7222770e-02
 -7.9376332e-02
 -4.7748506e-02
 -7.5528733e-02
 -5.3268179e-02
  5.7515120e-03
  7.7144854e-02
 -1.6639158e-02
 -7.8171432e-02
  2.3521155e-03
  5.2894582e-03
 -8.9927977e-03
 -2.0712335e-02
 -3.8298931e-02
  6.9846669e-03
 -1.4445513e-02
 -5.9634563e-02
 -1.2167086e-01
  3.4405377e-03
  2.3097639e-01
  6.5119021e-02
 -9.9080605e-03
  1.8801536e-02
  1.1273993e-02
  5.3947672e-02
 -3.4363560e-02
 -8.2139624e-03
 -1.4129562e-02
 -2.0154694e-01
 -1.2781745e+00
 -6.7844737e-01
 -5.3148758e-01
  7.6234031e-01
 -6.8350807e-02
  1.8821065e-01
  8.0865937e-01
  2.8540933e-01
  1.2112521e-01
 -2.6855290e-02
  7.3914610e-02
  1.8529910e-01
 -2.9344448e-01
 -2.0737703e-01
 -2.4968423e-01
  2.2758965e-01
  3.4810238e+00
  3.3429041e+00
 -6.9661313e-01
 -5.0618076e-01
  9.4958460e-01
 -4.5762506e-01
  1.2720523e+00
 -5.8658558e-01
  6.7934088e-02
  4.0947902e-01
  1.3298953e+00
  8.4602654e-01
 -6.8169951e-01
  7.5905457e-02
  1.6237867e-01
  5.6501669e-01
 -1.5920396e+00
  6.2167889e-01
 -3.9175144e-01
  2.0150743e-01
  4.4317928e-01
  1.1041567e+00
  6.9403611e-02
  2.2792895e-01
  1.7130218e-01
  2.8505798e-02
  5.3191304e-01
  1.7835313e-01
 -5.6290306e-02
  4.2102523e-02
 -6.1544192e-01
  8.7675110e-02
 -1.1337186e-02
 -3.3698000e-02
  1.2472223e-02
 -2.8273579e-02
 -1.9576997e-02
 -7.4491173e-02
 -3.0455456e+00
  2.7806680e+00
  4.9469959e-02
  3.3788252e+00
  3.4900275e-01
  3.4039101e-01
 -1.1625196e-02
 -1.2627365e-01
 -1.1076188e+00
  9.4630426e-01
  1.6757644e+00
 -3.2838905e-01
  2.3364511e+00
 -2.1751683e+00
  8.5820086e-02
 -7.5180095e-01
  1.1456552e+00
  8.5320079e-01
  1.1466402e+00
 -7.3554373e-01
 -4.8209134e-01
  1.3563409e+00
 -3.1783658e-01
 -3.5113740e-01
 -2.9344600e-01
 -8.8443947e-01
  1.0265986e+00
 -1.4174296e+00
 -5.1885042e-03
  2.1602581e+00
 -1.5238646e+00
 -6.0791993e-01
  5.2139997e-01
  1.8750931e+00
  4.5758319e-01
 -3.3360061e-01
  6.5853518e-01
 -3.3745334e-01
  2.1831310e+00
 -1.6055406e+00
 -3.4775338e-01
 -3.9763767e-01
  5.3665245e-01
  6.4210117e-01
  3.9463630e-01
 -2.4416931e-01
 -1.2131611e-01
  1.8351881e-01
 -8.1515265e-01
 -2.5658423e-01
 -4.2565048e-02
 -7.6621007e-03
 -2.9437950e-02
  2.3050089e-01
  1.0702858e-03
 -3.7445307e-02
  9.0946546e-03
  2.7980654e-02
 -8.6238521e-01
 -8.3787888e-02
 -6.7824744e-02
 -4.3779365e-03
  4.0336076e-02
  2.4918369e-03
  8.1787156e-03
  1.6892321e-02
  9.9455370e-03
 -1.1895444e-02
  1.1181036e-01
  8.0684602e-02
  4.5116949e-03
 -4.0440429e-02
 -2.4768865e+00
 -1.6089924e-02
  8.5637420e-02
  6.9736257e-02
  1.0886503e-01
 -9.5357008e-02
 -9.1288395e-02
  9.3871797e-04
 -2.8419588e-02
 -4.5405407e-03
  9.6957184e-02
 -1.2383853e-01
  9.3941763e-02
 -1.1582647e-01
 -2.6310097e-02
  3.0298827e-02
 -1.0993907e-01
  2.1619296e-02
 -7.5594500e-02
 -6.9632523e-02
  1.5242790e-01
 -1.2479782e-01
  1.5494466e-01
  6.1022770e-03
  3.9776903e-02
  5.2092992e-02
 -5.5559076e-02
  8.8962324e-02
  7.3385504e-03
 -6.6610225e-03
 -4.1558120e-02
  1.0893280e-01
  2.4143914e-03
 -7.2538215e-03
 -5.2029560e-03
  2.5952570e-02
  4.7624387e-02
 -2.2009855e-02
  5.9992170e-01
 -1.3701149e+00
  2.6737118e+00
 -1.1549980e-01
 -1.2513126e-01
  7.2373921e-01
  5.5534136e-01
  1.4866337e+00
  1.4166629e+00
  1.0087288e-01
  7.1007609e-01
  5.9053141e-01
  1.0517198e+00
 -4.7565961e-01
  2.5152603e-01
  7.4785531e-01
  1.4985636e+00
 -5.8387023e-01
  1.5312951e+00
 -8.0451119e-01
  1.1270241e+00
  7.8553432e-01
  2.4214504e+00
  5.0984287e-01
  1.3256781e-01
  5.0826055e-01
  7.7761096e-01
  2.1647732e+00
  1.8169291e+00
  4.0599179e-01
 -3.0938959e-01
  7.4603885e-01
  2.1465850e+00
  1.2214333e+00
  9.8940253e-01
 -2.5249568e-01
  7.0778346e-01
  8.2562530e-01
 -3.6227979e-02
 -3.3484107e-01
  2.6923957e-01
  2.6537585e-01
  2.9884306e-01
  1.9315243e-01
 -2.5929871e-01
  5.7064246e-02
  1.5297724e-01
 -1.0573772e+00
  3.2957003e-01
 -1.1741883e-01
  1.6225554e-01
  3.9743192e-02
  7.1556389e-02
  5.4408941e-02
  2.8788298e-02
  1.6810942e-01
 -1.5708946e+00
  6.7966193e-02
  2.5840316e+00
  1.3317621e+00
 -4.5871502e-01
 -1.1053337e-01
 -6.8742472e-01
 -2.1409748e+00
 -1.4453895e-01
 -9.5626831e-01
 -8.6305726e-01
 -1.0984790e+00
  7.0698291e-01
 -1.1103016e+00
 -6.7671406e-01
 -1.4062287e+00
 -1.7715421e-01
  1.0105598e+00
 -1.4185910e+00
 -8.2722735e-01
  3.6704308e-01
  3.0244136e-01
  2.6855159e-01
 -4.4238639e-01
 -2.9240465e-01
  6.0824788e-01
 -2.0136440e+00
  7.8268427e-01
 -1.8078232e-01
 -1.1034200e+00
  1.9310866e-01
 -7.5176775e-01
 -4.6994251e-01
 -2.6465231e-01
 -5.8949804e-01
 -2.2624704e-01
 -9.7568953e-01
 -1.7925919e+00
  5.6122247e-02
  1.2317288e+00
 -4.3058342e-01
 -2.3156463e-01
 -3.6138651e-01
 -1.9911210e-01
 -2.7798206e-01
 -2.8125027e-01
  4.5819083e-01
 -7.4346769e-01
  2.4794315e-01
 -1.4934275e-01
  3.5705872e-02
 -4.9663838e-02
 -1.2855953e-01
  3.5608467e-02
 -2.3906083e+00
 -1.2020594e+00
 -3.7482231e+00
  9.0482777e-01
 -4.5957998e-03
  5.2176541e-01
  2.4089645e-01
  4.6382079e-01
  2.9527837e-01
  3.1100759e-01
 -5.4270588e-03
  1.0186189e-01
  1.8402556e-01
 -7.6802379e-01
 -1.0856293e-01
 -3.7555453e-01
  5.5622828e-01
 -4.7631204e-01
  2.1125369e+00
 -3.3755773e-01
 -1.0788816e+00
 -5.9213225e-02
  5.9384835e-01
  2.4374831e+00
 -3.1387612e-01
  6.1079574e-01
  4.5667166e-01
  1.4803270e-01
  1.1874441e+00
 -1.1349037e+00
 -8.6235803e-01
  3.1727892e-01
  7.7122438e-01
  3.0766501e+00
 -2.5290811e-01
 -9.4221592e-01
 -1.2199903e-01
  5.0893422e-02
  5.9705967e-01
 -7.7113740e-02
  3.6900830e-01
  2.1198802e-01
  1.7380777e-01
  3.0075529e-01
  2.4636802e-01
  5.1708095e-02
  1.0392778e-02
 -2.9555619e-01
 -3.8866352e-02
 -3.8204789e-02
  8.7806441e-02
 -5.5286057e-02
 -5.2171131e-03
 -1.0447363e-02
 -9.5840268e-02
 -5.5452287e-01
  3.7477744e-01
  4.7220987e-01
 -2.4064144e-01
  4.4633365e-01
 -2.4940386e-01
 -2.1498330e-01
 -2.6782662e-01
 -4.0704209e-01
 -9.7166464e-02
 -1.1115500e-01
  5.2095007e-02
 -1.1255516e-01
  1.3882862e-01
  1.7173333e-01
  4.6405113e-01
 -2.7033710e-01
 -4.9789220e-02
  1.7967285e-01
 -1.1476694e-01
 -3.8576033e-02
 -1.6616395e-01
 -4.5093480e-01
  4.2404220e-01
  4.6572852e-01
 -4.4494448e-03
  4.0743466e-02
  2.7101603e-01
  7.7588373e-01
 -1.2807256e-01
  1.7874093e-01
  1.3885843e-02
 -2.6110688e-01
  1.6366982e-01
  2.7987069e-01
  1.8072297e-01
  4.3115810e-02
 -6.5856993e-02
  3.7140468e-01
  3.2907018e-01
  2.5405781e-02
 -9.4792917e-02
 -1.1218245e-01
  5.1093791e-02
 -2.4911100e-01
 -7.9742864e-02
 -5.8649588e-02
  2.2693999e-02
 -4.0038979e-01
  8.7051898e-02
 -8.5484140e-02
  3.7422888e-02
 -4.6464056e-02
 -7.7395993e-03
 -2.0710861e-02
  1.0731637e-01
 -1.5246603e-01
 -2.1293042e-02
  3.5342626e-02
 -6.6251254e-01
 -1.4661376e-02
 -6.5976925e-02
 -1.0633991e-02
 -7.9217860e-03
  3.6492404e-02
 -9.3056478e-02
 -2.8031202e-02
  8.9190518e-03
 -9.3313746e-02
  2.6963145e-02
  1.1486948e-02
 -7.6626912e-02
  8.1693426e-02
 -3.1588100e-02
  1.4430662e-02
 -4.1665863e-02
  7.5605229e-02
 -7.7152953e-02
 -9.4859250e-02
 -8.1778087e-02
 -8.8931425e-03
 -9.8452074e-03
  7.5411297e-02
 -2.3286540e-02
 -6.3874684e-02
  2.8053682e-02
  5.9752211e-02
 -5.2762473e-01
 -2.4138995e-02
  2.0712574e+00
  1.1136395e-01
  1.5760044e-02
 -2.1795411e-02
  5.7767462e-02
 -1.5346779e-02
 -9.7170874e-02
 -1.3727149e-01
  7.4604258e-02
 -3.6673276e-03
 -3.5245231e-01
  3.9153360e-03
 -9.8770723e-02
  3.2106929e-02
 -6.8422794e-02
  8.4327328e-01
  2.9880350e-02
  7.6940127e-02
 -1.5226543e-01
 -5.9571513e-03
 -4.7812384e-02
  7.3982496e-03
  6.5130517e-02
 -1.2890844e-01
 -2.3465911e-01
 -6.2851265e-02
  5.5859303e-01
 -9.6670659e-03
  6.8487659e-02
  9.4982326e-02
 -1.1305377e-02
  7.2699025e-02
  1.6463155e-02
  3.1875785e-02
  4.4773307e-02
  6.8272665e-02
 -6.1716393e-02
  8.4721602e-02
 -1.4544393e-01
 -6.2536605e-02
  5.8175768e-03
 -2.3479382e-02
  4.4633701e-02
  3.6774397e-01
  2.1634484e-02
  2.0345832e-01
 -1.8574359e-02
 -7.4652180e-02
  3.6158625e-02
 -1.5534930e-01
 -3.0853884e-02
  1.8168737e+00
  1.0803994e-01
  3.8995713e-02
 -1.5001090e-01
 -7.1143843e-02
 -5.5103999e-02
  2.3685476e-02
  6.4721279e-02
 -1.0675505e-01
  8.5514329e-02
  1.1220167e-01
  1.3079547e-02
  2.3028310e-02
  4.7014546e-04
 -4.9248669e-01
  2.2194674e-02
  4.2060025e-02
 -3.6250006e-02
  6.6300891e-02
 -2.2035215e-02
  6.7992575e-02
  2.3644550e-02
  7.3054984e-02
 -4.5122090e-03
  5.7297014e-02
 -7.2231263e-01
 -2.5215602e+00
  4.1953138e-01
  1.3789647e+00
  1.5491090e+00
 -3.9232334e-01
  8.7245949e-02
  3.0424455e-01
 -3.5503569e-01
 -4.4437081e-02
  3.9233327e-01
 -5.0071280e-02
 -1.2960572e-02
  1.2995054e+00
  2.6666563e-02
 -3.1405517e-01
 -5.4097331e-01
  5.3466499e-01
 -5.8572263e-01
  1.6562131e-01
 -3.6431289e-01
 -3.4980950e-01
  3.3494729e-01
  3.6922681e-01
  2.4819095e-01
 -2.1366718e-01
  6.6989809e-02
  3.4197804e-01
 -3.2398704e-01
 -6.2593085e-01
 -3.4903407e-01
  1.7657821e-01
  9.5799394e-02
 -2.0488262e-01
 -1.2251133e-01
 -1.2883733e-01
 -1.9215243e-02
  2.6966676e-01
 -7.8284070e-02
 -3.6911494e-01
 -4.2124480e-01
  4.3116722e-02
  2.0004896e-02
 -3.1610965e-03
  2.0153739e-02
 -1.3918503e-01
 -3.9453986e-01
  3.3660341e-02
 -1.1836493e-01
 -9.6033618e-02
 -8.2125917e-02
  1.3753216e-02
 -4.6324145e-02
 -4.6333909e-02
 -6.1941872e-05
 -1.0096944e-01
  3.2741636e-02
  7.9192126e-01
 -1.5303265e-01
  6.6210181e-02
 -1.1777841e-01
  1.1508335e-01
  7.3177940e-01
 -1.9775863e-01
 -2.3335539e-02
  5.6236967e-02
  1.9753715e-01
  8.5786402e-01
  3.0897921e-01
 -3.7872601e-01
 -7.9589002e-02
  1.6236632e-01
  5.4958129e-01
  1.8841545e-01
 -5.8660990e-01
 -4.4916552e-01
  6.9692945e-01
  1.7091445e+00
  6.7127055e-01
 -1.8585902e-01
  3.2949198e-02
  8.7012790e-02
  1.4663026e+00
 -2.7657405e-01
 -7.1108985e-01
  4.5514904e-02
 -7.7611595e-01
  6.5767425e-01
 -2.2637175e-01
 -2.5998297e-01
 -3.5204881e-01
  2.2699571e-01
  7.3889482e-01
 -1.5860015e-01
 -2.4739294e-01
 -2.8647026e-01
  4.0216020e-01
  2.9385516e-01
  1.4679588e-01
 -3.2533195e-02
  6.1304577e-02
  9.9180542e-02
 -5.3370273e-01
  2.3016860e-01
 -6.8434134e-02
 -5.7696458e-03
  2.9871833e-02
  1.7762356e-02
 -5.0123423e-02
  5.7244428e-02
 -1.9722260e+00
 -1.0301452e+00
  1.6791996e-01
  4.1699901e-01
  3.3842322e-01
 -7.7424340e-02
 -8.4662877e-02
 -5.7575598e-02
 -3.6192160e-02
 -9.1524096e-03
  3.4772295e-03
 -2.2534227e-02
  1.0558160e-02
 -1.7867601e-01
 -3.7144072e-02
  6.8561542e-03
 -5.3443886e-02
  6.9928817e-02
  1.3862085e-01
  5.6542750e-02
 -8.5814567e-03
  4.9728798e-03
 -4.2684335e-02
 -3.6743678e-02
 -6.7486256e-02
  1.5095905e-02
 -2.5969574e-02
  1.0392433e-01
  4.8192378e-02
  5.6543192e-03
  5.4310914e-02
 -5.6293361e-02
 -2.6580140e-02
  2.5742984e-01
  1.1012936e-01
  5.1486343e-03
 -1.0308791e-02
 -7.1833059e-02
  1.1269271e-01
  3.4531973e-02
  7.9523556e-02
 -1.1873326e-02
 -6.7765020e-02
 -2.6922954e-02
 -5.3099759e-02
  2.0060055e-02
 -4.1458500e-03
  4.4241462e-02
 -6.4211756e-02
  8.3957799e-02
 -2.7587822e-02
 -1.0585838e-02
  2.7888162e-02
 -2.9266767e-02
  5.3159609e-02
  1.9986892e-02
 -2.6307254e+00
  8.0921397e-02
 -6.6262245e-01
 -2.8643185e-01
  8.7559044e-02
  8.3473206e-02
  1.2562504e-01
 -4.0201049e-02
  1.7004950e-01
  7.1728155e-02
 -4.9674320e-03
  7.2749436e-02
  2.8053507e-01
 -1.5881701e-01
 -2.3944654e-01
  2.1795250e-01
  4.7666731e-01
 -1.5160632e-01
 -1.3439493e-01
 -1.4662749e-01
  1.1625584e-02
 -1.7706956e-01
 -8.9165521e-01
  3.0768074e-02
  7.9329036e-02
 -7.4857503e-02
 -2.1160349e-01
 -1.0255386e+00
  2.1794028e+00
 -1.0865104e-01
  9.2444532e-03
  2.1970159e-01
 -1.9989769e-01
 -1.8077275e-01
  2.1423246e-01
  9.3868107e-02
  2.9977709e-01
 -2.4375832e-01
 -3.9817730e-01
  8.8825129e-02
  1.2404989e-01
  6.6276722e-02
 -5.2224915e-02
  3.1807384e-01
  1.0159215e-01
  8.9796767e-02
  1.5435624e-02
  2.4619052e-01
 -9.4016567e-02
 -4.0917002e-02
 -1.1314524e+00
 -5.7148870e-02
  3.7844826e-02
 -3.1817816e-02
  6.2475808e-02
 -1.2490931e-01
 -1.1650012e-01
  2.9221669e-01
 -3.2532793e-01
 -7.5817823e-02
  4.0802956e-02
  1.1874089e-01
  6.8771392e-02
  3.0544914e-02
  1.2175868e-01
  8.8571355e-02
  1.2397459e-01
  1.3916706e-01
 -1.2374417e-02
 -9.6003309e-02
  9.6861944e-02
 -1.6145980e-02
 -5.8839854e-02
  1.5285796e-02
  1.6924521e-01
  8.2149088e-02
  1.9540252e-02
  2.3682594e-01
 -8.9134759e-01
  4.3122604e-02
  5.6835338e-02
 -6.8333149e-02
 -1.1788645e-01
  8.2645185e-02
 -1.0690574e-01
  7.4017972e-02
  4.1185471e-01
 -1.1525463e-01
 -2.5661409e-02
 -7.2060168e-02
  5.7326037e-02
  5.7359833e-01
 -1.1247022e-01
  9.9694915e-02
  1.5873456e-01
  8.6382851e-02
  5.1750012e-02
 -4.2105049e-02
  8.6324707e-02
  7.0810504e-02
  1.0955466e-02
 -8.5889705e-02
  1.8463129e-01
 -3.7417080e-02
  3.7573852e-02
 -8.4277928e-01
 -3.7698492e-02
  2.5255245e-01
 -6.9292262e-02
 -1.0991042e+00
  3.4823847e-01
  1.9998847e+00
  2.7167306e+00
  2.3354659e+00
 -2.7046973e-01
 -3.9296392e-01
 -1.8999126e+00
 -8.3242252e-02
 -1.2640235e-01
 -8.2246399e-01
 -1.1164075e+00
 -2.3820264e+00
  7.8714943e-01
 -3.3674321e-01
 -1.4182199e+00
 -1.1371764e+00
 -8.4502745e-01
 -5.5805296e-01
  4.0448686e-01
 -9.0457523e-01
 -1.4979439e+00
 -5.2805276e+00
 -6.2521115e-02
  1.5792485e-03
 -9.1279298e-01
 -9.6907216e-01
 -2.8876567e+00
  2.0605907e-01
 -3.0014849e-01
 -5.8548754e-01
 -6.8322474e-01
 -1.6234500e+00
 -3.8438511e-01
 -4.9511909e-01
 -6.6962117e-01
 -6.6751045e-01
 -1.5124289e+00
  7.6436855e-02
  4.4434848e-01
 -2.1589176e-01
 -4.0977955e-01
 -9.3770635e-01
  1.9042322e-01
  1.6866246e-02
  2.1162327e-01
 -3.1265014e-01
  1.5717901e+00
 -1.6288194e-01
  1.2036706e-01
 -4.3604054e-02
 -1.5391024e-02
 -5.0517168e-02
 -6.2358333e-03
  4.2079804e-03
  5.5399370e-01
  9.6449768e-04
  3.2560229e-01
 -3.9856538e-01
 -1.2746034e+00
  1.9786224e-02
  1.2604257e-01
  1.5668032e-01
  8.6565769e-01
 -4.7702834e-02
  2.0061350e-01
  3.9693126e-01
 -1.0771359e-03
  5.4200638e-02
  2.5190497e-02
  2.7907491e-01
 -3.6032751e-02
 -9.4193324e-02
 -1.7632256e-01
  4.0864164e-01
 -7.8406042e-01
 -2.4238101e-01
 -7.9857506e-02
  7.1642780e-01
 -9.6456774e-02
  4.0794902e-02
 -1.9697160e-02
 -5.4042820e-02
  2.3091432e-01
  5.1010555e-01
 -1.7449772e-01
 -4.1499879e-02
  1.9531153e-02
 -5.8516306e-01
  1.0909107e-01
 -7.2016262e-02
  1.4543489e-01
  1.3527585e-02
  1.4306965e-03
  2.0102109e-01
 -4.4361675e-01
  5.1244196e-02
  6.1637361e-02
 -9.4809145e-02
 -6.4416952e-02
 -5.2385199e-01
 -8.6389333e-03
 -9.0220138e-02
  2.6870406e-01
 -7.4131273e-02
 -3.4130566e-02
  3.0086746e-02
  1.2022601e-02
 -3.4159090e-02
  2.9393863e-02
 -3.4219277e+00
 -1.4482999e+00
 -1.7155374e+00
 -3.7953606e-01
 -3.2243385e+00
 -2.8366774e-02
 -7.9683375e-01
 -6.4860201e-01
  2.1661800e-01
 -7.8829797e-03
 -5.3948402e-01
 -1.4974358e+00
 -3.5434228e-01
 -9.1611940e-01
 -6.9105990e-02
 -2.6568401e-01
 -7.8860289e-01
 -4.0801799e-01
  5.2851307e-01
  2.5514343e-01
 -3.1343536e+00
 -1.1599486e-01
  4.0507612e-01
  2.1355298e+00
 -1.8582571e-01
 -7.6911670e-01
 -1.3423909e+00
 -5.1281589e-01
  2.2506776e+00
 -5.1816082e-01
 -1.9399241e-01
 -4.5386487e-01
  1.2074237e-01
  1.3459851e+00
 -8.5390073e-01
 -2.4178994e-01
 -5.0436616e-01
 -7.3984802e-01
  5.1096833e-01
  1.1227304e-01
 -1.4174966e+00
  2.5203830e-01
 -2.9527912e-01
  3.7618551e-02
 -1.8451762e-01
  1.2222757e-01
 -4.0738451e-01
  5.8455664e-01
 -6.5550286e-01
 -1.7630268e-02
 -2.8255897e-02
 -3.1176714e-02
 -7.3385164e-02
  7.1093929e-03
  1.2385578e-02
  5.3187901e-01
  4.7486094e-01
 -3.7272201e+00
 -4.7190249e-01
 -1.4736588e+00
  5.5380958e-01
  3.0676359e-01
  7.1303093e-01
  5.9256053e-01
  2.3318462e-01
  2.0745714e-01
  7.9496391e-02
  3.3318546e-01
 -4.6653962e-01
 -3.3707835e-02
  4.1014779e-01
  1.1095304e+00
 -5.0325972e-01
  1.4326560e-01
  3.2793152e-01
  4.8894489e-01
  2.0819321e-02
  3.5483670e-01
 -1.2234263e+00
  5.0973666e-01
 -1.9125192e-01
 -1.1032313e-01
 -3.3624779e-02
  4.6268305e-01
  1.0928622e+00
  2.3569447e-01
  1.5878572e-01
  7.2368085e-01
  7.5556636e-02
  4.9547163e-01
  5.4261750e-01
  8.4193480e-01
  4.1737148e-01
  8.5249841e-01
 -2.9600289e-02
  7.2791499e-01
  4.0177613e-01
  1.4657234e-01
  4.5202395e-01
  3.8476977e-01
  3.0357364e-01
  1.1027227e-01
 -2.4718051e-01
  5.8719063e-01
 -5.0164226e-02
  7.3131479e-02
  1.2921453e-02
 -1.9237863e-02
  9.6141160e-02
  3.6642242e-02
 -2.3574081e-01
  8.6873740e-01
 -1.2356778e-02
 -8.7244034e-01
 -9.0490574e-01
  4.2531688e-02
  7.1843423e-02
  1.4292412e-01
  5.5250447e-02
 -8.1290351e-03
  1.9466881e-02
  1.0309835e-01
  6.8006352e-02
  4.8758414e-01
 -7.1063422e-02
 -1.0454659e-01
  1.1157565e-02
 -1.1651413e-02
  2.0051822e-01
 -5.8810115e-02
 -3.9747113e-01
  1.0529476e-01
  1.0864963e-01
 -4.0068120e-01
  3.5407711e-02
 -1.4312555e-01
  4.6340540e-02
 -1.2268189e-01
 -2.5243703e-01
 -1.4563720e+00
 -3.6667675e-01
  9.1369435e-02
  7.1512528e-02
 -8.3253491e-01
 -1.5966292e-01
  6.8957694e-03
  1.4175093e-01
  2.2345309e-01
 -1.6529459e-01
 -1.3776696e-01
  6.9498621e-02
  1.9292347e-01
 -2.7682114e-04
  2.2892579e-03
  9.3413159e-02
  1.1473835e-01
  6.8716064e-02
 -7.2137922e-02
  1.9844595e-01
 -4.0233050e-02
  4.1211471e-02
 -2.8634125e-01
 -2.4192786e-02
  5.6366179e-02
 -1.3215531e-01
 -1.6008217e-02
  7.0324457e-01
  9.2614911e-02
 -4.0496670e-02
 -9.1449387e-02
 -5.8483399e-02
 -2.7940544e-01
 -4.1981164e-01
  2.4253856e-02
  1.3970318e-01
 -4.3396187e-01
 -2.1806359e-01
 -1.1161000e-01
 -5.0043458e-01
  4.9729839e-02
 -3.0082294e-01
 -2.3186038e-01
  2.8092808e-01
  8.0790319e-02
  9.1968599e-04
 -2.0175867e-01
 -6.1584449e-01
 -1.4774205e-01
  2.9262701e-01
  2.0730898e-01
 -9.0403274e-02
 -3.4261370e-01
 -8.5599124e-01
  3.3313724e-01
 -3.3920634e-01
  2.6723325e-01
 -3.5121840e-01
 -2.0007361e-01
  6.2249792e-01
 -6.5678194e-02
  1.0426156e-01
 -1.6031371e-01
 -3.0108687e-01
 -5.4915941e-01
 -2.0936507e-01
 -3.4474787e-01
 -2.7859783e-01
  1.8305424e-01
  3.9229649e-01
  5.0060317e-02
 -1.4380890e-01
 -1.0391897e-01
  2.8145745e-01
 -3.9277160e-01
  4.7723569e-02
  2.2454442e-02
  6.9593966e-02
  1.1941741e-02
 -2.5386117e-02
 -2.4337533e-03
  5.7349229e-01
 -7.5623208e-01
 -1.0656369e-01
 -1.1168417e+00
 -2.2691676e-01
 -1.2364083e-01
  1.7776187e-01
  6.7671627e-01
  1.4328565e-01
  9.5970541e-02
  1.2998794e-01
  1.7321631e-01
  5.6311542e-01
  2.0769022e-01
  2.7891511e-01
  2.1040788e-01
  4.9295865e-02
  6.8613362e-01
  1.7510316e-01
 -2.5672182e-01
 -1.0160826e-01
  5.2487165e-01
  1.1298814e+00
  3.5076511e-01
  7.7910408e-02
  1.9840789e-01
  1.3915947e-01
  7.3317605e-01
 -4.4558879e-02
 -7.4038051e-02
  9.3117274e-02
  3.1118229e-01
  3.0156851e-01
  2.7198863e-01
  2.0800375e-03
 -8.0751382e-02
  9.8955385e-02
  4.4485846e-01
  1.3096096e-01
  2.4237074e-01
 -4.9062234e-01
  2.2515971e-03
  1.0512983e-01
  6.7020908e-02
 -5.8101034e-01
  1.2701237e-01
  2.0326680e-02
 -5.2625465e-01
  2.3195367e-01
  9.0842843e-03
 -4.1356396e-02
  3.7846703e-02
  3.4200832e-02
  6.2686294e-02
 -7.9514757e-02
 -2.3589367e-02
  2.7779159e-03
  1.5727602e-02
  6.7972704e-03
  1.9847988e-01
 -9.8710451e-03
 -2.4244472e-02
 -5.2717861e-02
 -1.0815568e-02
 -8.9362592e-02
  1.0544578e-02
  1.0709592e-01
 -1.0769227e-01
  2.4805316e-01
 -4.7259189e-02
  6.1149746e-02
  4.4308189e-02
 -6.1420519e-02
 -5.5419557e-02
  7.9105444e-02
  3.8619488e-03
  7.9025753e-02
  5.7317447e-02
  2.9894940e-03
 -4.1423593e-02
  4.7320891e-02
 -5.3047251e-02
  7.9031572e-02
  8.3171427e-02
  3.8536869e-02
 -1.8811712e-02
  1.5026404e-02
  7.1818442e-03
  1.1824337e-01
 -3.2403313e-02
  8.0569372e-02
  1.7446307e-02
 -5.4424603e-02
  7.0701651e-03
 -3.7185647e-02
 -3.4326035e-01
  2.9607218e-02
 -6.5716036e-02
  4.1811191e-03
 -5.3637955e-02
  4.5095816e-02
 -6.0108136e-02
 -2.9661572e-01
 -1.3493716e-02
  1.8399414e-02
  3.8562229e-04
 -3.7082955e-02
 -3.5094403e-02
  3.3387783e-04
  2.7223460e-02
 -7.6644975e-01
  2.5671194e+00
 -1.9774081e+00
 -1.2833728e+00
 -1.0202500e+00
 -2.3406966e-01
  1.0462850e-01
  3.5620141e-01
 -4.6789181e-01
  2.7000085e-01
  1.5959699e-01
  2.1191764e-01
 -9.6913181e-02
  1.2106705e+00
 -1.4473842e-01
 -4.0764540e-01
 -1.1978517e-02
  5.3900725e-01
  4.5278752e-01
 -3.1263009e-01
 -7.2995299e-01
  5.4336929e-01
  6.3651824e-01
 -1.2721475e+00
  2.2310729e-01
 -6.3227165e-01
  8.9880422e-02
 -1.0085208e-01
  2.8570589e-01
 -5.3308254e-01
 -4.6080965e-01
  3.2080176e-01
  2.7102354e-01
  1.5743461e+00
  4.1937923e-01
  7.9423410e-01
  3.2584620e-01
  4.1912135e-01
  4.6614596e-01
 -2.8291887e-01
 -1.2288609e-01
  2.5471860e-01
  5.7943579e-02
 -4.2413196e-01
  4.0742478e-01
  4.4590771e-02
  2.0571908e-02
 -1.3836375e-01
  3.1699058e-01
 -2.1499266e-01
  5.1912505e-02
 -1.8945929e-02
 -4.1079555e-02
  2.6987657e-02
  2.6743947e-02
 -4.9917668e-02
  9.4868630e-02
  2.5926001e-02
 -1.2510534e-02
 -6.7502476e-02
 -4.3351066e-01
 -5.9783269e-02
  8.0266818e-02
  4.8692912e-02
 -1.7052198e-02
  4.2663563e-02
  7.8629202e-04
  2.3755506e-02
 -5.8093790e-02
 -4.6361333e-01
  1.8520080e-02
 -2.3940464e-03
 -1.5109677e-02
 -4.8016943e-02
  3.9317489e-02
  3.0536184e-02
  7.6034829e-02
  2.9431756e-03
 -2.3357732e-02
  1.1744191e-02
 -7.1276456e-02
 -6.2294719e-03
  2.7280834e-02
  2.5713874e-02
  2.1339322e-02
  1.5724333e-02
  1.7033561e-01
  3.7574809e-02
 -5.5529181e-02
  2.5950072e-03
 -6.8972483e-02
 -8.5889583e-04
 -3.0887200e-02
 -4.5758937e-02
 -1.2386900e-02
  4.2784844e-02
 -4.9541943e-02
  1.0677378e-02
 -2.3667309e-01
 -7.2763614e-02
  8.7065941e-01
  1.8209528e-02
 -9.6284576e-02
 -3.1307876e-02
  3.3670954e-02
  4.4650607e-02
  3.8269024e-02
 -1.4250974e-01
  1.5938604e-02
 -2.4173683e-02
  5.0751016e-02
  3.4960467e-01
  1.4174334e-02
  2.1510084e+00
  3.9368060e-01
 -9.5382050e-02
  7.2571680e-02
 -1.3138512e-02
  3.2370738e-04
 -1.4337506e-02
 -3.0141970e-02
  5.4511866e-03
 -4.2766888e-02
  1.6856441e-01
  1.1646839e-01
  6.0507379e-02
 -1.2067937e-01
 -1.7917246e-02
 -1.7645179e-01
  1.4634660e-01
 -9.9230623e-03
  1.3230176e-01
 -6.0268629e-02
  6.5176465e-02
  5.3199731e-02
  2.8376177e-02
  1.5358533e-02
  8.9089952e-02
 -9.3062455e-03
  7.6979645e-02
  4.4223029e-02
  4.5330733e-02
  9.5924437e-03
 -2.7406763e-02
 -8.0242246e-02
 -4.7735336e-01
  3.0417189e-02
  8.0614649e-02
 -6.4733415e-03
  7.8797564e-02
  1.2457874e-01
  3.9250817e-02
 -6.3715659e-02
 -6.8512186e-02
  6.7768102e-03
 -4.8030606e-03
  4.3027237e-02
  1.1683400e-02
  1.2857530e-01
 -1.3367384e-02
 -2.2465516e-02
 -3.8807005e-02
 -1.0941556e-02
  6.6110320e-02
 -5.3592224e-02
 -6.7382604e-02
  7.4272640e-02
 -6.7905895e-02
  1.0272609e-01
  6.9754839e-02
  1.2875265e-02
  3.2691203e-02
  2.9408921e-02
  2.7875358e-03
 -6.6354090e-01
 -1.9981225e-03
 -3.4671586e-03
 -2.6738008e-02
 -4.2785894e-02
  8.3963089e-03
  5.7487976e-02
 -6.9969431e-02
  1.5995026e-04
 -7.6079436e-02
  6.5794662e-02
 -1.1521317e-02
 -5.8017787e-02
  1.5920570e-01
  3.0895588e-03
 -1.0270068e-02
  1.3854940e-02
  3.3039415e-01
 -4.6968274e-03
  1.0851248e-01
  3.9291643e-02
 -9.6477196e-02
  1.1557596e-01
 -2.9419003e-02
  1.7111368e-01
  6.6096568e-03
 -2.2242550e-02
 -3.3171438e-02
  3.1327731e-03
 -1.6690591e-02
  5.6715555e-02
  9.0963826e-02
 -2.2575757e-02
  1.9566605e-02
  3.1272948e-03
  7.7727385e-04
  6.4486116e-02
 -3.7857655e-02
  2.2292477e-03
 -5.0463278e-02
  4.7691341e-02
 -5.0562549e-02
 -6.6666812e-02
 -1.6600948e-02
 -9.8344132e-02
 -5.7928599e-03
  2.5046149e-03
 -1.1475413e+00
 -3.4819221e-01
 -2.6400200e-01
 -1.4913541e+00
  5.4452661e-03
  3.2579541e-01
  1.4255790e-01
  1.3983950e-01
  1.4412199e-01
  1.0617194e-01
  4.8503812e-02
  1.1100346e-01
  1.0181347e-01
 -8.8130943e-03
 -2.3186117e-01
  1.6769592e-01
  1.9557446e+00
  3.3254179e-01
  1.8929952e-01
 -1.7225136e-01
 -1.4399284e-01
 -2.9708773e-01
  1.3734561e-01
 -1.3536488e-01
  8.7835751e-03
 -5.5370975e-02
 -1.7893638e-01
 -1.4564398e-01
  2.6094976e-01
 -2.6900062e-01
 -1.6580941e-01
  1.6722399e-01
 -6.6664630e-01
 -2.0109907e-02
 -1.8654928e-02
 -4.4567984e-02
  7.1185082e-02
 -3.7283331e-01
  5.4282919e-03
  2.7988878e-01
  1.2557672e-01
  3.9017221e-01
 -5.5714574e-02
 -1.0769494e-03
  8.6783715e-02
  2.5495565e-03
  2.8463067e-02
  3.1154940e-01
 -7.5880498e-02
  1.8778611e-02
 -1.1481323e-01
  7.6966539e-02
 -1.1226807e-03
  1.8789598e+00
 -8.5183121e-02
 -7.3699109e-02
  8.5728383e-03
 -1.2325311e-01
  5.7639301e-01
  6.9115274e-02
  2.1561697e-02
 -2.8979588e-02
  1.1219573e-01
 -6.1824314e-02
  1.2765818e+00
  1.3567568e-01
  3.7513468e-02
  5.1232703e-02
  2.1056321e-02
  1.1958742e-02
  1.7303715e-02
  3.1108523e-02
  1.3399583e-02
  9.1103651e-02
  3.7695732e-02
 -1.6649112e-02
  2.8747020e-02
 -1.1414470e-01
  6.3326363e-03
 -1.8960473e-01
  2.3311591e-03
 -9.5265852e-03
 -7.2474584e-02
 -5.0888560e-03
 -1.0781907e-01
  7.1344212e-02
 -2.0863762e-02
 -2.5201004e-02
 -3.0625967e-02
 -2.6403701e-02
  9.7662732e-02
 -4.6022842e-03
 -9.3052529e-02
  4.6563264e-02
  4.4841385e-01
  4.5440767e-02
 -1.0871182e-02
 -6.2989540e-02
  7.3749460e-02
 -1.4287502e-02
 -4.7921795e-02
  4.1051023e-02
  1.5593557e-02
  9.8067708e-02
  4.8297904e-02
 -3.6497489e-02
  6.5079257e-02
  2.4413874e-02
 -9.4237226e-01
 -3.6626717e-01
 -2.8103473e-02
 -3.4886111e-02
 -5.1056081e-01
  7.1561730e-01
 -2.3760403e-02
  5.4456558e-02
  3.6303516e-02
  1.8167743e-02
  4.1239947e-02
  5.4811854e-02
  2.3920624e-02
  3.4335054e-02
  6.8855621e-02
  1.2032795e-02
  4.8085861e-02
  1.1958091e-02
 -5.5382267e-02
 -2.2079170e-02
 -2.1247502e-02
 -6.9279544e-02
 -4.3469979e-03
  6.8012411e-03
 -1.3083442e-01
 -1.2320137e-02
 -1.8983947e-02
  2.5338486e-01
  1.8234193e-02
  1.3649225e+00
  9.9863270e-03
 -9.6753426e-03
  8.7129258e-02
 -1.0465200e-02
 -1.0460946e-01
 -4.0156931e-02
 -4.7345821e-02
  2.4567736e-02
  6.5747976e-02
 -2.9005185e-02
 -2.4755280e-02
 -5.1974881e-02
  1.2763822e-01
  1.8130582e-02
  8.1661027e-03
 -1.1761952e-02
  4.9260184e-02
 -8.0522276e-02
 -4.3910426e-05
  3.3832312e-02
  1.2396194e-02
 -1.9187830e-02
  7.5660618e-03
  1.3662496e-03
  5.9295028e-02
  6.2055837e-02
  2.4560791e-01
  2.8202739e-01
 -1.3581644e-01
  6.9631886e-01
  6.9958103e-01
  1.5242860e-02
 -3.5294110e-03
  6.5169252e-02
  1.2521109e-01
  3.8083825e-02
 -5.1991004e-02
  1.2044621e-01
 -6.6604763e-02
  5.4019842e-02
  2.1901363e-01
  4.5243174e-02
  1.1636104e-01
 -2.2603013e-01
 -6.5039257e-03
 -2.5051141e-01
 -3.2183117e-01
  3.5516718e-01
  6.8728977e-01
 -4.5489576e-01
  1.0030094e-01
 -3.5488639e-02
 -2.0308444e-02
 -2.5654632e-01
 -4.0997836e-01
  8.9296192e-02
 -9.5010452e-02
  4.4455543e-02
  6.7099586e-02
  2.8906565e-02
 -1.2111288e-01
 -1.1193685e-01
 -1.0560763e-02
  1.2335549e-01
 -8.3721310e-02
 -6.0379789e-03
 -2.7452560e-02
  1.0657499e-01
 -3.7712347e-02
  1.0241637e-01
 -5.1423937e-02
  7.9214007e-02
  2.9260801e-02
 -2.7497284e-02
  1.0878172e-01
 -9.4446644e-02
 -9.7388677e-02
 -6.7917682e-02
  2.1697322e-01
 -5.0128799e-02
 -8.1041548e-03
 -8.6203331e-01
  1.0370141e+00
  2.0628581e+00
  8.9691544e-01
 -6.5185100e-01
  1.6902351e-01
  1.0370257e-01
  8.9158304e-02
 -4.1228741e-02
 -5.3684972e-02
  1.8779409e-01
 -6.1385706e-03
  2.7779026e-02
 -5.7657950e-02
 -5.2694744e-01
  7.2666138e-02
  3.0488762e-01
  2.6561860e-02
 -1.2293380e-03
 -2.3190354e-01
 -3.9625525e-01
  1.0635744e+00
  9.6407831e-01
 -1.1534135e+00
  2.3851830e-01
  1.8796514e-01
  2.3318654e-01
  6.4499766e-01
  2.1968982e-01
 -6.4420289e-01
 -1.2496606e-01
  1.4265448e-01
  2.6802614e-01
 -5.2416909e-01
  8.7227933e-02
  2.9099375e-01
  1.6473077e-01
  1.6179313e-01
 -4.5682338e-01
  1.8002182e-01
  8.8066590e-01
  1.4430539e-01
  1.5601787e-01
  1.3254629e+00
  1.1798859e-01
  5.8911592e-02
  3.6816407e-02
 -7.5885197e-03
  8.2685165e-02
  1.8019918e-03
  7.7541448e-02
  2.0872278e-02
 -2.0301983e-02
 -6.9539666e-02
  2.8724600e-02
 -8.8145781e-01
 -1.4233923e+00
  7.8919154e-01
  3.3690963e+00
  1.0031223e+00
 -2.9431221e-01
  7.5825021e-02
  1.1619502e-01
 -3.8376108e-01
 -1.2317176e-01
 -1.9430749e-01
  1.8031037e-01
  1.6025227e-01
  1.2013404e+00
  4.1591671e-01
 -4.6227121e-01
 -2.1782930e-01
  3.3240080e-01
  9.0760481e-01
 -2.5961116e-01
 -2.8582320e-01
  7.0968574e-01
 -2.7459556e-01
  1.5063163e+00
 -9.2763595e-02
 -2.7790481e-01
  2.5089169e-01
 -2.4979849e-01
 -2.2981183e-01
 -8.7408066e-01
 -2.4108724e-01
  2.1174368e-01
 -8.2128339e-02
  7.2176510e-01
  1.6074447e-01
 -1.0554112e-01
 -1.6516501e-01
  2.7004004e-01
  4.0997472e-01
 -2.8525785e-01
  4.4360700e-01
 -4.7112010e-02
 -7.5218659e-03
 -8.4259659e-02
 -3.3800520e-02
  2.1420690e-01
  7.2516285e-02
 -9.3568182e-03
  4.3025744e-01
 -8.0581479e-02
 -3.4123880e-01
 -6.2342368e-02
  6.9087590e-03
 -3.5885695e-02
  4.1121569e-02
  5.6078849e+00
  5.0880623e-01
  3.9084053e-01
 -6.3668079e+00
  5.7003493e+00
 -4.6184999e-01
 -2.3672031e-01
 -6.6055053e-01
 -6.9682337e-02
 -1.8258498e-03
 -1.0214034e+00
 -2.7120173e-01
  1.4881307e-01
  7.9826966e-02
 -2.0397978e-01
 -1.0177112e+00
 -7.4706919e-02
 -3.4739727e-01
 -1.8862178e+00
 -2.9563323e-01
 -2.8365841e+00
  9.2287902e-03
 -2.8155916e+00
  3.7628117e-01
  2.8597176e-01
 -1.1903445e+00
 -2.6211590e-01
 -2.4728148e-01
  6.7831713e-01
 -1.7726822e-01
 -7.3175043e-01
 -4.1666269e-01
 -2.3284405e-01
  3.3658499e-01
 -3.2441210e-02
 -5.1419443e-01
 -6.5688714e-03
  9.5716870e-01
  5.8565099e-02
 -4.2203806e-02
 -2.1866888e-01
  8.9343302e-02
 -6.5348506e-02
 -4.7371220e-02
 -2.3441412e-02
  4.1470430e-03
 -2.2855898e-02
  4.5564774e-01
 -1.6789226e-01
  8.8439532e-02
  5.0935365e-02
  5.6792367e-02
 -3.8870364e-02
 -1.2241969e-02
  9.5499642e-03
 -2.7153480e-01
 -1.9612340e+00
  4.5980453e-01
  1.2936125e+00
 -2.6172597e+00
 -4.6264458e-01
 -3.9408061e-01
 -3.6948439e-01
 -1.9603831e+00
 -8.5453725e-01
  4.3058260e-03
 -1.6101474e-01
 -6.2925386e-01
  1.0413963e+00
 -5.7376955e-02
  2.5811088e-01
 -6.5607220e-01
 -1.4659990e-01
 -1.4189589e+00
 -6.9542772e-01
 -6.2418914e-01
 -9.4709001e-02
 -1.0323367e-01
 -1.2227553e+00
 -1.0035483e+00
 -2.2317871e-01
 -2.0539989e-01
  9.6159786e-02
 -1.5961610e+00
 -7.1500403e-01
 -5.5064720e-01
  3.5837808e-01
 -4.2491129e-01
 -1.2474930e+00
  2.6239443e-01
 -4.2319980e-01
 -1.4386180e-02
 -2.9239357e-01
 -8.7000006e-01
  1.9162020e-01
 -9.1348149e-02
 -2.1780401e-01
  9.4455490e-03
 -3.8083363e-01
 -1.9761306e-01
 -1.5847933e-01
 -7.6450475e-02
  9.2636101e-02
 -3.3181009e-01
  5.6542709e-02
 -1.3221981e-01
 -5.3148020e-02
 -2.4033999e-02
 -2.6559403e-02
 -1.5747806e-02
 -1.8151771e-02
 -2.8263226e-01
 -1.4547588e-01
  1.1303216e-01
 -8.0913804e-02
  6.8465525e-01
  2.4306098e-02
 -2.6876139e-02
  3.6743917e-02
  8.5363500e-02
  6.7245058e-04
  4.9819913e-02
  3.1851433e-02
  6.0167881e-03
 -2.5185363e-02
 -1.7593412e-02
  1.6084532e+00
 -8.5600547e-02
 -9.1360016e-03
 -6.6423468e-02
 -1.5377247e-02
  7.5413682e-02
  7.8887701e-02
 -8.9464135e-02
 -2.4238265e-01
 -2.2821620e-02
 -3.8283899e-02
 -1.0722404e-01
 -1.5904091e-01
  6.5563492e-02
 -4.8169713e-02
  5.4827362e-02
  1.8182868e-02
 -1.2899226e-01
  7.4978352e-02
 -2.7828243e-02
 -1.5070595e-02
  3.6148533e-02
 -2.2612308e-01
  4.5150030e-02
  5.7910133e-02
 -3.4955289e-02
  2.6733840e-02
  2.0627129e-01
 -2.3093358e-02
 -3.9305666e-01
  1.7440801e-02
  6.5081595e-03
  1.1641102e-01
  1.1034449e-01
 -1.9899869e-02
 -6.9599383e-02
 -1.0173798e-01
 -4.1346926e-02
 -6.5315984e-02
 -1.0089412e-01
 -2.7672571e-01
 -6.1103815e-01
  3.5059768e-01
 -6.3676447e-01
  1.2920542e-01
  4.1215044e-01
  3.8926312e-01
  1.0437376e+00
  2.9688081e-01
 -1.7823143e-01
  2.4365601e-01
 -1.0053083e-01
 -7.8803375e-02
 -3.8405484e-01
 -1.0103481e+00
  1.8190050e-02
  1.3703059e+00
 -2.9659543e+00
  9.4519466e-01
 -4.1008723e-01
  7.6217967e-01
 -1.4802039e+00
 -9.7593409e-01
 -1.3117501e-01
 -4.5462388e-01
  1.0882549e+00
 -6.6170007e-01
  3.3905250e-01
 -3.0842510e-01
  5.7866412e-01
  1.8326236e-01
  7.8467268e-01
 -9.8890358e-01
 -4.6606325e-02
 -6.4661974e-01
  4.4902299e-02
  1.0417993e+00
 -3.8494280e-01
  3.2669500e-01
  9.8153853e-01
  1.7485195e-01
 -1.4738008e-01
 -4.1613898e-01
  7.0706196e-02
  5.5070031e-02
 -2.5352040e-02
 -2.6413971e-01
  3.6951783e-01
 -1.7663327e-01
  1.0110871e-01
  7.5270824e-02
 -5.3824759e-03
  7.4137159e-02
  2.3956031e-02
  3.0551195e-02
  2.1201232e-02
 -3.4954317e-02
  5.3573716e-01
 -2.1824886e-01
  1.7433371e-02
  1.2424194e+00
  9.1274090e-02
 -3.4473378e-02
 -1.6349755e-02
  6.1173469e-02
 -2.4053702e-02
 -1.5655503e-02
  7.7428922e-02
  5.0110061e-02
 -7.5196959e-02
  2.0782826e-02
 -9.3151346e-02
  2.2433382e-01
  1.1427429e-02
  3.7537958e-02
  2.4137411e-02
  8.3085420e-03
 -9.4368771e-02
 -2.1151309e+00
  3.5624087e-02
  9.8127134e-02
 -6.1185401e-02
 -8.3470941e-02
  4.1494589e-02
  2.3861330e-02
 -2.2250678e-01
  2.6897324e-02
 -4.2243794e-02
 -1.0539696e-01
 -1.0189094e-01
  4.9551129e-02
  5.2580677e-02
 -1.1665349e-01
  6.6324271e-02
  4.8860982e-02
 -6.7809392e-03
 -8.7660246e-02
  2.7042339e-02
 -1.8109841e-02
 -3.6628734e-02
 -2.2212131e-02
  4.4844929e-02
  8.2288943e-02
 -5.1073976e-02
 -7.9597645e-03
  2.4830252e-02
  6.3975668e-03
  1.5614726e-02
 -1.4403097e-01
 -5.5611566e-02
  7.3728032e-02
  1.8693860e-01
 -3.4826809e-01
  3.9593241e-01
 -7.7800751e-03
 -6.0960162e-02
 -7.7116825e-02
  7.4466425e-03
 -4.3635212e-02
 -2.4317715e-02
  4.6701997e-04
  9.0322364e-03
 -1.3831232e-01
 -7.2855689e-02
  3.2658152e-02
  9.0899758e-02
 -1.8973266e+00
  3.6684857e-03
 -6.5091066e-02
 -2.6760422e-02
  1.3639926e-02
  2.7794065e-02
  4.4040346e-01
  5.5027273e-02
 -4.7721276e-01
  9.8691331e-03
  1.7705962e-01
  1.8025993e-01
 -2.4467328e-01
  1.2187920e-01
 -2.7557904e-02
 -6.6192210e-02
  1.3165890e-01
  1.3194234e-02
  1.0897540e-01
  8.3708288e-03
 -1.8952286e-02
  6.7198172e-02
 -2.8803652e-02
  1.4424871e-01
 -7.7474408e-02
 -2.6706323e-02
 -1.0424637e-02
  9.4383739e-02
  1.7094938e-02
  1.3440739e-03
 -5.4837350e-02
 -7.3558696e-02
  8.4647499e-03
 -8.0135437e-03
  2.0289370e-03
  3.4315981e-02
  1.4669066e-03
  3.2541212e-02
