nep4_zbl 2 Te Ge 
zbl 1 1.5
cutoff 8 8 136 136
n_max 4 4
basis_size 8 8
l_max 8 2 1
ANN 70 0
 -1.0087017e+00
 -3.8766816e+00
  2.6985613e-01
 -3.3009636e-01
  3.0307405e+00
 -4.8469156e-01
  9.2670150e-02
  5.2103645e-01
 -6.4678186e-01
 -4.2786911e-01
 -1.2144395e+00
 -1.1368437e+00
  6.2572494e-02
  1.3794724e+00
  4.1487655e-01
  9.1430420e-01
 -2.9500425e-01
  7.8766334e-01
 -2.0299284e-01
 -1.2215025e+00
  6.1382622e-01
 -1.5803412e+00
  1.6256715e-01
 -7.6470214e-01
 -3.8190732e+00
 -3.8720015e-01
  1.3396318e-02
  3.2719731e-01
  3.0770132e-01
 -1.3034290e+00
 -1.0766301e+00
 -7.9396850e-01
  1.5110780e-01
  3.6871424e-01
  3.3193726e-02
 -5.5372071e-01
 -5.9127176e-01
 -9.1882700e-01
  1.7162408e-01
 -3.1522933e-01
 -1.3092498e-01
 -4.2595926e-01
  6.9529629e-01
  1.9714994e+00
  1.6851124e-01
  2.3138957e-01
 -1.4161509e-01
  1.6344540e-02
  4.5811240e-02
  8.1395105e-02
  1.2892075e-02
 -8.3070174e-02
  2.4460983e-02
  2.2349535e-02
 -6.3874252e-02
 -2.0690733e-01
  1.0156453e+00
 -8.9562379e-02
  2.2127006e+00
 -1.5714270e-01
  9.6437991e-02
  1.3071528e-01
  9.6757121e-02
  2.3115592e-01
 -2.4813238e-01
 -2.1552843e-01
  1.3084698e-01
 -5.8593541e-02
  1.8923445e-01
  1.4656512e-01
  3.1585436e-02
 -5.6457531e-01
  6.5158755e-02
  2.5922826e-01
 -3.7195957e-01
 -1.4339434e-01
  1.8908030e-01
 -6.6697091e-01
 -1.5384009e-01
 -4.1633692e-02
  3.3073637e-01
  3.7981722e-01
 -3.2155480e-02
  4.1737193e-01
 -1.5122965e-01
  4.1566092e-01
  2.4064450e-01
 -6.6413745e-02
  3.3852828e-01
  7.5055487e-03
  3.6179531e-02
  1.8965656e-01
 -6.6641562e-02
  6.2543318e-02
 -2.3127696e-01
  1.5316091e-01
  4.6296492e-02
 -1.6562155e-02
  1.9403590e-01
 -1.8535347e-01
 -6.0279939e-02
 -2.3534734e-02
 -1.9826125e-03
 -1.2301772e+00
  1.1179410e-01
 -1.4627481e+00
 -1.4816130e-02
 -8.4520333e-02
 -4.8191208e-02
 -2.9785631e-02
 -6.8039435e-01
 -1.0246704e+00
 -1.6238955e-01
 -1.2996737e+00
 -1.7241105e-01
  6.8487042e-01
  2.8193077e-01
  4.0775245e-01
  1.2468891e-01
 -9.2276376e-01
  1.0747360e-01
  1.7102239e-01
  2.7637488e-01
  4.5137239e-01
 -7.2406083e-02
  1.9559067e-01
  1.5903379e-01
  2.5145471e-01
  4.8230994e-01
 -7.2842789e-01
  2.4863927e-01
  7.9370153e-01
  3.8647432e-02
  8.5601044e-01
 -5.2053869e-01
  6.1332679e-01
 -2.8529227e-01
  4.6478820e-01
  2.9749632e-01
  7.5501424e-01
  6.3240504e-01
  6.2517333e-01
  7.7739668e-01
  6.6569215e-01
  2.6216191e-01
  1.2505375e-01
  5.7040089e-01
  5.1307213e-01
  9.0585046e-02
 -9.3944407e-01
  1.5221381e-01
  3.3176094e-01
  5.0786328e-01
  4.4136587e-01
 -2.5301534e-01
 -1.7790948e-01
  1.4785597e-01
  4.4907883e-02
 -3.3449116e-01
 -3.1188531e-03
  1.1927659e-02
  5.4275239e-07
 -2.5348959e-02
 -3.6820456e-02
  1.0299252e-01
 -6.8466336e-02
 -4.0526479e-01
  1.1267585e-01
  7.9712629e-01
  4.1881770e-01
 -3.3624062e-01
 -9.3086250e-02
 -3.8500000e-02
  5.0708964e-02
  1.0829255e-01
 -2.3173760e-01
 -2.1637073e-01
 -8.9010775e-02
  5.8188569e-02
  8.1989095e-02
  7.1781941e-02
  9.8413214e-02
  2.8873041e-02
  2.0533780e-02
 -4.9120218e-02
  8.7284192e-02
 -8.0372792e-01
  9.0574235e-02
 -2.8257430e-02
 -1.3944695e+00
 -1.4640251e-01
 -1.6495955e-01
 -1.1771373e-02
 -1.5921015e-03
 -1.5668747e-01
 -3.1644663e-01
 -1.1048384e-01
  1.0143160e-01
 -7.6330982e-02
 -1.6388573e-02
 -1.4738922e-01
  2.8789225e-01
 -2.1358021e-01
  1.1760903e-01
  2.1248706e-01
  7.8599025e-03
 -3.6048852e-02
 -1.5966593e-01
 -2.6120809e-01
 -1.9952062e-01
  4.5982927e-02
 -7.8210130e-02
  1.2221454e-01
  2.3564364e-01
 -1.8405481e-01
  3.6546692e-02
 -6.6912420e-02
  8.5415002e-03
  8.7203100e-02
 -2.9583910e-02
  2.3157303e+00
 -5.1699644e-01
 -1.8623340e+00
  8.8500899e-01
 -1.1175584e+00
  1.0128093e+00
  1.0744885e+00
  4.8443329e-01
 -2.8466657e-01
 -2.1124850e-01
  1.0135659e+00
  3.3914366e-01
  1.9655399e-01
  3.3113045e-01
 -1.1284734e+00
  1.0719134e+00
  7.2091842e-01
  4.4398558e-01
  2.8429505e-01
 -4.2227301e-01
  1.5075650e+00
  9.4950765e-01
  1.5824647e+00
 -1.8824584e+00
  1.0450339e+00
  8.7983346e-01
 -1.6299105e-01
  1.2072109e+00
 -3.4804529e-01
  4.8397517e-01
  7.1056736e-01
  6.6858357e-01
  7.8617734e-01
 -4.4266561e-01
  3.9440248e+00
  2.8455678e-01
  5.5188406e-01
  8.9535302e-01
 -1.1719812e-01
  1.4696194e+00
  5.5197573e-01
  3.2546636e-01
  1.2410266e+00
  5.0730443e-01
  2.3969808e+00
 -1.4486703e-01
  3.1634018e-01
  3.3753168e-02
 -3.4654164e-01
 -1.0578122e-01
  1.1607136e+00
  3.7124302e-02
  2.6282292e-02
 -9.9883294e-01
  9.5318995e-02
  5.4928982e-01
  9.9187350e-01
 -8.5219646e-01
  2.1512630e+00
 -7.7273679e-01
  7.3988193e-01
  3.0543849e-01
  2.8497481e-01
 -1.8162836e-01
 -7.6242077e-01
  7.6805961e-01
 -1.5273552e-01
  2.1144385e-02
  6.2045145e-01
 -5.7308948e-01
  1.1052207e+00
 -1.0689929e-01
  2.9986516e-01
  1.0618133e-01
 -1.1419014e+00
  1.0220268e+00
  1.2638490e+00
  6.4264350e-02
 -5.2204347e-01
 -9.9139214e-01
  1.7019844e-01
 -2.8116724e-01
  3.9980587e-01
  4.4271761e-01
 -1.8487661e-01
  5.8273172e-01
  2.2185907e-01
  9.8886716e-01
  1.6222924e-02
 -4.2918387e-01
  4.1412741e-01
  1.4261760e-01
  1.8980722e+00
 -2.2274791e-01
 -1.0533838e+00
  2.4639949e-01
  1.9464491e-01
  6.0800380e-01
 -1.1625926e-01
 -4.2642164e-01
 -1.1648984e-01
  2.0976207e-01
  1.2611170e-01
  6.2139636e-01
 -1.0461275e-01
 -9.7973816e-02
 -1.6832454e-02
 -5.9442734e-03
  4.1315898e-02
 -5.2799739e-02
 -3.6122214e-02
 -4.9629506e-02
 -2.4873428e+00
  2.2097822e-01
 -1.6590260e-01
 -3.9089639e-03
 -3.8966786e-02
  4.1055229e-02
  2.0320332e-02
  1.3359760e-01
 -9.5076948e-02
 -5.2973084e-02
 -1.3231418e-01
  1.8970370e-02
  1.5844673e-01
  1.1563681e-02
  1.0195191e-01
 -2.5996301e-02
  1.1676624e-01
  9.7296529e-02
 -8.0614097e-02
 -4.4806719e-02
  9.5275335e-02
  7.9597607e-02
  4.7660794e-02
  6.0095316e-01
  1.1976635e-02
 -3.4708861e-02
  1.2496418e+00
  2.8318721e-01
 -1.0110471e-01
 -9.8267168e-02
 -1.9215606e-02
 -6.4299598e-02
  2.8723512e-02
 -6.0623072e-02
  1.2079454e-03
 -2.5636273e-02
  1.0836326e-01
 -2.6251594e-02
  2.6046541e-02
 -7.3361467e-03
  7.2395012e-02
  5.9970573e-02
  7.0281275e-02
  8.2417384e-02
 -1.0393964e-02
  5.5286519e-02
 -1.6360527e-02
 -2.7653003e-02
  1.3174571e-01
  1.7309247e-02
  8.9957833e-02
 -7.3442154e-02
  1.4642619e-02
  8.1605976e-03
 -5.8587475e+00
  3.5814115e-01
  3.0472860e+00
  4.0875778e-01
  1.9992758e-02
 -9.4455492e-01
  3.4210670e-01
  3.2571578e-01
  1.8857223e-01
 -2.1939920e-01
 -1.2939534e-01
 -3.1724200e-01
  4.2459901e-02
 -3.2380149e-01
 -1.5749931e-01
  1.7468997e+00
  3.5711837e-01
 -3.7826166e-02
 -3.9324280e-02
  4.3625200e-01
 -2.4855292e+00
 -5.9444945e-02
 -9.7170544e-01
 -2.2345684e+00
 -4.1542462e-01
 -8.6083978e-01
  2.3408397e-01
  3.4542885e-01
  8.2223171e-01
 -1.3442494e-01
  3.7443504e-01
 -5.0313109e-01
 -1.2538888e-01
 -9.4055980e-01
 -4.4071797e-01
  1.1912711e-01
  4.0638188e-01
 -1.1083952e+00
 -1.8053930e-01
 -3.2865697e-01
 -3.7817886e-01
 -5.9645045e-01
  6.5822852e-01
 -6.3014960e-01
 -6.0347323e-03
 -2.2766329e-02
 -1.4370850e-01
  1.1887431e-01
 -1.7430530e-01
  2.5570201e-02
  5.7519474e-03
 -6.1524387e-02
 -8.4860012e-02
  3.7896499e-02
  1.4764994e+00
  2.5330472e-01
 -3.2547164e-01
 -1.3840104e-02
 -1.1765600e+00
  5.9402812e-01
  1.8242577e-01
  7.1005821e-02
 -9.6065417e-04
 -3.6807898e-01
  5.5567229e-01
  4.0109143e-01
  9.5344469e-02
 -3.6834741e-01
 -2.7111492e-01
  2.8028470e-01
  1.8946426e-01
 -1.1923641e-01
 -2.5123206e-01
 -4.3512222e-01
  7.8952646e-01
  4.6370330e-01
 -1.1735177e+00
  5.3811055e-01
  5.9517401e-01
  3.0300972e-01
 -1.7438391e-01
 -7.8427756e-01
 -8.0782324e-02
 -7.7562921e-02
  7.6245725e-01
  3.5995403e-01
 -1.6315146e-01
 -7.0854631e-04
  6.7430878e-01
  6.3568443e-01
  2.7907279e-01
  4.3159157e-01
  1.3149250e-02
 -9.3937747e-02
 -2.6316038e-01
  4.0763104e-01
  2.9957461e-01
 -7.6922053e-03
 -2.4487039e-01
 -2.6141399e-01
  5.9175543e-02
  1.0604452e-01
  4.1656427e-02
 -2.7486648e-02
 -3.9589655e-02
  1.5141090e-02
  6.0727768e-02
 -2.3370834e-02
 -5.8397776e-03
 -1.0310494e-01
  3.5347298e-02
 -1.5780153e+00
  3.0135286e-01
 -1.3324680e+00
 -1.0402493e+00
 -4.2169362e-01
 -1.1202368e+00
 -1.0932107e-01
  1.8413115e+00
  2.6774377e-01
  1.0507776e-02
 -3.3975191e-02
 -1.2327323e+00
  2.1324660e-01
 -7.1398211e-01
  1.5941554e-01
 -9.4583976e-01
 -8.2687509e-01
  2.6510139e+00
 -9.2528844e-01
 -1.0918876e+00
  1.5269990e+00
 -2.6665623e+00
  1.9348137e+00
 -3.0857649e-01
 -2.2257973e-01
  2.1922520e-01
 -8.3515936e-01
  2.3469491e+00
  9.3158972e-01
 -5.3091311e-01
  6.6098817e-02
 -1.0358323e-01
  4.1501694e+00
  4.4166455e-01
 -5.4996413e-01
 -5.0131869e-01
 -9.5483661e-01
  1.6603773e+00
 -1.1132587e-01
 -2.6446667e-01
 -2.2304933e-01
 -9.1182446e-01
  1.7596878e+00
  1.9789271e-01
 -2.5760487e-01
 -2.8457335e-01
  1.4776191e-01
  1.0962202e-01
 -3.4450812e-03
  6.9612991e-03
  3.4507483e-01
 -1.2191445e-02
 -2.6675416e-02
  1.9314591e-02
  5.6664858e-02
  5.3062759e-02
  8.0228108e-01
  4.9836744e-02
  7.0044607e-02
 -1.0435648e-01
 -1.8859431e-02
  8.3003519e-03
 -9.7648405e-02
  3.1777766e-02
 -9.3775727e-03
  1.3539580e-01
 -4.8356529e-02
 -1.9641094e-02
  7.1249180e-02
  4.1085007e-03
  4.8941746e-02
  4.3939006e-02
 -1.3017790e-01
  5.0449673e-02
  2.9540079e-02
  2.9852571e-02
 -8.0999359e-02
  1.0682133e-02
  7.6084651e-02
 -4.3433189e-02
  8.6333618e-02
  4.2858481e-02
 -2.7276345e-02
  7.2353296e-02
 -4.8336200e-02
  9.6236654e-02
  1.0716858e-01
  8.9186840e-02
  4.3202795e-02
  5.8292646e-02
  1.2496074e-01
  8.7240776e-03
  4.6045493e-02
  4.8411135e-02
  5.4758782e-03
  1.5683932e-02
  5.2093409e-02
 -4.4362735e-02
  5.1053692e-02
  6.6752611e-03
  2.4874804e-03
  1.3221327e+00
 -5.5732526e-02
 -3.0444860e-02
 -2.1466764e-03
  5.7851076e-02
  1.3783237e-02
  1.3453456e-02
  1.2062220e-01
  7.6835781e-01
  2.9780018e-01
  2.4445875e+00
  4.0826771e-01
  9.0015933e-02
 -6.5686241e-02
 -1.0580837e-01
  2.7835238e-01
 -2.7593088e-01
 -2.8977288e-02
  1.3835767e-01
  1.0067366e-01
  3.4008238e-02
 -5.5146478e-02
  5.3652871e-02
  1.6004224e-01
  4.6491362e-02
  9.5313005e-02
 -3.9952800e-01
  1.0795412e-02
  6.0945475e-01
 -9.7247288e-02
 -2.7359697e-01
 -1.2381068e-01
  3.1937402e-01
  2.6897401e-01
  1.8774664e-02
  3.6815125e-01
 -5.0665802e-01
  6.3010715e-03
  1.0323325e-01
 -1.2757647e-01
  1.2319160e-01
 -2.6805151e-01
 -1.8839199e-02
  1.0866246e-01
 -7.3885679e-02
 -9.0702057e-02
 -2.3361577e-01
  5.2007470e-02
  2.9302165e-01
 -3.0138671e-02
  3.2605086e-02
 -1.1798893e-01
 -6.0712252e-02
  1.1088251e-01
  9.9416322e-04
 -1.2194559e-01
  1.5800722e-01
  2.2052180e-02
 -2.0679237e-02
 -9.1743074e-02
  4.8490308e-02
 -1.2167344e-02
 -1.0725354e-01
  1.0066015e-02
  8.9747503e-02
  3.1689593e-01
 -1.0660166e-01
 -1.3306420e-01
 -4.7092896e-02
 -5.6410030e-02
  1.1743158e-03
  9.4555654e-02
 -8.9910872e-02
  3.0407993e-02
 -5.2587263e-02
 -2.5701771e-02
  1.3835341e-02
 -6.9651157e-02
 -2.9629374e-01
  5.6677498e-03
  1.3586380e-02
  2.2013612e-01
 -1.9784647e-01
 -4.3526493e-02
  2.9369952e-02
  7.4243188e-02
  1.2983808e-01
 -1.0457350e-01
 -1.7496735e-02
 -6.1305552e-03
  4.2397711e-02
 -2.3746619e-02
 -1.7184727e-01
 -1.1664413e-01
 -6.7732543e-02
 -8.0591552e-02
  5.5882013e-03
  7.3636532e-01
 -1.1878242e-01
 -1.0703246e-01
  5.6613564e-02
  3.2867307e-03
 -5.0974995e-02
 -4.8135009e-02
 -5.7835631e-02
  1.3155187e-02
  6.7120411e-02
  2.3808764e-02
 -5.9868246e-02
  1.8717762e-02
  5.3891946e-02
 -5.5957515e-02
  2.0249564e-02
  1.5163611e-02
 -5.8630440e-02
  6.9277078e-02
  9.7051952e-03
 -1.6286932e-01
 -1.5973066e-01
  6.4174592e-02
 -6.7355059e-02
 -2.1085642e-01
 -1.6801155e-01
  1.6865101e-02
 -6.0417578e-02
  5.3495735e-02
  3.0464590e-01
 -1.1920459e-01
 -5.5809461e-02
 -4.0619597e-02
 -5.9954282e-02
  2.2139366e-01
 -2.9244182e-01
 -1.7518822e+00
 -4.3198265e-02
  3.1603366e-01
  3.2057461e-01
 -2.7304602e-01
 -7.7249669e-02
 -8.1478655e-02
  9.6060611e-02
  3.6976818e-02
 -3.5751116e-02
  1.5048157e-01
 -5.2390046e-02
  4.8483640e-02
 -4.3040210e-01
 -9.8006479e-02
 -7.1783416e-02
  2.9434089e-02
 -1.0837155e-01
 -3.5512339e-02
 -1.2186070e-01
 -2.0710848e-01
  8.4837832e-02
  3.7077751e-02
  1.0145773e-01
 -1.6332656e-01
  2.6820542e-02
 -6.8289265e-02
 -1.6200196e-02
  2.3348671e-01
  1.6368917e-01
 -5.5205476e-01
  3.9374292e-02
  8.7945797e-02
  5.5641957e-02
  4.2285246e-01
 -1.8691455e-01
  2.4074174e-02
 -2.3149591e-02
 -7.5149007e-02
 -1.9022930e-01
 -1.8250769e-01
  1.3723740e-01
  7.1590924e-01
  1.3590913e-01
 -1.7520301e-01
 -1.4294703e-01
 -3.9307676e-02
 -8.6807199e-03
  2.1656375e-01
 -1.1772469e-01
 -3.6654282e-02
 -1.6223053e-02
  2.5232431e-02
  1.0255237e-01
 -3.2435544e-02
  1.1536488e-02
  1.6610449e-02
 -2.0970384e-02
  1.7788720e-01
 -1.3136900e-02
  3.8684919e-02
 -5.7350766e-02
  7.9495847e-02
 -2.9583430e-02
 -4.4218734e-02
 -5.5337850e-02
 -1.6499735e-02
 -5.1974382e-02
  8.7367319e-02
 -1.5094607e-01
 -4.0522832e-02
 -1.4570761e-01
 -5.8007110e-02
  6.4413220e-02
 -2.1585554e-01
 -1.1849134e-01
 -1.2299139e-01
 -2.3937093e-02
 -3.5958071e-03
 -5.6504194e-02
  3.4859750e-02
 -5.5658817e-02
  1.8959220e-02
  7.6427206e-02
  5.2990250e-02
 -3.8887240e-02
  5.0950930e-02
  9.0113916e-02
  3.8590245e-02
  7.4880704e-02
  2.3328042e-02
  3.4162875e-02
  6.2757865e-02
 -8.4225079e-03
  2.4446100e-01
  2.1519452e-01
 -3.0092167e-02
 -1.2278830e+00
  1.8304306e-01
  7.7582367e-02
  2.1482699e-02
  1.1845796e-02
  3.3526137e-02
 -6.9215588e-02
  7.9535045e-02
  1.4064088e-02
  7.4636467e-02
 -1.1764064e-01
 -1.7117918e-01
  1.2128365e-01
  2.2534622e-02
  6.8411142e-02
 -2.4291693e-01
 -2.1928236e-01
  1.6809663e-01
  4.0519916e-02
 -6.6393763e-03
 -3.2331425e-01
 -2.6454115e-01
  5.0288104e-02
 -8.2454450e-02
 -6.8996144e-03
 -1.9111356e-01
 -1.0260956e-01
  1.8690784e-01
 -3.5317827e-02
  1.0081972e-01
 -4.2046979e-02
  3.9480239e-02
  8.9753717e-02
 -2.3164043e-02
  1.3747673e-02
  2.4895903e-02
 -8.4142812e-02
 -6.1154712e-02
  2.8438928e-02
  2.5395643e-02
 -7.5445077e-03
 -1.1758518e-01
  4.5882870e-02
 -3.4325052e-02
  1.5556644e-02
 -5.0158121e-02
  1.2145497e-02
 -4.1213602e-02
 -4.1776583e-02
  4.6941910e-02
  5.0743587e-02
 -3.2854207e-02
  4.1366868e-02
  5.8838394e-02
 -6.4550929e-02
  5.2238709e-01
  1.6200559e-02
  1.0451102e-01
  3.5987984e-02
  4.4895679e-02
  2.8542601e-02
 -1.6077526e-01
 -1.2063891e-01
  1.2064154e-01
  8.4173620e-02
  8.8115565e-02
 -8.2104139e-02
  1.1089811e-01
  1.0571441e-02
  6.1824331e-03
 -8.3905496e-02
 -1.5591797e-01
  1.6483019e-01
  1.3623339e-01
  3.3441532e-02
 -1.2541096e-01
 -1.6216092e-01
  1.4494224e-01
  4.2459238e-02
  1.2738587e-02
 -1.0260355e-01
 -6.5602690e-02
  4.7292009e-01
 -2.1888537e-02
  5.9969731e-02
  7.0082970e-02
  1.2394127e-02
  3.9630562e-02
  1.0774917e-01
  6.3060045e-02
 -4.2448167e-02
  5.4258540e-02
  1.2988898e-01
 -4.1400284e-02
  1.1646763e-01
  7.5778797e-02
 -5.6969017e-01
 -4.8983186e-02
  6.7896686e-02
  2.2750312e-02
 -8.7003112e-02
 -5.4346662e-02
  7.2703093e-02
 -1.4848898e-02
 -3.3665568e-02
 -9.9272102e-02
 -4.2410172e-03
  1.6353401e+00
 -1.8133903e+00
  1.2704707e+00
 -1.0937436e+00
  1.4926602e+00
 -2.9626033e-01
 -1.8290494e-01
 -4.1599399e-03
  2.2887838e-01
 -2.0243949e-01
 -3.6723331e-01
  8.2837731e-01
 -3.8968602e-01
 -1.4713120e+00
 -9.9464542e-01
  4.5190793e-02
  5.4175115e-01
 -8.5952991e-01
 -2.5707814e-01
 -1.0487794e+00
 -1.3832343e+00
 -7.8751224e-01
 -1.2477863e+00
 -4.5455226e-01
  1.0840117e+00
  3.5744965e-01
 -8.2291299e-01
 -1.2385163e+00
 -1.7656368e-01
 -1.6367201e+00
 -1.2643868e+00
  4.3106282e-01
 -1.8682046e+00
 -1.6724220e-01
 -9.6992266e-01
 -6.8410033e-01
  3.5443416e-01
 -1.7444967e+00
 -2.9259524e-01
 -9.4132191e-01
 -1.1638723e-01
 -2.4533534e+00
 -1.2875341e-01
  7.9853010e-01
  3.4856024e-01
 -5.0370628e-01
  6.2096983e-02
  7.6353163e-02
  3.5488585e-01
  1.7115590e-01
  2.3751020e-02
  9.1206007e-02
  1.7991167e-02
  1.0647298e-01
  9.8304659e-02
  2.4032046e-01
 -9.8383772e-01
 -6.8072307e-01
 -5.9553993e-01
  5.5365908e-01
 -6.0877872e-01
 -2.4693012e-01
 -4.9418092e-01
  1.6461101e-01
 -1.0952024e-01
  2.9110336e-01
  1.0423418e+00
  2.5979227e-01
  2.0529959e-01
  1.1865215e+00
 -6.8054509e-01
  6.3937348e-01
 -1.7170541e-01
 -3.4330481e-01
 -3.8845506e-01
  6.2032163e-01
  3.0967767e+00
  2.3047113e+00
  2.0944420e-02
  7.8560024e-01
 -1.8856440e-01
 -1.4858899e+00
  7.8987271e-01
  7.3220468e-01
 -1.4708057e-01
 -1.7755853e-01
 -1.9617628e-01
  1.0402758e+00
  9.2951971e-01
  5.4634911e-01
  5.8835655e-02
 -3.9931476e-01
 -2.7638769e-01
 -3.2509699e-02
  1.2848243e+00
  4.4495624e-01
  1.7875043e-01
  3.3859476e-01
 -4.0677163e-01
 -1.4992385e+00
  2.7461791e-01
  1.0440783e-01
 -1.9499211e-02
  1.5527026e-01
  1.2193525e-01
 -1.1047520e-01
 -1.1363838e-01
 -9.3602329e-02
 -1.1180405e-01
 -9.5988899e-02
 -3.9013195e+00
  3.3243356e+00
  1.1583954e+00
  7.0931834e-01
  2.3970819e-01
  9.0483528e-01
 -1.9199345e-01
  2.2031905e-01
 -1.4973717e+00
 -1.4104639e+00
 -1.1238078e+00
  8.3033442e-01
 -6.1943227e-01
  5.0137269e-01
 -7.5623637e-01
 -2.2194552e-01
 -1.6977580e+00
 -2.6323193e-01
  4.8480767e-01
 -4.0679603e+00
  2.7523032e-01
 -4.3903580e-01
  4.5419368e-01
  2.5508208e+00
 -2.8078027e+00
  3.6679083e-01
 -1.9216192e-01
 -2.4152292e-02
  3.5549715e-02
 -4.0071268e+00
 -1.0321150e+00
  1.1820049e+00
  3.4410986e-01
 -1.7690700e-01
 -4.7936010e+00
 -4.2547986e-01
  3.1544495e-01
 -5.3051062e-02
  5.4732257e-01
 -4.5417356e+00
  2.8616998e-01
 -7.0667845e-01
 -2.1286497e+00
  1.4590026e+00
 -1.0620052e+00
 -2.7741442e-02
  8.7690599e-02
  1.0998771e-01
 -2.3000242e-01
 -2.9811159e-01
  2.1867443e-02
  4.3022409e-02
 -1.1599795e-01
  7.6628429e-01
 -1.0939550e-02
 -5.7831567e-02
 -4.8261035e-02
  7.7843755e-03
 -1.4012021e-01
  6.2040076e-02
 -1.2949517e-02
 -1.8139649e-02
  5.1213079e-03
 -1.3054552e-02
  2.7376110e-02
  7.8606941e-02
 -5.9905566e-02
  4.2450942e-02
 -2.3158150e-02
 -8.3029225e-02
 -1.5149195e-03
  5.7885054e-02
  8.9233734e-02
 -3.7294924e-02
 -1.2583664e-01
 -2.4039803e-02
 -5.5524725e-02
 -1.0523824e-01
  6.9727644e-02
 -1.0416559e-01
  3.0055147e-02
 -7.4649088e-02
  4.1540436e-02
 -8.0959193e-02
 -3.7500158e-01
  5.9031181e-02
  3.2362700e-02
 -4.8965350e-02
  3.7790377e-02
 -1.7486498e-02
  5.1686995e-02
 -6.9180869e-02
 -1.5491085e-02
  3.5740308e-02
  2.1191560e-02
  1.4773943e-01
  3.6084708e-03
 -3.7211552e-02
  1.9901915e-02
  3.0271823e-02
 -3.0424848e-01
 -2.7091555e-02
 -3.4583259e-02
  7.2854355e-02
  5.7381555e-02
 -5.5654780e-03
  4.0906172e-02
  4.5830347e-02
  1.1804931e-01
  3.5674244e-02
  1.6774708e-01
  9.9908173e-02
 -1.0027646e-01
 -1.7791189e+00
 -2.9741743e-01
  9.2244864e-02
 -3.0295523e-02
  9.7514458e-02
 -7.8957304e-02
 -6.0558334e-02
 -2.4056816e-02
  5.9288841e-02
  4.3418784e-02
  3.9909452e-02
 -6.5417714e-02
  8.0628274e-03
  6.4026974e-02
  1.1503603e-01
  8.7330274e-02
 -2.5614107e-01
  2.1989125e-01
  8.6491644e-02
  7.6023534e-02
 -1.6723335e-01
  3.5602704e-02
  6.2469546e-02
 -1.2323662e-02
  1.7319527e-01
 -1.1892030e-01
  7.4264526e-02
  1.0178945e-01
  1.3381955e-01
 -5.0082523e-01
  8.2635887e-02
  8.3948687e-02
  9.0300001e-02
  7.8336649e-02
  2.6422143e-01
  6.3347265e-02
 -4.9607005e-02
  1.8686296e-02
  1.9942297e-02
  1.7709032e-01
  2.9333647e-02
  8.6928964e-02
  5.1187955e-02
 -1.9754882e-03
  5.5963151e-02
 -1.3573866e-01
  4.5061264e-02
 -6.4110406e-02
 -6.4125126e-03
  7.9071335e-03
  3.7943665e-02
 -7.6277102e-03
 -1.9477079e+00
 -1.2619013e+00
  8.4146458e-01
  6.9152373e-01
  3.8641053e-01
 -7.8989387e-01
  8.4206544e-02
  7.6231726e-02
  4.3492788e-01
  7.8746808e-01
 -9.9469113e-01
 -1.6286291e-01
  4.6575539e-02
 -6.2075955e-01
  4.8503149e-02
 -1.4815928e-01
  7.1789438e-01
 -8.7286013e-01
 -3.3310825e-01
  1.0882441e+00
 -8.0675060e-01
 -6.8184370e-01
 -8.2649462e-02
 -4.0001538e-01
  5.9138614e-01
  2.5006789e-01
  3.8506219e-01
  2.1817745e-01
 -2.4443731e+00
 -9.8268604e-01
 -1.1456645e+00
  4.8957813e-01
 -5.4600555e-01
  1.4819118e+00
  4.5694891e-02
  3.9863989e-01
 -9.6445101e-01
 -2.1021461e+00
  6.7388153e-01
 -7.0383859e-01
  1.2226111e-01
 -6.3148433e-01
  1.9550066e+00
  9.1463882e-01
  1.7933413e-01
  2.2748290e-01
 -2.0739672e-01
  6.5143486e-03
  3.7901935e-01
  3.5668302e-01
 -4.9100257e-02
 -9.0724967e-02
  2.0316222e-03
 -1.6455160e-01
  3.5391560e-01
  1.8428729e-01
  1.0002632e-01
 -4.5150019e-02
 -8.2150839e-02
 -2.2643158e-01
  1.2671122e-01
  6.1732732e-02
  2.2109489e-04
 -7.0994437e-02
 -1.3511500e-01
  9.7070880e-02
  6.1996412e-02
 -2.4359107e-02
 -3.2194152e-02
 -4.1324932e-02
  5.0004706e-02
  3.8603120e-02
  8.1243187e-02
 -9.2052430e-02
 -1.5545675e-01
  1.1190873e-01
  1.1590059e-01
  1.1289537e-02
  2.6578879e-01
  6.0637533e-03
  1.5844154e-01
  4.8926570e-03
 -1.4842318e-02
 -8.4148616e-02
 -2.2865204e-02
  9.1472164e-02
  2.1994341e-02
  8.8457607e-02
  1.8417800e-02
  7.5118639e-02
  1.1603910e-01
  1.0743182e-01
 -9.9761710e-03
 -8.1078030e-02
 -1.4476496e-01
  3.7444424e-02
  3.7507255e-02
 -3.0986616e-02
 -5.7786535e-02
 -4.5787070e-02
 -1.9245808e-01
  6.8246298e-02
  1.3981503e-02
  2.5205025e-02
 -1.9766348e-03
  9.7343288e-02
 -1.6841434e-02
  4.8235886e-02
 -3.1528745e-02
  3.9156448e-02
  2.2758853e-01
  4.7225904e+00
 -4.7249436e+00
  6.5074892e+00
 -1.4375621e+00
 -3.4532178e-02
  1.0229093e+00
  2.8274965e-01
 -3.3772093e-01
 -2.8380668e-01
  9.4017304e-02
 -1.1403279e+00
  4.0798873e-01
 -2.7343076e-01
  3.6278195e+00
  5.9791648e-01
 -1.1003531e+00
  3.7836197e-01
 -6.2669128e-01
  4.2291794e+00
 -1.5674368e-01
 -1.8363612e+00
  9.6945739e-01
 -3.7353998e-01
  4.2193942e+00
  7.5403917e-01
 -1.1259874e+00
 -8.6236425e-02
 -6.8988639e-01
  1.0132626e+00
 -6.5646313e-02
  3.1532702e-01
  2.0065413e-01
 -7.2684973e-02
  6.6708714e-01
  1.4808705e-01
 -1.5892570e+00
  8.1509583e-02
 -2.7787820e-01
 -9.5772684e-01
 -2.7617079e-01
  2.1181983e-01
 -7.2969101e-02
  6.6064880e-03
 -1.4206506e-01
 -3.4058429e-02
 -1.4459162e+00
  3.4689970e-02
 -2.1324759e-02
 -1.7187794e-01
 -1.8278178e-02
 -8.5866392e-02
  6.6801764e-02
  5.0161391e-02
 -1.1358313e-01
 -1.1618072e+00
  1.4432828e+00
 -5.0999957e-01
 -4.5046406e+00
 -3.6238989e-01
 -5.9621740e-02
 -2.1300867e-02
  3.2906282e-01
 -2.6852176e-01
  5.8006310e-01
 -1.9107294e-01
  1.0437375e+00
 -3.8720533e-01
  8.4918338e-01
  3.8498396e-01
 -5.9923548e-01
 -1.3116297e+00
 -4.2086983e-01
  4.4596642e-01
  9.0038456e-02
 -2.3828979e-01
  1.4066814e+00
 -6.2697011e-01
  6.8875158e-01
  1.7399844e+00
 -9.0363568e-01
  1.0373669e+00
 -3.5699178e-02
 -6.9226563e-01
  2.1900206e+00
 -4.8516989e-01
 -1.1079208e+00
 -2.4718320e-01
 -1.1515032e-01
 -1.0635073e-01
 -3.4427142e-01
 -1.9604558e-02
 -8.8861780e-03
  5.4531381e-03
  3.7715107e-01
 -4.0818727e-01
 -3.6727151e-01
  2.0864165e-01
  1.0722861e-01
  1.7532463e-01
 -2.3724401e-02
 -3.6681592e-01
  1.3280941e-02
  3.8725370e-01
 -3.1495324e-01
 -1.4925481e-02
 -5.3666938e-02
 -3.9713401e-02
 -1.0878798e-02
 -4.6597705e-03
 -2.7344361e-01
  2.0547187e-01
  2.7389538e-01
  5.3566676e-01
 -2.1932775e-01
 -4.8965967e-01
 -2.6788226e-01
 -8.7382868e-02
 -1.0375710e-01
  4.1848329e-01
 -4.9124542e-01
  4.1735443e-01
 -1.2258968e-01
 -3.3977458e-01
  2.4463330e-01
 -3.1303951e-01
 -1.1725804e-01
 -4.5926574e-01
  3.3645147e-01
 -5.7814968e-01
 -7.8364569e-01
 -1.0050058e+00
  5.5501294e-01
  3.3215323e-01
  1.7920735e+00
 -2.6565415e-01
  3.1350517e-01
 -6.0319817e-01
 -2.4517168e-01
 -1.0616847e+00
 -3.2416639e-01
  4.1455787e-02
 -3.6122420e-01
 -2.2133138e-02
 -6.1054148e-02
 -4.2489228e-01
 -2.8298181e-01
 -4.8486937e-02
 -2.9593000e-01
 -5.4723150e-01
 -4.7946360e-02
  1.4520930e-01
  2.0839261e-01
  5.0168633e-01
  9.5611733e-01
  2.6392093e-01
 -1.3536572e-01
  3.1094654e-02
 -5.8205772e-02
  2.0043464e-01
 -4.4425122e-02
 -3.9149439e-03
 -3.5455223e-02
 -3.8970420e-03
 -4.9545087e-02
 -3.3731839e-01
  9.6284646e-01
 -6.2378806e-01
 -2.0459516e+00
 -1.2450103e+00
 -4.9269952e-02
 -1.2935922e-01
  4.2050615e-02
 -2.4570806e-01
  4.1901189e-01
 -6.3990434e-03
  1.0036061e-01
 -1.3134165e-01
  2.3222722e-01
  7.5720727e-01
 -2.5354564e-01
 -1.9404538e-01
 -2.3619418e-01
  3.3688086e-01
  1.3343272e+00
 -4.5051816e-01
 -5.3447340e-02
 -3.5831511e-01
  7.2539306e-01
 -1.6650457e+00
 -1.7270492e-01
 -8.6897034e-03
  3.8259792e-01
 -4.2076951e-01
  9.9123263e-01
 -3.3167690e-02
 -4.6307329e-02
 -2.0937698e-01
 -1.0344990e-01
  6.2832892e-01
 -6.3635595e-02
 -9.4937727e-02
 -3.4007121e-02
  3.0001816e-01
  5.3331435e-01
 -3.9218366e-01
 -5.6193464e-02
 -3.8234270e-01
 -2.9651821e-01
  2.0703736e-01
 -9.2189470e-03
 -5.5422012e-02
  5.4307049e-03
  1.5974624e-01
 -2.6062840e-01
  2.0395301e-02
 -1.0429249e-02
 -3.6352873e-02
 -3.7749142e-03
 -6.0660355e-02
 -6.1909109e-01
  2.1618128e-02
 -1.2918507e+00
  2.7889678e-01
  7.9472679e-01
 -2.5878972e-01
 -3.6208662e-01
 -2.9827294e-01
 -8.3226107e-02
  1.7706951e-01
 -5.7896852e-01
 -5.9621423e-01
 -2.2028947e-01
  1.5944870e-01
  3.8322836e-01
 -2.9337257e-01
 -4.4694072e-01
  5.7725668e-02
 -5.2100825e-01
  4.1632000e-01
 -1.0405253e+00
 -5.2425325e-01
  6.2190942e-02
  7.9126817e-01
  1.6219001e-01
 -9.5286906e-01
 -1.7848074e-01
 -6.6912407e-01
  4.5689324e-01
 -5.7093525e-01
 -4.7262144e-01
 -4.8122689e-01
 -1.0442732e-01
  9.5427483e-02
 -1.0435772e-01
 -3.8557845e-01
 -1.6667446e+00
 -1.6768233e-01
 -4.3839487e-01
  2.1540725e-01
 -8.2851328e-02
 -2.6617172e-01
 -4.3660607e-02
 -2.7351815e-01
  1.9168472e-01
  1.4363052e-01
 -1.3586257e-01
  3.7589543e-02
 -2.4216918e-02
 -7.6649658e-02
  5.9924615e-03
 -3.6127139e-02
 -2.3719989e-02
 -7.6912843e-02
  1.9499552e-02
 -7.2273269e-02
 -1.3011949e+00
 -2.2596125e-01
  3.4159019e+00
  1.9215490e+00
  3.1103864e-01
  3.1799525e-02
 -3.4817168e-01
 -1.8886122e-01
 -5.6563545e-02
  4.2855611e-01
  8.8131267e-01
  2.4721885e-01
  6.0978132e-01
  1.2230361e+00
  5.8322232e-02
  1.2044729e-01
 -6.4005658e-02
 -6.8933226e-02
 -6.4088643e-01
 -3.0151057e-01
  1.4819403e+00
  1.7483550e+00
 -7.3738420e-01
 -3.6847177e+00
  7.7507119e-03
  3.2186247e-02
 -5.1352191e-01
  7.3528647e-01
  5.6281817e-01
  4.2022836e-01
  2.4082205e-01
  1.6531193e-01
  8.5286301e-01
 -1.9944815e-01
  4.5069408e-01
  4.0174726e-01
 -8.4897459e-02
 -1.0181702e-01
 -4.9190160e-02
  2.2338925e-01
  9.4929017e-02
 -4.6951401e-01
 -6.0121107e-01
  1.5547504e-01
  1.3113174e-01
  4.2364262e-02
 -6.6480063e-02
 -7.7655055e-02
  3.4052975e-02
  5.4491136e-02
 -1.9503266e-02
  1.0189775e-02
  1.5654886e-02
  5.4409038e-02
  3.9606813e-01
  3.4293440e-01
 -3.2379776e-02
  3.2038379e-01
 -9.5846750e-02
  2.9030916e-01
  1.1324118e-01
 -6.4841807e-03
 -9.3560256e-03
 -1.4583386e-01
  6.5061852e-02
  1.1033389e-01
 -8.5022882e-02
 -3.0049211e-01
 -2.5044140e-01
  2.4557644e-01
 -2.5588017e-02
 -1.5540195e-01
 -3.2763219e-01
 -1.4242996e-02
  2.4013160e-01
  1.6297986e-01
  6.2584691e-02
 -4.2737823e-02
  5.6723423e-02
 -1.1808564e-01
 -1.4499885e-01
 -1.0846331e-02
 -1.4163177e-01
 -1.5573895e+00
  4.3182056e-02
  9.7572505e-02
 -8.4223248e-02
 -3.3936235e-01
  1.7167325e-01
  1.0267082e-01
  2.2338605e-01
  6.1080005e-02
 -5.2105140e-02
 -3.0641693e-01
 -1.0065840e-01
  1.2689471e-01
 -5.1693901e-02
 -9.5241271e-02
 -4.8255834e-01
 -8.3813980e-02
  5.5551432e-02
  3.7085559e-02
 -7.2589315e-02
 -7.3835954e-02
  2.7180880e-02
 -1.9958526e-02
  8.6294487e-02
  4.4768658e-02
 -8.3489493e-02
 -7.1434319e-01
 -3.1353265e-01
 -2.2618065e+00
 -5.4374427e-01
  8.7105161e-01
 -2.9518285e-01
 -6.4371586e-02
 -1.2647448e-01
 -9.2297763e-02
  6.7470932e-01
 -7.1226084e-01
 -5.6773204e-01
 -3.8024163e-01
  4.6195662e-01
  8.1919503e-01
  1.4885396e-01
  1.1454635e-01
  3.2785386e-01
 -1.4246774e-02
  3.7094745e-01
 -1.4312521e+00
  4.2133033e-01
  2.8312168e-01
  6.3065428e-01
  6.3354695e-01
 -1.1870844e+00
  6.1732507e-01
 -2.7775681e-01
  3.5394394e-01
 -8.0785275e-01
 -3.4791920e-01
  4.0792383e-02
 -1.4207916e-01
 -4.9663428e-02
 -1.7013389e+00
 -3.8748485e-01
 -2.9438499e-02
  4.7559181e-01
 -3.2614303e-01
 -1.3368019e+00
 -3.2137420e-02
 -3.5555959e-01
 -5.4603298e-03
  1.9107544e-01
  7.4562150e-01
  3.6569417e-01
 -3.7202083e-02
 -9.4236080e-03
 -1.3940033e-01
 -2.0983197e-02
  2.5407391e-02
 -7.7436939e-03
  6.0985148e-02
 -1.2745108e-02
 -3.2204911e-02
  2.8287079e+00
 -2.9207935e+00
 -1.9471133e-01
  1.7363245e+00
  1.9148357e+00
 -9.7541440e-01
 -8.5489768e-01
 -2.3884891e-01
 -1.2787682e+00
  4.4095343e-01
 -2.7184096e-01
 -4.7133589e-01
 -1.6812398e-01
 -7.7619177e-01
  1.1196046e+00
 -7.7355999e-01
 -9.4547921e-01
 -4.6898124e-01
  5.9577227e-01
 -2.6230588e+00
  1.3437693e+00
 -1.9096582e+00
 -2.4523058e+00
  3.0490911e-01
  1.1827016e+00
  4.0463489e-01
  7.2763324e-01
 -1.4119717e+00
 -7.5947797e-01
  2.8405550e-01
 -4.3548125e-01
 -4.3624359e-01
 -1.3507700e+00
 -3.3566067e-01
  1.1429722e+00
 -8.2125735e-01
 -7.3994021e-03
 -2.5204173e-01
 -9.7750711e-01
 -4.9375403e-01
 -7.7604330e-01
 -4.9688186e-02
 -7.6203811e-01
 -1.2079757e-01
 -3.2013059e-01
 -2.3171423e-02
 -2.2163460e-01
  5.4454744e-02
  4.7069690e-01
 -5.2092153e-01
 -4.8210271e-02
 -6.8877958e-02
  6.6258267e-02
 -1.5363252e-01
 -9.6887253e-02
  8.2421891e-02
  4.4092529e-02
 -2.0556992e-02
 -7.2528160e-01
 -1.0687433e-01
 -4.1516530e-03
 -1.3633657e-01
  7.5669989e-02
 -5.1432177e-03
  1.6540904e-03
  7.7970685e-03
  2.2447628e-03
 -9.1464341e-02
 -8.8832062e-03
 -1.0578468e-01
 -1.2260368e-01
  7.1891069e-02
  2.7097315e-02
 -4.3047518e-02
 -4.4014275e-02
  4.0131930e-02
  2.4625825e-02
  4.4004042e-02
 -2.5399413e-03
 -6.3013524e-02
 -8.3077410e-03
  1.6827069e-02
 -5.7609174e-02
 -7.7839777e-02
 -3.0348768e-02
  5.1922183e-02
  1.1192273e-02
 -5.1877085e-02
 -2.8014231e-02
 -4.1605949e-02
 -6.3342713e-02
  4.9216109e-03
 -9.9646717e-02
  4.2423373e-01
  2.1542427e-03
 -4.5314107e-02
  2.1004409e-02
 -2.7432775e-02
  5.2601758e-02
  3.5334490e-02
  5.5631790e-02
 -4.2332806e-02
  5.4162681e-02
  2.2491522e-02
 -4.2359531e-02
 -2.7331917e-02
  6.4438363e-03
  1.4763021e-02
 -1.8266806e-02
  3.1617247e-02
  6.1033374e-01
 -4.7078155e-02
  6.4130120e-02
  1.0123862e-02
 -7.7657984e-03
 -1.0008186e-02
 -6.3287300e-01
  1.2275508e-03
 -1.2120517e-02
  1.2089047e-01
 -2.3496224e-02
 -1.2043178e-02
  2.1480527e-02
 -6.3998312e-02
  6.8598226e-02
  3.9512284e-02
 -2.8664002e-02
  2.6300086e-02
  9.5560715e-02
  7.9277730e-01
 -5.1864676e-02
 -1.7758787e-02
  8.3921619e-02
  7.9288974e-02
  8.9600205e-02
 -2.2952935e-02
 -4.6936825e-02
 -2.2862760e-02
  4.5055714e-02
  9.5800981e-02
 -1.1426036e-01
  1.3127734e-02
 -8.3975486e-02
  9.2968140e-03
 -1.0251668e-01
 -1.2528926e-01
  1.5931314e-02
 -7.0164837e-02
  4.0266860e-02
  8.2818918e-02
 -1.1448991e-02
 -2.0067978e-01
 -1.0724347e-01
 -1.1033432e-02
 -7.4106036e-03
  8.2369648e-02
 -5.4583415e-02
 -4.0187884e-02
  1.6639093e-02
 -9.4706155e-03
  7.7329010e-02
 -2.1241779e-02
  1.9622741e-03
 -2.6603129e-02
  4.0164705e-02
 -5.5877939e-02
  2.2336168e+00
  2.0382580e-01
 -1.2372949e+00
  5.7791793e-01
  5.0423006e-03
 -8.8499099e-02
 -4.2283561e-02
 -1.3745913e-02
  1.5542185e-01
 -1.6703163e-03
 -7.8622878e-02
 -2.4571089e-01
  3.7062593e-02
 -7.1300223e-02
 -1.1586579e-01
  9.1316067e-02
  1.0409632e-01
  8.5448079e-02
  2.7858213e-01
 -1.0209801e-01
  5.0979280e-01
  9.9054746e-02
 -1.2175813e-01
 -1.9870661e-01
 -1.1426622e-01
  2.7326509e-01
  4.7686219e-02
 -1.5987423e-01
  4.9937129e-01
  8.8357396e-02
 -3.9709616e-02
  1.3885928e-02
 -6.3069463e-02
  2.2202177e-01
 -1.0525174e-01
 -1.7573601e-02
 -4.4269394e-02
 -2.5939742e-01
  1.8553857e-02
 -1.0319804e-01
  4.5337789e-02
 -2.7612242e-01
 -6.9865696e-02
 -3.3326395e-02
 -1.1522021e+00
 -2.9777881e-02
  5.6359158e-03
  9.3922444e-02
 -3.8992628e-02
  7.5416844e-03
 -1.0019817e-02
  1.9973727e-02
 -1.7419036e-02
 -2.5886800e-02
 -1.6477841e+00
  4.4986421e-01
 -2.9608619e+00
  1.1794074e+00
  2.7348437e+00
 -2.8341490e-01
  3.3516797e-01
  6.0450967e-02
 -4.7452074e-01
 -7.3088497e-01
 -1.7313670e+00
 -1.1089866e+00
  2.3946060e-01
  4.7090453e-01
  7.2800589e-01
 -1.6467197e-01
 -1.6427751e+00
  1.4686182e-01
 -7.1030718e-01
 -2.1963947e+00
  1.1728075e+00
 -7.9079533e-01
  7.3545598e-03
 -2.0183949e+00
 -3.3898087e+00
  6.2882227e-01
  5.4014210e-02
  1.8427861e-01
 -9.5014948e-01
 -7.4193805e-01
 -1.7797992e+00
 -4.2123592e-01
  1.5089772e+00
  3.5287961e-01
 -1.1485949e+00
  5.9764016e-01
 -1.2747641e+00
  1.1940391e+00
 -4.4038457e-01
 -1.5810705e+00
  7.9720348e-01
 -8.5059416e-01
  8.1868842e-02
 -1.2528361e-01
 -9.9688023e-01
  1.4978673e-01
 -2.3396811e-01
  8.8175312e-02
  3.9817813e-01
  2.3687918e-01
  6.6051753e-03
  1.7344959e-02
  6.6794385e-03
 -3.7835646e-02
 -8.2159676e-02
  7.2618437e-01
 -4.5560889e+00
  8.8810825e-01
 -1.1481767e+00
 -1.1751782e+00
  8.1856978e-01
  3.5972923e-01
 -2.0662965e-01
 -7.7841006e-02
 -1.9741480e-01
  3.2487783e-01
  2.2312878e-01
 -8.2344748e-02
 -1.7885928e+00
 -1.1724344e+00
  1.8574402e-01
 -3.3943382e-01
  2.6880014e-01
 -5.1379055e-01
  7.6638949e-01
  9.6859497e-01
  1.8202175e+00
  1.5046613e+00
 -3.6753936e+00
 -4.0492529e-01
  1.3758917e-01
 -4.6440985e-02
  1.1942271e-01
  3.3374518e-02
  7.9025573e-01
 -2.2729853e-01
 -5.1429194e-01
 -3.9252184e-02
  4.7751519e-01
  9.9747676e-01
  5.4306197e-01
  6.7611068e-01
  9.3167663e-02
 -5.4018676e-01
  5.5334651e-01
  5.0576532e-01
  5.6836790e-01
  1.6948822e+00
 -5.0937408e-01
  1.2323371e+00
 -1.7571925e-01
  3.4990754e-02
  2.1376159e-02
 -4.3511271e-01
 -2.7981920e-03
 -2.8491549e+00
 -3.1244570e-01
 -1.4542256e-01
  2.8891582e-02
  9.8696820e-02
  6.4247902e-03
  8.2978182e-02
 -7.8819439e-02
  5.4706776e-01
  2.6814982e-01
  1.2669161e-01
  1.5121157e-01
  4.1076704e-03
 -7.1310602e-02
 -1.4670552e-01
 -1.2698255e-03
 -2.1165736e-01
  9.1128305e-02
  3.8798094e-02
 -1.1162747e-01
  1.4427589e-01
  2.4207795e-02
  6.1452992e-02
 -5.2630845e-02
  8.5212514e-03
  1.0219068e-01
 -2.6059523e-01
  2.2323271e-02
 -2.2996263e-01
 -1.5192227e-01
  1.0224463e-01
 -1.8140063e-01
 -2.4389505e-02
 -1.1047553e-01
 -1.8878162e-01
  2.5338167e-01
  1.1855021e-01
  1.2916197e-02
  6.2542580e-02
  1.7575794e-01
  5.4364923e-02
  2.0871865e-02
  6.5509468e-02
  1.3415780e-02
 -6.0538948e-02
  6.1905045e-02
  2.1621695e-02
  3.3455268e-02
  8.3540723e-02
  5.1053625e-02
 -1.1378901e-01
  1.2742190e-01
 -4.0346760e-02
 -6.3485213e-02
 -1.8502329e-04
 -6.1227582e-02
  4.0592112e-02
 -9.1993041e-02
  6.3632891e-02
  7.6073676e-02
 -1.5100986e+00
  1.6221619e+00
 -1.6517022e+00
 -1.2395505e+00
  6.1025292e-01
  2.7483182e+00
  1.8050772e+00
  1.0403142e+00
  1.0915680e+00
 -1.8165135e+00
  1.5312945e+00
  2.5044544e+00
  3.9844558e-01
  1.5352426e+00
  4.5627286e-03
  1.1575297e+00
  7.9945701e-01
  2.0649118e+00
  6.6384643e-01
 -5.2787733e-01
  4.4228104e-01
 -7.7095807e-01
  1.7309152e+00
  1.0179260e+00
  1.7305662e-01
  1.0346339e+00
  2.7558248e+00
  1.7890258e+00
 -7.5177290e-02
 -4.7927254e-01
  2.1678507e+00
  1.5542490e+00
  2.0527742e+00
  3.7542084e-01
 -2.2261484e+00
  8.5287243e-01
  1.0706831e+00
  6.1149561e-01
  1.6556677e-01
  8.3329940e-01
 -2.0698632e-01
  7.4358165e-01
  5.8574361e-01
 -8.3536291e-01
 -1.0554302e+00
 -5.6234854e-01
 -4.8631531e-01
  1.8169796e-01
 -7.4372560e-01
  1.5958737e-01
  6.1199076e-02
  1.1716274e-01
 -2.6359780e+00
  3.8377267e-01
  3.3018652e-01
  2.1987233e-01
  1.6636179e-01
  7.4119575e-02
 -3.3174989e-01
 -2.5700569e-01
  1.8447475e-01
  8.2476541e-02
  1.8299505e-02
  2.9609730e-02
 -2.0769800e-01
  8.1879325e-02
  2.1515299e-02
  3.0542592e-02
  1.6488081e-02
 -7.2697371e-02
  1.3973473e-01
  2.1601178e-02
  3.0572608e-02
 -4.8251640e-02
 -1.3150017e-01
  2.7498469e-01
  4.1937042e-02
 -3.7925016e-02
  2.6260971e-03
  7.9950109e-02
  1.2525392e-01
 -1.6421670e-01
  9.6755967e-02
 -1.5232070e-01
 -1.2625025e-02
  9.5129088e-02
  8.8629082e-02
  9.6068285e-02
  2.8316004e-03
  5.4816093e-02
  1.5182044e-01
  2.8019926e-02
  9.2521548e-02
  1.9897591e-02
 -3.4275867e-02
  5.8100298e-02
  5.5527307e-02
  3.0953890e-02
 -8.0969660e-03
 -1.7752182e-01
 -8.7986484e-02
  1.0002821e-01
 -5.8124391e-03
  1.0260509e-02
  7.8329720e-02
 -6.3182361e-02
 -5.6488472e-03
  1.3928081e-02
  5.4488517e-02
  1.6740102e-02
  1.1031969e+00
 -2.5632810e-02
  2.6424921e-01
 -7.2552168e-01
 -1.3506453e+00
  3.1486711e-01
  1.2360768e-01
  2.5318116e-01
 -3.1884849e-02
 -5.3985620e-01
  1.2423813e-01
  2.4198528e-01
  1.9687408e-01
 -2.2867405e-01
 -3.4556392e-01
  4.8321119e-01
 -2.5005734e-01
 -1.1853114e-01
 -2.0266628e+00
 -7.6472229e-01
  9.1342568e-01
 -2.3376082e-01
  3.0249557e-01
 -1.3087790e+00
 -1.3466443e+00
  6.3733667e-01
 -2.9659912e-01
  4.5023397e-01
 -5.5834639e-01
  2.8180894e-01
  1.6173130e-01
  2.8713140e-01
  2.5858381e-01
 -2.4937190e-01
  4.2466703e-01
  4.5774689e-01
  1.1771166e-01
  1.8132138e-01
  8.9395739e-02
 -6.1875278e-01
  7.0787811e-01
  2.5617865e-01
  1.5149899e-01
  2.0119764e-01
 -6.6962421e-01
 -1.0641288e-02
 -1.3913127e-02
  1.6521327e-02
 -3.3802077e-02
  5.1956110e-02
  3.7728526e-02
 -2.9038016e-02
  2.5110101e-02
  4.0369097e-02
  3.6032870e-02
 -1.1659411e-01
 -1.6406469e-01
 -6.4795874e-02
 -7.0194848e-02
  1.3292118e+00
  3.3401585e-01
  1.9744338e-01
  2.1312572e-01
  4.8152637e-02
 -4.6932843e-01
  3.4330475e-01
  2.6751751e-01
  7.3668614e-02
 -2.6591274e-01
 -7.5904852e-01
  1.0369880e-01
  2.9261792e-01
 -6.7912996e-02
 -6.0556722e-01
 -4.6814233e-01
  6.1127603e-01
  4.4854071e-02
 -3.5195079e-01
 -4.6432346e-01
  5.1550931e-01
 -4.8596967e-02
 -2.9468399e-01
 -2.6758400e-01
 -2.8379142e-01
  1.6649956e-01
  7.2545421e-01
  2.1313506e-01
 -1.8332109e-01
 -1.3073891e-01
  7.1773291e-02
  1.4824402e-01
  3.5107979e-01
 -5.8776569e-01
 -2.3445532e-01
 -5.0991702e-01
  3.2929443e-02
  3.8860676e-01
 -2.7583504e-01
  1.7150703e-01
 -8.1148922e-01
 -2.0690353e-01
  5.3411104e-02
  4.9566504e-02
 -3.9882250e-02
  2.6474968e-02
  1.9961003e-02
 -3.4890529e-02
  2.6114162e-02
  1.6090369e-02
  1.0627728e-01
  6.9252354e-01
 -2.4567387e+00
 -2.8023511e-01
 -4.4129500e-01
 -8.4733474e-01
  9.6291989e-01
  1.8458369e-01
  2.4714574e-01
  2.3202327e-01
 -2.5292641e-01
  6.3816643e-01
  5.6621885e-01
  2.7600187e-01
  2.7025402e-01
 -3.7008751e-02
 -1.5997340e-01
  5.2279228e-01
 -3.0446028e-02
 -1.1658860e+00
  1.5704292e+00
  8.3147591e-01
  1.7518419e-01
 -4.2101008e-01
  4.9608034e-01
  1.7386355e+00
  6.0089439e-01
 -2.4954644e-01
 -4.1676530e-01
 -8.6993587e-01
  7.0803255e-01
  1.3143582e+00
  6.3693744e-01
 -1.4552630e-01
  1.0695755e-02
  2.5865555e+00
  3.4058383e-01
  1.0043819e+00
  6.9272465e-01
 -9.9801116e-02
  2.2263689e-01
 -7.3106639e-02
  4.2586207e-01
  1.0030832e+00
 -2.9022574e-01
 -1.4435947e-01
 -3.5668972e-01
  1.7694426e-01
  1.2283396e-02
  2.8877016e-02
 -1.2109637e-01
 -1.1026566e-01
 -7.9812653e-02
  3.1293262e-02
  1.4731787e-01
  1.8078150e-02
  2.8236639e+00
  9.0039837e-01
  5.8021713e-02
 -5.6041366e-01
  1.0544807e+00
 -7.2127080e-01
 -1.2114688e+00
 -1.0200766e+00
 -6.3780636e-01
  6.8642281e-02
 -9.0271586e-01
 -6.2598062e-01
 -1.5130430e-01
 -1.6456168e-02
  1.7134439e+00
 -6.2682158e-01
 -2.4329224e+00
 -1.5946838e-01
 -6.8577152e-01
  4.6491802e-01
 -1.1921881e+00
 -2.3727889e+00
 -3.9503455e-01
 -2.9720968e-01
  2.4468186e+00
  6.5981364e-01
 -1.1762389e+00
 -3.6682823e-01
  6.4088804e-01
 -5.0844377e-01
 -5.5032820e-01
 -2.0397542e+00
 -3.8224244e-01
 -4.7100675e-03
  6.6726387e-01
  7.6480485e-02
 -1.5645630e+00
 -9.6611783e-02
  5.4557256e-02
 -9.4075167e-01
 -3.4581551e-01
 -1.2566013e+00
 -5.8499974e-01
 -3.9287913e-01
 -1.0839276e-01
  4.1099298e-01
 -6.1322093e-01
 -6.9542453e-02
 -1.4052679e-01
  1.3377017e-01
  7.5663459e-03
 -1.2169714e-02
 -6.0851358e-02
 -1.6923207e-01
 -1.6956462e-01
  5.1672816e-01
 -4.5049119e-01
 -1.2058887e+00
 -4.8301113e-01
  1.8099456e+00
  1.2771044e+00
  6.0830432e-01
  1.5066062e-01
 -2.4641919e-01
  1.8555671e-01
 -6.2783666e-02
 -8.4102499e-01
  4.6845186e-01
 -4.2636874e-01
 -2.1797527e-01
  1.1381593e+00
  8.9773810e-01
  1.1700045e-01
  6.9157588e-01
 -1.7617552e+00
  2.6025650e-01
  2.5785418e+00
 -4.4751853e-01
 -2.2831945e+00
  1.6882819e+00
 -2.5674906e-01
  4.4829255e-01
 -5.5824184e-01
  7.7787384e-02
 -6.0991991e-01
 -5.2612406e-01
  1.0961156e+00
 -1.6007978e-01
 -2.1447514e-01
  5.4579610e-01
  5.2034044e-01
  3.4078807e-01
  8.0154294e-01
 -1.6434625e-01
 -3.4502164e-01
  1.3992091e-01
  1.2923625e-01
  7.4290323e-01
 -4.8787665e-02
  3.8337104e-02
 -3.0774742e-01
  4.3623336e-02
  1.1413073e-01
 -1.5465540e-03
 -3.4039500e-01
  3.8858805e-02
  1.3175550e-01
  2.7297860e-02
  1.2169548e-01
  7.5285532e-02
  1.3926737e-04
 -4.2265937e-02
  7.6797709e-02
  6.7550838e-01
  3.1186980e-01
 -1.6432807e-01
  1.1092441e-02
  4.2404495e-02
  6.3634761e-02
  1.2878287e-02
 -1.9715983e-01
  2.6627459e-02
  7.5348303e-02
 -4.4101454e-02
  2.7627699e-02
  1.5419550e-03
 -2.9716877e-02
 -1.9033214e-02
  3.2646373e-02
 -7.0752747e-02
  8.2961142e-02
 -3.9799921e-02
  9.8421283e-02
 -1.6836184e-01
 -1.2793505e-01
 -3.9149195e-02
 -5.1669266e-02
 -3.1795997e-02
 -1.3078228e-01
 -1.1978810e-01
 -9.2598167e-04
  3.0049190e-03
 -2.4661586e-02
 -7.2935462e-02
 -1.4389841e-01
 -1.8947298e-02
  9.1260747e-04
  6.4531271e-03
 -4.1734923e-02
 -3.8105652e-02
 -2.0910172e-02
 -2.4024528e-02
 -7.6089022e-03
 -2.8336223e-02
  2.2776764e-02
 -1.6209872e-02
  2.0666230e-02
  1.8124603e-02
  1.2420280e-02
 -4.5290984e-02
 -3.9704073e-02
 -1.6511902e-02
  1.5785450e-02
 -2.3541084e-02
  3.4265555e-03
  9.2202568e-01
 -7.4305099e-01
  1.0930080e-01
 -4.2992318e-01
 -2.5517347e-01
  1.8519939e-01
  8.9014351e-02
  2.5180596e-01
  6.8343662e-02
 -5.5586410e-01
  3.9956458e-03
  1.6354527e-01
 -3.8193684e-02
 -4.8982255e-02
 -3.2218191e-01
  3.8733694e-01
  1.2953997e-01
 -6.5786384e-02
 -1.7819028e-01
 -8.5057175e-01
  6.2300873e-01
  1.7079625e-02
  1.2141885e-01
 -3.1998324e-01
 -1.5484104e+00
  4.0224496e-01
 -1.2218877e-01
  1.3865998e-01
 -3.9248312e-01
  2.2729935e-01
  2.2632819e-01
  2.8228343e-01
  1.7491873e-01
 -1.4257279e-01
  7.7324784e-01
  2.1055751e-01
  1.2475377e-01
  7.0470743e-02
  8.5336834e-02
 -4.0233108e-01
 -8.9617698e-03
  9.2400014e-02
  3.1126785e-01
  7.0186809e-02
 -4.7547019e-01
 -1.7829092e-01
  2.2882682e-03
  6.5061055e-02
 -1.7399209e-02
  3.2825220e-02
 -3.3749688e-02
 -2.0653382e-01
  4.1577820e-02
 -2.2159820e-02
  2.5024790e-02
  7.6367074e-01
 -1.7685157e-01
 -2.1018328e-01
  3.0773041e+00
 -1.4918258e+00
 -6.8930298e-02
 -5.3905301e-02
 -3.9071482e-02
 -2.9172195e-02
  4.0726542e-01
  1.7416196e-01
  6.8954080e-02
 -1.5109114e-01
 -3.0781269e-01
 -3.5382666e-02
  2.4228376e-01
  8.0275953e-02
  1.2055684e-01
  1.5934207e-01
  7.0534784e-01
  2.9503542e-01
 -2.8783944e-01
  7.7044523e-01
  2.1863174e-01
  4.0988714e-01
  1.2913345e-01
 -1.2620148e-01
  4.6456319e-01
 -4.1724318e-01
  4.9946305e-01
  2.9170397e-01
 -4.8052878e-03
  2.6339734e-01
 -2.2556427e-01
  3.4523985e-01
  1.4880685e-03
 -1.5356988e-01
  3.7015408e-01
 -4.7034334e-02
  3.3247691e-01
 -5.9476424e-02
 -2.9591992e-02
  1.6446923e-01
 -2.0764120e-02
  1.9692981e-01
  4.3390938e-03
  6.3648961e-02
  2.2793492e-02
  5.6941137e-02
 -2.9872021e-02
  7.3014015e-01
  3.6402784e-02
 -9.2932796e-01
 -1.9065006e-02
 -1.1523114e+00
  4.3748426e-01
  1.4602085e+00
  5.0874072e-01
 -3.1013839e+00
  9.2436224e-01
  3.9553255e-02
  1.1428144e+00
 -1.9189575e-01
  1.7108093e-01
 -5.9189665e-01
  1.1399303e-01
 -7.7579677e-01
  3.6933497e-01
 -2.7226424e-04
  3.4892440e-01
  7.2242513e-02
  1.6878890e+00
  1.8903232e-01
 -2.5414575e-02
 -2.7819103e-01
 -5.1556200e-02
 -6.2496763e-01
  1.7469358e-02
 -2.8011456e-02
  1.8060597e+00
  3.9882919e-01
 -2.3659077e+00
 -2.4139397e-02
  4.3386078e-01
  1.4274101e-01
 -6.1369050e-02
 -4.6694842e-01
  3.5174289e-01
  3.5910165e-01
 -7.0873904e-01
  1.9342878e-01
 -1.7605497e-01
 -2.7527210e-01
  5.8085626e-01
 -7.3080860e-02
  1.6441235e-01
 -8.5815686e-01
 -9.7261645e-02
 -3.9642814e-01
 -3.6331266e-01
 -3.2296114e-02
  2.0097513e-01
  8.4726801e-03
 -1.4765559e-01
  2.0458882e-01
  1.2069505e-01
 -2.0906669e-03
 -2.8046757e-02
  2.6307121e-02
 -1.0532807e-02
 -1.2009159e+00
 -1.2600818e+00
  1.5993605e+00
 -1.4338527e+00
  1.0344027e+00
  4.7309306e-01
 -5.9776396e-01
 -1.0108081e-01
 -7.9481512e-01
 -1.7983779e+00
 -2.8309059e-01
  2.8986817e-02
 -2.9582191e-01
  1.1521082e+00
  1.8476958e+00
 -4.5069632e-01
 -1.5178269e+00
 -3.3444902e-01
  7.8976232e-01
 -2.2302125e+00
 -1.3627601e+00
 -1.2169129e+00
  2.2525778e-01
 -4.8882046e-01
  1.4604023e+00
  4.0131110e-01
 -1.5418153e+00
 -3.3047444e-01
 -2.2914605e-02
 -1.6842426e+00
  5.5707687e-01
  9.6416980e-02
 -3.7152898e-01
  6.0592800e-01
 -8.0388129e-01
 -2.7994585e-01
  3.0139171e-02
  2.1485295e-02
  2.1165046e-01
 -1.5298202e+00
 -6.6103227e-02
 -5.2983695e-01
 -1.0405158e+00
  1.0637685e+00
 -1.9734859e+00
 -4.7381975e-02
  7.1771026e-02
  1.3910173e-01
 -2.0742972e-01
 -5.7517778e-02
  5.2042410e-02
 -5.2629724e-02
  4.4292230e-03
  1.5125793e-01
  1.3699452e-02
 -1.3236613e+00
 -1.0013214e+00
  4.6974894e-02
  3.0324192e+00
  2.1071184e+00
  2.8485039e-01
  1.9714966e-01
 -3.6920935e-01
 -5.1027763e-01
 -1.0635421e+00
  2.0835669e-01
  7.9318988e-01
  4.6671796e-01
  7.3806542e-01
  1.1713109e+00
  1.8848367e-01
  2.2967685e-02
  1.7067364e-01
 -2.4378029e-01
  4.5211139e-01
  4.7697404e-01
  1.9110787e+00
  9.4214183e-01
 -9.3350631e-01
 -1.0570506e+00
  4.2915794e-01
  1.1505727e+00
 -1.3393084e+00
  1.2549948e+00
 -1.1347791e+00
  3.2234773e-01
  2.0533529e-01
  7.5329490e-02
  1.2071476e+00
  6.9359511e-01
  2.3092107e-01
  3.4641024e-01
 -2.4472162e-01
  2.8672751e-02
 -4.3427083e-01
  3.7058324e-01
  4.3291879e-01
 -5.3579748e-01
  2.1326828e-01
 -9.2722122e-03
 -8.8060550e-02
 -8.9856740e-03
 -6.4695984e-02
 -6.6505484e-02
  2.7328831e-01
 -7.1275361e-02
 -4.9346201e-02
  2.6831743e-03
  6.3876353e-02
  8.4367424e-02
 -7.6168172e-02
  1.3590319e-01
  4.1140190e-01
 -1.8537776e+00
 -1.0621040e-01
  1.1277783e-01
  4.3781719e-01
  7.4265213e-03
  2.0184846e-01
 -4.2079845e-01
  4.3812208e-02
 -3.2407752e-01
  2.1735254e-01
  1.2704460e-01
  1.4313164e-01
 -3.0926194e-02
 -4.6526161e-01
  1.6335855e-01
  1.9716091e-01
 -3.6945969e-01
 -2.1715032e-01
 -3.7140241e-01
 -2.7256942e-01
 -3.9213410e-01
  9.2792138e-02
  3.0678022e-01
  8.0093950e-01
  1.8259645e-01
  5.7170951e-01
  8.6291410e-02
 -6.4094216e-02
 -1.0526648e-01
 -6.1476253e-02
  3.2900408e-01
 -6.6262811e-01
  7.6191619e-02
  1.3604426e-01
  1.1115372e-01
  1.5641281e-01
 -3.0011776e-01
  1.7545180e-01
 -7.1716346e-02
  2.7623497e-02
  1.7803642e-01
 -9.2962943e-02
  6.8384460e-03
  1.5896527e-02
 -5.3849578e-02
 -9.9562988e-02
  1.7704511e-01
 -2.3297365e-03
  4.4336524e-02
 -6.3680053e-02
 -2.2526676e-02
 -6.6646345e-02
  6.1114776e-01
  1.9655514e+00
  3.1249812e+00
 -1.7131509e+00
  3.8141003e-01
 -8.4546286e-01
 -1.5608375e-01
  3.3181325e-01
  9.8507404e-01
 -9.8887324e-01
 -9.3624979e-01
  2.9632278e-02
 -4.8896936e-01
 -5.0364286e-01
 -1.9378668e+00
 -1.1466653e-01
 -1.7372648e+00
  8.4474748e-01
 -1.3755957e+00
  9.3701738e-01
  4.7861972e-01
  2.2221403e+00
  1.3905740e+00
  1.4933498e+00
  2.4001024e+00
  2.0612966e-01
  2.6921339e+00
  7.7597320e-01
  5.3609067e-01
 -1.7450955e+00
 -9.5076025e-01
  2.0135140e+00
 -1.5874104e+00
 -2.2210537e-01
 -6.0834843e-01
 -9.0256947e-01
 -9.4856465e-01
  6.7071944e-01
 -7.7794963e-01
  6.9647707e-02
 -2.0603839e-01
  3.6801070e-02
 -1.3469889e+00
  1.7223356e+00
 -1.9471954e+00
  1.5292321e-01
  2.1674382e-03
  1.2341284e-02
  5.3857740e-02
  2.2037591e-01
  2.4050700e-02
 -1.3983479e-01
  2.8668173e-02
 -8.2522579e-02
 -1.4866973e-02
  1.0115108e+00
 -2.6520426e+00
 -5.8781016e-01
 -3.0560350e-02
  1.5131319e+00
  1.2906424e+00
  3.7112984e-01
 -5.9788632e-01
 -1.0522541e-01
 -8.3973962e-01
  9.8487729e-01
  1.1253871e+00
  1.8916327e-01
 -2.8863454e-01
  7.3367715e-01
  9.3192965e-01
  3.4147617e-01
  2.9872168e-02
 -6.0377252e-01
 -2.4007437e-01
  5.3450334e-01
  7.3465651e-01
  1.5021467e+00
  1.5049208e+00
 -7.9890776e-01
  1.6588512e-01
 -1.7559044e-01
  5.6897831e-01
 -1.1301606e+00
  4.9262455e-01
  3.2662082e-01
 -5.7600224e-01
  7.6199043e-01
  4.6447846e-01
  1.9580899e+00
  9.8055291e-01
  1.4320566e-02
 -6.5344667e-01
 -7.2129607e-01
 -4.6743758e-02
  2.5808626e-01
  1.9511408e-01
 -2.0004702e-01
 -9.8079485e-01
 -3.6295332e-02
 -1.5549155e-01
  1.3608947e-01
  6.1954395e-03
 -7.9447292e-02
  6.7008045e-03
 -2.1864329e-02
 -5.4520056e-02
  7.0993789e-02
 -1.0588809e-02
  7.5088078e-01
 -1.2319909e+00
 -8.3692148e-03
 -6.3124816e-03
  1.0565706e+00
 -1.9979478e+00
  7.2713274e-01
  1.4844579e-01
  7.8091395e-01
  3.7926072e-01
 -2.9562232e-01
 -2.6829630e-01
  9.3526924e-01
  1.3484114e-01
  1.0638208e+00
  4.5350388e-01
  1.3801389e+00
  1.8582814e+00
 -1.0843633e+00
 -5.3181052e-01
 -2.1633279e+00
  1.0947007e+00
 -2.5378618e+00
 -1.3491192e+00
  7.2749543e-01
 -1.1858512e-01
  3.1152532e-01
 -1.7040204e-01
 -2.2055863e-01
  4.2333031e-01
 -1.7738000e-01
 -4.7885960e-01
  3.2620764e-01
 -7.3111659e-01
  4.6330115e-01
 -2.8978348e-01
  5.3666985e-01
 -1.4501189e+00
 -1.1083492e+00
  1.3620232e-01
 -9.2329639e-01
  2.7181366e-01
  1.0008851e+00
  1.0779505e+00
  3.7932786e-01
 -4.0231276e-01
 -1.8953735e-01
  1.5471432e-01
  8.3678551e-02
 -1.3266742e-01
  2.5334048e-01
  2.5015123e-02
 -9.2240721e-02
  8.0474168e-02
  1.9652921e-01
  3.1630293e-02
 -2.0960984e-01
  2.4556842e+00
  1.7937823e-01
 -1.4717538e+00
  1.2757331e-01
 -2.8669935e-01
 -1.4768723e-01
  2.3046137e-01
  6.0538489e-02
  3.9475742e-01
 -4.4963950e-01
 -2.6140121e-01
 -5.1140904e-01
 -1.1424237e-01
 -1.9804062e-01
 -4.8381615e-01
  1.5533486e-02
  2.2285080e-01
  1.7936342e+00
  1.2985394e+00
  5.9950966e-01
 -3.9576828e-01
 -3.5232228e-01
 -3.8380468e-01
  1.1502591e+00
 -1.3400282e-01
 -1.2765422e-01
 -2.2739665e-01
  3.3947326e-02
  3.0906138e-01
 -2.8208950e-01
  1.0672234e+00
 -6.7143983e-01
 -1.7582119e-01
  7.4636841e-01
 -5.4008532e-01
 -4.7524955e-02
  8.8182116e-01
 -2.5816765e-01
  7.0517428e-02
 -2.8709707e-01
 -1.0605974e-01
 -6.0222137e-01
  2.7981165e-01
 -2.9490077e-01
  1.0374215e-01
 -1.0174061e-01
  4.9189206e-02
  7.9254054e-02
 -1.0419083e-01
 -6.7122635e-03
 -3.6615528e-02
  3.0305400e-02
 -3.0756895e-03
 -3.4589205e-02
 -9.2677683e-02
 -7.2665796e-02
  1.3882126e-01
 -1.1001573e+00
  7.2435252e-02
 -1.2351974e-01
  4.7445115e-02
  5.5184636e-02
 -4.6527024e-02
  1.4565617e-01
  2.0704245e-02
  1.5076168e-02
 -1.3642572e-01
 -1.1359098e-01
  8.3068334e-02
 -1.2274034e-01
 -3.4706343e-02
 -4.7133375e-02
  1.6415054e-02
 -1.7444700e-01
 -1.0911867e-01
 -1.6185038e-01
  1.9186897e-02
  1.8195430e-02
  5.2708192e-03
 -1.4468952e-01
  1.3487035e-01
 -3.6119759e-02
 -1.2338023e-01
 -8.9727426e-03
 -5.2200504e-02
 -5.0879646e-02
  1.0121597e-02
 -8.9254402e-02
  3.5817526e-02
 -1.7932206e-02
 -8.8559933e-02
 -1.1916098e-01
 -2.6553214e-02
  1.7144775e-02
 -3.0104853e-02
 -1.8717768e-02
 -2.8219189e-02
 -5.8281559e-02
  5.8333043e-02
  1.7514035e-02
 -1.0946271e-01
  1.3817982e-01
  1.6965665e-01
 -4.7062647e-02
  4.5835085e-02
 -2.3985460e-02
 -2.5656528e-03
 -5.3561959e-02
  5.8499984e-03
 -1.2898302e-01
  2.4873550e+00
  4.2024890e-01
  1.9483125e-01
  7.8880346e-01
  1.8219817e-01
  1.5310976e-01
  1.9563629e-01
  6.1855361e-02
 -2.9130387e-01
  1.4691855e-01
  1.2952116e-01
  5.3481802e-02
  2.4693847e-01
 -1.8594835e-02
 -1.1897442e+00
  1.4084382e-01
 -7.1693458e-02
 -2.2196855e-01
  3.5524755e-03
  2.6909304e-01
  2.5038704e-01
 -1.2987435e-01
 -1.9532989e-01
  1.2020929e-01
  7.9362087e-02
 -5.9873980e-02
 -6.3370772e-02
 -5.4601923e-02
 -1.4429623e-01
  1.5054911e-01
  1.8678497e-01
 -9.0530887e-02
  1.5860906e-01
  3.5450123e-02
  8.3633132e-02
  1.4458400e-01
 -7.0577182e-02
 -3.7533704e-02
 -2.0047288e-01
 -5.4788668e-02
  1.0958835e-01
 -1.6711248e-01
  1.7133860e-01
 -1.8934731e-01
 -8.0488876e-02
  1.4371122e-01
 -1.3458678e-02
 -8.8903139e-04
 -5.6822348e-02
 -4.6757215e-01
  2.6284987e-02
  7.6235603e-03
 -5.2852776e-02
 -1.1747191e+00
 -1.8471154e+00
  2.3728561e+00
 -7.9575062e-01
  7.9416245e-01
  1.2878739e+00
 -6.3689941e-01
 -3.6970544e-01
 -2.5240147e-01
  3.4807289e-01
 -4.0597272e-01
 -3.4085345e-01
 -1.2186144e-01
 -2.6399663e-01
  5.1238418e-01
  1.0966896e-01
 -2.8140826e-02
  9.4312930e-01
  2.6545820e-01
 -6.3519818e-01
 -3.1624115e-01
 -1.0723726e+00
 -1.8526729e+00
  1.9092533e-01
  3.7107810e-01
 -2.0048110e+00
 -9.9772346e-01
 -1.7941195e+00
  5.8536911e-01
  4.3492675e-01
  1.7889355e-01
  5.7717144e-01
 -1.1333805e+00
  1.4655424e+00
  4.3674606e-01
 -4.6573494e-02
 -2.0746801e-03
 -1.0348608e+00
  3.1304592e-01
  1.0315958e+00
  1.9832641e+00
  1.7603391e-01
 -4.5895463e-01
  2.8460398e-01
 -9.3661708e-01
  9.5691226e-02
  1.4982347e-01
  3.8480431e-01
 -4.2036209e-02
  4.0901411e-02
  3.5183239e-01
 -5.2848667e-02
 -3.0960305e-02
  2.0664899e-02
  1.7180959e-02
 -8.7969474e-02
 -9.1630938e-03
 -3.5880798e-01
  4.4847112e-02
  1.4312177e+00
  1.3899523e-01
 -1.5477945e-01
 -7.6274388e-02
  2.4579165e+00
 -2.1998096e-02
  2.5501215e-01
 -2.3532936e-03
 -1.9486122e-01
 -1.1818624e-01
  2.4407566e-02
  2.6639253e-02
 -8.9880615e-02
 -1.6654983e-01
 -1.0651706e-01
 -1.3547267e-01
  3.1199452e-01
  1.8383162e-02
 -9.7062578e-03
 -6.7300484e-02
 -8.5711980e-01
  8.6297467e-02
 -4.2774945e-01
 -6.0256183e-01
 -8.0654211e-02
 -2.0262007e-01
  1.1483916e-02
  2.9510153e-02
 -6.6109663e-01
  3.4429737e-05
 -2.0425175e-01
  6.4156890e-02
  1.3310231e-01
 -1.3018607e-01
 -6.8799369e-02
 -1.2198171e-01
  1.2625031e-01
 -1.0051964e-01
  1.4464897e-02
  6.9915310e-02
 -9.5341519e-02
 -7.7835336e-02
 -5.1966034e-02
 -7.2727017e-02
 -4.5658112e-02
  1.2662230e-01
 -7.8058608e-02
 -1.0490163e-01
 -3.4637377e-02
  2.3025032e-02
  3.3915017e-02
  3.2843627e-02
  7.2219753e-01
 -1.3208407e+00
 -4.6662182e-01
  2.1088235e+00
 -1.5112498e+00
 -1.3058630e-01
  1.1012887e-01
 -3.6279500e-02
 -4.7655085e-01
  9.7711295e-01
  2.9373074e-01
  2.8702605e-01
 -1.1107132e-01
 -3.3631390e-01
  6.5886281e-02
  2.9017070e-01
  6.1723465e-01
  1.1017305e-01
  2.9990116e-01
  1.5347316e+00
  2.6839909e-01
  1.0318445e+00
  1.3867451e+00
  1.0274037e+00
  1.6634958e+00
  2.4307321e-01
  1.0864028e+00
  3.0497140e-01
 -6.6110069e-01
  1.5536408e+00
  2.4049106e-01
  2.6183018e-01
  3.2055417e-01
 -4.9569494e-01
  1.4489908e+00
  1.8970871e-01
  2.9785815e-01
  2.3309171e-01
 -2.3370904e-01
  7.7539825e-01
 -1.3709030e-01
  2.1136369e-01
  3.5473891e-02
 -1.8081428e-01
  6.9232577e-01
 -1.3136917e-01
 -1.0308395e-01
  3.6700469e-02
  1.0331157e+00
  1.3583767e-01
 -2.8473413e-02
 -7.4248046e-02
 -6.6667080e-02
  7.7963874e-02
  8.5896172e-02
 -3.6156816e+00
  1.8382069e-01
 -1.0878257e+00
 -1.3641106e+00
 -3.5699801e+00
  3.6076039e-01
  1.9529594e-01
 -4.2082301e-01
  2.7141204e-01
 -2.1956907e-01
 -9.4923127e-01
 -8.1354862e-01
 -3.3171225e-01
  5.0492668e-01
 -3.9712492e-01
 -1.1487241e+00
  5.2304798e-01
  1.7859808e-01
 -2.0535073e-01
  3.2865617e-01
 -2.6202065e-01
  1.0533187e+00
 -8.1665915e-01
 -1.8145105e+00
  1.5559164e+00
  1.9413584e-01
 -5.3299898e-01
  5.0357324e-01
 -1.2477555e-01
 -7.1759805e-02
 -1.9227104e-01
 -6.3636982e-01
  2.8714538e-01
 -5.2489698e-01
  4.8005432e-01
  1.3142826e-01
  1.3169943e-01
  5.4563105e-01
  1.1018854e+00
 -8.0923545e-01
  4.0995124e-01
 -3.2629326e-01
  2.0510104e-01
 -7.0804530e-01
  6.0295634e-02
  2.1930695e-01
  2.5747547e-01
 -1.2070812e-01
 -2.5874284e-01
  1.0725586e-01
  9.9670313e-02
  1.2266958e-01
  2.8319336e-02
 -3.6948722e-02
  4.7626112e-02
  4.3025854e-01
  3.6000285e-01
  6.4353384e-02
 -3.4267232e-01
 -1.2397694e-01
  2.5792992e-01
  1.9828286e-02
  1.1310979e-01
  8.2385994e-02
 -3.5315719e-01
  5.1724121e-02
  1.4800781e-01
 -2.0069915e-01
 -4.4896752e-02
 -3.2855773e-01
  2.7647990e-01
 -9.4522282e-02
 -3.3162660e-03
 -1.2719277e-01
 -7.9067189e-01
  3.2664880e-01
  2.1860460e-02
 -5.1359568e-02
 -3.8795531e-02
 -8.4055054e-01
  2.5458533e-01
 -4.6387069e-02
  9.4131619e-02
 -2.5651744e-01
 -9.7177394e-02
  1.8301375e-01
  1.5184732e-01
  1.6057630e-01
 -1.1382294e-01
  4.9335766e-01
  1.7272472e-01
  1.1124519e-01
  2.0399673e-02
  5.5000177e-03
 -2.2901884e-01
  1.1556451e-01
  4.5292042e-02
  1.3339402e-01
 -5.3215802e-02
 -2.6264870e-01
 -6.8870470e-02
  2.9114995e-02
  3.2744065e-02
  6.8028239e-03
 -5.2194169e-04
 -1.5988817e-02
 -2.8274514e-02
  5.0425533e-02
 -4.9809959e-02
  2.1340527e-02
 -7.3020440e-01
  2.9973644e-01
  1.7156975e-01
 -8.8051385e-01
 -2.1725197e+00
  6.5819003e-02
 -2.0855160e-02
 -1.6189350e-01
 -5.5480342e-02
 -5.2313592e-02
  3.3103555e-01
 -1.9553573e-01
 -6.2896878e-02
 -2.1641749e-01
 -3.6065137e-01
  4.3780093e+00
 -2.6593303e-02
 -1.0812959e-01
 -3.0843335e-01
 -1.3067206e-02
 -3.9277789e-01
 -9.1212109e-02
 -1.1310867e+00
 -7.6163596e-01
 -2.2491789e+00
 -2.0589468e-01
 -5.0082266e-01
 -6.6735470e-01
 -5.8599968e-02
 -1.4986624e-01
  1.0256451e-01
 -2.1350894e+00
 -2.6923227e-01
  1.1782725e-02
 -1.3470265e-01
 -2.2025608e-01
 -7.9806894e-03
 -4.3282023e-01
  1.5253000e-02
 -5.8219032e-03
 -1.5180726e-01
 -7.0760772e-03
  1.8406218e-01
  6.2074155e-01
  1.9859850e-02
 -6.0630359e-02
  7.8898203e-03
 -2.1495249e-03
  2.6581264e-03
 -1.5307674e-01
 -1.8196898e-02
  1.3850925e-03
 -1.4545659e-02
  5.6377329e-02
  8.5648403e-02
 -1.3206190e+00
 -7.4664092e-01
  6.1042184e-01
  3.3332112e-01
  7.3064131e-01
 -6.3916814e-01
 -1.4577875e-01
 -1.4698116e-01
 -8.1323333e-02
  8.1968361e-01
 -6.2658232e-01
 -3.8814023e-01
 -2.3084831e-01
 -5.4546040e-01
  3.7224784e-01
 -4.3675181e-01
 -5.5410113e-02
 -2.6415205e-01
  5.8559173e-01
 -1.4188927e-01
 -6.1344957e-01
 -4.5608279e-01
 -4.2929435e-01
  6.7495793e-01
  3.6871800e-01
 -4.2429936e-01
  2.0117669e-01
 -3.9315897e-01
  3.7274453e-01
  1.6605381e+00
 -7.3098165e-01
 -1.5660220e-01
  3.2446139e-02
 -5.1933479e-01
 -5.9360182e-01
 -2.1494392e-01
 -2.7138013e-01
 -2.3776898e-01
  7.1690418e-02
 -4.1465527e-01
 -3.7581286e-01
 -2.8576067e-01
 -3.2883814e-01
 -4.9322280e-01
 -1.7743143e-01
  1.6207942e-01
 -1.9394597e-01
 -1.1767941e-01
  1.1532836e-01
  1.0711699e-01
 -7.6336525e-02
 -1.5266583e-03
 -5.6574810e-02
 -4.1766293e-02
 -9.8274536e-02
  5.3599387e-01
  1.8467295e+00
  4.9374273e-01
  3.6768551e+00
 -2.3528406e-01
  8.9380905e-02
 -2.3907605e-01
 -4.1150298e-02
  3.0812457e-01
 -1.3454013e-01
 -4.9758617e-02
 -5.7617360e-01
  1.3539670e-01
 -5.6815046e-01
 -4.1802663e-01
  2.8877804e-01
  1.0219827e+00
  4.4098440e-01
  2.4910673e-01
  3.6649052e-02
 -4.3392040e-02
  5.5878752e-01
 -3.3099440e-01
 -8.1667560e-01
 -3.3100602e-01
  9.4586778e-01
 -1.2219450e+00
  2.9354832e-01
  5.4220241e-01
 -1.8379513e+00
  9.6563864e-01
 -7.6451823e-02
  3.9634138e-02
 -5.2076239e-02
  5.5159479e-01
  1.4454432e-02
 -2.3378932e+00
  1.1384073e-01
 -2.2155082e-01
 -5.1684296e-01
  2.9090330e-01
  2.0033550e-01
 -1.1465283e-01
  6.3970583e-03
 -1.3677700e-01
  2.8607047e-01
  2.9267642e-01
 -2.5865719e-02
 -2.6107687e-01
  1.9127789e-01
 -3.9919559e-02
  1.3060889e-01
 -9.4579523e-03
  1.5688163e-01
  1.3524190e-01
  1.4079848e-01
  9.7952895e-02
  5.1700450e-02
 -1.5737399e-01
  5.7431579e-02
  8.5663430e-02
 -5.5215419e-03
 -1.2661314e-02
 -7.4944742e-02
 -2.2284032e-01
  8.8328356e-03
  3.0456493e-02
  5.2972794e-02
  7.5597852e-02
 -9.6877158e-02
  1.0480034e-01
 -4.5102242e-02
  8.3245963e-02
 -1.2341819e-01
 -1.4734355e-01
  1.4379661e-01
  8.8344671e-02
  6.4235777e-03
 -2.6800105e-01
 -1.7932457e-01
  1.4805058e-01
 -3.0824866e-02
  6.9540930e-03
 -6.4251021e-02
 -1.3278383e-01
 -3.8820762e-02
  2.0231260e-02
  4.5044366e-03
  2.1554811e-02
 -1.0739280e-01
  4.2731915e-02
  1.8661555e-02
 -3.6332414e-02
 -3.2753877e-02
  2.5284106e-02
  8.2631998e-02
  6.6383146e-02
 -1.3852264e-02
  7.7439822e-02
 -1.3802385e-01
  4.4683722e-01
  8.3527453e-02
 -4.2796127e-02
 -1.0105891e-01
  4.4826251e-02
  7.8208201e-02
 -2.1267442e-01
  4.5992658e-03
  3.5354212e-02
  4.9277835e-02
 -2.5186056e-01
  1.0882605e+00
 -1.7582117e+00
 -1.7310977e+00
 -4.9740171e+00
  1.0048934e-01
 -1.1652482e+00
 -1.6439927e-01
 -8.1124216e-01
 -5.4608613e-01
 -2.2057414e+00
 -1.4439310e-01
 -7.7512604e-01
  5.1858741e-01
  6.9962615e-01
 -8.6085844e-01
 -1.2649500e+00
  3.7124243e-01
  3.2747075e-01
 -1.3422692e+00
 -1.3931459e-03
 -2.8375385e+00
  1.1046135e+00
  6.0326427e-01
 -2.9008389e-01
  3.3925197e-01
 -1.6071554e+00
  1.7099097e-01
 -6.9494677e-01
 -1.1725503e+00
  7.4730837e-01
 -2.9349403e+00
  9.5469081e-01
  3.8504031e-01
 -2.8120606e+00
 -5.1502454e-01
 -9.0416121e-01
  6.1240435e-02
 -6.2108546e-01
 -1.4833680e+00
  2.8726482e-01
 -1.6030213e+00
 -5.3799182e-01
 -8.7920624e-01
 -1.2797668e+00
  4.3874395e-01
 -2.9921320e-01
 -7.3877528e-02
 -2.3942722e-01
  2.6171190e-01
  5.9775069e-02
 -9.6355699e-02
 -1.4314611e-03
 -1.6561681e-01
 -2.1051863e-01
  4.9403250e-01
  8.4997338e-01
  1.4617182e-01
 -2.5012431e+00
  6.1845601e-01
 -1.3006021e-01
 -1.9290559e-01
 -3.2449506e-02
  3.0554971e-04
  3.2633549e-01
  2.8840745e-02
 -1.7114846e-01
 -1.5458845e-01
  4.4898412e-01
 -2.7173057e-01
 -5.5928629e-02
  6.0316160e-02
  1.1909556e-01
 -9.0316728e-02
  9.9188767e-02
 -1.1195553e-01
 -5.5695486e-01
 -3.4370965e-01
 -7.4245468e-02
  9.4859433e-01
 -9.3645923e-02
 -5.5902559e-01
  2.2678037e-01
 -3.3740845e-01
  6.2345289e-02
  7.8800097e-02
 -7.2638154e-02
  6.0393658e-02
 -3.4618920e-01
  2.4736133e-01
  1.0969078e-01
 -5.2702494e-02
  2.2866036e-01
 -1.8943691e-01
  2.4989342e-02
 -1.7538139e-01
 -5.7726163e-02
  1.0454385e-03
  7.0306711e-02
 -5.5385567e-02
  2.3043426e-02
  3.9634518e-02
 -3.1939264e-02
  4.9210183e-02
 -1.3605289e-01
  2.4945956e-02
 -3.1059632e-02
 -5.1224018e-03
 -8.4440432e-02
 -8.9644536e-02
 -2.5284293e+00
 -3.0660054e-01
 -2.0392039e-01
 -7.7523166e-01
  1.4273328e+00
  1.6584609e+00
  1.2817796e-01
 -1.1932677e+00
  6.6529167e-01
 -2.2709185e-02
 -1.6701964e+00
 -1.0304848e+00
 -1.2230239e+00
  9.3701285e-01
 -1.1450130e+00
 -1.0655905e+00
 -1.3271152e+00
 -3.1213517e+00
  1.2785972e+00
  1.4169823e+00
 -3.9146315e-02
 -7.7362120e-01
  1.6842916e+00
  1.8834405e+00
 -4.7961357e-01
  1.4188491e-01
  6.8467820e-01
  4.7006565e-01
 -1.7408941e+00
  5.3207248e-01
  2.1187339e+00
 -1.6675897e+00
 -1.5655558e-01
  1.0350738e-02
 -1.1702526e+00
  1.2212101e+00
 -1.5987545e+00
 -1.8305418e+00
 -1.6117463e+00
 -2.0689954e-01
  9.0728313e-01
  6.2102452e-02
 -1.2583494e+00
  6.0243040e-01
 -1.7931999e+00
  8.8464791e-01
  2.1115153e+00
  2.1953300e-01
  9.3153733e-01
  3.9341518e-01
  2.2896846e-01
  2.7518815e-01
  1.3518295e+00
  7.9984146e-01
 -1.5390271e+00
 -6.2649512e-01
  1.3298006e+00
  6.1995137e-01
 -3.4082511e-01
 -1.3205281e+00
 -1.1419379e+00
  1.4855199e-01
 -2.1662364e+00
  3.4617212e-01
 -3.1319804e+00
  3.4945172e-01
 -2.3565134e-01
  2.7080181e-01
 -2.2097661e+00
 -3.4222415e-01
 -5.2185827e-01
  8.0543089e-01
  5.7373410e-01
 -3.5452101e-01
  4.7963992e-01
  3.9469302e-01
 -2.7556268e-02
 -2.1064961e+00
  3.1303263e-01
 -1.0771878e+00
  8.7535155e-01
  2.2570205e+00
 -3.5489997e-01
 -2.8371468e-01
 -6.1090326e-01
  5.5451401e-02
  5.2010179e-01
  1.2272013e+00
 -2.1758780e+00
  2.9380333e+00
  1.2299248e-02
  7.6510139e-02
 -1.8248197e+00
  5.8877629e-01
 -6.2666712e+00
 -1.8145285e+00
 -3.0310297e-01
 -8.1123912e-01
 -1.7371536e+00
  3.6586931e-01
  1.6400824e+00
 -5.1725596e-01
 -9.3462241e-01
 -2.2111973e-03
 -1.0444792e-01
 -8.0333608e-01
 -1.0328629e+00
  8.0128658e-01
  9.0221721e-01
  1.6643934e+00
  2.1672814e-01
  2.7204078e-01
  5.2389717e-01
  3.6573046e-01
 -1.3454055e+00
  2.0167997e+00
  1.1760728e-01
  2.5562730e-01
 -3.3515441e-01
  1.9456774e+00
  1.8469646e+00
  7.3109537e-01
  4.3383536e+00
 -2.0197804e+00
  1.2736242e+00
  2.3022203e+00
 -2.2032158e+00
 -2.3009305e-01
  1.6520444e-01
 -1.6053606e+00
 -1.6237742e+00
 -9.8255980e-01
 -1.4398789e+00
  2.0016403e-01
  3.4266174e+00
 -3.6757118e-01
  1.9043360e+00
  5.7939898e-02
 -1.4898369e+00
 -3.1311858e-01
 -2.5771445e-01
 -1.2091278e-01
 -7.0260155e-01
 -1.1809256e-01
 -1.6391395e-01
 -5.5039115e-02
 -1.5913577e-01
 -2.1116050e-01
 -5.9731208e-02
 -3.4593728e-01
 -5.8407046e-02
 -8.1316657e-02
 -2.0447272e-01
  1.5165374e-02
 -1.1097667e-01
 -2.6702243e-01
  2.4107246e-01
 -7.6603830e-02
  3.4032255e-02
  3.1061906e-02
  1.1375077e-01
  9.8847397e-02
  3.0352483e-02
 -1.7260383e-01
  1.4904888e-01
 -1.9948035e-01
  8.6921938e-02
  2.0362288e-02
  1.2017498e-01
 -1.1082014e-01
 -1.6180891e-01
 -1.2560803e-01
 -1.1332259e-01
  5.0828882e-02
 -4.4512488e-02
 -1.9581895e-01
 -1.4975032e-01
  7.6000810e-02
 -1.3309860e-01
 -1.2685765e-01
 -2.3428915e-01
  1.0959801e-01
 -8.5914493e-02
  5.8935560e-02
 -6.1797563e-02
  9.8802060e-02
  1.3688570e-01
 -2.9549858e-02
 -2.2737518e-01
  6.3320674e-02
 -5.6209557e-02
 -4.0710215e-02
 -3.9858297e-02
 -7.2548211e-02
  3.5980802e-02
 -1.1925875e+00
 -2.6302412e+00
  3.3144324e+00
  1.6835018e+00
  1.0188946e+00
  2.3241740e-01
 -4.0480122e-01
  3.2972851e-01
  7.6092952e-01
 -2.4621975e-02
  1.4840055e-01
  1.2044801e+00
  5.7419616e-01
 -1.0732619e+00
  3.9073414e-01
  1.0556989e+00
  1.0796070e+00
  2.2224107e-01
  1.2441081e+00
  5.7687604e-01
  1.3644402e+00
  6.0528392e-01
  4.8452112e-01
 -1.5243827e-01
 -2.2392736e-01
 -5.5139840e-01
  6.2692618e-01
 -1.1789531e-01
 -7.9138827e-01
  2.8961369e-01
 -4.0767488e-01
  9.2237025e-01
  2.7987462e-01
  6.3507980e-01
  4.6867132e-01
  7.8390759e-01
  4.7322598e-01
  4.3562651e-01
  1.8041195e+00
  3.4049538e-01
  4.7869477e-01
  1.0251161e-01
  1.2358091e-01
  8.0644077e-01
  2.3268600e-01
 -7.4154064e-02
 -2.3898022e-01
 -8.4119201e-02
  2.1714316e-01
 -1.5702975e-01
  1.4370647e-02
 -4.1703857e-02
  6.5349541e-03
  3.6590379e-02
 -8.5852258e-02
  3.6361687e+00
 -2.6448783e-01
 -2.6844287e+00
  6.9885474e-01
  1.8782014e+00
  1.8658191e-01
  2.0460580e-01
  2.2477032e-01
  7.7316600e-01
  5.3394973e-01
 -5.1698124e-01
  4.9187523e-01
 -5.5721790e-01
  1.9166073e+00
  2.5572026e-01
  2.4687033e-03
  5.1401138e-01
  9.3158221e-01
 -1.0766382e+00
  3.0743247e-01
 -6.4369881e-01
  4.1869676e-01
  1.3744622e+00
  6.5848655e-01
  7.3102498e-01
 -2.5926799e-01
  1.0982276e+00
  2.7719435e-01
  2.9716933e-01
  3.2108113e-01
  8.8936485e-02
  3.3284935e-01
  5.7828349e-01
  7.1035855e-02
  2.6241493e-01
  3.7380388e-01
 -1.6594015e-01
  3.5649020e-02
  1.0721356e+00
 -8.0473185e-02
  1.0104028e-02
 -2.7910936e-01
  1.0809441e-02
 -1.4038992e+00
  3.6603250e-02
  4.9759502e+00
 -3.6591089e-01
 -9.6963778e-02
  4.5892143e-01
  4.9683917e-02
  1.1220087e-02
  3.3684749e-02
  5.6699183e-02
 -1.7340731e-02
  3.9447516e-02
  7.1404254e-01
 -1.7293594e+00
 -1.9923862e+00
  1.3143408e+00
 -1.0746745e+00
 -3.6138654e-02
 -1.9775406e-01
 -1.4985777e-01
  3.9037567e-02
 -1.0258517e-01
 -6.3492581e-03
 -6.3021563e-02
 -3.3677745e-01
 -1.1301887e-02
 -6.5756597e-02
 -3.1702206e-01
  3.2333520e-01
  6.3921809e-02
  2.9773718e-01
  2.4763770e-01
 -1.4573132e-01
  2.7469987e-01
 -4.4981498e-02
 -1.0968520e-01
  3.9291441e-01
 -2.1602163e-01
  1.2120945e-02
 -6.4304888e-02
 -4.8065167e-02
 -6.7181855e-02
 -2.1904998e-01
 -1.1156984e-01
 -4.7854789e-02
  6.9031402e-02
 -5.5988327e-02
 -1.9354884e-01
 -1.9557936e-01
  8.7108195e-02
 -1.0699120e-01
 -7.6326028e-02
 -3.4394103e-01
 -5.8962740e-02
 -4.2054322e-02
 -1.1573892e-01
 -8.0456197e-02
  3.8633771e-02
  3.6954898e-02
 -9.3502022e-02
 -2.2143182e-01
  8.1237465e-02
  1.7845510e-02
 -1.7573757e-02
 -1.6315822e-02
  4.6661336e-02
  2.5426753e-02
 -4.0741715e+00
 -4.9021783e+00
 -2.1952734e+00
 -4.6184003e-02
  7.2564048e-01
  4.3066210e-01
 -3.7591390e-02
 -7.0209193e-01
 -1.3297410e+00
 -1.4435868e+00
 -1.6414360e+00
 -7.2063901e-02
  1.0031790e+00
  4.2399421e-01
 -6.5782666e-02
  4.3772221e-01
  1.1885698e+00
 -2.0917144e+00
  1.0605798e+00
 -6.5170896e-01
 -3.6642975e-01
 -2.0059152e+00
  7.8473514e-01
  4.6701139e-01
  8.2144761e-01
  1.5428239e+00
  6.3387257e-01
 -1.9832813e+00
 -2.5786684e+00
  8.0080789e-01
  1.2332956e-01
 -1.1413889e+00
 -1.1318494e+00
 -1.1549350e-01
 -8.7301224e-02
 -3.9098435e-03
  1.0552708e+00
  1.0636545e-01
 -5.0727016e-01
  1.6659451e+00
 -1.9192796e-02
  2.4586190e-01
 -4.3117431e-01
  1.4112684e+00
 -9.0414681e-02
 -2.7042013e-01
  4.8987767e-01
  2.5690132e-01
 -3.4335247e-01
 -9.9255346e-02
 -7.8089766e-02
 -7.1813956e-02
 -2.3682648e-02
 -2.7022868e-02
 -4.9825958e-03
  2.5014694e+00
  5.1740789e+00
  4.0923152e+00
 -1.2148771e+00
  1.9479445e+00
  9.4414365e-01
 -5.1704484e-01
 -6.2360048e-01
 -5.4681329e-03
 -2.2595581e-01
 -1.9222052e+00
 -8.3111888e-01
  1.1516373e+00
  5.1961005e-01
 -6.0725951e-01
  1.1883037e+00
 -8.0749238e-01
 -9.8399180e-01
 -2.8043711e+00
 -1.5661082e+00
  1.3368329e+00
 -1.2294987e+00
 -1.4374204e+00
 -6.3059855e-01
 -1.0129632e+00
  7.5205481e-01
  6.3377701e-02
 -8.7102009e-03
 -1.6397593e+00
 -5.8074659e-01
 -1.3147494e+00
 -1.1764660e+00
  4.3396214e-01
 -5.7075715e-01
 -1.5258843e+00
  7.8623730e-01
 -1.5645903e-01
  5.5599290e-01
 -1.6192223e+00
  2.9879954e+00
  6.1346608e-01
 -7.7098346e-01
  2.3960179e-01
 -5.2085245e-01
 -4.0459892e-01
 -1.4387847e-01
  8.8593519e-01
  1.8371652e-01
  1.4898436e-01
 -4.7789183e-02
  2.0613363e-02
 -1.5290055e-02
  7.1400488e-03
 -4.0256027e-02
  6.2777676e-02
 -2.4388780e-01
  4.6854398e-01
 -4.9210839e-02
 -1.3098569e-01
 -3.4946242e-01
 -2.5882401e-02
 -4.1705925e-02
  2.7246496e-03
 -4.3203565e-03
 -9.7588204e-02
  2.1767961e-02
 -3.7098713e-02
 -4.6202123e-02
 -4.8854049e-02
  4.3688830e-02
 -1.7202099e-01
  3.3851009e-02
  4.9164828e-02
 -1.0338138e-01
  5.9809871e-02
  5.0640598e-02
  1.2704343e-01
 -5.3537615e-02
 -4.9105033e-02
 -2.4784431e-03
 -3.8670998e-02
  1.2927019e-02
  1.6790579e-01
  1.3673045e-01
  2.8481191e-02
 -9.8324209e-02
 -4.0463176e-02
 -1.7478961e-01
 -4.9584571e-02
 -3.8791697e-02
 -6.8004772e-02
 -5.5845984e-04
  3.2539308e-02
 -1.2466540e-02
  2.8932288e-02
 -4.2838763e-02
  6.1837390e-02
  3.3915717e-02
  8.1737839e-02
  2.6099913e-02
 -4.5477305e-02
  4.4015404e-02
 -4.7913892e-03
 -9.2101917e-02
  1.1056106e-01
  5.5812892e-02
  5.5344939e-02
 -1.3156327e-02
  3.7298586e-02
 -8.5684163e-03
 -1.0974390e-01
  1.0769466e-01
 -8.1418401e-01
 -1.1425375e+00
 -7.6149988e-01
 -1.7297401e-01
 -2.8610450e-01
 -3.4558812e-01
 -3.4932828e-01
 -3.9750838e-01
  2.3271577e-01
 -2.7754292e-01
 -4.2307356e-01
  3.6457002e-02
 -5.5553321e-02
 -1.5634814e-01
 -4.6668299e-02
  6.1056871e-02
  2.6132002e-01
 -5.4544610e-01
 -1.8717101e+00
 -2.5372365e-01
 -7.3414761e-01
 -8.9575559e-01
  3.6162582e-01
 -9.4656490e-02
 -7.5105119e-01
  1.2322507e-01
 -3.4009221e-01
 -5.5542511e-01
 -1.2790957e-01
 -2.3469034e-01
 -9.3553606e-03
  1.0702152e+00
 -1.5700658e-01
 -4.6186873e-01
 -1.9571616e-01
 -3.8126242e-01
 -1.2723962e+00
 -3.5700381e-01
 -5.5161345e-01
  3.9292183e-02
  7.2677577e-01
 -2.4746683e-01
 -3.0742174e-01
 -1.1303110e-02
  1.9698074e-01
  1.3577553e-02
 -3.2065260e-01
  1.9652511e-01
 -6.6952214e-02
  5.3476742e-03
  1.0334261e-02
  6.5196164e-02
  2.2924708e-02
  1.2880163e+00
 -1.4292619e+00
 -5.6767100e-01
 -1.3127317e-01
 -1.2835696e+00
  1.5012862e-02
  1.0767903e+00
  3.2653257e-01
  2.2457145e-01
  5.6166500e-01
  3.6390594e-01
 -8.9677030e-01
  3.8794813e-01
  2.2641379e-01
  4.9105203e-01
 -1.5682039e-01
  4.0357642e+00
  2.1454130e-01
 -2.0103352e+00
  2.6561514e-01
 -7.1187633e-01
  8.8543022e-01
 -2.7697787e-01
  1.7794293e+00
  1.1577373e+00
  5.6223726e-01
  1.7044575e+00
  6.0195053e-01
 -5.9865427e-01
  2.3833634e-01
 -1.7746222e-01
  4.2218366e-01
  4.2410842e-01
 -7.2971344e-02
  1.1833053e-01
 -2.0227788e-01
  4.9736500e-01
 -4.6277264e-01
 -5.0232440e-01
  8.7610352e-01
  2.1512194e-01
  1.1401345e-01
  5.5419087e-01
  1.1449683e+00
 -3.3794844e-01
 -5.8802380e-03
 -4.9821010e-01
  2.9440054e-01
  3.8356015e-01
 -2.9478046e-01
 -1.5442175e-02
  1.1704247e+00
  1.1391090e-01
 -7.4387483e-02
 -1.0918360e-01
 -8.5837758e-01
  2.9461750e-01
 -3.5765359e-01
  2.5478202e-01
  1.5130907e+00
 -9.8771766e-02
 -1.7296569e-01
 -7.3951989e-02
 -5.0190721e-02
 -1.6539024e-01
 -1.8237418e-01
  2.8579619e-02
 -6.4617775e-02
  1.8926145e-01
 -2.4552211e-02
 -1.4081211e-01
  6.3803099e-02
 -1.9800371e-02
  2.6222700e-01
  3.4799212e-01
  5.9312616e-02
  1.5718806e-01
 -2.0290038e-01
  1.1099190e-03
  1.9904388e-01
 -2.4297498e-01
 -1.8591021e-01
  9.1480151e-02
  5.3118986e-01
 -8.0131747e-02
 -2.7391817e-02
 -4.8833922e-01
 -4.7181845e-03
  1.3041858e-01
 -1.1549694e-02
 -1.1303348e-01
  2.2130055e-02
  1.5063751e-01
  1.2267520e-01
  1.0153192e-01
 -2.2463694e-01
  1.2924709e-02
 -2.2333337e-02
  5.4305330e-02
 -9.8571344e-04
 -2.4468562e-02
  9.2161134e-02
  6.3757852e-02
 -2.3940440e-01
 -4.9863942e-02
 -2.5872223e-03
  3.0161846e-02
  5.9250012e-02
 -4.2993110e-02
 -1.6625194e-02
 -8.7665385e-01
  1.1113678e+00
  4.3106335e-01
  3.8096109e-01
  2.5041327e+00
  6.4164424e-01
  1.4322342e+00
  1.9273062e-01
  8.0915546e-01
  4.6412733e-01
 -3.9339215e-01
  1.2751088e+00
  9.9091005e-01
  3.1503010e-01
  9.0107000e-01
  2.1459775e+00
  1.7650526e+00
  1.2259277e+00
 -1.3210662e-01
  3.5536703e-01
  1.1929823e+00
  1.3242199e+00
 -5.1522952e-01
 -2.3038731e+00
 -1.0525683e+00
  1.3518237e+00
  2.2038560e+00
  1.3615874e+00
 -1.4473639e+00
  9.8764676e-01
  4.2676410e-01
  1.2489430e+00
 -1.4398834e-01
 -1.9543147e-02
 -8.0055393e-02
  4.1848096e-01
  5.8295339e-01
 -5.2915698e-01
  1.3662529e+00
  6.4651614e-01
  6.3089705e-01
 -2.1194543e-01
  2.0751981e-02
  7.6820534e-01
  4.0976036e-01
  1.5252085e-01
 -8.8654238e-01
  6.5672554e-02
  9.8878014e-01
 -1.2939548e-01
 -1.6177700e+00
 -3.4043086e-03
  3.8936380e-02
  9.6654750e-02
  2.5923965e-02
  2.1837742e+00
  2.4374163e-01
 -3.6870256e-01
 -8.8716555e-01
  7.7785373e-01
 -2.2431377e-02
  7.6082639e-02
 -4.1519608e-02
  4.1538408e-01
  2.0854720e-01
 -2.0699859e-02
 -2.9010737e-01
 -6.2167216e-02
 -6.3944423e-01
 -4.3694407e-01
 -2.4334900e-01
 -2.1647696e-01
  4.4659075e-01
 -7.5570869e-01
 -3.7095240e-01
 -5.1338828e-01
 -3.3663458e-01
  9.9818870e-02
 -6.0638535e-01
 -1.5074044e-01
 -6.6452891e-02
 -1.4502904e-01
 -1.6185875e-01
 -6.4351743e-01
 -2.7521107e-01
 -2.9297709e-01
 -4.8267771e-02
  1.1772208e-02
 -1.8067801e+00
 -2.8369164e-01
 -1.3446721e-01
  5.7045132e-02
 -2.7104793e-03
 -1.9932857e-01
 -1.0442632e-01
  9.5934123e-02
 -2.6465310e-02
  1.5311013e-01
 -9.0522587e-02
 -1.4404275e-01
  1.1231990e-02
 -1.4939550e-01
  9.0489713e-03
  6.5251082e-02
 -1.0175991e-02
 -5.8429077e-02
  5.6710966e-02
 -2.3280213e-02
 -1.1740246e-01
  7.7640280e-02
  7.1524245e-01
 -1.0985022e+00
  2.6955752e+00
  1.0353161e+00
 -1.4215493e+00
  2.9102832e-01
  8.5627638e-02
 -7.7218598e-01
 -1.7266892e-01
  3.9925855e-01
  4.7483987e-01
  9.9221326e-02
 -5.2315205e-01
  1.1830690e-01
 -1.9238251e-01
  2.7560651e-01
  8.3229530e-01
 -6.9692709e-02
  1.3531144e+00
  6.1596596e-01
  6.4407039e-01
  4.7486019e-01
 -7.2220899e-02
 -1.3140966e+00
  7.5697547e-01
  1.4079417e-01
  6.8448490e-01
  4.4765988e-01
 -3.6304753e-02
  2.2566032e-01
  1.0287306e-02
 -4.4932479e-01
  1.4899001e-03
  7.6695949e-01
 -7.7759281e-02
  9.7681917e-02
 -2.7620891e-01
  2.9726708e-01
  2.7665460e-01
  2.0408228e-01
  2.7738950e-01
  1.3464092e-01
  7.1240231e-02
  3.7084031e-01
  6.8596892e-02
  1.4611186e-01
  5.5214647e-02
 -9.9733762e-02
 -4.3000072e-02
  2.0070650e-01
  1.2620235e-02
  4.0970076e-02
 -9.6364804e-02
 -9.6134655e-02
 -7.6215558e-02
 -3.4753320e-01
  2.5984879e+00
 -2.2516668e+00
 -1.7863869e-03
  2.6553257e+00
  1.7294037e-01
 -5.6317788e-01
 -4.0910855e-01
 -1.2798345e+00
 -2.3720758e-01
 -8.4940207e-01
 -6.0890985e-01
  1.1025678e+00
  1.1313322e+00
  4.2100602e-01
  2.7376645e+00
 -9.3015867e-01
 -1.0052822e+00
  4.0400105e+00
 -6.2021273e-01
  1.1592968e+00
 -1.3743830e+00
  4.6292524e+00
 -4.5501437e+00
 -4.1383955e-01
 -1.5237297e+00
  2.4581142e-01
  4.1836873e-01
 -9.1067725e-01
 -9.1323894e-01
 -7.6609328e-02
  4.5724493e-01
  6.7308080e-01
  1.6282398e+00
  9.5388192e-01
 -1.0892968e+00
 -3.0452693e-01
 -6.5486217e-01
  3.3600891e-01
  3.7286052e-01
  8.0987144e-01
  4.6291366e-01
 -5.9538978e-01
  3.7563419e+00
  2.6381129e-01
 -6.1977178e-01
  4.0524825e-01
 -1.9565992e-02
 -1.0329129e+00
  1.0007564e-01
 -3.1352524e-02
 -1.1018866e-01
 -2.8913710e-02
  3.1139005e-02
  4.4354632e-02
  4.3797359e+00
 -4.1146293e+00
 -1.6229396e+00
  2.6137340e+00
  1.1288078e+00
 -3.1684241e-01
 -3.4505764e-01
  2.4186989e-02
 -1.9053461e-01
 -3.2835798e-03
  7.8524154e-01
  6.4817339e-01
  6.0653532e-01
 -9.6767581e-01
 -4.6832284e-01
  1.1125132e-01
 -1.4406782e+00
 -1.7951049e-01
 -2.2397106e+00
 -1.6996157e-01
 -6.9428861e-01
  2.6468337e+00
  8.5066092e-01
 -1.1176295e+00
 -3.5044521e-01
 -1.4920217e+00
 -2.3643084e+00
  3.5415193e-01
 -1.9927892e-01
 -1.0710624e+00
 -8.6813360e-01
  9.9311727e-01
  1.8999562e-01
 -8.6018741e-01
 -3.6932883e-01
 -9.8616797e-01
 -9.8042500e-01
  6.2440068e-02
 -1.2961267e+00
 -1.1000223e-01
  4.2358252e-01
 -2.4082225e-02
  9.2252403e-01
  2.1718146e-01
 -2.4469478e-01
  1.5268986e-01
 -3.2994717e-01
  4.6853103e-02
 -7.0548174e-03
  1.9170831e-01
  8.5276477e-02
  4.6809494e-02
 -1.2171187e-02
  6.8216570e-02
 -5.5764213e-02
  3.3494648e-01
 -8.7495464e-01
 -5.5880588e-01
  1.0612516e+00
 -3.4836881e-02
 -2.8847938e-02
  2.6448011e-01
  1.5103127e-01
 -2.5423564e-02
  1.6804497e-01
 -3.3911698e-02
  3.5994027e-02
 -5.9042282e-02
  2.4509752e-01
 -6.1162710e-02
 -1.8327464e-01
 -4.6765551e-01
 -2.3476304e-01
 -6.5005010e-01
  5.9630238e-02
 -1.0978016e-01
  5.9178853e-01
 -3.8706300e-01
  1.3055537e+00
 -1.6610289e-02
 -1.3334870e-01
 -8.9516217e-01
 -2.2434539e-01
 -4.0359393e-01
 -7.9787467e-03
 -1.1231442e-01
 -4.1966531e-02
  1.4096980e-01
 -5.3044671e-01
  3.3867860e-01
 -4.5522801e-03
 -8.3133668e-02
  8.7724514e-02
  2.2635344e-01
  2.5046717e-03
  1.5997162e-01
  6.5605783e-01
  2.8890231e-01
 -1.8141422e-01
 -6.2251505e-02
 -7.5564548e-02
 -2.4214496e-01
 -2.5262881e-02
  2.8177288e-01
  5.4925662e-03
  5.5008568e-02
  1.8152104e-01
  8.7233512e-03
 -1.0246295e-01
  3.7607256e-02
  8.9620656e-01
  4.6285200e+00
  1.5979370e+00
  4.0200620e+00
 -7.6266475e+00
 -3.7131688e-01
  1.5872547e-01
  1.0124369e-02
  4.2963222e-01
  8.6485252e-02
 -5.6658232e-01
  3.6034855e-01
 -1.3557060e-02
  7.7027148e-01
  4.0894028e-02
 -9.1992605e-01
 -1.0671252e-01
 -5.3352967e-02
  1.1115066e+00
 -1.2981078e-03
 -1.0301228e+00
  1.9350634e+00
 -7.2966821e-02
  1.6821736e+00
 -2.2174409e-01
 -7.8317600e-01
  1.7269932e+00
 -9.9919640e-02
  2.1875141e+00
 -1.6660234e-01
 -6.0441738e-01
 -4.9130243e-01
  2.6896195e-02
  5.9170902e-01
  3.3549890e-02
 -4.0123963e-01
 -2.3717337e+00
 -5.0963771e-02
  6.1825407e-01
 -5.9865676e-02
 -4.9908617e-01
 -6.7247981e-01
 -2.9476814e-03
  3.4834018e-01
 -3.7879054e-02
 -9.3499366e-03
  1.9977324e-01
  2.1525152e-02
 -6.5840036e-02
  7.9497823e-04
 -7.4296524e-03
  8.5127661e-03
  6.0714539e-02
 -7.1467143e-03
  5.6976326e-02
 -1.7590953e+00
 -6.7036825e-01
  2.7007947e+00
  8.9262962e-01
  6.2656754e-01
  3.3390164e-02
  1.1315122e-01
 -2.0041727e-01
 -1.9192514e-01
 -2.9376136e-02
  5.2626941e-02
 -4.3265596e-02
 -3.8470931e-02
  2.9114556e-01
  1.4529051e-01
  5.2410781e-01
  2.4504744e-01
 -1.6981745e-01
  2.3674914e-01
  9.9407822e-02
  2.8080124e-01
  6.5441704e-01
  1.3053301e-01
  2.3645289e+00
  6.9828290e-01
 -9.7524181e-02
 -6.5739110e-02
  1.1286777e-01
 -1.2102444e+00
  5.4670041e-03
  5.4610085e-01
  1.1949001e-01
  1.3815947e-01
 -3.3998467e-02
  4.1924506e-01
 -1.1111790e-01
 -1.3000630e-01
  9.7184241e-01
 -2.4794298e-01
 -2.6410016e-01
 -4.5408163e-02
  1.0930881e-01
 -1.3107058e-01
  6.9394809e-01
  4.1829595e-01
  2.2942176e-02
  5.6335848e-02
  3.2328539e-02
 -6.0813889e-02
  4.7686575e-03
  7.6682121e-02
  1.0953923e-02
  6.5863378e-02
  5.2483734e-02
  2.8490046e-02
  3.2138124e-01
  2.3906248e-02
 -2.5829014e-01
  2.4492772e-01
 -6.3380256e-02
  1.3496465e-02
 -1.9934048e-01
 -7.3816605e-02
  2.3482013e-01
 -8.5204288e-02
 -2.9794345e-02
 -1.0917924e-01
 -4.9528860e-02
 -1.9767037e-01
 -9.6416980e-02
 -2.4136937e-01
  4.2591516e-02
 -5.2888863e-02
 -1.7562500e-01
  5.7937216e-02
 -1.0214347e-02
 -5.9341013e-02
 -5.9461698e-02
 -5.2851689e-01
  8.2321158e-03
 -1.0224589e-01
  2.9483596e-02
  8.9150175e-02
  2.1187109e-01
 -1.1383133e-01
 -2.4278940e-01
 -6.1225161e-02
 -7.1659081e-02
 -2.1594112e-01
 -5.5672783e-02
 -7.5685263e-02
 -1.0238992e-01
  3.9169222e-02
  1.8019052e-02
 -5.2944269e-02
  5.2268270e-02
  1.1578739e-01
 -4.7794349e-02
 -3.3182025e-02
 -7.6497585e-02
 -7.7250265e-03
  3.2454342e-02
  2.8303344e-02
 -1.9818200e-01
  5.9035577e-02
  4.3817483e-02
 -3.4588825e-02
  1.3970409e-02
  8.6131081e-02
  2.1347772e-02
 -5.4961395e-01
 -1.6901402e+00
 -3.5580230e+00
  7.3150419e-02
  4.4185081e-01
 -1.6124606e-01
  1.0510582e-01
 -2.4613307e-01
  1.3261105e-01
  5.8907613e-02
  3.3150634e-01
 -7.7588029e-02
 -5.7771072e-02
 -4.3507907e-01
 -2.0091971e-02
  1.1391328e-01
  6.1394191e-01
  1.2431365e-01
  8.1537825e-01
 -1.4370751e-01
 -2.5710189e-01
 -3.0496195e-01
  6.2192488e-01
 -3.5603110e-02
  4.0784058e-01
  6.1775435e-02
 -3.3924156e-01
  2.1787675e-02
  1.9693343e-01
  1.9766746e-02
 -1.9884893e-01
 -1.2445708e-02
  9.3807004e-02
  2.9330125e-01
 -1.3914080e-01
 -6.6739231e-02
 -5.6583237e-02
 -1.4005318e-01
  1.4130353e+00
 -2.3135833e-01
  3.6314044e-02
  3.3509068e-02
  3.7476116e-01
 -3.5497397e-01
 -1.1446361e-01
  7.3460072e-02
 -3.5795245e-01
 -1.1398364e-02
 -4.8854011e-03
  2.3977220e-02
 -4.6402223e-02
  2.0311927e-02
 -1.9920837e-02
 -6.9879495e-02
 -4.9742296e-02
  2.9469819e+00
 -1.2437468e+00
 -1.6799161e+00
 -3.4522527e-01
 -3.1568077e+00
  4.6525389e-01
 -8.3247101e-01
  9.0671830e-02
  4.6747766e-02
 -6.8740673e-02
 -3.2834521e-01
  1.1529615e+00
  4.3146528e-02
 -1.8389899e-01
 -8.1524938e-02
  8.7079853e-01
  3.9834030e+00
 -7.6807916e-01
  6.9676262e-01
 -1.1700857e+00
  1.1747240e+00
 -3.1577406e+00
  1.7912613e+00
  3.2988769e-01
 -2.1491437e+00
  1.2176341e+00
 -3.0030313e-01
 -8.9839119e-01
 -1.9096959e+00
  2.9875991e-01
  6.0657996e-01
  3.9828900e-01
  8.4080333e-01
  9.7655421e-01
  1.0467701e+00
 -3.0591193e-01
 -8.6457312e-01
 -8.6439264e-01
  8.6664826e-02
 -7.3726213e-01
  7.3060930e-01
 -1.7485130e-01
  4.3337801e-01
 -8.6890131e-01
 -2.4997848e-01
 -1.6301461e-01
  1.4470573e-01
 -8.6161569e-02
 -1.7199598e-01
  8.0966726e-02
 -5.5253194e-03
  3.4523457e-03
 -3.5032589e-02
 -5.1187944e-02
  5.9644364e-02
 -1.2043947e+00
  1.4685360e+00
  1.0205685e+00
 -3.8725570e-01
  1.8493073e+00
 -7.5276293e-02
  4.3858284e-01
  5.7652479e-01
 -2.0655870e-01
  3.0994642e-01
 -1.6451968e-02
  2.8722247e-01
 -9.8697171e-02
 -7.5262564e-01
  4.8523571e-02
 -3.4361428e-01
  3.8779533e-01
  1.1224443e+00
  1.3802874e+00
 -9.3643719e-01
  5.5597883e-01
  1.5995842e+00
 -5.2567875e-01
 -8.5566413e-01
  1.1558164e+00
 -7.1638590e-01
 -3.1893563e-01
 -1.1231601e+00
 -2.1080289e+00
 -5.3568590e-01
  1.0122639e+00
  4.0092316e-01
  1.5359630e-01
 -5.4207432e-01
  2.5364909e-01
 -3.8023272e-01
  4.1966763e-01
 -2.9493245e-01
 -9.7567683e-01
 -2.8516848e-03
  1.1289063e-01
  3.2616130e-01
  7.5341170e-03
 -3.3258017e-02
 -3.2059187e-01
  6.3926794e-02
  3.6208130e-02
 -3.0112064e-02
  4.8494771e-01
 -3.5149843e-02
 -4.3950062e-03
  8.8793755e-02
  7.4574158e-02
  9.1816731e-02
  6.7546599e-02
  1.9969578e-01
  1.2610389e+00
  1.3729348e+00
  2.8692293e-01
  2.0421679e+00
  2.5582618e-01
  1.1205493e-01
  1.2670525e-02
  2.3201318e-01
 -1.4915120e-02
  1.0143133e-01
  4.8625533e-02
  3.1639495e-01
  9.3427980e-01
  1.2509304e-01
  2.6565784e-01
  2.9143887e-02
  7.3138125e-02
  1.1975629e-02
  2.1490125e-01
  5.2953637e-01
 -1.3214694e-01
  1.3124819e-01
  3.6051708e-01
 -2.8746900e-01
  3.1371093e-01
  5.7761031e-01
  1.7343481e-01
 -2.3502316e-02
  3.4795403e-01
  4.0207170e-02
  2.3102665e-01
  1.2755707e-01
 -4.2172292e-01
  1.1208790e-01
  3.2306439e-01
  8.8425860e-02
 -3.9196037e-02
  6.9376433e-01
  4.1970691e-01
  4.6949735e-01
 -7.1088783e-02
  2.1827780e-01
  5.7655025e-02
  2.9614531e-02
 -3.3542488e-02
 -1.1459997e+00
 -9.6601054e-02
  2.8423956e-01
 -1.3836244e-01
 -5.1186717e-01
  3.6882669e-02
  5.3691827e-02
  6.8848841e-02
 -2.9831914e-02
 -1.9634941e+00
  2.0942013e+00
 -5.3886896e-01
  7.9813188e-01
 -5.6641912e-01
 -6.4038134e-01
  2.2633381e+00
  7.5879353e-01
  9.3874291e-02
  5.2705115e-01
  9.9777840e-02
  5.1476550e-01
  3.3672690e-01
 -1.1488932e+00
  1.7002335e+00
 -6.9134873e-01
 -2.9012487e+00
  7.2891849e-01
 -1.3492124e+00
  4.8211882e-01
  3.6610878e-01
  1.8719319e+00
  3.3788726e+00
 -1.9514828e+00
  1.5609657e+00
  1.4143038e+00
  2.4976668e+00
 -2.8359720e-01
 -1.5324459e+00
 -8.4965110e-01
  3.0470353e-01
  9.9381560e-01
  1.5558769e+00
 -1.1467454e+00
 -6.9967127e-01
 -5.9604222e-01
  6.7498022e-01
  8.3295703e-01
 -4.9247399e-01
  9.6205181e-01
  4.4801185e-01
  6.3443303e-01
 -1.6091859e-01
 -1.3375176e+00
 -4.7052447e-02
  2.9159528e-01
 -1.0063019e-01
  1.7550790e-01
  5.8374089e-01
 -8.1642091e-02
  1.5075847e-02
  2.2292376e-02
  9.6859382e-03
  1.5105972e-01
  5.9465807e-02
 -4.3253165e-01
  4.9481630e-01
 -1.6243230e+00
  6.0604483e-01
 -1.2702724e-01
 -1.4296199e-01
  3.8610962e-01
  1.2613378e-01
  1.6204767e-01
  1.6041608e-01
  2.9799992e-01
 -1.5897568e-01
 -1.6731852e-01
 -4.9136153e-01
 -9.6786909e-02
 -9.5176119e-03
  6.7903936e-01
  1.3738513e-01
  1.3587078e+00
 -1.2076485e-01
 -2.9717645e-01
 -3.5163844e-01
  3.3214065e-01
  1.2282796e+00
  4.3152326e-01
 -6.4725965e-02
  2.6529637e-01
 -2.5632513e-01
  4.0909189e-01
 -7.8223862e-02
  1.8368226e-01
 -1.0826270e-01
  1.6614148e-01
  1.4585782e+00
 -1.8767254e-01
  1.4267042e-01
  3.2471490e-01
 -8.3979085e-02
 -8.1125098e-01
  1.1245488e-01
  2.4259569e-01
  5.5579875e-02
  1.4165162e-01
  3.7584648e-02
 -1.1341589e-01
  1.4074248e-01
 -8.0210216e-02
 -1.2354444e-02
  1.8155856e-01
 -9.4794966e-02
  1.2726213e-03
 -1.4798715e-02
 -1.0660138e-02
  8.9194715e-02
  3.0763173e-02
  7.9217023e-01
 -4.7758551e+00
 -2.8842623e+00
 -3.2771835e+00
 -2.9553518e+00
  4.7702670e-02
  1.0200857e-01
 -8.3813399e-02
 -1.1359191e-01
  3.9377910e-01
  5.1247524e-03
 -1.2767002e-01
 -1.0655456e+00
 -2.0325792e+00
 -3.4683689e-01
 -9.0889734e-01
  1.1435715e+00
 -6.1997366e-01
 -2.6726010e-01
  6.9845158e-01
 -7.2317237e-01
  1.1200311e+00
 -3.9564812e-01
  2.9144375e+00
  1.1931223e+00
 -7.3911384e-02
  4.0865070e-01
  2.1837819e-01
  5.2643740e-01
  9.2014618e-02
 -2.0798182e-01
 -8.2045823e-01
 -8.4094679e-01
 -1.1912270e+00
 -1.3436054e-01
 -7.3696047e-01
 -6.7233229e-01
  3.4565791e-01
 -6.7952633e-01
 -1.5332399e-01
 -1.7011237e-01
  2.6365945e-01
 -2.9827911e-01
 -1.7146165e+00
 -6.2523015e-02
  1.5044753e-01
  1.0612020e-02
  4.4281099e-02
 -3.6547551e-01
  3.5549322e-01
 -4.6553820e-02
 -8.1083760e-02
 -9.6149594e-02
 -3.7734687e-02
  4.4197321e-04
 -1.0754552e+00
 -1.6013927e+00
  1.8321362e-01
 -3.4069143e-02
  1.9382333e+00
 -1.5306287e-01
 -3.5382718e-02
 -3.3049375e-02
 -1.2633468e-01
 -3.8675502e-02
 -1.8325579e-01
  6.4698821e-01
  2.8652655e-02
  2.8773126e-01
  4.1727744e-02
 -2.0730945e-01
 -6.8104483e-02
  1.5981618e-01
  2.0633149e-01
  2.2569294e-01
 -2.0062786e-01
 -1.6588397e-01
  1.7543812e-01
  3.2500851e-01
  5.0965762e-03
  4.8231237e-02
 -3.2180274e-01
 -1.6683744e-01
  7.3905778e-01
  4.4177376e-02
  2.3327857e-02
 -1.8648510e-01
 -1.4142956e-01
  3.1668201e-01
  1.1188562e-01
 -1.0375028e-01
 -6.2493041e-02
  1.5378138e-01
  3.5295470e-03
  1.8516071e-01
 -2.6707286e-01
  4.6392664e-02
 -9.1525912e-02
  4.4266079e-03
 -1.7569740e-01
 -1.6991781e-02
  9.9778324e-02
  6.8567321e-02
 -5.0088316e-02
 -2.5204548e-03
 -6.2357303e-02
 -6.5224476e-02
  3.2261238e-02
  5.0173205e-01
  7.4163847e-02
 -3.0542786e+00
 -4.5687935e-01
  1.9396610e+00
  1.8472536e-01
  6.9539201e-01
  5.7462100e-03
 -2.1524799e-01
  3.0460426e-01
  2.1061037e-01
 -6.8373606e-03
  1.2536038e-01
  1.1385028e-01
  1.3259740e-01
 -2.5174534e-01
  1.4613111e-01
 -1.3696140e-01
 -4.2405790e-01
 -6.0066588e-02
 -3.9342850e-02
 -4.3345964e-01
 -3.3923516e-03
  2.6021680e-01
  2.7408793e-03
 -5.2724928e-02
  2.6815189e-02
  2.4366608e-01
 -2.3664789e-01
  2.6841995e-01
  1.1227834e+00
  6.7213811e-02
 -3.0084690e-01
 -6.7108949e-03
  7.2775096e-02
 -1.4092156e-01
 -1.5487184e-01
  7.4605025e-02
  2.9932892e-02
  1.2782063e-01
 -1.6997916e-01
 -1.5573936e-04
  1.7403083e-01
  6.8076111e-02
  8.1380725e-02
  2.9755971e-01
  1.2346456e-01
 -5.1844407e-02
 -8.4167093e-02
 -5.0693437e-02
  1.2924890e-01
 -2.1106074e-02
 -8.7586775e-02
 -5.4730229e-02
  4.1483205e-02
  2.3775166e-02
  6.3286752e-02
 -2.3841083e+00
  6.5941417e-01
  1.2811002e+00
 -2.2692230e+00
  2.3565041e-03
 -4.0026087e-01
  5.9046638e-01
 -9.5540173e-02
 -4.8641032e-01
 -1.8193284e+00
  1.0589308e-02
  6.8579221e-01
  2.9098574e-02
  1.6963072e+00
  1.0067749e+00
  1.7355479e-01
 -2.8977702e+00
  5.1245028e-01
 -3.2422978e-01
  9.9794400e-01
  1.0906864e+00
 -1.2250253e-01
 -4.8692107e-01
  2.2869831e-01
  1.2146763e+00
 -1.3870089e+00
  2.9698110e+00
 -1.9783801e-01
  1.2978613e+00
  3.5752800e-01
 -3.7313575e-01
 -1.5797554e-02
  1.3828709e+00
  3.6554062e-01
 -2.1472516e+00
  4.1610906e-01
 -3.6072487e-01
 -1.2535036e-01
 -1.2896595e+00
  3.1118569e-01
 -8.4598303e-01
 -8.2761717e-01
  2.2968980e-02
  7.3169589e-01
  1.0263884e+00
  1.2589030e-01
 -7.1551526e-01
 -3.0512995e-01
  1.3395367e+00
 -4.9532324e-02
 -5.0076675e-02
 -7.9322174e-02
 -7.6703972e-01
  6.7422666e-02
 -6.6766171e-03
  5.5763996e-01
  1.7528787e-01
 -6.8525025e-03
 -1.4878999e-01
 -1.0664135e+00
  1.7479649e-01
  4.5448549e-02
  4.7370128e-02
  1.2521224e-01
  1.3041872e-01
 -1.0369407e-01
  4.5976896e-02
 -5.5374060e-02
 -1.2436195e-01
  7.1838088e-02
  2.5062993e-01
  1.0202941e-01
 -5.8162924e-02
 -1.0278999e-01
 -9.6332394e-02
  1.1661975e-02
  4.6130385e-02
  6.6115782e-02
 -4.7347609e-02
 -4.0793303e-02
  9.2722140e-02
  6.5902002e-02
 -1.3865055e-02
 -3.3851901e-01
  8.6922795e-03
 -6.0980342e-02
  8.3958544e-02
  2.9382643e-01
 -1.5435757e-01
 -3.6941591e-04
 -4.7954056e-02
  7.1028925e-02
 -6.6791242e-03
 -5.1247799e-01
  4.1811392e-03
  1.0123378e-01
 -8.8963406e-03
  3.5405152e-02
 -3.1074435e-02
 -1.1344247e-02
  5.0530102e-02
 -3.4391016e-03
 -2.2835674e-02
  1.4255036e-01
 -7.8834780e-03
 -1.1989745e-02
 -3.2780644e-02
 -5.6352559e-02
 -2.1435022e-02
 -1.2056077e+00
  2.8596467e-03
 -2.4256582e+00
  6.9169253e-01
  5.6790131e-01
 -2.3338888e+00
 -4.5500270e-01
  9.9077761e-01
  7.6430529e-01
  5.1799858e-01
 -1.5565380e-01
 -4.8441908e-01
  3.1887218e-01
  8.6435992e-01
 -2.5427384e+00
 -9.5436865e-01
  1.8366896e+00
  1.3054159e+00
  6.1901265e-01
 -2.9065803e-01
  1.9719291e-01
  1.1053826e+00
  1.8373743e+00
 -2.3547029e+00
 -3.5019326e-03
  1.0590606e+00
  1.8606871e-01
  4.0432113e-01
  9.5671535e-01
  4.7343785e-01
 -4.5855105e-01
  2.0887334e-02
  6.0899142e-02
 -2.9227933e-01
  1.6915966e+00
 -5.0729346e-01
 -8.0266163e-02
  1.3689086e+00
 -8.3572596e-02
  8.1238192e-01
 -3.1129099e-02
  1.9420768e-01
  1.6959654e-01
 -7.8191549e-02
  2.1671321e+00
  1.2568487e+00
 -5.0203163e-02
 -5.0005656e-01
  1.2969603e-01
  5.1628530e-01
 -5.9082270e-01
  3.8071908e-02
  6.3732415e-02
  1.8958602e-02
  1.2616923e-01
  1.7086965e-03
  1.2928809e+00
 -1.0379988e+00
 -1.0342122e+00
  1.1364594e+00
 -1.8417639e+00
 -1.5481743e-01
 -6.8953782e-01
 -1.1596242e-01
  5.7523322e-01
 -1.3494307e+00
 -5.1626211e-01
  9.7786295e-01
 -1.7790602e-01
 -1.5555892e+00
 -2.0653655e-01
  5.9849870e-01
 -2.0907111e-01
  1.5019001e+00
  3.5410910e+00
  2.1297407e-01
  3.1843117e-01
 -1.9210798e-01
 -8.4316933e-01
 -1.1004296e-01
 -8.2368326e-01
  6.0959238e-01
  3.9605945e-01
 -4.3317232e-01
  2.2348752e+00
  1.3151376e+00
  2.3248847e+00
  6.2628525e-01
 -1.1521301e-01
  3.2792336e-01
 -2.9542093e+00
  6.3404977e-01
  2.1042376e+00
 -2.8621697e-01
  1.5742307e+00
 -2.0277889e+00
 -3.0609237e-02
  1.3920752e+00
 -6.5795374e-01
  4.6840075e-02
 -3.4613174e-01
 -4.5784651e-03
  8.1266093e-01
  3.6054794e-02
 -1.0290416e+00
  3.6858639e-01
 -7.6430887e-02
  5.6919025e-04
  1.7335655e-01
 -2.5642533e-02
 -4.8665617e-02
 -6.1226600e-01
 -9.1127402e-01
  1.0142815e+00
  8.8254869e-01
 -3.0686724e-01
  7.3308861e-01
 -1.8021514e+00
 -1.6526147e+00
  4.7804406e-01
 -8.2088345e-01
 -1.6753890e-02
 -8.6049193e-01
 -9.3838578e-01
 -4.2208509e+00
 -5.1416451e-01
 -2.8041890e-01
 -3.0310845e+00
 -5.8196247e-01
  1.4876809e+00
 -1.3417871e+00
 -1.9802525e+00
 -4.7918385e-01
  7.5987011e-01
 -2.7633524e-01
  2.1376679e+00
  2.6632309e-01
  8.5908222e-01
  2.6170141e-01
 -1.6286982e+00
  1.2593165e-01
 -7.0167637e-01
 -1.3559111e+00
  4.7801602e-01
 -7.1822476e-01
  2.8645977e-01
 -9.9686319e-01
 -6.9662857e-01
  6.0402077e-01
  2.5907758e-01
  6.0298884e-01
  1.1317702e-01
  5.3005975e-01
  1.0338006e+00
  1.2244037e+00
 -6.9702315e-01
 -1.7759348e-01
  3.3083457e-01
 -2.1986395e-02
 -1.4511315e+00
  6.7704707e-01
 -4.1114006e-02
  2.6271420e-02
 -1.1176916e-01
 -2.0262550e-01
 -4.5250919e-02
 -6.6508996e-01
 -3.6774700e+00
  1.9360408e+00
 -6.4620769e-01
  1.8686879e+00
  5.5337731e-02
  3.3639139e-04
  2.2304893e+00
  9.6629567e-02
  2.6771122e-01
 -2.1046959e-01
  1.3528739e-01
  3.5840294e-01
  7.7004212e-01
  1.5252398e-01
  1.6860624e-01
 -5.5200374e-01
  1.6461986e-01
 -4.3225935e-01
 -6.4125746e-02
  3.6536789e-01
 -3.8185158e-01
  1.9462837e-01
  1.1912994e+00
 -1.2090346e+00
  3.1236196e-01
 -2.5495589e-02
  6.7536391e-02
  8.0438113e-01
  5.1344401e-01
  2.0729113e-01
  1.3429123e-01
 -7.1148470e-02
 -2.8253654e-01
  3.5851309e-01
  3.2524049e-01
 -1.8974668e-01
  2.3663661e-01
  7.7553660e-01
 -4.1546527e-01
  6.3128360e-02
 -3.7408864e-01
 -2.6859682e-02
 -2.9807052e-01
  1.8277736e-01
  2.5088934e-02
 -1.0971729e-01
 -5.6625836e-02
  2.0243932e-01
 -9.9904031e-02
 -1.9744975e-02
  4.1952919e-02
  8.4020138e-02
 -5.0161298e-02
 -3.2273374e-02
 -8.4303874e-01
  3.2888514e-01
  1.3517724e+00
 -4.1638973e-01
  5.4633713e-01
 -6.0626730e-02
 -3.6652163e-02
  1.2062257e-01
  9.2872456e-02
  4.3452933e-01
 -3.6712801e-01
 -2.7414677e-01
  2.8939402e-01
  2.1471183e-01
  6.9805026e-01
 -5.6332476e-03
 -5.1265259e+00
  2.8269934e-02
 -3.3222154e-01
  1.0692128e+00
 -5.3152883e-01
  1.0781009e+00
 -8.6244918e-02
  3.2542267e-01
  1.0637497e+00
 -9.0454495e-01
 -5.2622128e+00
  4.2047092e-01
  2.3609896e+00
  9.4811130e-01
 -8.3774680e-01
  9.5777702e-01
 -8.6971737e-02
  7.3612195e-01
 -1.8939194e-01
 -3.3427697e-01
 -5.7219452e-01
  2.2606842e-01
 -5.8568996e-01
  6.1199105e-01
 -3.8747492e-01
 -1.0396502e-01
  6.2832370e-02
  9.1532528e-01
  2.9885063e-01
 -4.2737331e-02
 -4.7707999e-01
  7.6404795e-02
  1.8130222e-01
 -1.0140643e-01
  1.0434534e-02
  2.0826632e-02
 -4.1614610e-01
  5.1898111e-02
  8.1628487e-02
  4.5209152e-01
 -2.7282979e-02
  4.8682573e-01
  2.5325561e-01
  1.0674832e-01
  1.6875802e-02
  1.7335211e-01
  1.3534912e-01
  1.3600180e-01
  1.2747687e-01
 -8.2156882e-03
  1.1885303e-01
  3.0908961e-02
 -1.4031251e-01
  2.1820465e-02
  2.1735418e-01
 -1.3083760e-01
 -8.3762869e-02
 -1.5746392e-01
 -1.9145282e-01
 -8.4578395e-03
 -1.6129400e-01
  8.2233166e-03
  3.0788887e-01
 -6.7848170e-01
  1.4030263e-01
  1.6652880e-02
  6.7612290e-02
 -7.3450290e-02
 -2.4938470e-02
  1.2704024e-01
  1.4289300e-01
  1.4607297e-01
  8.5858159e-02
  1.5687276e-01
  3.7650932e-03
  4.5806710e-02
  5.2727919e-02
 -9.8299131e-02
 -5.3924117e-02
  1.4995047e-01
 -3.3289913e-02
 -2.2216238e-02
  5.6378894e-02
 -1.7559079e-02
  1.1487208e-01
 -4.2996895e-02
  1.9614099e-02
  2.0894055e-01
 -5.6457311e-02
 -2.4569940e-03
 -1.5993458e+00
 -5.0106980e-03
 -3.0528985e-02
  7.4805121e-04
 -9.2896634e-01
  2.9745171e+00
 -1.0457371e+00
  1.4169346e+00
  2.8735430e+00
 -6.1351147e-02
 -4.5075491e-01
 -3.1287801e-02
  1.4954054e-01
 -1.3826740e-01
  5.1161032e-02
 -5.6131296e-02
 -8.8909306e-02
 -2.2213484e-01
  2.8522739e-01
 -2.8322601e-01
  5.5071557e-01
 -3.1950819e-01
 -6.0423017e-01
  1.3154973e-01
 -6.3644826e-02
  1.4465413e+00
 -5.3613830e-01
 -2.7503359e+00
 -8.9171164e-02
 -2.9340538e-01
  5.8261387e-02
  5.7677835e-02
  2.8499746e-01
 -7.5743504e-02
 -1.4815126e-01
  2.1196220e-02
 -3.4300047e-01
 -5.0481057e-01
 -1.9454946e-01
 -6.7994647e-02
  1.2621482e-01
  1.7062429e-01
  2.6225460e-01
 -1.9775726e-01
  4.3483856e-01
  1.1533809e-01
  7.3958166e-02
  2.3771431e-01
  1.3867898e-01
  8.2025105e-01
  2.2231342e-01
 -1.2752445e-01
 -2.3210312e-01
 -2.2925649e-02
  3.5308186e-02
 -2.0139389e-02
  1.0628830e-01
 -1.7606074e-01
 -8.8434167e-02
 -1.6465049e+00
  1.8361478e+00
  1.9930691e+00
 -7.2329726e+00
  7.4141896e-01
 -4.7042614e-01
 -3.0954059e-02
 -1.2528944e-01
 -3.5812408e-01
  6.3261919e-02
 -6.2839031e-01
 -5.1694649e-01
 -1.5955515e-01
  7.0054626e-01
  5.8494043e-01
  1.8389978e-01
  2.0683105e+00
  3.3958325e-01
 -1.7261403e+00
  1.2598794e+00
  1.6736217e-01
 -3.3009799e+00
 -4.2306176e-01
  6.9325423e-01
  6.6455320e-02
 -1.2277247e+00
  2.1810456e-01
 -5.5483186e-01
  1.4728298e+00
  7.5114449e-03
 -1.5324599e+00
 -2.1378806e+00
  3.3590108e-01
 -5.3729918e-02
 -1.8781859e-01
 -4.4741398e-01
 -2.0021465e+00
  1.6695273e-01
 -3.7375918e-01
 -5.0577241e-01
 -8.8011938e-01
 -1.1238378e+00
  2.0541334e-01
  1.0715170e+00
  5.3059989e-01
 -2.2863863e-02
 -5.9301251e-01
  4.5877632e-02
  5.4908581e-02
 -6.7696124e-02
  1.2772860e-02
  2.9763199e-02
 -3.4421444e-02
  5.0165728e-02
 -1.7446034e-02
  6.5349817e+00
  9.2127514e-01
  5.1010579e-01
  2.3576550e+00
  5.0136882e-01
  6.5054107e-03
 -2.0390190e-01
  1.3266622e-01
  3.6430758e-01
 -2.1828058e-01
  9.1670297e-02
 -5.4021305e-01
 -7.0761472e-01
 -1.7411956e+00
 -9.5878249e-01
 -7.1184391e-01
  2.0106982e-01
 -1.1622520e-01
 -8.8406742e-01
 -1.1129686e+00
 -1.1585140e-01
 -1.8431762e-01
  8.1122363e-01
 -3.4753889e-01
 -2.1035157e-01
 -4.2324960e-02
 -5.3011566e-01
 -1.0460369e-01
 -8.9010805e-01
 -7.8726131e-01
 -1.2876880e+00
 -3.6406246e-01
 -2.1880484e-01
 -1.1065387e+00
 -7.6235163e-01
 -4.9746063e-01
  1.4734356e-01
 -2.7406290e-01
 -1.5100659e+00
 -7.4175042e-01
  1.7526826e-04
  3.0094448e-01
  5.0592314e-02
  2.5761577e-01
 -2.4128333e-01
 -1.1552555e-03
  1.2740576e-01
 -4.1410338e-02
 -2.8599653e-01
 -4.4941634e-02
 -2.6100153e-02
  5.9612174e-02
 -6.0726225e-02
 -1.7401373e-01
 -2.3279015e-02
 -3.6951980e-01
  2.2857742e-01
  1.8678570e+00
 -3.8408831e-01
  1.9116533e-01
  4.7473749e-03
  1.3850240e-01
  1.4437446e-01
 -2.5094502e-02
  9.9096157e-02
 -8.0335036e-02
 -9.7749447e-03
  1.1841816e-01
  3.4980182e-02
 -6.3092455e-02
  8.0675893e-02
 -2.2665460e-01
 -1.8202541e-02
 -9.2122465e-02
 -2.3893967e-01
 -9.6140489e-02
 -1.6646689e-01
  1.5123250e-01
 -3.5275528e-01
 -2.0049086e-01
  4.5231459e-01
 -2.3087591e-03
 -4.8511896e-02
  1.9926684e-01
  5.2342720e-02
  2.8293988e-01
  2.0003608e-01
 -9.9596404e-02
 -3.6653882e-01
  5.3561106e-02
  1.2186088e-01
  1.2023125e-01
 -4.5323402e-02
  8.3318688e-02
 -3.6777385e-02
  1.2708835e-01
 -1.0413039e-02
  4.4183921e-02
  4.5785423e-02
  5.6718666e-02
 -2.8977476e-02
 -4.3221578e-02
  9.0099601e-03
  1.4681046e-01
 -6.5358773e-02
 -7.6594934e-02
  9.2737302e-02
  5.4177223e-03
  3.9023638e-02
 -5.9094958e-02
  9.7820175e-01
 -4.4354996e-01
 -1.7467583e+00
  1.1787672e+00
  8.4637123e-01
  2.8204328e-01
  1.1881593e+00
  5.3627230e-02
  2.3583652e-01
  5.8033806e-01
 -8.5345339e-03
  3.0103269e-01
 -1.1381130e-01
  5.8793539e-01
  1.9032978e-01
 -1.5714395e+00
  1.9461710e+00
  1.4888111e+00
 -2.1236248e-01
  5.0456971e-01
  1.6659982e+00
  2.2324765e-01
 -4.1646618e-01
 -1.3240128e+00
 -2.3804697e-01
  1.9728066e+00
 -4.1593066e-01
  4.3913317e-01
  5.4068249e-01
  8.6076188e-01
  2.2720327e+00
  2.3426709e+00
 -5.1972735e-01
  7.7013053e-02
 -5.3999197e-01
  3.0953041e-01
 -1.1350919e-01
  7.9749286e-02
 -2.8542382e-01
  7.8826591e-02
 -2.2582810e-01
 -1.2713439e+00
 -8.9548141e-01
 -6.6650319e-01
  3.2171276e-01
  6.4115804e-01
 -4.8552895e-01
 -3.3680983e-02
  7.6744771e-01
 -1.1563738e-01
  6.2119640e-02
  4.5879554e-02
  4.4374759e-03
  5.5760507e-02
