nep4_zbl 2 Sb Te 
zbl 1 2
cutoff 8 4 83 14
n_max 4 4
basis_size 8 8
l_max 4 2 0
ANN 30 0
 -1.8656287e+00
  8.5168368e-01
 -6.5547580e-01
  8.8056380e-01
 -5.5461496e-01
 -1.5692857e-04
 -4.3140346e-01
 -6.9320365e-04
 -2.2737401e-04
 -1.1846281e+00
  2.6293008e-03
 -5.1402843e-01
 -6.9213525e-04
  2.9919627e-03
 -3.1765348e-01
  5.6593487e-04
 -3.6668983e-01
  9.2706083e-05
 -4.7239411e-04
 -1.1809176e+00
  2.1121019e-01
  1.5819077e-04
 -8.9950445e-06
  5.6268414e-04
  1.1276305e+00
 -1.0190222e-03
  1.2700155e-04
 -6.2122330e-04
 -2.6696021e-04
  8.1652975e-01
 -6.9158024e-01
 -1.2642547e+00
 -4.7619741e-02
 -6.1133802e-03
 -1.0908759e-01
  1.3852782e+00
  4.2304285e-03
  5.2454684e-02
  8.1651902e-04
  4.6801940e-01
 -5.4743546e-01
  3.2776877e-01
 -9.0644896e-01
 -4.3315158e-04
 -2.0426221e+00
  8.2450044e-01
  2.0988028e-01
  3.2844856e-02
  5.2609481e-04
  5.6186008e-01
 -1.4250051e+00
  2.4261342e-01
  6.1990954e-02
  4.6940837e-05
 -5.1896844e-02
  1.5621305e-04
 -1.0114403e-03
  1.1174356e-05
 -4.0889514e-04
 -3.6762345e-01
 -5.8471107e-01
 -4.7936376e-02
 -5.9689420e-01
 -3.5363013e-01
 -1.1549153e+00
  4.1929283e-04
 -1.7671634e-01
  1.3861088e-04
 -5.5473018e-01
 -6.4319372e-01
  1.8606023e-01
 -1.1349618e+00
  3.9148575e-01
 -5.3692538e-01
 -1.4683670e+00
  5.2668864e-01
 -4.6226674e-01
  1.2343390e-01
 -2.6440626e-01
 -1.1234127e+00
  2.2773365e-02
 -1.2895064e-01
 -2.1207439e-05
 -2.1709721e-03
 -3.2547298e-01
 -2.1586313e-04
  4.4588163e-02
  5.0052418e-04
  2.6183843e-03
  4.8803082e-01
 -5.9895426e-01
  3.9345381e-01
  3.2146595e+00
  2.0777316e-01
  1.4382426e-01
  1.4143564e-01
 -9.9406592e-05
 -7.7736408e-01
 -2.9478931e-01
  5.3668398e-02
 -4.0328538e-01
 -1.5837948e-04
  1.5827571e-01
 -1.8072212e-01
 -1.5466952e+00
 -2.5806299e-01
 -2.2250756e-03
 -6.6551250e-01
 -1.0569832e-01
  1.9139907e+00
 -3.8847390e-01
 -9.5969235e-04
 -1.0837847e-03
 -2.1457048e-03
  1.1681890e+00
  1.9315194e-04
  6.7756535e-04
 -2.4354710e-01
  1.4083207e-03
 -1.5684088e-01
  9.7389348e-02
  3.1951204e-01
  1.6870991e+00
  1.7973653e+00
  1.5386175e+00
  7.0261277e-02
 -4.8816626e-05
  1.2893841e-03
  3.3182994e-01
  7.4678594e-01
  1.3003427e-04
  6.8094826e-01
 -5.9229571e-01
  6.4273411e-01
 -4.7202456e-01
 -3.3154562e-03
  8.9153457e-01
  7.9693717e-01
  4.7313148e-01
  3.0195823e-01
 -5.6080002e-01
  1.0852879e+00
 -9.1446900e-01
  3.0271199e-03
  1.4999716e+00
 -7.5662620e-02
 -1.2657033e-01
 -1.9076733e-04
 -1.3604187e-03
 -8.4012710e-02
  4.1651472e-01
 -2.9715139e-01
 -1.4204702e+00
 -4.6915540e-01
  2.8893456e-01
  1.8136765e-01
  1.2352088e-04
  7.5060391e-01
  4.2137080e-01
 -1.0069925e+00
  1.4849079e-01
  2.2347152e-01
  1.8896979e-05
  4.1283554e-04
 -9.7241694e-01
  1.1639339e+00
  6.9251689e-03
  7.8313434e-03
  2.6402862e-05
  5.9729916e-01
 -1.4329245e-03
 -9.9902260e-05
  8.2645420e-05
  5.3339649e-04
  2.3451269e+00
  1.8806275e-04
 -3.0506510e-04
  4.9047446e-04
 -1.7767820e-04
  3.9077920e-01
  4.5225912e-01
  2.9541296e-04
  4.0484712e-04
 -1.5006881e-03
  1.3034649e-01
 -1.2677690e-04
  6.2017055e-04
 -9.5024523e-05
  3.0210818e-04
 -3.5423113e-04
  1.6474807e-04
  1.3481788e-04
  4.4780413e-06
  2.6565389e-04
 -4.5712106e-02
 -9.7919394e-05
  1.2361361e-03
  1.7912124e-04
  9.6615200e-04
  1.4308886e-05
 -8.1236532e-05
  8.0920843e-04
  2.2037573e-04
  2.5527069e-04
  1.0557810e-04
 -5.1619916e-04
  8.6953449e-05
  2.3002880e-04
  1.6997155e-04
 -5.3483486e-02
 -9.6882600e-01
  6.2680471e-01
  5.7843268e-01
  7.0089799e-01
  2.3235939e-02
  3.8234648e-01
  7.2774059e-01
  6.6334862e-01
  6.5335995e-01
 -1.4302395e-01
  9.6971489e-02
  1.1018981e+00
  4.0774533e-01
 -2.5008991e-01
 -1.4409536e+00
  6.8632578e-03
  3.2181689e-03
  1.8092822e-01
  5.3053194e-01
  1.7057948e-02
 -2.0063932e-01
  1.0217226e-01
 -8.0924883e-02
  2.0100854e-01
  1.1180377e+00
 -1.5134934e-03
 -1.0804290e-04
  5.0731306e-04
 -2.4635607e-01
  9.2570901e-02
 -8.1770301e-01
 -1.5627239e-02
 -1.3266672e+00
 -4.7056010e-04
 -5.3661835e-01
 -1.6684993e-01
  2.3583886e-04
  1.5924197e-01
  1.6158355e+00
 -6.4126003e-01
 -2.4608402e-01
 -1.6646577e-01
  3.0326452e-02
  2.3171411e-01
  6.9978249e-01
 -2.0976625e-01
 -7.6711505e-05
  1.6108961e-04
 -3.1856599e-01
 -6.6448057e-01
 -9.0806326e-04
 -7.8418967e-04
 -2.3201692e-04
  3.1972336e-04
 -1.5594250e-01
  1.2352740e-04
 -1.8366810e-04
 -4.0874598e-05
 -6.8305379e-01
 -2.8143842e+00
  7.4380852e-02
  1.0310072e+00
  1.7052640e+00
  1.0893490e+00
  1.0168052e+00
 -3.7778918e-05
 -8.9846533e-03
  1.1596392e-01
 -1.9008268e-04
  5.1304489e-01
 -1.2388497e-01
 -7.4854296e-07
  2.3596008e-04
 -9.5419513e-05
 -2.9662874e-01
  8.3480465e-01
 -2.5244054e-04
  2.0858318e-01
  5.0697665e-05
 -7.6144338e-02
 -7.2489784e-04
  8.6999273e-05
  6.1217916e-01
 -7.0884248e-04
  1.6702441e+00
 -2.6565476e-05
 -3.5486297e-05
  3.8172272e-03
 -6.3684519e-04
 -5.0026357e-01
  1.3951972e+00
 -4.3793506e-04
  6.1935586e-01
 -1.9861603e-02
  1.6173745e-02
  3.0979601e-01
  5.1612318e-02
 -1.6240867e+00
 -1.9873296e-01
 -3.8687664e-01
  2.1437105e-05
  5.4979272e-04
 -2.6752181e-02
 -1.3729089e-01
  9.8124498e-01
  5.0281078e-01
  6.4909792e-01
 -2.4045627e+00
 -2.8891897e-01
  4.2191022e-03
 -3.8114691e-04
 -4.3181280e-04
  1.4123471e+00
 -2.8673938e-04
  1.7073344e-01
  5.6236049e-06
  2.5348857e-04
 -5.8380586e-01
  7.3507535e-06
  9.7719178e-02
 -8.1183709e-02
 -6.0508517e-04
 -1.3311685e-03
  2.8276242e-02
 -2.7426738e-02
 -2.4134699e-04
  1.7766962e-04
 -7.0193806e-04
  8.7211659e-04
  7.4127391e-05
 -2.1086603e-04
  3.1205756e-05
  2.6843708e-04
  6.7490566e-04
  9.8950550e-05
  1.5929369e-04
 -8.8386738e-04
 -2.1458653e-05
 -5.9185474e-04
  3.0546141e-04
  1.3864221e-04
  2.7708121e-04
 -4.2832002e-01
 -1.4385584e-04
 -1.3601467e-03
  2.2407640e-04
  3.1055877e-04
 -1.1612198e-04
  1.9650267e-04
 -3.4643370e-05
  4.9173284e+00
  2.1636479e+00
  3.9033220e+00
 -2.7315369e+00
  2.6563334e+00
  4.5308549e-02
  4.8265528e-02
 -7.7283557e-04
 -4.9628440e-04
  8.7114626e-01
  5.6210905e-03
  2.1565275e-03
  2.6159082e-04
 -1.0931590e-03
  1.8246117e+00
 -3.0488867e-04
  2.1980372e-03
 -2.1623471e-04
 -1.6802829e-03
  7.6035857e-01
  6.2826200e-04
  9.6903305e-04
 -4.0773136e-04
 -7.5979980e-05
  4.4610679e-01
  3.3288760e-04
  8.7838875e-05
 -6.6217687e-04
 -2.1331082e-03
 -2.3009679e-01
  1.2814960e-01
  6.5841875e-03
  6.2993332e-03
 -7.7871673e-02
  1.2375753e-01
  5.2304666e-05
 -6.1222709e-06
  2.2708022e-04
  1.1153975e-04
  3.7968290e-05
 -1.1918719e-04
  5.8937457e-04
 -4.2047002e-05
  1.1677642e-03
  5.6730853e-05
  6.3718978e-04
  1.0257650e-04
 -4.0195513e-04
 -3.0664058e-04
  7.4471318e-04
  1.0948246e-03
 -2.2024909e-04
  2.9182024e-04
  6.7928323e-04
  1.2646575e-04
  1.5821493e-04
 -7.9514220e-04
 -1.3044647e-04
  1.8069097e-05
 -5.3275307e-05
  6.1269950e-02
 -2.3234937e-01
  4.4005895e-01
  5.7592428e-01
  2.0686827e+00
 -1.0986451e+00
  1.3971068e+00
  2.9131606e-02
 -2.8833110e-05
 -3.5226390e-01
 -5.1645577e-02
  6.4605796e-01
 -1.4618411e+00
  2.8410930e-02
  1.0561490e+00
 -3.4573776e-01
  1.8226483e+00
  4.0182322e-02
  4.8964369e-01
  1.6080712e-05
  9.3998098e-01
 -6.6300482e-02
  2.6283417e-02
  8.5001731e-01
 -1.3510911e-01
  1.4493468e-01
 -7.3676890e-01
  2.5150144e-01
  3.3111454e-04
  2.4523041e-01
  1.5281898e+00
 -8.8233900e-01
 -3.3268690e-01
  4.6231741e-01
 -2.4328299e-01
  1.4445255e+00
 -2.0059059e+00
 -5.8249545e-01
 -7.4448310e-02
  1.6219838e-01
  8.3140627e-02
 -4.9432078e-01
  4.8928750e-01
 -1.3766007e+00
 -3.8413525e-01
  6.8767929e-01
 -5.4847258e-01
 -8.5560381e-01
 -6.9944447e-01
 -7.3156494e-01
  9.5091373e-02
  2.9175487e-04
 -2.3429990e-02
 -5.4734015e-01
 -1.3027521e+00
  2.0328051e-01
  3.9730132e-01
 -1.4898267e+00
 -3.7496629e-01
  4.3148413e-02
  8.1241332e-02
  4.9582475e-01
  6.7836598e-02
 -4.0103644e-04
  2.7602982e-05
 -4.6181417e-04
  2.6634464e-04
 -1.3679078e+00
 -4.8928610e-05
  3.4495369e-01
 -1.6575451e-03
  2.3051754e-03
 -6.4999706e-01
 -3.9861021e-03
  4.9905923e-01
  7.2247855e-02
  1.0712768e+00
 -1.0935709e+00
 -3.8179182e-04
 -6.0326040e-01
 -2.0554648e-05
  8.1687685e-05
  3.3495981e-01
 -5.4348062e-04
  2.0348215e+00
  8.4837020e-04
 -1.4795163e-01
 -1.5209011e+00
  8.2588143e-04
  8.4836406e-01
 -3.9864650e-01
 -3.2499495e-01
  2.8879081e-03
  2.6710207e-02
  3.3155069e-02
 -4.5883004e-02
  5.9548031e-05
  4.0911624e-01
  7.1885318e-01
  4.8567869e-02
  2.0461197e-05
  5.9893215e-03
  7.2713023e-01
  1.0242644e-01
 -6.8406546e-01
 -4.6450704e-02
  9.7029768e-02
  7.7931696e-01
  1.6903760e+00
  3.2617125e-01
 -1.6781010e-02
  1.0529470e-04
  3.4458402e-01
  8.9530940e-06
 -9.3974974e-03
  5.0884642e-04
  9.1976872e-05
  2.6993483e-01
  7.7499863e-04
 -4.4020751e-01
  5.7832003e-01
 -1.1297757e-01
  2.4873393e+00
  9.0049803e-01
  1.6878964e+00
  4.3138278e-01
  1.1671805e-03
  1.0505144e-02
  3.1148805e-04
  2.2837123e-01
 -6.0082501e-01
  1.9698040e-04
 -3.3970377e-01
 -7.7811978e-04
 -3.5604885e-01
  1.0151238e+00
  9.1649652e-01
  4.0003970e-02
 -3.2041844e-02
 -3.4331251e-02
 -4.0688170e-03
 -2.0872879e-04
  1.2351773e+00
 -1.0656731e-04
  1.5569315e+00
 -1.7091885e-01
 -2.8611711e-04
  1.2258199e-02
 -9.1310177e-04
 -8.9420485e-01
 -1.0916901e-01
 -1.9729815e-02
  9.2535651e-01
 -3.0331051e+00
  5.3001118e-01
 -4.0114310e-01
 -8.5709686e-04
  1.0111178e+00
  6.0886830e-01
  3.4638804e-01
  8.0686140e-01
 -4.0891552e-03
  2.6756763e-01
  8.8110082e-02
  1.5721890e+00
  1.5539122e-01
  1.5642743e-04
  6.5530092e-01
  4.5337400e-04
 -3.2955131e-01
  1.1518422e+00
 -1.4825040e-04
 -4.0213114e-01
  6.7680498e-04
  1.4878239e-01
  4.6829089e-05
 -1.3488317e-04
  2.1561205e-01
 -2.7469371e-04
  1.7745941e+00
  6.0359991e-01
  8.0559933e-01
 -2.1753781e+00
  6.5653998e-01
  3.3829191e-01
 -3.5926050e-01
  6.1910861e-05
  2.6492870e-01
 -2.1682453e-04
  4.2442200e-01
  8.3180887e-01
  2.1427221e-04
  9.4423018e-04
 -1.3709605e-02
 -2.5837829e+00
 -1.0719375e-01
 -2.6447424e-01
  1.9086839e-01
 -2.4027504e-04
 -1.2269414e-02
 -5.8353436e-01
 -6.1681396e-01
  3.5307577e-01
 -1.2352501e-04
  2.4870052e+00
  4.8216078e-03
  3.7542679e-03
  4.8068061e-04
  2.0845410e-04
  3.6228928e-01
 -8.3709008e-01
 -1.3832587e-01
 -4.0480566e-01
  2.1527849e-01
 -1.4274482e+00
 -2.1495892e-01
 -3.5493961e-03
 -4.4790725e-04
 -4.8932119e-04
 -3.7325990e-01
  4.6296322e-04
 -1.9798742e-01
 -4.1399905e-04
  3.4384767e-04
  1.1807789e-04
 -1.4062169e-02
 -3.4941262e-01
  1.3888431e-04
 -5.7007745e-04
 -1.1887529e+00
  7.3986597e-02
 -9.4278825e-05
  1.5026993e-05
  3.7121601e-04
  2.3484989e-01
 -5.9901913e-06
  4.3718829e-03
  1.4272383e-04
  4.4383967e-04
  1.4646731e-01
 -6.2650815e-03
  2.0094858e-05
 -5.5568751e-05
  2.4432078e-02
 -4.3209256e-03
 -1.9107494e-04
 -3.7431432e-04
  5.6867703e-04
 -6.8416726e-04
  4.7933424e-04
  2.1605263e-04
 -2.0330149e-04
 -6.3699314e-05
 -3.6222319e-04
 -2.2855680e-04
 -5.1956734e-04
 -7.2991318e-04
 -5.2661943e-04
  3.8854814e-06
 -2.2527984e-05
 -1.6575957e-04
  3.1911529e-04
 -6.7921450e-05
  5.2058831e-04
 -1.7894954e-04
 -5.4615590e-05
  1.7996813e-04
  2.0763767e-04
 -6.1937090e-04
 -4.1752955e-04
  1.8412866e-02
  3.0351618e-01
  6.7064824e-04
 -1.5891751e+00
 -1.4823333e-03
  3.1662898e-05
  4.4260244e-04
  1.9240599e-04
 -4.6949947e-04
 -4.1007916e-03
 -1.9581898e-04
 -4.3877086e-04
  4.6536908e-04
 -3.0955867e-04
 -6.0273713e-04
 -3.0237177e-04
 -1.4514454e-04
 -4.0595050e-04
  3.2570493e-05
 -9.4496965e-02
  1.5232066e-03
 -1.1085668e-04
  4.8328741e-04
  2.5791340e-04
 -7.8948302e-05
  1.2426020e-04
  4.9200089e-04
  7.1963918e-04
  2.0583878e-04
 -4.3390048e-04
  9.8363584e-01
 -1.8338395e-04
  1.2360522e+00
  2.8495833e-01
  6.6905415e-01
 -1.3571093e-04
  3.2087421e-04
  1.9928755e-04
 -2.6296536e-04
  4.5735446e-01
 -5.1721727e-04
  1.0535369e-03
 -1.9957968e-03
  9.7495249e-05
  8.8336196e-04
  8.3199151e-02
  1.6358262e-04
  2.0292449e-04
  2.9211826e-04
  2.7542841e-01
 -7.8396704e-05
 -1.4166458e-04
  3.3840400e-04
 -8.5814687e-04
  3.1741199e-01
 -1.1927435e-06
  1.3057912e-04
 -6.4691772e-06
  1.8419851e-04
 -1.9936870e-01
  4.9721548e-01
 -1.3400381e+00
 -3.8687640e-01
  3.9487955e-01
  3.2446179e-01
 -1.2678554e+00
  7.2931673e-04
 -1.4750221e-04
 -5.5097509e-05
 -4.5988324e-01
 -2.7230424e-01
  1.7414536e-04
  2.9993718e-04
  3.4451215e-03
  4.4738355e-01
  1.1928750e-04
  1.4637505e-01
 -1.9471379e-04
  1.9677982e-03
 -3.1894356e-01
 -1.0136697e-04
  2.7919881e-02
 -7.5513095e-02
  3.0195477e-04
  1.5545106e+00
  8.6872860e-05
 -7.1860923e-06
  5.8785500e-04
  4.4437402e-04
 -2.0880717e-01
 -2.5711766e-01
  8.8583803e-01
 -5.3256506e-01
  3.7806499e-01
 -2.8479617e+00
  1.6145505e-01
  8.1570446e-04
  3.4839529e-04
 -2.9818114e-04
 -5.0312206e-02
 -1.5576006e-04
 -4.1476772e-03
 -4.4575652e-05
  1.4714105e-05
  3.9796481e-01
 -7.3173344e-01
 -1.1559917e-02
  2.5709791e-02
  1.1178013e-04
  9.0981501e-01
  6.1278164e-01
  2.4483910e-05
 -1.5826813e-04
  2.0499300e-04
 -6.0776120e-01
  1.2957214e-03
  9.9822231e-05
  8.3392115e-06
 -8.5298822e-04
  3.9449104e-04
  8.4104605e-02
  3.4178458e-03
  5.1248271e-04
 -2.9619547e-02
  1.4626461e-02
 -1.5045266e-04
  5.0387066e-06
  8.5181568e-04
 -1.3284317e-04
 -3.9032810e-05
 -3.1600104e-04
  1.3630625e-04
  1.6517261e-04
 -9.9867728e-05
  3.2540160e-05
  1.3800410e-03
  1.2764022e-04
 -3.3008741e-04
  5.3587696e-04
  9.5286639e-04
 -1.9415130e-04
  1.3287731e-03
 -2.8031680e-04
  9.6200401e-04
  7.9457823e-04
 -6.1375578e-04
 -6.8149322e-01
  9.6159405e-05
 -5.6397059e-04
 -8.6870434e-04
  7.0584148e-01
  7.6663986e-02
  2.1997728e-05
 -9.9104628e-02
 -4.0717527e-02
 -9.7254946e-05
 -1.8671311e-04
 -1.9830795e-01
 -3.6849399e-04
 -7.5379596e-03
  9.4697294e-05
 -1.7578815e-03
 -1.5509947e-01
 -8.2625222e-04
  2.4005020e-01
  2.6163125e-01
  1.1455947e-04
 -8.5726470e-02
  3.0378412e-04
 -6.1834216e-01
 -2.9592449e-05
  1.8679122e-04
 -7.4314959e-03
 -9.2092337e-04
 -4.7345180e-02
  3.3973777e-04
  1.3221629e-03
 -2.5498444e-01
  4.2472180e-04
 -5.7906866e-02
 -5.8327311e-01
  9.5217627e-01
  5.9545577e-02
 -2.9089360e-03
 -1.0774116e-01
 -1.3499194e-01
 -1.2393626e-01
 -1.0270190e-03
 -6.2104966e-02
 -9.3161577e-01
 -1.2668223e+00
 -8.7271398e-01
 -6.0877746e-01
 -4.9736321e-01
  1.0005205e+00
  5.3909238e-02
 -7.4745077e-01
 -1.9849475e-01
 -3.7317556e-01
  4.4716471e-01
  6.8365738e-02
 -8.8198411e-01
  1.7644276e-01
 -4.2590222e-01
  1.3851236e-01
 -1.5446181e-02
  1.0124499e+00
 -1.7444369e-03
  4.2989498e-04
 -2.0991343e-01
  5.0480199e-01
 -1.9137352e+00
 -1.8500180e+00
 -3.3787954e-01
  8.3833176e-01
 -3.9433271e-01
 -7.1017855e-01
  1.0629202e+00
  1.0371746e+00
 -7.9714879e-03
 -9.1576219e-01
  3.9786285e-01
 -2.9617047e-01
 -5.1864511e-01
 -9.8642327e-02
 -2.2944262e+00
 -1.2319474e+00
  1.2722666e+00
 -3.1021312e-01
  7.2806907e-01
  1.0897659e+00
 -1.4145447e+00
  1.2132868e+00
  9.6185488e-01
 -8.8761055e-01
  2.9962298e-01
 -1.5670862e+00
 -9.0351872e-02
 -1.0735437e+00
  1.9200855e-01
  1.8390310e+00
  4.6490052e-01
 -4.2577046e-01
 -6.6417897e-01
  6.4460629e-01
  3.4496802e-01
  2.8881145e-01
  1.6625031e+00
  1.4305886e+00
 -6.4221251e-01
 -1.0935853e+00
 -1.2346976e-01
 -3.2327986e+00
  2.6177776e-01
  1.5110415e+00
 -3.2138939e+00
 -1.1094996e+00
  1.6859330e+00
 -1.5814079e+00
  7.7596635e-01
 -1.0111327e+00
 -2.4078502e-01
 -2.1283755e-01
 -1.0667819e-01
 -1.3256123e+00
  3.5691893e-01
 -4.9682692e-01
  1.0069439e-01
 -9.3019259e-01
 -1.2186170e+00
 -3.0918863e-01
  5.4086870e-01
  7.7757672e-05
 -1.0607237e-04
 -1.1889427e-01
 -8.2393920e-01
 -1.3010775e-01
  7.2072583e-01
 -2.3576285e-04
  1.1995470e-03
  8.4109503e-01
  3.8896582e-01
  5.3438807e-01
 -7.4195743e-01
 -1.1416499e-01
 -2.1578276e+00
 -2.5276658e-01
 -3.3107424e-01
  4.9568515e-02
 -2.3050015e-01
 -1.4979526e+00
 -4.3468574e-01
 -1.4589748e-02
 -6.3390413e-05
  2.0137368e-01
  1.5880506e+00
  1.0369277e+00
 -9.3285859e-01
 -5.9030985e-04
 -1.7225338e-04
  8.6597365e-04
  2.0815116e-04
  1.4089752e-04
  6.2745763e-04
  2.4542934e-04
 -3.7683168e-04
 -1.9540712e-04
 -8.4336346e-04
 -2.9398356e-05
 -4.8479737e-06
 -1.3846355e-06
  6.3159016e-05
 -2.3250531e-04
 -4.6859142e-05
  2.1762957e-04
  2.3857267e-04
  1.3667704e-05
 -3.0438611e-04
 -4.4963838e-04
  3.1210962e-04
  1.2222373e-04
 -1.9172588e-04
 -3.4137853e-04
  8.8013294e-05
  1.0436681e-03
 -2.3613371e-05
  2.5768045e-04
 -2.5825461e-04
 -3.0505136e-04
 -4.5107969e-04
  4.6807662e-01
 -7.1576697e-01
  1.1597618e+00
  2.7112624e-01
 -1.6183783e+00
  1.1616054e+00
 -1.1856382e-01
  1.9725252e-02
  7.8024870e-01
  8.0591932e-02
  2.0550143e-02
  2.8115189e-01
 -7.7556121e-01
  3.9767745e-01
 -1.3531224e-03
  3.2767400e-01
 -2.1119467e-03
 -1.5405813e+00
 -1.6303996e-04
 -3.2670721e-01
  3.5018887e-02
  8.0083752e-05
  1.6419545e-02
 -3.6369918e-05
  2.4494615e-03
 -6.2377220e-01
  1.6229130e-02
  2.4971049e+00
 -3.8623564e-02
 -1.7590819e-04
  1.4708789e-01
  2.1385933e-01
 -3.9023542e-01
  5.2834481e-01
  1.7000234e-01
  5.5008363e-03
  1.5356356e-01
  7.2082453e-03
 -6.1396038e-04
 -3.0628114e-05
  5.8773468e-04
  3.9333692e-03
 -3.3692312e-01
 -1.2993852e-04
 -2.8394719e-04
  4.8237387e-02
  3.4304190e-02
 -4.5295607e-02
 -7.0046436e-04
  1.5261968e-02
  4.0781745e-03
  2.7185706e-02
  2.0285657e-02
  1.7829263e-01
  6.1190932e-04
  1.0657322e-04
  1.7459672e-04
  8.9483343e-05
 -6.2325766e-04
  2.3750137e-04
  1.9322623e-01
 -5.5730426e-01
  6.4381235e-04
  7.5593716e-01
  5.7169545e-01
  1.4981818e-02
  2.7255721e-03
 -2.8133785e-04
 -6.1022281e-04
 -4.3188322e-01
  4.1604185e-04
 -2.8570602e-04
 -1.2670074e+00
  7.2276562e-05
  2.8478619e-04
  1.4389765e-03
  4.4008033e-04
  3.2047278e-04
 -2.0804182e-01
  2.1488528e-01
  7.0063793e-04
 -9.3764414e-05
  8.8824487e-01
  4.9232366e-04
 -1.7627252e-04
 -3.4812180e-04
  4.7225383e-04
  7.1283546e-04
 -5.1475083e-04
 -9.4726529e-05
 -8.7897712e-01
  1.2570972e+00
  8.6180681e-01
  8.1567353e-01
  4.6133667e-01
  3.5361844e-04
  5.2343201e-02
  5.4475232e-03
  6.9807917e-05
  6.2229352e-05
 -2.4034118e-04
  1.4235387e-03
 -8.5280073e-04
 -6.1578318e-03
 -4.0741771e-04
  3.3263754e-05
 -8.4540062e-04
  1.5940692e-01
 -4.6298399e-05
  6.6893846e-02
 -9.7804214e-06
 -1.4411809e-04
  2.6099933e-02
  1.7208080e-01
 -5.2578933e-05
  2.0817775e-04
 -8.5709835e-05
 -2.0664258e-04
  2.0771027e-04
 -4.6203668e-06
  1.9801860e+00
  1.1275809e+00
 -1.6096026e+00
 -3.5301715e-01
 -3.2504563e+00
 -1.0697958e-01
 -2.8751421e-04
 -6.0981256e-01
 -4.9544770e-01
 -5.3247541e-01
 -2.3112372e-03
  1.4566020e-04
 -2.1486951e-01
 -4.0561091e-02
  1.4410566e-05
 -7.0715450e-06
 -4.4439068e-01
 -6.0065675e-01
 -5.6709510e-01
  2.5910079e-02
  8.6128915e-04
  3.2400933e-01
 -8.7534302e-01
  2.0075111e-04
 -3.4131578e-01
  6.2632654e-04
  4.9098046e-04
  1.4353129e-01
  1.3764217e-02
 -1.0495183e-04
 -1.6612577e-01
  2.0656905e+00
  8.5828459e-01
 -4.0608168e-01
  9.4902796e-01
 -1.4978392e-03
  6.1023213e-02
 -1.1362538e-02
  3.7159604e-01
  2.7197385e-01
 -1.6493442e-04
  1.8910286e-01
 -1.2347711e-02
  4.6201654e-02
  4.6578946e-04
 -9.3824463e-04
  6.2498490e-05
 -3.3149219e-01
  2.9793924e-01
  2.9991755e-01
  4.7414063e-04
 -9.2116905e-05
  4.1725996e-01
  9.2875862e-01
 -5.8221776e-04
  3.5167526e-04
  4.6955005e-04
 -7.8129929e-01
  1.1495622e-04
 -9.8650540e-05
  6.3296698e-02
  1.8614520e-01
 -4.5888741e-02
  5.2384079e-01
  1.3333398e-01
  3.3229409e-04
  1.9329257e-04
  1.7342457e+00
  1.6560952e-01
  1.2348735e-01
  1.3483575e-04
 -1.0526630e-03
  1.9972658e-04
 -1.6905322e-04
  8.1756315e-04
  1.6422238e-02
  3.3878229e-04
  2.7006454e-04
 -2.4326155e-03
  2.1856699e-04
  4.7860388e-04
 -2.9699338e-04
 -1.0960019e+00
 -2.8551444e-02
 -8.7062898e-04
 -4.8316707e-04
  1.6577146e-04
 -1.3470872e-01
  2.1835670e-04
  2.2703705e-04
 -2.1481646e-02
  2.3491561e+00
  4.8425567e-01
 -6.9370586e-01
  3.1221008e-01
 -2.5153640e-04
  2.2010143e-05
  4.0697210e-02
  2.5132072e-01
  1.1543940e-01
  3.2425951e-04
 -2.2792777e-04
  8.4698826e-05
  7.8891926e-02
 -3.9146806e-04
 -1.1620518e-04
 -2.2108913e-04
  4.4581518e-02
  7.2737980e-01
  1.5218723e-01
 -3.4099273e-04
 -2.4901968e-04
  9.4552583e-01
  8.4731716e-01
 -7.2605757e-04
 -3.0169671e-04
 -2.3242801e-04
 -3.1209544e-05
  9.8460543e-05
  2.7191109e-05
 -9.7066081e-01
  7.1169209e-01
  4.1194558e-01
 -3.1047839e-01
 -1.1819811e-01
  9.0630382e-01
 -2.8062224e-01
 -1.5005790e+00
  1.0636709e+00
  4.1016701e-01
  3.7233934e-01
 -8.8760450e-02
 -5.2429095e-02
 -1.8371318e-01
  1.5888762e+00
 -2.8795984e-01
 -1.8130124e-01
  6.5156609e-01
  2.0110939e-01
  6.2897980e-01
 -8.3019203e-01
  1.8440473e+00
  9.8558515e-01
 -7.4029446e-01
  1.3087517e+00
 -9.5036381e-01
 -2.3844251e-01
 -1.8372252e-03
 -5.6391209e-03
 -5.7016467e-03
 -1.9495513e-02
 -1.5833390e-01
  5.3177584e-05
 -3.4160815e-02
 -4.6116463e-04
  4.4074106e-05
  4.4383010e-05
  1.3031166e-05
 -5.1041011e-04
  2.9810629e-04
 -2.4602091e-06
 -1.2965778e-04
  2.4372164e-05
 -1.2269929e-04
 -7.4551150e-05
 -8.1695104e-04
 -5.2166819e-05
 -1.5123567e-05
  3.7050026e-04
 -5.3024059e-04
  2.5997442e-04
  2.7821410e-05
  2.2524741e-04
 -1.6647395e-04
  2.9745448e-05
 -1.6844676e-04
  1.4758783e-03
  9.0216126e-05
 -2.6761636e-04
  3.1383254e-03
 -1.3955767e+00
 -1.8861543e-02
  1.9225409e+00
 -4.4350821e-01
 -3.9390048e-01
 -3.2728076e-01
 -2.2446841e-04
 -3.6042869e-01
 -5.6631579e-06
 -2.0152105e-04
 -4.5226444e-02
 -4.0681988e-01
  8.5699123e-01
 -1.2782820e-02
 -1.2994554e+00
 -7.9507339e-01
 -7.4667388e-01
 -9.3328631e-01
  5.9682274e-01
 -2.0781630e-03
 -7.9399455e-05
 -2.1517785e-04
 -6.7593932e-01
  3.9600980e-01
 -1.2175803e-03
 -4.7113776e-05
 -2.8220503e-04
  8.2599826e-02
  2.0622487e-04
 -2.0161610e-04
  1.4190918e+00
 -1.1320283e+00
 -2.5777483e-01
 -5.6092584e-01
  1.4111742e-01
  4.8138035e-04
 -5.1494330e-06
 -3.7085752e-03
 -1.2309334e-04
 -4.4779334e-04
 -5.1822735e-05
 -1.5908037e-03
  1.3001357e-01
  4.4434250e-04
 -4.1641879e-06
 -1.4225300e-04
  6.3502630e-05
  6.1807507e-01
 -2.3011831e-04
  7.1590672e-05
 -3.9033624e-04
 -1.1218904e-06
 -1.3618359e-02
 -3.2495597e-01
 -6.0351926e-05
 -6.9939902e-05
  8.1302656e-05
  2.8970989e-04
  9.3865208e-05
 -1.6862128e-04
  2.6115766e-03
  4.6530619e-02
 -4.0833915e-05
  4.8690397e-04
  1.3407324e-04
  2.2515853e-05
  4.9987913e-04
  5.1981671e-05
  1.4134272e-04
 -1.4617346e-04
  4.3307396e-04
  2.6364538e-05
 -2.0674440e-04
 -6.6444620e-05
 -1.3558673e-04
 -1.3897048e-04
  1.3325080e-05
  3.6349178e-05
  4.5708413e-05
  6.8405422e-04
 -3.1779655e-05
  2.2071772e-05
  8.8047986e-05
  1.2965091e-04
  7.8878261e-04
  1.3790313e-05
  5.8106350e-04
  2.6094110e-04
  2.6425234e-05
 -2.5055308e-05
 -4.8475024e-01
  1.0743251e-01
  7.2948672e-02
  2.3254559e+00
 -7.9883766e-01
  6.2114382e-01
  6.8361554e-03
 -5.9633750e-02
 -9.2281228e-01
 -7.1983802e-01
 -5.6255842e-05
  6.4891303e-01
  1.4130946e+00
  1.1899543e+00
  1.2809315e+00
  5.0606195e-02
  3.5985389e-01
  5.2600969e-02
  2.1401994e-01
 -1.8064239e+00
  2.5602493e-01
  4.6809390e-02
 -1.3391397e+00
  6.8780601e-01
 -2.0668170e-01
  3.7178484e-04
  6.7729577e-03
 -3.4609580e-01
 -8.8593771e-04
 -4.5080567e-04
 -4.3294060e-01
 -6.0136789e-01
  1.7415742e+00
  8.6929631e-01
  5.5531961e-01
  6.0516946e-02
  5.0218184e-02
  4.8860610e-02
 -2.3190528e-03
 -3.2982361e-01
  4.8176041e-03
  2.6480327e-04
  1.0588243e-01
  6.3291946e-03
  5.3214514e-01
  2.1922686e-03
 -1.2750120e-01
 -2.3995619e-01
 -2.0233083e-01
 -3.0917794e-01
  1.8909354e-04
 -1.4894363e-04
  2.4749067e+00
  8.1384887e-06
  5.1810412e-04
 -6.5074863e-05
 -9.9543686e-05
 -5.4386628e-01
 -2.4765200e-04
  4.1524190e-04
  3.7408412e-01
 -2.6975524e+00
 -2.7670074e-01
 -8.0801390e-02
 -2.0592196e-01
  4.1495591e-01
 -1.0551075e+00
  3.1783491e-01
 -3.3244517e-01
 -8.8054997e-01
  4.9350855e-01
 -2.2638870e-04
 -1.3935484e+00
  3.1569120e-01
  1.5752126e-05
  4.7855076e-04
 -1.2445289e+00
 -2.1849750e-01
 -2.3279752e-01
 -4.8181263e-01
 -6.6095869e-05
  1.0258576e-04
  3.8369637e-02
 -3.6095107e-01
  7.3870906e-05
  3.4154337e-04
  9.1735065e-02
 -2.4907256e-03
 -1.3645302e-04
 -3.4343256e-04
  3.1940252e-01
 -4.8402104e-01
 -2.5754962e+00
 -1.1738478e+00
 -9.5645410e-01
  1.3060730e+00
 -1.3070069e-01
 -1.0981519e+00
 -1.0567124e-04
  4.1520128e-05
  1.5161899e-02
  4.4423410e-05
  8.4280036e-02
  3.7217498e-01
  3.9882529e-01
  1.7825082e-03
  4.2684986e-03
 -2.7287740e-01
  1.0637983e-01
 -8.0087614e-01
 -8.3885161e-04
 -7.9762614e-01
 -5.8212984e-01
 -9.8290282e-01
  7.4103661e-02
 -1.3025629e-04
  2.3744801e-04
 -2.8112587e-02
  4.8023056e-05
 -1.2964456e-03
  3.6844732e-03
  1.7320755e+00
  4.3094632e-01
 -1.2437640e+00
  1.0472876e+00
 -8.0104686e-02
  1.7989375e-01
  8.8068551e-01
 -7.2886636e-03
 -2.4382994e-01
  3.9549136e-01
  4.5106286e-01
 -7.0713419e-01
  8.5928446e-01
  6.7600079e-02
  6.1062485e-01
  7.0899791e-01
  9.5084172e-01
 -5.3911909e-02
 -4.7901163e-01
  9.5819736e-01
 -7.9745054e-03
  2.5754479e-01
 -8.5878506e-02
 -1.7710808e-01
  2.3708152e-04
  2.4014491e-01
  2.4162506e-01
  2.1322161e-02
 -3.0062422e-01
  1.2058678e+00
  7.4148513e-02
 -1.5334148e-04
 -2.1826352e-04
 -2.6146269e-01
  1.9378684e-05
  1.2704798e-04
  5.7684773e-01
 -1.2692013e-03
 -1.2384790e-05
  5.3890224e-04
 -1.0042496e-04
  8.9742929e-01
 -1.1005440e-04
 -1.5819723e-04
  2.3267008e-03
  1.5387032e-04
 -4.8351103e-01
 -3.2081458e-01
 -2.6219286e-04
  3.8865266e-05
 -4.4279004e-04
 -2.4103421e-05
 -6.3419796e-04
 -1.7464471e-04
  1.5805682e-04
 -8.6406432e-04
  5.4696822e-05
 -1.7952739e-04
  1.7423969e-03
  9.6502084e-01
 -1.8817304e+00
 -4.5778444e-01
 -1.6386241e+00
  3.1594756e-01
 -2.1515845e-04
 -4.5046729e-01
 -1.2706177e-01
  2.5614066e-04
 -3.0508584e-01
 -1.8200718e+00
  1.9296796e-04
  1.8773343e-01
  3.7040862e-01
  8.9974597e-02
  4.8527392e-05
 -8.5540289e-01
  3.1458270e-02
 -1.6853189e-01
 -1.0875434e+00
 -3.3934200e-01
  3.9045546e-02
 -3.1680968e-01
 -3.5454270e-01
  2.8473993e-03
  2.3432649e-05
  3.3715557e-02
  1.3042437e+00
  8.0443928e-03
 -1.7794009e-04
  5.1994288e-01
  1.4977596e+00
 -3.0030825e-04
  1.5490931e+00
  3.2348650e+00
  7.8737810e-03
 -9.8941922e-01
  1.0841948e-03
  1.0815863e-03
 -9.2741650e-01
  1.4764056e-01
 -1.7845219e-04
  1.1345551e+00
  2.3623368e-01
  3.4248725e-02
 -1.6319539e-02
  2.0439008e-03
 -2.4855044e-01
 -2.7795187e-01
 -5.5111092e-01
 -1.3811541e-04
 -4.3319857e-01
  1.6376446e+00
 -9.5534240e-05
  8.0687702e-01
 -7.4193849e-05
 -2.3743797e-03
  1.3900368e-02
 -1.3493880e-04
 -9.8277291e-05
  4.0437949e-01
 -1.5577004e+00
 -1.4871093e-02
  4.5447576e-01
  3.7277290e-01
  7.6996051e-02
  4.8018292e-02
 -3.4060204e-01
  5.6181800e-01
 -5.3484058e-01
  1.6603822e-01
  2.4304695e-02
 -5.6534134e-02
  1.3075486e-01
  1.1109056e-01
  1.7656159e+00
 -3.7542544e-04
 -2.6105803e-01
 -5.0223023e-01
 -6.9866478e-01
  6.2797382e-02
  8.5325487e-02
 -5.9892070e-01
 -1.6441623e-04
 -8.7880924e-02
  5.2227730e-05
  7.8115736e-05
  7.1053851e-01
 -1.6439465e-03
  8.6492015e-05
 -6.7433101e-01
  3.7020510e-01
  1.9055680e+00
  2.8491482e-01
  4.5274699e-01
 -4.3735498e-01
  1.2885011e+00
  2.3744060e-04
  1.3359372e-01
  1.8993139e+00
 -1.5758535e-02
 -6.6101648e-02
  3.4434456e-01
 -5.2096784e-01
 -8.0463678e-01
 -4.8203191e-01
  3.1409031e-01
  1.6926022e-01
  6.4143673e-02
  7.6663554e-01
  1.2294449e-04
  7.4701101e-02
  1.7164359e+00
  7.2001666e-01
 -1.0537552e+00
 -2.2344085e-04
 -5.1220977e-01
  2.5958529e-01
  2.7965885e-05
 -3.8275848e-06
  2.9769565e-06
  9.4541632e-05
 -1.7429500e-04
 -1.4941758e-03
  4.3462060e-04
 -7.0266862e-05
 -7.2973467e-05
  4.7347799e-05
  3.0249258e-04
 -7.7210221e-05
 -4.2841959e-04
 -5.4496515e-04
  2.4319229e-04
  3.3390534e-04
 -2.6213919e-04
 -1.2750748e-05
 -1.4578535e-04
  7.6117727e-04
 -4.9561680e-05
 -1.3436603e-04
  1.9626306e-04
  4.1392757e-04
  2.0923959e-04
  4.6085053e-05
  1.4948929e-04
 -9.6516553e-05
 -1.0313416e-04
 -1.2245107e-05
  1.1456432e-04
 -7.9793506e-05
 -1.9154078e+00
  2.0089552e+00
  8.8786137e-01
 -3.8870940e-01
  3.2898057e-01
 -7.9992396e-01
 -6.8121105e-01
 -9.4195753e-02
 -4.3637624e-01
 -2.0999654e-01
 -1.1966922e-01
  2.2949299e-04
  7.0695925e-01
 -1.5050702e-01
  1.7954415e-02
 -1.0940444e-03
 -4.6656713e-01
  2.8763929e-02
 -4.0768111e-05
  3.6447144e-01
 -8.6160380e-01
  7.4966194e-04
  3.8415272e-02
  2.3951408e-05
 -1.2768466e-03
  6.1708342e-02
  7.6699478e-05
 -1.8058974e-01
  3.5766149e-01
  5.9037142e-02
 -1.8032630e-04
  1.4758676e+00
  1.8682440e-01
  2.9922734e-04
  1.3108554e-04
 -2.8241015e-04
 -1.2881646e-04
 -2.1003924e-04
  3.7392411e-02
  5.3967390e-02
 -3.3419646e-04
 -1.3903829e-05
 -2.4514264e-05
 -1.4994858e-04
 -6.3587227e-05
 -5.4624205e-04
  5.1233137e-04
  3.9692211e-04
  1.6213270e-01
  2.6991835e-04
 -1.0788415e-04
  4.1832449e-05
  3.0430123e-01
  1.1622624e-02
 -2.9545956e-05
 -2.4103381e-04
 -2.6419762e-05
  5.6987210e-05
 -2.3891719e-04
 -1.8754885e-04
 -9.7531521e-01
  1.8456602e+00
  1.4051838e+00
  1.3370203e+00
  1.0282384e+00
  3.4560615e-01
  7.7212214e-01
  5.4179198e-01
 -1.1488198e-01
  9.4678456e-01
  4.3018687e-01
 -2.3906777e-04
  2.9088610e-01
  3.3235332e-04
  2.3818786e-01
  8.5952520e-01
 -7.9538405e-01
  9.2655259e-01
 -3.0416828e-03
  3.3417153e-01
  8.6812121e-01
 -3.1339013e-04
 -1.7598742e-01
  1.3041262e-01
  4.3665085e-02
 -2.8059221e-04
  3.4274603e-04
 -5.1256275e-01
 -1.0495795e-02
 -2.5918058e-04
  4.3842120e+00
  5.3393650e+00
  1.5194415e+00
 -1.9726227e-04
  2.8908606e+00
 -7.8181540e-05
 -2.3061046e-02
  1.0567288e+00
  3.3858010e-01
  8.3015220e-05
 -2.0270950e-04
 -6.7670699e-03
  2.5196645e-01
  3.5386321e-01
 -2.2807432e-04
 -2.1716612e-04
 -1.8577740e-02
  5.4956526e-01
  3.7588227e-01
 -8.9971560e-05
  2.3643744e-04
  4.2942254e-05
  8.5361949e-05
 -3.3200171e-04
 -1.9784030e-04
 -1.7023642e-04
  7.3010422e-02
  2.4244242e-04
 -1.6768851e-04
 -3.2122296e-04
 -2.2595780e+00
 -1.8567191e+00
  1.0117307e+00
  7.7230090e-01
  1.1321439e-01
  7.2790873e-01
  1.3174254e+00
 -8.7008482e-01
 -5.2353448e-01
 -4.7710770e-01
  1.3384978e+00
 -1.5469439e-01
  5.7108641e-02
 -2.5508666e-01
 -6.6668600e-01
 -3.8407159e-01
  1.6104239e-01
 -7.6996756e-01
  5.1353735e-01
  1.3019600e+00
 -1.5777643e-01
 -1.4448287e+00
  5.1078522e-01
  7.9882246e-01
 -8.2572025e-01
  1.1743970e+00
 -1.2811121e+00
 -3.7000182e-01
  1.3862963e+00
 -3.1311643e-01
 -1.9669433e+00
  8.1796658e-01
  1.0180210e+00
  7.5721306e-01
  3.4202889e-01
  3.8448268e-01
 -4.5940036e-01
 -2.4380910e+00
  5.5634868e-01
 -1.1687347e+00
  2.0691004e+00
 -1.1166345e-01
 -7.5605100e-01
 -3.2367113e-01
  2.3896153e-01
  6.8766665e-01
  3.6411434e-01
  4.2827103e-01
  1.3787454e+00
  1.2773197e+00
  3.1582621e-01
 -7.4515158e-01
  5.5547655e-01
  1.1715370e+00
 -2.2584476e+00
 -1.9964722e-01
 -1.0100873e+00
 -4.3659988e-01
  5.3106928e-01
 -2.8188858e+00
 -1.2613138e+01
  6.3999094e-02
  1.1141522e+00
  1.2224379e-01
  2.0503838e+00
  1.7190876e+00
  2.0664774e-01
  3.6783594e-01
  1.0916137e-03
 -1.6573772e+00
 -2.1191724e-01
  8.2656187e-01
 -1.3374135e+00
  8.8711345e-01
  1.7042297e+00
  1.4333173e+00
  1.0143071e+00
  7.2254974e-01
  1.9067813e+00
  7.1802169e-01
  5.6109083e-01
 -5.3037292e-01
 -1.3818334e+00
  4.1947179e-04
 -3.6064890e-01
  2.6678996e+00
  1.4780772e+00
  2.5447490e+00
  2.8424470e+00
  9.8173881e-01
  2.1943986e+00
  4.3490771e-02
  1.5113028e+00
  1.2569162e+00
 -1.1675899e-04
 -2.6840377e+00
 -7.7291417e-01
  1.4109403e+00
  1.7325213e+00
  2.4977694e+00
  1.3979232e+00
 -1.8512721e+00
  5.3697377e-02
  1.1002149e-01
  6.5946972e-01
 -7.8974777e-01
  1.9510335e-01
 -2.7556925e+00
 -3.3841624e+00
  1.2609867e+00
 -4.4746822e-01
  5.6721985e-01
  3.7100205e-01
 -6.8406111e-01
  4.4229317e-01
  1.5533240e+00
  8.0373442e-01
 -3.1396541e-01
  2.5825784e-01
 -4.4490509e+00
 -2.9047043e+00
 -3.6362925e-01
 -5.0191158e-01
 -9.6699572e-01
  2.6525989e+00
  1.4291791e+00
  2.7535362e+00
  1.9899888e+00
  4.2966893e-01
  8.5480082e-01
  3.4105084e+00
  3.2759137e+00
  2.8559716e+00
  6.8435794e-01
  8.0361432e-01
 -3.2431164e-01
  1.0907307e+00
  1.6108283e-01
  2.1989393e+00
  6.8938762e-02
  4.4892356e-01
 -3.0705838e+00
 -3.4976468e+00
 -9.0230954e-01
 -5.1910889e-01
 -5.0795954e-01
 -1.0839564e-01
  3.7290969e-01
 -4.8470336e-01
  1.7849238e+00
  8.8142502e-01
  1.3012873e+00
  1.0165113e+00
 -2.1024766e+00
 -1.9153762e+00
 -1.5312824e+00
  6.4724874e-01
  3.1938128e-02
  2.1997170e-01
 -7.0811576e-01
 -2.8966842e+00
  2.8691068e+00
  1.7931927e+00
  8.9714664e-01
  2.0092587e+00
  1.8154681e+00
  2.9082861e+00
  3.8433003e-01
  6.7585713e-01
 -8.0136061e-01
 -1.8672843e+00
 -1.1110108e+00
  3.1297085e-01
 -2.8473216e-01
  4.3691587e-02
  4.6067563e-01
 -6.7222603e-02
 -1.0140769e+00
 -7.8627843e-01
  1.8329879e+00
  8.1534564e-01
 -1.8062022e+00
 -1.5887381e-01
  1.9727775e-01
 -4.6226743e-01
 -4.6503499e-01
  3.9037755e-01
  1.6328865e+00
  3.2032806e-01
  5.9579343e-02
 -3.6524263e-01
  7.8839028e-01
 -1.6896988e+00
 -1.7503610e+00
 -2.0696697e+00
  9.1843933e-01
 -5.1692712e-01
 -1.3918849e+00
  6.3171707e-02
  1.0493351e+00
  3.9502177e-01
  1.5635052e+00
 -4.5087427e-01
  1.9158076e+00
  1.7210428e+00
  6.4221710e-01
  1.0468547e-01
  8.9605218e-01
  1.6951325e+00
  4.2677504e-01
  1.6861615e+00
  5.1571983e-01
  1.6195147e+00
 -1.8845891e+00
 -8.9286184e-01
 -1.1016818e-01
 -9.4188410e-01
  8.3286309e-01
 -5.9135556e-01
  5.8411992e-01
 -7.7353126e-01
  3.4687090e-01
  2.0691733e+00
  1.2348232e+00
  1.0299933e+00
 -1.6871385e-01
  1.5577355e-01
 -9.5653456e-01
 -2.7545319e+00
  5.4475600e-01
 -1.6466575e+00
  3.1821647e+00
 -3.1351812e+00
  1.6291693e+00
  5.3497565e-01
  1.2367600e+00
  3.6302090e+00
  7.2905505e-01
  4.7808525e-01
  1.1049079e+00
 -1.8061518e-04
  7.2741252e-01
 -1.9211009e-01
 -5.6513500e-01
  8.3248842e-01
 -2.0200911e-04
 -2.6932405e-04
  2.0905726e+00
  1.2500492e+00
  1.5107614e-03
  1.5965984e+00
 -9.5012355e-01
 -8.9464408e-01
 -3.4472451e-01
  1.9214013e+00
  4.8689726e-01
  1.3516897e+00
 -1.3534982e+00
 -2.1918444e-01
  2.7958574e+00
  1.7870792e+00
  2.5987515e+00
  8.4426749e-01
 -1.8086268e+00
 -6.9700396e-01
 -1.4365344e-02
 -5.9632576e-01
 -5.1129192e-01
  3.7744203e-01
  5.4706037e-01
  1.1263130e+00
  1.5756936e+00
  4.5264801e-01
  1.6657460e-01
  1.3757634e+00
  1.9174205e-01
  2.7271107e-01
  3.5079780e-01
  9.2224395e-01
  1.1839902e+00
 -1.1266424e-01
  4.1359192e-01
  9.6524157e-02
  7.1099639e-01
 -1.3895670e-01
  1.7303379e-01
 -5.5093241e-01
  2.7873936e-01
 -7.3737764e-01
  2.2420590e+00
  1.0261295e+00
 -2.3051290e-01
 -1.0291554e+00
 -4.4220886e-01
  9.1707736e-01
  1.5980138e-01
 -1.4404907e+00
 -5.7167721e-01
 -1.1120825e+00
 -5.5128828e-02
  1.2873396e+00
 -1.1018723e-01
  1.1257005e+00
  2.1049573e+00
 -3.1511936e-01
  1.3130754e-01
 -2.7492845e-01
  1.1230897e+00
  8.6237413e-01
  2.1743962e-01
 -1.7039724e-01
  1.4689437e+00
 -8.1170732e-01
  7.5844817e-02
  2.1239863e-01
 -5.0162029e-01
 -4.0693805e-01
 -9.4166750e-01
  5.1336800e-05
 -7.3441421e-04
  4.8232254e-02
  2.6862481e+00
  3.1505797e+00
 -6.2053364e-02
 -1.2163155e+00
 -7.1761155e-01
  1.1086536e-01
 -1.2915391e-01
 -1.5806599e+00
 -1.3233624e+00
  1.3410698e+00
 -1.8327637e+00
 -1.9853152e+00
  2.6162715e+00
 -1.1731657e+00
 -4.1759804e-01
 -9.4855350e-01
  2.0195832e-02
 -4.9628776e-01
 -7.3353344e-01
 -1.8513373e-01
 -1.4797986e+00
  1.5430306e+00
 -2.3747170e+00
 -1.7078958e+00
 -1.7077947e+00
  9.2929661e-01
 -9.6837878e-01
 -4.0806055e-01
  1.8251157e+00
  4.8916000e-01
  1.6618062e+00
  1.0104986e+00
 -2.2319381e-03
 -1.1937969e+00
 -6.5918601e-01
  8.3090913e-01
 -4.3397737e-01
 -1.2162032e+00
  2.3721856e-01
  1.2058222e+00
  7.8933075e-02
  1.3004875e+00
  7.3847288e-01
  4.5330876e-01
 -1.7406422e+00
  1.8978354e+00
  1.0838325e+00
  2.5303761e-02
 -6.1006314e-01
 -9.4392496e-01
  2.5044071e-02
  9.2210490e-01
  2.1454103e-01
  1.4544249e+00
  1.8621032e-01
  1.1677788e+00
 -9.0121353e-01
  3.7885287e-01
  7.4398738e-01
 -2.9230145e-01
 -9.7377002e-01
  8.5546386e-01
  6.4808977e-01
  3.4440696e-01
  2.0781360e+00
  1.4147508e+00
  1.5301609e+00
 -1.1185456e-01
  1.0361468e+00
 -2.2633519e-04
  3.2009655e-01
  1.4014961e+00
  2.4714732e+00
  2.2288523e+00
 -3.1917962e-01
  5.3527427e-01
  7.0922190e-01
  1.2303098e+00
  9.9794424e-01
  2.9184408e+00
  3.3643559e-01
  3.8177869e-01
  1.1749839e+00
  3.5296284e-02
 -4.6435603e-01
  1.4431745e+00
  1.1987181e+00
  1.0561125e+00
  9.5031846e-01
  8.5498428e-01
 -4.1665974e-01
 -2.6314828e-01
  1.1098634e+00
 -1.0367570e+00
 -4.3526208e-01
  2.2771987e-01
  3.0824754e-01
 -9.4888967e-01
 -6.0706604e-01
 -4.0015325e-01
  1.3749077e-02
  1.3749077e-02
  1.3749077e-02
  1.3749077e-02
  1.3749077e-02
  4.3659481e-01
  4.3659481e-01
  4.3659481e-01
  4.3659481e-01
  4.3659481e-01
  2.6195690e-01
  2.6195690e-01
  2.6195690e-01
  2.6195690e-01
  2.6195690e-01
  1.6073452e-01
  1.6073452e-01
  1.6073452e-01
  1.6073452e-01
  1.6073452e-01
  6.7497313e-02
  6.7497313e-02
  6.7497313e-02
  6.7497313e-02
  6.7497313e-02
  4.7941577e-01
  4.7941577e-01
  4.7941577e-01
  4.7941577e-01
  4.7941577e-01
