nep4_zbl 2 Te Ge 
zbl 0 0
cutoff 7 7 81 81
n_max 8 8
basis_size 8 8
l_max 4 2 0
ANN 70 0
 -7.7575438e-02
  6.6270068e-02
 -4.1819331e-01
 -4.4325924e-01
 -6.7442054e-01
  6.0141962e-03
 -8.7053426e-02
 -1.9639227e-01
 -2.5286672e+00
 -1.1362472e-02
 -1.1832412e-01
  7.2808348e-02
 -2.6500870e-02
  7.7463306e-02
 -5.8263939e-02
 -2.0173995e-01
  1.7690949e-02
  7.5054981e-02
 -2.6011361e-02
  1.9980045e-02
 -8.4479094e-02
 -6.1884180e-02
 -9.4442898e-03
  1.1817479e-01
  6.5338358e-02
  5.7163894e-02
 -6.3084692e-02
  3.6172444e-01
 -1.6505657e-02
  2.9007360e-02
  2.4957044e-02
  1.9959807e-01
 -5.2251745e-02
 -3.0008513e-01
 -5.4049127e-02
 -1.1682301e-02
 -2.0980420e-02
 -1.6341385e-02
  1.4818181e+00
  1.0384952e-02
 -1.2869981e-01
 -9.9662021e-03
 -1.3575645e-01
  2.9002225e-02
 -3.4706914e-01
 -2.9950789e-01
 -1.0610673e-01
  6.7785531e-02
  9.1094874e-02
 -2.1772303e-02
 -8.3829977e-02
  1.3898159e-02
 -5.9625123e-02
  1.4781424e-02
  2.3610719e-01
 -2.1911551e-01
  1.2185331e-01
  7.1817242e-02
 -9.9962044e-01
  3.1762636e-01
  1.8394862e-01
 -4.9788147e-02
 -5.5553500e-02
  1.1460672e-01
 -1.2216290e-01
 -1.7787831e-01
 -5.2156769e-02
 -6.6325419e-02
 -1.0821557e-01
 -5.8751799e-02
 -6.2464911e-02
  3.3245195e-02
  1.0395756e-02
  2.5083360e-01
 -7.3918067e-02
  1.2370399e-01
  3.4482487e-02
 -6.3084066e-02
 -1.1774950e+00
  3.4354169e-02
 -8.4313892e-02
 -1.7471869e-01
 -3.1469899e-01
 -1.2995717e-01
  5.1141116e-03
 -1.1853406e-01
  1.0346660e-01
  8.6344071e-02
  1.0927731e-01
  1.3541953e-01
  1.5805867e-02
 -1.6986805e-01
  5.0902456e-02
  8.3955348e-02
  8.1117727e-02
 -1.1586941e-01
 -1.2340188e-02
 -4.6615470e-03
  1.6574891e-01
 -7.1301542e-02
 -1.1102390e-01
 -1.3367789e-03
  1.7835910e-02
  1.9552574e-01
 -4.7102626e-02
 -9.9356979e-02
 -3.1665605e-02
  9.4675481e-02
 -2.8609124e-01
 -6.5010539e-03
 -4.4081837e-02
 -4.1435428e-02
  4.2618975e-02
 -8.8231757e-02
 -6.6319262e-03
 -2.2829597e-01
  6.0022725e-03
  1.3742397e-02
  1.3709506e-01
 -1.0802018e-01
 -2.6174875e-02
 -7.5366892e-02
 -6.8546742e-02
 -4.5794639e-01
  5.3683456e-02
  8.1475459e-02
 -2.7712235e-02
  1.5399069e-01
  3.6679443e-02
  6.6643953e-02
 -7.1484886e-02
 -1.2450134e-01
 -1.2993005e-01
 -9.3545288e-01
  6.3594892e-03
 -1.5622309e-02
  8.2069121e-02
 -3.3932563e-02
  8.2840675e-01
 -8.3162121e-02
  4.8115486e-03
 -1.6851323e+00
  1.6536100e-01
 -1.0103388e-01
  4.6025641e-02
 -9.4546840e-02
 -5.5662528e-02
 -2.2275241e-02
  4.0710745e-03
 -8.4170647e-02
  8.1973463e-02
 -2.5073539e-02
  3.0877642e-02
 -8.8821925e-02
 -2.4536422e-02
  1.6230019e-02
  1.4944454e-02
  1.1312395e-01
  5.3670418e-02
 -1.8820265e-02
  2.0336300e-01
 -1.8038603e-02
 -3.2598230e-01
 -5.8175778e-01
  8.9979023e-01
 -4.5327538e-01
 -5.0173247e-01
 -6.0240746e-01
 -4.5293972e-01
 -4.1836211e-01
  1.7325063e-01
  4.2629901e-01
 -8.9942934e-03
 -1.1018720e-01
  1.0092096e-01
 -1.2969746e-01
  1.7183003e-01
  9.3849801e-04
 -1.4311551e-01
 -3.7248471e-01
  1.3491404e-01
 -2.1367331e-01
 -3.8943908e-01
 -2.8661227e+00
 -4.7683861e-02
 -7.1710065e-02
  1.0283838e-01
 -2.2615752e-01
  1.3230538e-02
  6.4862110e-02
 -5.5675879e-02
 -1.9273888e-01
  7.7443525e-02
  8.2150020e-02
  1.3756818e-01
  1.0726061e-01
 -2.3824799e-01
 -3.3770141e-01
  4.0769541e-01
  1.0220150e+00
 -2.7301912e+00
 -3.6704153e-01
 -9.0129726e-02
  1.5585133e-01
  3.4043840e-01
 -6.0027069e-01
 -8.8022649e-01
 -8.5123228e-03
  1.1474587e-01
  4.1271824e-02
 -8.2760505e-02
  2.3291036e-02
 -7.5115956e-02
  1.0052196e-01
 -1.5526573e-02
 -1.5424532e-02
 -2.0764667e-01
  3.5692805e-01
 -2.5023678e-01
  7.7370411e-01
  5.3949547e-01
  4.0213339e-02
  7.7310246e-01
 -6.3097179e-01
 -5.5500931e-01
 -1.4053652e-01
  2.7044716e-01
  3.2074282e-01
  1.1735294e+00
 -4.1069028e-01
  3.5551548e-01
  2.1091087e-01
  8.6498296e-01
  1.8082991e-01
 -2.2488633e-01
 -1.8428656e-01
  1.4194821e-01
  5.1134836e-02
 -7.1398956e-03
 -4.4204485e-01
 -1.4170752e-01
  6.7482066e-01
  1.3850540e+00
 -1.1869915e-01
  2.0125315e-01
  4.0920717e-03
  8.1757176e-01
  1.4868216e-01
  4.5221061e-01
 -1.9267101e-02
  3.7342811e-01
  2.8769282e-01
  7.3819643e-01
 -1.4415247e-02
  1.0388961e-01
  3.9717090e-01
 -3.9167213e-01
 -1.4958313e-01
 -4.6464297e-01
 -1.2749137e-01
 -2.0706797e-01
  1.6616525e-01
 -3.5339225e-02
 -2.9992345e-01
  1.8259218e-01
  3.0523685e-01
 -4.1520500e-01
 -1.3547859e-01
 -1.6338496e-02
  3.0397961e-01
 -2.2136338e+00
  1.4393895e+00
  2.9718943e+00
  1.3029369e+00
  7.9343569e-01
 -1.6699127e+00
 -9.6976960e-01
  1.1042882e+00
 -8.7243915e-01
  3.3764690e-01
 -1.9822182e-01
 -1.6439216e-02
 -1.8876298e-01
 -3.8262764e-01
 -3.1207727e-02
 -5.5064517e-01
 -8.5972863e-01
 -1.5001932e-01
  4.8311602e-02
  1.2085134e+00
 -1.0430766e+00
 -1.5083863e-01
 -1.8617962e-01
 -3.3077741e-01
  7.6792873e-02
 -1.9347226e-02
 -3.5193530e-01
  2.1315630e-01
 -5.4825342e-01
  5.5803329e-01
  6.3824747e-03
  1.6725659e-02
  1.3852168e+00
 -1.7414111e-01
 -2.7469906e-01
 -8.8582583e-02
  1.1523095e+00
 -6.2073451e-01
  9.9335618e-02
  9.0037185e-01
 -1.0863198e-01
 -2.0645264e-01
  2.1356852e+00
 -8.6917090e-01
  1.9633963e+00
 -2.0918706e-01
 -9.4313554e-02
 -1.8831831e-01
 -5.5709798e-02
  8.0246560e-02
 -1.6459984e-01
  3.4695216e-02
  4.0938843e-02
 -8.4994622e-03
 -2.2733802e-01
 -7.0857876e-03
 -8.7869376e-02
  7.8257397e-02
  1.3175038e+00
  4.9043443e-02
  1.2854806e-01
 -5.6288633e-02
 -1.0232047e+00
  1.3765837e-01
  1.9927965e-01
 -1.4868055e-01
  1.0723748e-01
  1.3198242e+00
 -4.9618649e-01
  1.1385489e-01
 -1.8561642e-01
 -3.8684230e-02
  1.2757885e-01
 -1.3527544e-01
 -2.1551298e-01
 -4.9894419e-02
  2.1888413e+00
  4.0464550e-01
 -5.1361881e-02
 -2.1117856e-01
  6.1400808e-02
 -5.2842706e-02
  7.4996226e-02
 -4.0492728e-02
  5.0311342e-02
 -3.8590536e-02
 -1.8478365e-01
 -1.8438742e-01
 -3.0155337e-01
  5.4478031e-02
  8.4903911e-02
  5.5646594e-03
 -2.4346633e-01
 -1.3289535e-01
  1.4052372e-01
 -1.4746445e-01
 -2.8556066e+00
  1.8606693e-02
  3.0547131e-02
  4.6759337e-02
  1.3639729e-01
 -1.5546977e-02
 -1.3567080e-01
 -2.6525822e-01
  1.6840937e-02
  3.6888499e-02
 -1.2251142e-01
  6.4026080e-03
 -1.0810735e+00
  1.1389712e+00
 -1.2341502e+00
  1.8413364e+00
 -2.6355484e-01
  1.3203024e+00
  1.2712890e-01
  8.1199086e-01
 -5.2033532e-01
 -2.6589245e-01
 -3.7713465e-01
 -2.3097308e-01
  9.2711508e-01
 -1.5038596e-01
  3.8646147e-01
  7.7171102e-02
  1.0577545e-01
  6.8316501e-01
  8.1354451e-01
 -4.8348951e-01
  8.9754783e-02
  7.1411562e-01
  1.3427962e-01
 -4.7057541e-03
  9.9284476e-01
 -2.7573505e-01
 -5.7557786e-01
 -1.5255651e+00
  4.7414157e-01
 -2.8427401e-01
 -4.8003513e-01
 -2.2927701e-01
  1.1415786e-01
 -6.2856257e-01
  3.1595296e-01
  6.8318307e-02
 -1.7445214e-01
  9.4582969e-01
 -1.0373056e+00
  1.1090441e+00
 -1.9666648e-01
  2.9899859e-01
  3.1725556e-01
  1.5195643e+00
  6.8234277e-01
  5.6326598e-01
  5.8018375e-02
 -8.8985339e-02
 -6.4740758e-03
  5.8498360e-02
 -3.5163637e-02
 -2.3401015e-01
  7.1939960e-02
  6.2390666e-02
 -1.8705554e-01
  8.3428508e-01
 -2.3559370e+00
 -9.5543128e-01
 -1.6665338e-01
  1.0622883e+00
  7.0156211e-01
 -1.0318651e+00
 -1.1215065e+00
  3.0007610e-01
  6.1945856e-01
 -9.8169714e-02
  1.9855392e-01
 -1.8340386e-01
  7.0618010e-01
 -1.9639836e-01
 -2.4453044e-01
  3.3190408e-01
  4.2081004e-01
 -2.8894538e-01
 -3.5992926e-01
  2.4240835e-01
 -4.0180430e-01
  4.6894166e-01
  8.2204640e-01
  1.0381469e+00
 -1.7246625e-01
  4.3125904e-01
 -6.4373045e-04
  5.1068109e-01
  1.9409710e-01
 -1.7873183e+00
 -2.0250586e-01
 -2.9265931e-01
 -1.8643044e-01
  1.0410031e-02
 -3.1905073e-01
 -1.4735262e+00
  1.3036649e-01
  2.1147686e-01
 -1.5325861e-01
  1.0034865e+00
  1.2039488e-01
 -1.3553475e+00
 -9.9270582e-01
  2.5756213e-01
  3.0484337e-02
  8.9565158e-02
 -4.5424104e-02
 -1.7080712e-01
 -1.8298467e-01
  1.8280818e-01
  9.5479056e-02
  3.7208125e-03
  1.3570267e-01
 -5.1737392e-01
  2.3193948e+00
 -5.3456080e-01
  4.2032231e-02
 -8.0384654e-01
  7.7460951e-01
 -1.0677648e-01
 -2.2440288e+00
 -1.7003575e-02
  9.9708736e-01
  5.4316022e-02
  6.2007433e-01
 -9.7267963e-02
  6.4546070e-03
  1.3504353e-02
 -7.3992081e-02
  4.5153156e-02
 -1.0920244e-01
  8.0311850e-02
  1.1854646e+00
 -1.9877858e-01
 -6.9898017e-02
  3.3306226e-01
  3.7264666e-01
  4.3636033e-01
  1.2062848e+00
 -1.5961643e-01
  1.2708721e-01
 -6.6464036e-03
  1.9173622e-01
 -2.1209601e-01
  2.9200274e-01
  2.2251140e-02
  1.1545447e-01
 -3.7886134e-01
  2.1822190e-02
 -4.1253388e-01
  1.1096115e-01
 -6.9993836e-01
 -2.1374837e-01
 -6.0428351e-01
  1.4686145e-01
  2.3095639e+00
  1.7359552e+00
 -1.3708127e-01
 -2.6868330e-03
  3.9914720e-02
 -4.3995462e-02
  3.0655579e-03
  4.2741235e-02
  3.8106337e-02
 -1.2862368e-01
  1.2398751e-02
 -1.4188569e+00
 -1.3318611e+00
  6.3728732e-01
 -1.4060906e+00
 -8.6885434e-01
 -3.3267319e-01
 -1.5809374e-01
  4.6853250e-01
  8.7212914e-01
 -3.6761794e-02
 -8.0694757e-02
 -1.5429749e-01
  2.3660288e+00
  4.3752930e-01
 -9.2675048e-01
 -6.2619519e-01
  1.8656847e-01
 -3.6261681e-01
 -8.3444074e-02
  2.5109233e-02
  5.1370406e-01
  2.2626832e-02
  1.5813963e-01
 -6.1153525e-01
 -1.6222483e-01
  2.2210605e-01
 -1.8517736e-01
 -2.7596844e-02
 -6.6095966e-01
 -4.0479577e-01
 -5.9503406e-01
  4.6264285e-01
 -4.3612295e-01
  8.2652360e-02
 -8.1913948e-01
 -6.4962697e-01
 -3.2583514e-01
  1.0632362e+00
 -2.7255930e-02
  1.7532355e-01
  4.4141644e-01
 -4.7846210e-01
  3.6532927e-01
  1.6435860e-01
 -5.5100900e-01
 -5.7117838e-01
  2.1663101e-02
  7.0569016e-02
  5.9031928e-01
 -2.8878477e-01
  2.3498864e-01
 -1.3079521e-02
 -2.4857222e-01
  1.2009338e-01
 -2.2108838e-01
 -9.0129681e-02
 -1.8966655e+00
 -1.0222429e+00
  7.8850102e-01
 -2.2545132e-01
 -1.3031337e-01
 -8.3484817e-01
 -2.0179129e+00
 -1.2352756e+00
 -5.9055495e-01
  9.9123940e-02
 -2.0014332e-01
  7.5732224e-02
  1.0409586e-01
  2.4068256e-01
 -2.9886705e-01
  2.0348883e-01
  1.5347901e-01
  2.5830516e-01
  6.2284146e-02
  5.0982660e-01
  1.6220653e-02
  3.7302387e-01
  6.7503041e-01
 -2.9660296e-01
  7.6970345e-01
  1.1675107e-01
 -4.1248712e-01
 -1.0177857e-01
 -4.0398574e-01
  3.5485604e-01
 -4.6177456e-01
 -2.0710281e-01
  1.3181108e-01
 -2.7809840e-01
 -5.3535663e-03
  1.3574517e+00
 -9.6399449e-02
  2.3698330e-02
  2.3922659e-01
  6.6637808e-01
 -1.0246476e+00
  1.1979175e+00
  3.9961096e-02
 -1.9137852e-01
 -9.2964254e-02
  1.3127185e-01
  1.8263701e-03
 -1.6798639e-01
  3.4166384e-02
  1.9986667e-02
  1.2952960e-01
 -6.2809251e-02
  3.0637857e-02
  1.0388403e-01
 -1.9544525e-02
  6.1504632e-02
 -3.5479230e-01
  2.3329902e-01
  1.7950110e-01
  8.0295146e-02
  4.3978322e-02
 -6.2298559e-02
  5.2716944e-02
  1.0768155e-02
 -1.5314905e-02
 -3.3755566e-04
 -2.3900505e-02
 -1.0246270e-01
  6.2088829e-02
  1.0621798e-01
 -2.2669062e-02
  3.0463729e-03
 -1.7952795e-01
  1.0543935e-02
  1.1419783e-01
 -1.6270992e-01
 -1.5222938e-01
  1.6469067e-02
 -4.7847220e-01
 -5.4422442e-02
 -2.7639994e-02
  2.5024550e-02
  2.6236694e+00
 -1.8760962e-02
 -3.0918948e-02
 -1.4821226e-02
 -3.4317519e-03
 -7.1684413e-02
 -1.5222855e-01
 -2.3188338e-02
  3.7149698e-02
  1.2399717e-01
  7.2775595e-03
  4.9814419e-03
 -9.6459668e-03
 -8.1178192e-03
  1.1865943e-01
 -1.7845547e-01
 -2.5300818e-02
 -3.3600025e-02
  5.5106574e-01
  9.1857530e-02
  1.0593858e-01
 -7.1445443e-02
 -1.0119488e-01
  1.3198777e-03
  5.2592941e-03
  7.8509338e-02
  1.8818760e-01
  4.7856125e-01
 -1.4453751e-01
  2.8297979e-01
  9.2377037e-02
 -4.2745057e-02
 -2.3089464e-01
 -9.5434815e-02
  6.9833674e-02
  6.1745467e-03
  4.5457289e-02
 -4.5105994e-02
  1.3697805e+00
  4.8067469e-02
  8.3481178e-02
 -3.4921783e-01
  6.5681159e-02
  1.5894476e-02
  1.0782810e-02
  4.9653724e-02
 -4.5320831e-02
  1.8241916e-02
  1.5376779e-01
  4.4165302e-02
  5.4204416e-02
 -2.7675778e-01
 -9.8086044e-02
  1.9090889e-02
 -6.1036449e-02
 -2.3148924e-02
  8.9696944e-02
  7.3620692e-02
  7.0151337e-03
 -1.4933886e-01
 -5.2874666e-01
  6.1741948e-02
 -1.5006955e-02
  2.1981445e-01
 -6.7224830e-02
  6.7729481e-02
  2.7257371e-01
  1.6555405e-01
 -3.5271505e-01
 -2.8189486e-01
  1.9836475e-01
 -4.9436253e-02
 -2.0858862e-02
  5.7598581e-03
 -7.0025928e-02
 -6.6514879e-02
  1.7164710e-01
  2.8724233e-02
  8.7680846e-02
 -4.5617211e-01
 -1.1179777e+00
 -1.3227861e+00
 -1.1535723e+00
  1.0696539e+00
 -1.4188735e+00
  2.7900609e-01
  5.9621131e-01
  7.2389901e-01
  9.2428696e-01
  4.7375076e-02
  1.9191142e-02
  3.7179348e-01
 -1.2255383e+00
  8.1364143e-01
  9.9253809e-01
 -8.0197895e-01
  6.4476031e-01
  5.4870254e-01
 -1.8557616e-01
  5.3940173e-02
  1.7119372e+00
  2.1636747e-01
  4.3694222e-01
 -9.1284716e-01
  8.7064728e-02
 -2.6599231e-01
  6.1813599e-01
 -4.9589005e-01
  3.8024670e-01
  2.1089954e+00
  4.4936201e-01
  6.5333778e-01
  6.2679881e-01
 -9.2513561e-01
 -5.5042069e-02
 -3.7222609e-01
 -4.0948638e-01
  8.9085007e-01
  5.9838158e-01
  5.1000440e-01
 -1.4743659e+00
  5.2539414e-01
  5.9312854e-02
  1.3805845e-01
  2.3916712e-01
  2.0944374e-02
 -2.9606372e-02
 -7.9770190e-01
 -1.0594278e-01
 -4.8406329e-02
 -4.6499556e-01
 -1.5108173e-01
  4.3675244e-02
 -1.5839875e+00
 -7.9819173e-01
  3.0813435e-01
 -1.1878858e+00
 -2.1753454e+00
  1.3274825e+00
 -9.5491582e-01
  1.1727095e-01
 -6.5408504e-01
  4.6017179e-01
 -9.4771087e-01
 -3.8959891e-01
 -1.7413895e+00
  6.3786018e-01
  1.2541311e+00
 -5.2603531e-01
  1.9890735e+00
 -2.8598750e-01
 -6.4940757e-01
  1.6255099e-02
 -3.2580477e-01
 -6.2347516e-02
 -3.8231924e-01
 -7.0082581e-01
  6.2310374e-01
  2.4185839e+00
  3.0165541e-03
  1.2090360e+00
  7.1829242e-01
 -1.5350866e-01
 -2.9688479e-02
 -3.2803873e-03
  7.8420621e-01
 -1.2065437e-01
  2.8803590e-01
  2.6414287e+00
  3.0832702e-01
  1.6748543e-01
  4.0859097e-01
 -1.2713588e+00
 -1.9743764e-01
  5.7659394e-01
  2.6167667e-01
  3.0993971e-01
 -4.9562731e-01
  1.0980704e-01
  5.9975845e-01
  3.7325960e-01
 -4.8991761e-01
 -3.7257717e+00
 -7.3950842e-02
  2.2645555e-01
  2.8570837e-01
 -3.1063211e-01
  6.9683915e-01
 -5.8814538e-01
  6.3144219e-01
  6.8079340e-01
 -7.0990652e-01
  4.3158063e-01
 -8.3306837e-01
 -1.0916318e+00
 -8.4716655e-02
 -3.0019370e-01
  8.3044119e-02
  3.3410460e-01
 -3.6120412e-01
  1.4046375e-01
  5.0155237e-02
 -1.9394596e-01
  4.1003019e-01
 -1.1271787e-01
  1.2366299e-01
  3.6993530e-02
  4.2511249e-01
 -2.6305974e-01
 -1.9970400e-02
  6.5547514e-01
  4.0897301e-01
 -2.9184014e-01
 -1.6882105e-01
  1.5585072e-01
  3.6887002e-01
 -4.0649097e-02
 -2.2688863e-01
  3.6573794e-01
  3.4913492e-01
  8.4711337e-01
  9.7657502e-01
 -7.7538693e-01
 -3.3605036e-01
  1.5214030e-01
 -1.8066303e-01
 -3.3194926e-01
 -2.2852115e-01
 -1.8419091e+00
 -3.8550144e-01
 -2.3881876e-01
  3.7695917e-01
 -1.0911203e-01
 -2.9709121e-02
  1.3358995e-01
  1.9323757e-01
 -1.8357643e-01
 -3.0198070e-01
  2.6116201e-01
 -1.8279685e-01
 -1.6176600e+00
 -1.4853995e+00
 -7.4971211e-01
  7.2139037e-01
  6.6292840e-01
  1.0201960e+00
 -1.3825409e+00
 -3.5753201e-03
  2.0255008e+00
 -7.7537253e-02
 -5.3181869e-01
 -1.0924016e+00
 -6.0072261e-01
 -1.9028720e-01
  8.4197503e-01
  1.4722602e+00
 -2.8312415e-01
 -7.5495374e-01
  8.9279771e-02
  7.4354523e-01
 -1.2172418e+00
  1.8327050e-01
  2.0805885e-01
  1.4771794e-01
  3.9196411e-01
  2.6740858e-01
 -5.0032043e-01
  2.4951556e+00
 -9.6588695e-01
  1.5389169e-02
  9.9665964e-01
  7.5755554e-01
 -4.0097812e-01
  2.3629732e-01
 -5.0276541e-03
  5.0290287e-01
  2.1197790e-01
 -1.0891787e+00
 -3.5054758e-02
  6.4874858e-01
  3.6761159e-01
 -3.7842330e-02
 -9.8857039e-01
  4.5959666e-01
  9.7610450e-01
 -1.3627683e-01
 -3.7292871e-01
  1.2645665e-01
  4.0540195e-01
 -2.0486972e-01
  1.3838696e-01
 -8.9968942e-02
  4.7566730e-01
  9.1635704e-02
  1.3562746e-01
 -5.6169504e-01
 -3.9670947e+00
 -5.6832558e-01
 -6.4831841e-01
  4.6456093e-01
 -1.9061284e+00
  5.5149341e-01
  1.3788024e+00
  3.5709415e-02
  4.3480349e-01
 -1.9965562e-01
 -1.7507709e+00
 -2.0997596e-01
  3.7569901e-01
 -1.1388196e-01
 -2.7348638e-01
  8.4824584e-02
  3.4499955e-01
 -1.4753868e-01
  1.1348950e-01
 -9.5742866e-02
 -1.2856159e-01
  2.4610601e-01
  1.3801315e-01
 -2.5649862e+00
 -5.4944408e-01
  6.2462562e-01
  1.0753755e-01
 -1.8546133e-01
  9.5338538e-02
 -4.7291368e-01
 -3.3343861e-01
 -6.1057586e-02
 -1.6917938e-01
  1.7621766e-01
  4.5309755e-01
 -1.6194527e+00
  2.0873804e-02
 -5.9317762e-01
 -7.1457900e-02
  2.8404438e-01
  4.6392012e-01
  9.0508187e-01
  1.8193518e-01
  9.4998956e-02
  7.4341640e-02
 -2.7622584e-01
 -1.8622701e-01
  1.7908094e-02
 -3.5860897e-03
  3.2840988e-01
  1.0534482e-01
  8.4359869e-02
  2.9439649e-01
  1.8085641e-01
  7.4263775e-01
 -4.1621714e+00
 -1.7105161e-01
 -4.6412995e-01
 -7.6107109e-01
 -3.6873061e-02
  8.1885958e-01
  5.9563267e-01
  2.1632895e-01
 -5.1442146e-02
 -6.2473156e-02
 -2.4950570e-01
 -1.0005931e-01
 -6.6046995e-01
 -1.2102222e-01
 -7.2100610e-02
  3.2408837e-02
 -3.3467409e-01
 -3.2102445e-01
 -9.6822508e-02
 -5.4338384e-01
 -4.5711768e-01
  1.3736233e-01
 -2.2727974e-01
 -1.9514896e-01
  5.5844617e-01
  3.3365822e-01
 -1.6057371e-01
  6.9055283e-01
  4.8948333e-02
 -1.7878780e-02
  9.8857629e-01
  3.5921186e-01
  4.1886594e-02
  2.1514975e-02
  4.4258979e-01
 -2.3635066e-01
  3.6041620e-01
 -2.2107836e-02
 -2.3363073e-01
  9.4844800e-01
 -3.1573299e-01
  4.7145513e-01
 -1.8596722e-01
  1.6806562e-01
 -1.5707281e-01
 -2.6145620e-02
 -5.9246797e-02
 -3.1659991e-01
  9.9660028e-03
 -1.5163338e-01
 -1.1060929e-01
 -1.2718308e+00
  1.0223665e+00
 -6.2471074e-01
  1.3408597e+00
  8.7765872e-01
 -2.5767851e+00
 -1.5469095e+00
 -8.6156480e-02
  9.8191696e-01
 -2.3192842e-01
 -8.0592084e-01
  1.1609018e+00
 -1.1189563e+00
  2.1416326e+00
 -1.0949428e-01
  5.0842129e-02
  6.9959110e-01
 -2.1355316e-01
 -3.9510924e-02
  1.2223376e-01
 -1.8386927e-01
 -8.0403537e-01
  3.8861945e-02
  9.1368094e-02
 -3.0699322e-01
 -5.5009049e-01
  5.2518803e-01
  1.3680671e-01
 -5.8651578e-01
  4.9496555e-01
 -1.5526531e+00
  1.7756546e+00
 -4.2542702e-01
  1.8572302e+00
 -1.3343506e-01
  4.6462838e-02
  9.0384275e-01
 -1.5767277e+00
  4.0923020e-01
 -5.0013053e-01
  4.1982865e-01
  4.6083203e-01
 -1.4616250e+00
  1.4531240e+00
  1.1599363e+00
  3.0129334e-01
  1.1119685e-01
  2.9536529e-02
 -6.4130224e-02
 -6.8332183e-01
  2.3943743e-01
 -4.4689324e-02
 -4.2281497e-01
  5.9416149e-02
  3.9787784e-01
 -1.1306524e-01
 -1.8714564e-01
  1.4072226e+00
  2.6671252e+00
 -4.1234025e-01
 -1.6905957e+00
 -5.8920175e-01
 -5.8525163e-01
 -1.4146464e-01
  2.0997740e-01
 -8.1384435e-02
 -6.7185932e-01
 -2.5619082e-02
 -4.0750885e-01
 -6.1447453e-02
  3.0671367e-01
  1.3347375e-01
  3.7226949e-02
 -1.5592128e-01
  9.5483810e-02
 -1.7039042e-02
  3.0803544e-02
  3.9633129e-02
 -7.1337208e-02
  2.9990062e-01
 -1.8550421e-01
 -8.1559554e-02
  8.0083840e-02
  2.8872129e-02
  7.3386252e-02
 -7.3519818e-02
  1.5093026e-01
  7.0830183e-03
  1.9370194e-01
  1.3715338e+00
 -1.6459885e-01
  1.7166267e-01
  2.5852114e-01
  3.8753923e-02
 -4.0595565e-02
 -2.4196774e-01
 -4.4585857e-01
  5.6904691e-01
  5.0970446e-02
  2.9207057e-01
  4.9188223e-02
 -1.7388122e-02
 -7.1126670e-02
  1.0619823e-01
  5.8101572e-02
 -5.1448353e-02
 -1.3980006e-01
  1.2420190e-01
 -1.5997020e+00
 -3.0979007e-01
 -4.6629596e+00
  4.4477539e+00
 -2.6702833e+00
 -8.7302506e-01
  5.9368730e-01
 -1.9272661e+00
  1.1182364e+00
 -3.0342419e+00
  5.8507001e-01
 -1.6859064e+00
  2.9792678e-01
 -7.7506286e-01
 -1.6713135e+00
  2.8546801e-01
  2.5102171e-01
  9.0256110e-02
  3.0001042e+00
 -3.0441630e-01
 -6.5904462e-01
 -5.8572769e-02
 -2.3344016e+00
  1.8613775e+00
  1.5206568e-01
  1.4083046e-01
  3.5077879e-01
  2.1945608e+00
  4.0474761e-01
 -3.5011568e+00
  8.0047928e-02
 -1.4363859e+00
  1.5786989e-02
  1.2056915e-01
  1.3647979e-01
  1.6176122e-01
 -1.7564712e+00
  5.0003713e-01
 -6.3099194e-01
 -1.4048110e-01
 -5.8042693e-01
  6.4400119e-01
  4.6724144e-01
 -9.0921380e-02
  3.3304384e-01
  8.8990629e-02
  2.5722025e-02
  2.4312025e-01
 -4.9478193e-03
 -1.5831349e+00
 -2.7998209e-01
  9.7948976e-02
  1.5235947e-01
  6.7987315e-02
  1.2552795e-01
  1.5449382e-01
  5.2755211e-02
  6.2938808e-03
 -7.4859565e-01
  3.3286992e-01
  1.0161571e-01
 -1.1642803e-01
 -7.5970434e-02
 -4.8055250e-02
 -3.2663148e-02
 -1.1477551e-01
 -5.3732403e-02
  2.4207136e-02
 -6.2523015e-02
  4.5433603e-03
  2.6191289e-02
  1.4783134e-01
 -5.5544011e-02
 -3.8731080e-02
  8.9282338e-03
 -1.1159454e-02
  1.2464110e-02
 -9.1316521e-02
  3.5103157e-02
  5.4903675e-02
  1.2580808e-02
  3.5640416e-01
  1.1314985e-02
  1.0598326e-01
  5.8593757e-02
 -8.0543071e-02
 -6.6468291e-02
  2.8070753e-02
  9.5173433e-02
  8.5611439e-01
 -4.7962964e-02
 -4.4083256e-02
  6.3265942e-02
  4.8870530e-02
  8.2185291e-02
  5.8583707e-02
 -6.7045555e-02
  5.9789386e-02
  6.7819506e-02
  6.5076403e-02
 -3.4972657e-02
  9.3159206e-02
 -4.7802690e-02
 -2.5681877e-01
 -1.2164181e-01
 -1.1705063e-01
 -1.9262623e-02
  5.7247621e-01
  1.8642423e+00
 -3.6825316e+00
 -1.2105219e+00
  1.6690608e+00
  1.1243690e+00
 -1.5520231e+00
  2.0188310e+00
 -2.8654726e+00
 -7.0482457e-01
 -5.1022911e-01
  9.6042313e-02
 -2.4457574e+00
 -5.7367080e-01
 -9.1292721e-01
  1.3606075e+00
 -1.4389689e+00
 -1.2540740e+00
  3.7779696e-02
  1.6731182e-01
 -7.6114237e-01
 -5.4166149e-02
  3.3483718e-02
 -1.2400269e-01
  1.1551008e-02
  1.4240199e+00
  2.5766540e+00
  6.2607962e-01
  2.1416388e-01
  3.6313149e-01
  1.3567822e+00
  6.5105760e-01
 -4.9948981e-01
  4.7251108e-01
 -6.7651212e-01
  1.0604163e+00
 -1.6068181e+00
  1.1280577e+00
 -2.4799063e+00
 -1.2382658e+00
  1.5244007e-01
 -1.1729298e+00
  1.8831820e+00
  2.3271708e-01
  8.5267228e-01
 -2.4233587e+00
  5.5828321e-01
 -1.7957000e-01
 -4.5647103e-01
 -5.7052135e-01
 -6.4995122e-01
  1.0151472e+00
  4.9619681e-01
 -5.5342582e-03
  3.0538294e-01
  6.1667526e-01
 -2.5962600e-02
  2.4550994e-01
 -1.5730337e+00
 -1.3832161e+00
  8.1446582e-01
  1.9508117e+00
  6.2555599e-01
 -3.7835768e-01
 -1.7821623e-01
 -3.5107467e-01
  6.8463567e-03
 -8.3924308e-02
 -2.0455224e-02
 -3.0624804e-01
  2.9082894e-01
  2.2405899e-01
  2.4713366e-01
 -4.9676502e-01
 -1.2244730e-01
  1.7438763e-01
  2.4157530e-01
 -7.8875786e-01
  2.5945619e-01
 -1.5142946e-01
 -8.5568704e-02
 -1.5285471e-02
 -4.2943078e-01
  6.2428508e-02
 -2.7916342e-01
 -3.7901536e-01
 -3.4801924e-01
 -3.5153061e-02
 -1.0717434e-01
 -4.8336465e-02
 -1.4256122e-02
  4.3887261e-01
  1.0803707e-01
  1.7151976e-01
  3.4593803e-01
 -3.1805024e-01
 -2.9182580e-01
 -7.0376325e-01
  3.8258803e-01
 -3.7930584e-01
  2.6798517e-02
 -1.0162661e-01
 -3.2928053e-02
 -4.8960313e-02
  1.2698022e-01
 -3.9794993e-02
 -1.1798660e-01
  7.9307772e-02
 -4.6592334e-04
 -6.1575878e-02
 -8.2573500e-03
 -1.9707833e-01
 -5.6285679e-01
  1.5123661e-01
 -4.0300649e-01
 -2.6084319e-01
 -8.3309650e-02
 -2.8535033e-02
  3.5139728e-01
 -1.2124262e-01
  1.2269236e-02
  1.9061243e-02
 -6.7510553e-02
 -3.2513984e-02
 -5.3504542e-02
  1.0295920e-01
 -4.8551373e-02
  3.2091287e-01
  3.2266140e-01
 -3.1472087e-02
 -1.3912000e-01
 -2.2770686e-01
  9.2056178e-02
 -8.7339386e-02
 -4.3444201e-02
  3.9254218e-02
  2.2849923e-01
 -1.3787881e-01
  7.8485109e-02
  6.0773715e-02
  3.0211896e-01
 -8.6760111e-02
  9.2338204e-02
  1.4697699e-01
 -1.3704042e-01
  7.3523027e-01
  2.2527611e-01
 -2.4942438e-01
 -1.2870495e-01
  4.9508404e-02
 -1.8604630e-01
  4.3104860e-01
 -3.6941046e-01
  7.4976251e-02
 -3.5436928e-01
  7.7228164e-03
  1.1570654e-01
 -1.1051553e-01
 -1.8574515e-01
 -1.0864054e-01
  2.4940401e-02
 -3.3206083e-02
 -3.0939791e-02
 -7.2276093e-02
  2.5313887e-01
 -1.2526109e+00
 -1.0104432e+00
 -1.0814404e+00
 -6.4153835e-02
 -1.4665277e+00
 -2.5679925e-01
 -6.0377163e-01
  7.7002463e-03
 -1.0332993e-01
  1.1150933e-01
  1.1106905e-01
 -1.7082487e-01
  1.1219628e-01
 -2.0921455e-01
  3.1316266e-03
  3.0455556e-02
 -1.6740412e-01
  2.0413840e-01
  4.7892615e-02
 -5.4131422e-02
  1.2881484e+00
 -1.5912680e-02
 -9.1116711e-02
 -1.9135922e-01
  2.0857997e-01
 -1.0225625e-02
 -1.4838673e+00
 -8.3484687e-02
  1.5346950e-01
 -1.1724179e-01
 -1.9456559e-01
 -1.0322226e-01
 -7.7254623e-02
 -1.5183650e-01
  9.2940204e-02
  7.8437150e-02
 -7.2970808e-02
  1.5071076e-01
 -1.4364079e-01
 -1.5904962e-01
 -1.2188874e-01
  1.5440156e-01
 -1.7388308e-01
  1.1357189e-01
 -2.1952802e-01
 -1.1824624e-01
 -1.3000469e-01
 -1.3854043e-01
  7.4973553e-02
 -5.8934186e-02
 -1.3961200e-02
 -1.9203123e-02
 -3.3046886e-01
  6.5514922e-01
 -1.5023762e-01
 -4.0079802e-01
  5.1873612e-01
  2.8288448e-01
  6.7554432e-01
 -8.0241337e-03
 -3.3002090e-01
 -1.0609152e-01
 -1.4521050e-01
 -4.6098530e-01
 -6.4900570e-02
 -1.3823640e-01
  2.2227673e-01
 -2.5245807e-01
 -3.2566079e-01
  3.5617766e-01
 -2.9508683e-01
  2.4536552e-01
 -1.7834067e-01
  4.7156371e-02
  2.9803267e-01
  4.0901458e-01
  4.9015501e-01
 -1.2385560e+00
 -3.1483553e-02
  1.7632608e-01
  2.2483394e-01
  6.9638032e-01
  1.8441056e-01
 -3.6082479e-01
  4.3218499e-01
  3.9450556e-01
  1.3433216e+00
  3.6000398e-01
 -8.5172080e-02
  1.1385400e-02
 -1.8360090e-01
 -1.9145566e-01
 -2.3989497e-02
  2.7028465e-01
 -5.7747710e-01
  1.8616390e-01
  5.6453389e-01
 -1.1737573e+00
 -1.1090007e-01
 -1.5537499e-01
  1.4870042e-03
  1.0567403e-01
  4.3141991e-02
  2.7401464e-02
  4.0450600e-01
 -2.2653984e-01
 -1.4194775e+00
 -1.9500281e-01
 -1.2506499e+00
 -1.2758878e+00
 -1.4198961e+00
 -3.3069596e-01
  8.7569970e-01
  8.0646431e-01
  2.0075514e+00
  7.9874925e-02
 -4.9704155e-03
 -2.1214804e-01
  1.0767936e-01
 -9.1010407e-03
 -2.4318693e-02
  6.1898595e-01
 -1.9123226e-01
 -1.2464693e+00
  2.8162611e-01
 -2.2420761e-01
 -5.3598523e-01
 -2.4014474e-01
 -3.2413530e-01
  1.9213478e-01
 -1.3209562e-01
 -6.5584016e-01
  1.0169066e+00
 -5.1635176e-02
  1.1182331e-01
 -4.6524861e-01
  1.2812112e-01
  4.5158546e-02
 -1.7565158e-01
 -4.3135586e-01
 -1.6998908e-01
 -1.1716735e+00
  2.9649857e-01
  1.7530949e-01
 -8.6679143e-01
  5.0976360e-01
  1.3551655e-02
 -9.0265393e-02
 -1.7916801e+00
  3.4937125e-01
  1.9037215e-02
 -1.1547168e-01
  6.8552472e-02
 -1.5326533e-02
 -1.6974351e-01
 -1.2486388e-01
 -1.0904308e-01
  1.5866244e-01
 -3.8510509e-02
 -3.1540391e-01
 -2.1203293e-01
  1.4795241e-02
 -9.0698808e-01
 -1.5049536e+00
  2.5798209e+00
 -1.0110978e+00
 -1.0645360e+00
  3.3601425e+00
 -2.3068368e+00
 -2.5112321e+00
  3.2675557e-03
  7.6513594e-01
  1.9959380e-01
 -2.4910016e-01
 -4.9030754e-01
  9.1171539e-01
 -6.6799539e-01
 -6.3205165e-01
  1.4643327e+00
 -9.3140444e-03
  7.3782122e-01
  1.5071945e-01
  2.3744979e+00
 -1.9483752e+00
 -6.1026460e-01
 -2.2972732e+00
 -2.6542661e+00
 -9.6941441e-01
  7.2036227e-03
 -2.5915700e-01
 -1.0027939e+00
 -2.1030853e+00
 -5.2564442e-01
 -2.7112323e-01
 -5.2663451e-01
 -9.8041093e-01
 -1.8630339e-01
  4.9836954e-01
 -7.7617735e-02
  3.6075257e-03
 -2.9560344e-02
 -1.0887762e+00
 -4.6547025e-01
 -1.3489522e-02
 -9.7608119e-01
 -3.5781673e-01
  1.0807055e-01
  1.2715852e-02
  5.3980015e-02
 -7.5937742e-01
  4.8725280e-01
 -1.8050540e-02
  3.0280289e-01
  9.6515648e-02
  1.2701322e-01
  7.2183001e-01
 -3.1926174e-02
  9.6525711e-01
  3.9627281e-01
 -3.6268744e+00
  1.6352295e+00
  1.2659650e+00
 -3.9828687e+00
  3.9150643e-01
 -1.3149437e-01
  2.1454643e-01
  2.2956207e+00
  2.4788781e-01
 -1.7726429e-01
 -6.6079283e-01
  2.2344775e+00
 -5.0891870e-01
  4.7968647e-01
 -3.2925782e+00
  1.2941264e+00
  1.1783519e+00
  6.8249586e-03
 -2.6418269e-01
 -4.4721276e-01
 -4.1657794e-02
 -9.4256026e-01
 -9.3227625e-02
 -3.6789808e-01
 -2.6024485e-02
 -3.0273744e-01
  5.1325876e-01
  1.1130357e-01
  1.9893084e+00
 -2.1158704e-01
 -6.7358658e-02
  5.2885652e-01
 -9.4221288e-01
 -5.3106809e-01
 -1.7848111e+00
  2.7314940e-01
  1.0395937e+00
  3.0087399e-01
  1.0895653e-01
 -1.9552982e+00
 -3.9509621e-01
  5.2626759e-01
 -3.8404483e-02
 -3.2294378e-02
 -2.0484343e-01
  9.3855843e-02
 -2.1804485e-01
  1.7821978e-01
  2.2870131e-01
 -2.7109196e-02
 -1.9981170e-02
 -2.3439566e-02
 -4.6470144e-01
  1.4300002e+00
 -4.5535529e-01
 -1.0213825e-02
  4.6714038e-02
 -1.3672228e-01
 -1.4706032e-01
  1.8881679e-02
  1.9862211e-01
  1.9807142e-01
  1.2660199e-01
  2.2816870e-01
 -3.0526441e-01
  1.1952925e-01
 -1.8204633e-02
  2.3578022e-01
 -1.2046224e-01
 -5.2887667e-02
  6.9088697e-02
 -1.3592729e-01
  9.4290011e-02
 -1.1584504e-01
 -1.8149424e-01
  9.8356090e-02
  1.9544981e-01
 -5.7343010e-02
 -1.5381397e-02
  9.4353378e-02
  6.2557489e-02
 -5.9363157e-02
 -1.0041272e-01
  1.4632630e+00
  2.4722368e-02
  1.0977791e-02
  3.3233926e-02
 -6.5051220e-02
  2.2745783e-02
 -3.0739592e-02
  1.6208588e-01
  1.9107905e-01
  6.8279698e-02
 -2.0019788e-01
  2.5682738e-02
 -5.4131135e-02
 -4.2870171e-02
 -2.7821911e-02
 -2.1236452e-01
  1.0970853e-02
 -9.2766494e-02
 -1.7080919e-01
  5.4253869e-02
  4.2333670e+00
  8.5043496e-01
  1.1866287e+00
 -7.9564726e-01
 -9.5396847e-01
  1.6733174e-01
 -8.8288265e-01
 -1.4005083e+00
  1.5748699e+00
 -1.5186459e-01
  8.6852902e-01
  2.7485049e-01
  9.8898828e-01
  1.6019042e+00
  2.8028336e-01
 -3.3754542e-01
 -1.0447166e+00
  4.2382008e-01
 -1.9570622e+00
  9.5568913e-01
  7.8088436e-03
 -1.8617198e-01
  1.6817280e+00
  6.7814797e-01
  8.7874573e-01
 -5.3159785e-01
 -1.2663912e+00
  1.2552832e-01
  1.1972890e+00
 -1.2189983e+00
  1.5517673e+00
  2.3531611e+00
  1.5316917e-01
 -1.9741974e+00
  5.9112388e-01
 -3.5790834e-01
 -1.9621397e+00
  2.6645911e+00
 -3.2422632e-02
  8.8994497e-01
  1.2704666e+00
  6.4800605e-02
 -1.6900202e+00
 -6.0743909e-02
 -2.6061223e+00
  8.6089879e-01
  9.0012334e-02
 -2.9091468e-01
 -3.0520347e-01
 -4.9628589e-01
 -2.6933146e-01
  1.8377766e-01
 -7.7736698e-02
  4.4631395e-03
 -4.3214178e-01
 -5.2876467e-01
 -3.6058061e+00
  1.3690051e+00
 -6.3445890e-01
 -4.8248601e-01
  7.1599618e-02
 -4.7222266e-01
 -7.6312667e-01
 -4.5796152e-02
  9.6626207e-02
  1.0860637e+00
 -1.6992764e-01
  4.8206770e-01
  2.7134213e-01
  2.4683328e-01
  2.2833978e-01
 -2.8184906e-02
 -5.7548797e-01
 -3.6965913e-01
  6.9945872e-01
 -1.9889018e-01
 -1.4256198e-02
  7.3112470e-01
 -5.2049804e-01
  9.7180903e-02
 -5.0038505e-01
  1.7304336e-01
  6.4145371e-02
  7.3587734e-01
 -4.8820566e-02
 -3.7613645e-01
  2.8362173e-01
  4.8264802e-01
  1.6030084e-01
  9.4740212e-02
  1.6299610e-01
  3.7633535e-01
  4.8573768e-01
 -1.9069044e-01
  6.9224030e-01
  1.0876521e+00
  3.4537190e-01
  3.9581636e-01
 -5.0287831e-01
 -1.7289619e-01
  8.3395481e-02
  2.7310920e-01
 -5.1422124e-03
  5.8983183e-01
 -1.1229289e-01
 -3.3036277e-02
  1.1404015e-03
  1.2577523e-02
  4.3199396e-01
  3.1232902e-01
  7.8014910e-01
  1.3099401e-01
 -1.2066031e+00
  5.4714132e-02
  2.8491698e-02
  2.9571739e-01
 -1.2537166e-01
 -1.2552379e-01
 -5.9047746e-03
 -8.5943885e-02
  1.9824864e-01
 -2.9117765e-02
  1.7387396e-01
 -1.2451237e-01
  6.6875726e-02
 -6.7784697e-01
 -8.0166221e-02
  3.9808534e-02
 -7.7773526e-02
  6.7937352e-02
  1.9934583e-02
 -4.7600888e-02
 -9.5251486e-02
  4.8608981e-02
  1.3833033e-01
 -1.1970522e-01
 -1.1302877e-01
 -4.8176059e-03
 -9.1257766e-02
 -1.4922957e+00
  2.7536284e-02
  5.0030336e-02
 -1.4877234e-02
 -1.3514687e-01
 -2.8783891e-02
 -2.2658545e-01
 -5.6823213e-02
  1.0930625e-01
 -7.5820819e-02
  7.8832768e-02
 -1.9649582e-03
  2.5691089e-01
  2.6539513e-01
 -5.3028252e-02
 -1.1851255e-02
  6.5469272e-02
 -7.0412271e-02
  1.3631471e-02
 -1.6755886e-02
 -1.8783297e-02
  1.3076867e-01
 -3.0282138e-02
 -4.5179877e-01
  1.5409200e-01
 -3.2495825e+00
  5.7166111e-01
  2.2132332e+00
 -5.7824153e-01
 -7.3275495e-01
  5.1556456e-01
  9.7465849e-01
 -3.6312178e-01
 -2.4017066e-01
 -1.2871900e-01
 -1.3824408e-01
 -6.7746484e-01
 -5.7014573e-02
  7.2994947e-01
 -2.1971728e-01
  2.0046054e-01
 -4.2215618e-01
  3.0210766e-01
 -1.1780196e-01
  6.6173798e-01
  3.3706136e+00
  4.7107515e-01
  1.2928525e-01
  8.2155153e-02
 -1.5941501e-01
  3.1032249e-01
  1.3242801e-01
  1.6526003e-01
 -2.8436527e-01
  7.3741800e-01
 -3.8877988e-01
  7.3284161e-01
  6.2836510e-01
  3.0938071e-01
 -4.6099073e-01
  9.3609929e-01
  3.4797895e-01
  4.1901344e-01
  1.3862889e-01
 -6.0713619e-01
 -2.0723289e-01
  9.8956835e-01
 -3.6697614e-01
 -8.7095171e-02
 -6.9698747e-03
  2.2253060e-01
  1.7697342e-01
 -4.7764930e-01
  5.9233934e-02
 -1.9669864e-01
 -1.3128799e-01
  2.9098183e-01
 -1.0502493e+00
 -5.7337415e-01
 -1.9844939e-01
  1.2476482e+00
  2.1536045e+00
  1.0499057e-01
  7.2188085e-01
  1.4677460e+00
  2.0704551e+00
  1.0838450e-01
  2.4706186e-01
  3.6833674e-01
  1.2116035e-01
 -5.1009870e-01
 -7.3148854e-02
  8.3992749e-02
 -5.4467134e-02
  1.1423875e-01
  1.0185150e+00
 -1.7308012e-01
  1.6707926e+00
  2.4720186e-01
  5.8011256e-02
  9.8757923e-01
  9.6313640e-02
  5.8629793e-01
 -3.9324537e-01
  2.4468118e-02
  8.4637709e-02
 -9.0702504e-02
 -5.2271290e-03
  2.5181158e+00
  3.2350424e-01
  8.5728449e-01
  8.3226100e-02
  2.3050407e-01
 -3.0109522e+00
 -1.0050436e+00
  3.2757151e-01
 -7.4618518e-02
 -5.8973861e-01
  1.2032682e-01
  1.6761093e-01
  7.2005130e-02
 -1.3853951e-01
  7.7811360e-02
  1.6092691e-01
  4.2068779e-01
  2.3043988e-02
  4.6996725e-01
  4.6539817e+00
 -3.0292608e-02
  1.0489426e-02
  1.8630850e-01
 -4.6844080e-01
 -3.6423779e-01
 -1.5993533e+00
 -2.2507880e+00
  3.7462733e+00
 -2.0599773e+00
  1.3353298e+00
  1.1500134e-01
 -5.5993617e-02
 -7.1182780e-02
  5.7239574e-01
  6.3203752e-01
 -1.8047236e-01
  3.7885556e-01
 -2.3141136e+00
 -5.5027932e-01
  3.0419102e-01
 -3.3145327e-02
  3.4466991e-01
  4.5068346e-02
  1.2174661e+00
 -1.4181332e-01
 -9.4895519e-02
 -1.3104125e+00
  3.5371470e-01
  4.7904795e-01
  1.0381703e+00
 -5.5006260e-01
  3.2172546e-01
  2.7231997e-01
  3.1444320e-01
  1.7232898e+00
 -4.9705081e+00
  6.7227787e-01
  5.7039469e-01
 -1.2591922e-01
 -1.6994189e-01
 -5.9283763e-01
  1.5952668e+00
  1.1989096e-01
 -2.5834987e-01
 -6.4538318e-01
 -5.1058348e-02
 -1.4971074e-01
  4.6415603e-01
 -2.5036493e-01
  6.3604683e-01
  4.0776649e-01
  6.5680265e-02
 -1.0238150e+00
 -2.6843962e-01
  1.9258752e-01
  1.6893193e-01
  4.4661590e-01
  1.4800709e-01
 -8.7873369e-01
 -1.3966750e-01
  9.5827267e-02
  4.7778010e-01
 -2.1641299e-01
  2.1482803e-02
 -3.1989894e+00
  2.0241506e+00
 -6.6283122e-02
 -4.6841990e-02
 -3.6881089e-01
  9.0039611e-01
  3.9568212e-02
  9.1735178e-01
  9.9256849e-01
  1.2850684e-01
 -6.8843561e-01
 -7.9036033e-01
  7.7373229e-02
 -6.2968630e-01
  5.7620633e-01
 -6.3357913e-01
  9.9106260e-02
 -4.2060930e-01
  3.0573068e+00
  3.1234616e-01
  5.4284602e-02
  1.1492569e+00
 -6.2758529e-01
  9.8621503e-02
  1.2588651e-01
  1.1403035e+00
 -1.0868723e+00
  9.3006752e-02
 -8.3805925e-01
  2.8950030e-01
 -6.1444181e-01
  1.5386970e-01
  1.4325015e-01
 -3.7052584e-01
  4.8839483e-01
 -9.0471160e-01
 -4.2882192e-01
 -1.1433756e-01
  1.5619215e-01
  4.6723792e-01
  1.3516864e-01
 -3.3286527e-01
  2.1337922e-01
 -5.1995373e-01
  3.2084364e-02
 -2.0052956e-01
  1.2231182e+00
 -2.8388533e-01
 -1.7510941e-02
 -5.8591408e-01
 -1.0243387e+00
 -3.6518800e-01
 -3.1417316e-01
  8.1378949e-01
 -3.2610339e-01
  1.0693729e+00
  2.7078760e-01
  1.8910968e-01
  5.8362561e-01
 -1.2265401e-01
  3.3437201e-01
 -1.1413505e-01
  3.0666439e-02
  1.4871773e-01
  4.6548730e-01
  1.1355488e-01
 -7.8119582e-01
 -2.1071894e-01
 -2.7923560e-01
 -2.5545478e-01
  3.3002725e-01
  2.7602503e-01
 -2.6271912e-01
  5.6542166e-02
  4.0252310e-01
  4.5188863e-02
 -6.1345257e-02
  5.1279355e-02
  3.7709692e-01
 -1.8530457e-01
 -2.9100946e-01
 -1.2997751e-01
 -3.0182284e-01
  5.8530265e-01
 -1.6242084e-01
 -6.8275258e-03
  2.7645996e-01
  2.0107485e-01
  1.4575730e-01
 -9.1842845e-02
 -6.9130421e-01
 -1.1728229e-02
  2.0220753e-02
  4.8749629e-02
  7.9345681e-02
  1.2935184e-01
 -9.1076307e-02
  2.6722962e-02
 -2.7162847e-01
 -1.6179901e-01
 -1.5894258e-01
  2.4598600e-01
  5.3587937e-01
  1.3396394e-01
 -6.7424297e-01
 -6.2522054e-01
  2.0408027e-01
 -4.0344661e-01
  4.1923594e-01
 -1.7435785e-01
  1.6187830e-01
 -2.7122304e-01
 -6.1670855e-02
 -1.9022271e-01
 -3.2806762e-02
  1.2705530e-01
  2.5153473e-01
 -6.8436608e-02
  4.0535936e-03
 -2.6157176e-01
 -2.5328109e-01
  1.1395438e+00
 -1.1031098e-01
 -2.0221892e-01
 -2.0686461e-01
 -4.3706056e-01
 -2.5111714e-01
  2.5678590e-01
  4.1829148e-01
 -1.5348285e-01
  3.5360157e-02
  4.1613523e-02
  1.4426622e-01
 -2.5489852e-01
  1.2952395e-01
 -2.6741901e-01
 -1.3593091e-01
  1.8967433e-02
 -2.1069385e-01
 -1.6705339e-01
 -6.2344491e-01
  4.3561225e+00
 -7.2201669e-02
  1.1902191e-02
 -1.8136044e-01
 -2.3809342e-01
 -2.6986644e-01
 -2.6902139e-02
 -8.5971449e-03
 -1.0448207e-01
 -3.7677132e-02
  1.4889176e-01
  1.5183148e-01
 -1.1993269e-01
  7.0500420e-03
 -1.3442421e+00
  3.1150213e-01
 -1.0698855e+00
  2.7300622e+00
  2.6754310e+00
 -3.6916647e+00
 -4.2669261e-01
  2.3400130e+00
 -3.9378228e+00
  3.2162568e-01
 -3.4534454e-01
  4.9097776e-02
 -1.9857783e+00
  7.2164160e-01
 -4.1386771e-01
 -2.0091854e-01
  8.3963883e-01
  1.5026933e+00
  1.7205359e+00
 -2.7383205e-01
 -3.8846734e-01
 -7.6505023e-01
  3.9756694e-01
 -1.2343246e-01
 -4.7030675e-01
  3.6948296e-01
 -1.3611866e+00
  2.9167476e-01
 -1.3695476e+00
  7.4221689e-01
 -1.1416789e+00
 -6.6420145e-02
  3.4213863e-02
  7.3417032e-01
 -1.0603825e+00
  3.8285856e+00
 -3.5022900e-01
 -5.1597422e-01
  3.1510544e-01
  4.3280113e-01
  6.6042942e-01
  1.1640079e+00
  1.1445000e+00
 -4.5120716e+00
  1.8374963e-01
 -7.7459037e-01
 -3.1108961e-01
 -6.5262593e-02
 -2.2043547e-01
 -1.1369750e-01
  1.3689478e-01
  1.3890612e-01
  1.3800576e-01
  6.0313451e-01
  6.4598784e-02
 -1.5977880e-01
  5.0119501e-01
  5.9341210e-01
  1.2118551e+00
  4.0789205e-01
 -9.2855245e-01
 -7.2999263e-01
 -1.8565768e-01
 -1.2568842e-01
  2.5262704e-02
  2.0981811e-01
  2.3326280e-02
  5.1853415e-02
 -1.1801087e-01
  1.4683858e-02
  3.3123583e-02
  1.8993193e-01
 -1.8276638e-01
  8.1825919e-02
  9.1595978e-02
 -7.2548851e-02
  3.1593952e-02
 -6.5769680e-02
  6.3829780e-01
 -2.6056373e-03
  2.7592006e-01
 -2.0643431e-01
  1.0558742e-01
  1.1651612e-01
 -5.0640713e-02
 -2.0840116e-01
  6.8989269e-02
 -1.2750226e-01
  4.4479914e-02
  5.0060041e-03
  4.3790303e-02
  4.5137280e-01
  8.5473336e-02
  1.0574228e+00
 -7.0859544e-02
 -9.1546871e-02
 -1.1405766e-01
  3.7334108e-01
  2.5237471e-01
  7.4721083e-02
 -3.8888831e-02
 -1.0326459e-01
  2.5777848e-02
 -1.3948567e-01
  9.2854146e-03
 -2.4316527e-03
  6.3833602e-02
 -1.6365395e-01
  3.7677249e-01
 -3.8722920e-01
  2.0932126e+00
 -1.3898073e+00
  1.5084342e+00
 -8.6280280e-01
 -9.0274698e-01
  4.6778378e+00
 -4.8465297e-01
  2.5070190e-01
  4.2483020e-01
  1.8875813e-02
 -3.7230812e-02
  1.4156991e-01
  1.6444531e-01
  3.2935184e-01
  1.4935119e-01
  1.8501168e-01
  2.5640726e-02
 -5.6282002e-01
 -5.3741020e-01
 -2.0097567e-02
 -5.0875127e-02
 -8.3604358e-02
 -1.2207121e-03
  4.2217866e-02
 -5.4733939e-02
 -1.2636569e+00
  1.5376800e-01
 -1.3335703e-01
 -9.5721474e-03
 -2.2209333e-01
  3.5243329e-01
  1.1167286e-01
  1.6026297e-01
 -6.4984657e-02
  1.8360797e-01
 -4.9070634e-02
 -9.2673481e-01
  6.8554297e-02
  1.8538675e-01
 -4.7690442e-01
 -3.7933432e-02
  1.1787700e-01
  3.3661462e-02
 -8.6205937e-02
  2.5238961e-01
  4.4259526e-02
 -2.9618831e-02
  1.5841536e-01
  9.6321292e-02
 -2.5280714e-02
 -2.6078954e-02
  3.9808445e-02
  5.8581924e-01
 -5.3322345e-01
 -1.5347537e+00
 -5.6076151e-01
  3.5496962e-01
  3.6272997e-01
 -1.2726488e+00
  1.5161602e+00
 -6.5362161e-01
  9.4885593e-03
 -4.4039869e-01
 -1.2731851e+00
 -9.4301663e-02
 -2.3751922e-02
  7.5088471e-01
  5.3643209e-01
 -3.3552729e-02
 -3.3930000e-02
 -1.9930048e-01
 -1.8102075e-01
  3.1700599e-01
  7.3225731e-01
 -7.6673478e-01
 -3.9220017e-01
  5.4680970e-02
  4.1446349e-01
  2.4266575e-01
  1.3999060e-01
 -7.7226698e-01
  2.9032903e-02
 -7.1537369e-01
  6.8740618e-01
 -3.3562791e-01
 -1.8401606e-01
 -8.6219348e-02
 -1.2676811e+00
 -2.3146226e-01
 -5.9424800e-01
  1.8606426e-01
 -2.4834397e+00
  3.6131841e-01
 -1.1627638e+00
 -5.3921747e-01
 -1.7722641e-01
 -8.4377982e-02
 -4.0176061e-01
 -1.1608978e-01
  2.4062607e-01
  2.1322156e-01
 -6.8343207e-02
 -6.9443188e-03
 -5.8605142e-02
  1.9018064e-01
  3.7020240e-02
  1.9967428e-01
  3.8711276e-02
 -7.9447934e-03
  3.7343130e-02
  5.4833168e-01
  2.0655905e-01
  6.1933596e-02
 -3.1878287e-01
 -3.2161185e-01
 -2.4967438e-02
  5.8351345e-02
 -5.1836867e+00
 -7.5051270e-04
 -6.2941790e-02
  1.4803289e+00
  5.5299107e-02
  1.8401703e-01
  8.1233373e-03
 -1.0262782e-01
 -2.7254678e-02
 -2.6032263e-02
  1.1726177e-02
 -4.4520799e-02
  3.4882840e-02
  1.1759056e-01
  2.0922551e-01
  1.2277610e-01
  4.4891726e-02
  2.9168265e-02
 -2.8697638e-02
 -1.0008895e-01
 -2.1133065e-02
 -2.7981317e-02
 -2.6953575e-01
 -1.0927007e-01
 -7.8479506e-02
 -1.2354413e-01
  2.0056801e-02
 -6.8877593e-02
  6.6519044e-02
 -3.4204375e-02
  1.0320906e-01
  1.7703755e-01
  2.1542749e-01
  4.1455500e-02
 -1.5460220e-01
  1.7853180e-02
  1.9153321e-02
 -1.4932765e-01
 -2.6576230e-02
  1.3418739e+00
  2.3663618e-02
  4.9796231e-02
  2.7512340e-02
  5.4652166e-01
 -2.1586794e-01
 -4.4452003e-01
 -9.0459782e-01
 -8.3885777e-01
 -5.2156323e-01
  3.3062106e-01
 -8.7050366e-01
  3.4128294e+00
 -5.9113878e-01
  8.7549764e-01
 -6.7878366e-01
  4.2198423e-01
  3.5291144e-01
  3.0432373e-01
  8.3036572e-01
  2.7493194e-01
  1.4531629e-01
 -1.7853819e-01
 -2.1268965e-01
  2.8443813e-01
  7.3476839e-01
  5.1589018e-01
  8.2429695e-01
  3.4483066e-01
  1.3796680e-01
 -9.7303048e-02
 -7.6516837e-02
 -3.2230639e-01
  1.5367934e-01
 -3.5346609e-01
  3.2611737e-01
  9.1929816e-02
 -6.9711089e-02
 -1.3061872e-01
  3.4644842e-01
  4.4157290e-01
  2.6616361e+00
 -1.4772725e-01
  2.2969956e+00
  1.1276646e+00
  2.4509254e+00
 -3.3210588e-01
 -3.8713899e-02
  5.6248575e-01
 -7.3492102e-02
  1.3288229e-02
 -1.5151553e-02
  4.3622363e-02
 -2.8728813e-01
 -1.7798278e-02
 -2.9659656e-01
  1.5095231e-01
 -4.2539713e-01
  6.0323596e-02
 -1.8060297e-01
 -9.7030091e-01
 -7.1771079e-01
  1.2169167e+00
  3.5690475e-01
  3.4944419e-02
  4.2511020e-02
 -2.8964141e-02
 -3.6633995e-01
  1.2256668e-01
  1.5202224e-01
 -1.4796738e-01
  1.1246259e+00
 -7.8387022e-01
  4.4226325e-01
 -2.9576558e-01
  3.3721927e-01
  4.0750840e-01
 -2.5520530e-01
  3.5185897e+00
  5.2771014e-01
  2.2232230e+00
 -4.8551068e-01
 -1.1274244e-01
 -3.2575393e-01
 -2.1003345e-01
  6.2095217e-02
  2.3352578e-01
  2.8621003e-01
 -2.3913480e-01
  3.8394731e-01
 -4.0843031e-01
 -5.7619303e-01
  1.6574247e-01
  2.7608010e-01
 -1.2877402e-01
  7.8374203e-03
  9.4618276e-02
 -4.1149324e-01
  5.5071062e-01
 -3.3792743e-01
 -2.0126189e-01
 -4.2806789e-01
  6.1559343e-01
  1.7007808e-01
  1.0210021e-01
 -3.5391372e-02
 -3.5713956e-04
 -5.2096528e-01
  1.9773769e-01
  1.9270312e-02
 -4.0704054e-01
  2.0741855e-01
  5.3408034e-02
 -8.9597628e-02
  2.3412874e-01
 -4.2588481e-01
  2.0490642e-01
  2.2505759e-01
 -4.2845048e-02
  2.3071669e-01
  2.2987798e-01
  1.9465292e-02
 -1.4991656e-01
 -3.3725623e-02
 -7.5502200e-03
  7.1992557e-03
 -6.0539111e-02
 -3.3243909e-02
  2.0797820e+00
 -2.9279126e-02
 -2.5050771e-01
  7.9305112e-02
 -5.7057116e-02
  6.0313549e-02
  1.6692998e-01
  5.2829593e-02
  1.0750273e-01
  2.3254910e-01
  5.7489198e-02
 -1.0924988e-02
  9.1877535e-02
  1.8428756e-02
 -7.0064016e-02
 -5.5685476e-03
 -7.4976943e-02
  4.4732718e-03
  1.4264442e-01
  3.3519987e-02
  1.7516108e-01
  8.9261875e-02
 -7.9117745e-02
  2.3494245e-01
 -6.3709631e-03
  6.0574979e-02
 -9.6012298e-03
 -1.1489895e-02
 -3.0616450e-01
 -8.0363844e-03
 -9.5666714e-02
  2.0613520e-01
  3.9256558e-02
  1.0095858e-01
  8.9417711e-02
  2.4368516e-01
  1.1256399e-01
 -3.8516343e-02
 -3.1511214e-01
 -7.1104676e-01
  1.3036555e+00
  8.0763686e-01
  7.6873523e-01
 -2.3128533e-01
 -1.6574163e+00
  1.7281634e+00
  1.5469497e+00
  7.3006117e-01
  3.9569527e-01
  9.7911946e-02
 -1.1925679e-01
 -4.5901191e-01
 -3.1268364e-01
  3.8736889e-01
  3.0349216e-01
 -3.6287555e-01
  1.5420105e+00
 -4.4535130e-01
  1.3185767e+00
 -3.8116053e-02
  2.2368576e-01
  3.4032708e-01
  4.8877588e-03
  7.0448679e-01
  7.6712251e-01
  1.3410378e-01
  2.9810834e-01
  1.8281201e-01
 -9.4415464e-02
  1.0371269e+00
  2.9804012e-01
  2.0865040e-01
  1.1616985e-01
 -4.2525847e-02
  2.4461484e-01
 -5.5534326e-02
 -2.2643809e+00
 -1.3138382e-01
  9.6521723e-01
  4.8669091e-01
  4.6267174e-02
 -1.5939889e+00
 -1.4573184e-01
  4.0226138e-01
  1.4165343e-01
  3.6270684e-01
 -1.1749616e-01
 -7.5338763e-01
  9.0259552e-02
 -7.1924165e-02
  9.9851474e-02
  1.6527461e-01
 -1.1655068e+00
 -1.0209272e+00
 -1.1739742e+00
 -4.3648937e-01
  6.8334621e-01
  4.9646720e-01
  2.2431710e-01
  1.2358793e-02
  1.1468139e+00
  4.1748196e-01
 -8.1683002e-02
 -4.9227983e-01
 -6.4280465e-02
 -8.3789341e-03
  1.5337142e-01
  1.7465819e-02
  1.3769089e-01
 -3.7731773e-01
  9.1806924e-01
  2.3453455e-01
  1.2676314e-01
 -1.5369849e-01
 -1.2797944e-01
  1.5283741e-01
 -2.0793824e-01
  1.4670238e-01
 -1.1061128e-01
  2.5281963e-01
 -3.8766220e-01
 -2.3653953e-01
  1.5151440e-01
  3.4516868e-01
 -2.7219126e-01
  2.2970811e-01
  1.2179279e-01
 -4.0937680e-01
  1.1028458e+00
 -1.0130510e+00
  5.2181978e-02
  2.4496362e-02
  3.8468894e-02
 -4.7896534e-01
  1.1194701e+00
  7.4064516e-02
  6.8142134e-01
  2.0864228e-02
 -7.5766049e-02
  1.1210425e-01
 -6.0969226e-02
 -1.6381937e-01
  1.3668364e-01
  1.8637066e-01
 -1.1240312e-01
  7.8437865e-02
  2.3548195e-01
  1.0341396e+00
  2.1921062e+00
 -3.5365319e-01
 -1.4288805e-01
  2.3038504e+00
  1.3638234e-01
 -1.6370950e+00
  1.9062501e+00
 -1.2133579e+00
 -5.5597556e-01
  6.5719470e-02
  5.1175389e-02
  3.2705656e-01
 -1.6348953e+00
 -6.7863375e-01
 -3.4283963e-01
 -7.7335554e-01
  5.7415754e-01
  4.9751583e-01
 -1.3940464e+00
  2.7985265e-02
  7.2156310e-01
 -9.8571146e-01
 -9.3155429e-03
 -4.5554402e-01
 -2.9832530e+00
 -2.0062336e-01
  3.6037287e-01
 -7.1521521e-02
  1.0750546e-01
  2.6127274e+00
 -1.6162625e-01
 -6.4866149e-01
 -4.0915453e-01
 -2.2165348e-01
  2.0525098e+00
 -1.1817122e-01
  1.2431282e+00
 -1.2567289e-01
 -2.3202471e-01
  4.8334196e-01
 -4.2271331e-01
 -2.3048592e-01
 -8.2881862e-01
  1.2727337e-01
 -9.7228631e-02
 -2.0639180e-01
 -1.0299589e-01
 -1.4677632e+00
 -2.3527648e-02
  2.6226528e-02
 -1.7304001e-02
 -1.2302881e-01
  2.1003562e-01
  6.0298139e-01
  2.5773606e-01
  5.2554274e-01
 -6.2781346e-01
  8.2273245e-01
  5.0755072e-01
 -6.2252980e-01
  7.6888973e-01
 -7.5269020e-01
  3.2419288e-01
  2.7697459e-01
 -1.4553085e-01
 -9.9997088e-02
  4.1887665e-01
 -2.5905147e-01
 -1.4838201e-01
 -5.4868400e-02
  5.2500534e-01
  8.4493518e-02
  4.2923433e-03
  7.1497671e-02
  3.0841863e-01
  2.2812156e-01
  2.5340879e-01
 -4.8346028e-02
 -8.6308487e-02
 -5.4611993e-01
  2.5699827e-01
 -1.6328852e-01
  3.1114620e-01
 -3.4798080e-01
  8.1221595e-02
 -1.0041387e-01
 -9.6218616e-02
 -2.6782749e-02
  1.5310837e+00
  1.5966615e-01
  4.3958229e-01
  5.4472399e-01
 -4.0314057e-01
 -1.6225475e-01
  2.5992218e-01
  3.7573335e-01
 -5.1494795e-01
 -2.9259998e-01
 -3.3646189e-03
 -1.7241344e-01
 -5.8844347e-02
  1.4803074e-01
  8.1662368e-03
  5.9950206e-02
 -1.8181804e-01
  2.0734058e-01
 -1.2042246e+00
  1.8522938e+00
  8.9875829e-01
 -1.2013090e+00
 -5.3899920e-01
  3.6039644e-01
  1.8913904e+00
  1.0491089e+00
  4.4926918e-01
 -1.0667115e+00
  2.8773889e-01
  1.1133565e+00
  3.4499502e-01
  6.5455303e-02
  1.8835722e-01
  3.6574188e-01
  1.3181021e+00
  7.2423863e-01
 -5.6235844e-01
 -2.8670913e-01
  6.2619722e-01
  1.6901611e-01
 -1.7192719e+00
 -2.6978678e-01
 -3.5314548e-01
 -6.3584906e-01
 -1.5750759e+00
 -6.5949649e-01
  9.1721517e-01
 -5.2241141e-01
  2.1799973e-01
 -2.4440353e+00
  1.7407953e+00
  1.4884637e-02
 -2.2239999e-01
 -3.2946217e-01
 -5.4252028e-01
  2.2831256e+00
  4.8997664e-01
  6.9075710e-01
 -7.2747588e-01
 -5.9614472e-02
 -1.9024836e+00
  1.3655175e+00
 -2.3995004e+00
  4.1279325e-01
 -1.0692832e-01
 -3.6674851e-01
 -1.2385413e-01
  3.1122217e-01
 -1.0425432e-01
  4.7041851e-01
  3.6405105e-04
  9.8127693e-02
 -5.6769627e-01
  6.3016564e-02
 -8.1618917e-01
 -4.6161157e-01
 -6.7133409e-01
 -5.2867991e-01
 -3.9938051e-01
 -4.5512468e-01
 -1.0212271e+00
 -2.1327001e-01
 -1.4203674e-01
 -1.2726289e-01
  1.8324944e-01
 -4.7636262e-01
 -3.0538147e-02
  4.8536364e-02
  2.6830003e-01
 -6.2740284e-01
 -9.4401121e-01
  2.2796197e-02
 -2.4819934e+00
  7.8655235e-02
 -5.1899940e-01
 -5.2484578e-01
 -3.5899442e-02
 -3.6362848e-01
  1.1711849e+00
 -3.8515249e-01
 -2.3243274e-01
 -1.9372292e-01
  1.1988059e-01
 -1.8771896e-02
 -2.7264291e-01
 -1.8577115e-01
 -2.7808875e-01
 -1.9067632e-01
 -3.4916613e-01
  9.3905762e-02
 -6.6149926e-01
 -2.0437652e-02
 -4.5225140e-01
 -6.1778307e-02
  8.1480645e-02
 -2.3688570e-01
 -6.2136185e-01
  1.9565356e-01
  3.2284558e-02
 -3.5072148e-01
  1.9656016e-02
 -5.0024975e-02
 -2.1157723e-03
  1.8803768e-01
 -1.8288624e-01
  6.8845227e-02
  1.4409199e+00
  5.2871495e-01
  9.3091562e-02
  4.3031108e-01
 -1.0877747e-01
  1.8617247e-01
 -1.0320935e-01
 -1.9766988e-01
  4.6780321e-01
 -3.4740340e-02
  2.2473201e-01
  7.4655965e-02
  3.3330056e-01
  3.0744502e-02
  2.0405403e-01
  3.0456063e-01
  1.8847930e-01
  1.1074842e-01
  1.1205149e-02
  6.3344941e-02
  3.2056254e-01
  8.5736498e-02
  7.1131051e-02
  1.1803311e-01
  3.4236899e-01
  1.8609683e-01
  3.5593304e-01
 -7.6073997e-02
 -3.7664369e-02
 -4.1680988e-02
 -9.3331315e-02
  9.9081621e-02
 -1.2493173e-02
 -3.0218849e-01
 -3.5298005e-02
 -8.9910693e-02
  1.2252578e-01
  5.3903054e-02
  4.1363642e-01
  4.6268320e-01
 -9.7381085e-02
  4.4899628e-02
  1.2952180e-01
  1.2219070e-01
  2.4412671e-01
  1.5369880e-01
 -1.0232530e-01
  4.0307805e-01
 -5.1397108e-02
  7.9413794e-02
  6.5756220e-01
  8.5099392e-02
  7.3687315e-02
 -4.9762386e-03
 -1.4173894e+00
 -1.3038350e+00
  4.7963369e-01
  9.5397359e-01
 -1.6118569e+00
 -6.0055631e-01
  4.3657094e-01
  2.0402615e+00
 -7.9042041e-01
 -1.1486378e-01
  1.7973936e-01
  6.7167461e-01
 -3.9409077e-01
  1.0520627e+00
  8.1654131e-02
  3.0474237e-01
  3.5790583e-01
  4.3198055e-01
 -1.2993869e+00
 -1.9159728e-01
  2.9149944e-01
  1.7262995e-01
 -6.6673435e-02
 -1.6893957e-02
 -3.7605426e-01
  4.0475169e-01
  3.2687780e-01
  1.2991463e-01
  3.4375557e-01
  9.5612191e-02
  1.5398036e-01
 -1.3964103e+00
 -5.5560750e-01
  1.1997453e+00
  6.4568263e-01
  2.8338695e-01
 -1.8543354e-01
  1.8994495e-01
  4.4414234e-01
 -5.5460349e-02
 -9.8863401e-02
 -5.0585592e-01
  2.8903031e-01
  3.8397861e-01
  4.7096011e-01
 -4.9184379e-01
 -2.4422339e-01
  8.5247576e-02
  3.3691041e-02
  3.0738343e-02
  2.4242696e-01
  4.6535492e-01
  2.5569180e-01
  5.3311538e-02
 -9.3454039e-01
  9.7553456e-01
 -6.2378252e-01
  8.8882619e-01
  5.0032295e-02
  1.1598868e+00
  1.7993188e+00
  1.0657338e+00
 -5.8515316e-01
  1.8095797e-01
  2.3552072e-01
 -6.3171583e-01
  7.6461637e-01
 -1.2802063e-01
  3.5842586e-01
  5.6749368e-01
  5.5192435e-01
  9.3003666e-01
  9.4836605e-01
  4.5795989e-01
 -1.2096963e-01
  2.0491359e-01
 -1.9453499e-01
 -2.6644075e-01
  1.2303857e-01
  7.5370622e-01
 -2.4580136e-01
  6.5372121e-01
  5.4748338e-01
 -1.6340682e-01
  2.3371400e-01
 -5.0062907e-01
  3.1790130e-02
  8.0051199e-03
  1.0263170e-01
  1.0336356e+00
  1.8311911e+00
 -9.6136200e-01
  5.1962759e-02
  1.9627979e-01
 -2.1858795e-01
 -7.1288325e-02
  1.3268971e+00
 -1.3299020e-01
  8.9925683e-01
  5.8012277e-01
 -5.7725036e-03
 -1.7306916e-01
 -1.8175723e-01
  1.5606491e-01
 -1.0235025e-01
  4.9929421e-02
 -8.2867153e-02
  1.1650235e-01
 -3.1565994e-01
 -2.1666564e-01
 -8.3086483e-02
 -3.7302166e-01
  2.2842945e-01
 -6.1127174e-01
 -2.9723898e-01
  2.4347916e-01
 -5.0548190e-01
  3.0486393e-01
  2.7412368e-02
 -5.1244069e-02
 -1.8529618e-01
  1.1597842e-01
  1.3087255e-02
  1.1235822e-02
  1.6805568e+00
 -1.6340068e-01
  2.9384214e-01
 -8.2165819e-01
 -1.1045933e-01
 -1.6321610e-01
 -1.9447142e-02
  5.4576483e-02
 -1.3096233e-01
 -4.3646255e-01
 -1.2591588e-01
  1.2852128e-01
  7.9341374e-02
 -9.3141057e-02
  3.7232153e-02
  1.9590411e-01
 -2.1375857e-02
  3.0205521e-01
 -3.5416786e-02
  2.0425276e-01
  3.1215850e-01
 -8.8960640e-02
  5.6063555e-02
 -1.8828817e-01
  1.5126461e-01
 -5.7546128e-02
  5.2577674e-01
 -1.8026866e-01
 -1.0883353e+00
 -3.2880602e-05
  3.1954546e-02
 -2.4042321e-02
 -1.4350342e-03
 -3.0893409e-01
 -5.6404117e-03
 -6.4445235e-02
  1.5058920e-01
 -1.1918043e-01
 -3.1450674e-02
 -3.1310495e-02
 -4.7672503e-02
 -7.4228510e-02
 -2.9868871e-01
 -8.0903530e-02
 -1.6167609e-01
 -1.5305911e-01
 -4.5947042e-01
 -8.4045567e-03
  1.3457938e-01
  1.3910721e-02
  1.3426046e-01
 -1.0951090e-02
 -7.2028792e-01
  3.5580099e-02
  5.9013270e-02
 -6.5226190e-02
  3.5806720e-03
 -7.0273764e-02
  7.4626423e-02
 -1.1218714e-01
 -7.8907482e-02
 -6.1179787e-02
  1.0856284e-02
  4.7101239e-03
  2.2990763e-02
 -1.1979250e-02
 -6.9283187e-01
 -4.8715461e-02
  1.0290149e-01
  4.6064164e-02
 -7.5284071e-02
  3.5940719e-01
  7.6729022e-02
 -9.9599943e-02
 -2.4906250e-02
  5.9262574e-02
 -1.1647898e-01
  1.0762288e-02
  1.9813199e-02
 -2.2670308e-03
  1.3891666e-01
  1.2080951e+00
 -2.0216901e-02
 -1.4180383e-03
  9.4690748e-02
  5.4114830e-02
  3.9216965e-02
 -3.9155692e-02
 -1.2395471e-01
  5.4761037e-02
 -7.6868340e-02
  1.0947926e-01
  2.5545003e-02
  5.1069248e-01
  5.7239309e-02
 -3.0570951e-01
  1.9125167e+00
  1.7680319e-01
  1.6809003e-01
 -6.5971784e-02
 -1.2295008e+00
 -1.3270550e+00
 -1.4337943e-01
 -1.9456139e-01
  9.7140130e-03
  4.4351999e-02
  4.2531952e-01
  4.4503577e-02
 -2.2809000e-01
  2.2727783e-01
 -3.1362981e-01
 -1.4000235e-01
 -2.5801727e-01
 -3.1994677e-01
  5.1628649e-01
 -7.0772745e-02
 -1.0735818e-01
  4.8586538e-01
 -8.1862730e-01
  3.4074491e-01
  9.8476179e-02
 -7.9232976e-02
  9.5618382e-02
  1.3300040e+00
  3.6470723e-01
  2.5221112e-01
  1.1629469e-02
 -7.2915703e-02
  1.2410124e-01
 -4.3183747e-01
 -2.1200494e-01
  5.9182230e-02
  8.6179006e-01
 -8.0792174e-02
 -1.1673538e-01
  3.1775001e-01
  2.7663285e-01
 -9.5622048e-02
 -1.4696979e-02
  2.1031639e-02
  2.9034078e-01
  4.3155819e-02
  5.0670758e-02
 -9.3703948e-02
  7.4338710e-01
  2.4351721e-01
 -9.1778821e-01
 -3.3307430e-01
 -5.6342900e-01
  5.4801375e-01
  1.1602980e+00
 -2.8534609e-01
  1.7774859e-02
  4.6272752e-01
  1.7139477e-01
 -1.4937057e-01
  2.3503825e-01
 -9.4908535e-02
  2.0202377e-01
  1.0686056e-01
  3.8492270e-02
  1.0250019e-01
  4.0836850e-01
 -3.0947706e-01
 -1.8304393e-02
 -4.9737525e-01
  5.8468144e-02
 -4.0651526e-02
  3.2588013e-02
  1.0117770e-01
 -1.5874388e+00
 -8.7370090e-02
 -4.5892927e-01
 -4.4863310e-02
  1.6934450e-01
 -1.8489903e-01
  4.6506873e-01
 -1.7128210e-01
 -4.1781032e-01
  4.6500564e-01
  2.3943111e-01
  3.7967298e-02
 -6.9671834e-01
 -2.3563357e-01
  5.5242707e-03
 -1.1151700e-02
 -6.6852517e-02
  2.1540144e-01
 -1.6754650e-01
 -2.9425636e-01
 -4.2643020e-01
 -3.7341979e-01
  3.2410767e-02
 -2.6777664e-02
 -8.7198667e-02
  1.0802475e-01
 -1.2036005e-01
  2.7523860e-01
  1.3711521e-02
  9.9525591e-03
  1.0736262e+00
  1.0161946e+00
  1.0766342e+00
  2.9116633e+00
  5.8748871e-01
  8.8659930e-01
 -6.9716012e-01
  1.2024893e+00
 -3.1904042e-02
 -2.2528012e-01
 -6.4265352e-01
  2.1455468e-01
  3.6646169e-01
 -7.6287448e-02
 -3.8844633e-01
 -3.6765650e-01
 -8.9206237e-01
  9.0248859e-01
 -7.9592752e-01
  3.6484638e-01
  2.8773984e-01
 -2.4179602e-01
 -9.2053050e-01
  3.8723600e-01
  1.3216245e+00
 -1.3542143e+00
 -5.3807157e-01
 -7.7294540e-01
  3.0292740e-01
 -9.9784948e-02
 -1.0058320e+00
 -3.3990750e-01
 -4.7406220e-01
  1.5511999e+00
 -5.9542205e-02
  1.1381664e+00
 -1.6812700e+00
 -8.2189459e-01
  2.4370414e-01
 -1.0738057e+00
 -6.4353472e-01
 -3.2569587e-01
 -1.0622771e+00
  1.8980711e+00
  9.2534363e-01
  2.5524378e-01
 -2.3656316e-01
 -2.7030149e-01
 -7.4380091e-03
  1.9613747e-01
 -2.7225909e-01
 -5.8351207e-01
  1.4915106e-01
  1.1218748e+00
 -9.6717578e-01
 -4.1037297e-01
 -1.3819320e+00
 -1.1047463e-01
 -1.1556064e+00
  4.5736206e-01
  1.4072741e+00
  1.3346344e+00
  8.4476173e-01
  4.6235430e-01
  2.6079696e-01
  8.1801963e-01
  1.7282273e+00
 -3.9864117e-01
  1.0038595e+00
  4.4426814e-01
  6.2372714e-01
  4.3627238e-01
  8.3673149e-01
  4.1129225e-01
  1.2835934e+00
 -6.7804314e-02
 -3.0178159e-01
 -5.4025161e-01
  2.2554664e-01
  1.7906983e-01
  1.4493279e-01
  4.3286285e-01
  4.6170613e-01
  4.1872472e-01
  8.5095990e-01
 -2.3909323e-01
  3.4299439e-01
  1.4821510e-01
  8.1151831e-01
  9.4179887e-01
 -1.5130533e-01
 -4.1519651e-01
  5.4039317e-01
 -4.8005885e-01
 -5.9062040e-01
 -5.4539680e-01
 -1.2802519e-01
 -3.0707994e-02
  1.6166036e+00
  3.9817777e-01
  1.5665358e-01
 -1.0284860e-01
 -1.4157696e-01
  3.6264744e-01
 -1.1744253e-01
  1.2422398e-01
  5.9380021e-02
 -3.6726762e-02
  6.8074006e-01
  2.8394103e-01
 -1.7770178e+00
 -1.6207194e+00
  3.0399711e+00
 -3.1078202e-01
 -4.9861190e-01
  7.6212323e-01
 -2.0283098e+00
  8.0964953e-02
  3.2736391e-01
 -2.4866022e-01
 -6.2393710e-02
 -1.5633954e-02
  1.3675319e-01
  4.6588697e-02
  1.3793929e-01
 -9.1892248e-01
  2.7029434e-01
  1.7226793e-02
  1.4357689e-01
  1.1025733e+00
  2.4972405e-01
  1.8880653e-01
 -7.4456036e-02
  1.3383588e-01
  2.5589295e-02
  2.2780091e-01
 -6.8314686e-02
 -4.4038970e-02
  5.7097789e-02
  1.9600190e-01
  7.4362330e-02
  3.5086399e-01
 -2.3826998e-02
 -3.7330055e-01
 -1.1773911e+00
  1.0536841e-01
 -1.3708414e-01
 -3.6440736e-01
  1.5073189e-01
 -4.3149647e-01
  2.4078114e+00
 -1.7845492e-01
 -8.2812744e-01
  1.1330694e-01
  2.6769370e-02
 -3.7885904e-02
 -4.2404201e-02
 -4.7244892e-02
  3.6945250e-02
  2.6979455e-01
 -8.4597379e-02
  1.3817575e-02
  3.5801440e-01
  2.2293637e+00
  5.1966417e-01
  4.8042449e-01
 -1.5280947e-01
  1.0104555e+00
  1.1714673e-01
 -1.4763204e+00
 -3.3825329e-01
  4.2721033e-01
  9.4869006e-01
 -1.0729464e+00
  1.3417609e-01
 -3.9896777e-01
 -7.4898936e-02
 -2.2155218e+00
  2.4977470e-02
  8.8723260e-01
  9.0585254e-02
 -3.9449120e-01
 -9.7453713e-01
  1.2208640e-01
 -3.4751205e+00
  1.1644843e+00
 -1.1224085e+00
 -3.1483537e-01
  1.3854175e+00
 -1.5908863e-01
  9.6289381e-02
 -1.0831198e+00
 -7.7467662e-01
 -6.4456263e+00
  4.2150781e-01
 -3.1097129e-03
 -1.0334284e+00
  1.3880285e+00
  4.4909880e-01
 -2.0186286e+00
 -1.1797535e+00
 -1.2404499e+00
 -3.3960183e+00
  1.6294166e+00
 -5.2614027e-01
 -8.7644104e-03
  1.5378699e-03
 -2.9132897e-01
 -4.3637711e-03
  8.3680764e-02
 -1.3841431e-01
  1.4375536e+00
  4.9642804e-01
 -6.3969277e-02
  1.3094592e-01
 -3.2185871e-02
 -1.3311209e-01
 -4.1347566e-01
 -7.1340567e-01
 -8.3660406e-01
 -5.6693929e-01
  1.4480847e-01
 -4.5349461e-01
  2.4091746e-01
 -4.6317369e-01
  1.4518106e-01
 -5.1641688e-02
 -2.3088512e-01
 -3.0316558e-02
  2.8754291e-01
  1.0851897e-01
 -1.2897906e-03
 -9.7275414e-02
 -3.1497845e-01
  7.4116468e-02
 -1.3948302e-01
 -2.1834871e-01
 -1.7960969e-01
  8.3874501e-02
 -2.8813505e-01
 -8.7261558e-01
  3.2179430e-03
  9.2542633e-02
  3.4424442e-01
 -1.2689934e-02
  3.8690135e-02
  1.6113059e-01
  2.1155207e-01
 -9.6982673e-02
  4.1642916e-01
  1.4329053e-01
  6.2085170e-02
 -4.5453742e-01
 -4.0044546e-01
  2.2010183e-01
 -1.6946516e+00
  9.0942554e-02
  3.3588705e-03
  2.3574810e-02
 -1.8732117e-01
 -1.8084557e-01
 -5.9484910e-02
  1.0099602e-01
  8.0397412e-02
 -5.0694130e-02
 -7.1448483e-02
 -5.1011413e-02
  1.2228990e-02
 -1.1237641e-01
 -9.2109796e-03
  1.3222092e+00
  6.7748117e-01
  7.6691836e-01
  2.9347284e+00
  2.1473145e+00
 -1.9099085e+00
  3.3030486e-01
 -9.9340004e-01
 -1.9613129e+00
 -4.2866904e-02
  3.7742149e-02
  9.8393835e-02
 -7.3228657e-02
  1.0309508e-01
  5.1082455e-02
  3.6818795e-02
  3.3816588e-01
  3.7333843e-01
 -1.2199485e-01
 -1.1856285e-01
  2.9652888e-01
  9.0131508e-03
  4.0666736e-03
 -2.1199156e-01
 -2.8272768e-02
 -1.4022639e-01
 -1.1728439e-01
  1.5549421e-01
 -4.3955252e-02
  1.9539006e-01
 -5.6938410e-02
  1.0559262e-01
  1.5588033e-01
  4.6925122e-01
  2.2061263e-01
  3.2691723e-01
  1.5488023e-01
 -2.3208098e-01
  3.3559855e-02
  7.7423230e-02
  3.1183529e-01
  2.8368878e-01
  1.2160654e+00
 -1.0219406e-02
  2.5475925e-01
  1.2739038e-01
  6.0072478e-02
  4.3955754e-02
  3.8842484e-02
 -1.3790981e-01
  2.5994617e-01
 -4.8711251e-02
 -9.7388431e-02
  6.1054185e-02
 -1.5914537e-01
  4.2591497e-01
 -1.8244480e-01
  2.3050524e-01
  4.3440104e-01
  1.0455762e+00
  7.6252896e-01
 -1.5057766e+00
 -4.8408616e-01
  7.3065877e-01
  4.6060619e-01
  4.7195986e-01
  2.9912716e-01
 -2.7004084e-01
 -3.1316277e-01
 -6.7093748e-01
  2.9700050e-02
 -7.3196691e-01
 -2.3403414e-01
 -2.7771968e-01
  5.2043074e-01
 -6.9192100e-01
  1.4546525e+00
  5.1225400e-01
  2.7152967e-01
  6.6807336e-01
 -7.7047455e-01
 -2.4417304e-01
  2.9445949e-01
  6.4308099e-02
 -2.3771618e-01
 -8.6130065e-01
 -7.5265270e-01
 -3.1097693e+00
 -4.4596502e-01
 -3.3381265e-02
 -1.0056953e+00
  3.7455052e-01
  2.3527123e-01
 -9.2237902e-01
 -5.9078491e-01
  3.1511077e-01
 -7.4610665e-02
  1.0412598e+00
  2.8690633e-01
  2.4336937e-01
 -4.6092987e-02
  4.5354354e-01
 -3.1261694e-01
  3.6303702e-01
 -1.4009953e-01
  1.1762971e-01
 -2.5531137e-01
  6.9367178e-02
 -1.6481274e+00
 -8.2323968e-01
 -7.0228294e-02
  2.2789183e-01
  2.1734979e+00
  1.2891145e-01
  1.4536123e+00
  2.3119738e+00
  1.1673539e+00
  2.1296818e+00
 -1.1954576e+00
  3.0377669e+00
 -3.4821421e-01
  7.6598274e-03
  1.7704775e+00
  5.0542098e-01
  1.3680230e+00
 -2.8085575e+00
  5.8513802e-01
 -7.6120090e-01
  1.4174428e+00
 -2.6142104e+00
 -3.1363726e-01
 -3.5969242e-01
 -3.6332107e-01
 -2.4166776e-01
  6.9102359e-01
 -1.0759543e+00
  1.0701113e+00
  1.6785277e+00
 -4.9548975e-01
  3.5668192e+00
  2.8563124e-01
  3.2977867e-01
  1.5190923e+00
  2.4329306e-01
  1.3424500e+00
  2.8737086e-01
  8.7507620e-02
  3.9305130e-01
  1.0712701e+00
 -6.6801149e-01
  3.3331060e-01
 -3.7060615e-01
 -3.7388250e-01
 -2.4338675e+00
  1.6847043e+00
  1.9078507e+00
  5.5152148e-01
  8.0965263e-01
  4.4674820e-01
 -9.7449923e-01
 -1.6466621e-02
  2.1552472e+00
 -1.1102519e+00
 -4.0715569e-01
  1.6398190e+00
 -1.7477195e-01
  1.6856651e+00
  6.8850666e-01
 -4.4681764e-01
 -3.6952400e-03
  2.7262172e-01
 -1.2472700e+00
  2.7056906e+00
 -1.5793682e+00
 -7.7400231e-01
  3.5068321e-01
  1.2909224e+00
  1.1395094e+00
  2.2921581e+00
 -3.4814766e-01
  3.5142975e-03
  9.9948697e-02
 -1.9785621e+00
  2.7082360e-01
  9.7972888e-01
 -2.0862700e-01
  3.8744408e-01
 -4.4567105e-01
  4.5538968e-01
  1.7782855e-01
 -5.1937532e-02
 -5.3637259e-02
  8.4587193e-01
 -2.1243908e+00
 -2.4699585e-01
  8.3395207e-01
  4.1328633e-01
  2.3137507e-01
  1.8506235e+00
 -1.0453615e-01
 -4.1602712e+00
 -1.3315569e-01
  1.4558655e+00
 -4.6709016e-01
  2.0359537e-01
  2.4297013e+00
 -9.6076298e-01
  2.9573438e-01
 -1.4524777e+00
  3.0479774e-01
  3.9309943e-01
  1.4309013e+00
 -9.4166869e-01
 -5.3230345e-02
  9.3537372e-01
 -1.2847711e+00
 -1.3943882e+00
  9.0070111e-01
  3.3336398e-01
  2.9816529e-01
 -5.3485590e-01
 -2.0194905e-01
 -1.0145072e+00
  1.7031797e+00
 -5.0699276e-01
  7.7517170e-01
  7.6461947e-01
 -1.9901069e-01
 -2.1667724e+00
  2.0334353e-01
  2.1210477e+00
 -1.2322593e+00
 -4.1587082e-01
  9.4837070e-01
 -1.1712825e+00
 -8.4456915e-01
 -2.0114577e-01
  1.5028027e-01
  8.2356155e-02
 -6.5256542e-01
  8.2015562e-01
 -3.2571527e-01
 -3.6492065e-01
  1.4961319e-01
 -2.0376303e+00
  1.7255065e-01
  1.1618129e-01
 -6.2572265e-01
 -2.3144317e+00
  1.1856385e+00
 -4.4391647e-01
 -3.4372654e+00
  8.4205407e-01
  6.8916464e-01
  5.6373852e-01
  6.0146151e+00
 -1.4926637e+00
  1.1471928e-01
 -4.9758127e-01
 -1.0989493e+00
 -2.3273601e-01
 -5.6270021e-01
 -1.4876242e+00
 -4.8783603e-01
  9.8423195e-01
 -5.6483769e-01
  1.6184132e-01
 -2.0060243e-01
 -8.4447736e-01
 -2.0519543e-01
 -2.6718608e-01
 -1.2014945e+00
  2.8862655e-01
 -2.4220853e+00
  2.3887700e-01
  2.5173855e-01
 -3.5100866e-02
 -9.2938316e-01
 -8.5464559e-02
 -3.1296471e-01
 -3.9849055e-01
 -1.2105170e-01
  4.6566065e-02
 -2.2007614e-01
  6.0046319e-02
  1.7217241e-01
  5.4662538e-01
 -1.1287154e-01
  1.1366901e-01
 -9.1488189e-01
  6.0828286e-01
  1.1998695e+00
 -5.6630206e-01
 -3.7244655e-02
  9.5251314e-02
  1.8755123e-01
  6.7538157e-02
  1.4791296e+00
 -3.4798163e-01
 -1.5486912e-01
 -3.2735196e-01
 -8.3054624e-02
 -1.5341042e+00
  8.8739985e-01
  2.7395391e+00
 -6.3854253e-01
  1.3514353e+00
  1.8844292e+00
 -1.3737453e+00
  1.4380646e+00
 -1.9346949e+00
 -1.6429125e-01
 -8.3824241e-01
  4.2880841e-02
 -1.1981134e+00
  5.3162521e-01
 -8.9201003e-01
 -1.4372131e+00
  9.2873538e-01
  1.6784947e+00
 -6.0946822e-01
 -4.3562847e-01
  1.7549181e-01
  7.2302121e-01
  3.0034190e-01
  5.3350610e-01
 -1.7200413e-01
 -3.1696084e+00
  1.8914891e+00
 -1.8999712e+00
  1.1721659e+00
 -7.9538006e-01
 -3.4849802e-01
  2.1772680e+00
  2.6464288e+00
 -2.0785568e+00
  9.6459085e-01
  9.7137481e-01
  1.3899080e+00
 -2.9506006e+00
  7.1217573e-01
 -5.1160717e-01
  6.3268226e-01
  2.1936588e+00
  1.0683638e+00
  1.4511528e+00
 -2.2661421e+00
  1.4297718e-01
  1.7714283e-01
  1.0333939e+00
  2.2331861e-01
  5.1025409e-02
  1.2078201e-01
 -6.1652130e-01
  7.9947853e-01
 -1.0693222e-02
  5.1471794e-01
  4.9868459e-01
  3.3862633e-01
  1.2968923e+00
  7.7634430e-01
 -4.6430975e-01
 -4.4118163e-01
  1.4868145e+00
 -1.7872676e+00
 -3.0207241e-01
  4.4373017e-02
  1.1201751e+00
  5.1423067e-01
  2.4443862e-01
 -4.4096163e-01
  3.6801443e-01
  4.9319905e-01
  4.2299187e-01
  1.9237664e-01
  1.4498078e-02
  1.6772803e+00
  5.3807175e-01
  6.8621314e-01
  3.9471314e+00
  1.7223895e-01
 -2.9173162e-02
 -1.3855293e-01
 -2.0203215e-01
  1.8313843e+00
  4.2999619e-01
  3.0661875e-01
 -2.2194132e-01
 -3.8344225e-01
  3.4795925e-01
 -8.8499844e-01
 -1.2539656e-01
  2.1996921e-01
 -4.6438369e-01
  9.5809877e-02
  2.9840490e-03
  3.3155107e-01
 -4.1662102e+00
 -1.0934927e+00
  1.1811327e+00
  5.3871807e-02
 -1.2314499e-01
 -3.6303855e-02
 -2.8438577e-02
 -2.8900102e-01
  4.4740134e-01
 -9.8673105e-01
 -2.2978565e-01
 -2.5834668e-01
 -3.0973756e-01
  1.9384728e-01
 -1.1258045e-02
 -1.6475202e-01
  2.3869579e-01
  3.6324773e-02
 -7.9491779e-02
 -5.1581178e-02
  9.4225340e-02
  1.6768442e-01
 -1.9339475e-01
  5.6447204e-02
  1.3125638e-02
  5.7634674e-02
  7.2287865e-02
 -1.7825127e-01
 -1.1251868e-01
 -5.9024626e-03
 -5.4792833e-02
 -8.1815027e-02
 -3.5183138e-01
  1.7431881e-02
 -1.6175315e-02
  5.4433938e-02
 -1.8559486e-02
  2.0610522e-01
 -8.7717716e-03
  1.5597109e-02
  7.6364428e-02
 -7.3697619e-02
  9.3147025e-02
 -3.1998814e-03
 -1.1289219e-01
 -7.5155525e-03
 -3.3651620e-02
 -9.0815328e-02
 -1.6057688e-01
 -6.0628112e-02
 -9.0218976e-02
 -4.1076384e-02
 -5.3880829e-02
 -8.6830981e-02
  7.7913457e-01
  6.3060567e-02
 -1.2542803e+00
 -4.4182073e-02
 -1.4962643e-01
  1.6904544e-02
 -2.8408157e-02
 -1.0970246e-01
  4.3809514e-02
  7.2615139e-02
 -2.3244832e+00
 -1.0714949e-01
 -1.4461157e-02
  5.0324404e-01
  4.5666149e-01
  2.4436635e-01
 -4.6742967e-01
 -2.4453528e-01
 -5.0840038e-01
  8.5173100e-01
  2.2506186e-01
 -1.6057826e+00
 -1.8430245e+00
 -1.4114529e+00
  8.9580590e-01
  1.0005871e+00
 -4.8614389e-01
 -1.8224977e+00
 -2.9941183e-01
  1.1464319e+00
 -6.5629023e-01
 -1.6919377e+00
  3.4881335e-01
 -3.4425113e-01
 -8.2623667e-01
 -1.1949428e-01
 -5.6800401e-01
  1.0323406e+00
 -1.1643870e+00
 -1.5014403e+00
  4.4376493e-01
 -3.3599561e-01
 -5.4139853e-01
  1.8048841e+00
 -8.5996699e-01
 -1.2039679e+00
 -1.0707403e+00
 -3.3680258e+00
 -1.8895301e+00
  2.1039091e-01
  5.1388818e-01
  2.1973869e-01
  7.2303079e-02
 -6.1096191e-01
 -1.1885217e+00
  9.8693156e-01
 -5.8021832e-02
 -7.1765542e-01
 -4.6380779e-01
 -1.5211654e-01
  3.9156869e-02
 -4.5343268e-01
 -2.7656779e-01
 -4.3696040e-01
  2.0624645e-02
 -8.0629879e-01
  4.0194836e-01
  4.5906740e-01
  1.1785302e-01
  8.3343023e-01
  6.6758317e-01
  1.9113125e-01
 -2.3162690e-01
 -5.1234096e-01
 -8.4278607e-01
 -1.3849515e-01
 -1.7003840e-01
  4.2280145e-02
  2.9601062e-02
 -9.9267751e-02
  1.3583519e-02
 -2.2778422e-01
 -7.8425914e-02
  6.1607573e-02
  2.7114999e-01
  3.8433660e-02
 -8.9999571e-02
  3.3177277e-01
 -4.1142471e-02
 -9.7564244e-01
 -1.6837071e-01
 -8.2513475e-01
 -2.3414017e-01
  6.1409388e-02
  5.2487694e-02
 -3.0242442e-03
 -7.2875400e-03
 -1.1483758e-01
  6.8050839e-02
  2.7644223e-01
 -6.6763751e-02
 -2.7496108e-01
 -9.9101663e-02
  1.7931509e-01
  6.2075838e-02
 -2.5387219e-01
 -1.3541166e-02
 -1.9102268e-02
  4.1259505e-02
  2.0429907e-02
  5.4527402e-02
  3.3634011e-02
  1.4841918e+00
 -5.6124289e-02
  9.9150586e-01
  3.7948030e-01
  1.5036693e-02
  4.3412122e-01
  5.1620279e-02
 -5.0381854e-02
  2.8788347e-02
  1.4509751e+00
 -8.3276488e-02
  1.1336304e+00
  1.1575902e-01
 -6.1309308e-02
 -1.8172541e-01
  5.8191466e-01
 -9.5622152e-01
 -8.2223135e-01
 -2.4779607e-01
 -6.4977074e-01
 -5.0576484e-01
  1.1249057e-01
 -1.4417978e-01
 -4.9042642e-01
 -1.3486171e+00
 -3.1740025e-01
 -1.2654015e-01
 -2.4685992e-01
 -6.3955891e-01
  1.1547509e+00
 -8.7871268e-02
  9.3927585e-02
 -1.6570715e+00
 -1.6323185e+00
 -4.2121249e-01
 -1.2354162e-01
 -2.4772672e-01
 -2.8934437e-01
 -8.6181921e-01
 -8.1684716e-02
 -7.5665288e-02
  2.3394980e+00
 -4.4337487e-01
 -3.9917275e-01
  2.8557733e-02
 -2.0984729e-01
  1.7876254e-01
 -1.2784176e+00
 -5.4145802e-02
  5.5141065e-02
  7.8740329e-01
 -9.0213889e-01
  4.1151395e-01
 -1.4226358e-01
 -1.7617206e-01
  1.0654420e-01
 -4.8611251e-01
 -5.0344676e-02
  2.9852699e-02
  4.0652218e-01
  5.5402881e-01
 -1.1031979e-01
 -4.6802051e-02
  4.1258687e-01
 -4.6873804e-02
 -2.6335526e-01
  1.8741322e-01
  4.0680856e-01
  3.2507766e-02
 -7.2359604e-01
  7.0962185e-01
  4.5170581e-01
  1.1809931e-01
  7.0630416e-02
 -6.4747858e-01
 -7.8262500e-02
 -2.8951317e-01
  2.9785305e-01
  2.9100934e-01
 -9.7151101e-03
  3.4113795e-01
  1.0686576e-01
  2.7072096e-01
  6.8937200e-01
  7.2312869e-02
  1.0720271e-01
  9.6119809e-01
  5.1238817e-01
  3.4236220e-01
  1.4569606e-01
  5.7882749e-02
 -6.5628535e-01
  1.4597633e-01
 -1.3429140e-01
 -2.3165045e-02
  3.5023454e-01
  2.0891926e-01
  6.7551541e-01
 -9.6098252e-02
  2.5971988e-02
  3.2527316e-01
 -1.3331878e-01
 -8.7213159e-02
  6.6865706e-03
  4.3908170e-01
  7.2789526e-01
 -2.7590573e-01
 -3.9316807e-02
  2.6972480e-02
 -1.2619156e-01
  1.7337133e+00
 -7.5709462e-02
  1.3597743e-02
 -1.3442659e-01
 -1.2123077e-01
 -1.6594608e-01
 -1.2131496e-01
  2.8151650e+00
  4.6844602e-01
  4.9557957e-01
  1.5227246e+00
  7.3325908e-01
  9.0667903e-01
  1.3479768e-01
  2.5550759e+00
  2.0823545e+00
  1.0026525e-01
  1.8024433e-01
  1.9586141e+00
 -1.6135608e-01
 -1.3550410e+00
  3.6587155e+00
 -1.5473494e-01
 -2.1610653e-01
 -1.3515975e-01
  1.8320744e+00
 -1.6051112e+00
  1.8637842e+00
  6.5965134e-01
 -6.0892189e-01
 -1.0342976e-01
 -1.1072000e-03
  3.4010524e-01
  5.3535193e-01
 -4.3481985e-01
  8.3353513e-01
  1.0111029e+00
 -1.3556331e-01
  2.3451070e-01
  9.3383515e-01
  4.7222269e-01
 -8.4250765e-03
  2.7475855e-01
  1.0468477e+00
  2.1526228e-01
  1.9194539e+00
 -7.1303016e-01
  7.5412214e-01
  1.8213425e+00
 -3.4739247e-01
  2.1034720e+00
  4.2730260e-01
  1.2550433e-01
  1.5744179e-01
 -2.4334519e+00
  9.5915236e-03
 -1.2177475e-01
  3.3924448e+00
 -1.2410383e+00
  1.4122713e-02
  1.0701668e-01
 -4.7723031e-01
 -9.7764540e-01
  2.2436492e-01
  3.3785442e-01
 -2.9585488e+00
 -1.4458585e+00
 -1.3255484e+00
  7.9351269e-02
 -6.6539001e-01
 -1.3523960e+00
 -9.2589933e-01
 -1.8493927e+00
  1.6181613e+00
  1.7719437e-01
 -2.3002183e+00
  7.5636119e-02
 -1.7392889e+00
  8.4285146e-01
  1.3225384e+00
 -9.6857381e-01
 -2.3343103e+00
 -1.1678056e-01
  8.4676319e-01
  9.3068466e-02
 -1.0551194e+00
 -3.7811980e-01
  1.4525461e-01
  3.0398021e-02
 -9.9985391e-01
 -3.3156755e+00
 -1.4439912e+00
  1.8699534e+00
 -1.7508833e+00
 -2.4602507e-01
  4.4479613e+00
 -2.3799827e+00
  9.7811162e-01
 -2.5888588e+00
 -3.4150414e+00
  9.3414277e-01
  1.1285101e+00
 -3.9193234e-01
  1.0580715e+00
  9.4213760e-01
 -1.1869298e+00
 -7.7800743e-02
  5.4467839e-01
 -1.9234695e+00
 -8.3201611e-01
  2.4867453e-01
  1.7328788e+00
 -4.3684629e-01
 -1.5759747e+00
  5.7799977e-01
 -1.9243661e+00
  1.4252077e+00
 -1.0120254e+00
  6.7030573e-01
 -7.2045922e-01
  2.7932534e-01
  2.5264556e+00
 -1.1447233e+00
 -4.8389258e+00
 -1.3260970e-01
 -7.9952365e-01
  1.2574160e-02
  4.6355233e-02
 -9.3366355e-03
  5.8268207e-01
 -1.8972795e+00
 -9.4169796e-01
  8.2069911e-02
  1.2411242e+00
  1.2524452e+00
  1.4079404e+00
 -8.1944400e-01
 -8.7399587e-02
 -3.8212323e+00
 -3.9028356e+00
 -2.4137917e+00
 -4.4512740e-01
 -1.5980568e-02
  1.2218232e-01
  1.3276821e+00
  2.8824610e-01
 -7.4049756e-02
  3.7897568e+00
 -1.3566291e-01
 -4.4903916e-01
 -4.5791410e-02
 -5.6276143e-01
 -6.3091916e-01
 -3.8737524e+00
  3.8958311e-01
  1.4145612e+00
  3.4044355e-01
 -1.1726385e+00
 -3.0392310e-01
  8.0892868e-02
 -1.2252427e-01
  3.9142701e-01
  2.0482571e+00
 -1.5345515e-01
  1.2714152e-01
 -5.0386939e+00
  1.2975618e+00
 -8.3380562e-01
 -3.7516707e-01
  7.5948340e-01
  6.5856451e-01
  8.2665724e-01
 -1.3433113e+00
 -9.5752984e-01
 -1.0838129e-01
 -1.3884441e+00
  1.7550128e+00
 -1.1028956e+00
  2.0427291e-01
  9.6731938e-02
 -1.4854540e-01
 -1.3926812e-01
  5.3990595e-02
  2.5504410e-01
 -4.2056307e-02
  4.7194086e-02
  1.1970925e-01
  1.7800656e-01
  5.9255111e-01
 -1.9382890e-01
  1.8984558e-01
  8.0889389e-02
  2.9426223e-01
 -1.5082495e-01
 -6.1960407e-02
  8.9161023e-02
  1.2925450e+00
  2.1137311e-01
  5.4442015e-02
 -3.7695721e-01
 -2.5633706e-02
  1.4320512e-01
  1.5876275e-01
 -1.0441031e+00
  1.9018102e-01
 -1.1726630e-01
 -3.5525611e-01
 -1.6214330e-01
 -2.8859770e-02
  7.2385281e-02
  6.7146413e-02
 -6.5852463e-01
 -1.2048715e+00
  3.0870572e-01
  7.8407228e-02
  6.0174219e-02
 -1.0767902e-01
  5.9644502e-02
 -5.2499797e-02
  1.2268382e-01
  1.0156817e-02
  5.0006103e-02
 -1.5849902e-01
  6.7544419e-01
 -1.6114558e+00
  3.2104734e-01
 -2.5067499e+00
 -1.6269701e+00
 -2.5292683e+00
  8.2402807e-01
  2.1478933e-01
  8.1925994e-01
  8.8103837e-01
  1.3717152e-01
 -8.4486860e-01
  1.2522212e-01
  6.3473988e-01
 -2.8868869e-01
  4.3899664e-01
 -2.2961022e-01
 -4.2143244e-01
  3.3537942e-01
 -3.5882756e-01
  5.6106722e-01
  4.3147531e-01
 -3.3452343e-02
  1.1450373e-01
  5.4700899e-01
 -6.7163229e-01
 -6.6576803e-01
 -1.4676611e+00
 -4.0620148e-01
 -2.0621535e-01
  5.4896361e-01
 -1.1159061e+00
 -1.4144434e+00
  7.7260941e-01
 -1.4423292e+00
  4.6468232e-02
 -2.1513336e+00
 -2.2812943e-01
  5.2481756e-02
 -3.6251155e-01
 -5.7823735e-01
 -2.8393164e-01
  1.1668274e+00
  1.4794548e-01
 -1.7463815e-01
  2.4833672e-01
 -1.5740263e-01
 -1.0910875e+00
 -3.5946390e-01
  1.2299456e-01
  5.1384217e-01
 -7.7280469e-02
 -3.0525073e-02
  1.9207833e-02
 -1.0254844e-01
  3.0913281e-01
  1.7177727e-02
 -1.0561224e+00
 -9.1578841e-02
  2.9101649e-01
 -1.3018130e-01
 -1.2635313e+00
 -3.3316711e-01
  1.5145074e-01
  2.3065294e-01
  1.4903176e-01
  1.2576260e-01
 -8.4353067e-02
  1.2511267e-01
  2.0005268e-01
  1.6417843e-01
 -3.5778472e-01
 -1.7156746e-02
 -1.1601409e-01
  2.2687706e-01
 -1.1464436e-01
  1.4997725e-01
  2.5806671e-01
  3.5087961e-01
  5.3588039e-01
 -1.6161513e-01
 -2.7723944e-01
  1.7690410e-01
 -1.6369370e-01
 -8.1052214e-02
 -1.5581258e-01
 -8.3871268e-02
  4.9904730e-02
  2.3956661e-01
  3.6692938e-01
 -1.6564780e-01
  3.8676673e-01
  2.3335199e-01
  2.1494778e-01
  2.4425535e-02
 -1.9923218e-01
 -1.8427220e-01
 -8.7299265e-02
 -1.8384998e-01
 -3.8489865e-03
 -5.9851132e-02
  1.7547129e-01
  8.9678764e-02
 -1.3044712e-01
 -2.1391626e-01
 -5.3701149e-03
  1.2447029e-01
 -5.9971660e-02
 -1.4558668e-01
 -1.1537873e-01
  4.2952991e-01
 -1.5742999e-01
  1.9417558e-02
 -7.2304405e-02
 -6.6051915e-02
 -5.6614816e-01
 -1.1980905e-01
  6.4015783e-02
 -2.1001090e-01
  8.9983366e-02
  5.6868489e-03
 -1.0953379e-02
 -1.2340335e+00
 -1.8341723e-01
 -6.4167760e-02
  4.1075930e-02
 -1.4418304e-01
  7.9773314e-02
 -2.0477219e-01
 -1.9144021e-01
  1.6924098e-02
 -1.0509578e+00
 -6.3509755e-02
 -4.6906423e-02
 -4.7148582e-02
 -3.5497189e-01
 -3.2253608e-02
 -1.4633907e-01
 -4.3255482e-03
  9.7111262e-02
 -1.7471774e-01
 -1.1775370e-01
  3.8204786e-01
  1.5209685e-01
 -5.6459516e-01
 -1.3403831e-02
 -1.6338263e-01
 -1.5536890e-02
 -2.7752400e-03
  1.9044521e-01
 -1.3643774e-01
  3.9714985e-02
  2.3014943e-01
 -3.4307852e-02
 -2.2756504e-02
  4.3001134e-02
  5.5052612e-02
  1.1137218e-02
 -9.8724209e-02
 -4.7604393e-02
 -1.7693548e-03
  2.2270782e-02
 -7.2687499e-02
 -2.4908459e+00
  7.2189522e-01
 -9.9948192e-01
  7.0241708e-01
 -1.8553451e+00
 -3.3801427e+00
  1.8164054e+00
  9.3496716e-01
 -1.7818602e+00
  4.0220138e-01
 -7.4039042e-01
  1.5774257e+00
 -1.3521972e-01
 -1.8333747e+00
 -1.9523578e+00
  9.9374884e-01
  1.3059896e+00
 -6.9024748e-01
 -1.3572485e+00
 -5.3520423e-01
 -1.3248415e-01
 -4.9192581e-02
 -2.1019607e+00
  7.2275156e-01
 -3.7971649e+00
 -7.4647838e-01
 -9.6881932e-01
 -1.0138956e+00
  8.2691246e-01
 -2.1743508e-01
 -4.7356707e-01
 -1.9938859e+00
 -8.0904043e-01
 -9.7411799e-01
 -1.1133786e+00
  3.0984941e-01
 -1.1740392e+00
  9.9579740e-01
 -5.2035177e-01
  2.2765975e+00
 -1.3601153e-01
  6.3745421e-01
 -1.3322229e+00
 -4.6963602e-02
 -1.0803375e-01
  2.7910199e-02
 -6.3484275e-01
  4.1850798e-02
  4.7001785e-01
  9.1703820e-01
 -5.0419372e-01
 -3.3648792e-01
  2.4650288e-01
 -8.3021857e-02
 -4.8250365e-01
 -5.9030259e-01
  4.0170252e-01
  1.4008087e-01
 -1.9928768e-01
 -5.0827235e-02
  3.3733970e-01
 -4.8586205e-01
 -2.6664838e-01
 -1.7491153e-01
 -9.2959739e-02
 -1.4528996e-01
  2.6826089e-02
 -2.9395378e-01
  5.0590094e-02
 -2.6665966e-04
  9.0422399e-02
  1.2315243e-01
  2.3907487e-01
  1.3954513e-01
 -1.6678469e-01
  7.9688475e-02
  2.4515291e-01
 -7.0198007e-02
 -2.3443135e-04
  2.1569794e-01
  1.2889956e-01
 -2.3990141e-02
 -3.1224757e-02
  1.8689702e-01
  8.1017986e-02
  1.1414867e-01
 -2.0508228e-02
 -5.4024946e-02
 -2.1124505e-01
 -1.5534966e-01
 -7.0362486e-02
  1.3037477e-01
 -8.4572591e-02
  4.6145096e-02
  1.6792424e-02
  3.8337103e-01
  4.6067196e-01
 -7.8031063e-02
 -2.0815390e-03
 -1.1411213e-01
 -2.2165880e-01
 -1.6735215e-02
  1.7386494e-02
  7.3399529e-02
  2.6527401e-02
 -1.1054645e-01
  1.3179233e-03
  3.4137841e-03
 -8.6507845e-01
  1.4177245e+00
  2.2743058e+00
  3.1567667e+00
 -1.4560368e+00
  2.6031632e+00
 -2.4437207e-01
 -3.8437614e-01
  1.3789338e+00
 -3.8679513e-01
 -3.8840096e+00
  3.9668378e-01
  9.5145440e-01
 -3.2309308e+00
  2.1884780e+00
 -1.1035472e+00
 -1.2353078e+00
 -3.0803311e+00
  5.3988558e-01
  1.6178060e+00
 -1.5363145e+00
  2.0813184e+00
 -3.6230004e-01
  1.5287273e+00
  2.0210450e+00
  8.9517504e-01
  1.4071877e+00
 -7.1266907e-01
  6.2388361e-01
 -6.3880664e-01
 -1.0275700e+00
 -4.2140322e+00
  1.2279221e+00
  4.3684878e+00
 -4.3935469e-01
 -2.0887627e-01
 -2.1288639e-01
  1.9182332e+00
 -1.6667953e-01
 -5.6444246e-01
  1.1264735e+00
 -1.4242102e+00
  2.1128385e+00
 -1.4844711e+00
  4.3908858e-01
  1.6586478e-01
  4.7910175e-01
  2.5131855e-02
  8.5279942e-01
 -3.0115130e+00
  7.1291012e-01
 -4.9327931e-01
  5.7952657e-02
 -5.3061992e-01
  4.1319448e-01
 -3.6632152e+00
  1.2292514e+00
 -7.4224347e-01
  2.7441809e-01
  2.6782606e+00
 -1.9639586e+00
  2.4062397e+00
 -8.8796370e-02
  1.2239749e-01
  1.7171398e-01
 -4.5767298e-01
 -5.6190807e-01
  1.6984431e-01
 -5.8606547e-01
  2.5830308e-02
 -8.7082046e-01
 -1.1718262e+00
  5.6479061e-01
 -4.6120096e-02
  5.3497177e-01
 -9.0412152e-01
  1.1934674e-01
  1.5229647e-01
  6.8699854e-04
  1.1824799e-01
  1.5843937e-01
  1.0879204e+00
 -1.5407397e-01
 -5.2637911e-01
 -2.9370597e-02
  3.2999892e-02
  1.4894506e-01
 -7.1910191e-01
  1.4058739e+00
  5.3844988e-01
 -1.1322426e+00
  2.3014186e-01
  7.5442725e-01
 -6.3370205e-02
  1.0803772e+00
  2.7588442e-01
 -3.0799076e-01
  3.4318969e-02
  1.1919159e-02
  4.0542093e-01
  3.2459766e-01
 -5.8780080e-01
 -2.5529641e-01
 -8.3227736e-01
  1.1925876e-01
 -1.3867323e-01
 -2.2737539e-01
  3.7704784e-02
 -2.7158850e-01
 -1.8964750e-01
 -3.8778704e-02
  3.1355983e-01
  4.5000762e-02
 -3.2816026e-01
  2.2415062e-02
  2.7234304e-01
  8.9680237e-01
 -8.0392957e-02
 -3.3809152e-02
  3.1556241e-02
 -9.1576047e-02
 -1.1130420e-01
  6.0302500e-02
  1.9713251e-02
 -2.2410769e-02
  7.2344020e-02
  5.0756156e-02
  5.1420067e-02
  2.5835698e-02
 -3.2674950e-02
 -7.5248942e-02
 -2.8953649e-02
 -1.0629103e-01
 -7.7192843e-02
 -1.0662988e-01
 -1.8609872e-01
  1.3829342e-01
  5.6697492e-02
 -4.5793232e-02
  1.9064763e-01
  3.4909484e-01
 -2.2099809e-01
 -5.7442412e-02
 -7.0149612e-01
  3.7516218e-02
  2.3988990e-02
 -9.8523073e-02
  2.9043200e+00
 -6.9625452e-02
 -1.5409856e-01
 -2.4553477e-03
  5.2197743e-02
 -3.0356916e-02
 -7.5809747e-01
  1.1821161e-01
 -1.7814627e-01
 -6.5010209e-03
 -4.4934470e-02
 -1.1532471e-01
  2.6253474e-01
  3.4795536e-03
 -3.5640743e-01
  1.2387719e+00
 -1.2096146e+00
 -3.3763379e-01
  7.0617211e-01
 -3.9676285e-01
 -1.6878518e+00
  5.6296641e-01
 -2.1612206e+00
 -1.3118298e-01
  5.4269427e-01
  3.0730218e-01
  7.1463889e-01
 -2.5648042e-03
  3.9035848e-01
 -1.7410754e-01
 -9.2366569e-02
  6.0437441e-01
 -6.8629730e-01
  4.6920392e-01
 -9.2310138e-02
  1.6124631e-01
 -4.9432448e-01
 -2.8239536e-01
  1.2624830e-01
  1.0662898e+00
 -1.0276891e-01
 -2.2447326e+00
 -1.0272341e+00
  1.3266619e-01
  5.2181311e-02
 -1.2004120e-01
 -2.7557522e-01
 -5.7062781e-03
 -4.0079224e-01
  2.6998902e-02
  1.8317737e-02
 -9.3416095e-01
  2.3196757e-01
  5.6792969e-01
  1.2081323e+00
  2.8521141e-01
 -3.3522624e-01
  7.6724559e-01
 -1.5351569e-02
 -2.1040378e-02
 -8.8478588e-02
  8.2099557e-02
  6.4657956e-02
 -1.6559695e-01
  5.2299727e-02
  8.4762029e-02
 -1.6697653e-01
 -2.8239110e-02
 -2.5233039e-01
  7.3547560e-01
  3.2041278e-01
  5.3720522e-01
  5.4586816e-01
 -5.3479755e-01
 -7.9281664e-01
 -4.5555703e-02
  2.7757499e-01
 -2.3762022e-01
 -1.4586118e-01
 -2.7933693e-01
 -1.8789105e-01
 -3.0275050e-01
 -1.7695878e+00
  3.6626932e-01
  1.0763462e-01
 -8.0470666e-03
 -2.7759734e-01
  7.0328593e-02
 -4.5273658e-02
 -9.4479471e-02
 -9.9752501e-02
 -6.0341364e-01
  6.8450563e-02
 -2.8789446e-01
  4.6131358e-02
  2.3292758e-01
 -3.8756287e-01
  2.3657360e+00
  2.0544064e-01
  6.3717581e-02
 -4.1357672e-01
  3.1564233e-01
  9.8206714e-02
 -4.3960128e-02
  1.3279879e-01
  6.4257130e-02
 -1.2664542e+00
 -1.7284289e-01
 -9.5653689e-01
 -8.9902359e-01
 -1.1391819e-01
 -1.0635115e-01
 -4.7533450e-01
 -2.0058891e-03
 -1.3173309e-01
 -1.5047526e-01
 -9.4742499e-02
  3.4180131e-02
  1.9744757e+00
 -1.0486954e-01
  2.3863336e-02
  1.4128843e-01
 -6.7722446e-01
  6.8572229e-01
  1.9283663e+00
 -2.0988100e+00
  1.7743101e+00
  3.6750972e-02
  1.4719354e+00
  4.4060407e+00
 -1.8234342e+00
  3.3059128e-02
  2.6109639e-01
  1.1995902e+00
 -7.5297958e-01
 -1.2836404e+00
  1.0873549e+00
 -6.7375660e-02
 -5.8483131e-02
  4.4298401e-01
 -4.3131003e-01
 -5.8808088e-01
 -9.8519869e-02
 -2.5621545e-01
  9.1606772e-01
  7.7168566e-01
 -4.6882743e-01
 -1.9153658e+00
  9.0069073e-01
  2.3275217e-01
  1.2664484e+00
  1.7728712e-01
  3.9730141e-01
  9.7126746e-01
 -7.6945856e-02
 -5.1176671e-02
 -2.9528415e-01
  6.6219106e-02
  3.5587785e-01
  8.8982940e-01
  1.7694522e-01
 -5.7296073e-01
 -1.0330083e+00
  6.8066931e-01
  4.5907572e-01
  1.4202036e+00
 -1.6779917e-01
 -9.6195333e-02
  5.0122451e-02
  2.7551031e-01
 -5.0401427e-02
 -1.4126399e-01
  5.1920265e-02
  5.2713949e-02
  3.5071880e-01
 -5.0978754e-02
  1.0654328e+00
  1.3221813e+00
  2.7287195e+00
  1.1968178e+00
  3.5776898e-01
  2.6404669e+00
 -6.3634300e-01
  6.7891502e-01
  1.4702045e+00
  7.1371990e-01
  6.1193800e-01
 -1.9487549e-01
  1.7836073e-01
 -7.0297772e-01
  7.8729934e-01
 -1.3945319e-01
  9.1044113e-02
 -9.1127872e-01
  1.9347678e-01
  8.4851719e-02
 -8.8810481e-02
 -3.0701375e-01
  3.9643008e-02
  1.0122948e-02
 -1.9978380e-01
  7.9976952e-01
  4.8828542e-01
 -1.1258897e+00
 -1.4631487e-01
 -2.8135839e-01
 -4.8127830e-01
 -3.7416670e-01
 -9.2636186e-01
  3.0146018e-01
 -7.4757999e-01
 -4.1649774e-01
 -1.1202191e+00
 -7.1344918e-01
 -1.3376211e+00
  2.5231114e-02
 -7.2499014e-02
  8.1019290e-03
 -4.9509370e-01
 -6.6256410e-01
  9.4347095e-01
  2.6300186e-01
 -1.2242312e-01
 -4.0144939e-02
  8.5572548e-02
  1.7802773e-02
  4.8066965e-01
  1.3268629e-01
  2.6342675e-01
  5.4202843e-01
  3.2833602e+00
  1.9871835e+00
 -4.5040560e+00
 -2.0667481e+00
 -1.4191313e-02
  8.0151272e-01
  4.1439824e+00
  3.2886677e+00
 -2.2709768e+00
 -3.2632446e-01
 -5.0538468e-01
 -2.0434282e+00
 -7.0656255e-02
 -3.3679608e-01
  9.2172503e-02
  8.9924730e-02
 -1.4686606e+00
 -1.8221483e-01
 -3.7830254e-01
 -3.3402500e-01
  9.3857145e-01
 -7.5142461e-01
 -4.8483360e-01
 -6.3498724e-01
  5.7115138e-01
 -2.2590096e+00
 -8.1183881e-01
 -6.3344635e-02
 -4.4515690e-01
  1.7244734e+00
  1.8612766e+00
  4.0877137e-01
 -8.7392759e-01
 -1.6326356e-01
 -5.3213066e-01
 -1.2238967e-01
 -2.5919285e-01
 -9.2490666e-02
 -8.2632679e-01
 -4.7455236e-01
  3.9856082e-01
  2.4312148e+00
 -1.3104720e-01
 -9.9521685e-01
 -1.5241228e-01
 -1.1024930e-01
  4.6202186e-01
 -5.1554614e-01
  4.7976270e-02
  7.8942470e-02
  8.5085988e-01
  1.1442614e-01
 -2.8502807e-02
  2.1737214e-02
  8.2690912e-01
 -2.1365204e-01
 -2.4805589e-02
  2.9864001e+00
  3.3632684e-01
 -7.6600921e-01
 -5.6604958e-01
  6.5213126e-01
 -6.9299988e-02
 -1.8964839e-01
 -3.8404686e-03
  3.1473454e-02
 -1.3455324e-01
 -2.3502576e-01
  3.3848119e+00
  7.9371944e-02
  6.9722545e-04
  5.1283795e-02
 -5.2119678e-01
 -1.3828984e-01
 -2.4263984e-01
 -6.2230974e-01
 -3.2650024e-01
  1.1135783e-01
  2.8959379e-01
 -7.1808624e-01
 -8.9165360e-02
  1.6128798e-01
 -1.6515197e-01
  1.0091794e-01
 -4.6368530e-01
 -5.4249197e-01
  8.4484361e-02
 -2.4556668e-01
 -4.2403257e-03
 -1.8259725e-01
 -1.0893240e-01
 -1.3515827e-02
 -3.3795640e-01
  2.0967509e-01
  1.3937905e-01
 -3.3335653e-01
 -4.7977677e-01
  6.3598204e-01
 -2.2295198e-01
  3.9865285e-02
 -4.2212881e-02
 -9.8431371e-03
 -6.4397462e-02
  7.5940683e-02
 -2.0982625e-01
 -1.6823772e-01
 -2.8809762e-01
  1.8594024e-01
  2.9047546e-01
  1.2464433e+00
 -7.3022308e+00
 -1.8304420e-01
 -1.6727136e+00
 -3.7092790e-01
  1.5338901e+00
 -1.8546852e+00
  3.2730894e-03
  2.0693657e-01
 -4.9778017e-01
 -3.7242136e+00
  2.1991035e-01
 -2.1295516e-02
 -1.0467507e-01
  1.2756252e-01
 -2.3302944e+00
 -3.1420231e-02
  5.0735915e-01
 -2.5821121e+00
 -9.0750337e-01
 -1.2059584e-01
  1.0826348e+00
  2.0955300e+00
 -1.0441808e+00
  1.5060732e+00
 -1.4734372e+00
  4.0446267e-01
 -1.4795867e-01
  2.2181883e-01
 -2.3087002e-02
  2.3686299e-01
  1.3457961e+00
  2.3194699e-01
  1.4248790e-01
  8.5767180e-02
 -2.9414487e-01
 -1.3076644e+00
 -9.5939016e-01
  9.1153854e-01
  1.5687243e+00
  1.6655302e+00
 -1.1601949e-01
 -2.1701977e+00
  9.4558680e-01
  2.2541803e-01
 -5.8609731e-02
  6.0600537e-01
  1.4012901e-01
  1.0269476e+00
  4.7483692e+00
  9.4713513e-03
 -1.6523138e-01
 -9.6187091e-01
 -6.2872744e-01
  1.3938627e+00
  2.0386837e+00
  1.4184618e+00
 -2.7250478e-01
 -9.9635923e-01
  3.7159226e+00
 -2.3330481e+00
  1.5346693e-01
  1.7278174e-01
  4.3747184e-01
  2.3829176e+00
  3.6769163e-02
  1.2777271e+00
 -5.0294644e-01
  1.9791558e-01
  3.3625157e+00
  1.6444018e+00
  6.2546328e-02
  6.6001374e-01
  3.1598017e+00
 -2.6766643e-02
 -7.0813680e-01
  1.2570100e+00
  1.1479590e+00
 -1.0084045e+00
  7.1358389e-01
 -1.9206877e-01
  6.5492481e-02
 -6.9572046e-02
  1.0378475e+00
 -2.6222363e-01
  9.3093181e-01
  1.2952963e-01
  1.4251412e+00
 -9.2175797e-02
  1.8194315e-01
  2.7976203e-01
 -1.2970492e+00
  3.9355893e-02
 -3.9208367e-02
 -2.0578988e+00
  6.3693339e-01
  2.2877882e+00
 -1.7655638e-01
  1.8590643e-03
 -7.5636894e-02
  4.3531242e-01
  1.0798297e-01
  1.9522141e-01
  9.5592719e-01
 -4.9070206e-02
 -1.1996271e-01
 -5.5270041e-03
 -5.6261450e-01
  2.2081615e-01
 -2.8267577e-01
 -1.9556807e-02
  4.5756656e-01
  5.5474676e-03
 -1.2235476e+00
  2.1896513e+00
  8.3940738e-01
  1.1793057e-01
 -1.0500520e-02
 -7.0242159e-02
  3.0159324e-02
 -1.1275692e-03
  1.0124779e-01
 -4.0423859e-02
 -9.3499884e-02
 -8.7741636e-02
  1.2994462e-01
 -4.7016889e-02
  7.5415611e-02
  1.3018067e-01
 -1.3569790e-01
  6.7166489e-01
 -2.2034469e-01
  4.2462107e-02
  7.6425381e-02
  5.0942786e-02
  2.1783149e-01
  2.3693056e+00
 -2.1495512e-01
  1.0781468e-01
  2.3121560e-02
  4.5752019e-02
 -1.9201124e-01
 -5.6157902e-02
  9.0532653e-02
  5.0680524e-01
 -1.7012376e-01
  1.3066266e-02
  8.1870593e-02
  1.4772668e-01
 -7.1716271e-02
 -2.2748372e-01
  1.2501715e-01
  1.5831694e-01
 -1.5121470e-02
 -1.3570701e-02
 -9.6889082e-03
 -7.7599041e-02
  3.2648258e-03
 -8.9564979e-02
 -6.1193876e-02
  2.6583001e-02
  6.2583435e-01
  1.7422640e-01
 -1.3041224e+00
 -3.9112696e-01
  6.3021362e-01
  5.5289883e-03
  3.3439500e+00
  8.1855357e-01
  5.3758836e-01
  1.3082737e-01
 -6.7087102e-01
  6.8527192e-01
 -3.4554625e-01
 -2.0884095e-01
 -3.2435814e-01
 -7.1114630e-01
  2.9843805e-02
 -6.9299781e-01
  2.6988748e-01
 -1.3579133e-01
 -2.7233467e-01
 -2.3519808e-01
  5.5089259e-01
 -4.6346092e-01
 -4.3222416e-02
  2.5996584e-01
 -1.1697654e-01
 -1.9116403e-01
 -4.4808248e-01
 -8.1467867e-02
 -2.0561352e-02
 -2.9158711e-01
 -3.4639779e-01
  2.4161021e-01
 -4.8702914e-01
 -7.9903774e-02
 -2.9779986e-01
 -1.9923505e+00
 -1.4502017e-01
 -5.5303979e-01
 -4.9463725e-01
 -2.6761350e-01
  1.0261493e-01
  1.3687479e-01
  8.2666993e-02
 -8.3553232e-03
  7.6642200e-02
  1.1236134e-01
 -2.8589076e-01
  7.7391803e-02
 -1.9032277e-01
 -2.5535135e-02
 -9.3019366e-02
  4.3996751e-02
  1.2121542e+00
  8.0238813e-01
  3.0716281e+00
 -3.2571309e+00
 -2.3320236e+00
  5.4322523e-01
 -1.5141252e-01
 -6.1412692e-01
 -2.3439486e-01
  7.6371282e-02
 -6.2536681e-01
 -5.8884531e-01
  1.7224093e-01
  5.3177768e-01
  3.0607128e-01
  3.6535396e-03
 -2.3048791e-01
 -2.9305431e-01
  5.2524489e-01
  6.1526591e-01
 -1.6738392e+00
  7.7497911e-01
 -2.1128287e-03
  1.0403053e+00
  1.0459667e+00
  2.8325579e-01
  1.2866793e+00
 -1.6028422e-01
 -1.0976719e+00
  9.1022946e-02
  4.2685169e-01
  4.6343595e-01
  2.7463955e-01
  4.8929472e-02
 -2.6922554e-01
 -4.2657271e-01
 -1.7510805e-01
 -8.9961368e-01
  3.9843592e-01
  5.7506365e-01
  3.8549739e-01
 -7.0905842e-02
 -1.1613081e+00
 -9.2701995e-01
  7.5690490e-01
  1.2361252e-01
  5.0505292e-01
 -1.5701181e-01
  1.2679298e-01
  1.1920602e-01
  3.8133818e-01
  1.1723584e-02
  2.6166648e-01
 -2.2421059e-01
 -1.7112148e-01
 -3.8636053e-01
  3.9897558e-01
 -2.7975553e-01
  6.2988621e-01
  5.8580041e-01
  2.5927126e-01
  1.6819869e-01
  2.2768942e-01
  2.2850542e-01
 -1.2544921e-01
 -1.1185719e-01
 -1.8025364e-01
 -5.3438164e-02
  4.5356652e-01
  1.1306051e-01
 -6.6248052e-02
  2.1292953e-02
  1.6975698e-01
  2.2826788e-01
 -2.3577385e-01
 -3.6929515e-01
  5.0826047e-02
  2.9944029e-01
 -4.5225240e-02
  1.4470176e-01
  1.6394176e-01
 -9.9667162e-02
 -9.8248273e-02
 -1.3241857e-01
 -3.2646149e-02
  2.9925006e-02
 -6.1332189e-02
  1.3514492e-03
  1.6185969e-01
  5.7700705e-02
 -1.9449219e-02
 -1.9742016e-01
 -1.1404954e+00
  1.3992262e-01
 -2.2983103e-01
 -2.6255584e-01
  5.5289572e-01
 -1.3834232e-01
  1.9494124e-01
 -1.2020519e-01
  1.0676012e-01
 -7.2106808e-02
  6.8186037e-02
  6.8872601e-02
 -1.0888327e-01
  1.8147372e-01
 -2.0142855e-01
  4.3372732e-02
  8.1224066e-01
  9.5370919e-01
  2.0253970e-01
 -9.4384396e-01
 -1.6056669e+00
  6.3610107e-01
  5.2162260e-01
  1.0647196e+00
 -2.3450382e+00
  9.1260545e-02
  1.4183794e+00
 -8.1578988e-01
  2.8851573e+00
  5.9734255e-01
 -4.7027764e-01
 -2.3637575e-01
 -1.5725294e-02
 -6.2196487e-01
 -7.6649892e-01
 -5.0443155e-01
 -1.0624544e-01
  1.6974996e-01
  1.8567418e-01
 -6.5224993e-01
  5.3079438e-01
 -3.4588030e-01
 -2.0878598e-01
 -3.9000648e-01
  7.8321522e-01
  1.5625550e-01
 -5.7016607e-02
 -2.6313755e-01
 -2.9394156e-01
  1.4749205e-01
 -1.4821082e+00
 -9.9126559e-01
 -2.9927742e-01
  3.4686300e-01
  4.0756595e-01
 -1.2215842e+00
  1.6259876e-01
 -2.2389831e-01
 -5.1594776e-01
  1.1742599e-01
 -7.8204060e-01
 -6.2920853e-02
 -2.1917149e-01
  1.1598561e-01
 -3.2618105e-01
 -3.4151301e-01
 -9.4630942e-02
 -5.7872385e-02
 -4.2419764e-01
  4.3318219e-02
 -1.8337669e-02
  6.0370660e-01
  1.2653939e+00
 -4.7893977e-01
  1.1637633e+00
  3.4640826e-02
 -1.0761494e-01
 -1.6284584e+00
 -1.2660079e+00
 -2.2817512e-01
 -3.6576027e-01
 -3.2342663e-01
 -2.6727604e-02
 -2.9018420e-01
  4.8908159e-01
 -7.2963226e-01
 -9.6500479e-02
 -3.3730042e-01
 -1.0856440e-01
 -3.9869374e-01
 -1.3190421e-01
 -1.4563592e-01
 -2.0678502e-02
  6.6476655e-01
 -4.2914155e-01
 -3.0710825e-01
 -1.7899559e-01
 -1.2798102e-01
 -3.1558502e-01
  1.6295603e-01
  9.3363747e-03
 -6.9023021e-02
 -2.8973722e-01
 -5.7396704e-01
  9.5134355e-02
  1.3728029e-01
 -2.5259215e-01
 -1.6441742e+00
 -4.6816123e-01
  8.8644087e-02
 -6.6026732e-02
 -1.8591732e-01
 -2.7624801e-01
 -1.0799865e-01
 -1.8157025e-01
 -1.3804434e-01
  2.6389042e-01
  2.0698881e-01
  1.2025453e-02
  2.7345380e-02
 -8.9356087e-02
  1.3777313e-01
 -3.3877905e-02
  3.5915804e-01
  3.5618326e-01
 -1.1625070e-01
  1.4705166e-01
  6.0125090e-02
  1.5682517e-01
 -1.8978819e-01
 -9.4184828e-01
  9.4057566e-01
  2.7706060e-01
 -1.6230232e-03
  4.2224130e-01
  1.1588008e+00
 -4.7730452e-01
 -7.2083133e-03
  5.5744672e-01
 -6.5389104e-02
  5.2304447e-01
  5.7991844e-04
  4.3129656e-02
  9.8842514e-01
  7.0939195e-01
  2.2566220e-01
 -2.7272824e-02
  3.2932110e+00
  6.0182709e-01
  4.9074131e-01
  4.4748226e-01
  2.1019362e-01
  2.5698194e-01
  7.4241781e-01
  1.6109480e-01
  2.3455266e-02
 -5.8238739e-01
  3.6727291e-01
  1.7042053e-01
 -2.0190427e-02
  1.2287180e-01
  3.4830478e-01
 -1.4779358e+00
  1.8225984e-01
 -6.4585045e-02
 -5.4670346e-01
  1.1798402e+00
  4.8854536e-01
  3.7371448e-01
  1.0153480e-01
 -1.0538483e-01
  3.6562899e-01
 -8.8804275e-02
  6.9572985e-02
 -2.5188598e-01
 -2.6237845e-01
  5.0231252e-02
  3.0779427e-02
 -8.7631696e-01
 -5.4320973e-01
 -3.4666779e+00
 -3.7337157e-01
 -2.5720580e+00
 -2.2359380e-01
  8.5361403e-01
 -1.6227639e+00
  1.4489267e+00
  4.5131534e-01
  5.4867917e-01
 -3.2293253e-02
  5.3684604e-01
 -7.5180328e-01
  1.4732154e-01
 -2.3938866e-01
  7.7313566e-01
  5.0621086e-01
 -2.0937774e+00
 -4.4719785e-01
 -1.9273551e-01
  2.2966667e-01
  7.4248874e-01
  3.0728501e-01
  8.6643524e-02
 -1.9406165e-01
  1.5593517e-01
 -5.3282994e-01
  7.2635221e-01
  1.1066419e+00
 -4.6967560e-01
 -1.4914873e-01
  3.0110928e-01
  2.5673035e-01
  8.1290215e-01
  1.8951073e-01
  5.0413036e-01
  7.1269214e-02
 -6.7009681e-01
  3.9172605e-01
  8.2793552e-01
 -6.1632138e-01
 -1.1535363e+00
  5.7237506e-01
 -1.3729812e-01
  2.3044138e-01
  1.7299904e-01
 -1.0816557e-02
  2.4418320e-01
 -3.4293312e-01
  3.3344272e-01
 -3.4397641e-01
  3.2808602e-01
 -7.0573449e-02
 -3.8659805e-01
 -8.7486535e-01
 -5.0501756e-02
  1.1562908e+00
 -8.8722456e-01
 -4.6845666e-01
 -9.8622525e-01
 -4.7112238e-01
  2.1080954e-01
 -3.1680089e-01
 -3.8971603e-01
 -2.7933306e-01
  8.2112801e-01
  1.1435968e-01
 -8.6180949e-01
 -7.6365697e-01
 -3.4582996e-01
 -9.5413409e-02
 -6.6062003e-01
  8.1173790e-01
 -3.9888185e-01
  9.4859160e-02
 -7.9042131e-01
 -8.5403633e-01
 -1.5147658e-01
  5.0602365e-02
 -1.5196382e-01
 -5.0129049e-04
 -2.0260036e-01
 -2.2693302e-01
  9.9291511e-02
  1.5147531e-01
 -1.7251661e-01
 -1.2214213e-01
 -3.6689842e-01
 -5.1803195e-01
 -1.4110109e-01
 -1.6267614e-01
 -1.2149106e-01
 -2.4339562e-02
 -3.7147620e-01
 -5.2157444e-01
 -8.5971099e-01
  8.9858800e-02
 -2.5571176e-01
 -3.0410293e-02
 -3.6355564e-01
 -8.3973378e-02
  9.8308753e-03
  2.2968849e-02
 -2.0123536e-02
 -1.0988701e-01
 -5.2740818e-01
  1.3393535e-02
 -7.8542270e-02
 -3.6241534e-01
  2.6918346e-01
 -2.3292811e-01
  6.7107528e-01
  1.5733817e-03
  7.7190942e-01
  9.7985232e-01
 -1.4133655e-01
 -6.0516459e-01
 -5.4691583e-01
 -2.3912998e-01
 -2.1709487e-01
 -7.0948023e-01
 -1.5605099e-01
  5.8376914e-01
  2.4145615e-01
 -6.0946113e-01
 -5.6805477e-02
 -2.4343409e-01
 -8.6654566e-02
 -7.2650880e-02
 -5.3281528e-01
 -2.2995338e-01
 -1.1209295e-01
  6.2337583e-01
 -2.0881683e-01
  4.8520222e-01
 -3.0526631e-03
  8.2371220e-02
  4.0268475e-01
  5.4149881e-02
  2.0448904e-01
  1.7014307e-01
  1.6432503e-01
 -3.2636443e-01
 -3.2340091e-01
 -3.2861674e-01
 -2.5872833e-01
 -5.0471151e-01
 -4.5742768e-01
 -1.3186619e-01
 -3.0978918e-01
 -1.5183119e-01
 -2.4766265e-01
 -8.4644660e-02
 -1.0646369e-01
 -5.9977647e-02
 -3.2814825e-01
  1.0211458e-02
 -1.1860286e-01
 -1.4274929e-01
 -1.7290598e-01
  3.2224190e-01
 -1.0608144e-01
  1.0693138e+00
 -3.6660247e+00
 -1.4828111e+00
 -3.6966512e+00
  6.9571817e-01
  2.4477065e+00
  4.1753966e-01
 -3.5375703e-02
  6.2428564e-01
 -2.6981484e-02
  2.4753483e-02
  1.1725250e-01
  3.2510743e-01
  3.7876624e-01
  3.7136519e-01
 -1.7875221e-01
 -2.3959568e+00
  5.5343586e-01
 -8.6824155e-01
 -5.1924115e-01
  1.1267176e+00
  1.9887175e-01
 -3.2524776e-02
  1.9743180e-01
  2.4176817e+00
  5.0928718e-01
 -5.5539423e-01
 -1.3507070e-01
 -6.8246812e-02
 -8.8576004e-02
  1.0435797e+00
 -4.7731975e-01
 -4.5351338e-01
 -1.0840311e+00
  7.9971230e-01
 -6.8471926e-01
 -7.1248955e-01
  5.7170457e-01
  1.2173667e+00
 -6.0537872e-03
 -2.2596551e-01
 -9.9035941e-02
  4.7516072e-01
  8.7936062e-01
 -5.4340448e-02
 -1.1159066e-01
  3.1883928e-01
  3.8771474e-01
  5.5293486e-02
 -3.6281732e-01
 -1.9735214e+00
  6.3921058e-01
 -2.7764821e-01
  1.1389397e+00
 -9.8653024e-01
  9.5773393e-01
  1.4334701e+00
 -2.4186690e-01
 -1.9791766e+00
 -2.0013337e+00
  3.3928460e-01
  1.0641975e+00
 -1.1706835e+00
 -4.3170142e-01
  3.0450669e-01
 -4.5522448e-02
 -7.3237073e-01
 -2.1167780e-01
 -2.3251633e-01
  1.1595439e-01
  5.7089460e-01
 -8.2581335e-01
  6.9373512e-01
  7.3156017e-01
  3.8488114e-01
  5.1040071e-01
 -1.8476884e-01
 -6.8962365e-01
 -8.9543366e-01
 -1.7763088e+00
  1.2389003e-01
 -1.0285082e+00
  1.7518449e+00
 -1.7998394e-01
 -4.3577743e-01
 -4.6688274e-01
 -1.8076721e-01
  8.4042229e-02
 -7.1365941e-01
 -9.0888548e-01
  7.5066072e-01
 -9.2961943e-01
  7.7003074e-01
 -9.1813242e-01
 -1.7936540e+00
 -1.2007746e-01
 -1.4822875e+00
 -4.9191129e-01
  6.3073322e-02
  4.8537925e-01
 -4.6840322e-01
 -1.2319817e-01
 -1.5412183e-01
  5.8805156e-01
 -1.5068214e-01
 -4.9179503e-01
 -3.1675327e-01
  5.6600547e-01
  2.5439358e+00
 -4.8967022e-01
  5.4455843e-02
 -1.2785107e+00
 -6.0001230e-01
  1.8513916e+00
 -3.3660557e+00
  5.9930354e-01
  6.4785734e-02
 -1.4752162e-01
  9.5954657e-02
 -1.8099661e-01
  1.4747167e-02
  2.9595616e-01
  1.8561515e-01
 -1.9304858e-01
  1.4830121e-01
  1.5172818e-01
  2.4388516e-01
  2.7366844e-01
  6.3378471e-01
 -1.5251970e-01
  6.2038624e-01
 -9.3762267e-01
 -1.0558709e-01
  2.9021522e-01
  4.9704155e-03
 -2.3316652e-01
  5.2800480e-02
 -5.8691585e-01
 -3.5284996e-01
  4.0998214e-01
  9.8266900e-02
  1.3174778e-01
 -6.1684217e-02
 -2.8542168e-02
  1.4143303e-01
 -2.6431245e-01
  2.6290995e-01
 -1.5638599e-01
  3.4485334e-01
  1.4384629e-01
  7.1547288e-01
  3.4781132e-02
 -3.3822820e-01
  1.2035830e-01
  8.3962068e-02
 -1.2338381e-01
  8.2633151e-03
  7.9579316e-02
  8.3892956e-02
  4.9445975e-01
 -3.0700259e-02
  9.7588915e-01
 -2.3928902e+00
  8.0215836e-01
 -6.1110026e-01
 -1.3496250e+00
  9.2296794e-02
 -2.3155394e+00
 -1.3800288e+00
 -1.4851162e+00
 -1.1216656e+00
  2.0113828e+00
  2.7085624e+00
 -1.6359323e-01
  1.3302118e-01
 -1.4629497e-01
 -6.1811041e-02
 -8.1717476e-02
  1.5192579e-01
  2.6343119e-01
 -1.1568756e+00
 -3.9848564e+00
  5.7813925e-01
 -7.1088904e-01
  8.6872029e-01
  1.7308928e+00
  1.6109516e-01
  1.9381975e-01
  8.7395006e-01
 -3.0830988e-01
  3.7437212e-01
 -7.4913734e-01
  8.0663782e-01
 -3.0429506e+00
  5.3114712e-01
 -6.6755140e-01
 -8.7643683e-01
 -2.7366543e-01
 -5.2354288e-01
 -6.7038977e-01
 -6.7885429e-01
  6.2830675e-01
  1.3490522e-01
  2.3209302e+00
 -6.6571832e-01
 -1.5275157e-02
  1.4583832e-01
  3.4511051e-01
 -2.9534948e-01
 -2.2059911e-01
 -1.5101972e-01
  4.8926033e-02
 -5.9768295e-01
 -5.4469782e-01
  6.5034777e-03
 -2.1209342e+00
  1.5008783e+00
 -1.6286246e+00
  6.8825752e-02
  3.8033528e+00
  6.6974676e-01
  2.9373866e-01
 -2.5732362e+00
 -6.6759571e-02
  8.4087706e-01
  9.6531802e-01
 -2.4143972e-01
  1.5746799e-01
  9.5025212e-01
  1.5637515e-01
  1.2356746e+00
  1.6960180e-01
  1.4410232e-01
  1.3226451e+00
 -1.2467506e+00
 -1.1276482e-01
  6.1751372e-01
  1.5313531e+00
  1.4768493e+00
  1.1164645e+00
  3.0806038e+00
  2.6734204e+00
 -1.5597178e+00
  1.4763442e+00
 -4.1101062e-01
 -5.6850232e-02
  8.8957274e-01
 -8.8847637e-01
 -9.5734887e-02
 -4.9901170e-01
  1.8556660e+00
  3.8072562e-01
  4.4348595e-01
  2.4480511e-01
  9.6096927e-03
 -6.5305400e-01
  2.8523156e-01
 -1.9429012e-01
 -6.3830185e-01
  1.4795213e+00
  8.3491117e-02
  1.3114065e-01
 -7.4556790e-02
 -8.6319204e-03
  1.3410154e-01
  3.7208552e+00
 -1.0089070e-01
  3.7362987e-01
  6.2819481e-02
  1.2847637e-01
 -1.8637696e-02
