nep4_zbl 2 Te Ge 
zbl 0 0
cutoff 7 7 81 81
n_max 8 8
basis_size 8 8
l_max 4 2 0
ANN 70 0
  8.8032174e-01
 -1.4774951e+00
  2.1279259e+00
  2.1076167e+00
  6.1483991e-01
  2.3652956e+00
 -1.7927544e-01
 -1.4997305e+00
 -3.6770794e-01
  1.1264484e+00
  3.0659124e-01
 -3.2747889e-01
  3.0362475e-01
  4.2992494e-01
  2.2564586e-01
 -1.3785344e-01
  5.1918393e-01
  1.4578220e-01
  2.4127746e+00
 -1.8173499e-01
  3.0776694e-01
  8.4497280e-02
  2.1378572e-01
  2.1843809e-01
 -1.6513387e-02
  6.5003633e-02
  7.0095795e-01
  1.7363896e+00
  6.9631016e-01
  8.4384643e-03
  1.4577872e+00
 -1.5486263e-02
  1.2529951e-01
  2.4114752e-01
  3.2106462e-01
  4.0736759e-01
  6.7981273e-01
  3.6118037e-01
  5.6502688e-01
  6.8276107e-02
 -1.2577239e-01
 -6.1943668e-01
  5.1189210e-02
 -4.7927502e-01
  7.3422927e-01
 -1.6515021e-01
  2.6628986e-02
  6.4869171e-01
  7.8643024e-02
 -1.1582766e-01
 -8.5763998e-02
 -5.6663774e-02
  1.6628878e-01
  1.1472318e-01
 -4.9566936e-01
  2.4073057e-01
 -4.9139638e-02
  1.6037615e-01
 -3.3897305e-01
 -2.8633913e-01
  3.8561893e-01
 -1.1564447e-01
 -4.0350717e-01
 -1.2514693e-01
  3.3976883e-01
  5.8350302e-02
  9.6284546e-02
  2.0960303e-01
 -4.2008480e-01
  1.5512922e+00
  2.7247655e-01
  2.3990886e-02
  3.1884363e-01
  7.9632002e-01
  5.9085435e-01
  1.4338012e-01
 -2.1405169e-01
  1.6359782e-01
 -4.7953552e-01
 -1.7834502e-01
  2.7040985e-01
  2.3410717e-01
 -4.5723248e-02
 -2.2171003e-01
 -2.7734140e-01
  1.0815177e-01
 -3.9449227e-01
 -3.0207077e-01
  1.2373830e-01
 -2.3512550e-01
  1.7806701e-02
 -2.2424763e-02
 -1.8318962e-01
 -7.6714747e-02
  2.8854296e-01
 -6.8782771e-01
 -2.9099631e-01
 -8.6081779e-01
 -2.8193915e-01
  4.1992031e-03
 -3.7468635e-02
  1.4908545e-01
 -1.6760511e+00
  2.1837294e-02
 -2.8863603e-01
  2.3505487e-02
  1.3432649e-01
 -1.9731535e-02
  1.8774083e+00
  2.4353744e-01
  1.9488647e+00
  3.4281929e+00
  1.1816442e+00
  6.4980870e-01
  2.5458157e-01
 -1.4320409e+00
  4.4415101e-02
  5.3733778e-01
  2.7642033e-01
  3.4905521e-03
 -2.8186369e-01
  3.0197391e-01
 -2.1013362e-02
 -6.8077162e-02
 -1.5520038e-01
 -1.3752158e-01
 -7.2435260e-01
  1.8499628e-01
  1.4119422e-01
  2.3091604e-01
  2.6699820e-01
  4.7599170e-02
 -2.3055133e-01
  1.1767621e-01
  1.1319067e-01
 -3.0591246e-01
  6.5835878e-02
 -1.9330244e-01
 -9.0540543e-02
  9.4182752e-02
  1.4205337e-01
 -1.1782958e-01
  3.6733467e-02
  1.4169782e-01
  1.2032069e+00
  2.3236649e-01
  1.2926596e-01
  7.1083993e-01
 -2.7161133e+00
 -1.1227947e-01
 -9.5044747e-02
  2.6342010e-01
  3.8454004e-02
  3.7107280e-01
  1.5693569e-01
  1.8246807e-02
  9.5770752e-01
 -2.5916213e-01
 -8.7687470e-02
 -9.3456842e-03
 -9.1517165e-02
  7.1777560e-02
  5.1391099e-02
 -6.3526559e-01
  9.8204710e-02
 -2.0488553e+00
  1.3714761e-01
  5.7095373e-01
  4.2654932e-01
  9.3272567e-02
  3.0580489e-04
  6.3840814e-02
 -3.6248259e-02
  4.8712655e-03
  2.5243062e-01
  2.1412741e-02
 -1.2107133e-01
 -2.6338885e-02
 -8.9244721e-03
  8.0894965e-01
  9.7494140e-02
 -7.0055842e-01
 -1.7602472e-01
  1.7114010e-01
 -2.4690451e-02
 -4.2339131e-02
 -1.9435331e-02
  3.7695222e-02
 -1.5534961e-02
 -5.2952290e-01
  5.9306342e-02
  9.9963751e-03
  2.4582912e-01
 -3.3112566e-03
 -3.9015889e-02
  1.1630031e-01
 -1.3637446e-01
  5.4005239e-02
 -3.3990011e-02
  5.7999395e-02
 -1.7896861e-02
  6.4991571e-02
  1.6893061e-01
  9.0582199e-02
 -5.5299420e-02
 -3.8850680e-02
  4.4948701e-02
  2.1325754e-02
  1.1601816e-01
  9.1917709e-02
 -1.1430399e-02
  4.0446721e-02
 -9.6557111e-02
  1.1326274e-01
  3.3758588e-02
  2.0635834e-02
 -5.5438936e-01
 -2.8390405e-01
 -2.0903485e+00
 -1.5266194e+00
  8.3371681e-01
 -4.9738801e-01
  3.9913360e-02
  5.3429902e-01
 -6.1956179e-01
 -7.3272898e-04
  2.6965961e-01
  2.9229856e-01
  6.7808241e-02
  2.0872171e-01
 -3.6530025e-02
 -2.1905531e-01
 -1.4606708e-01
 -1.4542773e-01
  4.0299597e-01
  5.8935702e-01
  4.4088057e-01
  1.8697368e-01
  7.5351578e-01
 -1.3090082e-01
 -4.3419372e-02
  9.0289049e-02
 -9.9646002e-02
 -9.4457708e-02
  2.8703782e-01
 -1.3900827e-01
 -2.2388841e-01
 -3.7692305e-02
  3.2047641e+00
 -1.2925464e-01
 -3.5419554e-01
  2.4248418e-01
  2.3716519e-02
  1.4892860e-01
 -1.0261887e-01
  1.2570394e-02
  2.0084728e-01
 -1.5195963e-01
 -1.4492078e-01
 -5.9034023e-02
 -1.8835804e-01
 -3.4715420e-01
 -1.1112936e-02
 -1.6467854e-01
 -1.2111035e-02
 -9.5454705e-01
 -1.0404232e-01
 -9.4000921e-02
 -2.5543344e-01
 -2.2476649e-01
  1.4652890e-01
  6.8574965e-02
  1.1080959e+00
  3.1908414e-01
 -2.5692154e-02
 -1.4697745e-02
 -5.3628135e-02
  5.1317606e-02
  4.3937892e-01
  1.4204986e-01
 -7.4048736e-03
 -3.5835151e-02
  5.6562874e-02
 -3.1447676e-01
  6.8274125e-02
 -1.3673261e-01
  1.2033139e-01
 -4.3478122e-01
 -8.9767314e-02
  2.5656645e+00
  7.3409431e-02
  6.6235846e-01
  1.7674881e-01
 -1.5575585e-02
  7.2575435e-02
  1.4368922e-01
 -1.6156538e-01
 -7.2061293e-02
 -6.5608248e-02
 -2.2449197e-01
 -1.6558595e-01
 -1.3882363e-01
  3.5779163e-02
 -1.0459033e-01
  1.2042133e-01
  9.3308665e-02
  2.8737690e-02
  1.9120809e-01
  1.1278202e-01
  8.8275537e-02
 -2.2714736e-01
 -5.1090382e-02
 -1.1542141e-02
  2.2864391e-01
 -2.0719862e-02
  7.3801339e-02
 -4.3187693e-01
  1.0959803e-01
 -4.8668268e-03
  2.7710748e-01
  9.6474983e-02
  1.1610346e-01
 -3.3415046e-02
 -7.5736893e-03
 -7.4716285e-02
  2.0544000e+00
 -1.8381798e-01
  1.7072331e+00
 -1.3050446e-01
 -6.2005598e-02
 -2.0516803e+00
 -8.8537616e-01
 -1.9110000e+00
  2.8475189e-01
  8.4442399e-02
 -8.2519883e-01
  1.0699236e+00
  2.4759720e-01
 -1.0912220e-01
  1.7789277e-01
  8.5766181e-02
  7.8511506e-02
  7.0568389e-01
  1.2411371e+00
 -8.3926195e-01
  2.0161873e-01
  1.0747733e+00
 -3.7034604e-01
  5.4946715e-01
 -5.2868336e-01
  3.9723814e-01
  6.0972816e-01
  2.4178427e-01
 -1.6824508e-01
  1.0312357e+00
  7.9020792e-01
  5.8462117e-03
  1.3976537e+00
 -2.5101390e-01
  8.9909740e-02
  1.0860054e+00
  9.1850376e-01
 -1.2366568e+00
  2.8600838e+00
  1.8656667e+00
  5.6172913e-01
  1.0824718e+00
  3.7913892e-02
 -6.3768440e-01
  2.3486607e-02
 -9.6670926e-02
  1.1709829e-01
 -8.0526042e-01
 -9.0675986e-01
  8.1373654e-02
 -2.8828501e-03
  2.0844471e-01
  2.3860164e-02
 -4.9710270e-02
  3.6271939e-01
 -9.4321929e-03
 -4.9045232e-01
  7.2428292e-01
  3.7902218e-01
  1.6679581e-01
  1.8938786e-03
  4.6762335e-01
  2.1163526e+00
 -1.2181763e-01
 -8.6508200e-02
  1.9770200e+00
  4.4146059e-03
  2.8341937e-01
  9.9180639e-02
  7.3047954e-01
  1.9429557e-01
 -4.5732537e-01
 -1.1601676e+00
 -5.8131232e-03
 -2.6055419e-01
 -1.8050635e-01
  8.3354264e-02
  1.1878483e-01
  5.9702754e-01
 -2.8243813e-01
  7.4724680e-01
 -7.3797833e-03
  2.1498722e-01
 -1.3344175e-02
 -2.3391813e-01
  5.0908536e-01
  4.6093485e-01
  1.6712557e-01
 -3.5237417e-01
  4.0962272e+00
 -4.0769345e-01
 -1.0771786e-01
  1.4573398e-01
  2.4761586e-02
 -3.2610454e-02
 -8.9592308e-02
  3.3340949e-01
  1.8849238e+00
 -1.1942614e+00
 -4.4993810e-02
 -5.5369502e-01
 -1.4750302e-01
  1.7609645e-01
 -8.3114654e-02
  7.3358588e-02
 -1.1965127e-01
 -9.0931999e-03
  7.0079458e-01
 -3.4996417e-01
  4.6984649e-01
 -2.0231102e-01
  2.1922596e+00
  1.0681853e+00
  3.5027665e-01
 -1.2285498e-01
 -6.8439946e-02
  4.0401820e-02
 -1.4479823e-01
 -4.4686988e-01
  4.0308845e-01
 -7.7314830e-01
 -3.6847210e-01
 -2.7867520e-01
 -2.5494236e-01
  2.1907212e-01
 -1.3435656e+00
 -1.1099145e+00
  1.4625867e-02
 -5.7516080e-01
 -3.2251772e-01
  2.9096698e-02
 -5.1849240e-01
  2.5531429e-01
  5.9358025e-01
 -1.9270758e-01
 -7.8026932e-01
  4.0685177e-01
  6.4978182e-01
  1.9245239e-01
 -9.2263788e-02
  3.0452868e-01
  2.9590689e-02
 -9.4096079e-02
  3.8569227e-01
  2.0380819e-02
 -9.5468175e-01
 -1.3486408e+00
 -1.1805908e-01
  4.1524816e-01
 -6.2276024e-02
  4.0762404e-01
 -4.9117703e-02
 -4.8154601e-01
  2.2138023e-01
  3.2351544e-01
  7.9991676e-02
 -4.0357277e-02
  2.6227310e-02
  9.5784836e-02
  1.1454593e-01
 -1.0646331e-01
 -2.5735915e-01
 -3.2532790e-01
  2.2266780e-01
  8.4626205e-02
 -4.8946369e-01
 -1.0946728e-01
  1.5003808e+00
  5.7469998e-02
  2.7324969e-01
  4.9313092e-01
  4.0309319e-01
  3.8455173e-02
 -3.3976755e-01
  6.4106502e-02
 -3.9870402e-01
  2.6025727e-01
  1.8023344e-03
 -6.8427049e-02
  1.7777726e-01
  8.5264906e-02
  1.9875271e-02
  6.5065645e-02
  2.4195321e-01
 -1.7409571e-02
  1.4912078e-01
  1.6161872e-02
 -9.9504746e-02
  1.1665958e-01
  2.4615522e-01
  4.9492580e-01
 -4.9253631e-02
 -9.8058864e-02
 -2.8599298e-01
 -4.8018165e-02
 -1.2650261e-02
  1.1059808e-01
  2.0477211e-02
 -4.4721675e-01
  1.7715300e-02
  2.7976814e-01
  2.9826495e-01
 -3.3339337e-01
  2.2761725e-01
 -2.3366341e-01
  2.3620051e-01
 -6.4664590e-01
  1.0897912e-01
 -2.8431920e-02
 -1.2373019e-01
 -1.2784651e-01
 -1.1819132e-01
 -2.8073423e-02
 -1.4922591e-01
  8.6568668e-02
 -1.5585212e-01
  1.0000814e+00
  5.3789053e+00
 -1.4589950e+00
  9.0298098e-01
 -3.0370581e-01
  9.6602249e-01
 -5.1443547e-01
  1.1670262e+00
  1.7184427e+00
  1.2218208e+00
  9.7556657e-01
 -1.3480530e+00
  1.9570439e-01
 -9.2735100e-01
  1.1441945e-01
  1.0381665e+00
  3.2693952e-01
 -5.3211462e-01
  2.5623697e-01
 -1.1252431e+00
 -4.5113114e-01
  1.8140880e+00
  3.2134376e-02
  1.4119644e-01
  1.5173090e-01
 -2.9332936e-03
  1.3299736e+00
 -2.5580993e+00
  6.9309077e-03
 -2.4847840e-01
 -3.5372159e-01
  9.3504250e-02
 -3.3531311e-01
 -2.6644945e-01
  3.4689888e-01
  9.4246012e-01
  6.7095107e-01
 -1.3435304e+00
  4.3999347e-01
  1.4581493e+00
 -1.8896869e+00
  2.9683852e-01
 -6.6089258e-02
  2.2085898e-02
 -5.1144499e-01
 -6.7113930e-01
 -6.7375791e-01
 -8.1050552e-02
  1.1253478e-01
 -1.6406752e-01
 -1.6894072e-01
 -2.7686471e-01
  3.3817464e-01
  2.4511841e-01
 -5.7548034e-01
  2.1518067e-01
 -4.5408219e-01
 -7.4054889e-02
  1.8186215e-01
  8.5740846e-01
  2.7689254e-02
  3.6144948e-01
  3.2239413e-01
  3.8133094e-01
 -1.0429434e-01
 -1.2474129e-01
  9.6361357e-01
 -8.7855506e-01
  1.1176357e-01
  4.4661477e-01
 -2.1542484e-01
 -8.2946885e-01
 -4.4871826e-02
  5.0709915e-01
 -1.3660551e+00
  2.6484922e-02
 -1.0497171e+00
 -1.8569691e-01
 -1.3916936e+00
 -6.9467933e-04
  4.9121404e-01
  2.6379448e-01
 -6.2379986e-01
 -4.9313638e-01
 -9.4271831e-02
 -6.0303432e-01
 -8.0575883e-02
 -7.5702232e-01
  4.9269106e-02
 -1.1884375e-02
  2.8379208e-01
 -4.8351339e-01
 -1.3143946e-01
 -3.2534900e-01
  5.2575644e-02
  8.7305814e-02
 -5.3384417e-01
 -2.7948651e-01
 -3.9420035e-01
 -3.8036487e-01
  1.3215563e-01
 -1.7930065e-01
 -1.1999004e+00
 -2.8587925e-01
 -2.2549012e-01
 -2.0915404e-02
  7.6695450e-02
 -2.4408288e-01
  1.4451132e+00
  1.5304067e+00
 -9.1022992e-01
  2.5306072e+00
 -3.1443542e-01
 -3.7692398e-01
  1.3792890e+00
  3.1723127e-01
  7.5894319e-02
  2.4476407e-01
  2.5321526e-02
  1.1276805e-01
  1.7144811e-01
 -7.7507868e-02
  5.5764660e-02
 -1.3269459e-01
 -2.4174549e-01
 -2.2963724e-01
  2.6890922e-01
  1.8063717e-01
  1.5163161e-01
  1.4436956e-01
  8.7837197e-02
  4.1773736e-02
  2.2981541e+00
 -8.5014038e-02
  2.3843952e-02
 -7.6192856e-02
  9.2886381e-02
  1.1224659e-01
 -1.1944525e-02
  1.8569472e-01
 -2.2484612e-02
 -8.7694116e-02
 -6.8703115e-02
 -1.0256406e-01
  4.6317101e-01
 -7.2712350e-01
  2.5702137e-01
  2.3302054e-01
  5.6035608e-01
  3.2362846e-01
  3.4394389e-01
  1.3229136e-01
 -1.3340515e-01
  7.5252771e-02
  5.1330715e-02
 -1.0356909e-02
 -9.9813946e-02
  3.3514645e-02
 -4.6351257e-01
 -3.1655304e-02
  1.0738473e-02
  1.4363192e+00
  1.5990165e+00
  1.1148806e+00
 -3.8583082e-01
 -4.3938994e-01
  2.0854244e-01
 -1.5570202e+00
  2.8423738e+00
 -2.9876628e+00
  8.6094105e-01
  1.7174803e-01
 -1.9781142e-01
 -2.0147364e-01
  1.0069456e+00
  6.9572669e-01
  1.3111069e+00
  8.2360923e-01
 -3.1248671e-01
  6.3608563e-01
  1.0981597e+00
 -2.0215675e-02
 -4.7282490e-01
 -6.3242972e-01
  2.7320158e-01
  4.4327116e-01
 -7.3461014e-01
  2.1098907e+00
  4.8637268e-01
 -8.2852803e-02
 -5.0045937e-01
  1.7391313e+00
  3.2934514e-01
 -7.1370554e-01
  3.5019547e-01
 -1.1183339e+00
 -2.2001822e-01
 -3.1520226e+00
 -2.5316712e-01
 -1.0222756e+00
  7.6148278e-01
  5.5678064e-01
  1.6241407e-01
 -3.4701270e-01
 -2.2325811e+00
  6.6238177e-01
  6.0930663e-01
  6.5286376e-02
  7.7342361e-02
 -2.7815611e+00
  3.4544051e-01
  1.2602619e-02
  2.5600827e-01
  1.7517822e-02
 -4.1048947e-01
 -1.4577469e-01
 -1.7093974e-01
 -6.8260342e-02
  2.3683505e+00
 -3.2448930e-01
  1.0212268e+00
 -7.3191345e-01
  2.4913532e-01
 -4.9896710e-02
  8.5906136e-01
 -2.2802562e-01
 -1.1518553e-01
  6.8348014e-01
 -3.5488331e-01
  5.3211164e-01
  1.1292644e-01
 -1.7643908e-01
  1.8757267e-01
 -9.7099018e-01
  4.2555805e-02
 -3.0732498e-01
  5.3815699e-01
 -4.3815893e-01
 -1.4351913e-01
  2.2824746e-01
 -6.0262289e-02
 -5.1323998e-01
 -1.2295841e+00
 -6.2390063e-02
 -1.2469927e-02
  2.8873810e-01
 -8.9926027e-02
  1.1029938e-01
  2.7714700e-01
 -4.2005759e-02
 -1.4170960e-01
 -4.1770995e-01
 -6.1826360e-01
  4.6525881e-01
  2.9633468e-01
 -4.4532248e-01
 -9.2740446e-02
  4.7480279e-01
 -4.3841800e-01
  6.3337130e-03
 -5.0991945e-02
 -2.2639702e-01
  1.1927234e-01
  7.4276323e-03
  5.6715816e-01
  1.8667479e-01
  6.5851044e-03
  1.2019931e-01
 -1.1481520e-01
  5.9273070e-01
 -6.5681320e-01
 -9.0761048e-01
 -9.5529681e-01
 -1.8477001e+00
 -1.2780646e+00
  2.7694082e-01
 -8.0549663e-01
 -2.0777078e-01
 -1.4048176e-01
  4.9775843e-02
 -2.4974065e-01
  1.8623725e-01
 -7.9729490e-02
  2.7500262e-02
 -1.7441701e-02
 -5.7959445e-02
  1.1591660e-01
  8.2872105e-01
  3.3171114e-01
 -1.6524951e-01
 -2.7479145e-01
  7.3001665e-01
 -1.2489419e-01
 -3.0840492e-01
 -1.1078701e-01
  4.1975203e-01
 -2.3862598e+00
 -3.8471207e-01
 -1.0536861e-01
  8.4333405e-02
  3.2058962e-02
  1.4981622e-01
 -1.6439776e-01
  4.2370412e-01
  1.2229289e-02
 -8.0988526e-01
 -3.1632472e-02
 -7.9772621e-02
  2.9669717e-01
 -1.7136151e-01
  9.5733583e-02
  1.8104117e+00
  3.4137420e-02
  6.2023789e-02
 -2.1299855e-01
 -1.1020900e-01
 -6.1853569e-02
 -1.5795887e-01
  5.1821060e-02
  9.0981618e-02
  9.5844775e-02
  1.7883648e-01
  1.5055886e-01
  9.7387336e-02
  7.4480884e-02
 -2.2842083e-02
 -3.3729488e-01
 -2.0016853e-02
 -3.2293439e-01
 -2.9543182e-03
 -1.1528481e-02
  6.0218189e-02
 -9.1602728e-03
 -5.9837215e-02
  8.9315370e-02
 -1.2803048e+00
  1.4310649e-01
 -8.1366915e-01
  1.7455278e-01
 -5.9896052e-02
  1.9668454e-02
 -6.6876756e-03
  3.3159409e-02
  1.6088376e-02
 -9.1222875e-02
 -1.2423734e-01
 -6.4361133e-02
 -1.0073340e-01
  7.2487351e-04
  7.5882703e-02
  1.7388931e-02
  2.2534989e-02
 -1.6114420e-01
  4.8684854e-02
  5.0177123e-02
 -6.1059121e-02
  8.8052273e-01
  5.0968848e-02
 -1.9019195e-01
  3.1626990e-01
 -3.1249928e-01
  1.4370075e-01
  3.2710079e-02
 -5.2272119e-02
  4.4203624e-03
  7.8010231e-02
 -3.0411219e-02
  4.6617310e-02
 -4.1998550e-02
  9.2213778e-03
 -2.8422631e-02
  4.4372458e-02
 -1.0269069e-02
  1.2257405e-02
  3.2476783e-02
  2.9110786e-01
  1.2168542e-01
 -7.0926636e-01
  1.5098820e+00
 -4.6129552e-01
  4.6482372e-01
 -1.9428910e+00
 -1.1185338e+00
 -4.8354852e-01
  7.0871860e-01
  2.7353501e-01
 -9.2187071e-01
  6.0157710e-01
 -1.6165052e-02
 -7.0963365e-01
 -3.4760844e-02
  6.2313177e-02
  1.1213380e-01
  1.6672611e-02
  4.2070115e-01
  1.1213875e-01
  3.3511376e-01
 -1.6393703e-01
  8.6817266e-03
  3.8892865e-01
  7.5874306e-02
  3.7620649e-01
  7.3935354e-01
 -1.1445463e-01
  1.3137637e-01
  3.6257973e-01
 -3.1363019e-01
 -4.4563976e-01
  1.2975348e-02
 -2.6658490e-01
 -1.1797792e-01
  2.0801994e-01
 -2.5232470e-02
 -1.5666796e-01
 -3.2037789e-01
 -3.2508240e+00
  8.2577199e-01
  9.6281141e-02
 -3.4947890e-01
  5.1110452e-01
  5.4877126e-01
 -1.8779956e-01
 -4.1583866e-02
 -1.9430000e-01
  1.8667459e-01
 -2.3516946e-01
 -1.0238212e-01
 -1.0309383e-01
 -7.6381989e-02
 -1.3692027e-01
  1.5253170e-01
 -1.0081915e+00
  1.8797934e+00
  2.6817648e+00
 -1.0254997e+00
  6.4304346e-01
 -1.3204180e+00
  4.9472664e-02
  1.2675817e+00
  7.9761398e-01
  2.0054235e+00
 -2.8632182e-01
 -1.3054468e-01
 -9.7413951e-01
  3.9430205e-02
 -2.6870570e-01
 -3.4901291e-01
 -6.2352711e-01
  2.7626225e-01
 -1.7131633e+00
  6.9565099e-01
  5.0297705e-03
 -3.6881530e-01
 -3.6007538e-01
 -5.0379562e-01
  5.9395981e-01
 -6.7946494e-01
  1.6424775e-01
  1.4779871e+00
  2.6904559e+00
 -3.5157651e-01
 -9.4947129e-01
 -1.1395988e-01
 -2.7773911e-01
 -4.1605619e-01
 -1.5662919e-01
 -2.3776209e-01
  3.4807277e+00
 -4.0770757e-01
 -4.7739219e-02
 -4.4715849e-01
  7.1554348e-02
 -6.2837952e-01
 -2.7369264e-01
  2.3582311e-02
 -2.5079396e-01
  2.6647928e+00
 -1.0110559e-01
  4.5648217e-02
  9.3636490e-02
  2.0288368e-01
 -6.3500929e-01
  1.3096283e-01
 -1.1652654e+00
 -1.4234881e-01
 -1.1077433e+00
 -1.7974647e+00
 -3.1913416e+00
  1.9944185e+00
 -1.1427717e-01
 -1.6196660e+00
  2.1773919e-01
 -1.8606128e+00
  2.2975960e+00
  5.2945131e-01
 -6.1866766e-01
 -2.4585100e-01
 -9.7454590e-01
  8.1471008e-01
  1.8872353e+00
 -3.5115704e-01
 -1.6551224e+00
 -5.7187587e-01
  1.9000298e+00
 -7.1739537e-01
 -8.1303579e-01
 -1.3213865e+00
 -2.0836985e+00
 -1.2871735e+00
 -1.4440539e+00
 -1.4279455e+00
  1.1463966e+00
 -1.1023726e+00
 -8.9844424e-01
  5.5819106e-01
  1.6552229e+00
  4.8244029e-01
 -1.2777190e+00
 -3.2559374e-01
 -7.2833323e-01
  1.7560106e-02
 -9.5722008e-01
 -5.8784413e-01
  8.2851624e-01
  1.0823532e+00
 -2.0802443e+00
  6.2589002e-01
 -1.8518426e+00
  2.2749264e+00
 -3.6025053e-01
  3.6133081e-02
  5.7127869e-01
 -2.9123170e-02
  1.4530718e-01
 -1.6920726e-01
 -3.3639401e-02
  3.6675844e-02
 -1.6746891e-01
 -1.6007375e-02
  1.3145746e+00
 -2.8615156e-01
  2.2282882e-01
  3.7513548e-01
  5.2356735e-02
 -2.9724470e-01
  1.9278747e-01
 -4.5265296e-01
  5.3578585e-01
  1.3377677e-01
  7.1482211e-02
  1.6385440e-02
  3.1080429e-02
  5.3911213e-02
 -5.8114205e-02
 -2.8484550e-01
  3.0089449e-02
  8.2072848e-04
  5.1721912e-02
 -4.5632549e-02
  4.9418634e-01
 -1.0802030e-01
 -1.6066376e-02
 -4.2698119e-02
 -5.0455865e-02
 -9.6205682e-02
  2.2628570e-02
 -5.8021504e-03
 -1.1898366e-01
 -1.4880240e-01
 -5.4504726e-02
  4.4857580e-02
 -1.1520892e-01
  4.2275363e-03
 -1.0773502e-01
  6.5111801e-02
 -5.3362057e-02
 -6.4705294e-03
 -4.6300665e-01
 -3.3423766e-02
  8.0717128e-04
  1.1163343e-01
  7.4795388e-02
  1.5259448e-01
 -8.7954834e-02
  2.3655942e-01
 -3.5075911e-03
 -1.1858816e-01
 -4.3038581e-02
  6.1017454e-02
 -5.2231349e-02
 -1.1537807e-01
 -1.2021963e-01
 -1.7625624e-01
 -2.2798598e-01
  3.3681270e-01
  1.6882659e-01
  4.0212831e+00
 -3.3505228e-01
  1.9702202e-01
 -6.2317169e-01
  3.3463791e-01
 -3.7095782e-01
  2.7482557e-01
 -3.3175994e-02
  2.4282956e-01
  2.8887177e-01
  2.1704030e-01
  6.4856417e-02
  1.8633267e-01
  7.7703029e-02
 -2.8968366e-02
 -6.4065880e-01
  2.5495440e-01
 -2.7067009e-01
  2.9625297e-01
  1.3124143e-01
  3.6198772e-02
  2.5479960e-01
 -3.0599335e-01
  2.9804865e-01
  1.3487956e-01
  2.9287526e-02
  1.4901912e-01
  1.0478827e+00
  1.1800046e-01
  1.1053378e-01
  1.7038445e-01
  5.2443355e-02
  4.7821095e-03
  8.9590961e-01
  1.5606036e-02
  2.4391535e-01
 -2.2273652e-01
 -5.5185691e-02
 -1.4290757e-01
  3.4989539e-01
 -1.3972281e-01
  3.1290644e-01
 -2.1461916e-01
 -5.0488751e-02
 -4.0823044e-03
 -7.0893370e-02
  1.9543137e-01
  3.8660452e-01
 -3.5777031e-03
  1.0766407e-01
  4.5390137e-02
  1.5085039e-01
 -1.5356447e+00
  4.1173264e-01
  8.0042279e-01
  6.2006265e-01
  2.3168318e-01
  1.3002225e+00
 -1.8877926e+00
 -8.0592953e-02
 -1.1151650e-01
 -1.7823833e-01
 -1.1739103e+00
 -9.2275721e-01
  3.4790826e-01
 -3.8925383e-02
 -7.6425336e-02
 -6.2383854e-01
 -3.0067462e-01
  5.7974964e-01
 -6.2268853e-01
 -1.1108198e-01
  8.6998194e-02
 -4.0740299e-01
  4.0681610e-01
 -4.2537177e-01
 -1.3991201e-01
  8.8360451e-02
  8.7292469e-01
 -3.9882946e-01
 -1.2174739e+00
 -2.8545365e-01
 -2.8319618e-01
 -1.1437045e+00
 -6.2071953e-02
 -6.5388507e-01
 -5.5678036e-02
  2.3615934e-01
 -4.1667372e-01
  7.6237458e-01
 -7.6402044e-01
 -9.6758723e-01
 -7.4104351e-01
  1.1719023e-01
  3.6693636e-01
 -2.5928795e-01
 -2.9394990e-01
 -2.7139208e-01
 -1.9025929e-02
  3.3003831e-01
 -8.7849602e-02
 -2.3492670e-01
 -4.0416107e-01
 -1.0860975e-01
  2.1685575e-01
 -1.5312790e-02
 -7.6519674e-01
  6.0280997e-01
 -3.0371745e+00
  2.6873307e-02
  4.0267780e-01
  1.7754647e+00
  8.3688164e-01
 -3.3049042e+00
 -5.2266699e-01
  6.6683590e-01
 -8.5567135e-01
 -7.9513758e-02
  2.8365126e-01
 -6.9966233e-01
  1.4626630e-01
  2.5570098e-02
 -7.6570946e-01
  1.5220022e-01
 -3.1408846e-01
  3.2270649e-01
  7.0639175e-01
  5.1108116e-01
 -2.1432570e-01
 -5.3838998e-01
 -5.8591843e-01
 -2.6224338e-02
  3.4282649e-01
 -3.4054571e-01
 -6.8016803e-01
  2.5475073e-01
  5.3649191e-02
 -5.0223398e-01
 -6.2587124e-01
 -5.3302997e-01
 -2.6332605e-01
 -6.0972446e-01
 -3.5308816e-02
 -4.5629942e-01
  8.2291538e-01
  7.1826404e-01
 -2.5099596e-01
 -1.2612833e-01
 -1.6314054e-01
 -1.3204828e-01
 -8.4334083e-02
 -8.3721563e-02
  4.2309463e-01
  4.2572878e-02
  1.0423525e-01
  1.2640989e-01
  3.1299755e-01
  3.2183897e-01
  1.3728595e-01
 -6.6587944e-03
  1.7534187e-01
 -3.4831461e-01
 -1.2569851e-01
  2.0673561e-01
  7.2414368e-02
  1.2456446e-01
 -2.3754433e-02
  1.4466039e-02
 -1.0778679e-02
 -4.5485474e-02
 -2.7980244e-01
  6.4896112e-03
  6.3694324e-03
 -7.8997761e-03
  1.2496668e-02
 -1.0053571e-01
  3.3735484e-02
 -7.5699233e-02
 -6.2498059e-02
 -5.8128271e-02
  7.8906566e-02
  3.2623854e-02
  2.0998774e-02
  3.0461611e-02
  2.9127453e-02
  5.1363308e-02
 -8.8121876e-02
  8.6379832e-01
 -1.3565330e-01
  9.3150020e-02
  1.0438737e-01
  8.1311025e-02
  3.9029621e-02
  1.3377100e-01
  6.7850888e-02
 -1.1171059e-02
  1.7094189e-01
  1.0459732e-01
 -2.2423838e-01
  7.5666949e-02
 -3.3799553e-01
 -2.4202444e-01
 -1.1598954e-01
 -2.1549167e-02
 -8.9135855e-02
 -3.0476449e-02
  9.5324151e-02
 -7.6402232e-02
  2.6611330e-02
 -1.1241640e-01
 -1.1675835e-01
  8.9978427e-02
  5.5511579e-02
 -2.2505615e+00
 -6.7105556e-01
  8.3919489e-01
 -1.3927297e-01
  2.5286990e-01
 -1.0988264e-01
 -5.2964759e-01
 -1.6800945e-01
 -2.4219674e-01
 -3.0874395e-01
  3.5059100e-01
  2.2225794e-01
  5.0570309e-01
  1.7496693e-01
 -5.6111205e-01
  2.7660874e-01
  4.8695236e-02
 -2.2389433e-01
  2.8254371e+00
  7.8433609e-01
  4.5200396e-01
  5.2851986e-02
  5.0749689e-01
 -1.6263548e-01
 -7.5277016e-03
  2.3251580e-02
  3.1014431e-01
  5.7939678e-01
  7.9148388e-01
  6.3496269e-02
  5.4366070e-01
  8.3127213e-01
  1.7010368e-01
  8.0058642e-02
  3.9274633e-01
  6.3853420e-02
 -1.1786630e+00
 -2.5387833e-01
  1.6876376e-01
 -7.5543821e-02
 -1.3438997e-01
  1.7538799e-01
  1.7137504e-01
 -2.7488205e-01
  1.0426922e-01
 -1.9475547e+00
  6.4455068e-01
 -8.8069245e-02
  2.5617424e-01
 -4.7539949e-01
 -1.4096949e-01
  5.0714795e-02
 -3.5202956e-01
  1.4268087e-01
 -3.9607620e-01
  1.6760402e+00
 -2.2475755e+00
 -9.7703636e-01
  1.0982512e+00
 -2.3532414e+00
 -1.6760936e-02
  6.8937838e-01
 -1.2524110e+00
 -1.2715530e+00
  4.9887848e-01
  3.5948519e-02
  3.1021559e-01
 -2.4851424e-01
  3.2120955e-01
  3.8489842e-01
 -6.2002480e-01
 -3.9110282e-01
 -2.5804350e+00
  4.0616605e-01
  1.5510415e-01
 -1.8553938e-01
  2.4748988e-01
  7.7832663e-03
  4.7562984e-01
  4.5099989e-01
  9.8342586e-01
 -1.3710970e+00
  5.5222142e-01
  3.3331215e-01
  4.2870083e-01
  2.5506241e-02
 -2.9068297e-01
 -2.0250008e+00
 -8.7702654e-02
  8.9579135e-02
  1.5932217e+00
 -9.1495607e-03
 -2.0465353e+00
  1.0790631e+00
  5.6890720e-01
 -2.3254508e-01
  3.2650048e-01
 -1.6878798e+00
 -3.9015272e-01
  2.2483252e-01
  1.7270549e-01
 -1.3108131e-01
  4.8047416e-03
 -3.2535110e-02
 -1.4535822e-01
 -5.5497829e-02
 -2.7860865e-01
 -7.2039224e-02
 -1.3212030e-01
 -2.1913941e+00
  3.0389801e-01
  3.4591165e-01
  7.7923286e-01
 -3.2007354e-01
 -4.2354828e-01
  2.0690086e+00
 -1.9415179e+00
 -7.3246412e-02
  5.0982207e-02
 -2.7303621e-01
  1.3628438e+00
 -4.2403644e-01
  9.9352998e-01
  6.2280357e-01
  2.9038429e-01
  5.2211303e-02
  2.9189160e+00
 -3.5008878e-01
  1.3205710e-01
  1.8271452e-01
  2.7895448e-01
 -4.7706547e-01
  9.4395089e-01
  4.9652189e-01
  2.0984027e-01
 -3.6289039e-01
 -6.7025423e-01
  3.3793550e-02
  5.5798072e-01
 -3.8948491e-01
  2.7785811e-01
  3.9338100e-01
  5.4034132e-01
  2.3486850e-01
  1.7719384e-01
  2.4434574e-01
 -2.6062226e-01
 -7.1195418e-01
 -8.0297804e-01
 -8.4152299e-01
  1.4644504e-03
 -1.4387891e-01
 -1.7911328e+00
 -1.7472370e-01
  4.4612503e-01
 -1.0129070e+00
  3.3983791e-01
  1.2764899e-01
 -1.4660701e-02
 -1.0392234e-01
  1.3761535e-01
 -2.1837754e-02
 -1.2147086e-01
  1.7315365e+00
  3.1998023e-01
  3.6002710e-02
 -3.6442563e-01
 -6.0062408e-01
 -6.2196583e-01
 -3.6583766e-01
 -2.7894396e-01
  2.6110781e-02
 -3.7347287e-02
 -1.6984436e-01
 -6.0585171e-01
 -6.2983853e-01
 -5.6415327e-02
 -2.5524718e-01
  3.6554255e-02
  7.4706368e-02
  1.1164976e-01
 -1.1803759e-01
  7.5335121e-01
 -3.1976381e-01
  1.1404544e+00
  2.9592800e-01
 -1.0502771e-01
  3.2108650e-01
  6.7024893e-01
 -5.8695394e-01
 -5.1516578e-02
  4.9714553e-01
 -2.4116752e-01
 -6.8310308e-01
  4.0793404e-01
 -1.6888461e-01
  1.9161788e-01
 -2.5383748e-02
 -2.0918925e-01
 -3.8702497e-01
 -6.9519483e-02
 -9.9201787e-01
 -6.0932931e-02
 -1.0816158e-01
  1.3100081e-02
 -1.0875682e-01
 -5.7896620e-01
  8.8879153e-02
  1.8216492e-01
 -3.9361890e-02
 -4.2406011e-01
  1.7297763e-01
  3.0927408e-01
  2.7539998e-01
  3.1182724e-01
 -5.7010904e-02
  9.0458244e-01
 -1.6099261e+00
 -8.6500138e-01
 -3.2950249e-01
 -1.0045975e+00
 -2.0727787e+00
  1.4552256e+00
  5.1712066e-01
 -2.2166805e+00
  4.4474927e-01
  2.9497736e+00
  1.3936624e-01
  4.7026706e-01
 -4.5185450e-01
  3.8648605e-01
  5.7435590e-01
  1.3579178e-01
  1.4775884e-01
  3.7364134e-01
 -1.8387918e-01
 -1.6460839e-01
 -5.7555699e-01
  1.0093831e-01
  2.7608061e-02
  4.0666389e-01
  4.2508331e-01
 -2.5381288e-01
 -1.4061160e-01
 -1.1093065e-01
 -1.5396748e-01
  2.6611478e+00
 -3.5879773e-01
  8.5429400e-03
  8.2383566e-02
  2.2524655e-01
  2.6993564e-01
  3.0352944e-01
 -5.6318265e-01
  7.5680918e-01
 -8.0031979e-01
 -6.6468573e-01
 -3.4299278e-01
  2.4124448e-01
 -1.4616010e+00
  1.1938407e-01
 -9.9573731e-02
  9.2282340e-02
 -3.2816119e-02
  2.1641468e-01
 -1.0972432e-01
 -3.1864729e-02
 -1.0938273e-01
 -2.3144820e-01
 -1.4675416e-01
 -1.6937101e-01
  5.5558823e-02
  2.2485548e-01
  6.2582862e-01
  1.5205554e+00
 -3.0779943e+00
 -1.4726904e-01
 -2.5761039e+00
  2.2267962e+00
  1.2977771e-01
  2.6752323e-01
 -1.6294262e-01
  3.0658623e-02
  1.8628481e-01
  3.4681011e-02
  2.7463302e-01
  4.8555839e-01
 -3.3677351e-01
  7.6517403e-01
 -5.0001097e-01
 -2.2456257e-01
  3.9549991e-02
  2.2903007e-02
  1.6181131e-01
  2.1124129e-01
 -3.0045637e-01
 -3.0359033e-02
  4.2211470e-01
  2.4374455e-01
 -5.0259396e-02
  3.1167474e-01
 -2.4923030e-01
 -5.8773923e-01
  1.6663790e-01
  1.6982915e-01
  2.8294581e-01
  9.0974939e-01
  6.0770053e-01
 -1.2489138e+00
 -3.0630481e+00
 -1.4647444e-01
  9.6908164e-01
 -1.3642602e+00
  1.0161496e+00
  6.0302836e-01
 -5.8551982e-02
  1.1404981e-01
 -2.0151666e-01
 -5.7141490e-02
 -1.6463597e-01
  4.9230520e-02
  7.9391235e-01
 -1.6234481e-01
 -2.9902783e-01
 -3.8051510e-01
  1.0903430e+00
  3.3105850e+00
 -2.8479769e+00
  2.0294354e+00
 -5.5199039e-01
 -4.6692543e-02
  2.9067750e+00
  1.2627298e-01
 -2.9449432e+00
  9.9400723e-01
  7.2211373e-01
 -7.2258812e-01
 -4.6925753e-01
  6.3186067e-01
  7.7348486e-02
 -9.1018185e-02
  1.2470607e+00
 -1.7276512e+00
 -8.4958178e-01
  5.3985629e-02
 -7.5270200e-01
  1.8376116e-01
 -3.7056816e-01
  2.7488488e-01
  1.2621950e+00
  1.1352552e-01
  9.5134974e-01
 -7.9390001e-01
 -7.6596156e-02
  6.1636007e-01
  2.0166621e-01
 -2.7311826e-01
  2.4538133e-01
  8.1882421e-03
  4.3289435e-01
  1.9807546e+00
  7.1950895e-01
  3.8214386e-01
 -5.9138370e-01
  2.9179886e-01
 -4.9916780e-01
 -9.6393906e-02
  3.1375358e-01
  8.3589423e-01
  1.0514442e+00
  8.4431194e-02
 -1.4080071e-02
  4.2285692e-02
  6.2618345e-02
 -1.2010188e-01
  2.0034743e-02
  2.2111881e-01
  1.3471489e-01
 -1.5908685e+00
  3.2165918e+00
  2.2834859e+00
 -1.6910713e+00
 -1.7774824e+00
 -3.8602643e+00
  5.1439772e+00
 -1.1264699e+00
  1.2838087e+00
 -1.4812260e+00
 -5.9735525e-02
 -3.8661648e-02
  1.1993915e+00
  1.6671430e-01
  1.2821706e-01
  1.8980254e-01
  7.0317429e-01
  4.1600022e-01
  1.8643674e+00
 -2.3911700e-01
  2.6140663e-01
 -8.2101160e-01
 -1.0147840e+00
  2.4709624e-04
  5.0904465e-01
  6.5380806e-01
  7.8326553e-01
 -1.9377335e+00
  1.2749214e-01
  1.1612331e+00
  1.2968978e-01
 -1.9335356e+00
  3.0821684e-01
  2.2649807e-01
  8.1935549e-01
  2.5075007e-02
  5.0161672e-01
  1.0734525e+00
  1.7680486e-01
 -3.7072957e-01
 -1.7365468e+00
  9.0126604e-02
 -3.1385380e-01
  9.3480915e-01
 -2.9032549e-01
 -1.2918252e+00
 -6.7448235e-01
 -1.7928313e-01
 -1.0266104e-01
 -6.0708079e-02
 -3.7377319e-01
  4.6227363e-01
 -3.4067464e-01
  3.6047515e-03
  7.2108336e-02
 -6.7436278e-02
 -5.8488362e-02
  4.5258850e-01
  1.8483263e+00
 -8.3408304e-02
 -1.1280160e+00
 -1.2469165e+00
 -1.4171987e+00
  9.0726815e-02
 -4.0352453e-02
 -3.4532535e-01
 -4.1480780e-01
  1.3803163e-01
 -3.6762381e-01
 -2.4545738e-02
 -5.1831055e-02
 -1.5917404e-01
 -4.8912808e-02
  7.6968539e-01
 -1.3546047e-01
  8.2699770e-01
 -1.5153831e-01
  8.8967465e-02
  7.4778533e-01
 -6.5385163e-02
 -1.9591095e-02
  3.3014530e-01
  2.9893354e-01
  2.6702788e-01
 -8.7816939e-02
  3.4916792e-02
 -2.6726484e-01
  2.2688334e-01
  1.8184399e-02
  8.4943004e-02
 -1.5645827e-01
 -4.8428741e-01
  6.1921960e-01
 -3.3206892e-01
  4.3319082e-01
 -6.9202813e-03
 -4.1905984e-01
 -5.8161899e-02
  5.2699476e-01
  8.5808121e-02
  1.9652423e-01
 -4.0341411e-02
 -2.0131065e-01
  4.0651310e-02
 -3.4809306e-02
  7.7007897e-02
 -1.1012112e-01
  1.4175671e-01
  3.8003050e-02
  6.7813180e-02
  1.3713795e-01
  9.4826508e-01
 -7.3570538e-01
  7.8855596e-02
 -1.8655567e-01
  2.9356456e-01
  2.4407779e-01
 -8.0537744e-02
 -2.0057898e-02
  1.3854057e-02
 -1.4929430e-02
 -8.6663991e-02
 -8.2382947e-02
  1.8903423e-02
  7.5708223e-03
  9.8460615e-03
  1.3501066e-01
 -6.2234968e-02
 -7.8153148e-02
 -1.0352239e-01
  1.2261502e-01
  4.8531193e-02
  3.1124726e-03
 -9.3821466e-02
  5.9985933e-03
 -6.7953348e-02
 -1.3295388e-01
 -3.9493255e-03
 -1.1099328e-01
 -3.7335001e-02
  2.5629224e-02
  9.0097807e-02
 -4.6464350e-02
  1.2478703e-01
  1.5084447e-01
  5.9880808e-02
  1.2488835e-01
  4.3686934e-02
  1.0379625e-01
 -3.8243186e-02
  4.5270356e-03
  1.2859903e-01
 -5.9601732e-02
 -7.0082851e-02
 -2.3087375e-02
  1.3345571e-01
  1.5206081e-01
 -3.1784929e-02
 -1.7485714e-02
 -4.8718609e-02
 -1.3389647e-01
  6.4913653e-02
 -1.5597148e-01
  1.1648461e+00
 -1.7851329e+00
 -1.8528519e+00
 -2.2002119e-01
 -1.8101070e+00
  1.6540588e+00
  3.0767102e+00
  2.1012473e+00
  1.6306908e-01
  6.8593115e-01
  2.0186409e-01
  9.6915692e-01
 -3.9711696e-01
  6.2201095e-01
 -9.6565449e-01
  6.0835177e-01
  4.9425468e-01
 -1.3327134e-01
 -1.5152040e+00
  5.9236526e-01
  8.7563455e-01
  2.6279762e-01
 -3.1080970e-01
 -7.9318392e-01
  1.4818229e-01
  3.8824776e-01
 -8.8985980e-01
 -8.4477431e-01
  1.0024271e-01
  1.4649891e+00
 -5.2920389e-01
  1.2094359e+00
 -5.0084853e-01
  6.0657519e-01
  2.0881902e-01
 -9.0795738e-01
 -2.1789772e-02
 -3.9595041e-01
 -8.1138092e-01
 -1.1300702e+00
  1.0493424e-04
  8.0539167e-02
 -5.8394372e-01
 -8.4780014e-01
  1.1400950e-01
 -2.1352224e-01
 -8.3259009e-02
  2.7476424e-01
  8.4823184e-02
  3.0590576e-01
 -1.0150834e-01
  3.3485824e-01
 -1.2446624e-01
 -7.7556211e-01
 -2.8217902e+00
  2.1262386e+00
 -2.5858374e+00
 -7.7151990e-01
 -3.9423212e-01
  5.8088082e-01
  1.6407995e+00
 -1.5554054e+00
  1.6134803e-01
 -2.7220428e-01
 -2.2410117e-02
 -3.3838470e-02
  4.9338123e-01
 -2.0381251e-01
  2.7375889e-01
  2.3971021e+00
  1.6468880e-01
 -1.4379730e+00
  2.0662866e+00
 -1.2708606e-02
 -2.3137908e-01
 -5.9240657e-01
 -2.7567163e-01
  1.0141379e+00
  1.2722887e-01
  1.1677912e-01
  3.5210229e-02
 -5.2034542e-02
 -1.1082592e-01
 -3.1442299e-02
  3.6904836e-01
 -2.3653425e-01
  1.5103865e-01
 -3.8229296e-01
 -3.5235977e-01
 -5.6754863e-01
 -2.4577662e-01
 -1.8649040e-01
 -8.4230083e-01
 -5.3322279e-01
 -2.0735978e-01
 -2.6251802e-01
 -5.5477321e-02
 -5.1292505e-02
  4.1255839e-02
 -2.8797087e-01
  2.7009106e-01
  1.0247806e-01
  2.4286969e-01
  1.8861799e-01
 -2.4755657e-01
  3.5163116e-01
 -2.3952730e-02
 -3.3606425e-01
 -3.7346843e-01
  4.0015125e-01
  2.2291384e+00
 -1.8182578e+00
  6.0169005e-01
  1.6639369e+00
  1.3454074e+00
  3.4537163e-01
  1.4068285e-02
  1.8338078e-01
 -5.1976305e-01
 -4.0740526e-01
  1.4039467e-01
 -2.7854219e-02
 -5.1152635e-01
 -3.6144707e-01
  3.1719697e-01
  1.1092153e+00
  2.7863532e-01
  2.5623566e-01
  5.1965898e-01
  2.0880583e-01
  1.3347360e+00
 -3.4046745e-01
  1.2575743e+00
  7.1534544e-02
 -7.5707361e-02
  1.5454720e-01
  9.0821132e-02
 -5.5968344e-02
  2.9074728e-01
 -1.8354465e-01
 -2.5941089e-01
  1.3468926e-01
 -8.6801171e-01
  1.7732494e-01
 -1.6497234e-01
  4.0462139e-01
 -1.2808230e+00
  3.4909910e-01
  9.4724655e-02
 -7.3075497e-01
  2.9539481e-01
  2.7103068e-02
  9.4478756e-02
  2.2864929e-01
  1.4677821e-01
 -2.0650715e-01
 -7.6105046e-01
 -1.4817539e-01
 -1.9234847e-01
 -3.6363241e-01
  1.1384657e-01
  7.4553686e-01
 -7.8276688e-01
 -4.2609635e-01
  2.4981380e+00
 -7.7981931e-01
 -3.1712332e-01
 -6.7893398e-01
 -4.4391194e-01
 -2.0241310e-01
  1.5608658e-01
 -2.2601724e+00
  1.1218004e-02
 -7.1611010e-02
  2.5462976e-01
 -1.2398352e-01
 -1.5815321e-01
  2.3187834e-01
 -2.6045141e-01
  1.0656083e-01
  1.7047317e-01
  1.1992824e-01
 -7.7848107e-01
 -2.7894852e-01
  9.7950965e-02
  1.4634450e-01
  2.3208472e-01
 -2.6008323e-01
  2.9938754e-01
  2.5987637e-01
 -4.0692069e-02
  1.6340326e-01
  5.7695396e-02
 -3.4094331e-01
  1.0152942e-01
  4.3488178e-02
  1.3844255e-01
  8.1811398e-02
 -9.9915877e-02
 -7.1719748e-01
 -1.2296221e-01
  1.9128036e-01
 -7.1458220e-01
  4.5132402e-01
 -6.5341389e-01
  1.6407695e-01
 -7.4308529e-02
  6.2679283e-02
 -1.3148147e-02
 -7.0845738e-02
  3.3546295e-02
 -2.4397854e-02
 -1.3167204e-01
 -2.0466603e-02
  1.8845005e-01
  2.1989395e-01
  5.6746579e-03
  7.9184502e-02
 -2.6081057e-02
  3.7098184e-02
  4.0848935e-01
  1.4111008e-01
  6.6201073e-01
  3.2879733e-02
 -3.7402544e-02
 -4.7456045e-03
  3.2944012e-02
 -7.4116820e-01
 -2.1895225e-01
 -3.8141038e-03
  1.0058840e-01
 -1.1807486e-02
  6.8007432e-02
 -1.1884193e-01
  1.8811008e-02
  9.7939400e-03
 -4.6292455e-03
  3.7160050e-02
 -1.7268553e-01
  4.7352109e-02
 -3.3942506e-01
  1.6422489e-01
 -7.5112514e-02
 -6.1885659e-02
 -8.3150841e-02
  6.2820412e-02
  2.9082883e-02
  1.6365558e-01
  2.9065337e-02
 -1.1787555e-01
 -1.3490775e-01
 -1.3326742e-01
  2.0753829e-01
  9.1579109e-02
  1.7224832e-01
 -2.4489863e-01
  1.6941177e+00
 -6.3910693e-02
  2.1416287e-01
 -1.0037705e+00
  2.5358635e-01
 -6.2964760e-02
  3.4220240e-01
  1.1440261e-01
  1.3283773e-01
  4.5871940e-02
 -9.4267353e-02
 -1.4856491e-02
  3.1211317e-02
  1.1603257e-02
 -9.0312481e-02
 -5.5842578e-01
 -4.1393369e-01
 -1.4723239e+00
  9.5384592e-01
  1.4949434e-01
  5.2873981e-01
 -4.0378901e-01
  2.2751334e-01
 -5.6698453e-01
  4.4036639e-01
  6.5880764e-01
 -1.6124626e-01
  6.9471353e-01
  8.1771232e-02
  6.0695708e-02
  1.2958589e-01
  2.2325429e-01
 -4.6836510e-01
 -1.4255014e-01
 -2.8153384e-01
 -1.0240016e-01
 -1.8668470e-01
  2.8595632e-01
  2.7733171e-01
 -2.7688637e-01
 -2.9186049e-01
 -8.2721561e-02
  6.1978750e-02
  1.5850346e-01
 -2.1357812e-01
  2.9282457e-01
  2.1528094e-01
  2.3540461e-02
  1.9097282e-01
 -1.6773729e-01
  2.4379964e-01
 -1.7706496e-01
  1.6023223e-01
 -9.0131246e-02
  2.3118763e-01
 -2.4415164e-01
  4.6870533e-02
 -1.2704553e-02
  7.3133327e-02
  1.1500427e-02
 -2.1295500e-01
  4.3832470e-02
  5.1201243e-02
 -1.1300477e-02
  2.3421103e-01
  4.9493499e-02
  8.9407861e-02
 -4.5146024e-01
  1.7665297e+00
  1.0039459e+00
  4.6104279e+00
  9.1188669e-01
  1.1621757e+00
 -1.9939718e+00
 -3.8312318e+00
 -1.8563502e-01
  2.4833041e-01
 -1.7548120e-02
 -2.3806296e-01
  6.4544928e-01
  4.2335656e-01
  1.4231923e-01
  3.6667165e-01
 -3.2875809e-01
 -2.2998972e-01
  2.0061384e-01
 -1.0563041e-01
 -1.7657195e+00
 -2.8081081e+00
  1.5718514e-01
  3.3523923e-01
 -1.7654371e-01
 -1.0479122e+00
 -1.3866589e+00
  7.6628071e-01
 -7.1031451e-02
  7.0059948e-02
  1.5065380e+00
  5.0555211e-01
  1.1765823e+00
  3.9334664e-01
  5.8303547e-01
  2.4174261e-01
  1.8486130e+00
  3.1402599e-02
  1.1122847e+00
 -3.5755518e-01
  9.4765592e-01
  4.2785597e-01
  4.9744001e-01
  3.7257662e-01
  4.2807791e-01
 -1.2131460e+00
 -5.7383142e-02
  2.3343714e-01
 -7.2263914e-01
  1.2648088e-01
 -4.9382821e-02
 -1.0038198e-01
  4.6647262e-02
  1.1682336e-01
 -2.0850122e+00
 -4.5337611e-01
  2.8723890e-01
  2.1522202e-01
 -5.0103217e-01
  8.7797427e-01
 -1.4747876e-01
  2.9504967e+00
 -6.8367106e-01
  1.4702317e+00
  2.7722728e-01
 -7.9585719e-01
 -1.0700701e+00
  5.9227842e-01
 -2.7008814e-01
 -2.0483923e-01
  9.6067214e-01
 -1.5435150e+00
  1.6889355e+00
  9.7734004e-01
  4.3565881e-02
 -8.0712718e-01
  4.8549408e-01
 -3.9273319e-01
 -3.5431138e-01
 -1.4041954e+00
 -1.8761415e+00
  4.5671839e-01
 -1.1183648e+00
 -4.0772986e-01
  1.6870463e-01
 -1.6266327e-01
 -3.7269749e-02
 -1.4505374e-01
  6.1459696e-01
  1.0735688e+00
  2.6247067e+00
  1.5705603e-01
 -9.3299991e-01
 -1.4421103e+00
  1.1655090e+00
 -5.8772039e-01
 -8.5214764e-01
  1.7941641e+00
  5.4930693e-01
 -3.0203030e+00
  1.9172551e-01
  5.0268462e-03
  1.2525600e-01
  3.0185261e-01
 -2.5551882e-01
 -1.8414754e-01
  5.8961447e-02
  1.8714577e-02
 -9.4510406e-01
  2.3611991e+00
 -2.5507826e-01
 -1.0853600e-02
 -3.4267123e+00
 -2.3824711e+00
 -1.9547728e+00
  1.7143290e+00
  1.4296402e+00
 -2.7907741e-01
  2.8975815e-01
  7.9014671e-01
  5.7666409e-01
  1.2461146e-01
  6.4796579e-01
  6.3176292e-01
  4.8578805e-01
  4.8320335e-01
  1.6357426e-01
  3.7628126e-01
 -2.4355125e-01
 -3.4507781e-02
  3.6188193e-02
 -1.5889455e-01
  3.5753456e-01
  3.0384449e-02
  1.5647937e-01
  1.6976497e-01
 -2.6486250e-02
 -1.2679332e-02
  5.4631370e-01
  5.3682125e-01
  3.5430664e-01
  1.7856726e-02
  3.1173596e-01
  2.5591612e-01
  3.3358868e-02
 -1.4658433e-01
 -1.1187153e+00
  1.2625519e+00
  2.0789292e+00
 -4.0277699e-01
  1.3967499e-01
  1.5223311e-01
  1.3002364e-01
 -3.1564027e-02
 -1.5551107e-01
  8.2729571e-02
  3.3255115e-02
 -1.0240994e-01
 -4.0820453e-02
 -2.0595938e-01
 -1.8575352e-02
 -1.4349686e-01
  6.0838133e-01
  5.2372438e-01
 -7.7961542e-02
 -1.4967977e+00
  1.9426780e+00
 -1.3607861e+00
 -1.4266802e-01
  1.1823968e+00
 -1.5826957e+00
  4.3135646e-01
 -4.8062471e-03
 -7.5271107e-02
  7.9258049e-01
  1.1839654e+00
 -5.8344841e-01
 -1.6983777e-01
 -6.8585515e-01
  1.3738503e-01
  2.3911736e+00
  4.3907437e-02
 -1.0525286e-01
  1.1971730e+00
  1.2787908e+00
  2.5557894e-01
 -2.4903068e-01
 -2.5338876e-01
  2.5931072e-01
  1.1531432e+00
  9.2436510e-01
 -5.1022138e-02
 -1.0399071e-01
  1.8272757e-03
 -3.9927265e-01
 -1.0274155e-01
  2.2720502e-01
  4.9529919e-01
  1.4976857e+00
  1.0683954e+00
 -4.4260207e-01
 -4.4937205e-01
  1.8666524e-01
 -1.3657899e+00
 -1.8023811e-01
 -3.8639957e-01
 -5.7909809e-02
 -2.2473386e-01
  1.7132384e-01
  1.4293110e-01
 -7.8618620e-03
 -1.9181746e-01
 -1.4733133e-01
 -3.7605867e-01
 -4.9949336e-01
  4.1807407e-01
  9.6017279e-02
  1.1976681e-01
  1.9405838e-02
  8.5437307e-03
  6.7619614e-02
 -1.7359656e-01
 -1.2021517e+00
 -9.8501332e-02
  2.9407982e-03
  1.6956892e-02
 -1.7883055e-01
  1.2952577e-01
  3.7354995e-02
  7.8913577e-02
 -6.5969877e-02
 -7.4403055e-02
 -8.4848799e-02
 -3.0627158e+00
  2.9790070e-02
  2.7875486e-01
  3.5823587e-01
 -2.2663215e-02
 -1.3196440e-01
 -1.5011743e-01
 -1.4178583e-01
  3.0791765e-02
  1.0707738e-01
 -8.4949508e-02
 -1.5701593e-01
 -3.0146226e-02
  6.7914367e-02
 -2.0116687e-02
 -8.5673807e-03
 -5.8969945e-02
 -3.9123889e-02
  5.9867825e-02
 -1.6602710e-02
  2.8887682e-02
 -2.7177628e-02
 -3.2319985e-02
  1.1703544e-01
 -1.0031475e-01
 -1.0149152e-01
 -1.3007452e-01
  1.0202541e-02
  5.8347102e-02
 -7.1035791e-04
  1.8994406e-01
 -3.8456838e-03
  4.8054617e-02
  1.4555249e-01
 -1.3142504e-01
 -4.3145359e-02
  7.9124890e-02
  1.2877343e+00
 -3.2346828e+00
  2.7947669e+00
  1.8137945e-02
  1.0122268e+00
 -1.4333061e+00
  2.2787762e+00
 -2.2451544e+00
 -1.2519947e+00
  1.9063632e+00
 -6.8171901e-01
  4.0597191e-01
  5.4938430e-01
  1.7259245e+00
 -2.0842898e+00
 -2.0650829e-01
 -5.8441764e-01
  7.9148507e-01
  2.4692636e+00
 -9.5949441e-01
 -4.2721827e-02
 -6.9002330e-01
 -2.3471217e-01
  1.3040165e+00
 -2.8280985e-01
  1.4616460e+00
 -9.2872053e-01
  4.0485680e-01
 -2.2686148e-01
  4.1228414e-01
 -3.5514724e+00
 -2.4923177e-01
 -8.9877898e-01
 -3.7816042e-01
  2.1113875e+00
  1.2579261e-01
 -3.5521226e+00
 -6.5263939e-01
  6.3433075e-01
 -4.7454044e-01
 -1.5040919e-01
  2.1607797e+00
 -4.6106871e-02
  1.4852583e+00
  8.4550411e-02
  9.3228012e-01
  4.6417028e-01
  4.4437002e-02
 -6.0916626e-01
 -1.1151433e-01
 -4.1116902e-01
 -1.9537340e-01
 -3.7536612e-01
  1.4500429e-01
 -1.4832681e+00
 -2.6754025e-02
 -4.0258703e-01
 -1.2075961e+00
 -1.1109159e+00
  2.2489507e-01
  9.2034042e-01
 -8.4440178e-01
  4.5819059e-02
  2.4404615e-01
 -1.4302553e+00
 -5.0032502e-01
 -1.2250166e-02
  2.6178408e-02
  8.5441358e-02
 -8.8783011e-02
 -6.5883528e-03
 -3.3510309e-02
  1.9982749e-01
 -1.6157949e-01
 -5.1391733e-01
  8.4235318e-02
 -1.1557841e-01
  1.9362742e-01
  1.0712675e-01
 -1.4049253e-01
  1.3238104e-01
  1.4196356e-01
 -2.3639980e-01
 -1.0315287e-01
  2.8413099e-01
  6.1013997e-03
 -2.5958247e-02
 -1.3884622e-01
 -2.0385895e+00
  1.0230768e-01
 -1.9518682e-01
 -3.9205607e-02
  1.1135281e-01
 -1.7140786e-01
 -6.5644868e-02
 -1.1044343e-01
  9.9491142e-02
 -3.9193964e-01
 -2.8902400e-02
 -3.7600502e-01
 -1.2682910e-01
  1.4931664e-03
  2.1113453e-02
  1.1030683e-01
  4.6459280e-02
 -1.4135696e-02
 -1.5209851e-02
  5.5980869e-02
  4.3511024e-01
 -2.1831350e+00
 -2.0626159e+00
  1.6810115e-02
  1.4137041e-02
  3.2772560e-02
 -5.1218367e-01
 -5.2434373e-01
 -1.8995064e-01
  8.1765495e-02
 -1.9060260e-01
 -3.9065608e-01
 -4.3110833e-01
  1.1588205e-01
 -1.6310124e-01
 -3.9981421e-02
  1.3917923e-01
  8.1581533e-02
 -1.3489467e-02
 -1.0450361e+00
 -5.2707392e-01
 -3.1762567e-01
 -1.5474734e-01
 -1.2350225e+00
 -7.1734089e-01
 -7.3043150e-01
 -1.5808381e-01
  4.6891531e-01
  2.2346443e-01
 -4.1015815e-02
 -1.4518833e-01
  2.1213843e-01
 -2.3883647e-01
  1.9703157e-01
 -1.8350795e-01
 -3.4882199e-02
 -4.6560913e-01
 -4.1830185e-01
 -4.0590876e-01
 -4.8827922e-01
 -3.9772126e-01
 -3.5634130e-01
  1.3756165e-01
 -2.7868670e-01
  2.1171364e-01
  4.6729766e-02
 -5.8419820e-02
 -5.7015681e-01
 -5.0327551e-02
 -6.6294417e-02
 -2.3314640e-01
  7.5037397e-02
 -4.5477009e-01
  1.8119471e-01
 -1.0360944e+00
 -1.4576700e+00
  5.4863495e-01
  1.7319368e+00
 -1.8940842e-01
 -1.2007374e-01
  1.9499493e-01
 -4.6228474e-01
 -1.3626723e+00
  1.5823579e-01
 -8.9704290e-02
 -1.3514213e-01
 -9.6008384e-01
  2.6089177e-01
 -7.1526605e-01
 -4.0878704e-01
 -7.6184142e-01
 -1.4418185e+00
 -2.2116151e-01
  3.3280501e-01
 -7.5087987e-02
 -1.5135667e+00
 -6.3046867e-01
 -9.2738336e-01
  1.8624155e-01
 -1.7810151e-01
 -5.7505831e-02
  6.4472330e-01
  8.4683663e-01
 -2.5272149e-01
  1.8332331e-01
  4.1949221e-01
 -4.2354402e-01
  1.9491721e-02
 -4.6033835e-01
  1.0243942e-01
  1.1094280e+00
  5.2053917e-02
  1.0632743e+00
 -1.7485760e+00
 -1.7579350e-01
  1.2255735e-01
  2.6475954e-01
 -5.1105511e-01
 -3.5410471e-02
  1.8716295e+00
 -1.5036324e-01
 -2.3175314e-01
 -2.4975994e-01
  9.1202721e-02
 -2.3232321e-01
  1.7099163e-02
 -1.9686285e-01
 -1.4887293e-02
  4.8108611e-01
 -3.3828899e-01
 -2.5545371e+00
 -3.8881457e+00
  1.8801786e+00
  1.1483852e+00
  2.0688343e+00
 -3.8328099e+00
 -5.0564724e-01
  2.1285753e+00
  2.7497151e-01
 -7.0938092e-01
 -8.8248771e-01
 -2.6742491e-01
 -4.3262944e-01
  4.7403982e-01
 -4.1993998e-02
 -7.7813171e-02
 -7.3533273e-01
 -1.7788504e+00
 -3.7376738e-01
 -2.4217196e+00
 -1.9432834e-01
 -7.0612371e-02
 -1.1657917e-01
  2.5553069e+00
 -1.6685910e+00
 -4.3672891e+00
  8.6006008e-02
 -5.1419997e-01
  1.0635690e-03
 -4.8258074e-02
 -6.2183227e-02
 -7.9997912e-02
  9.5152501e-03
 -1.8407202e-01
  1.3927941e+00
 -1.2478358e-01
 -5.1258236e-01
 -5.6613743e-01
 -1.0977774e+00
 -3.6558276e-01
 -4.8167083e-01
  4.9812397e-01
  8.0624193e-02
 -3.8253348e+00
 -1.0019599e-04
  1.2703423e-01
  2.0262664e-02
 -2.0558682e-01
  1.6672734e-02
 -4.2176299e-02
  4.8713571e-01
  3.3032700e-02
  5.7390052e-01
 -1.7674786e-01
  8.2854545e-01
 -3.5345280e+00
  8.6116478e-02
  1.6107539e+00
 -3.3538181e-01
  5.3900261e+00
  2.3513618e-01
 -4.1386151e-01
 -2.9092053e-01
  1.6965690e-01
  1.6164958e+00
 -8.7874025e-01
  1.3092933e+00
  5.1873374e-01
 -2.3431659e+00
  1.0946979e-01
  1.0833350e+00
 -4.4405317e-01
  7.9910463e-01
  2.6342845e-01
  6.5236336e-01
 -6.5489218e-02
  2.6403943e-01
  6.4857382e-01
  8.6208367e-01
 -1.1938934e+00
 -2.7385718e-01
  1.7346501e-01
  2.2679179e+00
 -5.1649499e+00
  4.6972787e-01
 -4.7812706e-01
 -9.4951767e-01
 -4.5873895e-01
 -1.8977116e-01
  4.3235418e-01
  6.8440944e-01
  9.6752900e-01
 -9.3927264e-01
 -1.0559254e-01
 -8.1060207e-01
 -2.9025113e-02
  1.6000749e-01
  2.2418191e-01
  6.6208702e-01
  1.1843441e-01
 -1.2718889e-01
 -6.2291077e-03
  5.6991386e-01
  1.7284261e-02
  4.7375306e-01
  1.6627489e-02
 -4.2576772e-01
 -3.0797029e-01
  1.5743618e-01
 -1.8500828e+00
 -1.9748603e-01
 -1.1295062e-02
 -3.1604445e+00
 -1.2401487e+00
  5.0411153e-01
 -2.4754201e-01
  1.2393579e-01
 -5.1124144e-01
 -2.5582078e-01
  7.7092290e-01
  2.5549504e-01
  1.0834363e-01
  7.5098407e-01
  1.8889199e-01
 -5.1586014e-01
  1.5342544e-01
  2.9461559e-02
 -1.4417614e-01
  1.0048337e-01
  1.1987706e-01
 -1.8939759e-01
 -1.2800056e-01
 -8.9988470e-02
 -5.2894603e-02
  4.9357918e-01
 -1.1040320e-01
 -4.6739739e-01
  4.9690645e-02
  3.0150467e-01
 -3.3127207e-01
 -4.1952553e-01
  2.1505360e-02
 -2.3747204e-01
  2.3540117e-01
  2.7195385e-01
  3.3131111e-02
  3.3510616e-01
  5.0244564e-01
 -2.6527858e-01
  4.0377462e-01
  6.6504925e-01
 -3.5341573e-01
  2.0109579e-01
 -1.9325459e-01
 -1.8488693e-01
 -2.0651965e-01
 -1.7672725e-01
 -1.2248085e-01
 -1.3471882e-01
  1.2647498e-02
  3.2260835e-01
 -4.5459443e-01
  2.2246604e+00
  2.9216127e-02
 -2.3375313e+00
  1.2057027e+00
 -7.0807725e-02
  1.7196916e+00
  7.8670837e-02
 -7.7626958e-02
 -6.5998130e-02
 -1.6049378e-01
  3.9586693e-02
 -8.7298408e-02
  4.8201415e-01
 -2.5113708e-01
 -2.3538671e-01
  4.9511634e-02
 -9.8734915e-02
 -4.2577538e-01
  3.7730917e-01
  2.0492907e-01
  3.9173657e-01
 -1.6211474e-01
  2.1488807e-01
  3.1609576e-02
  9.6382670e-02
  1.0854566e+00
 -1.6636038e-01
 -1.2287559e-01
  5.0695705e-01
  8.4407724e-02
  2.4335966e-01
  2.9840877e-02
  5.6556708e-01
 -1.2574723e-02
 -2.1629903e-01
  2.1548930e-01
 -1.1335065e-01
 -1.8706068e+00
 -5.8294052e-01
  2.6774767e-01
 -3.6535186e-01
 -1.5207486e-01
 -2.0307922e-01
 -6.0070969e-02
  3.7325352e-02
  4.0471800e-02
  2.5959441e-02
  1.0005179e-01
  2.3692250e-01
 -1.0028826e-01
  1.7870113e-01
 -5.0883550e-02
  6.5153468e-01
  7.9035833e-02
  1.3172784e+00
 -1.2262862e+00
  6.2482643e-01
 -1.1376102e+00
  1.2035964e+00
 -1.2378074e+00
  2.6123416e-01
 -1.4532646e+00
 -3.6494079e-01
  1.4864341e+00
 -3.0908573e+00
 -5.3782690e-01
  1.6404508e+00
 -1.6879019e-01
  3.4704465e-01
 -7.5925285e-01
 -2.6983244e+00
  2.0652491e-01
 -2.2532471e-01
  3.0322877e-01
  4.9640000e-01
  6.1231714e-02
 -1.0237822e-02
  4.9889192e-01
 -1.5993671e+00
 -3.5661285e+00
 -6.0889270e-02
  1.8066356e+00
 -9.4903514e-02
 -4.4703846e+00
 -3.1850404e-01
 -9.1705149e-01
  5.1516008e-01
 -7.3578930e-01
 -1.1024214e+00
  5.4063704e-02
 -1.9876620e+00
 -1.4315081e+00
  4.3408018e-01
 -1.4301198e+00
 -9.1931337e-01
  3.4368193e+00
 -2.0301281e-02
 -3.2776454e-01
  1.0809314e-01
  6.1706726e-02
 -1.6916756e-02
 -7.7639385e-03
  2.9258659e-01
  4.3657910e-02
  9.7867817e-01
 -4.1889009e-01
  1.3951365e+00
  3.6851326e-01
 -2.6653538e+00
  1.1855621e+00
 -4.2754427e-01
  1.2460585e-01
  2.0327742e+00
  2.5636544e+00
  1.3686395e+00
 -2.8117253e-02
 -6.4840257e-02
 -1.8463917e-01
 -3.9733070e-01
  1.0453108e-01
 -3.2070214e-01
 -4.8552248e-01
  1.2339725e-01
 -2.7248511e-02
 -3.0332199e-01
  2.6630825e-01
 -5.5569738e-02
  1.7007265e-02
 -4.9425863e-02
 -1.3428612e-01
 -2.5705257e-01
 -1.5737268e+00
 -2.1494856e-01
  4.6264222e-01
 -1.5890297e-01
 -2.0309648e-01
  3.4791583e-01
  1.5901195e-01
 -1.1886215e-01
 -3.6692324e-01
 -3.2929662e-01
 -1.3910256e-01
  3.3015400e-02
  6.8433756e-01
  6.8067187e-01
 -2.3537138e+00
  6.0938197e-01
  9.4160920e-01
 -1.2446041e-02
  1.1825504e+00
  6.2502253e-01
  6.2636787e-01
 -4.8827294e-02
  3.8203135e-02
 -1.1157880e-01
  9.5471494e-02
  1.5659666e-02
  2.5468966e-02
  4.7045544e-02
  4.0152498e-02
 -2.9551236e-02
 -5.2365441e-02
 -3.6498263e-01
  2.0999850e-01
  8.6176291e-02
 -1.1049395e-01
  4.0708069e-02
 -6.3097559e-02
 -2.1120067e-01
  1.4403858e-02
 -1.4684958e-02
  3.5209637e-02
  5.2337661e-02
 -9.5127165e-02
 -1.3756733e+00
  1.1241631e-01
  2.5360090e-01
  1.9358948e-02
 -9.3583889e-02
 -8.7022059e-02
 -1.3604431e-01
 -1.7342320e-01
 -8.4739484e-02
  1.7334338e-01
  1.1115489e+00
 -9.1061294e-02
  9.7858198e-02
  2.7424192e-01
 -4.2287342e-02
  2.1249095e-02
  1.4752580e-01
  4.4945143e-02
  4.8259669e-04
 -4.8681278e-02
  1.0177792e-01
 -4.1574159e-01
  2.7001925e-02
  3.1951800e-02
  3.5098519e-02
 -5.6580387e-02
 -2.5210168e-02
  7.7244133e-02
  5.8645260e-02
  9.8728796e-04
 -2.2388935e-01
  4.3258175e-02
  2.2180488e-02
  1.5508626e-01
  1.0478439e-02
  4.3017395e-02
  8.3223569e-01
 -8.5643448e-02
 -2.0753684e-02
 -5.4470226e-02
  2.4148753e-02
  1.0076720e-01
  5.6083571e-02
 -5.5239439e-01
 -2.0412542e-01
  1.2764211e-01
  9.7680926e-02
 -6.6351795e-01
  2.7907226e-02
  6.1584461e-02
  1.5733701e-01
 -8.2015894e-02
  2.3684672e-01
 -2.2276169e-02
  4.9456947e-02
  5.6619503e-02
  7.8224964e-02
 -6.1895204e-01
  2.4086900e-02
 -1.5104900e-01
 -4.6899784e-02
 -2.9111695e-01
  2.7381713e-02
  3.4056321e-02
 -8.0217607e-02
  5.5556200e-02
 -1.5467183e-01
 -1.3333201e-01
 -8.9393765e-02
 -1.7812815e-02
  6.9832385e-02
  6.0531922e-02
  9.6256370e-03
  3.8139299e-02
 -4.5598652e-02
 -4.3652620e-02
 -1.7044410e-01
  2.1882741e-02
  1.0693450e-01
 -4.3990646e-02
  4.9811684e-02
  6.1486524e-02
  4.2725742e-02
  6.2524520e-02
  4.7687486e-02
 -2.4760276e-02
  1.3363737e-01
  1.4853675e-02
 -2.7308238e-04
  1.2015945e-01
  1.0876483e-01
 -3.7368894e-02
 -2.4755467e-02
 -8.7067205e-03
 -1.7148694e-01
  1.7126897e-01
 -1.1808105e-02
 -1.4090418e+00
  3.2817297e-02
 -2.8671455e-01
 -1.2565181e-01
  9.2003071e-01
  1.0749326e+00
 -3.9743032e-02
 -3.7435606e-02
 -1.0261575e-01
 -6.8584941e-02
  6.6215180e-02
 -7.0855744e-02
  1.3736527e-01
 -7.9035319e-02
 -2.6384097e-02
 -2.4595181e-02
  7.2215386e-02
 -7.5584888e-02
 -2.3019098e-01
 -7.5625643e-02
  1.6932167e-02
  5.2264582e-02
  4.7641862e-02
 -2.0907234e-01
 -2.5243433e-02
  1.3165596e-01
  1.0452514e-01
 -1.5924234e-02
 -4.0591083e-02
  2.4373682e-01
 -4.1753210e-02
 -3.9015040e-02
  2.7675221e-02
  2.6588732e-02
 -5.3918473e-02
 -4.5626413e-02
 -1.1560131e-01
 -1.0711141e-02
  8.7314948e-02
 -2.7659789e-02
 -1.3849403e-01
  1.0131797e-01
  7.7699043e-02
  1.1801711e-01
  9.9222116e-02
  1.6573666e-01
 -5.2902065e-02
 -4.9573611e-02
  2.4411453e-02
  2.1338308e+00
  8.7624229e-03
 -1.7769488e+00
  1.0448118e+00
 -1.7073655e+00
  2.5907993e+00
 -2.6475725e+00
 -7.5624335e-01
  3.2303792e-01
 -2.6104083e+00
 -3.0940938e+00
 -2.6105139e-01
  6.1164093e-01
 -1.9787441e-01
 -3.0045959e-01
  2.0709160e-01
 -3.8108137e-01
  6.3845092e-01
  1.7501582e-01
 -2.2595282e-01
 -2.4097547e-02
  1.3452603e+00
  4.7558132e-01
  2.6620394e-01
  5.9828049e-01
 -1.0697751e-01
  1.0658652e-01
 -1.3113037e-01
  2.7427968e-01
  3.5996246e-01
 -2.2270694e-01
 -1.2815936e-01
 -1.8717480e-01
  4.1463387e-01
 -5.0845367e-01
 -9.2843421e-02
 -3.6122242e-01
 -4.4147313e-01
  5.9350950e-01
  3.4138197e-01
  4.1906330e-01
 -1.1810251e+00
  5.3246766e-01
 -2.7029875e-01
 -1.0407944e-01
  3.4053892e-01
 -3.1106788e-01
 -1.2621060e-01
  2.2022484e-01
  3.3039570e-01
 -7.8882344e-02
  8.1952497e-02
 -6.0972530e-02
 -1.1934554e-02
  4.8691906e-02
  1.2722822e-01
  6.1769318e-02
  1.1708221e-02
  1.2690189e-02
 -1.0124746e-01
 -3.6472645e-01
  3.1779483e-02
 -3.4264356e-02
 -4.7639477e-01
 -8.4451132e-02
 -2.4762228e-03
 -2.5942717e-02
 -1.1029300e-01
  8.5062481e-02
 -1.0464896e-01
 -2.0240393e-01
 -1.0377681e-01
 -4.2955287e-02
 -6.5860860e-02
  2.2032453e-01
 -1.7483337e+00
 -2.3830782e-03
 -1.5868428e-01
 -1.5125084e-01
  5.9200458e-02
 -3.6092144e-02
 -1.2382683e-01
 -1.3994588e-02
  1.2667075e-01
  1.1085701e-01
  4.8134789e-02
  1.9129451e-01
 -6.0898224e-03
  2.8039169e-02
 -2.1625259e-03
 -3.9634932e-02
  8.5167466e-03
 -5.4410398e-02
  1.2299631e-01
 -1.0593493e-01
 -1.8526338e-02
  5.6356019e-01
  3.7372280e-02
  7.7311695e-02
  5.1475535e-03
 -5.7921905e-02
  1.9136442e-01
 -2.6488895e-02
 -3.9929755e-02
 -1.1703864e-01
  7.9768494e-02
 -5.3338151e-02
  2.6399508e-02
 -3.1122431e-02
  5.3255066e-02
  6.1228655e-02
  4.2086428e-01
  4.5020652e-01
 -4.0507758e-01
  8.0474811e-03
  8.7616271e-01
  1.4041069e-01
  2.2741141e+00
  5.6860745e-01
  2.9945690e-03
  5.5189710e-02
  2.1203960e-01
  2.7417812e-01
 -6.3582271e-02
  2.9367468e-01
 -1.0612964e-01
  9.5622130e-02
  1.7117445e-01
  2.2226469e-01
  2.5744269e-02
 -8.7878734e-02
  5.1381534e-01
  5.3627897e-02
  2.2176780e-01
 -1.9960247e-01
  1.0677847e-01
 -3.2557122e-02
 -3.0325589e-01
  1.9079712e-01
  4.7205869e-02
  2.2615349e-01
  6.5655433e-02
  4.4588974e-01
  4.0150918e-02
  5.0009185e-01
  8.0986172e-02
 -6.2379096e-02
  9.9347964e-02
  1.3043477e-01
  4.2445236e-01
 -5.7832468e-01
  4.3433827e-01
 -1.8571106e-01
  1.3220409e-01
 -1.0293642e-01
  1.4955536e-01
 -3.9085329e-02
 -3.6316609e-03
 -5.9189010e-02
  1.6636929e-01
  1.6314106e-01
  1.6272139e-02
  8.3871044e-02
  8.6475713e-03
  3.6685747e-01
 -3.7029308e-01
  3.6294923e+00
 -1.0255671e+00
  9.3852359e-01
  1.3675849e+00
  4.6324110e-01
  7.0732665e-01
 -1.4774681e+00
 -2.0204554e+00
 -3.3580270e+00
 -7.7396885e-02
  5.9066516e-01
  1.0158710e-02
  3.6777070e-01
  1.2259873e-01
 -1.0458300e-02
 -2.8326437e-01
 -1.6666614e-01
 -5.1939458e-02
  3.3396449e-02
  1.5261999e-01
  5.0060421e-02
  3.9336377e-01
 -1.0862750e-01
  4.0965036e-01
  5.6991905e-01
  2.4318753e-01
 -8.6111480e-01
 -2.3969890e-01
  3.0644229e-01
 -4.4875589e-01
  7.6534994e-02
 -5.7438087e-02
  1.3380572e-01
 -6.6960680e-01
 -1.5954081e+00
 -3.8434768e-01
  1.2732589e+00
 -1.7778096e+00
  2.2081175e-01
  1.6748929e+00
  1.0631336e+00
 -3.8472648e+00
  9.5895916e-01
  2.6742170e+00
  2.1741514e-01
  1.6037381e-01
  1.4407639e-01
  3.7031852e-02
  8.1327841e-02
  9.5503628e-02
  1.5703991e-01
  8.4563114e-02
 -4.5060059e-01
 -3.1652763e-03
  6.5445435e-01
  1.6636115e+00
  2.4600143e-02
  9.1516383e-02
 -1.8065071e-02
  3.6935574e-01
  4.5596596e-02
 -6.9655210e-02
  8.0504701e-02
  1.1342366e-01
  2.2453582e-02
 -9.0709459e-03
 -1.1745438e-02
 -1.3682215e-01
  1.1461516e-01
  7.6155648e-02
 -1.6591874e-01
  6.7378677e-02
 -4.8737817e-02
 -1.8104236e-01
 -6.8396311e-03
  1.5486412e-01
 -7.4959135e-01
 -6.8006217e-02
  6.8997932e-03
  5.7881832e-02
 -6.5677866e-02
  5.2234668e-02
  3.4004431e-02
 -4.5337941e-02
 -4.8997905e-02
  4.8514176e-02
  5.8040205e-02
  1.3170185e-02
  1.0716043e-01
  3.0872161e-03
  8.2877420e-02
 -7.0036516e-02
  6.1007082e-01
 -9.9521339e-02
  1.1689647e-01
  6.5182485e-02
  4.4588223e-02
 -2.3511082e-01
  1.3997386e-01
  1.2118208e-01
  3.3581272e-02
  6.0863215e-02
  6.3316703e-02
 -4.0512595e-02
  8.6959384e-02
  1.0237379e-01
 -5.6042969e-01
  2.1006353e+00
  1.1313350e-01
  3.5350890e+00
 -8.2972270e-01
  1.1873175e+00
  6.5924597e-01
 -9.7510189e-01
  2.9382899e+00
 -5.9739321e-01
 -4.8465592e-01
 -8.1880875e-02
  3.2133834e+00
 -2.1639250e-02
  5.5594081e-01
  1.8286213e-01
  5.7043868e-01
 -4.1067690e-01
 -4.3804070e-01
 -5.7745820e-01
  3.0558673e-01
 -1.7279061e+00
  4.3448949e-01
 -1.9416368e-01
 -8.6936933e-01
 -2.3429294e+00
 -3.0037200e-01
 -5.7126492e-01
 -6.4843512e-01
 -4.8361503e-02
  7.6053560e-01
  1.4817673e-01
  4.0483725e-01
 -1.5388833e-01
  2.5668770e-01
 -2.6935256e-01
 -4.0980318e-01
  2.8341860e-01
  7.8935802e-01
 -1.0695349e+00
  9.3596160e-01
  1.0674489e-02
 -2.8892517e-01
  8.3847511e-01
 -6.4753950e-01
 -2.0851968e-01
 -2.0110063e-01
  1.6981209e-02
 -3.9207730e-02
  1.8739057e-01
  1.7169680e-01
  5.9361029e-02
  2.2065541e-01
 -1.5957713e-03
  2.8524956e-02
  3.5852912e-01
  1.6285720e+00
  4.2362678e-01
 -1.1147339e+00
  1.4225496e+00
  3.7966878e+00
  1.0948352e+00
  5.8480650e-01
  4.5586857e-01
  3.3524600e-01
  7.4622512e-01
  7.1292484e-01
 -1.2809539e-01
  5.8687562e-01
 -8.8857800e-02
 -1.1816655e+00
 -4.2257753e-01
  1.1656437e+00
 -9.7371304e-01
  2.6489830e-02
 -6.5702289e-01
 -9.2508301e-02
  9.3032533e-01
  9.0680796e-01
  9.6299684e-01
 -2.6398910e-02
 -7.8361654e-01
  4.8559710e-01
 -3.3004722e-01
  4.4278371e-01
 -3.7697420e-01
 -8.7279940e-01
  1.1620220e-01
 -1.1355544e+00
  2.5548616e-01
  2.6977338e-02
 -4.7806129e-01
  6.7602301e-01
 -2.1709324e-01
  1.1639887e+00
  3.1008959e-02
  9.8596990e-01
  3.6243093e+00
 -4.9928907e-01
  1.7528956e-01
  3.0225429e-01
 -2.2169653e-01
  3.7610459e-01
 -2.2018115e-01
  3.9966028e-02
 -2.8695127e-01
 -4.6625447e-01
 -2.0062764e-01
 -2.8216627e-01
  9.3050504e-01
 -2.8955960e-01
  4.9145830e-01
  5.4167438e-01
  4.0938094e-01
  4.4028798e-01
  2.3447765e-01
 -2.8214794e-01
 -8.9102978e-01
 -2.5140004e-02
 -3.3634698e-01
 -2.4551937e-01
 -6.3223690e-02
 -1.3988648e-01
 -3.5356224e-01
 -4.0349725e-01
  1.3100110e-01
 -4.6188748e-01
  5.2047711e-02
 -1.6445984e-01
 -1.9155879e-01
 -5.4437168e-02
  2.4905391e-01
 -2.7236652e+00
  1.5847541e-02
 -6.9825642e-02
  8.1791125e-02
 -4.0260908e-01
  2.0016940e+00
 -6.6509910e-02
  2.5300348e-01
  3.4490764e-02
  2.3152393e-01
 -2.7672952e-01
 -3.8488042e-01
 -1.4665788e+00
 -3.3533990e-01
  1.2225243e-01
  6.1516643e-01
 -6.6509329e-02
 -2.0822097e-01
 -3.7885908e-02
 -3.6059746e-01
 -5.2621043e-01
 -1.0540607e+00
 -7.5976424e-02
  1.8628669e-01
 -3.2199777e-03
  1.1928924e-01
  4.6526346e-02
 -1.8340205e-01
  1.8446995e-01
 -1.0825900e-01
  2.5330832e-02
  4.0437767e-01
 -2.3006625e+00
 -4.5810154e-01
 -9.4644463e-01
  5.4773504e-01
 -2.6433277e-01
  8.8532203e-01
  4.1000381e-01
 -4.0808730e-03
  2.7668980e-01
  4.1149855e-02
  2.6284355e-01
 -1.7848212e-02
  2.5875562e-01
  7.5892353e-01
  1.2303851e+00
  3.1439479e-02
 -4.5775649e-01
  2.1286555e-01
  3.5582694e-01
 -8.0465180e-01
  3.8753849e-01
  1.9973056e-01
 -3.5207793e-01
  7.2986856e-02
  3.0762497e-01
  2.0170715e-01
 -3.4760123e-01
 -5.6712769e-02
  2.9122305e-01
  1.1878362e-01
  1.4605115e-01
  8.4830977e-02
  3.4224379e-01
 -5.4932795e-02
  2.3816326e-01
  4.2115721e-01
 -1.1807673e-01
  6.9111186e-01
  5.5729276e-01
  2.7904347e-01
  1.2459299e-02
  1.2662332e-02
 -2.2273358e-02
  7.7455550e-01
  3.8356960e-01
  2.8070313e-01
 -2.3257351e-01
 -6.9160759e-02
  1.7479959e-01
 -5.7191926e-01
  9.2074245e-02
 -8.8838503e-02
  1.2945791e-01
 -3.7319678e-01
  1.4247628e+00
 -1.2970513e+00
 -2.0138884e+00
  2.0074056e-01
 -4.6142897e-01
 -4.1901785e-01
 -1.1578064e+00
  4.6578574e-01
  9.9152021e-02
  5.9409273e-01
  4.1822504e-02
  2.2559245e-01
 -3.0299196e-01
 -1.2323145e-01
  4.8854720e-02
 -7.1859695e-02
  6.0238063e-01
  4.5717108e-01
 -2.5876465e-01
 -8.5175419e-01
 -1.0380176e-01
  2.9367164e-01
 -3.5115950e-02
  3.5054490e-01
 -7.1024489e-01
 -4.2610136e-01
  8.2372332e-01
  3.3896748e-02
 -3.8025382e-01
 -2.6723215e-01
 -6.0135875e-02
 -1.6775507e-01
  2.6643103e-01
  2.8623414e-01
  3.7173018e-01
 -1.3172022e-01
  3.5004660e-01
 -1.2540625e-01
 -5.1057083e-03
 -4.8056480e-01
  1.9183093e-01
 -4.7321609e-01
 -4.7321716e-01
 -2.0134650e-01
 -1.8004945e-01
 -4.5602581e-01
  1.9209678e-01
 -2.2299553e-01
  3.0548325e-01
  5.3674813e-02
 -4.9642619e-01
  5.2572586e-02
  3.3599994e+00
  1.3089883e+00
 -3.6483493e-01
  1.8051296e+00
 -1.5031993e+00
  2.5699282e-01
 -1.3957554e+00
 -5.5410689e-01
 -4.4603479e-01
  2.0934801e+00
 -2.0327607e-01
 -4.4164708e-01
  6.0770572e-03
  6.4974505e-01
  4.0205392e-01
 -1.7011431e-01
  1.5830361e+00
  1.6966315e-02
  1.2840124e+00
  9.5018536e-01
  1.2603015e-02
 -6.1997544e-02
 -3.8131562e-01
 -2.2335021e-01
  2.9773942e-01
 -4.6073845e-01
  3.5159969e-01
  1.6958251e+00
  1.8456230e-02
  3.5421200e-02
  9.9547935e-01
 -1.9664703e-01
  1.0854844e-01
  2.0087121e-01
  3.1545162e-02
  7.6028055e-01
  9.2668092e-01
 -1.1521624e+00
 -8.6501884e-01
  1.3011402e+00
  3.0893582e-01
  6.5068531e-01
  2.7917564e-01
 -2.1329102e-01
  8.9162701e-01
 -2.5316951e-01
  2.1372542e-01
  1.2797524e-01
 -2.2653548e-02
  3.0305645e-01
 -6.2381935e-01
  4.3312708e-01
 -2.2573655e-02
  1.5578648e-01
  2.3960683e+00
 -2.2783768e+00
 -4.4994235e-01
  8.6254781e-01
  5.9771454e-01
  6.5628600e-01
 -5.0693119e-01
  2.3673546e+00
 -6.8372810e-01
  1.1747139e+00
  1.7483660e+00
 -1.7566382e+00
  4.0181808e+00
 -3.5033402e-01
 -6.7884344e-01
  1.6503137e-01
  1.2949434e-01
 -4.7540039e-01
 -5.0679082e-01
  7.4091589e-01
 -7.4394327e-01
 -1.0672195e-01
 -1.6009570e+00
 -3.5825138e+00
  1.3528838e+00
  1.9780976e+00
 -2.5309002e+00
  5.6330793e-02
  1.6967120e+00
 -3.0195930e+00
  7.6872861e-01
 -8.0775839e-01
  9.4713455e-01
 -1.0539042e+00
 -2.7696371e-01
  5.9683776e-01
  2.7083611e-01
 -3.7074170e-01
  1.2704593e+00
 -5.8435535e-01
 -1.6372862e+00
  2.5888475e-02
  2.8704054e+00
  3.0451763e+00
  1.0287508e+00
 -8.9054294e-02
  5.1120061e-01
 -2.4027024e-01
 -2.1251085e+00
 -8.6902541e-01
  1.6149493e-01
  7.1798033e-01
  3.4217620e-01
  7.7911788e-01
 -1.7202569e+00
  1.5279235e+00
 -5.7000309e-01
  1.9181114e+00
 -4.7572872e-01
 -2.7343671e+00
  1.8686823e+00
  1.5070975e+00
 -9.9502522e-01
  4.1792333e-01
  1.8745394e+00
  1.8794141e+00
 -1.5560904e+00
  3.1103271e-01
 -6.2262803e-01
  1.3159341e+00
  5.8646357e-01
  2.6976790e+00
  1.6249058e+00
 -9.7967692e-02
  5.3379256e-01
 -5.6577597e-02
 -1.7530022e+00
  1.3554167e+00
 -4.7461814e-01
  9.3727130e-01
  5.4527164e-01
  9.1172129e-01
  7.8087375e-02
 -1.6676387e+00
 -1.5674962e+00
 -6.4498311e-01
  2.5534885e-02
  2.2199857e-01
  3.3556037e+00
 -2.0972562e+00
  1.2063870e-01
 -1.3649809e+00
  6.3389325e-01
  5.2123851e-01
 -2.5270185e-01
  1.4083222e+00
 -1.1995659e+00
 -4.5976770e-01
 -1.5540886e+00
 -3.5815522e-01
  2.8277230e-01
  2.4962976e+00
  1.2818753e+00
  8.5975164e-01
 -8.6556070e-02
 -5.4075086e-01
 -5.4857486e-01
  9.6345383e-01
  2.4492089e-01
 -1.5856963e-01
 -2.4592951e-01
 -1.9241564e+00
  2.4737170e+00
 -1.3140559e+00
  4.5413741e-01
  1.9701363e-03
  1.5128621e+00
 -3.9257613e-01
  1.6549823e-01
  9.2388010e-01
  2.7309947e+00
 -5.6421262e-01
  7.4052769e-01
 -1.8780364e-01
 -1.0954839e+00
  3.2340714e-01
  2.2156747e-02
 -1.7503211e+00
  3.1023171e-02
  2.0821339e-01
 -3.5779262e-01
 -1.8408822e-01
 -1.6427041e+00
 -4.6025813e-02
 -2.9422182e-01
 -7.0241314e-01
 -1.8210028e+00
 -6.0157657e-01
  3.7407219e-01
  5.2930528e-01
 -4.7097220e+00
  9.0037084e-01
 -2.0782886e-01
  3.5323605e-01
 -1.2605438e+00
 -9.7710907e-01
  7.6607478e-01
 -1.1942644e+00
  1.5139062e+00
  6.9505543e-01
 -1.4116663e-01
 -5.6771576e-01
 -2.9985252e-01
  2.9951835e-01
 -2.4721061e-01
  7.3839925e-02
 -1.6997212e-01
  2.3166095e-01
 -2.5569301e-02
  2.2624767e-01
 -1.9874139e-01
 -1.2673348e-01
  3.1613765e+00
 -2.1938072e-01
  6.5786362e-01
  3.1191418e-02
 -5.1856261e-01
 -9.3065435e-01
 -1.7505945e-01
  3.3305937e-01
 -1.4409028e-01
 -4.2157057e-01
 -4.2645973e-01
 -1.4250044e+00
 -9.3590212e-01
  7.9771757e-01
 -1.3665470e+00
  2.9282248e-01
 -2.8087500e-01
 -2.2502458e-01
 -2.3241583e-01
 -4.3958929e-01
 -8.6922145e-01
  4.9807760e-01
  1.4162569e+00
 -1.5679158e-01
 -1.4457272e-01
 -6.3201863e-01
  9.1308683e-02
  1.2261872e-01
 -6.8337262e-02
 -2.0512890e-03
  2.6257235e-01
  2.7068134e-02
  8.4331071e-01
  1.6559236e+00
  1.9530122e+00
 -1.4320822e+00
  9.8557746e-01
  9.2575157e-01
 -2.5587982e-01
  1.4058746e-01
  4.9160346e-01
 -1.9275682e-02
 -2.9114008e-01
  2.3734102e-01
 -3.5627872e-01
 -3.7234005e-01
 -3.1422552e-01
 -2.1265384e-02
  1.0403077e-01
  2.1646116e-02
 -3.6611181e-01
  2.2957416e-01
 -1.1679398e-02
  2.0890353e-02
  2.2566342e-01
  1.5775174e-01
 -7.0712268e-02
 -7.5154002e-03
 -2.5380312e-02
 -4.4037870e-01
 -4.2394200e-01
  2.3656880e-02
 -4.7735131e-01
 -1.2202744e-01
 -7.5877490e-03
 -3.0095795e-01
 -9.9678315e-02
 -4.0383734e-02
  4.1682288e-01
 -2.9087195e-01
 -9.2054866e-02
  1.7554045e-01
 -1.8084046e-01
  8.9346118e-02
  3.0855611e-01
 -1.1733369e-01
  8.5298985e-01
  2.0304399e-02
  1.6758250e-01
  5.4952499e-02
 -3.2867944e-01
  2.3891469e-02
 -4.5984094e-03
 -1.5422861e-02
  4.9108293e-02
  1.4713977e-01
 -9.2265588e-01
  3.0604124e+00
 -4.1511312e+00
  1.1667008e+00
 -6.6497540e-01
 -1.2763386e+00
 -1.7462206e+00
 -2.9050624e+00
 -1.9704363e+00
 -3.9055541e-01
  2.9341680e-01
 -1.0089767e+00
  4.7494474e-01
  7.4245423e-01
 -3.2807207e-01
 -7.9612412e-02
 -4.2191926e-01
  2.4777632e+00
 -8.1313217e-01
 -9.3291245e-02
 -5.2617937e-01
  6.6029590e-01
  2.8525090e-02
 -2.9061854e-01
  1.7374170e-01
  5.1133686e-01
 -4.4541821e-01
 -1.8715898e+00
  3.4481952e-01
  3.1624052e-01
  6.2252498e-01
  2.1486359e-02
 -2.3952858e-01
  2.2302791e-01
  6.3736868e-01
 -4.8064195e-02
 -9.5198840e-02
 -4.9823198e-02
  1.0465339e+00
  2.9175704e-02
 -1.1969636e-01
 -8.6996250e-02
  8.6552697e-01
 -1.0544989e-01
  8.9592773e-01
  4.4862670e-01
  1.3565859e-01
 -1.3099664e-01
  1.3160990e-01
 -2.2526079e-01
  2.1209465e-01
 -1.0624020e-02
  2.5377369e-01
  8.6316362e-02
  2.1027040e+00
  1.1894455e+00
  3.3667948e+00
  1.2003798e+00
 -1.2903786e-01
  2.0251212e+00
  1.4817148e+00
 -3.7337786e-01
 -1.9813582e-01
  2.3795942e-02
  3.1930456e-01
 -3.0798665e-01
 -3.4329565e-03
  5.4640788e-01
  4.4346765e-01
  1.6725390e+00
 -2.6546365e-01
  1.8722558e-01
 -1.1562947e-01
 -6.2962550e-01
 -5.7681912e-01
  4.1261581e-01
 -1.9306238e-01
 -4.2685997e-01
 -4.3270418e-01
 -4.4071141e-01
  4.3247321e-01
 -1.0133622e-01
 -1.9873282e-02
  6.5369451e-01
  5.7789445e-01
 -3.1157875e-01
  3.8091725e-01
  1.1780299e-01
  6.7132574e-01
 -2.7711532e-01
 -1.1088099e-01
  4.5589927e-01
  3.7750381e-01
  8.3825493e-01
  3.6491504e-01
 -7.3573269e-02
 -1.3542374e-02
 -5.7076114e-01
 -3.2765815e-01
  3.5553478e-02
  2.9041746e-03
  2.1767808e-01
  2.1443428e-01
  2.5815210e-01
 -6.7909032e-02
  1.2096599e-01
 -9.4762355e-02
 -3.2717172e-02
 -9.8406032e-05
 -8.5697204e-01
 -6.9513381e-01
 -3.1958216e-01
 -1.0399391e-01
 -1.4820352e+00
  2.5699911e+00
 -1.0292055e-02
 -3.4685072e-01
  6.8560809e-02
  2.5812712e-02
  1.1263780e-01
 -4.3128815e-02
 -3.6707915e-02
  2.6512796e-01
 -7.9172686e-02
 -6.8829471e-01
 -5.7669383e-02
 -2.7590042e-01
 -5.8733951e-02
  2.7307671e-01
 -2.0616721e-01
 -3.4726337e-02
 -5.1270504e-03
 -1.1924542e-01
 -1.6634569e-02
 -5.6293490e-03
  1.7192222e-02
  1.9012439e-01
 -6.6598490e-02
 -3.1823356e-02
 -9.7617902e-02
 -1.3505559e-01
  9.8064773e-02
 -1.0771275e-01
  1.3380976e-01
  1.5699735e-01
  1.5460682e-01
  1.2716539e-01
 -6.1946400e-02
  1.0319567e-01
  1.3489564e-01
 -3.5238072e-02
  2.6129860e-01
 -1.4163505e-01
 -3.6277473e-03
  8.4835030e-02
  1.2949266e-01
 -6.7551732e-02
 -1.7896195e-01
 -6.0173939e-03
 -5.4307435e-02
 -8.4051766e-02
 -3.0094787e-01
  2.9012865e-01
  3.2150865e+00
 -3.5341702e+00
 -1.1943772e+00
 -1.0834379e-01
  2.0207293e+00
 -4.0592585e+00
 -4.2471680e-01
 -1.5241505e+00
 -3.9243507e-01
  7.4772991e-02
  2.3225565e-01
  2.0050351e-01
 -3.4787282e-01
  9.5952619e-03
  3.2991824e-01
  1.6321848e-01
  8.1965216e-02
  2.4312833e-01
 -2.8010264e-02
  3.1475738e-01
 -1.8554172e-01
  3.9727982e-02
  1.9218057e-01
  3.8791857e+00
 -4.9239643e-02
 -2.2075513e-01
 -1.6009493e+00
 -6.5747865e-02
 -2.4500722e-01
 -1.6310030e-01
  1.8870106e-01
 -1.6373977e-01
 -1.7777959e-01
  1.0469797e-01
 -1.8797142e-02
 -1.0051186e+00
  1.4170839e-01
 -1.2106392e-01
  4.1394591e-02
  1.7778784e-02
  2.4068238e-01
  1.1415772e+00
  5.0463974e-01
  1.0530514e-01
  2.1032196e-02
 -5.8540452e-02
  2.4938935e-01
 -5.3971024e+00
 -1.3719490e-01
 -1.6041104e-02
  9.9640638e-02
 -1.2678753e-01
 -2.3743236e-02
 -1.3123481e+00
 -2.7832265e+00
  2.9337544e+00
 -1.3015302e+00
 -2.0260052e-01
  9.2503726e-01
 -3.2627141e-01
 -1.0385784e+00
  1.7121124e+00
 -4.5999169e-01
 -6.8116450e-01
  7.7752334e-01
  9.0056978e-02
  3.0603170e-01
 -3.4544635e-01
  4.6738708e-01
 -2.5193024e-01
 -5.5665836e-02
 -2.3378744e+00
 -6.2518555e-01
 -1.4527239e-01
  1.7233180e-01
 -4.6633059e-01
 -6.8072575e-01
 -3.6932406e-01
  9.4584489e-01
 -4.5418557e-02
  2.6489264e-01
 -1.8815237e-01
 -2.2223938e+00
 -7.5217739e-02
  3.8287276e-01
 -1.8675250e-01
  1.2348093e-02
 -2.5807977e-01
 -1.5328842e-01
  4.3002295e-01
  1.5743928e-01
 -2.0265808e+00
 -9.1702050e-01
  6.1837721e-01
  9.3171328e-01
  7.6079583e-01
 -4.6284837e-01
  2.0729389e+00
  2.6930653e-02
  1.4426479e-01
 -8.0717689e-01
  2.5518380e-02
  5.1997554e-01
 -3.7003890e-02
  1.2486506e-01
 -1.4545788e-01
 -1.6302513e-01
 -4.7727486e-01
 -3.6793709e-01
 -1.2163522e+00
  1.4040313e+00
  2.3503454e-01
 -3.2520661e-01
 -1.7392993e-01
  8.2665348e-01
 -3.1789243e-01
 -2.6845333e-01
 -4.0132365e-01
  1.4016856e+00
 -2.6608345e-01
 -1.2400885e+00
  6.3260639e-01
 -3.1428918e-01
  5.6435436e-01
  6.5254182e-01
 -7.3351371e-01
  1.2923697e-01
 -3.4110606e-01
 -6.3388430e-02
 -7.0746922e-01
 -3.5443939e-02
 -6.5593970e-01
 -9.5112020e-01
  5.3285718e-01
  6.7319328e-01
  5.0924653e-01
  7.4494046e-01
  1.4627961e+00
 -2.0914828e-02
  1.3092465e+00
  6.3101113e-02
  5.2135148e+00
  4.4033062e-01
  1.5557709e+00
  2.3558180e+00
  5.8682770e-01
 -1.3541709e-01
  5.8036238e-01
  3.5859728e-01
 -3.9849132e-01
 -3.7159741e-01
  1.4331292e-01
 -4.7877640e-01
 -2.6165760e-01
  3.8155109e-01
 -2.5552976e-01
 -3.3415034e+00
 -2.5658152e-01
  1.2566346e-01
  3.9269492e-01
 -7.3312014e-01
 -6.0390019e-01
  1.1016164e+00
 -2.5727408e+00
  1.4344065e+00
  1.1972787e+00
  6.5004873e-01
  3.9315982e+00
  3.2029435e-01
  2.8320575e+00
 -9.6674043e-01
 -9.4802059e-02
 -2.0696459e+00
 -1.3326101e-01
  2.6820168e+00
 -1.0729871e+00
  6.0247439e-01
 -6.7681146e-01
 -4.8995015e-01
  9.6026599e-01
 -1.0503272e+00
 -2.7030005e+00
  1.1809986e-01
 -2.5157814e+00
 -2.3668082e+00
 -1.7556252e+00
  1.2109640e-01
 -1.2145398e+00
 -7.4438041e-01
 -1.0142069e-01
 -4.7793627e+00
  3.7172634e-02
  3.8759282e-01
 -3.1267336e-01
  3.9413837e-01
 -2.9437339e-01
 -1.8913548e-01
 -2.9741538e+00
 -8.2333916e-01
  4.2569766e+00
  1.6295636e-01
 -2.5649781e+00
  4.2029333e-01
  2.1197765e+00
 -2.8718913e-01
 -5.2361333e-01
 -1.0595726e-01
 -1.2151717e-02
 -1.8417560e-01
 -3.3738606e-02
  5.7431453e-01
 -1.7858663e-01
  2.2034036e-01
  1.3847680e-01
  2.3143501e+00
 -9.4865531e-02
  1.6539825e+00
 -2.2698104e-01
  3.4071276e-01
 -4.0358372e-02
 -4.0322313e-01
  5.6954825e-01
 -7.3592317e-01
  3.8303629e-01
  1.1049923e-01
  1.3406423e-01
 -1.8924646e-01
 -1.7728405e-01
  7.1503450e-03
  1.1276694e-01
  1.0045848e+00
  1.2005927e-01
  1.5979685e-02
  5.3539383e-01
 -8.5974470e-02
 -8.9390546e-02
 -3.5563290e-01
 -2.7241839e-02
  1.0415861e-01
  2.5870535e-01
 -2.2414455e-01
  1.9895560e-01
 -2.4870060e-01
 -1.5384001e-01
  2.1901727e-01
  3.6220089e-01
  1.1978434e-01
  3.2634479e-01
 -2.2108372e-01
 -1.3268510e-01
 -1.1474774e-01
  3.9086271e-02
  9.8641381e-02
  2.9762238e-02
  4.2406354e-02
  1.1038949e-01
 -1.6032045e-01
 -2.0938473e-02
 -2.2592825e-01
  2.1159869e-02
 -3.3414429e-01
  2.8172603e-02
 -1.5425452e-02
  7.3495723e-02
  2.4466123e-01
 -8.4739760e-02
  4.1167282e-02
 -3.9458595e-02
 -7.0902608e-02
  7.1550691e-01
 -1.0661806e+00
 -1.5189118e+00
 -1.2420024e-01
 -5.7772654e-01
  5.3512305e-01
  6.8341029e-01
  4.3452519e-01
  8.2292354e-01
  1.4742184e+00
  1.2248202e-01
 -2.2401130e+00
  1.4416870e-01
 -3.0644992e-02
  3.3685759e-01
 -2.0175710e-01
 -1.0614361e-01
  9.6675150e-02
 -4.3044005e-02
  1.4438552e-01
  5.2974198e-02
  3.4636986e-01
 -9.8623171e-02
 -1.2278395e-01
 -1.1847842e-01
  1.4928812e-01
 -2.7268037e-01
  9.6752636e-02
  4.4690441e-02
  1.6822193e-02
 -1.3436493e-02
  3.0360080e-02
  6.2078893e-02
  3.8266090e-01
  2.8224128e-01
 -1.4874040e-01
  4.3866087e-02
  1.7686332e-02
  1.5473481e-02
  1.6434317e-02
  2.9094512e-02
  7.9093464e-02
  1.5113260e-01
  2.7765837e-01
 -4.0193722e-01
 -4.6463916e-03
 -7.9517275e-01
  8.9389101e-02
 -6.5058149e-02
 -2.6722938e-01
  3.7263915e-02
  1.2586099e-01
  1.8377943e-02
 -1.4409597e-01
  5.6151253e-01
  3.7087867e-01
 -6.5591162e-01
 -1.0729150e+00
  7.8232098e-01
  4.2962641e-01
 -1.1430714e+00
  1.2435873e+00
 -1.9485648e-01
 -4.2679611e-01
 -3.3083797e-02
 -1.6221800e-01
 -3.9571773e-02
 -7.3819053e-01
  2.5090478e-02
  2.8595701e-01
  4.7216523e-01
  3.6449090e-02
  4.4864562e-01
  2.3572743e-01
  3.6058071e-01
  9.6587944e-01
  5.8703679e-01
  2.4442750e-01
  1.4461072e-01
  7.9850608e-01
  5.3965116e-01
 -8.0383830e-02
 -1.3114949e-01
 -5.8340186e-01
  2.5152212e-01
  1.7693366e-01
 -1.9805098e-01
  5.7096362e-01
  6.6949511e-01
  6.0754530e-02
  9.3225569e-01
  6.8622166e-01
 -1.9060305e-01
  2.8711584e-01
  1.9075847e+00
  4.2283595e-01
  2.1152806e+00
  3.4840050e-01
 -1.9199486e-01
  2.7933705e-01
 -2.0236404e-01
 -7.2106153e-01
 -5.4317083e-02
 -2.2469170e-01
  4.5217018e+00
  2.5422949e-01
  1.9191855e-01
 -1.8147662e-01
 -1.9436543e-01
 -3.6387913e+00
 -1.8426836e+00
  1.6860666e+00
 -2.8632706e-01
 -4.2204124e-01
  1.1339929e+00
 -3.7147191e-01
 -8.7206966e-01
  2.8801018e-01
  7.6144487e-01
 -3.2593420e-01
  9.3120480e-01
  3.3380875e-01
 -5.3406954e-01
  9.6967325e-02
  2.4216887e-01
  8.5347724e-01
 -1.0971106e+00
 -1.4569947e+00
 -1.2155660e+00
  3.7530947e-01
  7.0273632e-01
 -7.2901440e-01
 -1.2463653e+00
  1.7181042e-01
  4.9255267e-01
 -1.0587115e+00
 -5.6012350e-01
  5.9663755e-01
  7.6256007e-01
  8.3259094e-01
 -6.0594124e-01
  4.7447985e-01
 -2.5723961e-01
  2.4064709e-01
  1.4746916e+00
  4.3512988e-01
 -3.3875936e-01
  2.9686931e-01
 -4.2458841e-01
 -5.7783950e-02
 -8.7260294e-01
 -1.5458988e-01
  8.4083718e-01
  6.0184039e-02
  3.9992991e-01
  2.1925949e-02
 -6.4271301e-02
  4.1694652e-02
 -1.7289886e-01
  1.1633807e-01
 -1.0139785e-01
 -1.9393949e-01
 -4.6629795e-01
  1.4584614e+00
  9.5168632e-01
  7.7153748e-01
  6.4254123e-01
  5.8166921e-01
 -7.5697094e-01
 -2.3525584e+00
 -1.4783674e+00
 -7.9911515e-02
 -9.7611058e-01
 -7.0685470e-01
 -7.4216828e-02
 -4.9873495e-01
  8.6197716e-01
 -1.4574840e+00
 -1.4755054e+00
 -5.3438067e-01
  2.7051520e+00
 -7.1252668e-01
  5.3316188e-01
 -7.4832141e-01
  5.6340657e-02
 -8.0282575e-01
  5.6044972e-01
 -1.1191945e-01
 -2.2746718e-01
  6.5290880e-01
 -2.2829987e-01
  6.7490798e-01
 -3.3348298e-01
  2.0946617e+00
  4.2300808e-01
  6.2729484e-01
 -1.8311336e+00
 -1.5582635e+00
 -2.5762644e-01
 -1.4118096e+00
 -2.2190098e-01
 -1.1009925e-02
  1.2223800e+00
 -2.0106474e-01
  4.6529219e-01
 -1.0472356e+00
 -9.1344917e-01
 -2.1109760e-01
 -1.5224723e+00
  3.4427431e-01
 -4.4128832e-01
  8.3606488e-01
  1.2212333e-01
 -1.9862990e-01
 -1.1371829e-01
 -6.3461632e-02
  9.2246187e-01
  1.2355996e+00
  7.5493580e-01
  3.1601470e+00
  1.8733066e+00
  1.5052646e+00
  4.0575901e-01
  2.7628436e+00
  1.8014210e+00
  2.9698997e+00
 -1.1777077e+00
  6.1119452e+00
  5.5430233e-01
  2.0832968e-01
  1.1769867e+00
 -3.3774140e-01
  1.0506516e+00
  2.4936209e-02
 -2.1616755e-01
  2.4022465e+00
  2.7030907e+00
  7.7900910e-01
  1.4917008e+00
  1.7918760e+00
 -1.1939592e+00
  1.0595434e+00
 -3.0295661e-01
 -1.6743195e+00
  9.2147321e-01
  2.0685916e+00
  1.5620815e+00
  1.1548648e-02
  2.0744183e+00
 -1.0222932e+00
 -6.3719618e-01
  1.8681437e+00
  9.5380172e-02
  7.2824633e-01
  9.6262968e-01
  6.4254540e-01
 -1.1514353e+00
 -4.5163727e-01
 -4.9425542e-01
  7.8716129e-02
  7.4305958e-01
 -2.0327516e+00
  6.5536438e-03
 -2.5226934e+00
 -3.1524414e-01
  4.0066025e-01
  3.6228293e-01
 -6.6382980e-01
 -6.2503374e-01
  1.7292598e+00
 -2.2864161e-01
  7.0875150e-01
 -3.0193469e-01
 -3.2351887e-01
  1.4453809e-02
  2.1725184e-01
  1.0493648e+00
 -1.5334786e-01
  1.9886456e-01
  2.1179762e-01
 -3.2255495e-01
 -5.4736114e-01
 -2.5014195e-01
 -7.6917693e-02
 -4.6971062e-01
  1.1291441e-01
  4.1768249e-02
 -3.3706731e-01
  2.9121941e-01
  1.4364401e-01
  5.6150895e-02
 -2.6126603e-02
 -3.2612783e-01
 -2.9720476e-01
 -7.3182367e-02
 -8.9687072e-02
 -8.5614133e-01
 -3.2522777e-01
 -1.1772100e+00
 -1.9678196e-02
  1.0122292e-01
 -5.3661770e-01
 -2.2157723e-02
 -5.1408459e-02
  1.7240904e-01
 -1.3039476e-01
  2.0436339e-01
 -9.8848581e-02
 -1.6252954e-01
  9.8427720e-02
  2.1877017e-02
  2.8604832e-02
  1.2041296e-01
  1.6035303e-02
  1.1301018e-01
 -2.6392022e-02
  7.3386751e-02
  6.3310385e-02
  2.2999313e-01
  6.9904001e-03
 -6.8312152e-03
  5.6893930e-02
 -1.5917978e-01
  1.1445068e+00
  1.1530447e+00
 -1.1010776e+00
 -8.0106449e-01
  2.1696322e+00
 -6.1438417e-01
 -4.4127226e+00
 -2.1606483e+00
  5.6794757e-01
 -6.2986058e-01
 -3.5474184e-01
  1.0905508e-02
  6.6980290e-01
 -3.1778553e-01
 -4.1617855e-01
  1.1681719e+00
 -3.3860538e-02
 -2.0470564e+00
  2.8259542e+00
 -9.5537245e-01
 -1.6588082e+00
 -2.1498218e+00
 -3.2729208e-01
 -1.7062362e+00
 -3.5655707e-01
  3.7668690e-01
 -5.2314746e-01
  1.6171250e-01
  9.7312325e-01
 -1.4371039e-01
 -7.4306357e-01
 -7.2317794e-02
 -1.5975286e-01
  3.0356422e-01
  7.8196429e-02
  4.8560247e-01
 -2.6323565e-03
  5.4614985e-01
  3.7703297e+00
  5.1838732e+00
  2.8356904e-01
 -3.0820602e-01
 -1.3355748e-01
  1.1208656e+00
 -1.0230266e+00
 -1.8593274e+00
  1.2752367e-03
  3.5598451e-01
  2.3867819e-01
 -1.2999344e-01
  2.2737320e-01
  1.6625392e-01
  4.5147476e-01
 -5.7037687e-01
  1.6294132e-01
  2.4543293e+00
  2.1452719e-01
  5.9965932e-01
  1.9529589e-01
 -1.5282497e+00
  1.7677819e+00
 -6.0537124e-01
  1.2098918e+00
  9.7043329e-01
  1.8833421e-01
 -7.2627909e-02
 -1.2572767e+00
 -1.1616911e+00
 -9.8127037e-01
  7.7523458e-01
 -4.1122580e-01
 -4.2654184e-01
 -6.4346008e-02
  2.3711050e+00
 -1.0207625e-01
 -7.9837227e-01
 -1.2496740e+00
 -9.8357999e-01
  4.8851141e-01
 -3.5440172e-03
  1.5490897e+00
  6.0598540e-01
 -2.1650398e+00
  4.0786109e+00
 -7.7482171e-02
 -6.4475262e-01
  7.6985151e-01
  4.0191650e-01
  4.3035737e-01
 -1.7720114e+00
  4.0329230e-01
  3.7221327e-01
  1.3392414e+00
 -1.9413120e+00
 -1.9602442e+00
 -3.7105385e-02
 -1.5183462e+00
 -2.2926555e+00
 -6.5491959e-02
  1.7602122e+00
 -1.0186063e-01
 -5.3032976e-01
 -2.5554860e-02
 -1.4301841e-01
 -7.2956723e-01
  3.6630654e-01
 -1.5007327e-01
  1.7495427e-01
  2.1185472e+00
 -1.3476387e+00
 -4.0312058e-01
 -6.1788672e-01
  2.1672673e+00
 -2.3000171e+00
 -1.2368709e+00
 -1.6544768e+00
  4.9316788e-01
 -3.9194643e+00
  1.3005556e+00
  1.4519225e-01
 -8.2450485e-01
 -1.5536170e+00
  4.0523082e-01
 -5.8112666e-02
  9.1893956e-02
 -1.3244838e-01
 -1.7248836e+00
 -8.0133826e-02
  2.1974665e-01
 -4.6581519e-01
  5.8404940e-01
  9.8474884e-01
  1.1551278e-01
 -1.3744880e+00
 -7.5985551e-01
  1.0345794e+00
 -5.6806803e-01
  8.7109822e-01
  2.5560850e-01
  1.9888929e+00
  1.2478245e+00
 -4.3144548e-01
 -1.3970956e+00
  1.6173098e+00
  2.9382724e-01
  1.5913070e+00
  1.0415963e+00
  6.3362068e-01
  3.5661519e-01
  1.0555247e+00
 -1.0151514e-01
 -1.5078543e+00
 -4.7676387e-01
 -1.3782647e+00
  1.6491169e-01
  1.1456235e-01
  4.1800970e-01
 -2.1281338e-01
 -7.2600460e-01
 -1.4713266e-01
 -1.0930881e-01
 -1.9377767e-01
 -2.1091142e-01
  2.5953993e-01
  6.8118489e-01
 -5.4814825e+00
  6.4496636e-01
 -5.0147760e-01
 -4.3728628e+00
 -5.2898800e-01
  1.3362028e-01
 -1.0670891e+00
 -2.7950518e-02
  3.7448782e-01
  2.1916707e+00
 -9.4440031e-01
  9.7724110e-01
 -8.2416362e-01
 -2.5456780e-01
  1.7781702e-01
  2.1233109e-01
 -1.2097831e+00
  3.9383829e-01
  5.4792929e+00
 -1.1029988e-01
 -3.9829203e-01
  2.6377591e-01
  1.4112722e+00
  8.2819945e-01
  8.2656890e-01
  4.8920423e-01
  2.9822212e-01
  1.3631834e+00
  4.9429619e-01
 -1.9459973e-01
 -1.3842331e-01
  4.4701603e-01
  7.0951951e-01
  5.9416211e-01
 -2.0196550e-01
  7.0251912e-01
  2.4157627e+00
  7.4076831e-01
  4.7182824e-02
  2.3216002e-01
  2.6279104e-01
  2.2608488e+00
  9.9062584e-02
  3.1461954e-02
  2.1076557e-01
 -1.1772628e+00
 -1.3261746e-02
  4.9103191e-04
  2.8231084e-01
 -1.0893128e-01
 -2.0322871e-01
  3.4310645e-01
  1.7871506e+00
 -2.0952950e+00
 -1.6160890e+00
  8.2922328e-01
 -5.5260241e-01
  2.8260033e+00
  5.0315547e-01
  1.3094599e+00
  1.2748346e+00
  2.9944444e-01
  6.4145720e-01
 -2.0999938e-01
 -5.9961379e-01
 -3.3812740e-01
 -2.5270185e-02
 -3.4595880e-01
 -1.5809271e-01
  4.4799507e-01
 -2.5346616e-01
  1.3530834e-01
  3.0368679e+00
  1.0854803e-01
 -2.7483672e-01
 -4.2065603e-01
 -1.9960693e+00
 -6.4190412e-01
 -3.7768191e-01
 -1.6269317e-01
 -1.0059563e+00
 -2.0997459e-01
 -9.2060328e-01
 -2.4744475e-01
 -2.9179513e-01
  2.3636812e-01
  2.1933664e-01
  5.5964822e-01
  4.2260161e-01
  8.3420271e-01
  7.0779465e-02
  3.3512002e-01
 -4.9456185e-01
  1.0227933e+00
 -7.0797753e-01
  4.0894762e-01
 -9.7513963e-03
  3.2989883e-01
 -2.5056019e-01
  6.0285378e-02
 -5.3588289e-01
  8.7138034e-02
  2.4679989e-01
  2.0927416e-01
  1.5096600e-01
 -3.3744618e-01
 -6.1721706e-01
  3.8758447e+00
  1.6628500e+00
  3.1143363e+00
  8.1641275e-01
 -1.0267390e+00
  5.7985175e-01
  4.7031783e-02
  9.2277092e-01
  1.4618374e+00
  2.3509690e-01
 -5.6463516e-01
 -1.6155750e-01
 -2.3498634e-01
  1.7966320e-01
  5.5234468e-01
  7.9148673e-02
  4.2156640e-01
 -2.2541338e-01
 -4.2108274e-01
 -4.4632760e-01
  2.0295195e-01
 -6.6361552e-01
 -1.3654660e-01
  4.9922267e-01
  4.1840872e-01
 -5.4799747e-01
 -5.2935004e-01
  4.5862894e+00
  1.5858606e-01
  5.8783090e-01
 -7.8822684e-01
  6.4409959e-01
 -2.4283283e+00
 -8.3986059e-02
  5.8164936e-01
  4.2449513e-01
 -2.0494206e-01
 -3.3379444e-01
  5.8377779e-01
 -3.7521526e-01
  4.4461095e-01
  6.3296027e-02
 -1.0510202e-01
 -6.4551610e-01
 -1.6943607e-01
  2.2945724e-01
  3.2814212e-02
  1.2590982e-01
  6.3629532e-01
 -5.5257633e-02
  2.3921302e-02
 -3.3304930e+00
 -2.2329507e+00
 -2.9009519e+00
  3.7405746e+00
 -1.7502443e+00
 -1.6773751e-02
  3.5945210e-01
 -3.1852293e+00
  5.7777727e-01
 -3.7273786e+00
 -1.4786751e+00
  5.0029802e-01
  2.8676186e-02
  7.4530788e-02
 -5.2101803e-01
  1.8617412e+00
 -1.3765027e-01
  7.7035382e-02
 -9.5885766e-01
 -1.5758744e+00
 -2.6438184e+00
 -9.9292338e-01
  2.7784271e+00
  1.2124331e-01
  5.6328052e-01
  8.5501188e-01
  5.4213369e-01
 -1.4445655e+00
 -4.7228548e-01
  4.2116269e-01
  6.1550343e-01
  7.3758453e-01
  7.8615606e-01
  2.2659139e-01
 -4.9677005e-01
 -2.3628631e-01
  5.6434870e-01
  1.5529592e-01
 -1.7404035e-01
 -9.6368712e-01
  2.9870647e-01
 -6.8030238e-01
 -5.2678537e-01
 -2.5203678e-01
  5.1941007e-01
  2.3101859e-01
 -7.9992378e-01
  5.0663298e-01
  1.7638899e-01
 -2.1472867e-01
  1.0878462e-01
 -3.7019977e-01
 -2.1097705e-01
 -3.8245991e-01
 -5.6987925e+00
  2.3019157e-01
 -5.7205856e-01
  5.3127173e-02
  4.6982342e-01
 -2.6828188e-01
 -8.1197512e-01
 -1.5717360e-01
 -6.0194820e-01
  5.8813673e-01
 -1.8797694e-02
  1.5370442e-01
 -3.1471533e-01
 -4.8419572e-02
  4.8159350e-02
 -8.4680282e-02
 -8.6300051e-01
 -3.9383167e-01
 -2.1252938e-01
  7.1480149e-01
 -5.4709997e-02
  3.9163595e-01
  3.6275277e-01
  4.8052835e-01
  1.7014350e-01
 -7.2429441e-02
 -3.5904050e-01
  2.0499678e-02
 -6.2115365e-01
  3.4581530e-01
  4.8081586e-01
 -2.5511289e-01
 -2.9926389e-01
  2.9226521e-01
 -1.0028588e+00
  6.2527680e-01
 -1.3586165e-01
  6.0782087e-01
 -2.3397331e-01
 -2.6777375e-01
 -4.7917765e-01
 -1.1743634e+00
  2.5218469e-01
 -7.1480584e-01
 -6.7832017e-01
 -2.6288188e-01
 -4.9159762e-01
 -2.1570955e-01
  4.8595345e-01
  1.1921127e-02
 -6.6854976e-02
 -1.1719760e-01
  1.1016979e-01
 -2.3601437e-02
 -1.9779505e-01
  1.6420094e-02
  1.1425337e+00
  2.6865556e+00
  4.5357504e+00
 -1.3593479e+00
  1.0017332e+00
  4.2819613e-01
  1.6158195e+00
  3.4193051e-01
  1.7853509e+00
  2.2508079e-02
 -6.6275102e-01
  3.2069564e-01
 -7.8826320e-01
 -7.8716010e-01
 -8.9976972e-01
  1.3100539e-01
  4.1273487e-01
  2.6093001e-02
  2.3322280e-01
  5.1182592e-01
  2.2187413e-01
 -1.4006053e-01
  1.8720290e-01
  5.8186662e-01
 -2.5016588e-01
 -8.4565664e-03
 -7.5052410e-01
 -4.4642884e-01
 -2.5823966e-02
 -3.8672519e-01
 -5.9085560e-01
 -5.1328695e-01
 -1.6203180e-01
 -1.9224484e-01
 -4.6255246e-02
  5.9556674e-02
  9.5669597e-01
 -5.1746863e-01
 -2.3566066e-01
 -8.0678597e-02
 -4.8545653e-01
  2.3714791e-01
 -7.3770225e-01
  6.6672003e-01
  3.1636769e-01
  1.0426811e+00
  6.9944359e-02
 -1.3651459e-02
 -5.5405021e-01
 -6.9023587e-02
 -5.5098766e-01
 -3.0658791e-02
  8.0035105e-03
  7.6499963e-03
  2.8725457e+00
  2.7216613e+00
 -2.2077589e+00
 -1.9475875e+00
  5.5655783e-01
  1.2691200e+00
 -1.8611459e+00
  8.9566296e-01
  8.2576741e-03
  1.2060627e-01
  2.9261846e-03
 -1.9986011e-01
 -6.2595516e-02
 -3.2135140e-02
  2.3195197e-01
  6.4321232e-01
 -4.8132849e-01
 -5.0463501e-02
 -3.8475385e-01
 -3.0455142e-01
  1.5052691e+00
 -2.9507554e-01
 -6.1706227e-01
 -6.0478292e-02
 -6.6926521e-01
  1.0932121e-01
  2.8692207e-01
  4.7380450e-01
  6.9252826e-02
  2.9574500e-02
  2.6023900e-02
 -3.3329415e-01
 -1.7943177e-01
  1.7778325e-01
  3.5652402e-01
 -4.6968502e-01
  1.1511083e+00
 -9.7768255e-02
 -1.5268388e-01
  2.4209161e-01
  4.0842059e-01
 -7.2019279e-02
  5.7390189e-01
  4.3366101e-01
 -4.7237158e-01
  1.0793089e-01
 -3.7676722e-02
  5.7875160e-02
  1.4517976e-01
  5.0348725e-02
 -1.4045136e-01
  2.7520634e-02
  1.6324003e-01
 -2.0029201e-01
 -2.1299399e-01
 -3.9220798e-01
 -9.9582687e-02
  1.7618044e-01
 -1.7651986e-01
  1.3832092e-01
  3.4260752e+00
 -3.7418333e-01
 -6.4478028e-01
 -5.5002030e-02
  5.3861961e-02
 -1.3411164e-01
 -7.4341305e-02
  5.2927688e-02
 -3.9064839e-01
 -8.2423069e-02
 -1.6157560e-01
 -3.3182183e-01
 -2.4007738e-02
  1.3986560e-02
 -3.2853402e-02
  1.5172386e-01
  7.3116377e-02
  2.8598329e-01
  1.7023361e-01
 -6.6597328e-02
 -3.5004291e-01
 -5.8957390e-02
  1.0793834e-01
  2.5606770e-02
  3.8835011e-02
  7.1157597e-02
  8.2602926e-02
  2.3348620e-03
 -8.2738742e-02
  1.4469583e-01
 -4.9861256e-02
 -7.6555483e-02
  4.7343838e-01
 -9.3969375e-02
 -3.8279414e-03
  3.4210566e-01
 -1.7891721e-01
  1.1510390e-01
 -9.3348622e-02
  1.4722888e-01
 -6.9703214e-02
 -3.5265133e-02
  7.7891722e-02
 -1.0574999e-01
 -1.3138976e-02
 -1.2620297e-01
  8.1137784e-02
  1.3721152e-01
 -2.6914534e-01
  4.0691364e-01
 -1.5308701e+00
  2.7444890e-01
  1.5528460e+00
 -6.4238495e-01
  1.4587620e+00
 -1.3641784e-01
  4.5796764e-01
  4.2286761e-02
 -1.2261655e+00
  1.0254784e+00
 -6.3819140e-02
 -7.5470448e-01
  2.0357095e-02
  1.6093527e-01
 -9.1337168e-01
 -2.7650578e-02
  1.7883318e-03
 -1.3476028e+00
  1.4201055e+00
 -1.9675447e-01
 -5.0517982e-01
  1.0959926e-01
 -8.4602386e-02
 -1.4441619e+00
  7.6646382e-01
  2.2710737e-02
  5.0960183e-01
 -1.5618593e+00
 -2.3927163e-02
  1.8220744e-01
  1.1769263e-01
  1.1856626e-01
 -9.3045455e-01
 -2.7457404e-01
  1.1090377e-01
 -1.9663512e+00
  4.1424465e-01
  1.1531129e-01
  2.2344726e-01
  6.8286229e-03
  1.2169567e-01
 -1.4646022e+00
 -4.0323445e-01
  3.2332476e-02
  5.7884169e-01
 -7.8475946e-01
 -5.0863106e-02
  3.6315102e-02
 -6.8755448e-02
  9.6923567e-02
 -8.3244473e-01
 -1.0404162e-01
  3.3324090e-01
  1.6272755e+00
 -8.2664824e-01
  1.6323660e-01
  2.9175509e-02
  4.1723307e-03
  3.8406045e+00
 -1.0778180e+00
  1.9562330e+00
 -2.5591605e+00
  1.2452937e+00
  4.0986557e+00
  1.6587476e-01
  3.0326980e-01
 -7.0123649e-01
 -5.0246221e-01
  3.0601010e+00
  2.7056354e-01
 -2.7514880e+00
 -1.0872102e+00
 -9.9457008e-01
 -1.2103494e-01
  2.4382572e+00
 -1.4853427e+00
  2.7602509e-01
 -3.7224838e-01
  1.0014738e+00
  1.2469307e-01
 -1.6112953e+00
 -1.3011041e+00
  8.0667123e-02
 -5.0593272e-02
  8.5878038e-01
  2.3022865e-01
  2.2863951e+00
 -4.5303154e-01
  1.0228267e+00
  4.0712476e-01
 -3.4544780e+00
  2.9578513e-01
 -2.4445483e-02
  2.2902775e+00
  8.1458074e-01
 -1.4028615e+00
  2.2539933e-01
  1.0694176e-01
  1.6965938e-01
  1.1314480e+00
  1.2082909e-02
  6.8340045e-01
  5.9699792e-02
  2.4719551e-01
  3.4563214e-01
 -6.0345326e-02
  9.0209618e-02
  3.8265862e-02
 -1.0035015e+00
 -1.6292912e-01
 -3.8327664e-01
  1.4295399e-01
  9.1592216e-01
 -3.2360443e-01
 -1.2888339e-01
  1.4394796e-01
  7.5681709e-02
  5.2004093e-01
  2.3779381e-02
  1.0445391e-01
  2.0822839e-01
 -1.8466848e-01
 -6.9141589e-02
 -6.4404525e-02
 -1.7986053e-01
  8.5126162e-02
  1.2836672e-01
 -1.4126708e-01
  1.1525751e-01
 -1.0373169e-01
  3.1560332e-01
 -9.6395090e-02
 -2.4094570e-01
  1.0606491e-01
 -1.3206267e-01
  5.9118487e-02
  4.2985128e-03
  5.3654574e-02
 -1.1728450e-04
  1.4216395e-01
  4.4971131e-02
 -6.8714559e-01
 -3.0358920e-01
 -3.3514008e-02
 -1.5922253e-01
 -4.9350512e-01
 -5.5992270e-01
 -8.5144959e-02
 -1.5354525e-01
  1.1965788e-01
 -4.0079364e-01
 -4.4097199e+00
 -1.0977890e-01
 -2.7799535e-01
  7.0905900e-03
  2.1428203e-02
 -1.0334079e-02
  7.6350637e-02
  3.4429908e-02
  1.6005521e-01
  9.0642440e-01
 -7.7486521e-01
  4.6987781e-01
  1.4149616e+00
 -3.3805832e-02
 -5.3883058e-01
 -1.7932509e-01
 -4.2248517e-01
 -1.7437862e+00
  2.2979015e-01
 -8.5166050e-03
  1.0211179e-01
  4.0128123e-02
 -5.8411665e-02
  3.8127065e-02
  7.5394355e-02
  3.6256522e-02
  8.4550881e-01
  1.4876767e-01
  2.7051862e-02
 -1.1705922e-01
 -5.3871375e-01
  3.9592395e-03
  1.1948346e-01
  1.8570311e-02
 -2.6037765e-01
  1.2265701e-01
  1.3935973e-01
  6.5215960e-02
  1.3761865e-01
 -1.3946839e-01
  5.5074949e-02
  1.7067720e-01
 -2.9833857e-02
 -1.5868226e-01
  8.3009236e-02
 -3.6751249e-01
 -1.9553085e-01
  6.5871984e-02
  1.5041098e-01
  2.6860160e-01
 -2.5634089e-01
 -5.3186953e-01
 -1.3542108e-01
  6.5497881e-01
 -2.0658094e-01
  9.2331484e-02
  3.9997697e-01
 -6.5121442e-02
  3.7369821e-02
  5.9506390e-02
  1.4311785e-01
  1.7750919e-01
 -4.2596482e-02
  5.2025396e-01
  1.0947475e+00
  1.9277047e-01
  2.7902001e-01
 -1.6490034e+00
  1.1586765e+00
 -1.6185954e+00
 -4.0771347e-02
 -1.2248171e-01
  1.7987321e-01
  2.0479769e-01
 -3.9389029e-01
 -1.4556572e-01
 -2.6260400e-01
 -2.7899802e-01
  4.1166759e-01
  2.2143134e-01
 -4.4143948e-01
 -3.9455944e-01
 -9.0234049e-02
  4.2752922e-02
  1.4164801e-01
 -5.0800568e-01
  2.2588038e-01
 -1.5097095e-01
  3.1388694e-01
  1.7444471e+00
 -1.0788500e+00
 -1.0682137e-01
 -4.0558293e-02
 -8.9078881e-02
 -3.1526080e-01
 -2.1615130e-01
  2.6717505e-01
  5.3204721e-01
  6.3103721e-02
  7.1000926e-02
  5.8901668e-01
 -1.5106495e-02
  1.1947157e+00
 -9.6981704e-01
 -4.2691666e-01
  8.1465340e-01
 -1.8150295e-01
 -1.1060066e+00
  1.7712072e-01
 -2.0903675e-01
 -8.6949296e-02
  2.3353054e-01
 -2.3485033e-01
  9.0267681e-02
 -3.4702782e-02
  2.4754654e-01
 -1.3029563e-01
  9.6528250e-01
 -2.5810397e+00
 -2.5675097e+00
 -1.0000780e+00
  6.9738698e-01
  1.3264987e+00
  2.3231366e+00
  1.5729722e+00
 -6.3944426e-03
  1.5236379e-01
 -6.8068886e-01
  8.7961900e-01
 -1.8967753e-02
 -6.5400821e-01
  4.9533325e-01
  2.4995121e-01
 -1.6331216e+00
 -1.5847415e+00
  2.6853976e-01
 -9.5160776e-01
  9.2990446e-01
  9.9152312e-02
  1.3183714e+00
  6.2694222e-01
  1.4578186e-01
 -2.0545518e+00
 -1.6356254e-01
 -4.3857029e-01
  1.6702871e+00
  4.8626626e-01
 -2.3722401e-02
  4.1016319e-01
 -1.3866282e-01
 -7.7477235e-01
 -7.9839975e-01
 -3.5469785e-01
 -1.2725233e+00
  3.1279320e-01
  1.5746969e+00
  2.8986892e-01
  4.2239556e-01
 -1.1187115e+00
 -1.3296409e-01
 -8.4433734e-01
 -1.3780377e+00
 -1.0932563e-02
  3.8267024e+00
  1.2363937e+00
 -1.5745480e-01
 -7.4303985e-02
  2.6918745e-01
  1.7398760e-01
 -2.9747221e+00
 -1.2069743e-01
 -1.7340910e-01
  2.7690157e-01
 -1.9452116e-01
 -2.4371088e-01
 -5.8177620e-02
 -2.7568188e-01
 -4.8921224e-01
  1.0723007e-02
  2.1900354e-01
  3.3544907e-01
  4.7582710e-01
 -7.2611846e-02
 -1.6739863e-01
  3.4755266e-01
  2.7461654e-01
  6.2331086e-01
 -4.7374792e-02
 -4.8490876e-01
 -1.8901072e-01
 -6.2940222e-01
  3.2014725e-01
  4.8354712e-01
 -1.9417901e-02
 -1.1451818e+00
 -1.1304752e-01
  2.4992168e-01
  4.3035513e-01
  3.6023176e-01
  2.0515363e-01
 -1.0550573e-01
  2.6574984e-01
 -4.5984378e-01
  8.2527764e-02
  4.3420363e-02
 -2.7591762e-01
 -4.6501711e-02
 -1.1186703e-01
 -3.5598524e+00
  1.0408356e-01
  1.0597517e+00
 -1.9026695e-01
 -3.1863847e-01
 -1.4827453e-01
 -2.5500128e-01
 -3.6775023e-02
  2.7746765e-02
 -3.3540106e-01
 -1.2474450e-01
  3.6907160e-01
  2.0671484e-01
  1.2998108e-02
  1.2305886e-01
  4.8059721e-02
 -1.7031814e-01
 -6.4262763e-02
  1.0142174e+00
 -3.4404400e-01
 -2.7102141e+00
  2.8211398e+00
  1.5136759e+00
 -2.4838851e-01
 -5.0608402e-01
  1.1868358e+00
 -4.7504686e-02
  2.2692411e+00
  3.2254395e-01
  4.6367890e-01
 -1.3685018e+00
 -2.9616681e-01
  3.0983767e-02
  1.0534174e+00
  2.9871517e-01
  4.7254735e-01
  4.7449267e-01
 -1.1445262e+00
 -8.6268663e-02
 -3.3221808e-01
 -1.9456083e-01
 -5.5759430e-02
 -2.2444379e-01
  1.1499712e+00
  7.3945445e-01
  3.9715189e-01
 -5.3774800e+00
 -1.2699569e+00
 -8.7525010e-01
  1.2043231e-01
 -1.2116132e+00
  9.3155183e-02
  4.9820527e-01
 -1.7349881e+00
  4.9046755e-02
 -2.7044225e+00
  3.1000173e-01
  1.2645477e+00
  3.3478862e-01
  7.2542554e-01
 -1.8089453e+00
  9.6121866e-01
  1.0204600e-01
 -1.2490268e+00
 -4.4868034e-01
 -1.6248077e-02
 -2.9316744e-01
  4.8759442e-02
  1.8518915e-02
  5.1453561e-01
  3.3917618e-01
  2.0822704e+00
  2.3253543e+00
  3.2415870e-01
 -1.3460323e+00
 -2.9323964e+00
  1.6801280e+00
 -1.8277568e+00
 -2.2693310e+00
  2.7900290e+00
  5.4349673e-01
 -4.3812710e-01
  1.8768720e-01
  2.1048446e-01
  1.4765602e-01
 -9.8567170e-01
  2.0351759e-01
  9.8806036e-01
  4.3922663e-01
  3.4430367e-01
 -2.8173533e-01
  2.9931191e-01
  4.4197845e-01
 -7.9009902e-01
 -5.9504975e-02
  1.9696217e+00
  1.0200428e-01
 -4.3320751e-01
 -8.9659053e-01
  3.2066733e-01
 -5.8651966e-01
  6.2352335e-01
 -1.5746803e+00
 -1.1352704e-01
 -1.0991931e+00
  6.2307620e-01
 -1.0603759e+00
 -2.2317009e+00
  1.2161120e-01
  1.2818548e-01
  3.7783378e-01
  1.7370958e+00
 -7.3861915e-01
  7.2636563e-01
  2.2034352e+00
 -5.7901645e-01
 -3.7324706e-01
  3.5710731e-01
 -1.2175249e-01
  6.0894988e-02
 -4.0536651e-01
  2.2809294e-01
  3.9767301e-01
 -6.2369984e-01
  1.9281139e+00
 -7.1087521e-01
  4.3066794e-01
  4.4965848e-01
 -2.4597864e-01
 -4.7240391e-01
 -1.1250056e+00
 -6.3258779e-01
  1.1222537e+00
  4.1304740e-01
  8.8247609e-01
 -6.0615784e-01
 -7.3777395e-01
  5.1562703e-01
 -2.6736170e-01
 -1.5091485e+00
  3.8040274e-01
 -1.9564812e-01
 -1.0413363e+00
 -1.0740925e+00
 -3.0534372e-01
 -5.1957881e-01
 -3.4324044e-01
 -3.7352222e-01
  3.4118947e-02
  2.7205956e-01
 -6.4528060e-01
 -1.3192060e+00
 -1.9090307e+00
 -4.9851817e-01
 -1.6503459e-01
  2.0512848e-01
 -1.2809311e+00
  9.7843939e-03
 -1.0673267e+00
 -9.6404642e-01
 -1.4198976e+00
 -1.6033075e+00
 -3.7238285e-01
 -1.0605872e+00
  4.3098474e-01
 -1.6124541e-01
 -9.1080445e-01
 -1.1276219e+00
 -7.6925784e-01
 -3.4974915e-01
  2.4667288e-01
  3.2039100e-01
  4.8752508e-01
  1.9305675e-01
 -3.0920532e-01
 -8.9386247e-02
 -4.1273467e-02
 -3.4877738e-01
  1.4046866e-01
 -1.9784837e+00
  6.3342279e-01
  1.3988297e+00
 -1.7128901e+00
 -6.9112474e-01
 -2.1263573e+00
  7.3981881e-01
  6.5805042e-01
  9.2954266e-01
 -4.0771753e-01
  5.2291578e-01
  8.4773976e-01
 -9.8090440e-01
 -2.5768939e-01
  2.5544143e-01
  4.9334103e-01
  3.6514696e-02
 -5.9818161e-01
 -2.0972911e-01
 -2.2644155e-01
 -2.3359150e-02
 -6.8306625e-01
 -6.7589521e-02
  1.5616654e-01
 -1.8141667e+00
 -1.1594292e+00
 -6.6375661e-01
 -1.1538633e+00
  5.4701400e-01
 -5.9380019e-01
 -3.8894144e-01
 -2.5067407e-01
 -5.1484734e-01
  6.9698751e-02
  1.3059983e-01
  2.5042790e-01
 -9.9840999e-01
 -1.8559417e-01
  4.8637673e-01
  1.5483634e-01
 -5.5383795e-01
  5.7471722e-01
 -3.9685202e-01
 -5.3766984e-01
  1.4375924e-01
  2.8454906e-01
 -1.4288657e+00
 -1.2605143e-01
  1.8006407e-01
  1.4555906e-01
 -1.2801117e-02
  1.0452688e+00
  3.2262176e-01
 -1.9837117e-02
 -2.1174934e+00
 -1.2287874e-01
  5.5747205e-01
  8.8499480e-01
 -3.2103246e-01
  6.7225188e-01
  1.2023456e+00
  1.2753204e+00
  1.9529124e-01
 -1.7866400e-01
  3.3899310e-01
  1.2551758e-01
  3.8136172e-01
 -2.1219831e-02
  2.6154619e-01
  5.6276542e-01
  5.1545686e-01
 -1.0382564e-02
  4.8265204e-01
 -4.6749166e-01
 -2.6517525e+00
  4.5863334e-02
  1.6022321e-02
 -4.5302397e-01
 -1.0097881e-01
  3.7787688e-01
  5.3287983e-01
  4.1375142e-01
 -5.8794755e-01
 -1.9370650e+00
 -4.5566034e-01
  2.9093271e-01
 -6.3761675e-01
  1.0374448e+00
 -6.1455464e-01
 -7.0978135e-02
  4.5158255e-01
  8.5812443e-01
 -1.3409207e+00
  5.3929830e-01
 -4.4550118e-01
 -2.2349720e+00
 -3.8573363e-01
 -2.3366860e-01
 -6.3112444e-01
  6.9465898e-02
 -1.8203567e-01
  4.0254395e-02
  2.9318027e-02
  1.8422247e-01
 -4.3744419e-02
  2.8956754e-03
  5.9198052e-01
  9.2691296e-01
 -3.1523708e-01
 -3.9327986e+00
  1.6892830e+00
  4.4365622e-02
 -2.4057229e-01
  1.8290872e-02
  1.7730209e+00
  1.2364194e-01
 -4.6441406e-01
 -1.1140063e-01
 -4.2225853e-02
  5.4340992e-02
 -1.5543123e-01
 -2.9962534e-02
 -2.5923660e-01
  1.6890056e-02
  2.4408009e-03
 -2.3085827e-01
 -4.9049756e-01
 -7.8022550e-04
 -5.3070478e-02
  2.4047858e-01
 -1.2659892e-01
 -3.6777753e-01
 -1.6478980e-01
 -4.3711525e-01
 -2.1332212e-01
 -1.6699441e-01
 -9.6929736e-02
 -3.9623168e-01
 -1.8290141e-01
 -4.4377968e-01
 -2.4226360e-01
 -1.1470124e-01
 -1.1842377e-01
 -6.8995796e-02
 -5.6817982e-02
 -9.9480800e-02
  8.3927803e-02
  2.3721319e-01
 -1.0849886e-02
  8.7277584e-02
  2.1498147e-02
  3.7328307e-02
 -3.4409266e+00
  2.1623856e-01
  5.3647649e-02
 -6.1171830e-02
  9.0764098e-02
  5.2805483e-02
  4.0548854e-02
  2.5576362e-02
  8.7121978e-02
  6.5398790e-02
 -9.4828326e-01
 -2.1089346e+00
  3.7187314e-01
 -1.1467638e+00
  7.3475760e-01
 -2.4814472e+00
  2.3092363e+00
 -8.9225286e-01
  1.3123594e-01
  6.9924492e-01
 -4.0679932e-01
  5.3371344e-02
 -2.4387383e-01
  2.5147080e-01
 -2.3473424e-01
  3.3917424e-01
 -4.3431830e+00
 -9.4053799e-01
  1.5892261e-01
 -1.2972315e-01
  2.0443881e-01
 -8.8894290e-01
  2.0847350e-01
 -7.7740496e-01
  8.5824203e-01
 -2.7578911e-01
  3.5436729e-01
 -3.2467537e+00
 -1.6595377e-01
 -3.3052382e-01
  2.9268250e-01
 -8.1824976e-01
 -1.2085281e-01
 -2.9378359e+00
 -1.2468629e+00
 -4.6339393e-01
 -7.2257064e-02
 -1.3039857e-01
 -4.4752726e-01
 -3.8963363e-01
 -7.2814912e-02
  7.4370503e-02
  9.5340657e-01
  7.0635295e-01
  1.1153335e-02
 -2.7328056e-01
  1.7878537e-01
 -3.3281259e-03
  1.8059844e-01
  2.8974888e-01
  1.0383053e-01
  2.7979031e-02
 -2.5643015e-01
 -1.7103297e-01
  1.5669587e+00
 -6.2783825e-01
  1.8376935e+00
  2.8075502e+00
 -1.9931930e+00
  3.3648970e+00
  3.1484418e+00
  8.4706545e-01
 -1.0698791e+00
 -1.3738643e+00
 -1.1712481e-01
 -6.8185173e-02
  1.5910658e-01
  1.4213327e-01
  2.2493467e-01
 -2.6756448e-01
 -1.8273288e-01
 -1.5536966e+00
 -7.3498267e-01
 -4.4438159e-01
 -2.0560031e-01
  1.7179571e-01
 -3.3550793e-01
 -5.2354902e-01
  2.6867601e-01
 -1.7120707e-01
  3.8688812e-01
 -3.3823395e-01
 -5.5246955e-01
 -8.5204840e-02
  3.6271267e-02
 -1.5702317e+00
  2.6073295e-01
 -5.7220125e-01
  3.9922234e-01
 -7.4745286e-01
 -2.3862700e-01
 -7.3534256e-01
  3.2022029e-01
 -4.8892912e-01
 -1.2355530e+00
  8.0675924e-01
  2.0604776e-01
 -6.9553155e-01
  7.5876796e-01
  1.8251376e-02
  1.2990136e+00
  2.2937804e-01
  2.1699749e-01
  3.9026204e-03
  1.0705312e+00
  3.7269780e-01
  1.5237883e-01
 -4.1269995e-02
 -5.8220267e-02
  8.7371096e-02
  1.3795552e-01
  8.9940235e-02
  1.5764637e-01
  2.0534033e-01
  1.8375431e-01
  3.3860251e-01
  1.1490048e-02
  1.3322453e-01
  6.0643744e-02
  1.6481036e-01
 -1.1232103e-01
  5.8747720e-02
  2.9084995e-02
  1.9923758e-02
 -5.9645277e-01
 -6.3164540e-02
  2.0277037e-01
  8.7529950e-02
 -5.1737752e-02
 -1.4472088e-01
 -1.1065236e-01
  1.2638010e+00
 -1.6246919e-01
 -9.8432586e-02
  2.0860019e-01
 -1.1747572e-01
  1.3497348e+00
  4.6125829e-02
 -7.2962694e-02
  3.7532557e-02
  9.5471246e-03
 -3.9445624e-02
 -1.3952208e-01
  2.0531866e-01
  7.2855890e-02
  5.4523833e-02
 -6.9296792e-02
  1.1516781e-01
  1.9733657e-01
  7.8652263e-02
 -4.3542206e-02
 -1.2639573e-01
  7.8105554e-02
 -3.3867948e-02
  1.0175832e-01
 -4.4786412e-02
 -1.1960698e-01
 -9.9448770e-02
 -1.1878098e-01
  9.8816288e-01
 -2.5725992e-02
 -6.2810194e-01
 -7.5343543e-01
  1.4634863e+00
