nep4_zbl 2 Te Ge 
zbl 0 0
cutoff 7 7 91 91
n_max 8 8
basis_size 8 8
l_max 4 2 0
ANN 70 0
 -1.9302964e-01
  1.2793514e-01
 -7.5751498e-02
 -2.6033574e-01
 -1.7766064e-01
  1.0994927e-02
  4.0819415e-01
  3.6704306e-02
  3.5928452e-01
 -2.7242204e-02
  1.0999141e-02
 -2.1640757e-01
 -1.5419422e-01
 -9.7242644e-04
 -8.2584836e-02
  7.3209420e-02
 -1.2505336e-01
  2.0898275e-02
 -5.9698664e-02
 -1.2228583e+00
 -2.4215286e+00
  1.2005039e-02
 -5.5404556e-01
 -2.8671417e-02
 -7.0392913e-01
  7.2713770e-02
  8.6696225e-01
 -9.0582453e-02
 -1.8535668e-02
 -1.1075116e+00
  3.3886521e-03
  1.4732456e-01
 -2.8082705e-01
 -2.2534281e-01
 -6.1323449e-02
 -9.4358683e-02
  1.6385730e-01
 -3.8942906e-01
  3.1289732e+00
  7.8126537e-03
 -2.6723149e-01
 -1.2423559e-01
 -1.7617422e-01
 -1.2888941e-01
 -2.9115838e-01
  5.1054608e-02
  6.6185367e-01
  3.1509676e+00
 -5.7115534e-04
 -1.1311645e-01
  4.8106268e-02
  9.0701301e-03
 -8.1443833e-03
  9.0189531e-02
 -1.5005126e+00
  7.5863141e-01
 -3.6844425e-02
 -4.6335778e+00
  7.9495120e-01
 -1.4868093e-01
  2.2226260e+00
 -7.6462483e-01
 -1.8801919e+00
  9.5854580e-01
  1.1464960e-01
  7.3017620e-02
 -4.6451006e-02
 -6.9574587e-02
  7.8293926e-01
  1.4493194e-01
  7.7711040e-01
 -1.5157245e-01
 -4.2461836e-01
 -2.0920031e-01
  3.7221342e-01
 -4.9676952e-01
 -1.7794697e-01
  3.6634851e-01
 -8.4778450e-02
  4.1511846e-01
  1.1689126e-01
  9.3784779e-01
 -8.6503044e-02
  1.0368416e-01
 -1.5854005e-02
 -2.0406026e-01
  3.8791829e-01
 -1.6135502e-01
  1.5394172e-01
  6.4278615e-01
  1.0424185e+00
 -7.3314510e-02
  3.3440235e-01
  2.2788565e-01
 -4.7814593e-01
  8.1086121e-02
 -2.3537622e-01
  7.2257750e-02
  5.5851305e-01
  1.2572553e-03
  3.9106265e-02
 -3.5215091e-02
 -3.3030206e-01
 -3.6774505e-02
  3.7162895e-03
 -4.2028714e-02
 -3.4135506e-02
  3.4785166e-02
  1.5747155e-01
 -8.2219131e-02
 -1.5343343e-01
  5.0559497e-01
 -3.2345328e-02
 -2.7119851e-01
  1.8895338e+00
 -2.0766433e-01
 -1.6223706e-01
 -1.2040405e-01
  1.0322404e+00
 -7.7681273e-02
 -2.9482165e-01
  1.4428173e+00
  2.5868529e-01
  1.4459682e+00
 -1.0525406e-01
 -5.5808298e-02
 -2.0567966e-01
 -1.5263610e+00
  1.7347127e-01
 -8.8510448e-01
  4.1033850e+00
 -1.4059921e-01
 -1.1687518e-01
 -1.0467262e-02
 -3.4374437e-01
  1.8857734e-02
 -9.0057337e-01
  2.1931989e-01
 -7.3729903e-01
  1.2739898e+00
  3.0146939e-01
  2.5385327e+00
 -9.7724840e-02
 -1.9973864e-01
 -7.4256167e-02
 -1.3553636e-01
 -2.6903975e-01
 -9.0713489e-01
  2.1442878e+00
 -3.1805798e-01
  3.6742010e+00
 -5.0192986e-02
 -2.2479096e-01
  9.8080330e-02
  1.9716885e+00
  1.4820149e+00
  7.5653829e-02
  1.1173631e+00
 -1.8876410e-01
 -1.0557475e+00
 -3.7478093e-02
  7.2302143e-03
  2.5882556e+00
  9.1467935e-01
  3.8218635e-01
  3.3976858e+00
 -3.2458100e-02
 -2.0445468e+00
  1.5581388e+00
 -1.0749134e-01
 -7.3858982e-01
  6.9530547e-02
 -2.0810184e+00
  9.1005820e-01
  2.0502944e+00
 -2.5682220e+00
  3.5799921e-01
  2.4016581e+00
  3.6712009e-01
 -1.0115268e-01
  2.8829664e-01
 -6.4107217e-02
  2.5064927e-01
  1.2701598e+00
 -4.9414372e-01
 -1.0804651e+00
  3.4199375e-01
  3.6742947e+00
  1.0517236e+00
  1.1030028e+00
 -1.4821984e+00
  8.5791044e-02
  7.1611124e-01
  1.6705933e+00
 -1.1899375e+00
  4.0549690e-01
 -9.3224540e-02
 -1.4426858e+00
 -1.0689761e-01
  9.6344091e-02
  3.7373381e+00
  1.6446006e-02
 -5.2697229e-01
  4.6771684e+00
  1.6105775e+00
  2.4220873e-01
  3.0341169e-01
 -1.1832729e-01
  5.5151653e-01
 -8.0014771e-01
 -2.5627986e-01
  3.1644943e-01
 -2.7559156e-02
 -1.5916960e+00
 -8.2995206e-02
 -1.3463573e-01
 -5.4262049e-02
  1.3089610e+00
  1.4550891e+00
 -8.8175571e-01
 -1.1924977e+00
  1.1746989e+00
  2.0460597e-01
 -3.6992116e+00
  9.9678499e-01
  5.8179098e-01
 -8.2259953e-02
 -1.7528148e-01
 -1.6838855e+00
  2.3167660e+00
  1.8010020e+00
 -1.3996603e+00
  1.5730591e+00
  4.3476588e-01
 -3.0363229e-01
  2.8826990e+00
 -5.6301135e-01
  1.8315281e-01
 -1.2688687e+00
 -1.5578908e+00
  1.3063725e+00
 -3.6745170e-01
  9.5148194e-01
  7.0382756e-01
 -2.3435403e-01
  9.6800989e-01
 -6.2530237e-01
 -1.1635794e-01
  1.3100054e+00
  1.4602757e+00
  9.7677284e-01
  1.3358702e-01
 -1.4516934e+00
  1.1339798e+00
 -2.7105296e-01
  4.6215191e-01
  1.6266140e+00
  4.3897176e+00
  2.3793979e+00
  3.6943471e+00
  3.5760105e-01
 -1.7060953e-01
  4.8965573e-01
 -4.7669834e-01
 -1.1115292e+00
 -8.4522851e-02
  6.3780892e-01
  1.6140765e+00
 -7.0683622e-01
 -6.0276097e-01
 -4.8192430e-01
 -3.5453671e-01
 -6.5275550e-01
 -8.5902685e-01
  6.2785304e-01
 -5.5506164e-01
 -2.0130386e+00
  1.0274732e-01
 -4.1910350e-01
 -8.0859318e-02
  2.7016094e-01
  1.0108004e-01
 -1.6657637e-01
 -4.7304098e-02
  1.5727140e-02
 -2.3474264e-01
 -2.2568026e-01
  8.8756546e-02
  1.0683753e-01
  1.0107414e+00
 -9.6886259e-01
  1.3978075e+00
  8.8352633e-01
  2.4897881e-01
 -1.1889595e+00
 -9.6397474e-02
  3.1599015e-01
 -7.6456745e-03
 -7.2020367e-02
 -1.8270015e+00
 -4.3746346e-01
  6.8803746e-01
  1.2544616e+00
 -1.3101484e-01
  6.7810670e-02
  1.2584148e-01
 -2.7217138e-01
 -2.7219186e+00
  2.0358939e+00
 -3.9561842e-02
 -3.4071052e-01
  5.4817992e-01
 -4.2071119e-01
 -4.0790150e-01
  2.2429976e-01
  3.3914361e-02
 -4.2124039e-01
  7.5165045e-01
  3.4508239e-02
 -1.8252277e-01
  3.1685464e-02
 -2.7458578e-01
  5.5986971e-02
 -2.9503223e-02
 -1.9714441e+00
 -8.7062472e-01
 -3.6929357e-01
 -1.5705599e+00
 -3.6864586e+00
  2.7523165e+00
 -8.0160427e-01
 -1.9991664e+00
 -5.8706695e-01
  1.7776845e+00
  1.1770579e+00
  1.3347982e+00
  3.4641927e-01
  1.0409765e+00
  1.4575994e+00
 -4.0887734e-01
  5.4526496e-01
 -2.3029516e+00
 -2.3024507e-01
  1.5198054e+00
  1.1865724e-01
 -1.4884099e+00
 -2.2523522e+00
  2.6574285e+00
 -2.7811053e+00
  9.4816226e-01
 -4.9861982e-01
 -1.8454911e-01
 -4.0453893e-01
 -1.3860836e+00
 -7.0389640e-01
 -4.4121518e+00
  4.4309065e-02
  1.2357452e+00
  4.6930118e+00
  8.2576400e-01
 -9.4027065e-02
  3.0345087e+00
 -3.0238490e+00
 -1.9210246e+00
 -1.2509993e+00
 -7.6388627e-01
  5.9914595e-01
  2.1226463e+00
  1.0191147e+00
 -4.2367929e-01
 -1.0673279e-01
 -2.0293422e+00
 -2.8502485e-01
  1.0865605e+00
 -3.9537096e-01
  6.2893593e-01
  2.2499081e-01
 -1.1930543e-01
 -1.1106942e+00
  1.4401092e-01
  4.9209040e-01
  1.7262440e+00
 -1.8797201e-01
 -5.5839044e-01
 -6.0943156e-01
  1.1168532e+00
  2.1238852e+00
 -1.0696622e-01
 -2.8322667e-01
  6.0921185e-02
  1.0925936e-01
 -6.3319087e-02
 -3.7986225e-01
 -4.1915852e-01
 -2.7054304e-01
  1.3507409e-01
  2.6510915e-01
 -6.0985929e-01
 -1.0686715e-01
 -2.0824191e-01
  2.6344994e-01
 -8.8090710e-02
 -8.0400711e-01
 -2.7338091e-01
 -6.1685246e-01
 -3.2859811e-01
 -4.7675282e-02
  3.3882800e-01
 -3.7023690e-02
  1.3973193e-01
 -2.0010923e-01
  1.9994462e-01
 -5.2383280e-01
 -4.2006966e-01
 -6.3292146e-01
 -1.9775844e-01
 -2.9446396e-01
  5.8049411e-01
  1.2625654e-01
 -2.3627904e-01
  1.1063983e-01
  2.0131339e-01
 -5.9185982e-01
 -4.0662400e-02
 -6.7952648e-02
 -1.6968819e-01
  2.0078059e-02
  2.3106685e-02
  1.8771169e-03
  3.9445046e-01
  2.9440967e-02
 -5.2144169e-04
  4.2404047e-01
 -5.5821091e-03
  3.0132750e-01
  9.7348034e-02
  7.1336746e-01
  5.6576591e-02
 -1.3616202e+00
  1.8349545e-01
  9.0620331e-02
  1.5117159e-01
 -1.8171810e-01
  5.1872235e-02
  1.1316480e-01
 -1.4644604e-02
 -3.2541893e-02
 -1.6233860e-01
  7.9209976e-02
 -1.1783260e-01
 -1.7447633e-01
 -8.6552270e-02
 -2.4567295e-02
 -9.4433732e-02
  9.4247818e-02
 -2.8858131e-01
 -3.3261353e-01
 -1.0449870e-01
 -1.0428938e-01
  2.1606658e-03
 -1.1466748e-01
  9.4129913e-02
 -6.1269090e-02
 -6.3653462e-02
 -1.1419719e-01
 -2.3271576e-01
 -7.4523292e-02
 -4.1803014e-02
  1.7885217e-01
 -2.2492185e-01
  1.9750738e-01
 -6.2636863e-03
  2.9748341e-02
 -1.9971824e-01
 -6.1666902e-02
  1.6281800e-01
 -1.3846475e-01
 -2.5780298e-02
  3.3197414e-02
 -1.2775616e-01
 -2.1858893e-02
 -3.1085888e-02
 -7.1548879e-02
  1.9237894e-01
  2.2875451e-02
  3.7304565e-02
 -4.3078929e-01
  1.0439641e+00
 -2.8064024e+00
  1.5634710e-01
 -2.6536953e+00
  4.2490749e+00
 -2.0053494e+00
 -5.3509128e-01
  2.3265476e+00
 -6.9351041e-01
  1.8621348e+00
  2.4801190e-01
  7.6799566e-01
 -7.4085891e-01
 -5.5084026e-01
 -1.3442675e+00
 -7.9223758e-01
 -5.2007578e-02
  9.4437194e-01
  8.5467124e-01
  2.7197117e-01
 -2.3124158e+00
  1.3696268e+00
  8.8438332e-01
  1.1599605e+00
  8.2184029e-01
 -5.7125849e-01
  5.1302558e-01
  4.1263351e+00
 -1.4395653e+00
 -4.4539207e-01
  1.1908414e+00
 -1.0915353e-02
  1.1819364e+00
  8.6388506e-02
 -3.4168193e-01
  1.0420692e+00
  1.0508467e+00
  3.1938285e-01
  8.4245190e-02
 -3.5557578e+00
 -3.3192772e-01
 -8.5629307e-02
 -7.9567623e-01
  9.7589441e-02
  9.6193887e-02
  2.8339341e+00
  3.9709908e-01
 -5.6840193e-01
  8.4833407e-01
  2.2783600e-01
  3.1131480e+00
  1.3245548e-01
 -2.7237946e-01
 -1.5390786e+00
 -5.9269291e-01
 -8.8655013e-01
  6.0372078e-01
 -3.2758328e-01
 -4.4045186e-01
 -6.6848075e-01
  2.0198455e+00
  1.9812025e+00
  1.0122262e+00
 -2.3460891e+00
  3.1788239e-01
  5.9059316e-01
  7.4392003e-01
 -6.7636991e-01
 -1.2429357e+00
  4.0704426e-01
 -1.2908432e+00
 -2.1163604e+00
 -5.9177619e-01
  1.0069426e+00
 -1.2517729e+00
  2.2709095e+00
 -1.5730311e+00
 -1.4386487e+00
 -1.4957458e+00
  1.0512723e+00
 -7.4984533e-01
 -1.7858777e+00
  7.7204569e-03
  8.8878506e-01
 -1.6889272e+00
 -2.6885685e-01
  1.4482752e+00
 -9.6988988e-01
 -2.0988901e-01
 -2.0312417e-01
  4.0495279e-01
  3.2378800e-02
 -1.5099455e-01
 -1.4148594e+00
 -8.9394033e-01
  2.5714228e+00
 -5.2822244e-01
  9.6753669e-01
 -4.7594807e-01
  8.3747798e-01
  1.1694767e-01
 -4.0306035e-01
  1.1602914e-01
 -3.0296313e-02
  1.1270088e+00
  3.0483684e-01
  3.1048724e-01
 -1.0317608e+00
 -1.1727870e-02
  2.6857078e-01
  2.8990442e-02
 -1.2107648e+00
  2.1378634e+00
 -4.2750403e-01
  1.3582587e-01
  3.8704734e-02
  2.1715842e-02
 -2.6466897e-01
  1.1284421e-01
  9.6170232e-02
 -4.0101353e-02
 -7.7820264e-02
 -1.9049668e-01
  1.6351889e-01
  4.9939971e-02
 -5.3002393e-01
 -2.2941537e-01
 -2.3105583e-01
 -2.0695092e-01
  1.2971537e-01
 -1.8977717e-01
 -1.9108090e-01
  8.7402025e-03
 -2.1525204e-02
  1.4665194e-01
 -2.9996229e-02
  9.2893936e-02
 -6.7226784e-03
  9.0418883e-02
 -1.6954301e-01
 -8.3669044e-02
 -4.0146455e-02
 -1.3314627e-01
 -8.5829586e-01
 -1.5850340e-01
  2.7997343e-02
  1.4393279e-01
 -6.2506095e-02
 -1.5180913e-01
 -1.4911436e-01
  6.3223958e-01
  3.9736465e-02
 -1.5658006e-02
  4.8124753e-02
 -1.2518869e-01
  3.8665205e-02
  4.8118334e-02
 -1.9512575e-02
  1.4274465e-01
  3.2476760e-02
 -5.0285071e-02
  1.3307159e+00
  2.6865903e-01
  9.0193534e-01
 -4.5751819e-01
 -3.5732704e-01
  4.6944685e-02
  2.1283829e+00
  1.0730397e+00
  5.9653509e-01
 -8.0354458e-01
 -1.6735482e-01
  1.7447127e-02
  3.2281524e-01
  1.3910736e-01
 -9.0139925e-01
 -2.8905556e-01
 -6.3461977e-01
  4.0326667e-01
 -1.0690113e-02
  1.9203997e-01
 -4.0366432e-01
 -4.4720402e-01
  8.5649073e-02
 -1.1479173e+00
 -4.5828226e-01
 -5.9311175e-01
 -6.0491395e-01
 -7.8376478e-01
  5.6934243e-01
  3.7936842e-01
  1.7063644e-02
  4.0773967e-01
 -4.8618898e-01
  3.5843498e-01
 -1.4185424e+00
 -5.3547484e-01
  6.7272395e-01
  1.2935722e-01
 -5.8259153e-01
  3.5670039e-01
  1.1347021e-01
 -1.7317218e-01
  5.5585402e-01
  8.3010578e-01
  5.4620302e-01
  2.0958970e-01
  2.5670424e-01
 -2.5303730e-01
  9.4492033e-02
  7.7937342e-02
 -3.0579600e-01
  4.5100483e-01
 -2.1802943e-02
  7.9070941e-02
  1.3523904e+00
 -8.8111319e-02
 -1.2707084e-01
  1.1142809e+00
 -1.0010505e+00
  8.5935563e-01
 -2.3409450e+00
 -2.1920782e-01
 -8.2393456e-01
  6.8666406e-02
  1.1677743e-02
  2.1978455e+00
  5.9745356e-02
  3.5701279e-02
  5.2369695e-02
  1.4987218e-01
 -5.1017456e-02
  1.4868107e-01
  8.2686104e-02
  3.4236550e-02
 -4.0805497e+00
  1.1846448e-01
  3.7440002e-02
  2.4716006e-01
  3.6285430e-01
 -6.6192949e-01
  1.0128722e-01
  1.9913888e-02
 -1.4840879e-01
  5.1652644e-02
  1.0315370e-01
  4.6271808e-02
  1.3567816e+00
  1.0855816e-01
 -2.4009860e-01
 -4.9866155e-02
 -4.5140633e-01
  5.0276035e-01
 -1.4406004e+00
 -1.9069864e-01
  3.5323266e-02
  4.4378530e-02
  2.7547079e-01
 -2.1630225e-01
 -1.3685887e-01
  3.9156871e-03
 -5.6805756e-02
  2.6805384e+00
 -2.1038911e+00
 -5.1602498e-02
 -2.4486796e-03
 -2.0158818e-01
 -5.0902467e-02
  2.2982685e-02
 -4.3900218e-02
 -9.7608931e-02
 -3.1388438e-01
  4.2976564e-01
  5.2644020e-01
  2.8569493e-01
  1.2819979e-01
 -7.0160404e-02
  5.6966031e-03
 -6.1796658e-02
  6.4987160e-02
 -6.9280393e-02
 -1.2072106e-01
  3.7426795e-03
  4.4366129e-02
  1.8000336e-01
 -8.6912207e-02
 -2.8358749e-03
  6.9122635e-02
  2.3450920e-01
  6.4206980e-03
  1.4371911e-01
 -1.3719921e-01
  1.7973685e-01
  1.6679296e-01
 -1.1150194e-02
  1.3618816e-01
  4.5896050e-01
 -4.1604653e-02
 -8.7520599e-02
 -2.8131302e-03
 -2.2145777e-03
  3.1487159e-02
  1.1455661e-01
  7.4202247e-02
  4.6066917e-02
 -1.9552175e-02
  1.5554504e-01
 -3.9096442e-01
 -4.5775035e-03
 -8.2455538e-02
  1.0261551e-01
  3.5343178e-02
 -6.0072251e-02
  6.8397313e-02
  2.8490398e-02
  3.0341970e-02
  9.8717853e-02
 -1.3467373e-02
 -1.5918838e-02
  4.9669050e-02
 -1.5279686e-01
 -1.4939938e-02
  3.2147847e-02
 -6.9177809e+00
  3.1815786e+00
  1.5173206e-01
 -1.0082202e+01
  5.5243429e-03
 -6.2235403e+00
 -2.4916229e+00
  3.0768567e-01
 -8.8572067e-01
  4.6955082e-01
  1.6040076e+00
  3.6548483e+00
  4.2839217e-01
  3.3584225e+00
  6.2680173e-01
 -9.1621870e-01
  2.7620733e-01
 -1.1922288e-01
 -1.0036474e-01
  3.0457222e+00
 -3.7828895e-01
  5.2757639e-01
  2.0099833e+00
 -1.1077297e+00
 -1.1316171e+00
 -1.6239027e-02
 -7.2394025e-01
  1.5520132e-01
  1.1060828e+00
  3.3137536e-01
  4.3655047e-01
 -4.0000385e-01
 -1.0089796e+00
 -9.1694939e-01
 -1.5828933e+00
 -5.9966791e-01
  9.4264972e-01
 -2.7096856e+00
 -4.3477373e+00
  1.0240846e+00
 -1.1881615e+00
  7.8311706e-01
  7.3414731e-01
  2.3520613e+00
 -1.3882099e-01
 -9.1841221e-02
  2.4562508e-02
 -1.3926567e+00
 -1.3549958e-01
 -5.8204353e-01
  3.8552582e-02
 -8.2476175e-01
 -7.9978704e-02
 -4.5556303e-02
 -8.0438811e-01
 -3.4793723e-01
 -1.1611456e+00
  9.7194541e-01
  1.0663372e+00
 -1.0327829e+00
 -2.1533391e+00
 -1.7147848e-01
 -1.5235769e+00
 -3.7713878e-02
 -2.0073219e-01
  1.2144190e+00
  5.4325089e-02
 -1.7019835e-01
 -4.1608721e-01
  1.6124852e-01
 -3.8604584e-02
 -4.3902451e-01
 -6.9466280e-03
  1.6233450e+00
  2.4371734e+00
 -1.0414764e+00
  1.0356716e+00
  5.0390649e-01
  1.5252203e+00
  7.4872136e-01
 -1.0175734e-01
 -4.6754813e-01
  7.8823680e-01
  4.0296075e-01
 -1.6896932e-01
  2.4184020e-02
  4.2606157e-01
  1.0059308e+00
  6.2668502e-01
  6.8592143e-01
 -1.7293575e+00
  1.3942306e+00
  1.4133710e-01
 -5.9897023e-01
 -3.9066109e-03
 -4.8510209e-01
  1.1054410e+00
  2.1909099e+00
  1.4760183e+00
 -6.6146194e-03
 -1.8754882e+00
 -1.3780104e+00
 -2.2741571e-02
  2.9127842e-01
 -3.4208974e-01
 -4.1352466e-01
 -6.0239684e-02
  1.3000713e-01
  1.9949581e-01
 -2.0822482e-01
  8.0366230e-01
 -1.1831353e+00
 -4.9794513e-01
  9.2580581e-01
  2.7162018e-01
  2.3031075e+00
  2.0803531e-01
 -1.2310583e-01
 -1.0703479e+00
 -2.0237954e+00
 -4.7905460e-01
 -9.2701174e-02
 -1.4438184e-01
 -4.0334395e-01
 -8.9053321e-01
 -1.3051395e-01
  1.2574582e-01
 -2.1445730e-01
 -3.8179822e+00
 -1.1196595e+00
  3.2836899e-01
 -3.9669749e-01
 -3.7048954e-01
 -3.0160635e+00
 -2.3875369e-01
 -6.4860702e-02
 -3.0162582e+00
 -3.8500023e+00
 -9.5792347e-01
 -4.0966058e-01
 -1.9496566e-01
 -1.3310745e-01
 -5.1383841e-01
 -2.4220347e-01
  4.7278380e-01
 -9.9447131e-01
 -1.5749550e+00
 -4.0457678e-01
 -3.6656377e-01
  5.6018863e-02
  1.4677585e+00
  8.1445441e-02
 -4.8053050e-01
 -7.5902618e-02
  1.4910451e-01
  4.8978343e+00
  3.1112060e-01
  7.5893164e-02
  3.8686644e-03
 -4.5541558e-01
  8.4578618e-02
  1.4752430e-02
  1.3401611e+00
  4.4765314e-01
  1.2158177e-01
 -1.5706592e+00
 -2.1442069e-01
  8.1976962e-01
  1.0475531e+00
  3.8812718e+00
  7.2733194e-01
 -1.9486794e-01
 -3.2237639e+00
  2.9894555e+00
 -2.5080204e+00
 -6.5946245e-01
  2.0576932e+00
 -2.4746351e+00
 -6.4121103e-01
  1.6318969e+00
  1.5205613e+00
 -2.3576076e+00
  5.1127853e+00
  9.4663918e-02
 -1.4804928e+00
 -4.4037414e-01
 -2.8869706e-01
 -6.6849333e-01
  3.6312175e-01
  6.6062361e-01
 -2.3326435e+00
 -5.1956356e-01
 -6.5444458e-01
  4.4049234e+00
 -3.8648617e+00
 -3.2705114e+00
 -7.7171379e-01
  9.0918046e-01
  1.2353147e+00
 -6.7197275e-01
  3.5814435e+00
  6.0847318e-01
  2.5717437e+00
  2.4187596e+00
 -1.0531152e+00
 -1.4826030e+00
  9.8359352e-01
 -9.1428262e-01
 -8.6294854e-01
 -3.2273252e+00
 -2.0761982e-01
 -2.4573720e+00
 -1.0805583e+00
 -9.4703066e-01
 -7.7797467e-01
 -3.1182009e-01
  2.2527390e+00
 -8.3134202e-03
  9.5410633e-01
 -1.8645406e+00
  1.2048006e+00
 -6.5113115e-01
 -6.6376716e-01
  1.5608746e+00
  8.7493867e-01
 -4.0030664e-01
 -2.7902588e-01
  2.7017021e+00
 -1.6457853e-01
  2.7779041e-02
 -5.3207374e-01
 -8.9457154e-02
 -2.0353687e-01
  1.5232512e-01
 -3.7819448e-01
 -3.4747572e+00
  4.4700751e+00
 -4.0305507e-01
  4.2192581e-01
 -3.1094712e-01
  9.6502006e-01
 -1.9449065e+00
 -7.7945150e-02
 -6.1961716e-01
 -7.0989597e-01
  2.8863528e+00
 -5.6606406e-01
  2.2093010e-01
  8.1082962e-02
 -6.0889828e-01
  5.6397969e-01
 -9.4642281e-04
  4.2045462e-01
  1.3828918e-01
  1.0353782e+00
  6.5263368e-02
  6.4336240e-01
 -3.4029961e-01
 -1.8743052e-01
 -4.2096651e-01
 -1.9073375e-01
  1.4096910e-01
  9.3948759e-02
 -6.7977870e-01
  1.6925544e-01
 -4.8101470e-02
 -3.5416450e-02
  2.5494587e-01
  1.0850716e-01
  3.8589463e-02
 -1.6467350e+00
  6.7909741e-01
  1.8443692e+00
 -1.4155053e+00
 -3.9152601e-01
  6.0870254e-01
  8.7507582e-01
 -1.1808608e+00
  1.4121677e+00
 -5.0848655e-02
 -6.2138778e-01
  2.1794310e+00
  2.5276792e-01
  1.1545043e-01
 -3.9914176e-01
 -4.3022126e-01
  2.8645840e-01
 -9.8602527e-01
 -1.0382642e-01
 -5.8593452e-01
  3.5513133e-01
  1.0097066e-01
 -6.3975096e-02
  1.5915561e+00
  4.5192963e-01
  8.2962716e-01
  9.0128183e-01
  3.5962230e-01
 -2.8079488e+00
  1.6404963e+00
  5.3657901e-01
  9.6555091e-02
 -3.8825020e-01
 -9.5860475e-01
 -4.7701716e-01
  1.6958317e-01
  4.2062152e-02
  1.0254574e+00
  2.5401621e+00
  7.4738418e-03
  6.0779344e-02
 -1.7758900e-01
 -1.4776940e+00
 -2.3611261e-01
  2.3179437e-01
 -1.1722248e-02
  2.7298281e-01
 -5.7624454e+00
  8.5035972e-02
 -3.4340464e-02
 -9.1047101e-02
  1.5007779e-01
 -2.3712106e-02
  4.8372251e-04
  1.3137368e+00
 -4.6946409e-01
  9.6176684e-02
  3.4445903e+00
 -1.0122321e-01
  2.0264685e-01
  1.0638504e+00
  7.8609012e-02
  1.8976681e+00
 -7.7844572e-01
  3.1875882e-01
 -4.1459560e-01
 -4.0503073e-01
 -1.2746850e-01
 -2.5380656e-02
  3.1800425e-01
 -4.5396727e-01
  4.9615198e-01
  1.6113654e-01
  1.2000921e+00
  2.3177135e-01
  1.4502460e+00
 -1.4025273e+00
  2.6548663e-01
 -2.2508314e+00
 -9.8816149e-02
  3.2382765e-01
  4.9761841e-01
  6.9262230e-01
 -7.3325247e-01
  2.4961470e-01
  1.0544389e+00
 -3.1337291e-02
  9.0618849e-01
  1.6166376e-01
 -2.0966640e-01
  9.3339783e-01
 -1.7586334e-01
  3.0209410e-01
  6.9780374e-01
 -8.3669312e-02
  8.1452662e-01
  1.0496299e+00
 -6.1131507e-01
  5.0056642e-01
  2.5689229e-01
 -1.7032397e-01
  4.3151158e-01
  1.8259914e-01
  1.4950264e+00
  2.5509089e-01
 -5.1219273e-01
 -5.7684235e-02
 -4.3881283e-04
  5.1326984e-01
  2.1821254e-01
  3.5746910e-02
  8.7012315e-01
 -4.4381025e-01
  1.9897093e+00
  2.8324406e+00
 -4.0814653e-01
  9.2499250e-01
  5.5752888e-02
  8.0032176e-01
 -2.4466281e+00
  8.3696783e-01
 -2.8913659e-01
  6.7208655e-02
  2.1602800e-01
  1.2476843e-01
  2.7447215e-01
  5.2865386e-02
  9.3488944e-01
  1.7810811e+00
  1.9149674e+00
 -1.5864850e+00
  7.4046515e-02
  6.1221904e-01
 -7.8440487e-02
  6.8105298e-01
  2.3594677e-01
  9.5081860e-01
  5.5380887e-01
  1.5220256e+00
  3.9449759e-02
  1.6473433e-02
 -4.8331016e-01
  6.7213207e-01
  5.3157127e-01
 -3.0667981e-02
  3.6923447e+00
  3.8716593e+00
  1.6117371e+00
 -3.3527726e-01
  6.5930389e-02
 -2.3487897e+00
  6.0238231e-02
  4.5987916e-01
 -2.9377492e-02
  2.1871939e-01
 -4.2784376e+00
 -6.7156082e-01
 -3.3213228e-01
 -2.4727637e-02
  2.0696934e-01
  9.5291376e-02
  5.8382291e-02
 -3.2769737e+00
 -1.7007471e+00
 -7.5360799e-01
 -7.1071202e-01
 -1.7062026e-01
 -1.9445336e+00
  1.8971739e+00
 -2.1115406e+00
 -3.1727037e+00
  2.2574112e-02
 -5.6232381e-01
 -1.9231503e-01
  9.0889230e-02
 -7.2898410e-02
 -1.1699206e+00
 -6.0591286e-01
 -7.1200058e-02
 -2.4042973e-01
 -9.3127829e-01
 -1.0459421e+00
 -1.6390828e+00
 -2.2109866e+00
 -5.2669072e-01
 -1.3566129e+00
 -1.5356951e+00
 -4.2606929e-01
 -8.1164372e-01
 -7.6126575e-01
  2.2668949e-01
 -9.6989995e-01
  5.0723499e-01
  4.3431675e-01
 -1.3647622e+00
 -8.8785535e-01
 -1.5293851e-01
 -8.4249616e-01
 -1.1104480e+00
 -9.5800626e-01
 -6.8094182e-01
 -3.6791276e-02
  3.4949416e-01
 -1.0015515e+00
 -1.7102339e+00
  1.7953759e+00
  8.6983794e-01
  3.2028663e-01
  2.4229628e-01
 -8.5206166e-02
 -1.3416041e-01
 -2.2410020e-01
 -1.3459229e-01
  4.8070332e-01
  2.3031142e-01
 -1.2085713e-01
 -1.5881776e+00
  5.5189455e-01
 -1.3186593e+00
  1.6459208e+00
  4.0159545e+00
 -1.4319307e+00
  6.4130193e-01
 -1.2016292e-01
 -2.0558381e+00
  1.0557846e-01
  4.6614414e-01
 -1.3579395e-01
 -1.5175864e-01
  1.1846498e-01
  1.3503673e-02
  1.2506790e+00
  1.6701864e-01
  3.4649497e-01
  1.9910876e-02
 -5.4523200e-01
  4.2678827e-01
 -5.6298816e-01
 -1.0328594e+00
  6.7562729e-02
 -4.8039129e-01
 -3.4469733e-01
  9.5817804e-01
 -1.4591295e-01
 -3.9965216e-02
 -6.4827085e-01
  9.1004169e-01
  7.7385950e-01
 -6.8937969e-01
  2.4786248e+00
  4.3861157e-01
 -1.4228775e-01
  3.6659461e-01
  1.4456466e+00
 -6.3105190e-01
 -8.1141210e-01
 -1.7989289e+00
  2.4644162e-01
  1.1648771e+00
 -2.4021754e+00
 -2.7109690e-02
  1.0986291e-01
  2.9685020e-01
  6.0199660e-01
  7.2763801e-02
  9.5622011e-02
  1.1601407e-01
 -1.3603619e+00
  4.0650886e-02
  1.7418785e-01
  1.1252003e+00
  1.5145794e+00
  1.3586323e+00
 -3.8096104e+00
 -2.5194147e+00
  8.8049477e-01
  2.3443043e+00
  1.0065832e+00
  2.1111479e+00
  3.3798113e-01
 -2.0418124e+00
  6.1299092e-01
  3.5179156e-01
  3.9875661e-03
 -4.6994615e-01
 -2.6598282e+00
 -8.0442235e-02
 -3.3144554e-01
 -1.6466153e-01
  2.1023843e+00
 -8.9403266e-01
  5.2076340e-01
  4.2606018e-02
 -2.8492603e+00
  3.8755312e+00
  7.6317018e-01
 -1.5313361e+00
 -1.7905027e-02
  1.8157342e-01
  2.0212371e+00
 -2.5716782e-01
  5.6268758e-01
  4.9477530e-01
 -2.1970093e+00
  4.7951189e-01
  6.7355496e-01
 -8.7625241e-01
 -2.2031150e+00
 -5.7984555e-01
 -3.4041148e-01
 -4.2809853e-03
 -7.5175089e-01
 -2.8356020e+00
  1.3904586e+00
 -3.7491894e-01
  6.5920437e-03
  9.2698890e-01
 -3.0504465e-01
 -1.6426782e-01
 -2.2097479e-01
  9.4953097e-02
  2.0293403e+00
  1.4512132e-01
 -1.7623077e-01
  1.6609231e+00
  8.3521917e-02
 -3.7223119e-01
  7.2395620e-03
 -4.7610956e-04
 -3.8897336e-02
  1.6240414e+00
  3.5187247e+00
  3.8566779e-02
  8.2560442e-02
  9.4730318e-01
  5.9594673e-01
  1.3640930e-02
 -2.3715086e-02
 -6.5069154e-02
 -1.1969897e-01
 -1.0846000e+00
 -7.4495420e-02
 -7.3457859e-02
 -2.0853405e+00
  4.3629541e+00
 -4.7780182e-02
  1.4845532e+00
 -5.6486864e-02
 -8.0475830e-02
 -1.6488378e+00
 -7.0794933e-02
  3.9463524e-02
  7.8535914e-01
  1.9851042e+00
  5.6273624e-02
 -1.7793588e-02
 -5.5174217e-02
 -4.1254062e-02
 -2.0057124e-01
 -1.8937400e-02
  1.9896500e-01
 -6.5718699e-01
 -2.4546564e+00
 -4.8372414e-02
  2.1970997e-02
 -4.1333105e-02
  5.0351147e-02
  1.7952726e+00
 -6.4093389e-02
 -3.8690263e-01
 -1.2677648e+00
 -6.2434945e+00
 -3.5297312e-02
 -1.4686024e-02
 -1.8298661e-02
  6.0545240e-02
 -3.9835370e-01
 -8.2136281e-03
 -6.1086506e-01
  1.4006460e+00
 -2.9758604e+00
  4.1473675e-01
  1.9513218e+00
  1.1372056e+00
 -2.5723665e+00
  7.0691162e-01
 -1.0212488e+00
 -3.8501096e-01
 -1.3952801e-01
 -7.0411682e-01
 -1.9503640e-01
  9.7758375e-02
  1.2311204e-01
  8.2916185e-02
 -1.4308782e+00
  4.1391596e-01
  5.1545125e-01
 -4.4410508e-02
  6.8272114e-01
  4.3029276e-01
 -2.4161335e-02
  7.1659756e-01
 -1.6183732e+00
 -2.6530313e+00
  4.8876846e-01
  8.0588323e-01
  4.3647757e-01
 -3.5344372e+00
 -5.7871246e-01
  3.9722747e-01
  4.9250308e-01
  2.3954906e+00
 -6.4492142e-01
  3.4947485e-01
 -1.1447295e+00
 -8.8304734e-01
 -2.3768699e+00
 -9.9115074e-01
  8.9763865e-02
  4.1710460e-01
  4.1618156e+00
 -6.7323041e-01
  1.0241693e+00
  2.9558054e-01
 -1.9997494e-01
  1.6076100e-01
  2.8555804e-01
  4.8928313e-02
  8.9582182e-02
 -2.6148185e-01
 -5.1152661e-02
 -2.0450106e-01
  1.9270290e+00
 -2.6044390e+00
 -9.0223080e-01
  6.8919218e-01
  6.5957689e-01
  1.3887304e-01
  1.2027619e+00
  5.8167386e-01
 -9.7892594e-01
  4.3272746e-01
 -1.5626724e+00
  6.3370824e-02
 -3.4309888e+00
  1.0349872e-02
  4.1444883e-01
 -5.4370928e+00
 -2.5468728e-01
 -3.7789458e-01
  3.7251779e-01
  2.5948439e+00
 -1.9105465e+00
  1.2006153e+00
  3.1225301e-02
 -2.2461948e+00
 -9.5135152e-01
 -2.2556531e+00
 -1.1125398e+00
  5.5180635e-02
 -5.2009330e+00
  1.5150330e+00
  9.8362339e-01
 -1.4701405e+00
 -7.1233034e-01
 -1.0181576e+00
 -2.0565062e+00
 -1.5543243e+00
  2.3000598e-01
 -5.4102689e-02
 -2.3712108e+00
  8.5777843e-01
 -7.6691329e-02
  2.7712879e-01
  2.4107845e+00
 -8.1584579e-01
 -2.0285370e+00
 -1.0608667e+00
  6.9321114e-01
 -4.6180043e+00
 -2.2930337e-01
  1.1280426e+00
 -2.4825247e-01
 -4.6758902e-01
  5.4078692e-01
  1.4167447e-03
 -1.9925945e-01
 -2.5879793e+00
  8.2916611e-01
  2.0914712e+00
  3.1193960e-02
 -3.9258966e+00
 -5.8545627e-02
  7.1628815e-01
 -3.2627578e+00
  4.1056994e-01
 -4.3669069e-01
  1.7115593e+00
  8.0189335e-01
  8.9140230e-01
  2.9293041e+00
  6.7107581e-02
  2.3311542e-01
 -6.6399038e-01
 -2.4727311e+00
  1.3694038e+00
 -6.0307884e-01
 -1.4628141e-01
  1.7700509e+00
  7.4277425e-01
 -1.7265584e+00
 -8.2965329e-02
 -4.3245161e-01
  7.4260187e-01
 -4.6788197e+00
 -7.3656178e-01
  5.6790358e-01
  3.5057921e+00
 -3.3098966e-01
  5.6104654e-01
 -1.3695633e-01
  1.9965751e-01
  1.4893901e+00
  9.2658001e-01
  2.7965157e+00
  3.8847479e-01
  1.3185936e+00
  1.4986964e+00
 -1.7568756e+00
 -5.1409289e-02
 -6.1719751e-01
 -2.6858455e-01
  1.8175020e+00
 -9.4576496e-01
  4.8164335e-01
 -2.1054843e-01
  8.6831696e-02
  3.2727101e+00
  2.1619955e-01
 -2.0499276e-01
 -5.3113252e-01
 -8.6376011e-01
 -2.1587612e-02
  2.7873366e+00
 -1.4184765e+00
 -1.1667371e-01
 -1.5696700e+00
 -1.9767585e-01
 -1.9561259e-01
 -1.6626361e-01
  5.2874124e-01
  5.6699142e-02
 -7.7721506e-02
  4.7498930e-02
  3.0934095e-01
  4.3030918e-01
 -1.7829864e-01
  7.8048967e-02
  7.6116180e-01
  9.3530810e-01
  1.0915891e+00
  2.3174649e-01
  8.2902886e-02
  6.9494528e-01
  1.0884831e+00
  1.7033973e-01
 -5.3017642e-02
 -2.5403810e-01
  3.5940656e-01
  4.1017658e-01
  1.3225725e-01
 -2.5375882e-01
  6.4699417e-01
  6.8759865e-01
  1.9247706e-01
  2.2115496e-01
 -5.5508387e-01
  8.4998310e-01
  3.5130200e-01
  9.9609345e-01
 -3.1113380e-01
  2.2725640e-01
  9.4395787e-01
  3.5741892e-01
 -1.0833114e+00
 -7.0494972e-02
 -9.3947567e-02
  5.2798279e-02
  3.7006497e-02
  2.0213621e-03
  3.4017056e-02
 -4.3961111e-01
 -3.1595565e-02
 -1.0555277e-01
 -3.0845933e+00
 -4.1779792e-01
 -3.4954816e-01
 -7.2361284e-01
  7.2256780e-01
  4.1933846e-02
  1.3528413e+00
 -6.3175213e-01
  1.5107667e-01
 -4.9410647e-01
  2.0100515e-01
  2.6585128e+00
 -5.1767755e-01
 -1.3038166e-01
  1.2791857e-01
  1.0564370e-01
 -4.5574331e-01
  1.7045881e-01
  6.6437417e-01
 -3.6574471e-01
 -2.2332962e+00
 -8.5902549e-03
 -9.6463174e-01
 -1.6612537e-01
  4.9965444e-01
 -1.1127272e-01
  2.0004170e-01
 -1.0368253e-01
 -1.2856099e-01
 -3.2536340e+00
 -3.0053523e-01
  3.7820494e-01
  1.0446023e-02
  1.6675439e+00
 -1.5496942e-01
  2.8919926e-01
  5.8407468e-01
  3.0429897e-01
 -5.8097619e-01
  2.1976238e-01
 -3.7726864e-01
  2.1123145e-02
  9.4840425e-01
  1.9103640e-01
  3.9988077e-01
  2.5878703e-02
 -1.2277979e+00
  1.8470602e+00
  3.2216391e-01
  7.6397650e-02
  2.4026094e-02
 -9.8949915e-01
 -1.1588311e-01
  3.0325435e-02
 -1.9733384e+00
 -1.1485963e+00
 -1.7724174e+00
  1.4664690e+00
 -1.2867366e+00
  1.4211478e+00
 -1.3765727e+00
 -1.1945409e+00
 -4.2428190e-01
 -1.0175599e-01
  6.5455997e-01
  8.3990258e-01
 -5.3635359e-01
  2.1566221e-01
  4.0953094e-01
  1.8031451e+00
  4.4770740e-02
  1.6064467e+00
  6.6832513e-02
  2.0158160e-01
  8.7657702e-01
  4.1767424e-01
  5.5152811e-02
  1.4057025e+00
  2.8364601e+00
 -2.7645991e+00
 -5.9822664e+00
 -1.8633744e+00
 -3.0828735e-01
 -4.0610084e-01
  1.8313435e+00
  6.6781884e-01
  1.6055326e-01
  9.6021223e-01
  6.2512916e-01
 -8.3604825e-01
  2.7225101e-01
  2.0380995e+00
 -1.7702872e+00
 -3.8244614e-01
  1.1729302e+00
 -8.4961534e-02
 -6.1123800e-01
 -3.9049928e+00
  8.1752670e-01
 -2.2476687e-01
  3.1953862e-01
  2.7410826e-01
  9.6329279e-02
  8.7481014e-02
 -8.1815608e-02
 -8.5733426e-01
 -1.6408654e-02
  3.5537046e-01
  1.0978739e-01
 -2.3655684e+00
 -1.5235511e+00
  4.6937755e-01
  2.0339026e+00
 -3.2465076e+00
 -3.1376538e-01
 -1.5065241e-01
 -8.1998438e-01
 -5.9692308e-02
  7.9634070e-01
  4.3267995e-02
  7.0547003e-01
  5.3368597e-03
  4.1179103e-01
 -1.0950170e-01
  6.2327478e-03
  8.5270345e-02
  7.1438622e-01
  5.6210179e-02
  1.0915549e+00
 -5.8638252e-02
 -9.0095043e-01
  5.3026944e-01
 -4.8644638e-01
  3.4396204e-01
  4.5897260e+00
 -1.6050431e+00
 -2.1462202e-01
  7.3983580e-01
  1.3446847e-01
 -1.0968170e-02
  4.1402057e-01
  1.5158627e+00
 -4.6139821e-01
 -5.9413258e-02
  3.6718023e-01
  1.4903690e+00
  4.0452972e-01
  6.2635489e-02
 -4.0374354e-01
  4.6627250e-01
  1.1152349e+00
  5.3021723e-01
 -1.7855710e+00
  3.5928879e-02
 -1.9829629e-01
  4.0320656e-01
 -5.5982541e-02
 -2.3162325e-01
  1.3388654e-02
 -4.0904984e-01
 -1.5184478e+00
  1.2527305e-01
 -2.8713509e-01
 -7.4482873e-02
 -2.8273660e-01
  2.1685329e-01
 -2.0528179e-01
  8.9597082e-01
  1.2351593e-01
 -5.5296782e-02
  1.2501332e-02
 -8.1739366e-02
  1.2789987e-01
 -6.6109277e-02
 -5.3511769e-02
 -1.9652128e-02
 -7.6648474e-02
  1.1181767e-01
 -1.0317685e-01
  5.8575593e-02
  1.6425025e-02
  1.5968615e-01
  6.0019761e-02
  9.7107902e-02
 -1.2631099e-02
  7.3208235e-02
  1.7472780e-01
  4.1429728e-02
  4.7361646e-02
 -5.4681599e-02
  8.7835893e-02
 -5.8655046e-02
  9.6763121e-03
 -3.5140432e-02
  6.8364792e-02
  1.6010492e-01
  8.5400090e-02
  2.7219815e-02
 -3.2448702e-02
  1.4750673e-01
 -2.7671212e-02
 -5.0316930e-02
 -2.5287474e-02
  6.0228571e-02
  7.3773094e-02
 -3.2566044e-02
  4.8469555e-02
  2.7915610e-02
  1.3294007e-02
  6.3604254e-01
  3.6187547e-03
 -1.9688513e-02
  3.4438465e-02
 -1.2888576e-01
 -9.7957375e-03
  4.0067900e-02
 -1.1374010e+00
 -7.0592922e-01
 -3.3957505e+00
  3.1369019e-01
 -7.2337961e-01
 -2.2399752e+00
 -1.2155112e+00
  7.9666626e-01
 -1.9733551e+00
 -2.5195354e-01
  2.2464302e-01
 -1.7866541e-01
  3.9413929e-01
  1.5342756e-01
  2.5366470e-01
  2.4723987e-01
 -1.0315083e+00
 -1.1489718e-01
  9.3303716e-01
  2.8923700e+00
  8.3202422e-01
  2.1952584e+00
  2.7680770e-01
  8.5993552e-01
  1.0001502e+00
  4.7439873e-01
  2.8103814e-01
  8.6558622e-01
 -8.9596651e-02
  3.0576795e-01
  9.5693666e-01
 -2.8302604e-01
  6.1491615e-01
  5.7210147e-01
 -4.8385840e-03
  1.5137382e-01
 -1.3686905e+00
  7.7294034e-01
 -8.5117841e-01
  8.3771026e-01
 -6.7884728e-02
  4.0056154e-01
  4.6506783e-01
 -1.4530607e-01
  8.3762854e-01
  1.5604930e-01
 -2.6177892e-01
  8.5524336e-02
  1.5613057e-01
  5.7857707e-02
  4.9290527e-02
 -3.0088481e-01
 -6.1491843e-02
 -2.9674938e-01
  5.3240180e-01
  2.0829277e-02
  1.6811869e-01
  5.1733297e-01
  6.4123660e-01
 -6.4671591e-02
 -2.0520592e+00
 -8.0963045e-02
  4.7572900e-02
 -6.1706188e-03
 -1.0632210e-01
 -2.1239387e-02
  1.2918100e-02
  2.2303585e-02
 -2.4914410e-02
 -7.0266500e-02
  4.8697643e-02
  1.4532654e-02
 -7.3905088e-02
  1.7320665e+00
 -7.7939302e-02
 -1.0311583e-02
  2.7526509e-02
  4.4564933e-02
 -1.0078857e-02
  6.0075812e-02
 -9.0603093e-03
  8.7900050e-02
 -2.3866106e-02
  8.2406411e-03
  7.7712625e-02
  3.8946975e-02
 -7.8329772e-02
 -3.9910064e-03
  3.9833874e-02
 -3.8542982e-02
  1.4144026e-01
 -6.2127519e-02
  2.8822739e-02
  5.4885618e-02
  8.7846741e-02
 -5.3595107e-02
  2.1556676e-03
  1.7837530e-02
  1.6224110e-01
 -3.5603832e-02
 -1.7641023e-02
  1.2970801e-02
  2.6328916e-02
 -2.5255229e-02
 -2.5401529e-02
  8.4042102e-02
  1.2125627e-02
 -1.2388974e-02
 -7.1593678e-01
  6.7826408e-01
  4.1572833e-01
 -2.1067405e+00
 -7.4761164e-01
 -3.4139505e-01
  2.0798411e+00
 -2.6270411e+00
 -1.6274290e+00
  3.4955493e-01
 -8.7512797e-01
  2.7492645e-01
  2.3585367e-01
 -1.8606952e-01
 -2.3643738e-01
 -5.3199762e-01
  5.7067668e-01
  2.2344766e-03
 -3.3404902e-01
 -2.2296190e+00
  2.2549281e-01
 -6.4805645e-01
  2.3348711e+00
 -5.1710749e-01
 -1.6860520e+00
  1.6138472e-01
  5.7251781e-01
  2.7078438e-01
 -7.7542961e-01
  6.3950866e-01
  1.0120680e-01
 -1.2280985e-01
  4.3124840e-02
 -7.3587340e-01
  1.0295700e+00
  2.0862576e-01
 -9.6193820e-01
 -5.2065468e-01
  3.2827574e-01
 -1.0964960e+00
  9.3937278e-02
 -2.5082427e-01
 -3.1146547e-01
 -2.4174249e+00
  2.6510862e-01
 -9.1381818e-02
  6.0626054e-01
 -2.9024720e-01
  3.5698142e-02
 -3.5547134e-01
  8.2700819e-02
  5.1594961e-01
  7.5508460e-02
 -2.0591104e-02
 -1.9127275e-01
  6.5674715e-02
 -1.2355790e-02
 -3.0631641e-02
  1.0711415e-03
 -2.4243461e-02
  2.1171911e+00
 -4.7158701e-03
  6.8586491e-02
 -8.6980121e-04
  1.5761992e-01
  5.9143692e-01
  3.3228954e-03
  5.0427139e-02
 -1.3592057e-02
 -1.0798192e-02
  8.9641854e-02
 -1.6754728e-02
  1.8584188e-02
  1.4799850e-01
  3.1704011e+00
 -3.5121117e-02
  5.6056241e-03
  2.1499829e-02
  2.1732684e-02
  2.0554796e-01
  1.9270288e-02
 -4.8448043e-03
  1.7089161e-01
  1.4279095e+00
  2.0885410e-02
  1.0409285e-02
  6.4613529e-02
  4.1317597e-02
  1.7806429e-01
  1.6567148e-02
  5.5256773e-02
  1.3563550e-01
  1.1066523e+00
 -1.5354368e-03
 -4.6833125e-03
 -1.7384015e-02
  5.7728346e-02
  1.3417521e-01
  2.2090301e-02
 -4.5036413e-02
 -4.0110789e-02
 -2.5087383e+00
  2.7465718e-02
 -2.3730149e-02
  2.3074988e-03
 -4.4983164e-03
 -1.3063293e-02
 -1.4654716e-02
  5.3692359e-01
  3.8947951e-02
  2.5065175e-01
 -1.2388736e+00
 -8.0189314e-03
 -6.5609932e-02
  4.9546075e-01
  1.2329334e-01
 -3.8306847e-02
  2.9749723e-02
 -1.6670257e-01
  6.2506162e-02
  3.9944250e-02
  3.5739962e-02
 -4.9659375e-02
 -1.7872602e-01
  1.1945178e-01
 -3.0421045e-02
 -1.0477740e-01
 -2.8942477e-02
  1.1295305e-01
 -1.0862786e-01
  6.8179615e-02
 -2.8350148e-01
 -3.7612167e-01
 -2.3476943e-02
 -2.5097480e-01
  5.6094889e-02
  1.6278134e-01
  1.6800848e-01
 -1.5467989e-01
  2.4586516e-02
 -6.9720261e-02
 -1.8851775e-01
 -1.0141261e-01
 -1.8696196e-01
 -1.6787106e-01
 -2.7625963e-01
  1.4757574e-01
 -1.0558301e-01
 -3.0013748e-02
 -8.6069368e-03
 -2.9541859e-01
 -9.4961360e-02
  3.9803672e-01
  6.7418027e-03
  1.0565318e-02
 -1.7161228e-01
 -8.9218661e-02
 -2.1682817e-02
 -2.8084910e+00
  2.2541256e-01
 -3.6592998e-02
 -3.7070256e-02
  3.4060943e+00
  2.3227451e+00
 -1.3652662e+00
  7.3757589e-01
  9.7672498e-01
 -2.9040358e+00
 -1.0768121e+00
  1.3515699e+00
 -1.5445939e-01
 -8.5048728e-02
 -1.0614455e+00
 -3.6531281e-01
 -8.2388557e-02
 -2.0960069e-01
  2.2206326e-01
 -2.0993015e-01
  4.6172842e-01
  1.0292217e+00
  8.2076430e-01
 -1.2751009e+00
 -1.0181088e+00
 -7.4776745e-01
  7.5166571e-01
 -6.5558845e-01
 -2.2813811e+00
 -3.4890088e-01
 -5.5141652e-01
  1.2577528e+00
  5.2694626e+00
 -4.9123830e-01
  3.7044802e-01
 -2.0799413e-01
 -6.2225848e-01
 -5.0859016e-01
 -7.1638304e-01
  2.4413100e-01
  6.4381786e-02
  7.9274189e-01
  2.2430112e+00
  4.5002910e-01
  1.2917036e-01
  3.8604349e-01
  7.0891267e-01
 -2.3543070e-01
  6.9298255e-01
 -2.1384309e-01
  5.4367721e-01
  7.9960400e-01
  7.3164552e-02
  1.9761479e-01
 -1.5123107e-02
 -3.4855057e-02
 -1.3969427e-01
  6.8352036e-02
 -3.2789636e-01
 -3.3183634e-02
  2.2890615e-01
 -6.0449058e-01
  1.7616423e-03
  1.0426245e-01
  1.5413635e+00
  1.7275484e-01
  1.2746648e-01
 -2.2710897e-02
 -1.6277181e-01
  6.6606387e-02
  9.0539612e-02
  4.7423989e-02
 -9.4864964e-02
 -6.9389254e-02
 -4.1910432e-02
 -1.1208807e-01
 -2.1932101e-01
 -1.6323406e-02
  1.1186002e-02
  3.3364136e-02
  5.6497149e-02
 -4.0200367e-03
 -4.1592233e-02
  4.4628367e-02
 -6.4439423e-02
  1.0827844e-01
  2.2328068e-02
  1.1649521e-01
  3.7897751e-02
  1.2948862e-02
  5.4211579e-02
 -4.2499796e-02
  1.2138706e-01
 -6.2581062e-02
  2.2134182e+00
 -8.5256971e-02
 -1.0961329e-02
  9.8394476e-02
  3.6752652e-02
 -1.4795704e-01
  7.8107300e-03
  1.3838342e-01
 -8.0393599e-03
  3.1692896e-02
 -7.4908443e-02
 -8.5129946e-02
  2.4112690e-02
 -2.5963731e-02
 -2.9008031e-02
  4.2512666e-02
 -3.1926576e-02
  2.6966272e-02
  2.9686844e-01
  1.3435537e+00
  2.5976405e+00
 -2.6220856e+00
 -1.3344432e+00
  4.2965593e+00
 -1.1330323e+00
 -3.4611169e-01
  2.4017141e+00
  7.9162180e-01
 -9.8732680e-01
  1.8259563e-01
  3.2224628e-01
 -2.4673600e-01
 -3.7245670e-01
 -8.8055062e-01
 -9.6603043e-02
 -7.0862424e-01
 -4.3760708e-01
 -7.6695853e-01
 -5.8796507e-01
  2.2079913e-01
  5.4299790e-01
  2.1964733e-01
 -1.9293631e+00
 -4.2527416e-01
 -3.1702009e-01
  7.4963051e-01
 -4.9770686e-01
  5.2009332e-01
 -5.7487696e-01
 -1.2498812e-01
 -8.6817831e-01
 -7.8671032e-01
  1.2416955e+00
  5.5120176e-01
 -3.6981885e+00
 -7.2783101e-01
  1.0941865e-02
 -1.3242645e+00
 -4.4057968e-01
 -7.9210138e-01
 -1.0333402e+00
 -7.0933366e-01
 -4.8390868e-01
  4.2330071e-02
 -1.0263143e-01
 -9.7475696e-01
 -3.4059409e-02
  1.3673896e-02
  1.9500922e-01
  7.9271901e-01
  7.9339921e-02
 -2.8225970e-01
 -1.5179655e-01
 -4.2330396e-01
 -3.8688540e-01
 -2.3367822e-01
  2.2298911e-01
 -8.2057667e-01
 -8.8254178e-01
  1.6297171e-01
 -2.2678775e-01
  1.0539977e-01
  4.2003274e-01
 -9.5638293e-01
 -6.4164191e-02
  2.8785987e-02
 -2.7499640e-02
  1.5968621e-01
 -2.7807868e-01
  9.6457735e-02
  1.2340107e-01
 -4.3957597e-01
  2.5446442e-01
  4.2137510e-01
 -3.5858068e-01
  9.3739194e-01
  2.3797581e-01
  4.3655764e-02
  1.0900366e-01
  6.3584171e-02
  2.5728059e-01
 -1.1875144e+00
  5.1243078e-02
 -1.7943686e-02
  1.5090871e-01
 -4.8696186e-02
 -2.9041904e-01
  4.4699204e-01
 -1.6743468e-01
  2.4565837e-01
 -1.0338935e+00
 -1.8825431e-01
 -4.9954984e-02
  9.4329633e-02
  1.4093602e-01
 -2.6293290e-01
  5.5202927e-02
  5.8361821e-02
 -6.0206227e-02
  3.1318917e+00
  4.0555216e-02
 -3.6694329e-02
  1.8689109e-04
  9.3590347e-03
 -4.4016987e-03
 -8.0557326e-03
  1.4065979e-01
 -7.4726932e-02
  2.0271353e-01
 -4.3504125e-01
  1.6405551e-01
 -2.3739038e+00
  6.4823812e-01
 -4.5235034e-02
  4.2099074e-01
 -6.6444598e-02
 -1.5987706e-01
  7.2636992e-02
  2.1650821e-02
  4.3385673e-02
 -1.2025000e-01
  4.4056088e-01
  2.4079982e-02
 -4.0478092e-02
 -2.3743320e-01
 -1.6539378e-01
 -9.3716212e-02
 -1.0059514e-01
  1.4108370e-01
 -2.4088860e-01
 -2.2979374e-01
 -5.0814368e-02
 -6.3718311e-02
  1.9616903e-01
 -7.8889501e-01
  1.0898227e-01
 -6.1164919e-02
  7.8188144e-02
 -8.5949562e-02
 -1.8825486e-01
 -3.3621322e-02
 -8.1219420e-02
  1.9221014e+00
 -1.4195515e-01
  5.1314723e-02
  2.1109411e-01
  9.3182914e-02
 -5.3618878e-02
 -1.0218067e-01
  1.0070982e-01
  3.1286484e-01
 -2.8414806e-02
 -2.3657752e-02
 -8.1543401e-02
  2.6692446e-02
  2.9153407e-01
  5.2063633e-02
  3.1563178e-02
  4.8217573e-03
  8.2665551e-03
 -2.6077394e+00
  2.7320787e-01
 -1.7336342e-01
 -2.3477755e+00
 -2.6759984e+00
  2.1575553e+00
  5.9789068e-01
 -1.4161071e+00
 -1.6112993e+00
  3.0318180e-01
 -1.9776356e+00
  7.5245833e-01
  4.9429515e-01
 -8.0099195e-01
  4.2798686e-01
 -4.1010594e+00
  2.5626901e-01
 -6.9810337e-01
 -2.3189507e-01
 -8.3454531e-01
  3.3060322e+00
 -2.5348594e+00
  2.8255850e-01
  5.9433752e-01
 -2.9505736e-01
  9.8364377e-01
  8.5471159e-01
 -1.7974289e-01
 -7.8073817e-01
  1.3965071e+00
  1.0001642e+00
  7.6741344e-01
  1.6936270e+00
 -4.4024518e-01
  4.6972539e-03
  3.9900360e-01
 -2.1423855e-01
 -2.0015624e+00
  6.5334630e-01
  2.6189246e+00
  8.0702531e-01
 -2.8218246e+00
  5.1613706e-01
  7.5516975e-01
  2.2554791e+00
  2.1996781e-02
 -5.5056715e+00
 -7.1957171e-01
 -6.3860637e-01
  2.4351361e+00
  7.6601550e-02
  9.9025935e-01
 -1.3829137e-02
  2.2151700e-01
 -2.1550588e-02
 -4.3594979e-02
  6.0104433e-02
  7.3445410e-02
 -1.1992534e-01
  3.1281176e-01
  2.7845702e-01
  9.9699140e-02
 -6.2403914e-02
 -3.9102644e-02
 -3.6016563e-01
  3.3208620e-02
 -5.7859965e-02
  1.0812290e-01
  1.1080590e-02
 -7.9919703e-02
  6.5622665e-02
  3.6209464e-02
  6.3331515e-01
 -1.3013761e-01
  1.3077895e-01
  7.1859993e-02
 -7.7800429e-01
 -2.1593042e-01
 -1.9858524e+00
 -8.7495865e-03
 -1.8310854e-01
  5.5762038e-02
 -1.9381209e-01
  1.3910379e-01
 -5.7473725e-01
 -2.8495529e-01
  3.3584449e-03
 -4.6051097e-01
 -5.5298610e-03
 -1.0201298e-01
  1.2203377e-01
 -4.3424839e-01
  9.6095376e-02
  1.5220861e-03
 -8.4137678e-01
 -9.3075529e-02
 -1.0458571e+00
  8.6296998e-02
  8.5435934e-02
  2.5355446e-03
 -4.2015180e-02
 -3.6211476e-02
 -3.5554949e-02
 -3.5963079e-01
 -5.5833858e-02
  1.0596514e+00
 -3.2783609e-02
 -4.6477847e-02
 -1.0882926e+00
  4.3057141e-01
 -7.8292981e-02
 -2.6006219e+00
 -4.3174818e-01
 -1.0600967e+00
 -3.7915394e-01
 -4.7302106e-01
  1.5158123e+00
 -1.3107871e-01
 -2.2906861e+00
 -2.1366582e+00
  4.3956998e-01
 -2.2789571e+00
  3.0127305e-01
 -1.5566456e+00
  4.4552273e-01
 -5.7776716e-02
 -2.2656929e+00
  1.2449516e+00
 -1.5524292e+00
  2.3420145e-01
 -2.5494330e+00
 -1.9574813e+00
  1.6122808e+00
 -6.2352830e-01
 -7.1177348e-02
  5.9522450e-01
  2.0886645e+00
 -1.7845542e+00
 -1.8658357e+00
  7.9078221e-01
 -3.1899804e-01
 -2.6784496e+00
  1.1042446e+00
 -1.7424023e-01
 -3.1424053e-03
 -3.5137122e+00
  2.4006300e-01
  2.0959927e-01
 -2.7783794e+00
  1.7265867e+00
 -1.2087329e-01
  2.0586553e+00
  5.8120346e-01
 -1.1862005e-01
 -8.4090739e-01
 -2.3035405e+00
 -2.3563594e-01
 -1.1594861e+00
 -3.5880184e-01
  4.4215998e-01
 -1.4403945e-01
 -5.0920472e-02
  3.5891292e+00
  3.6616230e+00
  4.3459040e-01
  1.7639881e-01
  1.9065250e+00
 -1.5123916e+00
  8.7482315e-01
 -1.6342255e-01
 -3.1057656e+00
  7.3913831e-01
  5.6045198e-01
  1.2573131e+00
  5.5804932e-01
 -2.3871250e-02
  1.9978786e-02
  1.6456147e-01
  9.3684345e-02
  1.4671046e-01
  3.0762380e-02
 -1.1937356e+00
  6.3988024e-01
  1.2399470e+00
 -3.3935454e-01
  6.6980654e-01
 -1.0354065e+00
  3.7944981e-01
  9.3219006e-01
 -7.9610413e-01
  4.0696493e-01
  2.4153020e+00
 -2.6530835e-01
 -8.0439395e-01
  6.1062598e-01
 -9.1159272e-01
  3.0983472e-01
  5.1808047e-01
 -7.7537662e-01
  1.4918597e+00
  1.9128692e+00
  1.0666949e+00
 -1.4183894e+00
  5.2174758e-02
  1.8387473e+00
 -1.8431194e-01
 -5.5169725e-01
 -7.8954928e-02
 -6.2332320e-01
  9.8257941e-01
 -5.7784784e-01
 -2.5636786e-01
  7.8636045e-03
  2.9662916e-01
  1.1787713e-01
 -1.7996559e-01
  2.0000150e+00
 -2.2636674e-02
  4.8290136e-01
 -1.2488176e+00
  2.5418451e-01
  4.8440501e-01
 -1.5631551e+00
  6.1619890e-01
  1.9220297e-01
  5.2274026e-02
 -6.5641171e-01
  2.9497105e-01
  3.0354649e-02
 -9.2515744e-02
 -1.0908541e-02
 -1.8216538e-01
  5.5456936e-02
 -2.3618641e-01
 -1.3459136e-01
 -6.8137102e-02
  2.6334912e-01
 -1.8802379e-01
  8.9586914e-01
 -8.3229744e-01
 -5.8416349e-01
 -1.6297938e-01
 -2.2837967e-01
 -2.6000836e-01
 -9.4357155e-02
  4.3967530e-01
 -8.9438909e-01
 -1.0198061e+00
 -4.6804500e-01
  4.4415915e-01
 -4.5010662e-01
 -3.2360759e-01
 -3.7415615e-01
 -8.1064236e-01
  8.9891428e-01
 -2.4299216e-01
  4.2679682e-01
 -6.3634521e-01
 -1.3824406e+00
 -3.7987238e-01
 -4.2998227e-01
 -1.6154817e-01
  1.1485150e-01
 -4.3651286e-01
 -9.1096513e-02
 -1.3817835e-01
 -6.9469191e-02
  6.6153336e-01
 -4.3919601e-02
  2.1512378e-03
 -3.9486222e-02
 -1.9557906e+00
 -6.5679538e-01
 -1.3855276e+00
 -1.3059491e+00
 -4.4734427e-01
  2.2047548e+00
  1.0392174e+00
 -9.4855237e-01
  2.7659726e-01
  7.6074338e-01
 -1.2035137e+00
  3.7716156e-01
 -1.9249175e-01
  9.8200780e-01
 -1.5441863e-01
  1.7520148e-01
 -2.2696467e-01
 -1.4319773e+00
  1.4275223e-01
 -9.5745623e-01
  3.3401802e-01
 -1.2562947e-01
  4.0133986e-01
  5.6861645e-01
 -4.1410577e-01
 -9.5022994e-01
  8.5706544e-01
  2.3851748e+00
  2.6251528e-01
  1.4905766e-01
 -6.7150807e-01
  5.4871249e-01
 -1.5234089e-02
 -8.5759896e-01
  2.4399549e-01
 -2.0130855e-01
  5.8403176e-01
 -2.3448200e+00
 -1.2718405e+00
 -6.5172946e-01
  6.1654370e-02
 -7.2027749e-01
 -1.7322780e+00
 -1.5936053e+00
 -1.3268442e-02
  2.0898331e-03
  5.1882930e+00
 -2.1083932e-01
  4.1018417e-03
 -8.1200182e-02
 -2.5792068e-01
 -6.2123220e-02
 -3.3305749e-01
 -3.8657334e-01
  1.8162360e+00
 -9.9467689e-01
 -6.5448242e-01
 -2.9164519e+00
  1.2962953e+00
  3.0729952e-01
  4.9551862e-01
 -6.3729095e-01
 -3.9087501e-01
  3.6849880e-01
 -1.7559084e+00
 -5.1969498e-01
  5.8218610e-01
  3.7865728e-01
  6.4247757e-01
 -1.1281761e+00
 -3.7355849e-01
  1.7683772e+00
  1.3907138e-01
  1.9707710e+00
  3.6705172e-01
  2.8518933e-01
  5.0982487e-01
 -1.4857155e-01
 -1.6984463e+00
  1.8954644e-01
  2.3435423e+00
 -5.2389300e-01
 -1.5525421e+00
  6.9755834e-01
  2.2995628e-01
  5.8874625e-01
 -4.9349326e-01
 -1.0926958e+00
 -9.3471533e-01
 -5.2088606e-01
 -2.9475064e+00
  5.6795281e-01
  3.1808276e+00
  1.6531159e+00
  4.6224684e-01
  9.7619377e-02
 -2.2614410e+00
  7.0838821e-01
 -1.7520081e-01
  1.2853358e+00
  1.9592057e+00
  7.9516393e-01
 -1.8766297e-01
  1.0310148e-01
 -8.7694257e-01
 -1.2011293e-01
  1.7058416e-01
  1.2149501e+00
 -6.5274373e-02
  1.4922090e-01
  6.9951403e-01
  3.6031034e-02
 -9.7771060e-01
 -6.5854949e-01
  6.1882719e-02
  1.4238991e-01
 -1.9604158e-02
 -7.7869989e-02
  1.2095535e-02
  5.8522802e-03
 -5.6883816e-02
 -8.8435575e-02
 -4.8053637e-02
  2.6595473e-02
 -4.6134591e-02
  6.2589973e-02
 -6.0698528e-02
 -1.6065462e-01
 -1.1790964e-02
  8.7126687e-02
 -8.6589187e-02
 -1.5621878e-01
 -1.4287687e-02
 -2.3541162e-02
  1.6207524e-02
 -5.5922542e-02
 -1.1828380e-01
  2.1634940e-02
  2.2781929e-02
 -1.5677781e-01
 -4.7109317e-02
 -2.9398668e-01
 -6.2356230e-02
 -6.5901227e-02
 -4.4459425e-02
 -2.6165200e-02
  1.6132338e-01
  1.0936369e-02
  2.4204636e-02
 -4.2843718e-02
  3.8921289e-02
 -1.5364103e-01
  5.4495004e-03
 -1.4647325e-03
 -2.7145717e-01
  1.8674297e-02
  1.9330863e-02
 -2.1992723e-02
  4.8937559e-02
 -3.7138104e+00
  1.5011049e-03
  1.5194936e+00
  1.3132617e+00
  8.2089625e-02
 -1.4582675e+00
  2.6089203e+00
 -4.0842867e-01
  7.1775213e-02
  4.1521093e-01
  2.2437577e-01
 -1.1049004e-01
  1.3801547e+00
  3.2243786e+00
  8.2624078e-01
  7.1159542e-01
  1.1298574e+00
  7.0857430e-01
 -8.9597553e-02
 -1.6670123e-01
 -3.2428896e-01
  4.2470069e+00
 -1.3899523e+00
  1.3850911e+00
  3.4373693e+00
 -2.3914617e-03
  6.8037969e-01
  2.3394108e+00
 -1.7875741e+00
  6.4661705e-01
 -1.1342472e+00
  2.8034418e+00
  7.2718173e-01
  5.2114969e-01
  1.6021234e+00
  6.0612279e-01
  2.5087860e-01
 -1.0853589e-01
 -7.8757888e-01
 -6.5127724e-01
  4.7651858e+00
  2.9552684e+00
  4.5568770e-01
  1.2841768e+00
 -1.6747509e+00
 -9.5680600e-01
 -7.8307547e-02
 -1.1300262e-01
 -8.9998138e-01
  4.5782492e-01
  1.9980180e-01
 -6.1259055e-01
 -1.5851125e-01
  8.0664366e-01
  1.0329080e-01
 -2.4456373e-01
 -8.7879163e-01
 -3.6932912e-01
 -5.9370446e-01
 -1.9850397e+00
 -9.4809048e-02
 -9.7720884e-02
 -2.6468005e+00
 -1.0159261e-01
  1.3430865e-01
 -2.5876743e-01
  1.2328078e-01
 -4.8708549e-01
 -2.0094936e-01
  8.1415668e-02
  5.8356855e-02
  1.0083591e+00
 -1.8738666e-01
  4.5394361e-02
 -1.7335624e-01
 -1.3189293e+00
  6.5706199e-01
 -1.5493552e-02
 -3.5546660e-01
  1.2889966e-01
 -1.4343388e+00
  4.4616666e-02
 -8.0553105e-04
 -6.7446597e-02
  4.6153980e-01
  8.8608637e-02
 -2.8024521e-01
  1.4047720e-01
  7.8032620e-02
  2.7348304e+00
 -1.3262911e-01
  1.9496989e-02
  4.8139255e-02
  4.2770475e-01
 -7.4752027e-01
 -3.1310332e-01
  3.3047584e-01
  5.9645616e-02
  1.5407808e-01
 -3.0424803e-01
  1.4745247e-01
  9.4515182e-02
 -2.1523166e-02
  5.9973800e-01
  9.7992420e-02
 -9.9550821e-02
 -3.1695478e-02
 -2.4435790e-01
 -1.6695781e-02
  3.7580926e-02
 -4.7758728e-02
  1.9430816e-01
  5.6619678e-02
  5.6244409e-01
 -1.3610919e-01
  1.4019544e-01
  9.8015904e-02
  1.2490214e-01
 -1.1873926e-01
 -1.1220532e-02
 -5.7291627e-01
 -2.8791975e-02
 -6.4135954e-02
 -1.9138223e-02
 -3.9797819e-01
 -2.4847238e-01
 -5.4721322e-02
  4.3829679e-02
  5.3646680e-02
 -4.8306674e-01
 -2.2319005e-01
  8.9179166e-02
 -1.2943122e+00
  2.7517879e-01
 -5.1139295e-01
  2.3570338e-02
  5.8406490e-01
 -9.8286696e-02
 -2.0510178e+00
 -1.3124865e-01
  8.2963988e-02
 -1.1814123e+00
 -2.8874582e-01
  3.1995618e-01
  2.5487492e-02
  2.8053185e-01
 -8.4557325e-02
 -1.3211037e+00
  7.5629495e-02
  1.2555708e-01
 -5.9381467e-01
 -3.7942582e-03
 -4.1318378e+00
  2.8441951e-02
  2.1441449e-01
  1.1994676e-02
 -1.0786813e+00
 -4.6444066e-02
 -5.2641753e-02
 -1.0833415e-01
  8.1740119e-02
  7.5507760e-01
  1.6549911e-01
  7.5972289e-02
 -1.0689517e+00
  2.7562502e-01
 -9.5067996e-01
  2.4737041e+00
  1.8998013e+00
  1.6438640e+00
 -5.0719452e-01
 -3.1328455e-01
  2.9090199e-01
  5.7457483e-01
 -3.1875691e-01
  2.5622630e-01
  9.3894966e-02
 -1.6502061e-01
 -3.4374523e-01
 -4.4450659e-01
  3.7611550e-01
 -8.2896091e-02
  5.0599021e-01
 -8.0058903e-01
  7.2416204e-01
 -1.0742713e+00
  8.5519207e-01
 -4.7433758e-01
 -1.8859400e+00
 -1.5012071e-01
 -1.5328063e-01
 -1.4299126e+00
 -2.3904833e-01
 -6.2146378e-01
 -5.7504463e-01
  3.4400538e-01
 -7.4201041e-01
 -1.1335498e+00
 -1.2308598e-01
  5.0042354e-02
  2.1878068e+00
  6.9413739e-01
  3.0857891e-01
  3.9739283e-03
  5.0899404e-01
  3.0772135e-02
 -3.0481791e-01
 -5.1295722e-01
  3.8211877e+00
 -1.0808845e-01
  6.8232074e-02
 -1.3972644e+00
 -4.3989666e-02
 -6.5266776e-01
  1.0439911e-01
  2.1661769e-01
  1.5476432e-01
  1.6512972e-03
 -5.6525081e-01
 -1.9721420e-01
 -1.3570839e-01
 -3.7681005e+00
  2.4722118e-02
  3.2068235e-01
 -1.3417980e-01
 -6.6713914e-02
  1.0795035e+00
 -2.3776957e-01
 -3.9798729e-02
 -1.9599158e-01
 -1.9824684e-01
  3.2264132e-02
 -4.3092996e-02
  1.6053572e-01
 -2.0925027e-01
  1.2494418e-01
 -1.7417580e-02
  1.8241955e-01
 -3.9207014e-01
  1.9256222e-01
 -1.2229161e-01
  1.6628532e-03
  8.4699824e-02
 -7.5483657e-02
  1.5053549e-01
 -1.2061513e-01
  6.1042108e-02
 -3.7082162e-01
 -1.3159429e-01
 -7.3475562e-02
 -1.2612747e-01
 -3.8639656e-01
 -6.0580254e-02
 -1.7207702e-01
  3.4929439e-01
 -7.1309561e-01
 -3.4792292e-01
  1.8004020e-01
 -5.5600215e-02
 -1.5205810e-02
 -9.6317865e-02
 -7.9495750e-02
  2.5679040e-01
  1.1414374e-01
 -4.0320549e-03
  2.1358792e-01
  8.7624826e-02
 -1.5382412e-01
 -1.1228874e-02
 -3.5395086e-02
 -1.4181196e-02
  1.0341983e-01
  1.1463358e+00
 -7.4205899e-01
  1.0257339e-01
  1.0472540e+00
 -1.4711108e+00
  1.8205026e-02
 -2.9354846e-01
  1.1284395e+00
  1.3480648e-01
  3.5320398e-01
  4.6206298e-01
 -1.7996448e-01
  2.9652742e-01
 -9.5470309e-02
  1.9810076e+00
  6.6256076e-01
  2.3029351e-01
 -5.0826803e-02
  3.9557523e-01
 -3.5778229e+00
 -3.1511524e-01
  1.3342015e+00
 -7.3643923e-01
 -6.5190887e-01
 -2.3091905e+00
  2.7501932e-01
 -2.0325220e-01
 -8.4385848e-01
 -1.9928305e+00
  1.4569460e+00
  7.2240812e-01
 -1.0109125e+00
  1.4107671e+00
 -1.0067157e+00
  3.4636170e-01
  1.2627807e-01
  1.1090579e-02
 -6.1729103e-01
  5.4160619e-01
 -1.1200660e+00
 -6.3013762e-01
  4.2369881e-01
 -2.0597684e+00
 -1.1934292e-01
 -1.1398236e+00
 -3.5316306e-01
  5.7768726e-01
 -2.8677297e-01
  2.5874078e-01
  3.1872159e-01
  2.5419950e-02
 -9.0105456e-01
  1.5261948e-01
 -6.5589927e-02
 -1.2148043e+00
 -1.0458133e+00
  7.3829937e-01
  3.5495239e-01
  6.0827297e-01
 -8.1357795e-01
 -2.1426997e+00
 -2.0661414e-01
 -7.4114227e-01
  5.9084666e-01
  1.5563482e-01
  3.0464765e-02
  4.6722299e-01
 -1.8676390e-01
  8.9203608e-01
 -8.0892012e-02
  3.9547548e-01
 -3.9590544e-01
 -2.2578141e-01
  4.9170967e-02
  5.9064347e-01
  8.1524479e-01
  1.2318052e+00
  7.2878885e-01
 -8.4181124e-01
  4.7685072e-01
  1.5216438e-01
  1.1025915e+00
 -7.3285244e-02
 -5.1654279e-02
  4.5413244e-01
 -3.5000232e-01
  4.7266895e-01
 -2.3434329e-01
  3.9198521e-01
  7.9638436e-02
  2.0256698e+00
  6.4191990e-02
  3.3413279e-01
  1.5564266e+00
 -1.5130493e-01
 -5.4047317e-03
 -4.0024769e-01
  4.9793085e-01
  3.9580774e-01
 -1.3879618e-01
  1.0114549e-01
 -8.8982554e-03
 -1.6485339e-01
 -1.1049481e-01
  4.2352658e-02
 -1.7627527e-01
 -1.2373547e-01
 -9.7253416e-03
 -8.3753639e-01
 -8.0756265e-01
  2.6128695e+00
 -1.0283481e+00
 -2.6030161e+00
  8.2384342e-01
 -9.5790714e-02
  1.8003503e+00
 -1.5948162e+00
 -1.3983037e-01
 -2.8028286e+00
 -4.7785969e+00
 -5.0330955e-01
 -1.4694518e+00
  1.0923742e+00
 -3.3622652e-01
 -1.7299455e+00
 -3.5316536e-01
  7.3110449e-01
 -1.5381757e+00
 -1.0732891e-01
 -3.9177704e-01
  1.3712114e+00
 -9.0428674e-01
 -2.0154805e+00
  8.3636671e-01
 -2.6348848e+00
 -1.1334114e-01
 -2.9743259e+00
 -7.1882439e+00
 -1.4631603e+00
 -9.8155272e-01
 -3.3937309e+00
  3.2838888e+00
 -3.4967134e+00
  1.2013470e-01
 -1.5681391e+00
  8.3779526e-01
 -3.0099819e+00
 -2.0425470e+00
  1.8095204e+00
  2.5467041e+00
  4.8009086e-01
 -2.5731881e+00
  3.7478749e-02
 -7.4753529e-01
  3.8339694e+00
  9.8460959e-03
  9.3839115e-01
  9.6020782e-01
  1.5282592e-01
 -2.5331087e+00
 -1.1280321e+00
  5.2249587e-01
 -4.5576944e+00
 -8.9429784e-01
  8.2607937e-01
  1.2124274e-02
 -1.6735998e-01
  2.3307230e+00
  8.5491681e-01
 -1.3222539e+00
 -1.0064354e+00
  9.6514392e-01
  7.6755548e-01
 -3.6466965e-01
  5.7274684e-02
  2.0778763e-01
  1.0146965e+00
 -1.5004088e-01
  5.7637852e-02
 -2.9335720e-02
 -2.9604679e-01
  1.7564651e-01
  4.2772591e-01
  7.3971844e-01
  2.2934904e+00
  1.9260411e+00
  2.1472108e+00
  9.4205320e-02
  9.8852113e-02
  4.1979367e-01
 -1.2648945e+00
  9.0335915e-03
  7.8372516e-02
  9.0821189e-01
  1.6405468e+00
  1.9191004e+00
  4.1094124e-01
  1.7965285e-02
  8.0267578e-01
  3.4656119e-01
 -2.7117634e-01
  1.1138208e+00
  1.1545966e+00
  1.7663546e+00
  2.3319700e+00
 -5.7459867e-01
  1.4453161e+00
  1.2717858e-01
 -6.9572562e-01
  3.5423300e-01
  7.7948123e-02
  2.0651375e-01
  1.6259760e-01
 -1.4288726e-01
 -2.3409080e-02
 -1.1565714e-01
 -1.0356121e+00
  3.3452570e-01
  5.6445611e-01
  5.8944803e-01
 -6.3431703e-02
 -1.2427860e+00
 -5.5184662e-01
 -1.7560028e-01
 -8.5096225e-02
 -1.2470659e-01
 -8.0770217e-02
  1.8339630e-02
  2.3733107e-02
  2.2466164e-02
 -1.3104753e-01
 -7.9311438e-02
  2.8452536e-02
  7.4503608e-02
  2.6762235e-01
 -4.8802227e-02
  1.2060615e-01
  3.6851785e-01
 -1.5506971e-01
 -1.7641504e-01
 -1.6685070e+00
 -8.6341769e-02
  2.8794417e-01
  5.8082763e-02
  4.6602050e-03
 -3.8330495e-02
  1.0204244e-01
  1.4523743e-01
 -1.3585821e-01
 -1.0684653e-01
  1.3147782e-01
 -1.0525460e-02
  2.4263507e-01
 -1.1184046e-01
 -5.8358535e-02
 -5.9216365e-02
  1.3611384e-01
 -5.7215314e-02
 -1.6157852e-02
  1.9593343e-01
  2.4827266e-02
  4.2756755e-02
  5.5849064e-02
 -3.9861657e-02
  5.9009861e-02
 -2.5986962e-02
  1.0138731e-01
  7.8517228e-02
 -3.9705876e-02
 -8.9283921e-03
 -5.1570171e-01
  1.0822001e+00
 -2.0248766e-01
  2.5732012e+00
  5.7793599e-01
  4.6960998e-01
 -9.0960093e-02
 -5.5495281e-02
  2.9984808e+00
  8.4662080e-02
 -2.2997166e-01
  1.2869608e-01
 -9.2359006e-02
  9.0586402e-02
 -1.9242331e-02
 -7.8461282e-02
  4.0408188e-01
 -2.5757182e-01
 -5.8700818e-01
 -2.0216851e-02
 -5.8318287e-01
 -4.6089727e-01
  3.9781046e-01
 -4.9014649e-01
 -9.4281924e-01
 -2.9597346e-02
 -1.5032558e-01
  2.8159615e-01
  1.9531329e-01
  1.5829079e-01
 -2.2496536e-01
  1.4865647e-01
 -1.9669963e-01
  1.6290835e-01
  1.0607801e-01
 -7.3354423e-02
 -1.7375074e-01
 -4.7618654e-01
 -4.7107365e-02
  6.8126194e-02
  3.1044161e-01
  4.0566161e-02
 -5.7061994e-01
  1.0410253e-01
 -6.1407995e-01
 -2.0143757e-02
  8.9963146e-02
 -2.4596459e-01
 -9.2930414e-02
  2.1388920e-01
 -7.0080727e-02
  1.8147595e-01
 -6.3444367e-03
  2.6182773e-02
  1.0524905e+00
 -6.3907284e-01
 -1.7103951e+00
 -4.0343714e-01
 -4.5042789e-01
  3.1677002e-01
  1.1252644e+00
 -1.7381556e+00
 -3.3438465e-01
 -7.1287715e-01
 -2.5657192e-02
 -4.5113742e-01
 -5.8196121e-01
  2.1566440e-01
 -3.7215907e-02
  7.0959491e-01
 -2.1381068e-01
 -9.9690892e-02
 -3.6756117e-02
 -1.0009756e+00
 -7.3447794e-01
  2.9954493e-01
 -1.3966029e+00
  1.1583755e-01
 -1.4479594e-01
  2.3627838e-01
  4.5393026e-01
  4.6607271e-01
  1.4384663e+00
 -1.0364550e+00
 -5.9438938e-01
  3.4483498e-01
  3.3166263e-01
  1.0623084e+00
 -6.3777035e-01
  3.5496446e-01
  1.5219337e+00
  3.3355793e-01
 -5.9878117e-01
  8.0352598e-01
 -2.7741218e+00
  5.7148159e-01
  2.5918291e+00
 -2.0269729e-01
 -9.4130464e-02
  2.6488066e-01
 -1.6888962e+00
  3.6476099e-01
  5.4237515e-02
 -1.0970457e+00
 -1.6426829e-01
 -8.7519622e-01
  5.1351381e-03
  1.9474655e-01
  2.0614996e+00
  9.0605485e-01
  1.4579880e+00
 -5.4276621e-01
  2.3357296e-01
 -1.1145495e+00
  1.7957102e+00
 -7.6248467e-01
 -6.9435543e-01
  1.1478298e+00
  3.3190596e-01
 -6.5966207e-01
  9.7323579e-01
 -2.0722295e-01
  1.6732557e+00
  8.5462308e-01
 -9.6680725e-01
 -5.2844718e-02
 -1.1672300e+00
  1.8327373e+00
 -1.7767147e+00
 -3.3534989e-01
  4.4077882e-01
  3.5707021e+00
  2.6811152e+00
  3.7091145e-01
 -3.9553171e-01
 -1.8018873e+00
 -1.1540595e+00
  2.6387432e+00
  1.8243728e+00
 -8.8021803e-01
  3.0146806e+00
  2.8782651e+00
 -1.1673648e+00
 -1.9897002e-01
 -2.5073579e-01
  1.6405375e+00
  2.3125404e-01
  2.5770104e-01
 -2.4208173e-02
  1.8494152e+00
  2.8299088e+00
  1.7229865e+00
 -2.1637678e-01
 -3.9264134e-01
 -4.7428551e-01
  2.5622351e+00
  9.3195826e-01
  4.5853081e-01
  6.1198628e-01
 -9.5665067e-01
  1.1069939e-01
 -4.7319621e-01
  2.1549625e+00
 -1.7049930e+00
 -4.2003574e+00
  1.6664104e+00
  1.5551513e+00
  2.9964116e+00
 -5.1608384e-01
 -1.5091684e-02
  1.1333679e+00
  6.6491449e-01
  4.2215607e-01
 -1.8664092e-02
  8.2511079e-01
  2.4093546e-02
  3.6939383e-01
  3.5724327e-01
 -9.9564120e-02
  9.8373458e-02
  1.2053188e+00
  6.4635354e-01
 -9.7544485e-01
 -8.9242369e-01
 -3.4167281e-01
  2.9712731e-01
  7.7026308e-01
 -3.3585014e+00
 -1.6271553e+00
  2.4011068e-01
  1.0973956e-01
  1.1923207e+00
  1.7060927e+00
 -3.0146655e-01
  6.6027117e-01
  4.9942222e-01
 -2.8939974e-01
  7.3189753e-01
  1.3583333e+00
  8.0443680e-01
 -1.7045487e+00
  9.7760284e-01
 -2.8237704e-02
 -5.8700223e-02
  1.0360132e-02
  2.0156796e+00
 -2.4799435e+00
 -2.0715202e-01
  1.9081885e-01
  1.2873356e+00
 -3.7523676e-02
  1.1143250e+00
  1.4226970e-01
 -5.2682507e-01
 -4.5195885e-02
 -3.6805752e-01
  9.8252818e-02
 -1.5081933e-02
 -2.3305103e-01
  4.8412764e-01
 -1.6588791e-01
  1.2335015e-01
  1.4639661e-01
 -2.8270630e-02
 -2.1578847e-01
 -1.3363418e-01
  1.0816526e-01
 -7.6962328e-03
 -7.0741456e-03
 -5.6911752e-02
  5.4845341e-02
  3.4801636e-02
 -2.3849068e-02
 -1.0573357e-02
  2.7878981e-02
  1.0864509e-01
  1.1255436e-01
  7.6505812e-03
 -3.3493243e-02
  7.3706105e-02
  9.7417988e-02
  6.2597185e-02
  6.3477815e-03
 -1.5944333e-01
  4.5022842e-02
  4.6347070e-02
 -1.0076478e-02
 -7.4926786e-02
 -9.4523929e-02
  3.0356811e-03
 -2.6003746e-02
  8.3832204e-02
 -1.4632356e-01
  4.4025328e-02
  5.2818697e-02
 -2.0694943e-01
 -8.1554629e-02
  8.3498128e-02
  5.0761417e-02
  1.8071415e-02
 -1.7006390e-01
  5.4412317e-03
 -1.0038532e-02
  2.2858584e-02
 -2.7701130e-02
  5.0442237e-02
 -2.1696480e-03
 -4.5668259e-02
 -1.4832405e-02
  3.3788860e-02
 -1.6798774e+00
 -9.2696834e-01
 -1.0631120e+00
 -1.5647610e+00
  1.0179081e+00
 -6.3566911e-01
 -3.8538456e+00
  2.0033112e+00
 -4.4013971e-01
 -3.4136671e-01
 -1.4502527e+00
 -1.4365919e+00
 -9.6911240e-01
 -1.3402729e-01
 -4.2024810e-02
 -3.1972253e-01
 -3.2810363e-01
 -2.4159001e-02
 -1.5561362e-01
 -1.8358333e+00
 -1.2068869e+00
 -2.8383441e+00
 -5.2499282e-01
  2.7307433e-01
  2.0921152e+00
  5.8280453e-02
 -1.5613857e-01
 -1.9376539e-01
  2.9034925e-01
 -3.5584378e+00
 -1.2892540e+00
  5.7792842e-01
 -6.4073227e-02
  1.7826155e+00
 -6.3427347e-01
 -1.1897358e-01
 -6.5161556e-01
  2.1670218e+00
  3.0559427e-01
 -1.8051229e+00
  7.5015676e-01
  1.7486343e-01
  3.7812901e-01
 -4.2381489e-01
  1.1957768e-01
  1.3253674e-01
 -1.1483616e+00
  1.0251104e+00
  3.8961652e-01
  2.1498676e-01
  4.6134874e-02
 -3.3617750e-02
 -8.2705608e-03
  4.5933835e-02
 -2.0088673e+00
  1.2450713e+00
  9.3810111e-01
  1.0914218e+00
 -8.2442057e-01
  4.5106420e-01
 -1.7562679e+00
  7.2752881e-01
 -1.3227648e+00
 -3.7969691e-01
 -8.1529266e-01
  1.1569505e+00
  4.4140476e-01
  1.5378376e-02
 -1.5002346e+00
  5.1724304e-02
  3.5826197e-01
  1.0230526e+00
 -5.1173526e-01
 -9.8061703e-02
  6.6369247e-01
  1.5779470e+00
  4.5839810e-01
  1.9210218e-01
 -1.4973910e+00
  2.7421030e-01
  1.1607974e+00
  1.6104205e+00
  1.2365140e+00
  1.9519063e+00
  8.2349539e-01
  5.9421802e-01
 -3.3658031e-01
 -3.6334845e-01
  2.3566456e-01
 -1.1638944e-01
 -1.9562728e+00
 -9.2439723e-01
 -3.3657439e+00
  3.5145361e-02
  9.1861069e-01
  3.0105162e-01
  1.7927884e+00
  2.8735745e+00
 -1.0715041e+00
 -5.1911652e-02
 -6.7166084e-01
 -2.9312418e+00
  3.1472811e-01
 -4.1400766e-01
  2.6803181e-02
  1.4846140e+00
  6.8440601e-02
  1.9138001e-01
 -1.4955944e+00
  3.4335532e+00
  1.8031878e+00
  7.9837644e-01
  1.6086397e+00
 -1.3885176e+00
 -6.7864305e-01
 -1.6321200e+00
 -6.3418692e-01
  2.0616097e+00
 -5.8267593e-01
  2.6826987e-01
 -2.2061589e+00
 -2.4691770e+00
  1.9282302e+00
  9.2627317e-02
  2.7052457e+00
 -3.0292053e+00
 -1.4504275e+00
  3.0788248e+00
  3.0519211e+00
 -6.9672954e-01
  1.8850833e+00
  1.0087595e+00
  7.9811907e-01
 -8.1966186e-01
  2.6900826e+00
 -6.6721249e-01
 -1.6769881e+00
  2.4830677e-01
 -5.4896182e-01
 -1.0821271e+00
  4.3804803e-01
  6.3461846e-01
  7.0322758e-01
 -1.4513689e-01
  8.8370490e-01
 -5.6165349e-01
  3.4929507e+00
 -1.1103911e+00
  1.4302117e+00
 -1.7907546e+00
 -7.4755889e-03
 -1.4008213e+00
  6.1737978e-01
 -1.1732117e+00
 -3.8495531e+00
 -1.2423513e+00
  1.1583381e+00
 -1.3362508e+00
 -2.7611945e+00
 -9.2944539e-01
 -1.6245559e+00
  2.7368596e+00
 -5.6648809e-01
 -3.2114494e+00
  1.4214510e-01
  2.4606645e-01
 -3.4100063e+00
  3.0630562e+00
 -1.7136703e+00
  9.4807500e-01
  2.6977780e+00
 -2.6526949e-01
  6.4999145e-01
 -7.3234040e-01
 -1.5508840e+00
 -1.2533851e+00
 -7.2585285e-01
  1.5915263e+00
  6.1392599e-01
  1.0797359e+00
 -9.5049828e-01
 -3.8012893e+00
  5.1950965e+00
  3.8811433e+00
 -2.9109790e+00
 -1.1021369e+00
 -3.9572340e-01
  6.9118586e+00
 -1.7105572e+00
 -1.8341063e-01
 -1.3279922e+00
  2.4230027e+00
  2.1564581e+00
 -3.5403752e+00
 -1.4544864e+00
  4.4789066e+00
 -6.0212803e+00
 -4.4381938e+00
 -4.5722194e+00
  1.0286052e+00
 -4.2414598e+00
 -1.4142561e+00
  1.1126127e+00
 -1.1315335e+00
 -6.3251772e+00
  2.0663369e+00
 -2.1655247e+00
 -1.5243700e+00
  5.0812018e-01
  2.2382517e+00
  1.3558416e+00
  4.8311660e-01
  1.9130976e-01
  7.0673531e-01
 -7.1848586e-02
 -6.9053507e-01
 -9.5709604e-01
 -6.0479462e-01
  2.1945779e+00
 -5.8816862e-01
 -6.6797984e-01
  1.5317309e+00
 -1.5685803e-01
 -3.5717332e+00
 -3.2041967e+00
 -3.4881465e+00
 -2.2909520e+00
 -2.6631262e+00
  3.1514053e+00
  1.5449842e+00
 -2.7343664e-01
 -3.2657535e+00
  1.3270423e+00
  1.2631243e+00
 -6.1881310e-01
  4.2236248e-01
 -6.3910842e+00
  1.2480940e+00
  4.9130406e+00
  6.5288389e-01
 -3.3987288e+00
 -3.4194881e-01
  1.1632010e+00
  1.7386388e+00
  8.2508343e-01
  1.7232357e-01
  2.4541485e+00
 -1.7135216e+00
 -4.0035558e+00
  6.6395229e-01
  1.1508563e+00
 -1.9256035e+00
 -5.5366081e-01
  1.6210840e+00
 -1.0041177e+00
 -2.4119368e+00
  2.1890247e+00
  2.9747261e-02
 -5.2811337e-01
  2.2889371e-01
 -1.3445850e-01
  3.1913772e-01
 -1.0507044e-01
  5.0616268e-02
 -5.5197406e-01
  1.7169150e+00
  1.2987719e-01
 -9.8720640e-01
  4.7953910e-01
 -2.4098083e-01
  9.7067410e-01
 -1.5615729e+00
 -9.0723431e-01
 -6.0903978e-01
 -1.4169685e+00
 -1.6887775e-01
  5.1442719e-01
 -3.9013740e-01
  2.8789231e-01
  1.6086297e+00
  2.1132002e+00
  9.7706997e-01
 -1.1210300e+00
  2.7310007e+00
  7.5339079e-01
  2.5065511e-01
  4.6717474e-01
  2.5362482e+00
 -7.0285338e-01
  3.3988482e-01
  1.4835236e+00
 -3.9706981e-01
 -3.5855877e-01
  3.5914576e-01
 -3.7393510e-01
 -6.3004553e-02
 -3.8333294e-01
 -5.3726755e-02
 -2.4316566e-01
  2.1948902e-01
  8.8802846e-03
  8.7466121e-01
 -8.3378178e-01
 -6.6525955e-04
  7.4086148e-01
  2.4543299e-01
 -2.0584425e-01
 -1.1111760e+00
  1.2731276e+00
 -3.0148023e-01
 -1.0153528e+00
 -1.3737955e+00
  1.7810214e-01
 -1.3981819e-01
  4.4161749e-01
  5.9274845e-02
  9.9532759e-01
 -7.0694786e-01
  5.2659798e-01
 -2.3541221e-01
 -3.2494556e-02
 -9.0994686e-01
  4.8684731e-01
 -3.4038520e-01
 -3.0999285e-01
  9.4010010e-02
  5.3136599e-01
  9.3509370e-01
 -1.1117940e-01
  1.4895427e+00
  3.3900626e+00
  2.9516536e-01
 -2.0060387e-01
  3.8321388e-01
  1.8126462e-01
  7.4322712e-01
  3.3067146e-01
 -3.6634654e-01
  1.0549951e+00
  1.9706736e+00
 -7.0169586e-01
  8.4798974e-01
  6.6887951e-01
 -3.9588806e-01
 -5.5254984e-01
  4.9538714e-01
 -1.4694324e-01
 -1.7399187e-01
  3.2861933e-01
  4.1513690e-01
 -1.5855660e-01
  3.0865148e-01
  2.6584035e-01
  8.1981413e-02
 -1.8921444e-01
  8.5290354e-01
 -3.2919481e+00
  1.3578304e+00
 -2.5569131e+00
 -2.2843533e+00
 -2.0726035e+00
 -1.0798419e+00
  4.2274114e-01
 -8.5420483e-01
 -4.5140505e+00
 -5.4424185e-01
  2.1392602e-02
 -2.4240713e-01
  1.1429342e-01
 -6.7175484e-01
  9.0472418e-01
  7.2939378e-01
  2.9154646e-01
 -6.0811573e-01
  6.0865438e-01
  1.3092347e+00
 -2.2071531e-01
  6.3770324e-01
  6.7879075e-01
  6.5353632e-01
 -7.9759312e-01
 -3.9950456e-02
 -8.0099982e-01
  1.9299971e+00
 -2.0034533e+00
 -4.6448743e-01
 -1.1607006e+00
 -3.4291619e-01
 -7.3115516e-01
  4.7349891e-01
 -1.3258855e+00
  1.1994547e-01
 -3.4308192e-01
 -7.8667700e-01
  6.4815891e-01
  1.0953679e-01
 -5.7321095e-01
  1.1253552e+00
 -1.1016698e-01
  5.3032917e-01
 -1.1655313e+00
 -1.8848678e-02
  4.3651718e-01
  2.6382962e-01
 -1.4043771e-01
 -5.1402738e-03
  7.3847465e-02
  2.4217673e-02
  7.8571416e-02
  4.3774815e+00
  1.9002932e-01
  2.0355007e-01
 -5.6131345e-01
 -5.9730959e-01
  1.0842088e+00
 -1.6650095e+00
 -7.6573449e-01
 -2.5748241e-01
 -2.4608873e-01
 -8.6457658e-01
  2.8855089e-02
  7.4198537e-02
  1.8415059e-01
 -7.2037026e-02
  5.5217434e-02
  2.0539241e-01
  1.0337516e-01
 -9.5706202e-02
  7.2180286e-02
 -4.5150023e-02
  8.8950388e-02
  2.9475388e-01
 -7.4950852e-02
 -8.5991688e-02
 -3.3702660e-02
  1.5011251e-02
 -1.8122371e-01
  1.9340116e-01
  8.9971006e-02
  6.3052051e-02
  2.1282032e-01
  2.4920924e-01
  1.9404280e+00
 -4.7479082e-02
  1.1548162e-01
 -1.7540914e-01
  5.0587341e-02
  1.5646635e-01
  1.5783701e-02
  2.5706175e-01
 -4.3524940e-02
 -1.1860629e-02
  1.7177497e-01
 -3.5639337e-01
 -9.0041690e-02
  4.7155195e-01
  2.8574087e-02
  1.4309425e-02
  9.0523370e-02
  3.1392492e-02
 -7.9377510e-02
  7.3138297e-02
  1.1635198e-02
 -1.0416162e-03
 -2.4446636e-03
  1.5241295e-02
 -2.6669679e+00
 -6.7181967e-02
 -3.5233006e-02
  8.5661404e-02
 -6.1856940e-02
 -4.5664161e-03
  5.6588642e-02
 -2.1090295e-02
  1.1646593e-02
 -1.2320952e-02
  1.1064622e-02
 -2.1716690e-02
  6.4800613e-02
 -5.7755753e-02
 -4.2800948e-02
 -3.4371893e+00
 -3.2032397e-02
  3.1534664e-03
 -2.7097166e-02
  4.0743567e-02
  1.1199860e-02
 -7.7763819e-03
 -1.0927321e+00
 -1.6141064e-02
 -4.2191868e+00
  2.4369938e-04
 -1.1743302e-02
 -1.1122265e-02
  1.7918257e-02
  2.5148176e-02
  1.3109779e-02
 -9.6887976e-02
 -1.0496214e-02
  2.8027570e+00
 -3.2377988e-02
  1.9578733e-03
  1.0086197e-03
  2.3097560e-02
  3.1844560e-02
  4.5415092e-02
 -4.2716075e-02
 -2.5661422e-02
 -1.0684440e-01
 -3.6165718e-02
  3.4064628e-02
 -2.1671908e-02
  1.5191685e-02
  2.3613311e-03
 -7.2081834e-03
  8.8492166e-03
  2.7691510e-02
  5.7694287e+00
  1.6073370e-01
  4.8287526e-01
 -9.0014911e-01
  5.7995509e-02
 -1.3772042e+00
  2.2140186e-01
 -1.2269813e+00
  2.0152867e+00
  1.2303538e+00
 -3.8971743e-01
 -2.4779217e-02
 -1.8252940e-01
  1.2114984e-02
  1.3039197e-01
 -9.3453325e-02
  1.6348647e+00
  1.0089433e-02
 -4.4578444e-02
 -2.4662060e-01
 -1.6015477e-01
 -1.3607399e-01
  1.4575966e-01
  1.5024342e-01
  4.0305695e-01
  1.4061277e-01
  1.0278931e-01
 -4.2626625e-01
 -4.7732151e-01
  1.7476742e-01
  5.3215113e-02
  8.3925895e-02
  1.2714194e-01
 -4.9386691e-02
  1.8016765e-01
  2.9451102e-01
  8.2051378e-01
  6.9692515e-02
 -3.7498828e-02
 -1.6212673e-01
  5.7773173e-02
 -2.3228015e-01
  3.0987632e+00
 -2.1076183e-01
 -2.9494166e-01
 -6.1171377e-01
 -6.2733889e-02
 -3.6625266e-02
 -8.6484715e-02
 -1.7169401e-02
 -1.8766783e-02
 -5.7538953e-02
  8.2893044e-02
 -6.5351605e-02
  2.1208636e-02
  2.3249466e+00
  3.4979779e-01
 -4.0521699e-01
 -3.8698286e-01
 -2.2759745e-01
 -1.7925290e+00
 -2.6844034e+00
 -2.3806138e+00
  1.2723997e+00
  1.0262311e+00
 -3.7176409e-01
  5.1680386e-01
  1.2604915e+00
  1.7158113e-01
  1.9765100e+00
  1.7424221e-01
  3.7791952e-01
 -1.5533555e+00
 -1.0946916e+00
 -1.8665771e+00
  1.1835052e+00
  1.9440994e+00
  8.2032692e-01
  3.9428997e+00
  8.1133759e-01
 -5.9736854e-01
 -2.0817397e+00
  7.1594723e-02
 -2.1716123e+00
  1.4152642e+00
  2.4174707e+00
 -4.7208369e-01
  6.3837945e-01
 -1.8953921e+00
  4.0765071e+00
 -2.3248372e+00
  7.3237285e-02
  3.5886991e+00
 -3.2916957e-01
  2.7153065e+00
 -1.1158440e-01
  2.5105975e+00
  2.0794058e+00
 -1.7753733e+00
 -4.1381869e-01
 -2.2074607e-01
  3.1873560e-01
  2.6255363e-01
  1.5183887e+00
 -1.1245473e-01
 -9.1598552e-01
  1.3336793e-02
 -4.9457703e-02
  1.1448286e+00
 -3.4070823e-01
  8.3675081e-01
 -5.5610621e-01
  1.6753960e+00
  5.3606230e-01
  8.0561852e-01
  1.0319059e+00
  4.8018599e+00
 -1.3707703e+00
 -6.1503655e-01
  4.5223671e-01
 -6.0824943e-01
  8.5039437e-02
 -6.9544321e-01
 -6.4122640e-02
 -5.7477695e-01
  8.5017073e-01
 -1.4104344e+00
 -2.4679239e+00
 -1.2326282e-01
 -1.0054204e+00
 -1.9334199e-01
 -1.4394097e+00
  8.9033806e-01
 -5.3471965e-01
  1.1291914e+00
 -2.1566122e+00
 -1.4115518e+00
 -2.4377973e+00
  9.0997361e-02
 -1.1578079e+00
 -1.4573544e+00
  4.5825404e-01
 -2.1870093e+00
  7.9223007e-01
 -9.9806732e-01
 -1.4798363e+00
 -9.7247887e-01
 -5.4642946e-01
 -2.8852224e-03
  3.8902131e-01
  1.1815923e+00
 -1.8063742e+00
  2.6981885e+00
  3.8639281e+00
 -5.0965744e-01
  4.5741233e-01
 -9.4158333e-03
  1.7831098e-01
 -2.1154843e-01
 -1.6278695e-02
  8.8931210e-03
 -1.9664209e-01
 -1.7388449e+00
 -7.8166947e-02
 -3.2038089e-02
 -2.7801958e-01
  1.5741101e-01
 -9.1134891e-02
 -8.4050530e-01
 -8.8795520e-02
  9.6659893e-01
  3.8710799e-02
 -6.2268749e-02
  1.1094352e-02
  1.6044492e-02
 -1.8359201e-02
 -1.3498748e-02
 -2.9630831e-02
  1.9696042e-02
 -1.2160872e-02
 -9.7357678e-01
 -1.5000442e-01
  3.2410733e-02
  8.9273611e-03
  5.1244932e-01
  1.7524049e-02
  6.9893291e-03
  2.3495661e-02
  2.1033514e-02
  2.3300126e+00
 -5.7979550e-02
 -4.0193755e-02
 -7.9626804e-03
 -2.9746622e-02
 -1.7962459e-02
 -7.5408681e-03
  1.7575668e-02
 -3.4719810e-02
  8.2373685e-01
 -3.9552752e-02
 -9.7763133e-01
  2.0413124e-03
 -1.6277973e-02
 -4.3236278e-03
 -5.5573704e-03
  2.4897853e-02
 -7.6565303e-02
  4.1042595e+00
  2.3103602e-02
 -5.0243204e-03
 -1.7344819e-02
 -3.2798178e-03
  2.6876945e-02
  1.1597644e-02
  1.0792733e-02
  1.6084578e-02
 -2.2269073e+00
 -2.2046187e+00
 -5.4184073e-01
  3.1428590e+00
  5.1788837e-01
 -1.3052649e+00
 -8.2228267e-01
  1.9086041e-01
  3.3026606e-01
 -2.5374670e+00
  1.6122913e-01
  6.0014408e-02
 -2.6570925e-01
  7.0710197e-02
  9.7101802e-01
 -1.4131269e-01
 -3.3319429e-01
  8.9619184e-01
 -3.2711040e-02
 -3.4749225e-01
 -1.7107266e+00
  1.8987156e-02
  3.8992664e-01
  1.2520345e+00
  4.6229023e-01
 -2.9895324e-01
 -6.5250713e-01
  5.7115471e-01
  1.8857186e+00
  1.4237095e+00
 -3.2261014e-01
  1.1954167e-01
 -8.4422186e-02
  5.7372242e-01
 -2.8886756e-01
  7.5008279e-01
  4.5179611e-01
 -3.1603977e-01
 -3.5535204e-01
  2.0017442e-01
  1.0429800e-01
  3.4741470e-01
  5.3841287e-01
 -2.2983065e-01
 -8.8425231e-01
 -1.4583890e-01
  5.3237256e-02
 -2.4519550e-02
  3.5788232e-01
 -7.1684636e-02
 -1.7237437e-01
 -1.2005730e-01
 -1.0472030e-01
 -1.9876647e-01
  8.3902970e-02
  7.5323141e-01
 -1.0026819e-01
  2.1896794e-01
  8.9388883e-01
 -6.4744538e-01
  5.8123022e-01
 -1.7716651e+00
  1.2213739e+00
 -2.0834444e+00
 -3.8375428e-01
  1.1898801e-01
  3.5140088e-01
  3.6660710e-01
  7.1177018e-01
 -3.6449727e-02
 -4.4459158e-01
  1.4848985e-01
  4.1350427e+00
  2.4185331e-01
 -1.0777847e-01
  1.1585332e+00
 -2.2595372e+00
  2.5696790e-01
  2.1647265e+00
 -2.1415794e+00
 -7.0284373e-01
  4.5730128e+00
  2.1748219e-02
  6.4273131e-01
  2.9258671e-01
  2.1248879e-01
 -4.8835810e-02
  1.3590064e+00
  3.7830919e-01
  8.4698111e-01
  9.1407555e-01
  3.2636136e-01
  1.6505104e-01
  9.0032589e-01
 -4.2743081e-01
  8.0847317e-01
  3.2234693e-01
 -1.6133527e+00
  2.5977740e-01
 -1.0134162e+00
  2.2409383e-02
 -4.9327174e-03
  6.5872490e-01
 -1.5385959e-01
 -1.5389940e-02
 -2.3666102e-01
 -7.9896279e-02
 -2.4631062e-01
  1.2207645e+00
 -2.1480085e-01
 -7.3691428e-02
  1.0207402e+00
  4.1373204e-03
  9.0101588e-01
  4.0287650e-01
 -5.6364030e-02
  9.4310895e-02
  1.1543915e-01
 -1.1627533e-01
 -1.6766904e-02
  8.5685737e-03
 -1.4813212e-02
  9.2691481e-02
 -7.0155427e-02
  8.5384268e-03
 -4.1317351e-02
  1.7083915e+00
  6.1381215e-01
 -2.1844119e-02
  7.6067492e-02
  1.2263295e-01
  3.4926798e-02
  1.7974660e-01
  5.0964121e-02
 -7.2769970e-02
 -1.4093491e+00
 -7.2201216e-01
 -6.9173440e-02
 -3.6776554e-02
 -4.1963995e-02
 -4.2172734e-02
 -3.8376644e-02
 -1.2361493e-01
  9.7101383e-02
  2.9256921e+00
 -2.7372721e-01
  8.8363819e-02
  3.0761313e-02
  2.7915674e-01
  2.8384272e-02
  7.5006440e-02
  8.3048925e-02
 -1.7524569e+00
 -7.9825915e-02
  4.7546305e-02
 -1.1020948e-02
  2.9327177e-02
 -2.6762472e-03
 -5.5214581e-03
 -7.2394885e-02
  5.9101894e-02
  3.8003772e-03
 -4.2010231e+00
  2.6453328e+00
 -2.7751126e+00
 -2.3155246e+00
  1.7882909e+00
 -1.8214511e-02
 -2.6657393e+00
 -1.8147404e+00
 -1.9239058e+00
  1.7078378e+00
 -1.2088664e+00
 -3.3220026e-01
 -1.3290095e-01
 -7.0603389e-01
 -2.5063878e-01
 -7.5337434e-01
 -3.9446294e-01
 -1.0526881e+00
  8.0099916e-01
  3.7353775e-01
  7.0683688e-02
  7.3384446e-01
  3.5973522e-01
  1.7256865e-01
  1.1808579e+00
 -1.0989456e+00
  1.5504459e+00
  2.1432855e+00
  1.4638287e-01
  3.6605763e+00
  1.3298022e+00
 -3.0803111e-01
 -9.5739561e-01
 -6.5688479e-01
 -1.1306217e+00
 -1.0592382e+00
  2.1221274e-01
 -4.4597182e-01
  9.3247724e-01
  5.6577122e-01
 -1.9482067e-01
 -7.0399356e-01
  2.1308773e+00
 -2.8037816e-01
  9.6864241e-01
  2.1459365e+00
 -2.7027702e-02
 -1.2263059e-01
 -1.1552197e-01
 -5.9600288e-01
 -1.0340831e-01
 -7.7914186e-02
  1.6158833e-01
 -1.1366259e-03
 -1.1110668e+00
  1.2828505e+00
  2.2316842e+00
  2.3866954e+00
  3.4810467e+00
 -1.5253240e+00
 -2.5903552e+00
  2.6791472e+00
 -8.4638906e-01
  1.2558368e+00
  3.8220248e-01
  2.0125957e-01
 -3.5826603e-01
 -1.1477569e+00
  1.6786201e-01
 -6.9531769e-01
 -1.3040723e+00
 -1.7688930e-01
  2.2891650e-01
 -3.5569367e-01
  2.7449229e-01
  2.8471014e-01
 -1.5664201e+00
  1.0833126e-01
 -2.2410095e+00
 -9.9820489e-01
 -5.8175415e-02
  2.4011482e-01
 -1.0033094e+00
 -9.8512745e-01
 -2.2876950e-02
 -7.8666860e-01
 -2.6171815e-01
 -1.5711329e+00
 -5.9615552e-01
 -5.5762833e-01
  7.9202092e-01
 -8.6210746e-01
 -3.4605601e-01
 -6.7003804e-01
 -1.0242050e+00
 -2.2220956e-01
 -7.4933648e-01
 -1.9401763e-01
  5.5828667e-01
  3.8274479e-01
  3.3854997e-01
  2.5564227e-02
  4.0185618e-01
  7.0806575e-01
 -2.6871094e-01
  5.2396631e-01
 -4.9896595e-01
  1.1895534e-01
 -3.0816615e-01
 -6.0373288e-02
  8.1672475e-02
 -2.9422741e+00
 -2.2653824e-01
 -4.6581563e-01
  5.5300033e-01
 -3.6820039e-01
 -8.4408492e-01
  1.4521480e+00
  7.0441298e-02
  7.1191825e-02
  2.2515878e-02
  1.4981014e-01
  1.1803924e-01
  3.5060905e-02
 -7.6595239e-02
  6.3116387e-02
 -1.1483242e-01
 -2.2930442e-01
  1.9709582e+00
  3.0358759e-01
  4.5371452e-01
  1.8822420e-01
 -2.1123879e-01
  1.5610580e+00
 -1.6828692e-01
 -3.2115476e+00
  3.0200331e-02
  1.5764271e-01
  1.0025088e-01
  3.4492326e-01
  2.1652691e-02
  3.8644444e-02
 -1.0133893e-01
  8.5542530e-02
 -8.6688006e-01
  4.4754013e-02
  2.0942277e-01
  2.1422791e-01
  3.5139114e-01
  1.2786368e-01
 -6.3633081e-03
 -3.8535010e-02
  7.9573259e-02
  2.9495490e+00
 -2.6756795e-02
  9.4120027e-03
  7.1041770e-02
  2.3421869e-01
 -5.5915538e-02
 -1.7869163e-02
 -4.4736546e-02
  1.6531663e-03
 -2.1526310e+00
  1.3101481e-01
  2.1088613e-02
 -2.0314929e+00
 -1.3389677e-01
  1.8352705e-01
  8.2979512e-01
  3.0700073e-01
  9.4849920e-01
 -5.7979662e-02
  7.8568317e-02
 -2.5014821e-02
  3.6399111e-03
  4.4147193e-02
 -4.0085524e-02
 -1.3914786e-03
  3.5317361e-02
  1.9903608e-02
 -6.1711321e+00
  8.2264654e-02
  1.9080877e-02
 -3.3587728e-02
  7.7872157e-02
  4.2365482e-03
 -8.5133836e-03
 -1.8826446e-02
  8.3944559e-02
 -7.8832102e-01
  3.8592510e-03
  2.2596641e-02
  1.4714504e-02
 -1.1185084e-02
  1.5903039e-02
 -1.3002719e-02
 -1.7604684e-02
  8.5473560e-02
 -2.7623827e+00
  2.5915202e-01
  2.5621124e-02
 -2.4224480e-03
 -2.5856871e-02
 -3.7923384e-02
 -9.9538192e-03
  7.1247138e-02
  7.3365867e-02
 -1.7558812e+00
  6.9025001e-03
  2.6787654e-02
  3.9084934e-02
 -3.3362795e-02
 -7.1603045e-02
 -8.9960797e-03
  1.9220000e-02
  3.7220459e-02
 -1.3390275e+00
  1.6476020e-01
 -5.8579169e-02
  7.7605259e-01
 -2.5003247e-02
 -4.7540855e-01
 -4.2570579e-01
 -6.5743041e-01
  2.6096231e-01
 -2.6031679e-01
 -1.0628875e-01
 -1.2982634e-02
 -1.0890502e-02
 -6.9333993e-02
  6.8030447e-02
 -5.3661712e-02
 -8.5965186e-02
 -9.0720439e-03
  5.8339614e-01
 -1.4840455e-01
 -1.7042162e-02
 -3.6614083e-02
 -1.2042890e-01
 -4.3872755e-02
  1.1850602e-01
  7.2520152e-02
 -9.5928475e-02
 -1.8476769e+00
 -7.2545648e-02
  2.4600449e-01
 -1.1021844e-01
  3.0650102e-02
 -5.3961042e-02
 -9.6964315e-02
 -1.0763413e-02
  3.4263115e-02
  1.1403483e+00
 -2.8575134e-01
 -3.9314173e-02
 -7.5895414e-02
 -1.3993664e-01
  2.4107784e-02
 -5.3511098e-02
 -2.8272890e-02
 -1.9005801e-03
  4.0034375e+00
  2.2375381e+00
  1.2538913e-02
  3.2174002e-02
  1.4240874e-01
  2.1323094e-02
 -6.9995821e-02
  8.6995535e-02
 -3.4728814e-02
  1.9670019e+00
  3.0478628e+00
 -7.7950704e-01
  3.1231883e+00
  1.2436388e+00
  2.6400011e+00
  3.2159142e+00
  3.7200727e+00
 -2.7302250e-01
  8.9360321e-01
 -3.3797631e-01
  1.4175315e-01
 -3.2958540e-01
 -1.2090026e-01
 -4.3180719e-01
 -5.9623532e-02
 -5.1619214e-01
 -8.1660205e-01
 -1.2647607e-03
 -5.1044873e-03
  1.0223378e+00
 -8.4667778e-01
 -6.3920814e-01
 -6.1454070e-01
  5.1078856e-01
  9.7645330e-01
 -1.5289436e-01
  1.6216564e+00
  1.4226720e+00
  5.8546895e-01
  1.1815496e-01
 -6.9671535e-01
 -1.5846938e-01
  1.2773861e-01
 -8.0978200e-02
 -3.2495138e-01
  5.0620971e+00
 -6.0305983e-01
 -6.4029545e-01
  1.9591036e-01
 -7.9269612e-01
 -7.6717096e-03
  1.9333695e-01
 -3.2077038e-01
 -4.0442210e-01
 -1.8986433e+00
 -1.8234605e-01
  1.1892564e-01
 -3.9224580e-02
  2.3180524e-01
  2.0865971e-01
 -3.2518875e-02
  1.9065496e-01
  5.0180942e-02
  1.2032732e+00
  1.3548485e+00
 -7.8395271e-01
 -3.1133451e+00
 -2.2569525e+00
 -1.2762041e+00
  1.5429090e-02
  8.1113827e-01
 -1.1843203e+00
  6.2359554e-01
 -2.7764678e-01
  6.3799810e-01
 -1.0662370e+00
 -2.2041586e-01
  8.9633137e-01
 -7.6153594e-01
 -3.3672744e-01
  9.9898684e-01
  1.3646473e-01
  1.2440959e+00
 -4.3264520e-01
 -3.6396694e-01
 -9.4417435e-01
 -2.6361263e-01
  5.2000237e-01
  3.4522441e-01
 -1.0711826e-01
 -9.8710537e-01
 -3.6169413e-01
  2.4856501e+00
 -8.5471040e-01
 -1.4688253e+00
 -1.0142047e+00
  7.7421927e-01
  1.8753028e-01
  1.4399574e+00
  2.3182278e+00
 -1.1622058e+00
 -7.2147256e-01
  8.2998252e-01
 -1.6375132e+00
 -1.8891442e+00
 -5.2631706e-01
  3.6069176e-01
  2.4781122e+00
  4.7173042e+00
 -2.2178252e-01
 -1.5096137e-01
 -2.5358748e-02
  4.3135077e-01
  3.7650567e-01
 -4.0366060e-01
  4.6095127e-01
 -6.8266891e-02
  1.7173578e-01
  3.7496857e-02
 -1.0231865e-01
  1.3967551e-01
 -3.6622096e-02
 -2.5499094e-01
 -9.4604537e-02
 -1.4664128e-01
  4.3982163e-01
 -2.0269332e-02
 -7.4976206e-02
 -2.9024638e-02
  7.7209704e-02
 -1.6561691e-02
  5.9227441e-02
 -1.0573673e-01
 -7.3470637e-02
 -4.5683246e-02
  1.1865041e-01
 -6.0499771e-03
  4.7696929e-02
 -3.3400733e-02
  1.0210476e-01
  1.2814345e-02
  2.1542065e-02
  1.1428281e-01
 -5.9513904e-02
  9.1325861e-01
  2.5171096e-02
 -8.7529030e-03
  2.2932559e-02
  6.8116419e-02
 -7.2994635e-02
 -8.8885047e-02
 -1.5017660e-01
  1.2164072e-01
 -5.9334064e-01
 -1.3768901e-01
 -3.6255445e-02
 -8.7009907e-02
  1.9685024e-02
  5.1733579e-02
  2.7373752e-02
  6.2357422e-02
  8.0804698e-02
  1.3823649e-01
  3.1725463e-02
 -8.4501818e-02
 -1.9006106e-03
  2.2312534e+00
 -3.0465430e-02
 -2.1233935e-02
  3.8535792e-02
  1.5041662e-03
 -1.0966220e-01
  7.7294350e-02
 -5.9503768e-02
  1.5334153e+00
  4.1623119e-02
 -1.0946131e-01
  8.8488452e-02
 -5.0438368e-01
 -1.8013105e-01
  6.2705316e-02
 -9.9579431e-02
  6.3062318e-02
  4.6975728e-02
  3.7871204e-02
  7.9032414e-02
 -1.2937798e-02
 -1.1917257e-01
  1.0489565e-02
 -1.8415810e+00
 -1.6127251e-02
 -4.4965301e-02
  1.0793336e-01
  1.6862574e-01
  3.2785706e-02
  7.9876482e-02
 -6.5801039e-02
 -7.0159636e-02
  4.4335875e-01
 -1.3152742e-01
  5.5138294e-02
 -3.7272889e-02
  1.8755618e-01
 -4.1394893e-02
  2.4113930e-03
 -6.2073126e-02
  1.4151983e-01
 -1.2165468e+00
 -4.4749901e-02
  4.7444720e-02
 -1.0442462e-02
  1.6426179e-01
 -3.3747680e-02
  1.9235185e-03
  1.5341814e-02
 -1.8132897e-02
  3.5855796e+00
 -4.9155299e-02
 -4.1604634e-02
 -1.5727468e-03
  7.8817993e-02
 -1.6675355e-02
 -8.2724117e-02
  3.2666640e-04
 -2.0691946e-02
 -3.4341261e-01
 -6.7457528e+00
 -4.4292104e-01
  7.6005891e-02
 -2.3924947e+00
 -3.0183527e-01
  6.8017292e-01
  4.1503578e-01
 -2.2262349e+00
 -3.1046858e+00
  9.1563410e-01
 -7.6140517e-01
  9.1554630e-01
  3.1269848e-02
  1.4619982e+00
  5.7042444e-01
 -3.3626124e-01
 -6.3277143e-01
 -1.1433785e-01
 -3.1064548e+00
 -2.1175413e+00
  1.9882661e-01
  6.7974240e-01
 -1.7216313e-01
  5.8745646e-01
  1.2340482e+00
 -3.3096713e-01
  7.5799179e-01
  1.3620191e+00
 -3.8338089e-01
  1.0137124e-01
  3.9678034e-01
  1.1236575e+00
  3.5911897e-01
  2.1834457e+00
 -6.7565262e-01
 -1.6024819e-01
  3.6838643e-02
  1.8320485e+00
 -7.7445799e-01
  2.3216417e+00
 -1.1817933e+00
  1.2644383e+00
  1.0479643e+00
 -1.1213171e+00
  2.0158251e-01
  3.2163840e-02
 -2.4138604e-01
 -2.2155178e-01
 -3.3723429e-01
  9.3850046e-02
 -3.2698306e-01
  2.4066415e-02
 -1.2314609e-02
  2.7951175e-01
  2.4719995e-01
  3.2533306e-01
 -4.0210295e+00
  3.7950495e-01
 -2.3220988e-01
  8.1053424e-01
 -3.6835334e-01
 -1.1431596e+00
  1.8379201e+00
  8.6354002e-02
  1.1088410e-01
  7.6855458e-02
  8.0404818e-02
  6.8055846e-02
 -1.3123819e-01
 -1.3942078e-01
  1.3564177e-01
  3.6489539e+00
  1.3212721e-01
 -7.5492814e-02
  1.6539034e-01
  5.5627590e-01
  1.8849546e-01
 -2.8155088e-01
 -4.4355202e-01
 -7.5173907e-02
  6.0325164e-01
 -1.6316330e-02
  1.7016718e-01
 -7.6724894e-02
  3.5470322e-01
  7.7653944e-02
 -1.7196774e-01
 -3.3099401e-01
  1.0427919e-01
  4.0932477e-01
 -1.8479742e-02
  1.9248271e-01
  1.1838211e-01
  3.8617620e-01
  1.7766845e-01
 -3.8977657e-02
 -2.2562377e-01
  4.4709895e-02
  3.8971847e-01
 -3.9351396e-02
  4.3722916e-02
  9.4508879e-02
  8.3725147e-02
 -1.2842332e-01
  5.6199070e-02
 -6.9434613e-02
  7.3035457e-03
 -2.1266501e-01
 -6.3598216e-01
 -1.6390318e-02
  2.2900970e-01
  6.4232290e-01
  1.2176530e+00
  2.2350361e+00
  8.0231673e-01
  1.1955862e+00
 -1.5863099e+00
 -1.1799847e-01
 -2.8883084e-03
  7.1619809e-02
 -6.9669820e-02
  7.3246844e-03
 -1.7068683e-01
 -1.7274201e-02
 -1.4069679e-01
  3.5223923e+00
  2.6108524e-01
 -1.2681539e-02
  2.2992179e-01
  1.4926398e-01
  1.9324224e-01
  4.9434012e-01
  1.8053177e-01
  2.9617468e-01
  3.4422031e-01
 -4.6151906e-01
 -1.7030665e-01
  7.9917647e-02
  4.1265197e-02
  1.0218073e-01
 -4.0750798e-02
  8.5869171e-02
  4.1938677e-01
  5.1295000e-01
  3.2041076e-01
 -9.8755024e-02
 -2.6291877e-02
  2.9317176e-02
 -3.7434310e-01
  3.3329153e-01
 -1.1278073e-01
  2.9349738e-01
  2.8746510e-01
  1.0496581e-01
 -1.2614234e-01
 -3.0263165e-02
 -1.1234613e-01
 -1.8747816e-02
 -4.9422044e-02
  2.3413785e-02
 -3.1791084e-02
 -7.8993782e-02
  1.9762195e+00
  1.7298241e+00
 -9.9839753e-01
  8.8951975e-01
  6.1870730e-01
 -2.0185783e+00
  1.4989787e+00
  2.5265747e-01
 -9.5311308e-01
 -2.9997474e-01
  7.5128056e-02
 -6.6507444e-02
 -2.9641041e-01
  1.9387600e-01
 -8.2144248e-01
 -2.7134457e-01
  7.6276012e-02
  4.6629751e-01
 -4.4548962e-02
  4.6231198e-01
 -8.0780369e-01
  5.0855041e-01
 -3.4608256e-02
 -5.0111049e-01
 -2.1430014e-01
 -2.7320641e-01
  9.8197091e-01
  2.4421496e-02
 -1.6681649e-01
  1.2029068e-01
 -2.4341618e-01
  9.1095001e-02
 -7.1309465e-01
 -1.1708779e+00
  1.3565301e+00
  8.9526772e-01
  5.6285226e-01
 -1.2615060e+00
  3.3879966e-02
 -4.8309517e-01
  5.2243751e-01
 -1.9680722e-01
 -2.4994323e-01
  2.1348362e+00
  3.9280683e-01
  6.8681419e-02
 -2.0050597e-01
 -2.1456873e-01
  2.5385872e-02
 -2.1928450e-01
  7.1592373e-01
 -4.9323060e-02
 -5.4648304e-03
 -2.6340815e-01
  5.6239165e-02
 -2.2695866e-01
  2.6319376e-01
  3.3504654e-02
 -1.3007425e-01
 -2.2092946e-01
 -2.4318282e-02
 -2.4612083e-01
 -8.1706785e-02
 -7.0824139e-02
 -5.8143966e-02
 -1.7061463e-02
 -2.1940529e-02
  3.8131945e-02
 -8.7955043e-02
 -1.7462328e-02
  4.0496690e-03
  4.2939957e-02
 -5.0606135e-02
  8.4728012e-03
 -8.8131633e-03
  5.5306423e-02
  1.9695353e-02
  4.7503151e-02
  2.0769214e-02
  2.3865439e-02
 -3.8875658e-02
 -1.9864123e-01
 -1.9395294e-02
 -2.3152009e-02
  3.1029578e-02
 -1.1384451e-01
 -8.0813780e-02
 -3.5077889e-02
  8.4935620e-02
  5.7374068e-02
 -4.0620487e-02
 -7.0591822e-02
  5.1993009e-02
 -2.4247151e-02
 -1.4205448e-02
 -7.5272955e-02
  9.6519692e-03
  2.4211968e-03
  4.1399382e-02
 -3.4506120e-02
 -1.8748570e-02
 -4.5679625e-02
 -1.8537812e-03
  5.3331256e-02
  1.3186118e-02
 -1.0870895e-03
 -2.1871265e-02
 -5.3563258e-03
 -1.1206099e+00
 -9.2870086e-02
  5.2058220e-01
 -2.7650639e-01
  7.0248228e-01
  2.8643162e+00
  7.5135720e-01
 -8.8999987e-01
 -6.8069404e-01
  6.5563488e-01
  7.9825640e-02
  4.5682508e-01
  1.0162501e+00
 -1.4826541e+00
  1.3302940e-01
 -2.8268436e-03
  3.4465367e-01
  3.6366870e+00
  1.3724215e+00
 -2.6878077e-03
  8.3772385e-01
  1.4893719e+00
 -2.4392751e-01
  4.5052531e-01
  6.0400480e-01
  4.8020405e-01
  1.0723232e+00
 -3.4215716e-01
 -3.1896900e-02
  9.2334181e-01
  1.4929425e+00
 -3.3432138e-01
  3.2659188e-01
  1.0076116e-01
  2.2827244e-01
  2.0873240e-01
  1.0319178e+00
  3.5386324e-02
  1.0441197e+00
  6.8850237e-01
 -1.0871936e+00
  2.0423967e-01
 -5.6263512e-01
 -3.3104613e-01
  1.8411882e+00
  3.5492823e-01
 -7.4501475e-03
  1.4663440e-01
 -9.2385814e-02
  1.1632358e-01
  1.8171176e-02
 -1.4840312e-01
 -2.1022666e-01
 -3.2784796e+00
  1.4296256e+00
  1.0119689e+00
  2.5764486e-01
 -5.8144469e-02
  2.7984600e+00
  1.3836037e+00
  1.8815719e+00
  1.4183106e+00
 -1.8152312e+00
 -7.7417660e-01
  3.8759541e-02
 -2.8700981e-01
  1.2207171e+00
  1.3200796e-01
  8.2411021e-01
  7.9854108e-02
  5.5018783e-01
 -2.4863401e-01
 -3.1763965e-01
  4.2835239e-02
  2.8668967e-01
  4.1705868e-01
 -1.5908270e-01
  6.0543132e-01
  9.5822565e-02
 -7.9996657e-01
 -4.8699811e-01
 -2.5614283e+00
 -2.7856565e-01
 -2.9597372e-01
  9.8495001e-01
 -1.3600198e+00
 -1.7088474e-01
 -1.2842916e-01
 -1.4491206e-01
 -6.2083501e-01
 -8.1186485e-01
 -4.4536480e-01
  3.4639075e-01
  1.1671388e+00
  7.7775109e-01
  2.0772979e+00
  1.1847688e+00
  5.1168823e-01
 -1.1260908e-01
 -7.3107190e-02
  2.1764968e-01
  4.4570717e-01
 -1.5586659e-01
 -1.1150767e-01
  6.1492097e-02
  6.2171537e-03
 -2.6388794e-02
  1.8509361e-01
 -3.9173216e-01
  3.8492877e+00
 -9.7544312e-01
  6.9734442e-01
 -1.3004123e+00
  2.7686160e+00
 -6.7071285e+00
 -1.7944993e+00
  4.8364633e-01
  3.0479482e-01
 -1.3422358e-01
  2.8307825e-01
  1.8536799e-01
  2.7828076e-01
 -6.4787734e-01
  2.7115747e-01
 -3.6738849e-01
 -2.5635701e-01
 -1.6949086e-01
 -6.8793446e-01
  2.9206601e-01
  4.9454129e-01
  1.4210719e-01
  3.7357154e-01
  4.7895578e-01
  1.5749606e+00
  2.8007734e-01
  3.6516064e-01
  6.3990021e-01
 -5.0167704e-01
  1.0199362e-01
  1.7397294e+00
  2.1172096e-01
  1.3892146e+00
 -1.4646364e+00
  5.4427695e-01
  9.5909572e-01
 -2.5543051e+00
 -4.1883874e-01
  1.1894554e-01
  3.5174781e-01
 -3.0674762e-01
 -7.2967285e-01
 -9.5604044e-01
 -1.7823566e+00
  7.8827962e-02
 -1.6416457e-01
 -1.0636164e-01
 -1.9179828e-01
  4.1279858e-01
 -8.0961496e-02
  2.6981160e-01
 -1.7235450e-01
 -6.1842120e-01
  3.6226887e-02
 -1.6080286e-02
  7.3514190e-03
  1.3349541e-02
  7.5094357e-02
  7.6709606e-02
 -1.1371229e-01
 -1.5054904e-01
  4.9068410e-02
  5.5684030e-02
  2.1140356e-02
  1.3256691e-02
  6.8390355e-02
 -7.1256948e-03
  3.7465647e-02
  1.2492180e-02
 -9.9160764e-03
 -7.6569609e-02
 -1.4739688e-02
 -7.0785448e-02
 -1.2503179e-02
 -2.9455436e-02
 -5.6733480e-03
 -5.4757502e-02
 -6.8983585e-02
  1.5347769e-02
 -4.9189758e-02
  6.6005014e-02
  1.0230032e-01
 -1.7768534e-02
  1.5196071e-02
  1.5133903e-03
  2.2973072e-02
  4.5714084e-02
 -7.6594025e-02
 -7.3830761e-02
  2.3127140e-02
  4.3063023e-04
  1.2995934e-01
 -3.7105411e-02
 -3.3923538e-04
  6.7353636e-02
 -1.6847625e-02
  3.3470754e-02
 -8.1035656e-01
 -1.3452870e-02
 -6.8543535e-01
  4.7270548e-02
  1.3385458e-02
  4.5432746e-03
  1.4766003e-02
  7.5513576e-03
 -3.2718077e-02
 -2.8495340e-02
 -1.9309514e+00
  1.8704792e+00
 -2.2166410e-02
 -1.2442557e+00
 -5.2280837e-01
  9.7435588e-01
 -8.5616446e-01
 -1.2681630e-01
  1.5643082e+00
 -2.3086867e+00
 -3.5766459e-01
 -7.0597833e-01
  7.2580600e-01
 -9.7449678e-01
  1.5528029e+00
  4.5001283e-01
  8.0762398e-01
 -2.8182167e-01
  1.0165014e+00
  2.1974726e+00
 -2.8837270e-01
 -1.2019114e-01
  2.7626687e-01
 -1.0333327e-02
  6.5272802e-01
  3.0248288e-02
 -4.0714083e+00
  1.5683537e+00
 -2.9746592e-01
  1.4319665e+00
  9.0110892e-01
  4.1340083e-01
  7.7102417e-01
 -9.8550254e-03
  1.5797322e+00
  4.1448590e-01
  2.4914708e+00
  7.4302860e-02
 -5.9882814e-01
 -1.3203480e+00
 -2.3082387e+00
  9.4454068e-01
  3.3048609e-01
  5.8393949e-01
  3.8084745e-01
 -1.2659651e-01
  6.6327125e-01
  3.1795594e-01
  7.3784381e-01
 -7.7341545e-01
 -1.4707717e-01
 -2.0358716e-01
  3.1741825e-01
  4.5567131e-01
  8.5758471e-01
  1.3463352e+00
  1.3972908e+00
 -3.6667538e-01
  1.7444776e+00
  9.0797287e-01
  6.4349785e-02
  3.9034054e-01
 -8.0392849e-01
  1.3378072e-01
 -3.7845472e-01
 -2.2239862e-01
  1.0770544e+00
  3.1223756e-01
  1.2887938e+00
 -1.3758704e-01
 -1.0586294e-01
 -1.8666691e+00
  3.1715611e-01
 -4.0717846e-01
  1.1394347e-01
  1.1850666e+00
 -4.4037887e-01
  1.6961281e+00
 -1.1963446e+00
  1.5166839e+00
  1.6122656e+00
 -2.6904123e+00
 -1.1380974e+00
  2.0774353e+00
  2.7542984e+00
  1.8829845e+00
  5.5445558e-01
 -1.5575732e+00
  1.8164148e+00
 -2.1826274e+00
  6.2714463e-01
 -5.9542519e-01
  8.3612937e-01
  2.1144357e+00
 -1.3327270e+00
  1.9071887e+00
 -1.3158791e+00
  1.0198185e+00
 -6.9562680e-01
 -5.8019619e-02
  1.0090609e+00
  4.0016425e-01
  2.2359030e+00
 -4.7384560e-01
 -1.8178272e-01
 -8.9567371e-02
 -8.3000883e-03
 -3.6140418e-01
  6.2575005e-03
  9.2370130e-02
 -2.4430674e-01
  1.6092607e-03
  4.4057973e-02
  2.7313333e-02
 -1.4544049e-01
 -2.7043321e-03
 -2.1156982e-01
  1.2284937e-01
  4.5686439e-02
  5.3449731e-02
  5.3692512e-02
 -2.2684237e-02
  1.1001933e-01
  7.2827056e-02
  5.3082358e-02
 -5.0490066e-02
  3.7554495e-02
 -3.7719753e+00
  2.1969324e-03
 -1.2544665e-02
 -1.8131562e-02
  5.1429916e-02
 -2.3414154e-02
  3.9066292e-02
 -7.5668633e-02
  2.1619064e-01
  1.0041566e-01
 -2.1681818e-03
  1.3285238e-02
 -2.0840364e-02
  5.2060850e-02
  8.1565276e-02
 -6.0141712e-02
 -1.5608150e-01
  1.0262898e-01
  8.5280836e-02
 -1.0487844e-02
  1.3572749e-02
 -3.6090430e-02
  1.7505710e-01
 -1.0094461e-03
 -7.6848745e-02
  9.8902192e-03
  1.9878594e-03
  1.6660579e-02
 -1.8192263e-02
  1.9936563e-02
 -1.0830354e-02
  4.6387341e-02
  3.0059376e-04
  3.2992054e-02
  6.6089244e-03
  1.0187911e+00
 -8.4421732e-02
  3.1989477e+00
  1.5007734e+00
  1.4837995e+00
 -1.7726705e+00
  2.3337946e+00
  8.2340300e-01
 -1.9841021e+00
 -3.2759887e-01
 -4.5133401e-02
 -1.7676760e-01
 -3.5545766e-01
 -5.4514408e-01
 -8.5638911e-02
  1.1128826e-01
 -1.9656341e-01
 -5.9741622e-01
  1.0154947e-01
  1.0396544e+00
 -1.3327551e+00
 -1.2395473e+00
  1.4745916e-01
  1.0464001e-01
 -1.3071408e+00
  6.1521012e-01
 -1.1184504e+00
  6.0330862e-01
 -4.0580589e-01
  1.6754410e-01
 -7.6240993e-01
  3.3175886e-01
 -4.5358092e-01
 -7.0604676e-01
 -3.5550514e-01
 -3.6641216e-01
  4.6555689e-01
 -9.6309716e-01
 -8.7833452e-01
 -4.3249253e-02
  1.0025234e+00
  5.5832428e-01
 -7.4054158e-01
 -2.1986574e-01
  1.0169886e+00
 -1.0740022e-02
  8.0473088e-02
 -1.6359420e-01
  4.5799535e-02
  6.6978663e-02
  9.1811024e-02
 -1.3121234e-01
  2.2759047e-01
  8.9527386e-01
  1.6817156e+00
  2.1319747e-01
  1.5889099e-01
  2.0294550e-01
 -2.2322252e+00
 -1.0024635e+00
  1.1764612e+00
  1.7720141e+00
  8.6830360e-01
 -4.9599868e-01
  1.7793393e-01
 -1.9172582e-01
 -1.3113555e-02
 -3.5879666e-01
 -6.4106375e-02
  1.5819876e-01
  1.9329119e-01
 -1.4856964e-01
  5.3342748e-02
 -2.2539891e-01
  1.7604943e-03
 -4.9469948e-01
 -3.5684344e-01
  7.2942205e-02
 -7.3392880e-01
 -1.0232869e-01
  1.2376117e+00
 -1.9406272e-01
  1.4966519e-01
 -2.1717550e-01
 -1.3633206e-01
 -3.5010916e-01
  2.8092676e-01
  1.0851024e-02
 -2.5394949e-01
  8.2068098e-01
 -1.1344133e-01
  2.9148614e-01
 -2.3629344e-01
  1.3150615e-01
 -1.4890999e-01
  2.6503432e-01
 -3.6626938e-01
 -4.3992791e-01
 -2.2458489e+00
 -1.0111523e-01
  1.4355548e-01
  5.5537887e-02
  4.8182301e-02
  5.7281498e-02
  2.8244035e-02
  1.0981134e-01
  7.2296940e-02
  2.3062459e-01
 -5.3326714e-01
  2.9744897e+00
  7.6654351e-01
  1.5709235e-01
 -2.6071661e+00
  2.0396175e+00
  1.0826153e+00
 -4.1817883e-03
 -5.3437233e-01
  1.6411507e+00
  1.7973532e-01
  5.1077312e-01
 -1.9120242e-02
  1.5808567e+00
  1.2772670e+00
  1.7629969e-01
  4.2843792e-01
 -5.1250058e-01
 -4.9688953e-01
 -8.3617598e-01
  6.5614545e-01
 -7.7629530e-01
  4.6539700e-01
  2.6829352e+00
  7.4880838e-01
  2.3322041e-01
 -1.6709076e-01
  1.1166919e+00
  6.9953346e-01
 -1.7022546e-01
 -1.9103481e-01
 -1.6084917e+00
 -4.1333321e-01
  5.5266857e-01
  1.1638298e+00
 -8.1561977e-01
 -3.7464172e-01
  5.7172960e-01
  1.0207045e+00
  1.0255105e-01
 -4.7689456e-01
  6.9408202e-01
 -3.7101832e-01
  2.6482449e+00
 -1.3296000e+00
  1.0848908e-01
  1.5315771e-01
 -2.4438879e-02
 -1.3313624e-01
  2.8996173e-01
 -1.4099912e-01
  8.0412500e-02
 -1.3399462e-01
  2.3456384e-01
 -5.3033900e-01
  2.9074687e-01
 -3.1625283e+00
 -1.2312337e+00
 -2.0770510e-01
  1.6213931e+00
  2.3741700e-02
 -2.4224963e+00
  3.5004802e+00
  6.4612351e-02
  2.7483925e-01
  4.1271441e-02
  3.7323704e-01
  1.4245714e-01
  1.2772921e+00
 -1.1047689e-01
  2.9939568e-01
 -8.1749988e-01
 -9.1256309e-01
  2.2125310e-01
  2.4754538e-01
  9.0211105e-01
  4.8087427e-01
  3.3228672e-01
  2.0578532e-01
 -2.1601994e-01
 -1.5709037e+00
  6.2793106e-01
  3.8984054e-01
  8.1585810e-02
  6.4068663e-01
  3.3860683e-01
 -6.7001060e-02
 -3.5919404e-01
  2.4643162e-01
  1.6119056e+00
  3.2201737e-01
  3.1626654e-01
  1.1395482e-01
  1.3991266e+00
  3.2119662e-01
 -9.2621231e-01
 -4.1364884e-01
  1.9107023e-01
  2.4923748e-01
 -1.2529901e-01
 -1.1670807e-02
  4.8951045e-02
  2.8631079e-01
 -1.5410282e-01
  4.9543664e-02
 -1.1622260e-01
 -3.6471970e-02
 -1.1512591e+00
 -1.5625889e+00
 -1.1102633e-01
 -1.5347556e+00
 -7.0617461e-01
 -1.7471788e+00
  6.9149274e-01
 -9.0936792e-01
 -2.3587892e+00
  4.5915875e-01
  9.8308608e-02
  3.2287441e-02
  8.3443485e-02
  1.1514963e-01
  2.1574999e-01
 -7.5748816e-02
 -7.6751582e-02
 -8.3802035e-03
 -8.1362516e-01
  3.3115530e-01
 -4.9259271e-02
  3.4490383e-01
  3.8640121e-01
  1.8598408e-02
 -1.1249834e+00
 -1.1182038e-01
 -5.6407863e-01
  2.5980945e+00
  2.9893950e-01
  3.2681218e-01
  3.3231597e-02
  2.8643963e-01
  1.0515391e-01
  2.1374675e-02
 -4.3174040e-02
 -1.6750986e-02
 -1.8755178e+00
  4.7994751e-01
  7.0177990e-01
  2.1212120e-01
  6.1426568e-01
  2.0217048e-01
  1.2785929e-01
  1.5607162e-01
  3.0934271e-01
  1.6424960e+00
  6.6239528e-02
 -6.1647456e-02
  2.2399997e-02
  1.3692130e-01
 -5.7794452e-02
 -2.2241693e-02
 -1.6411382e-01
  4.7471154e-02
  2.5904014e+00
 -6.3314331e-01
 -4.6173573e+00
 -1.2642658e+00
 -2.8554690e-01
  3.7584576e-01
 -1.0551380e+00
 -1.2086078e+00
 -1.7655532e+00
  1.1392436e+00
 -5.7331300e-01
  2.0602518e-01
  4.0904492e-01
  5.1763487e-01
 -4.6042898e-01
  2.1214669e+00
  2.9244757e-01
  8.7368131e-01
 -8.1808448e-01
  1.6448954e+00
  4.8960041e-02
  7.3216629e-01
  4.8388290e-01
  3.4235573e-01
 -3.4082034e+00
  5.2939969e-01
 -1.4153880e+00
 -8.4999770e-01
 -6.6345763e-01
  1.7911588e+00
 -8.0138464e-03
 -2.3774785e-01
 -6.0164875e-01
 -2.1322573e-02
  1.0353495e+00
 -1.9586928e+00
 -2.8492000e+00
 -4.4030409e-02
 -4.0581036e+00
 -1.0064073e+00
  4.3436211e-01
  1.9240154e+00
 -1.7905834e+00
  1.2003331e+00
  1.0143012e-01
  1.0129493e+00
 -3.3296490e-01
  9.1070843e-01
  3.5261819e-01
  3.8925147e-01
  3.1370029e-01
  1.9610953e-01
  9.4056278e-02
  1.8831474e-01
  7.4123436e-01
  1.9282563e+00
 -1.1219260e+00
  4.6170372e-01
  2.8233191e-01
 -3.1737440e+00
  6.9648319e-01
 -7.9250687e-01
 -1.9722500e+00
 -7.7302985e-02
 -6.1182970e-01
 -6.3129306e-02
  2.7274105e-01
 -8.5743201e-01
  2.0686479e-01
 -8.6305624e-01
  8.1462950e-01
  4.2939115e-01
  1.3636937e+00
  6.3798237e-01
  6.3714802e-01
 -1.5255553e-02
  7.5263703e-01
 -4.4933680e-01
 -1.2945159e-01
  1.3881720e+00
  2.0868549e-01
  2.8096969e+00
 -5.7683235e-01
 -1.1569006e+00
  6.6801381e-01
  4.0222540e-01
 -6.3236958e-01
  3.7688044e-01
 -3.6776230e-01
  9.6080548e-01
 -6.1699641e-01
  1.2372020e+00
 -7.9994226e-01
  9.0707883e-02
  7.1828449e-01
  9.4145733e-01
  1.3788588e-01
  6.8931454e-01
 -3.8947657e-01
  1.9344952e+00
  4.1148331e-02
 -2.8965941e-01
  3.7742150e-01
  9.7835861e-02
  2.0287453e-01
  1.0698950e-01
 -1.9446261e-01
  1.0979468e-01
  8.2533973e-01
 -9.8705566e-01
 -4.7494952e-02
 -1.9854472e+00
 -1.1444350e-01
 -2.3912733e+00
 -1.0743737e+00
 -1.2742240e+00
 -8.4145677e-01
 -1.8265865e+00
  4.0878111e-01
 -3.4222312e-02
  1.7552893e-01
 -3.8582850e-01
  1.9694923e-01
 -7.8700143e-01
 -2.5174025e-01
 -2.0322832e-01
  5.0070441e-01
  6.1273992e-01
 -1.9608004e-01
  2.9197648e-01
 -4.1970432e-01
 -5.3729647e-01
 -8.8269264e-01
  3.8815789e-02
  3.3568859e-01
 -7.7123427e-01
  4.8415837e-01
 -4.4993526e-01
  4.2641845e-01
 -5.8585083e-01
  1.8427688e-01
 -1.7936972e-01
 -3.0762637e-01
  1.1549805e-01
  1.1479097e-01
  1.7852134e-01
  1.5083511e-01
 -2.5842285e-01
 -6.7027479e-01
 -4.7592646e-01
 -5.8733672e-01
  1.8371701e-01
 -2.2926949e-01
 -1.3306552e+00
  1.0448439e-01
 -1.7410579e-01
 -1.4405847e-01
  2.0263171e-01
  1.8401837e-02
 -3.3708345e-02
 -5.7920512e-02
  5.9337158e-02
 -1.3168526e-01
 -2.2263780e-02
  9.4580114e-02
 -1.1584052e-01
 -2.5096008e-01
  4.5118302e-01
  2.1330345e-01
 -3.1269434e-01
  1.4920241e-01
  1.2316172e-01
  3.4025502e-01
  5.4073595e-02
  7.8258596e-02
  1.4582559e-01
  1.9094467e-02
  1.3408875e-01
  1.4770636e-01
  1.8473575e-01
 -1.4604996e-01
  2.4813344e-01
 -3.7041873e-02
  1.3099954e-01
 -6.7135476e-02
  1.1957884e-01
 -2.4997866e-01
 -2.4573374e-01
 -7.4253671e-02
 -2.0718203e-01
  2.9373839e-01
  2.3808800e-01
 -8.9273907e-02
  3.2507461e-02
  3.2151945e-02
  1.3469273e-01
  1.2899605e-02
 -1.8182330e-02
 -1.0952429e-01
  1.6798091e-01
  8.8251486e-02
  9.3795955e-02
  1.4320202e-01
 -2.2854507e-01
 -2.1936257e-01
 -1.5387693e-01
  7.0657855e-01
 -1.5827930e-02
  5.6506660e-02
  2.6798304e-02
  1.0171261e-01
  1.0895387e-01
 -6.1783707e-03
  1.7263528e-02
 -3.7443686e-02
  2.5366968e-02
 -3.2528125e-02
 -2.2123568e+00
  1.0215639e+00
 -5.7906908e-01
 -9.0225357e-01
 -2.2168801e+00
 -2.1822336e+00
  1.2730739e+00
 -8.9459068e-01
 -1.2095703e+00
 -1.5650550e-01
  1.7674639e+00
  3.7638057e-02
  1.2504507e+00
 -9.9222988e-01
 -1.8206598e-01
  8.2211500e-01
  3.5573247e-01
 -4.7420716e+00
  2.0613658e+00
  3.9832950e-01
 -1.6353679e-01
 -1.7488712e-01
 -4.5854822e-01
 -3.1408015e-01
 -2.9716265e-01
  4.7178206e-01
 -1.4391676e-01
  4.7494617e-01
 -3.4174635e+00
 -2.5568980e-01
  6.9905296e-02
 -4.3797120e-01
 -3.9207959e-01
 -1.3005046e+00
 -6.6534853e-01
 -2.2553496e+00
 -7.2683120e-01
 -2.8420532e-01
  5.8869314e-01
 -4.0961611e-01
  6.7723030e-01
 -1.8695788e+00
 -3.3403501e-01
  6.9408834e-01
 -7.5185853e-01
 -1.4134984e-01
  1.5551247e-01
 -6.2584803e-02
 -4.4825920e-01
  2.0039015e-01
  5.9040564e-01
  2.7576590e-01
  1.2774463e-01
  2.2407587e+00
 -2.6048496e+00
 -1.9659151e+00
