nep4_zbl 2 Te Ge 
zbl 0 0
cutoff 7 7 81 81
n_max 8 8
basis_size 8 8
l_max 4 2 0
ANN 70 0
  1.0154747e+00
  8.2625204e-01
 -1.1772220e+00
  6.9881457e-01
 -4.4136733e-01
 -4.1779232e-01
 -1.7914052e-01
 -2.6536170e-01
  2.6414305e-02
  1.0392494e-02
  8.4274590e-02
 -2.0906353e-01
 -1.6745357e-01
 -3.2266453e-02
 -1.7489412e+00
  1.7648425e-04
  4.1619844e+00
  3.3288407e-01
  4.5800488e-02
  2.5933203e-01
 -1.6971900e-01
 -3.9357281e-01
 -9.5424140e-03
  1.1453906e-01
 -1.4214898e-02
 -4.6017465e-01
 -2.2095861e-02
 -1.1245397e-01
 -1.2588069e-01
  1.7499626e-01
  1.4523137e-01
  2.2941037e-01
  1.4382035e-01
  1.6976468e-01
 -3.3033469e-01
  1.5046366e-01
 -3.1077553e-02
  6.4172529e-02
 -1.3290256e-01
  1.9886744e+00
  1.2649095e-01
  3.5225794e-01
  2.4177685e-01
  2.2753216e-01
  5.9090823e-01
  1.8153122e-01
  7.4104257e-02
 -1.5777567e-02
 -7.5741529e-02
  6.1438341e-02
  1.1933178e-01
  1.4502506e-01
 -1.3843141e-01
  1.1898865e-01
  7.2741807e-01
 -1.5361283e+00
  9.3715811e-01
 -1.3596551e-01
  2.6646954e-01
 -6.9345212e-01
  9.6544224e-01
  1.7920128e-01
  6.8812191e-02
  1.0886430e-01
 -1.9600664e-01
  1.3512956e-01
  3.6944719e-03
  1.9921041e-03
 -1.0124535e-01
 -9.9860072e-02
  3.1455654e-01
 -3.6365050e-01
 -3.1024081e-01
 -1.2729371e-01
 -5.2018575e-02
 -6.1473336e-02
 -3.4597363e-02
  5.0069563e-02
  1.8448828e-01
  1.4459309e-01
 -1.9694081e-01
  2.7634636e-01
 -2.8576109e-01
  1.1646246e+00
  4.8228126e-02
 -1.2394805e-02
 -2.3613222e-01
  5.6870297e-02
  2.5417888e-01
  1.3964567e-01
  1.9226362e-01
  7.2870642e-02
 -1.5807521e-01
  5.4859396e-02
 -4.3373275e-01
  1.2851545e-01
  2.7571288e-01
 -6.9804147e-02
 -3.5764432e-01
  1.5111317e-01
 -1.4721538e-01
  3.7555069e-01
 -1.4385402e-02
  1.4347346e-02
 -1.2887949e-01
  7.3161185e-02
 -1.2810242e-02
 -1.7441241e-02
  3.5324630e-01
  1.6986345e-01
  1.3108935e+00
 -5.7942736e-01
  4.3605046e+00
  1.5642445e-01
  2.5755712e-01
 -1.3927935e-01
 -2.0358810e-01
 -2.1831214e+00
  1.8883158e-02
 -7.9181451e-01
 -1.2887570e-01
  1.8336374e+00
 -3.5718325e-01
  1.5195619e-01
 -4.7746447e-01
 -6.1811334e-01
  1.5599777e+00
 -2.4308644e-01
  7.2449416e-02
 -7.8056082e-02
 -7.8894448e-01
  5.0491381e+00
 -3.1192252e-01
  1.9027930e-01
  2.2134760e-01
  4.3600118e-01
 -6.5938443e-02
  1.2189680e+00
  5.2095022e-02
 -2.9165941e-01
 -2.0132918e+00
  1.1631922e-02
 -8.6703844e-02
 -4.6357569e-01
  3.5145995e-01
  5.9221812e-02
  1.2935044e+00
 -1.7375273e-01
 -2.7903995e-01
 -1.2572918e+00
  4.9817897e-02
 -1.3284162e+00
 -3.8728940e-01
 -2.4903266e-01
  3.0634070e-02
 -1.8596699e-02
 -3.8227927e-02
 -2.6259539e-01
  1.0765884e+00
  3.9785627e-02
  6.9467485e-02
 -1.6063456e-01
  1.6944020e+00
 -3.7103489e-01
 -2.6881456e+00
  9.0361446e-01
  8.7450260e-01
 -1.4026265e-02
  7.4524885e-01
 -1.3630980e-01
  1.5366790e-01
 -6.6961907e-03
 -1.1318372e-02
  7.1480437e-03
 -4.2263862e-02
 -2.7080747e-01
  2.1733840e-01
  1.4755349e-01
  5.2888848e-02
 -5.5149486e-03
 -1.4940272e-01
  3.6507738e-01
 -7.9246551e-02
  6.4437932e-01
 -2.9330808e-01
  4.3444851e-01
 -3.2800785e-01
 -4.0045999e-02
 -1.5319223e+00
  1.4438753e-01
  2.0257661e-01
 -8.2632370e-02
 -1.6076314e-01
  6.2452167e-02
  1.0904641e-01
  8.2604468e-02
  2.8959909e-01
  1.2340798e-01
 -2.6828060e-01
  2.9286391e-01
  3.4168777e-01
 -8.4188066e-02
 -6.7699975e-01
 -3.7886837e-01
 -6.1986979e-02
  3.2124221e-01
  1.6740846e-02
  2.9474705e-01
 -3.0827146e-02
 -1.9186357e+00
 -1.6158098e-01
 -1.0030073e-01
 -1.6308931e-01
 -4.6864379e-02
  1.2296119e-01
 -1.6393727e-01
 -2.3372604e-02
 -3.8944472e-02
  1.7837157e-02
 -2.7852315e-02
  1.4885119e+00
 -4.2314507e-02
 -2.5422654e-01
 -4.3910552e-02
  2.1628368e-01
  2.0628013e-03
  1.0886582e-01
  1.4563857e-01
 -1.7794177e-02
  6.3298240e-02
  5.7638723e-02
  5.3693939e-02
  8.4297704e-03
 -1.2382016e-01
  8.1233241e-02
 -9.3892373e-02
  3.9369129e-02
  2.9055245e-02
 -6.8184726e-02
 -1.7158242e-01
 -1.2306559e-01
 -3.0450612e-02
  2.2897227e-02
 -7.8910768e-02
  7.7748913e-01
  7.1628794e-02
  2.6316550e-02
 -3.9702974e-02
  3.5913639e-02
  4.7049202e-02
  6.3445926e-02
  1.1459664e-01
  1.2760513e-02
  1.2921454e-02
  5.5304265e-01
  1.3246534e-03
  4.2130362e-02
 -8.6470932e-02
  1.0723394e+00
 -3.3121246e-03
 -4.9324833e-02
 -3.7271664e-02
  2.0811822e-02
 -5.9532043e-02
  6.2729031e-02
 -8.2593560e-02
 -1.8662560e-01
  4.5630615e-02
 -3.6661044e-01
  7.4932665e-02
  1.6145431e-01
 -1.1995983e-01
 -1.7218709e-01
  1.9129072e-01
 -5.6920642e-01
 -5.3308561e-02
  7.0019081e-02
  7.0670955e-03
  1.0242786e-01
 -1.0322488e-01
 -1.9498972e-02
  4.2063248e-01
  3.9122283e-02
 -2.1004625e-01
  8.8461570e-02
  4.6974167e-02
  7.4147455e-02
 -1.1799821e-01
  1.2155903e-01
 -1.3865125e-01
  7.0063636e-02
  1.8977068e-01
 -1.0218722e-01
 -4.3546356e-02
  8.5843198e-02
 -1.7452937e-01
 -6.1926604e-03
 -4.8344381e-02
 -1.7447770e-02
  1.7117823e-02
  7.4990183e-02
 -2.8712836e-01
 -2.1173792e-02
 -7.8538418e-02
  1.0455447e-01
 -1.6304751e-01
 -5.5360910e-03
 -6.9026798e-03
 -7.2864376e-02
 -4.0639583e-02
 -8.9508754e-01
 -1.6491463e-02
  1.3754413e-01
  5.9765439e-02
 -1.9701645e-01
  1.4158793e-01
 -3.6935556e-01
  3.1693019e-02
  1.7303403e-02
 -5.9982117e-02
  1.4211190e-02
 -3.9085172e-02
 -5.4513149e-02
 -6.6309676e-02
 -1.3046220e-01
  7.3359895e-01
 -2.2166264e-01
  5.5945235e-01
 -1.0911472e+00
 -2.2928846e+00
  1.9656565e+00
  1.5985791e-01
 -6.7941239e-04
  3.0306908e-01
  3.1535633e-02
  3.9940941e-01
 -3.1952569e-01
 -1.1363118e-01
 -5.9650594e-01
  2.8746435e-01
  3.9286259e-01
 -1.1463972e+00
  1.4883313e+00
 -5.0296044e-01
  4.9249250e-02
  1.0591784e+00
 -7.9824686e-01
 -2.3860791e+00
 -9.0402806e-01
  5.8724958e-01
 -6.6696143e-01
  1.2425461e+00
 -2.2242463e-01
  4.7784567e-01
  1.0119587e+00
  6.6038024e-01
 -1.0003548e+00
 -9.7761251e-02
  4.8456168e-01
 -1.8032198e+00
  8.6782682e-01
  1.6013296e-01
  3.0117878e-01
 -3.7277925e-01
  5.5843103e-03
  1.7822729e+00
 -3.2121596e-01
  4.3823364e-01
  3.5819772e-01
  3.8751766e-01
 -3.3563395e+00
  2.6414412e-01
 -5.0912585e-02
 -3.8624635e-01
 -2.2655819e-02
 -1.1310543e-01
  3.4599298e-01
 -4.3526536e-01
  1.1886458e+00
  6.0010272e-01
  1.5639436e+00
 -7.0435774e-01
  7.0014238e-01
 -2.9561491e+00
 -8.4848183e-01
 -6.2544787e-01
 -2.4859808e-02
  1.2430757e+00
 -1.8869871e-02
 -4.8767976e-02
 -2.1129604e-01
 -1.0295618e-01
  4.9886578e-01
  3.2329255e-01
  9.8895007e-01
 -9.6053845e-01
 -2.6975749e+00
 -1.7153440e-01
 -3.1991723e-01
 -1.2773548e-01
 -7.8064561e-01
  4.7428644e-01
 -5.2785102e-02
 -4.7058847e-02
 -7.3092949e-01
  1.5562738e-01
 -4.6583053e-02
 -1.5120038e-01
  1.9192912e-02
  1.3235071e-02
 -1.0223747e-01
  4.0320310e-01
 -6.7337744e-02
 -3.4341913e-01
  1.2154930e-01
 -3.7624184e-02
 -1.7160815e-01
 -1.1698887e-02
  7.1130478e-01
 -1.5733383e+00
 -4.4291306e-02
 -1.1961419e-01
 -4.3755177e-01
  4.1839251e-01
  5.4957524e-02
  8.1838835e-03
  1.8795386e-01
 -1.4361450e-01
 -2.4898984e-01
 -5.4113403e-02
  5.0903028e-03
  3.0690673e-01
 -1.2019159e+00
  7.4155521e-01
  7.7881344e-02
  1.1104774e+00
 -2.3005918e-01
 -7.3932368e-01
  3.3598348e-01
 -1.2929684e+00
 -5.2308547e-01
  4.1036937e-01
 -1.1631048e-01
  3.4741527e-01
  3.8199249e-01
  2.2226484e+00
  7.9587829e-01
  2.1227124e+00
 -8.0472755e-01
  3.2239297e-01
  3.7610215e-01
 -7.1680146e-01
  3.5588926e-01
 -7.5642556e-02
 -7.8030980e-01
 -3.5170012e-03
  1.2582774e+00
  6.6237199e-01
 -2.0421369e+00
  5.9052455e-01
  1.0497521e+00
  6.7986183e-02
  9.6619433e-01
  2.0242535e-01
 -4.9829087e-01
  5.3688473e-01
 -6.5906388e-01
  9.0689081e-01
  3.1816229e-02
 -1.8930223e+00
  6.2706977e-01
 -2.0080662e+00
 -1.1486715e+00
  1.3628441e+00
  2.3590253e-01
  9.8576528e-01
 -1.9494210e+00
  1.5275100e-01
  3.4914497e-01
 -3.0916816e-01
  3.7987530e-01
 -3.2718560e-01
 -1.0848931e+00
  3.2325885e-01
  1.1484553e-01
 -1.0209885e+00
  8.2299376e-01
  9.3528360e-01
  4.1692597e-01
  8.0671406e-01
  1.2505794e+00
  3.6166372e+00
 -2.1983227e-01
 -1.4191124e+00
 -5.9248006e-01
  3.4896114e-01
  2.0875925e-01
  9.7306538e-01
  1.7359491e-01
  1.0815795e-02
 -8.4005153e-01
  1.0432540e+00
 -5.5610646e-02
 -1.1632781e+00
  1.1913608e+00
 -5.5104023e-01
 -4.6881834e-01
  1.7669847e-03
 -1.9906746e-01
 -1.0653225e+00
  1.6356449e+00
  9.3216592e-01
 -2.9175037e-01
  1.2814830e-01
 -4.5980808e-01
 -3.1261798e-02
 -4.1782701e-01
  5.6092310e-01
  1.3215631e-01
  6.5801662e-01
  7.1065408e-01
 -1.0049628e+00
 -4.1564599e-01
  8.9518356e-01
 -6.4450544e-01
  1.7898787e-02
  1.1480514e-01
 -4.0302980e-01
  1.6853415e+00
  3.4975696e-01
  5.2058853e-02
  1.4738524e-01
 -1.3373405e-01
  4.8750333e-02
 -8.5113861e-02
 -5.0252199e-01
 -1.1950058e-01
  5.1687282e-02
 -2.0942780e-01
 -2.7458087e-01
 -9.7373646e-01
  2.0390594e-01
 -2.6826556e+00
 -2.3680076e-01
  1.0116057e-01
 -1.0805086e-01
 -1.7666371e-01
 -1.8884467e-02
 -1.0058875e-02
 -1.7387693e-01
 -8.3053927e-04
 -6.3249767e-02
 -4.0345557e-02
  2.9515181e-02
 -1.4925969e+00
 -1.0177150e-01
 -1.2011457e-01
 -1.7761596e-01
 -1.6750768e-02
 -5.4662723e-02
  7.0034347e-02
 -8.1396317e-03
 -8.7698847e-02
  1.5288135e-01
  9.4442546e-02
 -2.4596588e-01
 -1.7171320e-02
  8.4829859e-02
 -8.9535877e-02
 -1.5758054e-03
 -7.0847042e-02
 -1.7604488e+00
 -4.8065046e-03
  5.9082612e-02
 -3.2322847e-03
  3.2703128e-02
 -2.9909343e-02
  8.9737490e-02
 -2.3677867e-02
  1.3501137e-01
  6.3225403e-03
 -2.3888673e-01
  1.3283587e-01
  3.6169849e-02
 -7.7347518e-03
  9.7174846e-02
  3.4206316e-02
  5.2239680e-01
 -4.9050648e-02
 -1.7970270e-02
 -4.2664561e-02
 -5.9855182e-02
  2.8352551e-03
  4.2284962e-02
  2.4228649e+00
 -1.5979028e+00
 -1.9923867e-01
  5.4801899e-01
 -1.1088568e+00
 -5.6478739e-01
 -9.4121867e-01
  1.2950641e+00
  3.7872780e-02
  8.4526217e-01
 -8.7934218e-02
 -1.9145501e-01
  5.0519947e-02
  2.3609324e-01
  5.4229957e-01
  7.8232044e-01
 -1.7560703e-01
  4.4887039e-01
  1.5552634e+00
  4.1013937e-02
 -4.4661632e-01
 -7.9434223e-02
 -1.6240484e-01
  1.6858786e+00
  1.3079789e+00
  3.0700484e-01
  4.4673836e-01
  7.4479830e-01
 -3.3278221e-01
 -3.7133563e-01
 -3.3357316e-01
  5.4355192e-01
  9.3831605e-01
  8.9029014e-01
 -2.2449899e-01
 -1.0194803e+00
  1.1963457e+00
 -5.6273866e-01
 -3.8250551e-01
  1.3990752e-01
  1.4202172e+00
  1.5529926e+00
  9.2618686e-01
 -3.5251170e-01
  5.7339136e-02
  2.9504704e-01
  1.0808598e+00
  7.2061241e-01
  5.8193286e-03
 -1.0090699e-02
 -4.5966470e-01
  3.0857286e-01
  2.6426756e-01
  4.4545397e-02
 -4.3391395e+00
 -1.0077653e+00
  2.6971557e+00
 -6.0602206e-01
  2.1715102e+00
  2.3936449e-01
  2.3672218e+00
  5.1405203e-01
  6.0788774e-01
 -2.8957125e-02
 -1.6644198e-01
  2.9694742e-01
  3.6797053e-01
  2.7022988e-01
  3.4963292e-01
  1.5056893e-01
  1.2334026e+00
  9.5338732e-01
 -4.4110101e-01
 -2.5197396e-02
  3.9842033e-01
 -1.5678531e-01
  9.8892622e-02
  1.1430828e-01
  2.5791299e-01
  6.3218755e-01
  2.7526009e-01
 -2.5881099e-02
  7.8172527e-02
  9.3325756e-02
  3.9225221e-01
  1.2306923e-01
  8.7322565e-03
  2.0322111e-01
  7.5024098e-01
  3.7241492e-01
 -1.3080535e+00
  1.5351279e+00
 -9.0094216e-02
 -1.8300952e-02
 -6.1038160e-03
  7.7735400e-01
  2.4403797e-01
 -4.3092421e-01
  1.4811909e+00
 -2.8692928e-01
  8.6756609e-03
 -1.1773382e-02
 -7.3330984e-02
 -1.1358880e-01
 -1.1481927e-01
  3.5931036e-02
 -1.2234785e-01
 -4.2702012e-02
  4.0716580e-01
  4.7093678e+00
  1.9967798e+00
  2.7076440e+00
  5.6015511e+00
  1.1965430e+00
 -4.3764792e-02
  5.8564585e-01
  1.0587667e-01
  2.2590452e-01
  3.5027450e-01
 -1.2798749e-01
  3.1251678e-01
  3.4519005e-01
 -7.3064435e-01
 -5.1690888e-01
 -5.6912776e-02
 -2.9966569e+00
 -3.3766046e-01
 -3.4452951e-01
  2.6443478e-01
  1.7662805e-01
 -9.7308552e-01
 -7.7907872e-01
  4.3497196e-01
 -1.2875146e+00
 -1.4885148e-02
 -2.8403124e-01
  3.9898416e-01
  1.6033103e-01
  1.3310258e-01
  8.6463940e-01
 -8.8298351e-02
 -4.7578561e-01
  4.3065515e-03
 -1.1230820e+00
  7.5826901e-01
  4.1505333e-02
  2.7678290e-01
  1.0361973e+00
  2.4659843e+00
 -1.5570567e+00
 -6.3688695e-01
 -1.5099601e-01
 -1.1506175e+00
 -2.8832948e-02
  7.8998864e-02
  5.5658493e-02
 -1.2970696e-01
 -1.9413273e-01
  1.5034264e-01
  2.3802880e-02
  5.2122302e-02
 -2.0697393e-01
  9.7418867e-02
 -9.4891220e-02
 -1.4141287e-01
 -7.6496429e-03
 -1.6142927e-01
 -3.0556906e-02
  8.4909953e-02
  1.5246493e-01
 -6.4429522e-02
  1.0088903e-02
 -6.1348516e-02
 -5.7002332e-02
 -1.2931933e-02
  3.1799667e-02
 -3.5875502e-01
  4.5553073e-02
 -3.3813015e-02
 -1.0991703e-01
  8.2314812e-02
 -1.0991777e-01
 -1.2490091e-01
 -2.9373167e-02
 -5.4406852e-02
 -2.7149275e-02
 -4.1785344e-02
  5.1005546e-02
  4.2616095e-02
  9.3018271e-02
  2.2112980e-02
 -1.0980334e-02
 -3.1039329e-02
  4.0226121e-02
 -2.6578175e-02
 -7.7427648e-02
  2.2430660e-02
 -4.9245384e-02
 -1.3512696e-01
  2.8984185e-02
 -4.4169981e-02
  7.1022302e-02
 -1.0086313e-01
  7.3927090e-02
 -6.9746733e-02
 -3.2843933e-02
  2.0108785e-02
  8.2474075e-02
 -5.0861005e-02
  4.8917476e-02
  5.7871924e-03
  7.7647278e-03
  5.0353743e-02
  3.5766952e-02
  1.3077057e-02
 -7.7719644e-02
  1.8554699e+00
 -8.9004654e-01
  3.6241026e+00
  4.9651149e-01
  9.2915249e-01
 -9.9278018e-02
  1.0757258e+00
 -2.7268752e-03
 -2.2158725e-02
  8.0022752e-01
 -1.9085892e-01
  1.1679620e-02
  7.9850657e-03
  5.5747677e-02
 -5.0766850e-01
 -1.0483456e-01
  7.6508574e-02
 -2.1417814e-01
 -5.1662505e-01
  4.0203464e-01
 -3.4462467e-01
 -1.2069229e-01
  2.9388896e-01
 -2.3326380e+00
 -3.7005532e-01
  1.9133313e-01
 -9.9680811e-01
 -6.1596537e-01
 -2.5596252e-01
  5.4367747e-02
  9.1124862e-02
 -1.8239668e-01
 -1.6018423e-01
 -4.3078512e-02
 -4.1329678e-02
 -3.5161364e-01
  7.9551309e-02
 -3.7748683e-02
 -2.3235387e-01
 -9.8378107e-02
 -8.8437289e-02
  2.2624646e-01
  2.8978461e-01
 -1.4175647e-01
 -9.7006810e-01
  2.2481282e-01
  4.1751087e-02
 -9.9977434e-02
 -5.3840786e-02
 -8.0911875e-02
  3.0132987e-02
  7.4346226e-01
 -3.6076817e-03
 -9.4257867e-01
  3.7794614e-01
  6.2841266e-01
  7.6857299e-01
  4.2741364e-01
 -7.1646130e-01
  1.5760387e-01
  1.5037783e+00
 -2.0878093e-01
  5.6303769e-01
  9.8655932e-02
 -2.6150420e-01
 -1.8245308e-01
 -3.3451656e-01
 -1.8090808e-01
 -1.5960521e-01
  1.5115817e-01
 -1.8731949e-01
 -1.8923977e-01
 -3.1280243e-01
  1.7042937e-02
 -4.9730590e-01
 -2.4275973e-02
  1.1235009e-01
 -1.1984657e-01
 -2.9789454e-01
  5.7441253e-02
 -1.3994923e-01
  1.1262126e+00
  6.6453470e-03
 -1.9585857e-01
 -1.0328095e-01
  2.2002380e-01
 -9.8434269e-02
  4.5931548e-02
  7.4570596e-02
 -2.1120556e-01
 -6.0093194e-02
 -3.9787444e-01
  8.1137940e-02
  2.3320980e-02
 -2.6210207e-01
 -4.4541439e-01
 -1.8015660e-01
  2.3811245e-01
 -4.2832486e-02
  1.0339684e-02
  2.6164693e-01
 -2.1024834e-02
 -1.8015550e-02
 -3.3926168e-01
 -6.0225982e-02
  6.4996831e-02
  7.0667602e-02
 -3.1636797e-02
 -5.0646490e-01
 -9.7261947e-01
 -4.6087980e-01
 -7.3425390e-02
 -7.7915645e-01
  3.5697752e-01
  6.0523337e-01
  1.8828137e-01
  1.1801977e-01
  2.7731171e-01
 -8.3590738e-02
  2.1504958e-03
  1.8331650e-01
  1.1789788e-01
  1.2772346e-01
 -8.0624238e-02
  9.3284652e-02
 -6.3091528e-01
  8.8563991e-01
  1.9439158e-01
  1.3797875e-01
  4.7092348e-02
  1.3168871e-01
  2.1488711e-01
  4.8105601e-02
  7.3631006e-01
  3.2006379e-02
 -9.4410911e-02
 -1.0918964e-02
  3.1120759e-02
  4.1718411e+00
 -8.6999595e-02
 -8.8202365e-02
  6.3911259e-02
 -1.9582312e-01
  2.1345995e-01
 -1.1252227e-01
  7.8896895e-02
  8.3538547e-02
  9.4635323e-02
 -1.0287568e-02
  2.0408706e-01
  1.7676892e-02
  9.5326953e-02
 -4.7592747e-01
  1.8606845e-02
  2.8651025e-02
  5.1664829e-01
  2.7661943e-01
  7.9959705e-02
 -2.9734212e-01
  5.0460682e-03
 -8.1346214e-02
 -1.1503401e+00
 -2.4159231e+00
  1.6672798e+00
 -1.2571310e-01
  6.8832999e-01
 -4.1886660e-01
  1.5149691e+00
  8.0945832e-01
  6.9033629e-01
  1.4478149e+00
  2.8337127e-01
 -1.0936350e-01
  9.0626493e-02
  2.9545510e-01
 -6.5065145e-02
 -1.9834186e+00
 -8.3556908e-01
  6.4652789e-01
  2.6862943e-01
 -4.9381343e-01
 -1.2530094e-01
  1.1503723e+00
  4.4679293e-01
 -5.2124083e-01
  1.0656767e-01
  6.4196289e-01
  1.1104429e+00
 -9.2408210e-01
 -2.9754412e-01
  4.5994875e-01
  3.7849721e-01
  6.6888356e-01
  1.2176247e-01
  6.3909894e-01
  1.1581757e-01
  7.2620875e-01
  1.1072665e+00
  4.9891046e-01
  2.8755075e-01
  6.6878349e-01
  5.7596427e-01
  5.8221364e-01
  2.9837420e+00
  1.2554948e-01
  1.1384646e+00
  2.8523884e+00
 -1.0287631e+00
 -9.0261484e-03
 -8.0612786e-02
 -1.5515731e-01
 -1.3955908e-01
 -9.4660714e-02
  1.2144732e-01
  7.4723192e-02
 -1.9365402e-02
  3.2751234e+00
  7.9877752e-01
  3.9313316e-01
 -1.6193165e+00
 -1.6634829e+00
  8.7651595e-02
 -9.3543011e-01
 -9.7027260e-01
 -3.4396455e+00
 -1.1492659e+00
  9.2472255e-01
 -1.7554586e-01
 -1.3940264e+00
 -7.3022598e-01
 -1.5043713e+00
 -8.5577562e-02
 -7.3044503e-01
 -3.3825510e+00
  1.4339528e+00
 -4.0883422e-02
 -2.5796121e-01
 -6.5305388e-01
 -1.0013837e+00
  2.2845037e-01
 -6.3042872e-02
 -5.9009665e-01
  1.0053720e-01
 -7.5776488e-01
 -3.4145117e-01
 -4.5437309e-01
 -1.0790374e+00
 -3.4845608e-01
 -6.1464411e-01
 -2.7842861e-01
 -1.0274396e+00
 -2.4918554e+00
  3.7570813e-01
 -6.5692669e-01
  1.0342267e-01
 -6.3634062e-01
  6.8641257e-01
 -1.7121233e-01
 -2.4471667e-01
  4.5311857e-02
 -1.0976165e-01
 -2.8145799e-01
 -2.2895565e-02
  1.5880043e-02
  9.5743857e-02
  1.3624959e-01
  6.6328287e-02
  1.2567566e-02
  9.3096197e-02
 -1.0633503e-01
  9.1704592e-02
  1.2782718e+00
  1.9397378e-01
 -2.7717891e+00
 -1.3169463e-01
  2.2125131e-02
 -5.0482973e-02
 -3.3352986e-01
 -1.1737088e-01
  2.4719830e-01
  2.3184399e-01
 -4.8943222e-02
 -6.9934207e-01
  2.7531099e-01
 -6.3766673e-02
 -6.4893341e-01
 -4.5479161e-01
  9.0052670e-01
 -3.6716796e-02
  2.4886005e-01
 -9.3667525e-01
 -2.9780570e-01
  2.2972640e-01
  1.3775402e-01
 -8.3836740e-01
  1.9626418e-01
 -5.4440814e-01
  1.1875923e-01
  1.4951612e-01
  2.5929138e-01
 -1.8408033e-01
  4.0746573e-01
  1.0212100e-01
 -1.6972072e-02
 -2.2441588e-01
 -1.2500845e-01
  3.1519290e-02
 -6.2451130e-01
 -1.0700317e-01
 -6.7624673e-02
  5.4867726e-02
 -6.5752409e-02
  3.5560894e-01
 -2.1918023e-02
  5.8388643e-02
  1.9178449e-01
  7.7392839e-02
 -1.8169455e-02
  2.0264842e-02
 -1.3397782e+00
  9.9200815e-02
  2.2667415e-02
  6.9358982e-02
  1.6501905e-01
  1.3943239e+00
  5.6638408e-01
 -2.0973454e+00
 -1.0286357e+00
 -4.8072290e+00
  2.0905161e+00
 -1.9443736e+00
  9.5037502e-01
 -1.8431362e-02
  3.2739933e+00
  7.7939883e-02
 -1.9025548e-01
 -4.1485289e-01
  5.1804996e-01
  8.8579440e-01
  4.0336022e-01
  2.7432549e-01
 -1.1156386e+00
 -1.8486801e+00
  1.1407103e-01
 -1.7872263e-01
  6.9928497e-02
 -1.4622250e+00
  9.8602450e-01
 -1.5105535e+00
  4.0720588e-01
 -8.9221466e-01
  6.6007674e-01
 -7.0420064e-02
 -1.5668735e-01
 -1.0769375e-01
  7.9451054e-02
  1.5258297e+00
 -1.8010604e-01
  7.1832603e-01
  1.7065200e+00
  1.3237562e+00
 -2.8131213e-02
 -8.9468366e-01
 -5.0339002e-02
 -1.3644567e+00
  8.3460575e-01
  5.2879888e-01
  2.1172792e-01
 -3.4506437e-01
 -6.5859455e-01
  3.5692364e-02
 -6.1760016e-02
  2.2059989e-03
 -2.4098389e-01
 -1.0596607e-01
  6.2685624e-02
  1.5145014e-01
 -3.8053158e-01
  4.4035220e+00
  1.8347850e+00
 -1.3247938e+00
  3.1244366e+00
 -1.8875077e+00
 -5.1653677e-01
  1.1126999e+00
  2.7065666e-02
  1.7970711e-01
 -4.6711469e-01
  8.4830314e-02
  3.7854034e-01
  2.9936478e-01
  5.4077782e-02
 -1.2688484e+00
 -9.1578978e-01
 -6.5434790e-01
  6.5649569e-01
  1.8340130e+00
  3.2657871e-01
  3.8267705e-01
  5.6010306e-01
  6.1121523e-01
 -1.1233573e+00
 -1.3109572e+00
  2.5966233e-01
  8.7967265e-01
 -6.7723639e-02
  5.7738628e-02
  6.1632824e-01
  1.6848789e-01
 -4.8166201e-01
 -5.1152384e-01
 -1.2439681e+00
 -8.6048615e-01
 -5.8306825e-01
  1.9470370e+00
  1.0743932e+00
  9.5183116e-01
  4.5272276e-01
  1.6263961e+00
 -3.5001707e-01
 -3.8855648e+00
 -2.2753072e-01
 -2.8336744e+00
 -7.6713108e-02
 -3.9555266e-02
  1.3320428e-01
 -1.2387741e-01
  2.6826847e-01
 -1.4045500e-02
 -6.1615181e-01
 -1.2817448e-01
  6.5033078e-02
  3.7422512e-02
 -2.3164113e-01
 -2.2446243e-02
 -3.8689083e-01
 -1.3746341e-01
  4.4691485e-01
  7.1678013e-01
  2.4861026e-01
 -1.2835400e-01
  3.0760173e-02
 -1.2533145e-01
  1.0887491e-01
  3.9357103e-02
 -2.1555467e-01
 -1.0678107e-01
  1.4395530e-02
  1.8390337e-01
 -2.2731613e-01
 -1.5866394e-01
 -5.1275410e-02
 -1.6716120e-01
  1.8081643e-01
  5.9071187e-02
 -2.6112846e-01
 -6.3039288e-02
  4.2263959e-03
  2.3920429e-01
  3.4992319e-01
 -1.1734971e-01
  2.8988207e-02
  1.4677100e-01
  3.7114557e-02
 -8.6284474e-02
  1.2761816e-01
  1.4902145e-01
 -2.0525532e-02
  8.7888375e-02
 -1.0456141e-01
 -1.2386391e-01
  1.6215648e-01
 -1.3892439e-01
 -1.1093953e-01
  1.1764629e-01
  9.7899787e-02
  1.5445729e-01
 -4.1237127e-02
  7.1982075e-03
  1.0904508e-01
  8.6380038e-03
 -1.6662051e-01
 -1.1743502e-01
 -7.1218774e-02
  1.2136380e-01
 -1.0353583e-01
 -2.2428238e-01
  2.9036859e-01
  3.0280232e-01
  1.6524558e-01
 -5.7438713e-01
 -5.7907921e-01
  9.0874922e-01
 -2.3222043e-01
 -3.0622041e-01
 -2.1006605e-02
 -1.6468135e-01
  9.3995139e-02
 -4.5307109e-01
  4.2979079e-01
 -3.0577892e-01
  1.2067610e-01
 -4.2166030e-01
 -6.1322534e-01
 -5.7555921e-02
 -6.0020056e-02
 -1.1452718e-02
 -2.8947997e-01
  6.4715821e-01
  6.0024667e-01
 -4.7889644e-01
 -2.5092179e-01
  4.7758245e-01
 -4.5335803e-02
 -5.3767216e-01
  3.8812194e-02
 -2.1438709e-01
 -1.7414391e-01
  1.6911328e-01
  1.4835373e-01
  1.8584658e-01
 -8.2809931e-01
 -1.3271722e+00
 -8.1535876e-02
 -5.7675537e-02
  2.7368632e-01
 -1.3987666e-01
  3.0601531e-01
 -3.2377288e-01
 -2.0736355e-02
 -5.9429020e-01
  1.2627864e-01
 -2.6276353e-01
  1.2728861e-01
 -1.2096626e-01
  2.5135583e-01
 -1.7295833e-01
  6.5266237e-02
 -2.8163424e-01
 -2.0834805e-02
  5.5122811e-01
 -1.1938744e+00
 -5.5835444e-01
  1.4000416e-01
  7.3916512e-04
 -3.2961745e-02
 -3.0815017e-01
  1.3346939e+00
  1.0975693e+00
 -1.7491712e-01
  2.5750294e-03
 -3.3480963e-01
 -2.8310174e-01
  4.5256373e-01
  1.0881090e-02
 -2.5258037e-01
  3.7479666e-01
  8.6684889e-01
 -3.9929608e-01
  1.0126220e-03
  3.2562080e-01
  3.7180492e-01
  4.7411319e-02
  2.5123930e-01
  1.9892940e-01
  3.1783789e-01
  4.9500787e-01
  4.6609658e-01
 -1.2912598e-01
  3.0265850e-01
  6.2159067e-01
  1.3586597e-01
  3.6220390e-01
  3.5373178e-01
  1.8912856e-01
  4.4074735e-01
  2.6397416e-01
 -6.7639410e-01
  7.1238059e-01
  5.1948614e-02
  1.0235430e-01
  4.8241347e-01
  6.8163425e-01
  1.5012510e-01
 -4.3417342e-02
 -1.1283970e+00
 -1.2371156e-01
 -9.2439093e-02
  1.3693511e-01
 -1.7939301e-01
 -1.7628987e-01
  5.3087395e-01
  3.4686446e-01
  4.9053084e-02
  2.3999057e+00
  6.6722715e-01
  3.0235336e+00
  2.3046188e+00
 -8.2293743e-01
 -3.9237189e+00
 -4.5840259e+00
 -3.2772925e-01
 -1.3194416e-01
 -3.3316176e+00
  1.4896686e-03
 -3.5628963e-03
  1.5346172e-01
 -2.3689938e-01
  1.4189724e+00
 -4.2006603e-01
  1.4718463e+00
 -4.8810157e-01
 -1.1192814e-01
  4.4039056e-02
  7.6005794e-02
 -1.2366855e-01
 -1.1341050e+00
  1.9133449e+00
  1.5756613e+00
  7.7287918e-01
 -2.0068560e+00
 -1.4182022e+00
 -1.1921322e-01
 -8.2173301e-03
  9.8986469e-02
 -4.2559099e-01
 -8.1884789e-01
  1.0393023e-01
  8.4306979e-01
 -4.4984120e-01
 -1.1427926e+00
 -2.9263645e-03
 -2.1704936e-01
  3.5616692e-02
 -5.8286667e-01
  3.0482986e+00
 -1.2869656e+00
  4.7171512e-01
 -8.5204720e-01
 -6.4388782e-01
  1.7437401e-01
  9.1128863e-02
  4.2798433e-02
  9.1630504e-02
 -1.6632870e+00
  2.1195206e-01
 -1.7149447e-01
 -2.3647775e-01
 -4.7412273e-01
  1.5551651e+00
 -3.4293389e-01
 -9.7825003e-01
  2.1424546e+00
  1.0047663e+00
  3.0282557e-01
 -3.6653256e-01
  2.1187699e+00
 -3.5914388e+00
  4.9993548e-01
 -2.8288150e-01
  9.5587826e-01
  2.1141307e+00
 -2.7037945e-01
 -7.2621262e-01
 -8.2299614e-01
 -2.9379407e-01
 -9.7861540e-01
 -6.7838542e-02
  8.3864009e-01
 -1.0297381e-01
 -1.0636822e+00
  3.4000096e-01
 -4.1090882e-01
  5.3652745e-01
  9.5488226e-01
 -3.1751013e+00
  8.9233738e-01
  6.7787665e-01
  7.4897236e-01
 -9.6791789e-02
 -1.1695790e-01
 -8.2200944e-01
  1.2409499e-01
  2.1480925e+00
 -1.4378486e+00
  1.3092059e+00
  2.1777625e+00
 -4.9751097e-01
 -2.6224954e+00
  7.9450041e-01
 -5.3437442e-01
 -1.4658880e+00
  2.5022025e+00
  2.7757982e-02
  2.7049568e-01
  5.6070630e-02
  4.3477294e-01
  3.3988014e-01
 -1.5990258e+00
 -8.6672294e-01
 -1.8243152e-01
 -4.5128673e-01
 -3.1711778e-01
 -5.0138544e-02
 -6.0274094e-01
  8.6762443e-02
 -2.8545633e-01
  5.8151074e-02
  1.4489752e+00
  3.4901586e-01
  9.1923989e-02
  4.6513035e-04
  2.4836840e-01
 -4.2632917e-01
  1.2158708e-01
 -1.0894246e-02
  1.0097162e-01
  6.1873966e-03
 -1.7174970e-01
  1.2106616e-01
  6.6108890e-02
 -7.5161092e-02
  2.7885360e-01
 -8.4880300e-02
  1.4982915e-02
  1.5376584e-01
  3.8083743e-02
  7.4312575e-02
  1.0206258e-01
 -6.2120062e-01
  6.5418422e-02
  9.7877327e-03
  8.7474950e-02
 -4.1001949e-02
  1.1703409e-01
 -6.5626077e-02
 -9.6179888e-02
  4.0480100e-02
 -3.7244520e-01
  2.7853869e-02
 -1.7862247e-01
  4.6010438e-02
  3.1629455e-01
  1.8864800e-01
  1.4415666e+00
 -3.2236344e-01
  4.5119505e-02
 -9.4415955e-02
  5.3906920e-03
 -1.2035776e-01
  5.3984903e-02
  9.4611369e-02
  9.7508445e-02
  2.2704352e-02
 -7.0604675e-02
 -2.2166644e-01
  2.2793272e+00
 -1.1799225e+00
 -2.3274095e+00
 -2.2206151e-01
 -3.4776835e+00
 -2.1421628e+00
 -1.9314939e+00
  4.6884906e-01
  2.9240668e-01
 -5.3081349e-02
 -2.8052649e-01
  6.6058472e-02
 -5.2442563e-01
 -4.7527233e-01
  8.9929861e-01
  2.9986200e-01
  4.6519262e-01
  1.0540314e+00
 -1.2117860e-02
 -4.3744513e-01
  5.7516307e-01
  1.0152330e+00
 -1.6683233e+00
  8.4651566e-01
  5.8791858e-01
  3.3036637e-01
 -9.0201989e-02
  2.5906671e-02
  4.4517439e-02
  5.8637191e-02
  2.2050751e-02
 -3.5027209e-01
 -7.7615547e-01
 -1.5495893e-01
  3.8666776e-01
 -2.1284671e-01
  1.9225179e-01
  3.3091006e-01
  6.4813203e-01
  5.0509697e-01
  3.0878976e-01
 -1.4187552e-01
 -7.4490003e-02
  1.1550836e-01
  2.4808583e+00
  2.2800334e-01
 -3.7288554e-02
  1.1169444e-01
  8.9043111e-02
 -1.0909887e-01
  1.6534902e-01
 -1.2862737e-01
 -1.0195270e+00
 -7.4758060e-02
 -1.5354316e-01
  5.2891052e-01
  6.6328079e-02
 -4.7978151e-01
  4.1205931e-01
  2.9576101e+00
  7.9122257e-01
 -5.2631407e+00
 -1.1114538e+00
 -6.4263672e-01
  5.9738614e-02
  3.6520988e-01
  1.7503421e-01
  1.0312899e+00
 -5.5479717e-02
 -6.7496377e-01
 -6.2590444e-01
  1.7057794e+00
 -3.5739374e-01
  5.4329866e-01
  3.2922560e-01
  2.2578216e-01
 -2.4302353e-01
 -2.7689761e-01
  2.4859494e-01
  5.9380990e-01
 -9.2152375e-01
 -1.0771283e+00
  1.5996666e-01
  7.6762933e-01
  1.6157492e-01
  2.7072987e-01
 -3.0988768e-01
 -1.9710241e-01
 -7.1869892e-01
  1.6114010e+00
 -1.0023952e+00
 -2.2787312e-01
  9.3098268e-02
  5.1362491e-01
  9.4766134e-01
 -1.9722685e+00
  2.4682602e-01
  3.0088606e-01
 -2.6850072e-01
 -1.2430360e-01
  7.3574983e-02
 -6.1376435e-01
  1.6217788e-01
 -7.4757189e-01
  3.1424460e-01
 -1.4796789e-01
  2.8630885e-01
  3.5854387e-01
  1.2152345e+00
  3.8615510e-02
 -1.4587643e+00
  4.1707847e-01
 -6.1598313e-01
 -4.4284853e-01
 -2.5106881e+00
  5.8706079e-02
 -4.7821131e-02
 -2.9301751e-02
 -8.0819048e-02
  9.8670788e-02
  9.2068482e-03
 -3.6298480e-02
  5.7542942e-02
  3.4879055e-02
  1.3520817e-01
 -6.2844716e-02
  3.6395511e-01
  7.8216538e-02
  9.8815046e-02
  1.5393196e-02
 -8.8116127e-01
 -3.5566237e-02
  8.0174744e-02
 -1.0615244e-02
  8.3905876e-02
 -3.8957298e-02
 -2.8434608e-03
 -1.4917928e-01
 -7.4053906e-02
  1.2027254e-02
 -1.4153116e-02
 -1.3587441e-01
  8.3475947e-02
 -5.5226225e-02
 -1.5348884e-01
  8.8247895e-02
  4.3065701e-02
  2.0238629e-02
  7.0817806e-02
  1.0030547e-02
 -1.0644049e-01
  3.4412108e-02
 -4.6122409e-03
  4.7087342e-02
 -9.7824164e-02
 -4.7656335e-02
  1.5245780e-01
  4.9398646e-02
  1.8240015e-03
  8.1423357e-02
 -1.7565209e-02
 -9.0987206e-02
  4.4224066e-01
 -3.4967998e-01
 -1.5985457e+00
 -5.7594731e-02
  2.0469928e+00
 -3.1288493e+00
  8.3273923e-01
 -1.5020049e+00
 -1.4916253e-01
 -4.8571607e-01
 -8.8784240e-02
  3.6488453e-01
  9.1063911e-01
  1.0674870e+00
 -1.6403763e+00
 -4.6723357e-01
 -9.0531701e-01
 -6.0862362e-02
  8.8457483e-01
  4.7086757e-01
  3.6625186e-01
 -3.1876984e-01
 -7.0995450e-01
 -4.6529526e-01
 -7.7561134e-01
  2.3513053e-01
  1.4641302e+00
  2.1675988e-01
  5.7989478e-01
  5.5668336e-01
 -1.2891336e-01
  1.0755056e+00
  3.6402109e-01
 -5.6295568e-01
 -1.2425859e+00
  1.6625410e+00
  1.0994500e+00
  4.7578925e-01
  1.0849667e+00
 -1.1944473e-01
  9.6687126e-01
  6.0078454e-01
  1.1239570e-01
  6.9504015e-02
  1.7682456e+00
 -5.1876169e-01
  1.9695182e-01
 -1.9785899e-01
 -8.9542400e-03
  6.8504030e-01
 -2.2266237e-01
 -2.2760624e-01
 -2.4790034e-01
 -9.3173735e-02
 -4.2608601e-01
 -8.7933320e-01
  1.5282558e-01
 -7.2955602e-01
  1.9569039e+00
  4.0516382e-01
 -5.3806627e-01
  5.2344668e-01
  1.7487672e-01
  2.1168146e-02
 -1.7633100e-01
  8.3751783e-02
  7.7030444e-01
  4.9025868e-03
  2.8176671e-01
 -3.4142169e-01
  7.5437152e-01
 -3.0194724e-01
  1.5730637e-01
  1.4535096e-01
  4.5272815e-01
  5.3016040e-02
 -2.7857411e-01
  1.2020943e-01
  5.8828671e-02
 -4.1168626e-02
  2.4026950e-01
 -4.1236509e-02
  1.1491756e-01
  1.2788066e-01
 -1.6741863e-01
  2.7020302e-01
 -2.3731370e-02
  8.0023453e-02
  5.6139525e-02
  4.1066930e-01
 -8.1435859e-02
  6.7777896e-01
 -2.2905442e-01
 -8.8422887e-02
  1.9171587e-01
 -1.0954794e-01
  1.5860571e-01
  2.5288348e+00
 -1.1718719e-01
 -1.4998141e-01
  5.1126346e-02
  1.4245342e-01
 -8.5617292e-01
 -8.6250901e-02
  8.7872475e-02
 -2.3171143e-01
 -2.3708069e-01
 -1.3985920e-01
 -1.4400084e+00
  4.6294567e-01
 -7.9500747e-01
 -3.4063187e-01
  2.3000084e-01
 -4.3179724e-01
  1.3633764e+00
 -2.0372236e-01
  3.2126033e-01
  6.7016125e-01
 -5.7230126e-02
 -5.7600522e-01
  1.3057075e-01
  3.0279109e-01
  7.4602807e-01
 -2.3970842e-02
 -2.7979988e-01
  1.9884181e-01
 -5.0787297e-03
 -1.2283529e-01
  2.3765698e-01
  3.1021727e-02
  2.4335864e-01
 -8.0982065e-01
  1.2403061e+00
 -2.4669184e-01
 -1.4349562e-01
 -2.0874290e-02
  3.8494086e-01
 -7.7102907e-02
  1.7140724e-01
  3.7120026e-01
 -3.0113026e-02
  3.6222652e-02
 -4.8458624e-01
  6.6757178e-01
 -2.0864534e-01
 -2.6982683e-01
 -4.5213886e-02
 -6.5907098e-02
  2.2634645e-01
 -6.2836349e-01
  3.4288889e-01
 -5.4650551e-01
 -8.2208812e-01
  1.5799636e-01
 -5.6831602e-02
  1.4877266e-01
 -4.2911872e-02
  1.5901069e-01
 -1.5013926e-02
  1.1216943e-01
 -5.4113102e-01
 -2.6265556e-01
  9.6566802e-01
 -6.7041779e-01
 -1.0386012e+00
  1.7853315e-01
  7.4118441e-01
  6.1937356e-01
  1.4853190e-01
  6.3316518e-01
  4.3545970e-01
  5.1773030e-02
  4.1708604e-01
 -8.8473387e-02
 -8.2377240e-02
  3.2549033e-01
 -5.1349299e-03
  6.0309231e-02
 -2.0184581e-01
  5.3043729e-01
  4.1883579e-01
  1.1486798e-01
  1.9231014e-01
 -7.4856475e-02
  9.0308152e-02
  4.1782182e-01
  3.0693641e-01
 -1.1941187e-01
  2.3853090e-01
 -1.9585749e-02
  1.2545361e-01
  8.3886303e-02
 -1.0573252e-01
  1.9059147e-01
  3.7905586e-01
  2.0096503e-01
  2.3556840e-02
 -4.1888248e-02
  1.6526581e-01
 -3.3795318e-01
  1.9751291e-01
  1.8694596e-01
  1.0633153e+00
  2.1337228e+00
  4.9696782e-01
 -2.2402942e-01
 -3.6762318e-01
  5.7003397e-02
  1.3053697e-01
 -9.2186689e-02
  1.4536448e-01
  1.5980312e-01
  1.9849183e-01
  1.0513067e-01
 -1.2990072e-01
  8.1153952e-02
 -8.2726078e-03
  1.7276438e+00
  1.0364864e-02
 -1.3375004e-01
  7.1778961e-02
 -1.2669486e-01
 -3.6720946e-01
 -7.9001449e-02
 -5.9058089e-02
 -1.5406343e-02
  5.7355575e-02
 -6.3418321e-02
  3.5836127e-02
 -4.4357684e-02
 -2.2217137e-01
 -1.3551363e-01
 -5.2157943e-03
 -5.3072352e-02
  7.0200950e-02
  1.8224353e-02
  1.5297843e-02
  8.7975271e-02
 -5.1806448e-03
 -6.9135606e-02
 -2.1469755e-02
 -4.2164829e-02
  5.3896945e-02
 -7.5122714e-02
 -1.7615998e-01
 -1.8809186e-01
 -8.1949398e-02
 -5.1249117e-02
  6.2054060e-02
  1.4969425e-01
  1.9833693e-02
  3.0660594e-01
  2.5520443e-03
 -7.9813212e-02
  5.6846634e-02
  3.6232557e-02
 -5.0034666e-01
 -3.3279642e-02
  8.2756922e-02
 -1.8458586e-02
  2.7484326e-02
 -9.5021620e-02
  1.7180489e-02
 -8.5977226e-02
  3.1007467e-02
 -1.0138210e-01
 -1.1803140e-01
  3.3408586e-02
 -1.2771371e-01
  8.6637056e-03
  7.1565890e-01
  6.3793081e-01
  4.5248628e-01
  5.3560141e-02
 -1.8468237e-01
 -3.2586762e-01
  4.0975270e-01
 -5.4111087e-01
 -3.3822951e-01
  2.4370264e-01
  4.7445533e-01
 -2.8826058e-01
 -2.5708431e-01
 -3.5612530e-01
 -9.0658575e-02
  1.3022599e-01
  2.8922455e-03
  2.4110249e-01
  8.6183900e-01
  3.9124864e-01
 -6.0011059e-02
 -1.5411018e-01
  1.4108551e-01
  4.1541749e-01
  9.6011527e-02
 -7.1714747e-01
 -2.8400144e-01
 -1.0104200e+00
  9.6690558e-02
 -1.3650736e-01
 -3.7894821e-01
  1.7618766e-01
  6.7134476e-01
  3.8621923e-01
 -2.7465627e-01
 -3.1725955e-01
  1.8228446e+00
  4.6892051e-02
 -8.1347726e-02
  3.9811388e-02
  4.5454368e-01
  7.3425364e-01
  1.4917988e-01
  7.0928884e-01
  4.9119765e-01
  8.8922292e-02
  1.8097369e-01
 -5.6445692e-02
 -9.6724838e-02
  3.7260687e-01
  1.0167261e-01
  6.9710757e-03
 -7.2095960e-02
  2.1703108e-01
  1.7897570e+00
 -6.7332000e-01
 -2.4516594e-01
  8.5164374e-01
  4.6174499e-01
 -1.2534839e+00
  5.8971637e-01
 -5.0158936e-01
 -3.7073144e-01
 -1.0135157e-01
 -9.4048899e-01
 -7.9708791e-01
 -1.3393217e-01
 -4.8484048e-01
  3.8447115e-01
  3.8524721e-02
  3.6329994e-01
  1.5737068e-02
 -1.0034338e+00
 -4.0403378e-01
 -5.1257227e-02
 -8.2644379e-01
  2.7000182e+00
 -1.2293642e+00
  2.2631149e-01
  9.7813421e-01
 -1.1189753e+00
  3.3385864e-01
  1.3480996e-02
 -1.0952501e+00
  6.6209167e-02
 -1.3890637e+00
 -4.0116400e-01
  5.2630907e-01
 -1.3938008e-01
  5.6695253e-01
  4.6919471e-01
  1.1048560e+00
  3.3528218e-01
 -1.0602908e-02
 -5.0529486e-01
  1.2222540e-01
 -2.0521949e-01
  3.6056876e-01
  8.6287874e-01
  2.0204037e-01
 -4.4964892e-03
 -3.4835692e-02
  1.9747896e-01
 -4.8693734e-01
 -3.5889518e-01
  1.7800830e-01
  5.3392913e-02
 -2.7414027e-01
 -6.1479610e-01
  7.6539293e-02
 -6.1371005e-01
 -5.6276488e-01
  9.0558416e-01
  2.4003199e-01
  5.8346421e-01
 -1.8230290e+00
 -2.6343480e-01
  3.0870733e-01
  2.6916462e-01
  1.6917849e-01
 -3.4710675e-01
  2.8628948e-01
 -2.3477304e-01
  1.2150868e-01
 -7.1247876e-02
  1.9350882e-01
  2.6424539e-01
  1.2263143e-01
  1.9628923e-02
  3.6737511e-01
  6.4738637e-01
  5.8026016e-01
  6.2719956e-02
 -5.5385989e-01
  1.3447461e-01
 -1.9641708e-01
 -3.1088214e+00
  2.8878713e-01
 -4.9256045e-02
  5.0102001e-01
  2.1556193e-02
 -2.6093900e-01
 -1.0646699e-01
  1.4207454e-01
  1.3879322e-02
 -4.2403266e-01
 -2.1270864e-01
 -2.7144194e-01
  3.3627138e-01
 -2.0054440e-01
 -1.0788743e-01
 -1.3000458e-01
  3.1153339e-01
 -8.7264910e-02
 -8.2565062e-02
  2.1928400e-02
  4.9846709e-02
  1.6763777e-01
 -5.4892316e-02
  2.3306331e-01
 -5.1234685e-02
  1.0147262e-01
  5.7001531e-01
 -3.3581069e+00
 -1.2916622e-01
  1.8473680e-01
 -2.5884540e+00
 -1.6352966e+00
 -2.7228374e+00
  7.5225763e-02
 -2.2835781e-01
  1.0373303e+00
 -1.1945874e-01
 -2.4724407e-01
  1.4186108e-01
  5.7582545e-01
 -8.1880280e-04
  6.1849613e-02
 -1.1562846e+00
  5.7730442e-01
  4.2391813e-01
 -1.0228153e-01
 -1.9837974e-01
 -1.8164761e-01
 -5.5133504e-01
  1.1640487e+00
 -5.9118384e-01
  6.1165474e-02
 -6.0995531e-01
  9.1716969e-01
 -4.6433854e-01
 -9.7823519e-01
 -4.0969563e-01
  1.1996047e+00
  5.4954648e-01
  1.0151040e-02
 -7.6964855e-01
  4.5601246e-01
  8.8688219e-01
 -8.6105734e-01
  5.6376624e-01
 -1.9257740e+00
  7.2738767e-01
  2.0094373e+00
 -9.2100197e-01
  5.5187875e-01
 -8.1538063e-01
  8.1603444e-01
 -3.6105311e-01
 -2.8129542e-01
  3.5611489e-01
 -4.0068558e-01
  9.7865671e-01
  3.5694382e-01
  3.0151454e-01
  2.4498117e-01
  7.7410638e-01
 -3.3502558e-01
  7.7229071e-01
  2.4009833e-01
  3.5755567e-02
 -2.7654821e-02
 -5.9822160e-01
  1.9126436e-01
 -3.9109983e-02
  1.0281485e-01
  4.6596203e-02
  1.1735402e-01
  6.2661245e-02
 -9.1078356e-02
 -2.2121853e-01
 -2.4000640e-01
  1.2829877e-01
 -1.7252325e-01
  1.9150853e-02
 -1.9378261e-01
 -2.1206492e-01
  9.6445404e-02
  1.5656017e-02
  5.2521463e-02
 -9.8947026e-02
  2.0508137e-01
  2.1861124e-01
 -5.0512099e-01
 -1.7366254e-01
  5.1608466e-02
 -9.4043747e-02
  1.5928578e-02
  1.7247219e-01
  1.0741573e-01
  1.5323973e-01
 -3.5325792e-01
  2.0388532e-01
  1.1550072e-01
 -2.2527878e-01
 -4.7077145e-02
 -3.1549236e-01
  4.5619074e-02
  1.3173100e-01
  1.9434451e-01
  2.7040610e-01
  1.8719837e-02
  8.7016958e-01
 -6.0156498e-02
 -1.1355364e-01
 -7.6825835e-02
 -1.1055156e-01
 -1.4409691e-01
  1.8316986e-01
  8.3167478e-02
  7.8486204e-01
 -3.0228010e-01
  6.5723300e-01
 -2.9607463e-01
  3.8511041e-01
 -1.8658933e-01
 -1.5033149e+00
 -9.3074135e-02
 -8.5474074e-02
  5.2592687e-02
  2.0980605e-01
  1.1335465e-01
 -9.2933558e-02
  1.0541608e-01
 -6.8189692e-01
  1.6734798e-01
 -1.8908363e-02
 -5.1874483e-01
  1.3498896e-01
  3.0677475e-03
  3.6884945e-02
  6.2008634e-02
 -1.7121641e-01
  1.0522813e-01
 -1.1526063e-01
  3.8143012e-01
  4.0845212e-02
  1.0851767e-02
 -1.0593582e-01
 -8.3719194e-02
 -1.1429682e-01
 -4.0259708e-02
 -1.1143903e-01
  8.4991798e-02
  6.5928794e-02
 -2.3087728e-01
  8.5093237e-02
  2.2855264e-01
 -4.9315237e-02
  5.5023670e-02
 -3.1278729e-02
  5.2630645e-01
 -7.1810976e-02
  1.9167650e-01
  2.5326788e-01
  2.4426639e-01
 -4.0968843e-02
 -2.1620090e-01
 -4.2594355e-02
  7.3169641e-02
 -6.5093964e-02
 -5.4829699e-01
  3.0830503e-01
 -3.6070660e-02
  2.0765188e+00
  3.7967271e-01
  2.4229414e+00
 -2.2587685e-01
  1.7408101e-01
 -7.5445491e-01
 -1.4387639e+00
 -1.8033916e-01
 -7.5787269e-02
 -4.2985436e-01
 -1.0461400e-01
 -4.3423933e-01
 -6.4875638e-01
 -1.0422187e+00
 -4.7303683e-01
  9.3073565e-01
  4.7581159e-02
 -1.2505493e-01
 -1.2632111e-01
  1.7315263e-01
 -1.8222494e-02
 -5.5351132e-03
 -5.2890837e-01
 -5.7683522e-01
  3.7291798e-01
  2.3418082e-01
 -6.0135879e-02
 -9.7640038e-02
 -1.5421025e-01
 -5.1510215e-02
 -6.3322611e-02
 -2.3669288e-02
  5.7301398e-02
  1.4795531e-01
 -5.5889729e-02
 -2.7573428e-01
 -9.3181574e-01
  2.5912691e-02
 -1.4440493e-01
 -1.6684479e-01
  8.6360431e-01
  6.5679240e-01
  8.7635660e-01
  1.1662547e-01
  7.9029515e-02
  1.4329587e-01
 -8.1353366e-01
 -3.8465161e-02
  8.3361812e-02
 -2.6412299e-02
 -3.4140772e-01
  4.3438002e-03
  3.2112333e-03
 -1.0293514e-01
 -1.1886467e+00
  2.1104767e+00
  8.6096054e-01
 -2.8594628e-01
 -1.8024479e+00
 -4.6873736e-01
  1.5354812e+00
  1.1933321e-01
  1.5678362e+00
 -2.2749757e-02
 -4.2062086e-01
  3.1019053e-01
  1.3692043e+00
  2.3988256e-01
  8.2194299e-01
  1.5721786e+00
  2.5666368e-01
 -3.3218530e-01
 -8.0086225e-01
  6.2934095e-01
  1.5319393e+00
  3.3147767e-01
 -1.1681608e+00
 -1.1161659e+00
  9.0846133e-01
  6.6683239e-01
  1.5995763e-01
  3.3242688e-01
  9.6591079e-01
  1.5346272e-01
  1.3044951e+00
 -4.8576292e-01
  4.8812756e-01
  8.7950730e-01
  3.0447710e-01
  1.9829192e+00
 -1.7004774e+00
 -6.7666012e-01
  4.1836965e-01
  2.6120839e-01
 -9.8633224e-01
  1.4491942e+00
  1.0718161e+00
  2.0069124e-01
  2.5515881e+00
 -3.0509609e-01
  6.3824706e-02
 -1.7274740e-01
  5.3737252e-03
  2.8143871e-01
  1.5931211e-01
  3.0616319e-01
 -3.2929048e-01
  6.8191793e-03
 -3.2688490e-01
  1.2624517e-01
  4.5780733e-01
  4.9143681e-01
 -1.4204555e+00
  4.9974419e-02
  9.0566003e-01
 -1.9045644e+00
  1.9634514e-01
  7.8284126e-03
 -3.6899950e-02
  1.2022793e-01
  6.4286709e-02
  1.1961943e-02
 -6.1864149e-02
 -3.3610719e-01
  5.4357803e-01
  2.1784359e-01
  2.6667911e-01
  1.0272617e-01
  2.8561294e-01
  2.3103808e-01
 -9.5475405e-02
  1.4045130e-01
  5.5276696e-02
 -2.2617077e-02
 -2.8124169e-01
  4.3270323e-02
 -1.3134290e-01
  4.9529288e-02
 -1.2063748e-02
 -3.6050662e-01
 -3.1216571e-02
 -3.3770722e-01
 -4.2464234e-02
 -1.5990768e-01
 -1.6314328e-01
 -3.4969059e-01
  5.6532115e-01
  9.4522737e-02
 -1.8817158e-01
  2.2140151e-01
 -9.9266157e-02
 -2.2328563e+00
 -3.4939244e-01
 -5.8369257e-02
 -8.2720540e-02
  5.1397901e-02
 -1.2268111e-02
  5.0844405e-02
 -5.7987940e-02
  1.0235938e-01
  2.2066592e-01
  1.5702908e-01
  4.3690112e-01
  3.1516522e-01
 -3.6491106e+00
 -1.4634311e+00
  2.7915332e+00
 -4.9546066e-01
  1.3383677e+00
  6.7830521e-01
 -5.3396261e-01
  5.8477247e-01
 -6.9599070e-02
 -4.5190585e-01
 -6.6277534e-02
  3.0747628e-01
  1.3128576e+00
 -1.1784105e+00
  4.8868293e-01
 -9.6824479e-01
  7.9845315e-01
  7.8580640e-02
 -1.7327243e-01
  4.5975363e-01
  5.8260155e-01
  1.9131707e+00
  1.9320875e-01
  1.0403277e-01
  1.5083326e+00
 -5.0189364e-01
 -3.6792904e-01
  3.8962055e-02
  4.3083098e-02
  1.5506303e-01
  4.5196417e-01
  1.3611645e-01
 -5.9138638e-01
  8.9306629e-01
  1.3419780e-03
 -1.9581169e-01
 -4.9050495e-01
 -1.2247361e+00
 -4.2011431e-01
 -3.6137876e-01
 -3.3312970e-01
  4.5566630e-01
  5.3742003e-01
  1.2926915e-01
 -9.1772789e-01
  3.8946518e-01
 -7.6744661e-02
 -1.9313756e-01
  5.4858434e-01
 -1.9065440e-01
  4.0481260e-01
 -2.1989237e-01
 -1.2677996e+00
 -3.1015587e-01
  1.5068284e-01
  9.3477261e-01
 -2.9087455e+00
 -1.2396708e+00
 -8.4352744e-01
 -2.8498151e+00
  1.0690033e+00
  1.3258681e+00
 -1.7433725e-01
 -8.1412399e-01
  2.3043742e+00
  1.3728422e-01
  1.6804104e+00
  1.7295764e-01
 -2.1163984e-01
  6.2636352e-01
  2.2754571e+00
  4.9265242e-01
 -6.4688551e-01
  2.0328133e+00
 -2.0082109e-01
  2.7010727e-01
  6.9267261e-01
  5.1599145e-01
  7.4151307e-02
  2.4213630e-01
 -5.7927179e-01
 -5.1942432e-01
  1.1248156e+00
  5.2317399e-01
  1.0708681e+00
  2.1806128e+00
  1.9428042e+00
  3.2696908e+00
  1.2097143e+00
  2.2283442e+00
  1.1927203e+00
  8.3827001e-01
 -3.8853025e-01
 -1.4154414e+00
  1.7455331e+00
 -1.0696312e+00
  1.6449611e+00
  1.7665331e+00
 -2.2562012e-01
 -9.9476576e-02
  6.0895689e-02
  7.2065574e-01
 -1.9709399e+00
  1.4415932e+00
 -4.9560797e-01
  3.6833283e-02
  2.2709043e+00
  3.6638670e-02
 -3.4737661e-01
  1.5912896e-01
 -2.2597280e+00
 -2.5422421e+00
  1.7710664e+00
 -1.1191870e-01
  4.5804478e-02
  8.9622408e-01
 -1.6159898e-01
 -8.7546393e-02
  9.5939107e-02
 -4.4611788e-01
  5.1413733e-01
 -8.0050272e-01
 -6.9568622e-01
 -1.3410395e-01
 -2.4350925e-01
  1.1886459e-01
  2.4775119e-01
 -1.5820949e-01
 -6.2272269e-02
  3.0345166e-01
 -1.1711664e+00
 -3.9460364e-01
  6.2267709e-01
  2.9486243e-02
  1.0780436e-01
  2.0053996e-01
 -1.0363840e-01
 -3.2816318e-01
 -2.9781096e+00
 -8.3975267e-01
 -9.3332656e-02
  5.4555905e-01
 -2.2283195e-01
 -2.8652686e-01
  5.8202535e-01
  2.2104736e-02
 -5.3107965e-01
 -3.3682975e-01
 -6.4118856e-01
 -3.3065434e+00
  3.0247115e-02
  2.4484660e-01
  9.2592433e-02
 -4.3013856e-02
 -1.3585608e-01
  7.1994451e-05
  1.5267932e-01
 -5.9353518e-01
 -1.7130363e-01
  1.2698030e-01
  4.2941514e-01
 -3.9304537e-01
  2.8613999e-01
 -2.1914864e+00
  4.0555049e-02
 -8.9009255e-01
 -9.4815212e-01
 -2.4208803e-01
  8.3166432e-01
 -2.1965142e-01
 -2.8475679e-02
 -2.4679363e-01
  5.2008820e-01
 -1.7036543e+00
  6.9772285e-01
  5.8115113e-01
 -2.3104736e-01
  1.7817523e+00
 -2.3092096e-01
  4.4313729e-01
  3.9979902e-01
 -2.2338502e-01
 -1.8392433e+00
 -7.0382440e-01
 -3.3445522e-02
  1.1350153e-02
 -1.0472749e+00
  6.9972970e-02
 -4.8335654e-01
 -1.8812872e-01
  3.5786557e-01
  2.3683715e-01
  7.9102200e-01
  4.5124865e-01
 -8.7459758e-03
  1.6875352e-01
 -7.6557338e-01
 -2.1573764e-01
  5.0978595e-01
 -1.1342826e+00
  5.7407302e-01
 -5.2771407e-01
 -1.5198529e-02
  1.1545734e+00
 -2.1829512e+00
 -1.1225329e-02
 -1.2782535e-01
 -2.4844249e-01
  6.3337527e-02
  2.1385573e-01
 -3.5348228e-01
  1.4113246e-01
 -2.0393623e-01
  4.7164702e-01
  3.1343591e+00
  8.9188987e-01
  1.6233741e+00
 -2.8255458e+00
 -1.8059270e+00
  2.3584759e+00
 -1.1278375e+00
 -2.0806391e+00
  3.0554247e-01
  4.0781137e-02
  3.4340772e-01
 -6.1277866e-01
 -5.2868766e-01
  2.5522438e-01
  4.7618440e-01
  3.2431841e-02
 -2.1911711e-01
  1.7958601e-01
 -7.6421911e-01
  7.1275108e-02
 -2.4400036e-01
 -5.2902818e-01
 -3.1418949e-01
  1.2300137e-01
  4.5849776e-01
  5.8932507e-01
 -1.1890713e+00
 -2.2487757e-01
  2.5929129e-01
 -1.2861328e-01
 -3.0729547e-01
 -2.4194829e-01
 -2.2827452e-01
  1.7666111e-02
  2.7709303e+00
  1.8272880e-02
  1.9059517e+00
  5.0685298e-01
  2.7373415e-01
  4.9292973e-01
  1.3202406e-01
 -1.0484440e-01
  4.1638410e-01
 -1.3305056e-01
 -1.7220700e-01
  2.3300417e-02
  2.1221088e-01
 -3.0300742e-01
  2.3402867e-01
  1.0760840e-01
 -9.1334336e-02
 -4.0106181e-02
  7.5468451e-02
 -3.7213486e-02
  2.7515969e+00
  8.0736297e-01
 -5.9386539e-01
  4.8192480e-01
  1.5737594e+00
  7.0040870e-01
 -1.4451929e+00
 -2.1151595e-01
 -6.6572584e-02
 -2.5545466e+00
 -1.2903160e-01
 -5.6618143e-02
 -5.2992028e-01
 -6.2288648e-01
  2.5892088e-01
 -1.6599606e-01
 -4.9934450e-01
 -7.2844130e-01
 -3.7140068e-01
 -4.3088162e-01
 -3.3982816e-01
  9.5770758e-01
  1.2974527e-01
 -9.5574118e-02
 -2.0554082e-01
 -8.8520736e-01
 -2.2922716e-01
  1.6386215e-01
 -3.1492156e-01
 -3.3771165e-02
 -1.6517781e-01
 -8.5668981e-02
 -8.7767737e-03
 -7.1680479e-02
  2.7798908e+00
 -7.6419258e-01
  8.6560380e-01
  1.4816017e+00
 -1.5374233e-01
  5.8266997e-01
  2.2889587e-01
 -3.9449742e-01
 -1.3527642e-01
  8.2596742e-02
  9.2594409e-01
 -2.8415221e-01
 -1.8281436e-02
  4.1637236e-01
 -6.0915209e-02
  1.3081753e-01
 -1.6651183e-01
 -1.2786558e-01
 -8.3189100e-02
  1.3703890e-01
  4.1219673e-01
 -8.6331654e-01
  1.1668161e+00
  3.9502539e-02
  5.0391448e-01
  3.3715716e-01
 -7.2653979e-01
  1.0164915e+00
  4.0670201e-01
 -1.2200466e-01
  8.4971942e-02
 -7.8974701e-03
  3.8520384e-01
  6.3449733e-02
  5.6072038e-01
 -5.9583294e-01
  1.8500809e-01
  4.9532411e-01
  1.4033629e-01
  1.8296818e-01
  7.0719069e-01
 -2.0336866e-01
 -9.1487265e-01
 -5.5174969e-02
  2.2737096e-01
 -5.8429521e-02
  2.6776304e-02
 -6.2119093e-02
  1.7848685e-01
  7.8302994e-02
  1.1265419e-01
  1.6119009e-01
  1.9983989e-01
  1.4542787e-02
 -1.9044243e-01
  8.1869358e-01
 -8.0206853e-01
 -2.9379708e-01
 -1.1921411e-01
 -2.2440158e-01
 -4.8648691e-01
 -3.2336827e-02
 -1.2804894e-01
 -3.0450636e-01
 -2.7180505e-01
 -2.3561138e-01
  1.8058339e-02
 -1.5759394e-01
  1.0997602e-01
  3.4350795e-01
  7.5110547e-02
  1.1064551e-01
 -4.9791932e-01
  5.9186604e-02
  1.4980863e+00
  3.9655742e-01
 -6.6875333e-01
 -1.9297113e-01
 -1.4413887e-01
  2.9161784e-01
  1.0981851e+00
 -4.0876633e-01
 -2.4912967e-01
  1.9795085e-01
  2.3204796e-01
 -1.4923087e-01
 -5.3000879e-01
  2.4974020e-01
 -2.8112173e-01
 -6.7692816e-02
 -4.6390012e-01
  3.1500933e-01
  4.2240582e-03
  2.6867256e-01
 -7.4779376e-02
 -2.8109452e-01
  2.4654178e-01
  5.3189248e-01
 -3.4847113e-01
 -4.0149418e-01
 -4.9762484e-02
 -2.4606013e-01
  2.0762680e-03
 -1.9946945e-01
 -2.8563705e-01
  2.4684856e-03
  3.6227056e-01
  7.4752271e-03
 -5.3506243e-01
 -9.7023003e-02
 -7.9712778e-01
  1.3681907e-02
  1.9660310e-01
  6.3286046e-04
 -3.0735305e-01
 -3.3932957e-01
 -8.3691880e-02
 -5.5897441e-02
 -2.0098667e-01
 -1.8841932e-03
  1.2554607e-01
  2.5444070e-01
 -5.0740134e-02
  2.9362002e-01
  7.6515608e-02
  1.8140131e+00
  4.0117642e-01
  7.1509741e-02
  1.2540691e+00
 -1.0097387e+00
 -9.9189335e-01
  3.1620494e-01
  7.4011736e-02
 -4.5172688e-02
  1.2235161e-01
 -1.6510408e-01
 -1.7294611e+00
 -2.9375005e-01
  1.1186451e-01
 -4.9892166e-01
  1.7696394e-01
 -2.3647374e-01
  2.9140794e-01
 -3.7490481e-01
 -8.7002343e-01
 -5.0162107e-01
  4.5313644e-01
 -1.7410522e+00
 -2.2571000e-01
  7.8467238e-01
 -8.4817791e-01
 -5.6153649e-01
 -1.6755978e+00
 -7.9486251e-01
  8.2254834e-02
 -6.6310185e-01
 -4.6454050e-02
  3.2931697e-01
 -9.4222897e-01
 -6.6634911e-01
 -3.9901710e-01
 -1.5999707e+00
 -5.2196205e-01
 -6.4984131e-01
 -1.9240439e-01
 -3.8253888e-01
 -4.1220787e-01
 -6.8282068e-01
  1.5277195e-02
 -8.3964169e-01
 -1.2170435e+00
 -7.9924625e-01
 -4.4266874e-01
 -4.0157941e-01
  1.2705389e-01
 -3.7143758e-01
 -5.0258856e-02
  2.5409847e-01
 -4.3353125e-01
 -6.8638521e-01
 -1.3817680e-01
  2.8883249e-01
 -4.8945388e-01
 -1.3003787e-01
 -1.2984016e+00
  1.0986874e-01
 -1.3397664e+00
  5.7147694e-01
  7.5722116e-01
  9.6223629e-01
  1.1304115e-01
 -7.7321209e-02
 -2.1618138e-01
 -3.2010570e-01
 -1.2937170e-01
 -1.6584930e-01
  3.6314762e-01
 -2.7294269e-01
  5.8029000e-02
 -1.9647720e-01
  5.6280825e-02
  3.2639706e-01
 -4.1835913e-01
  2.7616620e-02
 -6.8865329e-01
  1.5488601e-01
 -1.9133054e-01
 -9.6386060e-02
 -2.3239769e-01
  1.6779961e-01
 -1.9386318e-01
  1.7853567e-02
  1.6328089e-01
 -1.1483756e-01
  1.2154730e-01
 -1.2939702e-01
  5.8467865e-02
 -2.9729643e+00
  1.1286734e-01
 -1.5054022e-02
 -2.2666135e-01
 -2.7334731e-02
 -7.2517526e-01
 -2.3290850e-01
 -7.7922028e-03
 -9.7036771e-02
 -5.3591776e-01
 -1.7699631e-01
  8.5946113e-02
 -1.2016899e-01
  7.6201655e-02
  8.9903750e-02
 -4.3153625e-02
 -4.8971088e-03
 -1.9751257e-01
  4.9890649e-02
 -8.3672678e-01
 -2.2829227e-01
 -7.7696747e-01
 -8.1371784e-01
 -1.2321069e+00
 -1.4490886e-01
 -1.4493474e+00
 -1.2678120e-01
  4.4224831e-01
 -1.6049048e+00
  4.3957509e-02
 -7.2674858e-03
  6.2609220e-01
 -8.2301851e-03
 -2.8726606e+00
 -2.7403453e-01
 -4.9321449e-01
  3.0229896e-01
 -2.0691099e+00
 -1.4964175e-01
  9.2800611e-01
 -1.0750153e+00
  1.4979370e-01
  2.1849940e+00
  1.8369649e-02
  1.5061504e-03
  6.9502693e-01
  1.4916024e-01
  9.3209237e-02
  6.9673695e-02
  2.4514394e-01
  4.8242661e-01
  5.1442981e-01
  4.2431604e-02
 -1.3369722e+00
  8.2220709e-01
 -6.2607557e-01
 -8.1106216e-02
 -6.9357134e-02
 -4.2555368e-01
  2.4757616e-01
 -5.2548236e-01
  2.4341959e-01
 -1.2469298e+00
 -1.9858034e-01
 -1.6116971e+00
  1.4950483e-02
 -3.1531386e-02
 -1.0483525e-01
  1.3326186e-01
 -4.4184560e-03
  2.9207647e-02
 -1.3476801e+00
  1.4665252e-01
  1.7058090e+00
  2.1816565e-01
  7.0045954e-01
 -1.0742079e-01
  2.0176892e-01
  8.4560655e-02
 -4.0558764e-01
 -4.6548602e-01
 -1.5121187e-01
  2.2501490e-01
 -5.3155027e-02
  1.8359004e-01
  1.3466211e-01
  1.5519449e-02
 -6.1299312e-01
  2.8869313e-01
 -2.2972564e-01
 -8.6397387e-02
  1.7328860e-01
 -1.9662133e-01
  3.1738468e-02
 -5.1875070e-02
 -6.2683187e-02
  3.3154798e-01
 -1.4052612e-01
  2.0687485e-01
 -2.3026101e-02
  8.3512746e-02
  7.3715873e-02
 -1.3471054e-01
 -1.3612776e-02
  2.1352559e-02
  2.2526868e-02
  2.0098950e-01
  3.8025375e-03
 -1.9953415e-01
  1.5329397e-01
 -1.5897284e-01
 -4.3706056e-02
  6.1132226e-02
 -3.7874319e-02
  2.6165959e-01
 -1.3491377e-01
  6.7545786e-02
 -2.5720495e-01
  1.6110824e-01
 -6.3018464e-02
 -7.0324890e-02
  1.8678574e-02
 -2.2182663e-01
 -9.0676002e-02
 -2.6289644e-02
 -2.0033117e-02
  1.1030623e-01
 -4.3532383e-01
  1.2969437e-01
 -9.1230738e-01
 -1.2628894e-01
 -2.2189450e+00
  1.5406406e+00
 -2.7164328e-01
  2.1324398e-01
  2.1377444e-01
 -1.3011180e-01
 -7.5894073e-02
  7.0082903e-02
  1.2304275e-01
  1.0917412e-01
  1.2632502e+00
 -2.4204232e-01
 -1.2877021e+00
  4.1865397e-02
 -5.9135485e-01
  5.3882431e-03
  4.8152629e-02
  1.1989108e-02
  1.6396339e-01
  9.7927767e-01
  1.7524080e-01
 -1.7707776e-01
 -1.8340142e+00
 -1.9929904e-02
 -3.0802543e+00
 -2.6441726e-01
  4.5131933e-02
  2.0560089e-01
  6.6156331e-03
  8.8629581e-02
  1.4496757e-01
  1.7126346e-01
 -5.2551174e-01
  1.4987926e-01
  6.6050202e-02
  3.6989693e-02
  5.9048605e-01
  2.4080510e-01
  6.2862113e-02
 -2.9559255e-01
 -1.2625730e-01
 -1.5661104e-01
  6.1641742e-02
  5.2230541e-02
  1.5151305e-01
  2.3512141e-01
 -7.7207729e-02
 -1.4596670e-03
 -1.5780745e-01
 -6.4866163e-02
  1.0851944e-01
  3.3895844e-01
  4.0075260e-01
  6.7024060e-02
 -5.2487191e-02
 -4.6711162e-02
  8.5644543e-02
  3.1678893e-02
 -8.1116436e-03
  6.4680867e-02
  1.2117387e-01
 -5.4170436e-01
 -1.4903440e-01
  1.4422032e-01
  2.0074850e-01
 -2.3441795e-01
  1.5249360e-01
 -8.5880896e-03
 -9.3607053e-02
  1.5248799e-01
  2.9122812e-01
  1.4577259e-01
  3.5739213e-02
 -1.0004205e-01
 -2.0673530e-01
 -3.0858452e-02
  6.1575696e-02
 -1.4311640e-01
  1.4296614e-02
  5.8399793e-02
  3.8206190e-02
  5.8322057e-02
  1.1250608e-01
 -2.8911043e-02
  1.2209372e-01
  4.4274551e-04
 -1.4805845e+00
  2.4469601e-02
  1.7997459e-02
 -1.1599009e+00
  5.4982994e-02
 -8.4148645e-02
 -1.5403275e-02
  4.7525132e-01
 -5.1464118e-02
  3.5057589e-02
  9.4456285e-02
 -3.7940487e-02
 -9.0828699e-01
  5.6685243e-02
 -1.3669454e-02
  1.9185254e-01
 -2.0723742e-02
  2.2250529e-02
  7.7102202e-01
 -3.1524238e-01
  1.2719673e+00
  7.4007869e-01
 -1.7800103e+00
 -1.3746960e+00
  3.6229089e-01
  1.8261732e+00
  2.5872793e+00
  3.9553872e-01
  2.8417842e-02
  8.7914896e-01
  5.6418765e-01
 -6.9600606e-01
 -7.7445865e-01
 -1.9963375e+00
 -1.7011508e-01
 -7.3072806e-02
  1.0713432e+00
 -3.6135346e-01
  5.4448611e-01
  2.0189512e+00
 -9.3744719e-01
  2.2768688e+00
 -1.1927209e+00
  9.5574284e-01
  1.2630404e+00
 -6.9517964e-01
 -6.5760773e-01
 -2.4562838e-02
 -4.4143014e-02
  9.3276316e-01
  9.7737545e-01
 -6.6856533e-01
  8.9487827e-01
 -5.1555520e-01
 -4.2298505e-01
 -5.5644627e+00
  8.1035900e-01
  4.2973733e-01
 -5.4824239e-01
  9.7602868e-01
 -3.2708743e-01
  1.7006245e+00
  1.1288052e+00
  8.6970339e+00
 -1.9181123e-01
  4.2210281e-01
 -3.2004499e-01
 -3.5293821e-01
 -1.5998183e-01
 -2.6788303e-01
 -4.1742921e-03
 -3.3645815e-01
 -1.8821092e+00
 -1.0969393e+00
  1.3766260e+00
 -1.2804286e+00
 -5.6445259e-01
  1.6896169e+00
  2.0560026e-01
  2.4908881e-01
  1.0760210e-01
 -5.5847842e-01
 -2.4877563e-01
  1.6426213e-01
 -1.0576379e-01
  5.3974283e-01
 -7.3193826e-02
 -5.5791545e-01
 -1.0854816e-01
  5.1309091e-01
 -5.3212559e-01
 -5.0837792e-02
  3.4597960e-01
 -3.2470596e-01
 -5.9491807e-01
 -2.9962847e-01
 -2.3471794e-01
  2.0366797e-01
  3.9422745e-01
 -1.8312117e-01
 -5.2365936e-02
 -2.2801648e-01
 -8.4799021e-02
  4.1512243e-02
  1.7201254e-01
  1.9271077e-01
  2.2532314e-01
  3.2652995e-01
  5.6151068e-01
  1.9539894e-01
 -3.8598865e-01
  9.2116684e-01
 -1.1913520e+00
 -7.3534459e-01
 -2.6764804e-01
 -1.1128119e-01
  3.7961656e-01
 -8.4380038e-02
 -4.1867435e-02
  4.7811989e-02
  3.6083415e-02
 -2.3630501e-01
 -1.8536082e-01
 -4.0746424e-02
  3.9365783e-02
 -6.5246165e-02
 -1.6071627e+00
 -8.1835188e-02
 -6.7134082e-01
 -4.2149791e-01
 -3.4323198e-01
 -7.0575702e-01
 -8.7485200e-01
 -6.9102836e-01
 -2.0298246e-01
  5.2392699e-02
  1.6249852e-01
  6.8857569e-01
 -9.2617147e-02
  1.2559718e-01
 -1.7525604e-01
 -2.5459157e-02
 -1.0762808e-01
  2.9800564e-01
  1.2475837e-01
  6.8488978e-02
 -1.2110837e-01
 -2.1895914e-01
 -8.9487387e-03
  2.1873133e-02
 -9.4657570e-02
  4.3158485e-03
 -2.2301458e-02
 -9.2952758e-02
  6.4377353e-02
  1.7222714e-03
 -4.0718731e-02
 -1.2886624e-02
  1.7199659e-01
 -8.2793109e-02
 -1.8817510e-01
 -2.2460314e-02
 -1.9468696e-01
  1.7019950e-02
 -1.0108598e-01
 -1.6808748e-01
 -1.1036521e-01
 -2.7414709e-01
 -4.4024043e-02
 -3.2285541e-02
 -8.3073211e-01
 -1.2599520e-01
  8.0669992e-02
 -1.7290486e-01
 -1.0208857e-01
  4.5075659e-02
 -1.2362907e-02
 -1.1115395e-01
 -6.6923663e-02
  2.6113216e-02
  1.5456851e-01
  2.2448674e-01
  1.3872629e-01
 -2.0597038e-01
 -3.2793943e-02
  8.7560983e-03
 -1.8257345e-01
  1.9034380e-02
  1.2835172e-01
  1.0271882e-02
 -2.2215750e-02
 -1.1667818e-02
 -6.0151978e-03
 -5.2565355e-02
 -2.6632035e-01
 -2.6484584e-02
 -1.6875245e-02
 -1.8165596e-02
  2.9793076e-02
 -4.1748159e-02
 -2.2336247e-03
 -1.2492687e-02
  1.3697240e-02
 -5.9746847e-02
 -1.0191768e-01
 -1.0658588e-01
  1.7783433e-01
 -1.6370635e-02
 -3.5011317e-03
 -1.3286059e-01
  6.9741380e-01
  8.6676508e-02
 -1.1192273e+00
 -8.2695179e-02
  1.2671591e-01
  8.1748143e-03
  6.4993910e-02
 -5.1484048e-02
  6.3617639e-02
  2.3783039e-02
 -3.6749667e-03
  5.0038807e-02
 -1.6942717e-02
 -3.9280104e-03
 -1.5692793e-01
 -5.0976884e-02
  2.0788555e+00
 -1.2327147e-02
 -3.0111777e-02
  9.3107522e-02
 -3.4248172e-03
  1.1012369e-01
 -1.0550746e-01
 -7.9046242e-02
 -3.8254056e-02
 -3.1456491e-01
 -1.4614688e+00
 -4.6232554e-01
 -7.4259505e-02
  1.6917833e+00
 -1.1636598e-02
  1.4633398e-01
 -3.6804028e-02
  4.3849412e-01
  5.9474516e-01
  3.2760128e-02
  1.7925875e-02
  8.5809663e-02
  4.5684714e-02
 -4.3613014e-01
  1.6872272e-01
 -1.9070607e-01
  2.0708534e-01
 -2.0907257e-01
  1.0648159e-01
  3.1799883e-01
  9.0641326e-01
 -1.3876444e-02
 -9.8968700e-02
  3.4315631e-01
  6.4294920e-03
 -7.9772606e-02
  7.2369374e-02
  7.8440487e-02
  4.6739797e-03
 -9.3850590e-02
  3.5036957e-01
  7.5780421e-02
  3.0389840e-02
 -2.6471028e-01
 -8.3764896e-02
 -6.8321630e-02
  3.9505583e-01
  3.2307616e-01
  1.8585285e-02
 -4.5986131e-01
  2.0933557e-01
 -6.1635274e-02
 -4.8432460e-01
 -4.6451278e-02
 -7.0786826e-02
  1.6490532e-01
 -2.0393051e-01
  4.9226075e-02
  1.2039123e-01
  4.0384434e-02
  1.0047196e-01
 -7.5959630e-02
  4.4702151e-01
  4.4179511e-01
 -1.7421149e+00
  2.7720833e-01
  1.0940840e+00
 -1.4926831e+00
  4.9192768e-01
  9.9435163e-01
  4.4840199e-01
 -2.8993201e-01
 -3.8547065e-02
  2.5741646e-01
  1.2941623e-01
 -1.4287257e-01
 -1.6327957e-02
  2.7508286e-01
  2.1346092e-01
 -3.9493242e-01
  5.3235620e-02
 -3.3826735e-02
  2.6873463e-01
  8.5847132e-02
 -3.2513708e-02
 -1.4812967e-01
 -2.5597009e-01
 -7.1661934e-02
  2.7461830e-01
  9.4096065e-02
 -1.2510332e-01
 -2.5867924e-01
  4.9972065e-02
  1.3459899e-01
  1.7054607e-01
  1.1597610e-01
  2.9472643e-01
  3.3502498e-01
 -6.7044228e-01
  2.3083828e-01
 -5.5914707e-02
 -3.7717167e-01
 -1.0891610e+00
  7.8104204e-01
  6.2965840e-01
  3.4412202e-01
 -1.6471881e+00
  4.8489265e-02
 -1.2659603e-01
  1.2363960e-01
 -2.2645986e-01
 -1.3331378e-01
  1.0663976e-01
 -5.4717965e-02
 -9.2458539e-04
 -2.2335782e+00
  1.5806159e+00
  2.7996218e-01
 -2.3837647e+00
  4.5286581e-01
  4.0452096e-01
 -2.1448247e-01
 -1.1627580e+00
 -4.4950551e-01
 -1.3362356e-01
 -1.4435740e-01
  3.2544133e-01
 -4.1841072e-01
  3.2933575e-01
 -4.8422487e-03
  1.2842844e-01
  7.4655950e-02
  2.2530504e-01
  1.1670526e-01
 -1.1826339e-01
  1.7512808e-02
  4.3422127e-01
 -5.1698703e-01
  5.1368690e-01
  5.0802547e-02
  1.0225490e-02
  1.0223607e-01
 -7.7869659e-03
 -6.6955107e-01
  4.9175900e-01
  3.2683975e-01
 -5.2122247e-01
 -7.7067590e-01
  3.3988112e-01
  3.6011401e-03
 -2.4115828e-01
 -1.8569314e-01
 -9.9266618e-02
  6.3677764e-01
  2.0014426e-01
 -5.8528900e-01
 -5.2800983e-01
  4.8805127e-01
  1.1427190e+00
  1.8323487e-02
 -3.3835357e-01
 -5.2547451e-02
  7.8541949e-02
 -3.1898819e-02
 -1.6870028e-01
 -3.1203158e-02
  2.9592219e-01
 -1.5427054e-01
 -3.9943263e-01
 -3.3501923e-01
  2.2153990e+00
 -1.1240668e-01
 -5.0149226e-01
 -2.0679323e-01
 -7.8383631e-01
  1.2725494e+00
  1.8795922e+00
  7.6081820e-02
  4.6711884e-02
  5.7887338e-02
  1.2854826e-01
 -1.0646841e-02
 -7.1654767e-01
  1.7260753e-02
  2.7662793e-01
 -1.4019445e-01
 -1.7101385e-01
 -2.0627001e-02
  1.0897204e+00
  1.0554957e-02
  1.1532998e-01
  1.6667683e-02
  1.5941209e-01
  1.7970213e-01
  1.3229656e-01
 -1.3260509e-01
 -6.5602876e-02
 -7.0436023e-02
 -1.3715428e-01
  5.3549926e-03
 -1.4199641e-01
 -8.4020838e-02
 -2.6972320e-02
 -1.8947276e-01
 -1.8076964e-02
  2.8647685e-01
 -8.5042042e-01
 -9.2904046e-02
 -8.9443773e-02
  6.2606759e-02
  3.3831445e-03
 -1.8253146e-01
 -9.3519665e-02
 -5.9020698e-02
 -5.0495949e-02
  3.1874835e-02
  1.4050648e-01
 -6.0109477e-02
  1.7131624e-01
  7.1737696e-03
 -3.1270298e-01
  3.9343983e-02
 -1.0737239e-01
 -6.4218149e-02
 -6.1926508e-01
 -1.3031806e+00
 -1.6198788e+00
 -9.6006161e-01
 -2.5763717e+00
  6.3159633e-01
 -2.6684713e+00
  3.1526199e-01
  9.0151536e-01
 -1.4844306e-01
  1.1680288e-02
 -2.3490945e-02
 -1.6330017e-02
 -6.4106137e-01
  8.0421247e-02
  2.5649619e-01
  3.0474856e-03
 -5.9120792e-01
  2.8832248e-01
  2.4393734e-02
  1.0601016e+00
  9.8464772e-02
 -1.9835356e-01
 -6.5947825e-01
 -6.8185449e-01
 -1.8605852e-01
  1.1734384e+00
  2.1097548e-01
 -9.3560070e-01
  7.5515695e-02
  1.0584242e-01
 -1.6574486e-01
 -1.4267832e-01
  1.6276476e-01
  8.5587911e-02
 -6.8932283e-01
 -2.4017888e-01
  3.7184083e-01
  4.1085979e-01
  4.8673481e-01
 -3.4415671e-01
 -1.4778724e+00
 -1.4138301e-01
 -2.3160878e-01
  1.4148241e-01
  3.7553254e-01
  1.5879037e-02
  1.2003560e-01
 -7.8525193e-02
 -2.5460884e-01
  3.6761197e-01
 -1.9641462e-01
 -9.7530998e-02
 -2.6735339e-01
  3.6650448e+00
 -4.6901661e-01
  6.1285669e-01
 -1.1366036e+00
 -5.5063734e+00
 -1.1390103e+00
  9.3847293e-01
 -1.6031779e+00
 -1.4545399e-01
  2.3732051e-01
  5.1419806e-01
  3.4843078e-01
 -5.2164607e-02
  4.2831835e-01
 -3.0500215e-01
  1.0667555e-01
 -1.5889052e-01
  1.8880944e+00
  7.4428725e-01
 -6.3624750e-03
  1.0444257e+00
  6.8615556e-01
  6.3668609e-01
  3.6016572e-01
 -5.7195421e-02
  3.6262390e-01
 -4.4607064e-01
 -4.9789077e-01
 -5.6775533e-02
  4.1236085e-01
 -5.9290864e-03
  7.1441871e-01
 -2.6315919e-01
 -9.9336073e-02
 -4.3603876e-01
  1.1189522e-01
  1.2135303e-02
 -1.2338026e-01
  1.8209337e-01
  1.2560250e-01
  4.5876491e-01
 -3.9554082e-02
  4.7569245e-01
  1.0109024e+00
  1.4002402e+00
  2.2485997e-01
  1.5229665e-01
 -2.5893784e-01
  4.0826941e-01
  8.9536160e-02
  1.9223408e-01
 -5.3800434e-02
 -2.9166457e-01
 -1.8335475e-01
 -8.6172605e-01
 -2.7313128e-01
 -2.1047913e-02
 -2.5329971e-01
  1.1779704e+00
 -7.8764123e-01
 -7.3626584e-01
  1.8158171e-01
 -1.3267740e+00
 -2.3983814e-01
 -2.1005862e+00
  6.7760903e-01
  8.0399555e-01
 -3.1062794e-01
 -3.7117496e-02
  2.1166489e-01
 -2.4336684e-01
 -3.0943853e-01
  4.9528606e-02
 -1.7866803e+00
  1.2557836e+00
 -1.3847415e-01
 -1.4052343e+00
 -2.7916670e-01
 -1.5789037e+00
  1.8613018e+00
  1.0796583e-01
 -1.0882113e+00
  1.6086851e-01
  5.3791511e-01
  1.6251561e-01
  2.0277615e+00
  3.0457774e-01
  6.0768735e-01
  2.3130186e-01
  8.5897289e-02
  7.2442061e-01
 -1.5368177e+00
 -2.3309104e+00
  1.6270865e+00
  1.6945028e+00
  1.5635735e-01
  2.8034085e-02
  4.4363359e-01
  6.9738489e-01
 -1.6890606e+00
  1.6183615e-01
  2.9233742e+00
 -1.0419887e+00
 -2.4246492e+00
 -4.7823068e-01
 -2.2102723e+00
 -1.5999910e-01
  2.5584893e+00
 -1.0105774e+00
  1.2678353e+00
 -1.2621446e+00
  6.2811464e-01
  2.1125038e-01
  1.8670292e+00
 -1.7665190e+00
  2.8506739e+00
  3.6822706e-01
  2.1515244e-01
  3.5456712e+00
 -4.5732775e-01
  1.3046303e+00
 -1.2129120e+00
  1.0405656e-01
  2.7662725e+00
 -2.5779966e-01
  1.4495827e-01
  1.0751449e+00
  6.2998801e-01
 -2.8008988e-01
  1.4536966e-01
  2.3539884e+00
  1.9308420e+00
 -7.6423925e-01
  5.5763972e-01
  2.3436944e+00
  2.9991028e-01
  1.6063556e-01
 -4.2138610e+00
  1.9110397e-02
  2.6597488e+00
  2.6785073e-01
 -3.1384474e-01
 -2.1886590e+00
 -3.0442226e-01
 -4.9816033e-01
  2.8391552e+00
 -7.9376262e-01
  2.1212199e-01
  2.7689216e+00
  5.6679797e-01
  4.3783550e+00
 -1.0758572e+00
 -2.1429420e-01
  6.5611595e-01
 -3.9365327e-01
  9.0732366e-02
 -6.3802177e-01
 -7.2226191e-01
 -4.9105862e-01
 -1.8494651e-01
 -9.3360111e-02
 -7.0960456e-01
  1.4938898e+00
 -5.5324262e-01
  2.5865350e+00
  3.0218929e-01
  3.7353322e-01
  2.3815966e+00
 -7.4567896e-01
  1.8775952e+00
  1.2200375e+00
  1.0911750e+00
 -7.2322142e-01
  7.6283085e-01
 -2.2222291e-01
  1.8413989e-01
 -5.3645307e-01
 -1.8405266e+00
 -8.3370179e-01
 -2.9689991e-01
 -2.0682452e+00
  6.1194330e-01
 -5.1586199e-01
 -6.9478077e-01
  2.6900611e+00
  8.1265742e-01
 -8.9075416e-02
 -1.1742731e-02
 -4.5922276e-01
  1.9297643e-01
 -8.8618934e-01
 -1.3757507e+00
  1.3095745e+00
 -2.0068316e-01
 -1.4962770e-01
 -1.3343378e+00
 -7.1359104e-01
 -1.2738608e+00
 -5.3591549e-01
  1.2200715e-01
 -2.2287886e+00
 -6.8972361e-01
 -7.7936125e-01
 -9.7558141e-02
  4.4486645e-01
  7.6821551e-02
  4.7508305e-01
  4.5350933e-01
  3.6380410e-01
 -4.5248661e-02
  1.0481730e-01
  3.4188738e-01
 -4.5353636e-01
 -4.6198520e-01
 -6.5094513e-01
 -3.1347785e-02
 -5.6104172e-02
 -2.1763720e-01
 -1.5025814e+00
 -5.0058985e-01
 -6.6924107e-01
  3.0368713e-01
  6.1023986e-01
  9.6575433e-01
  1.7332522e+00
 -2.9753587e-01
  9.7495574e-01
 -2.9953068e-01
  8.0463380e-01
  1.3218970e+00
  8.1802249e-01
 -2.4823307e-01
 -8.0140918e-02
  4.3605870e-01
 -3.3885434e-02
  1.0484149e+00
  6.5297610e-01
  7.9828542e-01
  3.5530710e-01
 -1.6356272e-01
  3.1312311e-01
 -1.9630956e-02
  1.5803412e-01
  1.0016798e-01
 -8.6080122e-01
 -4.6534297e-01
  1.3666566e-01
 -2.5318536e-01
 -7.5899202e-01
 -1.3438672e+00
 -1.1313325e-02
 -4.1769469e-01
  2.1705632e+00
  1.4536557e-01
  4.7805186e-02
 -9.2937148e-01
  2.4722359e+00
  2.6575106e-01
 -1.2954640e+00
  1.7648308e-01
 -3.9111665e-01
  9.6824750e-02
  7.1945995e-01
  1.3493198e+00
  1.8693411e-01
 -3.0962324e-01
 -1.4655834e+00
  9.4710475e-01
 -2.7927214e-01
  1.3808981e-01
  1.6575769e-01
  1.9325973e-01
  3.1799574e+00
 -1.8526767e+00
  6.1728501e-01
  2.5249988e-01
 -7.5341761e-01
 -5.1567489e-01
 -3.4061426e-01
 -1.3976336e+00
  1.8217455e-01
 -1.6791478e-01
 -9.4541484e-01
 -3.1661728e-01
  1.0705884e+00
  3.6775225e-01
 -5.7127720e-01
 -1.0120988e+00
 -1.5517101e-01
  9.2458951e-01
  1.0973209e+00
 -8.0070961e-01
 -1.6832809e-01
  3.4975684e-01
  1.8502738e-01
 -5.0115705e-02
 -2.1407340e-01
  1.3574269e-01
 -2.0941937e-02
 -6.7285639e-01
 -3.6645427e-02
 -7.3562138e-02
 -4.4064781e-01
  1.0347162e+00
  2.7286124e-01
 -1.8511559e-01
  1.3570175e-01
 -2.2093508e+00
  1.2588350e+00
  1.7023396e-01
 -8.0532944e-01
 -3.4287542e-01
 -9.5089421e-02
 -1.8820858e-01
 -2.3079596e-01
 -8.0023266e-02
 -1.0364571e-02
  1.5457420e-02
  1.3855517e-01
 -2.3120308e-02
 -5.7030644e-02
 -2.2806297e-01
  2.0726667e-01
  7.9896659e-02
 -4.6453170e-02
  5.3889081e-02
 -7.4163787e-02
  4.1369796e-02
  4.2129129e-01
 -1.0578828e-01
 -8.4309436e-02
  7.0709310e-02
  1.0014427e-01
 -1.7143482e-01
 -3.7701809e-01
 -2.3998952e-01
 -2.5786623e-01
 -1.9591394e-01
 -1.3423878e-01
 -1.2266715e-01
 -8.4126645e-01
 -4.8867997e-02
 -2.5324926e-01
 -5.2290507e-02
 -2.1933990e-02
  8.0981368e-01
 -1.6669278e-01
  1.3519440e-02
 -1.2438904e-01
 -2.0667708e-03
  6.3330889e-02
  2.5516361e-02
 -3.5509317e+00
  1.7885655e-01
  7.9215638e-02
 -9.6235713e-03
 -3.5254092e+00
  5.0853819e-01
 -2.0103046e-01
  2.2860899e+00
  3.8515201e+00
  1.7707044e+00
 -3.0273719e+00
 -2.7007532e+00
 -3.0131266e+00
 -4.0377671e-01
  2.4737179e+00
 -9.1868025e-01
  1.5256917e-01
  7.2792381e-01
  1.5772477e+00
  2.8586409e+00
 -7.5398964e-01
  1.3583314e-01
 -3.1336150e+00
 -1.1583015e+00
 -5.1086849e-01
  7.5008100e-01
  8.3354121e-01
  1.6955876e-01
  3.0048878e+00
  4.4266567e-01
 -1.9894618e-01
  1.3758422e+00
  9.5422161e-01
 -6.2539726e-02
  7.7096337e-01
  1.3730478e-02
  3.4974635e-01
 -1.0790416e+00
  8.7288469e-01
  9.7933245e-01
  1.2801867e+00
 -6.2920940e-01
 -1.8585053e-01
 -1.5484316e+00
  7.6192582e-01
  1.0312202e+00
  1.2920980e+00
  4.2127665e-02
 -6.9684958e-01
 -1.0187545e-01
  1.0942043e-01
 -2.1352792e+00
  1.2478736e-01
 -4.5268354e-01
 -9.7226256e-01
 -1.5462997e+00
  1.4201646e-02
  4.3320119e-02
  1.8078943e+00
  5.1488328e+00
 -1.8846885e+00
  1.9647127e+00
 -4.8556857e+00
 -1.1404305e+00
 -2.0882351e+00
 -4.8690236e-01
 -1.8606100e+00
 -1.4448122e+00
  3.8895106e-01
 -8.4276140e-01
  3.2552752e-01
 -2.0843641e-01
  1.0410903e+00
 -1.7048347e+00
 -3.7036069e-02
  4.3139547e-01
  2.6726198e-01
 -4.5381820e-01
 -8.9783555e-01
  2.5070393e-01
 -7.9668170e-01
 -2.2965131e+00
 -2.0055313e+00
  8.9403605e-01
  6.3572383e-01
 -3.4926316e-01
 -1.3895279e-01
 -1.8591940e-01
  3.0774605e-01
  5.3323507e-01
  1.1964282e-01
  2.3339090e+00
  9.8847546e-02
 -2.3880258e+00
  1.1376036e+00
  3.2033563e-01
 -1.5209318e+00
 -3.2422581e-01
  6.8935001e-01
  7.0982736e-01
 -8.1366718e-01
 -6.1537677e-01
  1.7328580e-01
 -4.6711735e-02
 -4.8553148e-01
  2.2205015e-01
 -1.4940258e-02
  4.4187319e-02
  2.3290975e-01
  1.1694355e-01
 -7.4899238e-01
  1.0825995e-01
  1.2961560e-01
  1.2189120e+00
  2.2363158e-01
  4.3454149e-01
  4.1560588e+00
 -7.3335588e-01
 -4.6322203e+00
 -8.2606815e-02
  5.7751793e-01
 -4.9600378e-02
 -1.9869736e+00
 -2.7948430e-02
 -1.8772034e-01
 -2.0810954e-01
 -3.7702415e-02
  2.1974813e-02
 -4.0710777e-01
  4.1693810e-01
 -8.7714404e-02
 -1.0724337e-01
 -4.0798187e-02
 -9.2214467e-03
  7.3479347e-02
 -1.5247381e-01
  6.4135209e-02
 -1.3597499e-01
 -7.4227625e-03
  1.7092338e-01
 -1.0906453e-01
  5.6221526e-02
 -1.5701132e-01
  9.2157431e-02
 -1.3947541e-01
  8.5196635e-03
 -2.2494859e-01
  1.3062991e-02
 -8.9056045e-01
 -5.5394727e-01
 -1.8685099e-01
  4.2885434e-02
 -4.8983276e-02
  6.4673307e-03
 -1.0603746e-01
  7.8853898e-02
 -1.0671443e-01
 -1.3201992e-01
  4.5321941e-02
  9.4092533e-02
  7.7665269e-02
  2.4894923e-02
 -5.0792906e-02
 -9.4988104e-03
 -1.4952908e-01
 -1.0819365e+00
 -5.2055836e-01
  6.2529963e-01
  4.5525771e-01
 -2.0888156e-01
  7.0696574e-01
 -4.3252859e-01
 -1.2328162e-02
  4.5628119e-01
  1.6248621e-01
 -1.6013501e+00
 -1.8798326e-01
 -4.6299938e-02
 -1.9315393e-01
 -3.5321507e-01
  5.3578991e-01
  3.0281854e-01
  3.3889610e-01
  8.3242372e-02
  1.9114441e+00
 -2.5147954e-01
  4.0908295e-01
  2.3784502e-01
 -2.4351102e-01
 -1.2848984e-02
  1.4803895e+00
  1.4597423e-01
 -2.6363230e-01
  3.4909081e-01
  3.0297452e-01
  1.5573259e-01
 -2.0155329e-01
  1.0556192e-01
 -1.5144970e-01
  3.5673940e-01
 -2.5745070e-01
 -4.1196984e-01
  3.8801140e-01
 -4.4223103e-01
  2.6761106e-01
 -1.1332876e-01
 -4.3346417e-01
 -1.4201696e-01
  7.6912367e-01
 -1.6195880e-01
 -6.6730756e-01
  2.8134218e-01
 -9.0523407e-02
  2.1614950e-02
  2.0456653e-02
 -6.6233650e-02
 -2.3012678e-01
  4.9582690e-01
  6.5328203e-02
  2.6161751e-02
 -3.6272743e-01
 -6.3293397e-01
 -2.4299045e-01
 -9.8195665e-02
 -1.1213683e+00
 -9.8974310e-02
 -1.5875404e+00
 -1.1106685e-01
  5.6196189e-01
  1.7255634e-02
 -4.4977322e-02
  3.6738433e-02
 -9.9725559e-02
  7.8950800e-02
 -1.2203351e-01
 -1.8277716e-02
 -1.9475642e-01
  2.1047056e-01
  6.7223422e-02
 -7.7375524e-02
 -8.3578452e-02
  1.1007896e-02
  3.3449277e-01
  8.6123906e-02
  1.5711961e-02
 -7.2765373e-02
  2.6695246e-01
  3.0307802e-03
 -1.7524454e-01
 -2.1007532e-01
 -6.8400197e-02
 -1.5816174e-01
  4.4132710e-01
 -7.2073944e-02
 -1.4111513e-01
 -1.1689621e-01
  1.2793234e-01
 -2.0553960e-01
 -3.3899084e-01
  1.2122045e-01
 -3.1911567e-02
 -6.4975485e-02
 -1.1507808e-02
 -1.7506851e-02
  6.0467139e-02
  5.9542857e-02
  8.6944580e-02
  1.2227502e-01
  1.2160642e-01
 -6.2165493e-01
  3.8051326e-02
 -5.0512096e-03
  9.7107470e-02
  4.7451779e-02
  2.2971541e-02
  4.1945076e-01
  1.0234953e-01
 -1.9957854e-01
  3.7465122e-01
  1.7760536e-01
 -2.0477373e-02
 -1.4019753e-01
 -1.7251071e-02
 -3.6474910e-02
  3.3694763e-02
 -1.6058926e-01
  7.6884493e-02
  3.4100655e-01
 -3.3962335e-02
  2.9015578e-02
 -9.7055145e-02
  4.8278093e-02
 -6.5853536e-01
  1.2199952e-01
  1.3102235e-01
  3.3574086e-02
  3.9433401e-02
 -2.9303046e-02
 -5.3009469e-02
  5.4297712e-02
  6.5315105e-02
  1.6293034e-02
 -5.2750960e-02
  3.2874495e-01
  1.8793371e-02
  1.3764147e-01
 -9.7634159e-02
 -4.8696499e-02
 -6.2043767e-02
  1.6757695e-02
 -9.4406502e-03
 -1.0927262e-01
 -7.2178647e-02
 -2.5507828e-02
 -8.2252488e-02
 -1.1808741e-01
 -7.2815202e-02
  4.2431217e-02
  5.5924486e-02
 -1.1702585e-01
 -2.1422600e-02
 -4.6552145e-03
 -1.8278002e-03
  3.3236541e-02
  8.9106381e-02
  3.3056647e-02
  2.6894186e-02
 -3.8939927e-02
  7.6549470e-01
 -1.1606237e-01
 -1.1536002e+00
 -2.5933638e-01
 -1.8301746e-01
  8.4713781e-01
 -1.3969276e+00
  1.3820971e+00
  2.2860370e+00
 -1.7661042e+00
 -2.1884539e+00
 -2.8378367e+00
 -2.3365898e-01
  1.7283444e+00
 -2.1454997e+00
 -3.6363010e+00
 -8.8973761e-01
 -3.9809696e-02
 -1.1429029e+00
 -1.1369550e+00
 -4.3747950e-01
  9.1581744e-01
 -2.2518976e+00
 -2.1569912e+00
 -2.3270216e+00
 -6.9609016e-02
  1.1276025e-01
  1.3115003e+00
  1.9484745e+00
 -1.5819612e+00
  7.3544550e-01
 -2.6089783e+00
 -2.3431864e+00
 -1.7305564e+00
  3.1180806e+00
 -3.1805165e+00
 -5.6814814e-01
  2.1448432e-01
 -1.1643686e+00
 -7.6995516e-01
  9.4341630e-01
 -2.0532410e+00
 -2.1842651e+00
 -2.0412922e+00
  2.7512028e+00
 -4.4761509e-01
  3.0879202e-01
  7.8992021e-01
  4.3555978e-01
 -1.2998234e-01
  7.9490328e-01
 -1.6820551e+00
  4.5332316e-01
 -4.4611979e-01
  5.9168905e-01
  7.2511750e-01
  1.7263098e+00
  4.1771731e-01
  1.8937626e+00
  1.1081040e+00
  1.7049640e-01
  7.9710013e-01
 -9.7765803e-02
 -3.6688776e+00
 -2.4861260e-01
 -2.4893804e-01
  5.5233277e-03
  2.4610778e-02
 -8.1785828e-02
 -3.2546976e-01
 -6.1818832e-01
 -1.3045590e-01
 -2.0221708e+00
  1.2715566e+00
 -1.0899318e-02
  2.2129586e-01
  8.7253964e-01
 -1.3007741e+00
  2.0993710e+00
 -4.4254965e-01
 -8.0613834e-01
 -2.0269110e+00
 -1.0210799e+00
 -1.8903856e-01
  1.2022688e-01
  3.0476516e-01
  3.3674282e-01
 -8.1461954e-01
 -9.8103142e-01
 -3.5149720e-01
  1.0683317e+00
  9.0294130e-02
  3.3010381e-01
 -2.0269740e-01
  1.2492349e-01
 -9.6180177e-01
  1.3583045e+00
 -1.6756378e+00
 -3.1193313e-01
  9.1456628e-01
  1.6512467e-01
 -1.9663252e-01
 -7.7890083e-02
  1.4134699e-03
  3.4203572e+00
  2.6027399e-01
  1.3472543e+00
  4.5730948e-01
 -2.7701461e-01
  4.9506184e-02
 -1.4442459e-01
  4.2539188e-01
  2.8197426e-01
  5.0501216e-02
 -1.5973395e-02
  1.0976396e-01
  3.7488207e-01
  3.8758744e-02
  9.0764120e-02
  2.3152308e-01
  1.3562775e-01
  1.9532545e-01
 -3.6228914e-02
 -6.7326880e-01
 -1.4600185e-01
  3.0300919e-02
 -1.0778491e-02
  1.3019447e-01
 -1.7242226e-01
 -3.0301869e-02
  5.2523497e-02
  3.3411831e-02
  3.6262065e-02
  1.5571193e-01
 -4.7908850e-02
  9.8096663e-03
 -9.1670699e-02
  1.7029190e-01
 -1.0728386e-02
  1.9143222e-01
  2.9287797e-01
  1.4797500e-01
  1.1942903e-01
  4.4677414e-02
  3.2137236e-01
  8.8759854e-02
  4.8913357e-01
 -5.0878592e-02
  7.7611792e-01
  5.5951439e-02
 -7.4969731e-02
  1.7748128e-01
  2.0916760e-01
  3.3058483e-02
  7.8836478e-02
 -4.0244382e-02
 -7.6467969e-02
  1.7998752e-01
  4.1553278e-02
 -1.2725043e-01
 -8.1097774e-02
 -3.9176803e-02
  1.9964004e+00
 -1.0760945e+00
 -7.6294482e-01
 -1.1016502e+00
 -1.1100995e-01
  1.1747915e+00
  1.5264779e+00
 -1.2501745e+00
  2.4185708e-01
  7.1722770e-01
 -5.6808442e-01
  8.4498698e-01
  3.5556671e-01
  4.8218861e-01
 -1.9806640e-01
  1.4705098e+00
 -4.4825682e-01
  2.3378237e-01
 -2.2441787e-01
  4.5288569e-01
 -9.7616267e-01
 -8.6909980e-01
  4.4285026e-01
 -5.4552102e-01
  2.3908052e+00
 -5.9684187e-01
 -8.7346452e-01
  3.6299232e-01
 -1.0477465e+00
  8.0975339e-02
  9.1540003e-01
  1.2131391e-01
  3.2189852e-01
  1.5612467e-01
 -1.0304787e+00
 -1.2341094e+00
  1.5021288e+00
  4.1269299e-01
  2.5995231e-01
 -7.4659133e-01
 -1.8404397e-01
  2.4827087e-01
  1.0302118e+00
 -2.0287504e+00
  2.0342233e+00
 -1.2959422e-01
  9.5616147e-02
 -4.1635942e-01
  4.8911713e-02
  7.3087305e-02
 -1.9069658e-01
  2.8653914e-01
  1.0112301e-01
 -6.8835132e-02
  5.7926476e-01
 -2.1251740e+00
  3.3795300e-01
  3.3331171e-01
  2.9589671e-01
  1.7747715e+00
 -9.3515766e-01
 -6.3939810e-01
 -2.5378964e+00
 -5.6427652e-01
  1.3753263e+00
 -3.8675234e-01
 -7.0016348e-01
  8.9748576e-02
  1.0954277e-01
 -5.9038198e-01
  8.3974618e-01
  6.7944877e-02
 -1.4150215e+00
 -8.5992360e-01
 -2.6595452e-01
 -1.6128294e-01
  5.9176373e-01
 -4.7171795e-01
 -1.2888320e-01
 -5.6896371e-01
  3.7022181e-02
  1.7759140e+00
 -2.2009776e+00
 -7.8657782e-01
 -1.8519938e-01
 -1.3740109e+00
  5.7606394e-03
 -1.0208513e+00
 -1.4088172e+00
 -1.3643426e+00
  1.4207610e+00
 -1.2251049e+00
  6.0301864e-01
 -7.0285642e-01
 -3.3483711e-01
  9.8882246e-01
 -5.7465267e-01
  7.0738041e-01
 -5.6531250e-01
 -1.5114696e-01
  7.7426128e-02
  9.4378917e-03
  7.6876000e-02
 -5.8872402e-01
  1.8367957e-01
  2.7152175e-01
  2.1865893e-02
 -1.4679968e-01
  1.0528217e-02
  4.6375380e+00
 -4.1983625e-01
 -1.7417951e-01
  1.3498779e-01
  4.7543768e-02
 -5.9749407e-01
 -4.9401444e-01
  1.9603270e+00
  1.0410593e-02
 -5.3718776e-01
  4.4896711e-02
 -2.0443970e-01
 -7.4867684e-01
 -2.7756357e-01
 -2.7740672e-01
  1.8403047e-01
  2.9770845e-01
  7.2539836e-01
 -2.6200506e-01
  4.1620511e-01
 -1.6046144e-01
 -1.2177919e-01
  1.0205721e+00
 -4.1972294e+00
 -8.1851631e-01
 -8.8182919e-02
  1.3547437e+00
  8.6193837e-02
  5.3840142e-01
  2.7275848e-01
  1.2897974e-01
  7.1239448e-01
  4.2111356e-02
  2.3079555e-01
 -3.1786916e-01
  1.8676342e+00
 -4.5104033e-01
  2.6367813e-01
  1.1770090e-01
 -2.7996904e-01
 -2.0226485e-01
  1.4920789e+00
  3.4617886e-01
  4.8959176e-03
  2.0419751e-01
  2.3198378e-01
 -9.0731099e-02
 -4.6919589e-03
  1.0004491e-01
  3.5100782e-01
 -1.5303968e-01
 -1.3911378e-01
  8.3025523e-02
  4.4754031e-01
 -9.2513718e-02
  1.0627430e-01
 -2.6495263e-01
 -4.8181468e-01
 -4.7934064e-01
 -2.4935911e+00
  4.2373419e-01
 -1.3065720e+00
 -1.1410577e+00
 -1.0316931e+00
 -5.3286874e-01
 -5.5256844e-01
 -9.4994229e-01
  1.3189638e+00
 -4.5144165e-01
 -1.9214897e-01
 -5.4134191e-03
 -1.1874884e-01
 -7.8203404e-01
  4.5028168e-01
 -4.0954891e-01
 -5.4948795e-01
  3.2686850e-01
 -1.4091657e+00
  8.3765082e-02
  1.0069744e-01
 -1.7839285e+00
  2.4239878e-01
 -1.0747216e+00
 -4.3401444e-01
 -4.3711540e-01
 -2.4154866e-01
 -1.7024153e+00
 -9.2437524e-01
 -1.9963855e+00
 -7.2551739e-01
  1.2045020e+00
  1.4113580e-01
  5.0740123e-01
  5.7510845e-02
 -4.2772314e-01
 -6.1192963e-02
  6.7731452e-01
  1.4558239e+00
 -1.5870120e-02
  1.0989171e-01
  3.0175543e-01
 -9.1755398e-02
 -1.0199828e-01
 -1.8075287e-01
  5.7698512e-01
 -5.8971196e-02
  2.1364340e-01
  7.4914873e-01
  2.2672878e-01
  6.2362033e-01
  6.9164646e-01
 -1.1062418e+00
  7.7705336e-01
  6.2878466e-01
  5.6847942e-01
  9.2770427e-01
  1.0048486e-01
 -2.6211807e-01
  9.5964426e-01
 -6.3850135e-02
  2.0700969e-01
 -1.0862765e-01
 -5.6535417e-01
 -3.1677299e+00
  2.4863519e-01
  2.3405503e-01
  5.1288728e-02
  6.2874138e-02
  1.8651811e-02
 -2.4847148e-02
  5.2887872e-02
  3.6916602e-01
 -1.0628400e-01
 -1.4193812e-01
 -4.5754477e-02
 -6.0377109e-01
  2.6660851e-01
 -1.7752272e-01
  3.7166211e-01
  4.7174233e-01
  2.7571517e-01
 -8.4410891e-02
 -5.3111024e-02
 -1.2100563e-01
  1.6114500e-01
  2.2206163e-01
  6.1557103e-02
 -1.6293590e-01
 -1.1756993e-01
 -2.4818186e-01
 -6.9826402e-02
  2.4475048e-01
 -2.6784980e-01
 -6.3773409e-02
  8.8929839e-02
  9.9052181e-03
 -4.2231787e-02
 -4.7002682e-01
 -4.1758785e-01
 -4.5303792e-02
  1.0703813e-01
 -9.0251237e-01
  1.2817576e+00
  3.7916325e-02
  2.6170084e+00
  5.4300421e-01
 -1.8777706e-01
 -1.6453271e+00
 -9.2416212e-02
 -2.6043373e-01
  1.2094725e+00
 -1.4050582e-01
  1.6848211e-01
 -3.6288316e-03
  8.1002541e-02
  3.3643186e-01
  1.2906751e-01
  9.7190224e-02
  7.0564032e-01
  9.6507138e-01
  2.5967613e-01
 -5.5853017e-02
 -1.0459012e-02
 -1.7220828e-01
  1.8518610e+00
 -8.5403425e-01
  3.3122292e-01
 -1.4536068e+00
  4.8589620e-01
 -6.8440400e-02
  5.3852141e-01
  7.8793764e-02
  7.6794378e-03
  5.6659746e-01
 -9.6285331e-01
  1.5136139e-01
  1.2065709e-01
  5.1438248e-01
  1.1985513e-01
 -3.4583977e-01
  5.9648231e-02
 -4.4738615e-01
  6.2821001e-01
  2.3385408e+00
  1.6726139e-01
 -1.5158601e-01
  3.9997000e-01
  7.8989081e-02
 -7.8749582e-03
  3.9281666e-02
 -5.9754634e-03
 -3.8581932e-01
  1.0121341e+00
 -2.7834360e-02
 -5.5460960e-02
 -9.8726243e-01
  2.8937750e+00
 -2.1871810e-01
  7.0662037e-02
  1.8776569e+00
 -3.6745781e-01
 -2.2111330e+00
  3.9886066e-01
  8.9469177e-01
  1.4500695e-01
 -6.2420171e-02
 -1.5581880e-02
  3.5347919e+00
  2.3803127e-01
 -1.1147163e+00
 -2.3844006e+00
 -2.0566404e-01
 -4.9294192e-02
  9.7840750e-01
 -2.3846154e-01
 -2.3918819e-01
 -7.7048488e-02
  1.4716518e-01
  2.4505676e-01
  6.3859969e-01
 -1.2844151e+00
  2.3233737e-01
  2.1059966e+00
 -1.2961598e-01
  3.8295266e-01
 -3.2901041e-02
  3.2997271e-01
  4.6194167e+00
 -7.1252659e-03
  2.0163436e-01
  6.7944691e-02
  2.2459340e+00
  1.5809985e-01
 -4.4253822e-02
 -5.4006360e-02
 -8.9989983e-02
  4.2635199e-01
 -2.8085768e-01
 -1.8964811e-01
 -4.4534922e-02
  1.6827080e+00
  3.1966218e-01
  9.9943630e-02
 -6.2073976e-02
  1.2369069e-01
  7.3184353e-01
 -7.4274790e-01
 -5.3903979e-01
 -7.4164517e-02
  2.3384197e-01
 -2.3475702e-01
 -5.8824971e-02
 -7.4282721e-02
  1.0908323e-01
  1.3331875e-01
  2.3748063e-02
 -6.3949659e-02
 -4.5209218e-02
 -4.8980269e+00
  7.8095770e-01
  7.1642131e-02
 -3.8674977e-02
  7.4776240e-02
 -1.1911417e-01
 -6.0416386e-02
  5.2244060e-02
  1.3817289e-01
 -2.6097596e+00
  2.3838220e+00
 -7.2520822e-02
 -2.3652491e-01
 -7.1783376e-01
 -5.1961392e-01
  9.7712122e-02
 -6.1640847e-01
  6.8541914e-02
 -1.1590578e-01
 -4.0566619e-02
  2.3475434e-03
  2.8601404e-02
  2.3443129e-02
 -2.1507256e-01
  1.5590869e-01
  5.3660111e-03
 -4.5573644e-02
 -4.0639469e-01
  2.7765362e-02
 -3.0066404e-01
 -5.8257088e-02
  2.0368430e-03
 -5.6318092e-01
 -3.8158577e-02
  5.7730305e-01
  1.2103266e-01
 -2.8805077e-01
 -1.0457382e-01
  6.3631654e-02
 -3.5012581e-03
  1.0539667e-01
  2.2324172e-01
 -4.2188144e-03
  6.6851010e-03
 -3.8287371e-02
 -2.9945676e+00
 -3.9410861e+00
  3.4624669e-01
 -1.1224431e+00
 -9.3703282e-01
 -1.1691818e+00
 -2.4281213e-01
 -6.8375331e-01
  8.7365711e-01
  2.8212378e+00
  1.6830020e-01
 -2.2671989e-01
 -1.3388838e-01
  2.9622478e+00
 -3.3409736e-01
 -4.3472719e-01
 -4.9810210e-01
  4.5108784e-02
  2.9552701e-01
  6.5516198e-01
 -5.6089848e-01
 -2.1991323e-01
 -1.4569724e-01
  3.0152091e-01
  4.6041128e-01
 -3.9841923e-01
 -5.7570499e-01
  2.0185393e-01
  1.4684620e+00
  2.8512532e-01
  3.2439206e+00
  1.2022337e+00
  6.0288504e-02
  7.0012443e-02
 -7.9297990e-01
  6.9452447e-01
  6.3892525e-01
 -1.7550043e+00
 -2.7540556e-01
 -2.3537593e-01
 -2.3294714e-01
  4.9765669e-03
  9.6576840e-02
  2.4833465e-01
  1.5053192e-01
 -3.4257132e-01
 -1.4765146e-01
  2.9747138e-02
  2.8384292e-01
 -3.8156819e-01
 -2.0563599e-01
 -1.3583595e-01
  1.0129206e-02
  5.2497670e-02
 -5.5036545e-01
  5.2221227e-01
 -4.7723207e+00
 -4.8187694e-01
  1.7678840e+00
 -2.5175948e+00
 -2.6666653e+00
 -1.2352706e+00
 -1.1047993e+00
  6.9187737e-01
 -9.3832299e-02
 -6.3137186e-01
  1.9040079e-01
 -1.4026670e+00
  9.4459736e-01
 -4.7094333e-01
  7.9456973e-01
  3.3037400e-01
  1.0294516e+00
 -9.9207908e-01
  1.0069659e+00
  3.7932593e-01
 -2.5840390e-01
  7.4378806e-01
 -1.6077967e+00
  9.3194830e-01
  1.4496552e+00
 -2.6762891e+00
  1.0165685e+00
 -8.6783367e-01
 -4.9250910e-01
 -1.5171748e+00
  1.2717247e-01
 -1.8368299e+00
 -1.1127669e+00
  1.1068042e-01
 -1.0412263e+00
  6.0717618e-01
  2.5347012e-01
 -8.0439419e-01
 -3.6420861e-01
 -3.2863159e+00
 -8.9375240e-01
 -7.3833156e-01
 -2.1477233e-01
 -4.9352802e-02
  7.0345461e-02
 -2.3122513e-01
 -1.6945580e+00
  7.7786654e-02
  4.6920317e-01
  8.9580342e-02
 -3.6770502e-01
  2.4688900e-01
  1.7052172e-01
  1.2719068e-01
 -1.8998469e-03
  4.6651679e-01
  1.3292581e-01
  6.4576730e-02
  1.3529621e-01
  5.4961747e-01
  6.5112978e-01
 -9.1666020e-02
  7.4591331e-02
 -3.1389394e-01
  1.9681470e-01
 -2.7330396e-01
  7.4986264e-02
  2.0163479e-01
 -8.9899756e-02
 -1.0516314e-02
  6.0261481e-02
  1.7985056e-01
 -3.5635969e-01
  2.8150089e-02
  2.5127667e-01
 -1.3940714e-01
  2.4589433e-01
 -1.3437949e-01
 -6.1639261e-02
 -1.0048041e-01
 -3.1526685e-01
  3.3860028e-01
 -4.8132017e-02
  2.0780672e-01
  2.7650923e-01
  2.3564111e-01
  2.8020725e-02
  9.5694587e-02
  6.4109439e-01
 -5.9145294e-02
  3.1620073e-01
 -6.7548215e-02
  4.1674322e-01
 -2.5098273e-01
  5.9175390e-01
 -2.6121495e-02
  3.1638840e-01
 -2.0480132e-01
  1.8361300e-03
 -1.6613382e-01
 -3.5348289e-02
  6.8128563e-02
 -1.5158287e-01
 -2.9356542e-01
 -8.2067288e-02
  1.3763987e-01
  1.6998270e-01
  4.5223454e-01
 -1.7824195e-01
  4.7963910e-02
 -8.8007241e-02
 -1.1562213e-01
 -4.6680084e-01
  9.8693423e-02
 -7.8699231e-02
 -2.3802277e-02
  6.4857709e-03
 -3.9553516e-02
  6.0026135e-02
  2.5630693e-03
 -7.4801363e-02
  2.0408270e-01
 -8.2555674e-03
  1.5436304e-01
 -4.9196226e-03
 -8.9286417e-02
 -8.4865414e-02
 -2.3457512e-02
  1.5883282e-01
  1.4837806e-01
  2.8576786e-02
 -9.1221668e-02
 -5.3442959e-02
  4.0692892e-02
 -2.1363057e-01
 -1.4293750e-01
  8.8329107e-02
  5.6072090e-02
  6.0201585e-03
 -8.4290514e-03
 -2.7987167e-02
  1.8475528e-01
  1.6205099e-01
  2.2767445e-02
  1.0228805e-01
  1.0210449e-01
  7.1691237e-02
 -7.6536216e-02
  1.6129497e-02
 -1.1783368e-03
  6.4250642e-01
  4.9408518e-02
  1.0102154e-01
 -8.6813904e-02
  6.3959651e-02
  4.3946806e-02
 -1.3349341e-01
  3.7313133e-02
 -1.2225519e-02
  3.3890612e-02
 -2.1947744e-01
 -8.0544621e-02
 -9.8668039e-02
  7.6511614e-02
 -1.8364617e-01
 -6.3920794e-03
 -4.7148079e-01
  1.6499893e-01
  5.0938076e-01
  4.2966768e-02
 -6.9165193e-02
 -7.3771708e-02
 -1.1745114e-02
  9.4338007e-02
  2.4059919e-01
 -9.9493284e-04
  7.1600541e-02
 -7.6349229e-02
 -3.8549840e-02
 -2.7563496e-02
  2.5142196e-01
  5.2174672e-02
  7.9073600e-02
  7.6492898e-02
 -2.7835891e-02
  1.6334151e-01
  3.3137400e-02
 -8.0001809e-02
 -6.7729175e-01
  1.6072761e-01
  1.0007557e-01
  1.0388310e-01
  4.5161396e-02
 -2.7524436e+00
  6.3754432e-02
 -9.6007893e-03
 -6.9130979e-02
 -8.1730649e-02
  9.0453297e-02
  2.9680748e-02
  3.4442049e-01
 -3.4994371e-02
 -2.2841480e-01
 -3.0166807e-02
  2.9570566e-02
 -6.0289435e-02
 -2.7472904e-02
  2.4645679e-02
  5.3091995e-02
 -5.8204528e-02
  2.1962427e-02
 -1.5492702e-01
 -1.9188073e-02
  4.2711782e-01
  8.4799536e-02
 -7.1889973e-01
  3.1715378e-01
  7.6389915e-01
 -1.6743599e+00
  6.0717380e-01
  2.4159968e+00
  2.5555511e+00
  2.8801470e+00
  1.8051022e+00
 -6.6895902e-01
 -9.7578846e-02
  2.8058794e-01
  1.6683315e-01
 -6.3468784e-01
 -1.3444859e-01
 -1.3958452e+00
  8.0886334e-02
  1.5695006e+00
  1.3600706e+00
  5.2431810e-01
 -5.0619483e-01
  7.3743159e-01
 -1.2321392e-01
  4.2629492e-01
  1.0994630e-01
 -1.6979748e-01
  6.0311240e-01
 -2.2644365e-01
  2.8475580e-01
  4.8711237e-01
 -6.1380818e-02
  5.7415980e-01
  9.8751581e-01
  1.8159686e+00
  1.3020912e+00
  4.6689775e-02
 -5.6349432e-01
 -9.9741137e-01
 -4.9278516e-01
  3.1698334e+00
 -1.0646713e+00
 -1.7169077e+00
  1.5602474e+00
 -1.0261889e+00
 -4.2564943e-01
  1.1293840e-01
  2.0433648e-01
 -2.0655344e-01
  5.2330729e-02
  2.2897808e-01
 -8.3746123e-01
  3.8371944e-01
 -9.3839146e-02
  1.1128806e+00
  2.3149281e+00
  1.0293180e+00
 -1.6869346e+00
  9.2406535e-01
  2.2395929e-02
  4.8326578e+00
 -1.3876921e+00
 -2.4019985e+00
  5.9805833e-02
 -3.4171048e-01
  3.2344547e-01
 -3.0159092e-01
  3.2278264e-01
  3.7213409e-01
  1.3707927e-01
  3.1977740e-01
  5.5450302e-01
  2.3169708e-01
 -2.0548245e-01
  1.8217367e-01
  3.8451400e-02
 -3.3058169e-01
  2.4884103e-01
 -1.9736264e+00
  1.3925948e-02
  2.7526858e-01
  9.3254501e-01
  1.5035050e-01
 -2.2080237e-01
 -2.7630147e-01
 -6.2270784e-01
 -4.2440191e-01
  1.3220733e-02
 -1.1766100e+00
  7.9000366e-01
  2.6443250e+00
  1.0267705e+00
 -3.8495728e-01
  6.1608630e-01
 -1.9599880e-01
  7.5039971e-01
 -7.3053211e-02
  9.5315170e-01
  1.1126367e-01
 -1.1090482e-01
  1.0356523e-01
 -2.3107964e-01
  1.9438460e-01
 -5.3441927e-02
  1.3452803e-01
 -7.9725822e-03
 -4.8554249e-02
 -2.2645696e-01
  1.0383781e-01
  2.0294580e+00
 -5.5855280e-01
 -1.9234203e-01
  3.4111026e-01
  1.8869838e-01
  8.2379991e-01
 -2.2293513e+00
  2.7055764e+00
  5.8756608e-01
  7.2748417e-01
  1.6412692e-01
  2.6296353e-01
 -4.3298431e-02
 -5.2081174e-01
  9.2801102e-02
 -2.5572518e-01
 -4.5627877e-01
  6.5886801e-01
 -5.5816674e-01
 -7.3426500e-02
  7.8413832e-01
  5.9657425e-01
 -2.8363079e-01
  5.1729822e-01
 -2.0405053e-01
  2.4184082e-01
  1.5105858e-02
 -1.5819937e-01
  3.2011282e-01
  3.7430170e-01
 -2.0906901e-01
  3.3526459e-01
  1.9042349e+00
  1.7747191e+00
  3.9833796e-01
 -3.2897767e-01
  8.4704036e-01
 -6.3752592e-01
 -1.4622250e+00
 -5.5828534e-02
  1.3523960e-01
 -1.4716937e-01
 -2.8719735e+00
  2.6036408e+00
 -2.3755047e-01
  4.7050487e-02
 -1.8388420e-01
 -1.9130287e-01
  1.7975055e-01
  8.1036352e-02
 -5.1012063e-01
 -1.1777136e-01
  2.0606086e-01
 -5.6086206e-01
 -4.1670102e-01
 -4.8268008e-01
 -4.0557399e-01
 -3.0985051e-01
  5.3536230e-01
  6.0394448e-01
 -6.7401487e-01
 -8.5344255e-01
  9.7814763e-01
 -2.7852538e-01
 -3.8930718e-02
  1.3304225e-01
 -1.9377996e-01
  3.5102423e-02
 -3.4481600e-01
  5.2567068e-02
  2.3986058e-01
 -4.5886305e-01
  3.0708447e-01
  2.2247009e-01
 -1.3859096e-01
 -4.9642537e-02
  1.2826853e-01
 -6.0749894e-01
  4.1664171e+00
 -4.0487945e-02
 -1.0206567e-01
  2.2963530e-01
 -5.3697735e-01
 -1.2367866e-03
 -1.7948638e-01
  6.1278143e-03
 -4.7898909e-01
 -3.1220269e-01
 -1.8509831e-01
 -2.0215431e-01
 -6.8682784e-01
  9.7393125e-02
  1.7650083e-01
 -3.1912616e-01
 -3.2827082e-01
 -3.0823228e-01
  4.3321940e-01
  2.3892205e-02
  9.9535584e-02
  1.9157627e-01
  8.2371347e-02
 -2.5085788e-02
  1.2189263e-02
  1.2699747e-01
  7.7920365e-01
  1.6181643e-01
 -1.0354431e-01
  3.0294123e+00
  2.2372303e+00
 -1.1363568e+00
  2.0940709e-01
 -4.1796236e+00
  2.7638531e-01
 -2.9628077e-01
  2.0902538e+00
  2.3713636e-01
 -2.5886753e-01
  6.6594765e-02
  4.8932299e-01
  1.9106904e-01
  4.6273780e-01
  8.2963264e-01
  8.8082917e-02
  2.6012224e-01
  2.9839221e-02
 -5.9992880e-01
 -6.5901831e-02
 -4.2903721e-01
 -6.1079126e-02
 -1.7357202e-01
 -8.4351760e-01
 -4.8001122e-01
 -3.8582698e-01
  9.3067149e-03
  1.1107469e-02
 -1.1783060e+00
  3.4786189e-01
 -2.7600157e-01
 -4.5655972e-01
  2.3224134e-02
 -3.2976691e-02
 -6.8582886e-01
 -6.9065249e-01
 -3.4817666e-01
 -4.0345064e-01
  2.4532486e-02
  1.8265419e-02
 -1.5916306e-01
 -6.5758713e-02
 -3.0299121e-01
  1.4969618e-02
  5.6580894e-02
 -6.3802898e-02
  8.3221145e-02
 -6.3301302e-03
 -2.1582939e-01
  2.4036503e-01
 -2.3759252e-01
 -2.3202929e-01
 -3.6185302e-02
  2.4226648e-01
  1.4405328e+00
 -2.3963089e+00
  6.4704442e-01
  5.0931430e-01
 -1.9487085e+00
 -1.0822435e-02
 -4.2402229e-01
  8.6481768e-01
 -3.2495132e-01
  1.0644832e+00
  9.8411906e-01
  6.2011081e-01
  5.7281190e-01
 -7.0296741e-01
  2.7056589e+00
 -2.0104542e+00
  1.0086632e+00
 -5.7461035e-01
 -5.3907800e-01
  5.7283628e-01
  1.5838755e+00
 -3.5273123e-01
  1.8840812e-01
  3.4609714e+00
 -7.3302406e-01
  1.9240754e+00
 -1.8686712e+00
 -9.1030532e-01
 -6.7474551e-02
 -7.7865577e-01
  1.1761873e+00
  6.8576884e-01
  1.2857497e-01
  7.2461319e-01
 -4.4016285e+00
 -1.5085645e+00
 -2.0456980e-01
 -2.0311930e+00
 -9.8719347e-01
 -9.5997864e-01
  7.8457278e-01
  1.9197255e+00
  6.4073855e-01
 -2.0587537e+00
  1.2472062e+00
 -2.0305239e-02
 -3.1796294e-01
 -5.9548831e-01
 -7.4439354e-02
  5.3549841e-02
  2.0766717e-01
 -2.3285601e-01
 -4.2756796e-01
 -1.4840896e-01
  7.3791790e-01
  1.1422445e+00
 -1.0644789e+00
  6.6993046e-01
 -4.8378316e-01
  6.0060292e-01
  4.8627517e-01
 -6.6797096e-01
  2.0296076e-01
  3.2025248e-01
  1.3858636e-01
  1.3572009e-01
  3.5099617e-01
 -3.6658697e-02
 -2.3047705e-01
  7.0030558e-01
 -3.2807481e-01
  1.8110029e-01
 -3.8780442e-01
 -4.1248065e-01
 -4.7978422e-01
 -2.0262769e-01
  5.7473335e-02
  9.0781875e-02
  1.0324919e-01
 -2.5998005e-01
 -4.1860756e-01
  2.8240021e-02
  1.4512678e-02
  1.7158855e-01
  5.7151335e-01
  1.6591503e-01
  1.9212647e-01
  2.2408691e-01
  4.6999779e-01
  6.5974033e-01
 -2.0107415e-01
 -6.4620030e-01
  1.6060181e-01
  3.9987712e+00
  2.1089096e-01
 -8.3302043e-02
 -2.5002286e-01
 -2.2172152e-01
 -9.3882196e-02
  6.7586079e-02
  2.3656675e-01
 -1.1106051e-01
  1.0751324e-02
 -2.7396340e-02
 -1.5905682e-02
 -6.1390996e-02
 -1.0752632e-01
 -2.4544992e-01
  3.3190014e+00
 -1.5975657e+00
  1.3670214e+00
 -7.9967225e-01
 -6.4974479e-02
 -3.0186258e-02
 -8.9761800e-01
 -1.6565995e+00
 -1.0724888e+00
  4.7908956e-01
  5.6059897e-01
  1.0032783e-01
  1.3454166e-02
  2.2158433e-01
 -4.3050535e-02
  3.2987487e-02
  2.9918224e-01
 -8.4040701e-02
 -5.5677330e-01
 -3.1911500e-04
  1.1250345e-01
 -1.8072186e-01
 -3.2617328e-01
  3.0263111e-01
 -2.4691904e-01
 -3.4144294e-01
 -1.2633793e+00
 -6.3674338e-03
  5.0389415e-01
 -4.4128221e-01
  1.0256358e+00
 -3.2887268e-01
  5.0477263e-02
 -1.9873069e-01
  4.4172350e-01
  3.5971025e-01
 -9.3535656e-01
  9.9107528e-01
  1.8726840e+00
 -1.1719185e-01
  8.5437655e-01
  4.6481322e-02
  2.6035556e-01
  1.0995364e+00
 -4.0390113e-01
 -1.7734157e-02
  3.3248406e-02
  1.4128140e-01
  2.0791786e-02
  1.5625626e-01
  2.7657351e-01
  3.7775293e-01
  4.3698158e-03
 -8.0522830e-03
 -1.1978331e+00
  1.2121530e-01
  3.4418133e-01
  4.9822724e-01
  3.0479226e-01
  7.0471632e-01
 -3.0301771e+00
 -2.1099069e+00
 -8.7782550e-01
 -2.7179965e-01
  1.1804348e+00
  1.2248904e-01
  4.8104683e-01
 -1.3589478e-01
  9.8256171e-01
  1.8357107e-01
  1.2716742e+00
  8.9587435e-02
 -1.6365104e+00
 -1.1193490e-01
 -6.5577455e-02
 -6.7272061e-01
 -5.9491444e-01
 -8.2574195e-01
 -5.7098430e-01
 -1.5314490e+00
  4.3695068e-01
  8.0428994e-01
  8.2361633e-01
 -6.9941503e-01
 -2.4577044e-01
  1.0114727e+00
  7.9338901e-02
 -7.6903999e-01
  8.4813252e-02
 -6.5379113e-01
 -1.8407942e+00
  5.1896685e-01
  1.8839391e+00
  7.5179440e-01
  1.2877135e-01
 -1.8670595e+00
 -7.4613392e-01
 -4.0575415e-02
  2.2904561e+00
  1.0193183e-01
 -3.9401865e-01
 -1.7123455e-01
  4.0077034e-02
  1.9538034e+00
  4.1977298e-01
  8.4013671e-01
 -1.9490319e-01
  1.2320345e-01
 -1.6828063e-03
 -9.7952944e-01
  1.0419872e-01
  3.0322673e-02
  5.6591250e-02
  1.2360714e-01
 -9.2692155e-04
 -2.6233504e-02
 -2.7660940e+00
 -8.7170647e-03
  1.5716042e-02
 -4.7379572e-02
  6.1414260e-01
  1.2062497e-01
 -4.1735541e-02
 -1.7120954e-02
 -4.7928743e-02
 -4.8360463e-02
 -8.1337586e-02
  2.2623872e-02
  7.3419176e-02
  5.0228290e-02
 -4.4145554e-02
 -4.8959926e-03
 -2.8208926e-02
 -3.9554100e-02
 -9.9644974e-02
 -1.2438892e-01
 -1.5759923e-01
 -4.0154256e-02
 -1.6858429e-01
 -1.0895409e-01
 -2.0139235e-01
 -1.0158557e-01
  4.0206588e-03
  1.0113366e-01
  1.8195225e-02
  1.1246748e-01
 -1.0680027e-01
 -1.6779187e-01
 -1.1777698e-01
  2.3040579e-05
  1.3041497e-02
  1.2263796e-01
  6.8259329e-02
 -1.6610721e-01
  2.7237244e-02
  1.0226413e-01
 -7.7493064e-02
 -7.7448413e-03
 -1.8213874e-02
  6.7495212e-02
  4.1610595e-02
 -1.2181369e-01
  2.8361255e-01
 -2.1333542e-01
 -2.9691627e+00
 -5.9195507e-01
 -3.1625383e+00
  5.3973359e-01
  1.9024858e+00
 -1.4122958e-01
 -9.6339720e-01
  3.5750166e-01
  1.5108243e+00
 -7.2262460e-01
 -8.1228667e-01
 -4.3294650e-01
 -1.0991620e+00
  3.8321478e+00
 -2.1711844e-01
  1.0340396e+00
 -1.6137273e+00
  3.2206252e-01
  1.8561872e-04
  9.5812476e-01
 -2.3460518e-01
  1.2088691e+00
 -1.7476033e+00
 -3.7829328e-01
 -1.6769068e-01
  5.7095699e-02
 -8.2298659e-02
 -1.4942223e+00
 -5.1522398e-01
  1.1797560e+00
 -6.9221967e-01
  3.4243751e+00
 -7.4500865e-01
  6.3193172e-02
 -7.1095777e-01
 -1.1650352e+00
 -3.8222829e-01
  4.5668607e+00
 -3.7974688e-01
  8.7028764e-02
  1.1686734e+00
 -4.9531707e-01
  5.5324483e-01
 -9.0624899e-02
 -3.0102822e-01
 -5.4829642e-02
 -6.4537292e-03
 -2.4148515e-01
 -2.9136425e-01
 -6.2249023e-01
 -5.0860249e-02
  2.8238624e-01
  1.0850099e+00
 -9.2623949e-01
  3.5645470e-01
 -1.0077527e+00
  1.3325258e+00
  1.1724744e+00
 -3.2447557e+00
 -2.3762780e-01
  1.5147510e+00
 -2.9779190e-01
 -1.3187164e+00
  7.7118897e-01
  4.3721315e-01
 -3.3648098e+00
  7.2198376e-02
  1.2585526e+00
 -1.2400812e+00
  4.0893987e-01
 -3.2459539e-01
  2.8494421e-01
 -1.2503128e-01
  4.5341507e-02
  5.1783711e-01
 -3.4446776e-01
  1.3407383e+00
  4.0768826e-01
  2.9993197e-01
  8.3846545e-01
  2.0245464e+00
  6.4251751e-01
 -3.4264412e-02
  1.2706556e+00
  2.4741313e-01
  7.0496064e-01
 -9.3640798e-01
  4.7435340e-01
 -1.9921468e+00
  4.2393658e-01
  2.4954104e-01
 -9.6527517e-01
  9.6235657e-01
 -6.2305182e-01
 -6.9576144e-01
 -5.3412426e-01
  6.5439302e-01
 -7.7293627e-02
 -2.4136528e-01
 -2.9922368e-02
  8.5500039e-02
 -4.3371114e-01
 -2.3519647e-01
 -5.8974785e-01
 -1.8075076e-03
  3.4231737e-01
 -5.0198364e-01
 -2.8902400e-01
  8.7752640e-02
 -5.6891147e-02
 -1.9386021e+00
  5.9852283e-02
 -5.1848018e-01
 -7.3443389e-01
 -2.1404254e-01
 -5.9504289e-02
 -6.4733580e-02
 -4.2714126e-02
 -5.2812364e-02
 -3.7707265e-02
  2.0721990e-01
  5.9966944e-02
 -9.8146610e-02
 -3.0103881e-02
 -1.0898747e-02
 -1.2234091e-01
 -1.6175805e-01
  6.5808013e-02
 -8.1721380e-02
 -2.0943289e-01
  1.0095800e-01
 -3.2497387e-02
  2.9420538e-02
  4.8656542e-02
 -7.3366530e-02
 -3.8369950e-02
 -1.9962865e-01
 -1.0389744e-01
  1.5331811e-01
 -1.4659275e-01
 -5.5345319e-02
 -4.7815749e-03
  2.3729174e-01
 -1.2635903e-02
 -2.5426096e-01
  1.5247053e-01
 -2.0592737e-01
 -5.3936195e-02
 -1.3149333e-01
  3.9313033e-01
  1.1017272e+00
 -8.9700145e-01
  5.1151723e-02
  8.6789832e-02
 -1.8387370e-02
  2.1674311e-01
 -1.2497644e-01
 -1.6486533e-02
  6.9994843e-01
  4.4371996e-02
  1.5169733e+00
  2.3466492e+00
 -4.1131563e+00
 -1.1271338e+00
  2.4810255e+00
  1.2853804e+00
  9.3410917e-02
 -5.6275302e-01
  2.1299231e-01
  4.0875605e-01
 -4.0960330e-01
  1.1642217e-01
 -6.7808315e-02
 -2.4410646e+00
 -9.8484153e-01
 -8.3691496e-03
  1.3586780e+00
  2.7669463e-01
 -2.0390128e-01
 -5.1037991e-01
  1.2371553e+00
  1.4123899e+00
  2.9235888e-01
 -1.2520112e+00
  4.8355576e-01
  7.6496494e-01
  5.7150131e-01
  2.2076144e+00
  2.6649693e-01
 -1.0275284e+00
 -1.4040412e-02
 -4.8254997e-01
 -8.9320982e-01
 -1.2165874e+00
 -6.2741786e-01
  4.2284571e-02
  5.6830847e-01
 -4.6336848e-01
 -1.2284771e+00
  1.2374019e-01
  2.2613697e+00
  1.4171249e-01
 -4.8647709e+00
 -4.1073972e-01
  1.0125161e+00
 -4.9630708e-01
 -1.7323795e-01
 -7.0763779e-01
 -2.6763934e-01
  4.9438629e-01
 -1.8610981e-01
 -7.0688933e-01
 -5.7284939e-01
  8.5227710e-01
  5.0519556e-01
 -1.2403687e+00
  1.6090478e+00
 -2.5919697e+00
 -2.7154346e+00
  2.3838511e+00
 -4.7804379e-01
 -2.1371431e+00
  1.1751347e+00
 -2.8954932e-01
 -6.9893546e-02
  3.2501623e-01
  1.0219964e+00
 -2.4698472e-01
  3.6031127e-01
  1.7936532e+00
 -7.3331922e-01
  3.9059851e-01
 -3.5974720e-01
 -2.8685230e-01
 -2.2243793e-01
  1.9360067e-01
  6.8611723e-01
 -3.6227760e-01
  6.9604158e-01
 -4.6048327e-03
  9.9314934e-01
  1.7021658e+00
  1.5453060e+00
  1.1363624e+00
  9.6067351e-01
  6.1555624e-01
  4.4547269e-01
  3.6871005e-02
  1.4170243e+00
  1.2292347e+00
  1.3488381e+00
  1.1641241e+00
 -6.4965916e-01
  9.0762734e-01
 -8.5676588e-02
  4.4725323e-01
  1.7480414e+00
  1.4943255e-01
  4.0215304e-01
  8.8026732e-02
 -8.6447231e-02
 -2.4137145e-01
  1.2838289e+00
 -9.4353110e-02
 -3.5200128e-01
 -5.8613223e-01
 -1.4509413e-01
  2.0867863e-01
 -2.0441405e-01
  1.1566814e+00
  4.4670206e-02
 -2.2987601e-01
 -6.5572411e-01
 -2.6534071e-02
  7.0049413e-02
 -5.2208420e-02
 -1.2058000e-01
  7.1253560e-02
 -8.8786222e-02
  2.8908339e-01
 -2.5870319e-02
 -7.6639004e-02
  9.8182060e-02
  6.7305326e-02
  3.1740978e-02
  6.4859957e-02
 -1.5725866e-01
 -3.4390889e-02
 -8.3114654e-02
  7.9247135e-01
 -3.1445283e-01
  1.0271887e-01
 -3.7796013e-02
 -7.3013499e-02
 -1.2584621e-01
  4.3835875e-01
 -1.1333427e-01
  3.3666059e-02
  4.5605797e-02
  7.2721839e-02
 -4.6663284e-02
  2.6967609e-02
  1.2007817e+00
 -8.0156460e-02
  1.5467250e-01
  4.8696477e-02
  1.6225086e-01
  1.1603724e-01
  3.9387420e-02
 -9.7293817e-02
  3.0518053e-04
 -3.3422198e-02
 -1.5173158e-02
  1.1208551e-01
 -2.8171021e-02
 -4.9521342e-02
 -8.1844336e-01
 -1.3059303e-01
 -6.6321105e-02
  2.2557007e-02
  1.1994091e-01
 -3.9508250e-02
  2.5207166e-02
 -2.9894381e+00
 -2.1513464e+00
 -2.3857094e-01
  1.9690340e+00
 -1.2533888e-01
  9.8127973e-01
  4.5070004e-01
 -1.8522759e-01
  5.3175831e-01
 -5.8641672e-01
  3.3995699e-02
 -1.3937904e-01
  1.3709547e-01
  2.2493882e-01
  8.9820318e-02
 -2.0467328e-02
 -4.5848891e-02
 -3.5971124e+00
 -6.1523396e-01
  4.3533900e-01
 -2.4716374e-01
 -8.1695653e-02
 -1.3908026e+00
  2.9365759e+00
 -9.3289249e-02
  1.0558944e-01
  6.4136082e-01
  2.5009978e+00
  1.1607745e-01
 -7.0986710e-02
  1.4080678e-01
  2.7988815e-01
  6.8190657e-02
 -4.9681693e-02
 -9.0962338e-01
  7.2818035e-01
 -3.2255873e-01
  9.9419266e-02
 -6.5280899e-02
  1.0646696e-01
  2.4733610e+00
 -1.1665051e+00
  1.2946106e-02
 -2.9489782e-01
  5.5498987e-02
  1.3250673e-01
 -3.5597747e-03
  8.4255397e-02
  2.3126262e-01
 -4.1684654e-01
  2.9041243e-01
 -6.7424394e-02
 -1.0590359e-01
 -1.3423445e+00
 -7.0768684e-01
 -1.8507930e+00
  1.4425323e+00
 -8.5942370e-01
 -7.8733402e-01
  2.1239309e-01
  8.3864725e-01
 -2.1704369e+00
 -1.1510710e+00
 -1.5436808e+00
  5.2897620e-01
  2.7996284e-01
  1.0237650e+00
 -9.5315129e-01
 -6.6344500e-01
  1.2927843e+00
 -2.2377805e-01
 -6.6070205e-01
  2.4681623e-01
 -1.3006287e+00
  3.6124879e-01
 -3.2465112e-01
 -8.0421460e-01
 -1.5957488e+00
 -2.1140400e-01
 -9.6857727e-01
 -5.0646597e-01
 -1.6159041e+00
 -2.1056989e-01
  3.8871297e-01
 -1.3223916e+00
 -3.9554658e+00
  4.9734560e-01
 -1.2419312e-01
 -3.8783082e-01
 -1.2834005e+00
 -2.1287730e+00
  3.6931342e-01
 -1.7963597e-01
 -8.4832013e-01
 -7.1710601e-02
  9.0292701e-03
 -5.8071655e-01
  1.2330327e-01
 -2.1873403e-01
  3.6024609e-01
 -8.0727160e-02
 -5.8252227e-01
  1.5331316e-01
 -3.6239570e-01
 -1.0377588e+00
 -4.8800944e-03
  2.3070212e-02
  6.8468094e-01
 -2.3498005e-01
