nep4_zbl 2 Te Ge 
zbl 0 0
cutoff 7 7 91 91
n_max 8 8
basis_size 8 8
l_max 4 2 0
ANN 70 0
 -1.8701129e+00
 -1.3300542e+00
  1.6798334e+00
  2.2462561e+00
 -1.9066403e+00
  2.1648729e+00
 -3.6819717e-01
  2.4869180e+00
  1.1194733e+00
 -3.3329216e-01
  7.9868233e-01
  6.5545100e-01
 -1.2204339e-01
 -2.7177569e-01
  4.0497128e-02
 -7.5202894e-01
  8.5686199e-02
 -3.9869347e-01
 -9.0320295e-01
 -1.4359464e-01
  9.9783766e-01
  1.0300652e-02
  2.0613632e-01
 -4.9810407e-01
  4.1955951e-01
 -4.6695721e-01
 -2.4182434e-01
  2.6824830e-02
 -2.7496312e+00
  8.4743136e-01
 -3.9038348e-01
 -1.1489972e-01
  4.0961370e-01
  4.1688133e-02
  6.0458701e-02
  1.3678738e+00
 -7.4276501e-01
 -8.7533176e-01
  8.3967793e-01
 -3.2783750e-01
 -1.1415762e+00
  3.4713376e-02
  3.6601365e-01
  1.4247446e+00
  7.7526319e-01
  2.1935143e-02
  1.2573532e+00
 -1.3326231e-01
 -1.4910509e-01
  1.3661128e-01
  2.7261024e+00
 -1.4804503e-01
  3.0195081e-01
  4.0791821e+00
 -3.2326084e-01
 -1.9452685e+00
  5.2520251e-01
  1.5073425e-01
  1.7341568e+00
 -1.9139785e-01
  5.8805501e-01
  1.0027348e+00
  1.2498988e+00
 -5.6953315e-02
 -1.8935499e-01
 -7.6562785e-02
 -1.6703865e-01
 -8.3675712e-02
  2.4468894e-01
 -3.1609140e-02
 -1.6222541e-01
 -2.3658724e+00
  1.6971727e-01
 -4.7191477e-01
 -7.4108660e-02
 -3.2264501e-01
 -3.1773385e-01
 -3.2061776e-03
 -1.5752684e-01
  1.8598321e-01
  2.0143337e+00
 -2.5694451e-01
 -7.3243126e-02
 -9.6322015e-02
  1.8750030e-01
 -7.1030171e-03
 -3.9316887e-01
  6.1903811e-01
 -3.0415931e-01
 -9.7416466e-01
  3.4907501e-02
  6.8272121e-02
 -4.0910107e-01
 -9.6376377e-01
  1.6529766e-01
 -7.7747166e-02
 -9.0908878e-02
 -4.5053771e-01
  4.1080208e+00
 -4.1192017e-02
  1.7555904e-01
  4.2652842e-02
  1.8619141e-01
 -4.4102486e-02
 -4.7055669e-02
  1.5599382e-01
  1.0369827e-01
 -4.9224401e-01
 -2.8490106e-02
 -1.1678650e+00
  5.2861267e-01
  1.1991881e+00
 -1.7346723e+00
  3.2417965e-01
  8.2780528e-01
  2.3468440e+00
 -1.1711780e+00
  5.2727664e-01
 -1.6460797e-01
 -1.9714376e-01
  6.9319338e-02
 -2.8152514e-02
  3.9853123e-01
  2.3605192e+00
  6.1133705e-02
  1.7879080e+00
 -1.3378203e-01
 -1.5807540e+00
 -1.3553828e+00
  2.0096505e+00
 -8.2421017e-01
  2.0730190e-01
  3.4515643e+00
 -7.3093790e-01
  5.5559713e-01
  9.4794929e-01
  2.5495756e-01
 -8.0814433e-01
  8.9707124e-01
  1.6018783e+00
 -3.5585099e-01
 -4.7655400e-02
  6.3433401e-02
  2.7875817e+00
 -2.1242690e+00
  1.9441961e+00
 -1.5671775e-01
 -9.0641361e-01
  1.1100324e+00
 -3.0174041e-01
 -1.3471454e+00
  1.9608719e+00
  1.8824449e+00
  3.9232824e+00
  5.7624096e-01
 -9.6032426e-02
 -3.1534752e-01
  3.1728184e-01
  1.0348113e-01
 -5.2152541e-02
  8.9294896e-02
 -1.1185311e+00
 -1.7322875e+00
  1.5567714e-01
 -1.4351673e-01
  5.4014064e-02
 -4.2050996e+00
  5.8345377e-01
  1.8619188e+00
  1.6575582e+00
  1.5889102e+00
 -3.3073997e-01
  7.5447485e-02
  1.3005088e-01
 -9.1769531e-02
  1.3761131e-02
  3.5183545e-02
 -5.8473128e-01
  5.7681960e-01
 -3.7713864e-01
 -5.3529851e-02
 -1.4575294e-01
  9.5457904e-02
 -2.5876990e-01
  7.1570851e-02
  2.0004003e-01
 -2.6248172e-03
  1.2600106e-01
 -3.8167879e-01
 -1.5440086e-01
  2.2117208e-01
  5.8386132e-02
 -1.3955472e-02
  7.0681132e-02
  5.8543250e-02
 -3.7781072e-01
  2.7682809e-02
 -4.4295055e-01
  4.4883731e-01
 -1.8270831e-01
 -3.8836144e-02
  2.8980039e-02
  6.9956136e-01
 -7.6001935e-02
  2.7096939e-01
  1.9559801e-01
 -5.7862882e-02
  1.9582787e-03
  3.2984036e-01
  6.9473550e-02
 -6.2558823e-03
  1.0708132e-01
 -2.7384330e-02
  7.3565841e-02
  6.3771069e-02
 -1.0748167e-01
 -4.1429475e-02
 -4.2125157e-01
 -2.1157097e-02
  5.2576098e-03
 -1.2491229e-01
  1.2379203e-01
  1.1670478e-02
  2.7302846e-01
 -6.2623292e-02
 -2.1080746e-04
 -1.0238101e-01
  3.0404929e-02
  1.3689810e-02
  2.0934671e-02
  9.0595149e-02
 -6.0114805e-02
 -1.2181649e-01
  2.4707189e-01
 -2.2974718e-02
 -2.7442651e-02
  6.0185019e-02
  3.6687661e-02
  2.4352061e-02
 -1.0613120e-01
  5.8045603e-02
 -2.5596470e-02
 -2.1638250e-01
 -2.1198643e-02
 -1.5194537e-01
  1.1652814e-01
  1.0499259e-01
  5.5298526e-02
 -3.2022733e-02
  6.0410250e-02
 -1.2081708e-01
 -3.8672030e-02
 -1.5230391e-02
 -5.4805435e-02
 -2.0164612e-03
  2.2069274e-03
 -4.5069296e-02
  1.6692130e-01
 -3.5061635e-02
  6.8705291e-02
  9.7218297e-02
 -1.3434260e-02
 -1.7566646e-03
 -6.6571839e-02
  1.9961058e-03
  1.1256902e-02
 -5.0164964e-02
  9.4889314e-04
  5.2063730e-02
 -2.5860803e-02
 -2.4372387e-01
  8.2848144e-01
 -2.8336242e-01
  1.4345732e-01
  4.8615283e-01
  5.4990655e-01
 -1.4552695e+00
  3.0057013e-01
  8.0474579e-01
  5.1562524e-01
  1.1418291e-01
  1.9156416e-01
 -8.0545992e-01
  7.1043229e-01
  1.5383919e-01
 -2.9551688e-01
 -9.9515194e-01
  2.8837621e-01
  7.6522201e-01
  1.7676543e+00
  5.8171225e-01
 -2.7094374e+00
 -4.1643903e-01
  3.2751918e-01
 -7.4621534e-01
  4.0073089e-02
 -3.4116763e-01
 -1.3728322e-01
  6.1187023e-01
  1.2097232e+00
 -1.9441787e+00
 -4.7499946e-01
  1.2250445e-01
 -1.8484844e-01
  5.9125286e-01
 -1.0605952e+00
  1.1751664e-01
  6.9763082e-01
  4.8537586e-02
 -1.1035190e-01
 -5.0772595e-01
 -5.8572578e-01
  6.6233903e-01
 -3.3447191e-01
 -2.2353919e+00
 -1.2284020e-01
 -1.7277896e-01
 -2.4347827e-01
  5.8765864e-01
 -7.3839352e-02
 -2.1225362e-01
  5.1661104e-01
  3.8214374e-02
  1.1521741e+00
 -2.1212919e-02
  1.5668457e+00
  9.2691118e-01
  2.1928692e+00
 -1.2920065e-01
 -1.0043969e+00
  9.2283227e-02
  6.6080964e-01
  2.3992892e-01
  4.0526584e-01
 -1.6397593e+00
 -1.8403156e+00
 -2.5552329e-01
  8.2898843e-01
  1.2478303e+00
  1.6347275e+00
 -2.3236961e+00
  3.0890274e+00
  1.7631315e+00
 -7.2727001e-01
 -3.5938252e-02
 -6.8344069e-01
  5.1741570e-01
  1.7380254e+00
  4.3919945e-01
 -8.4307802e-01
  8.3079553e-01
 -3.9853241e-02
  3.8469058e-01
  1.1045249e+00
 -2.4160614e+00
  1.2983226e+00
  1.8153464e+00
 -9.2861241e-01
 -2.0329502e+00
  1.6810269e+00
 -1.6697108e+00
  1.7967339e+00
  1.5688467e-01
  9.4472480e-01
  6.1740320e-02
 -8.3372313e-01
  7.7605051e-01
 -3.6046034e-01
  1.7697308e+00
 -4.1740444e-01
  1.2264757e+00
  9.5813715e-01
 -1.0809762e-01
 -4.1304192e-01
  5.3352398e-01
  5.7939166e-01
  3.4120098e-01
  5.2959673e-02
  3.6132735e-01
  3.6927634e-01
  2.3388511e-01
 -4.0867344e-02
 -1.1341946e+00
  2.5884914e+00
  1.1101687e+00
  1.3913747e+00
 -5.1576144e-01
  6.0677949e-02
  1.1189833e-01
 -4.8403960e-02
  2.7806746e-02
  5.7581481e-02
 -1.5160477e-01
  6.6659398e-02
  1.3309041e-01
  3.9972156e-02
  6.1361756e-02
  1.8367599e-01
 -7.7627197e-02
  2.0338732e-01
  1.7709774e-01
  2.4582991e-01
  1.4086859e-02
  4.9861558e-02
 -1.1760733e+00
  1.6189632e-01
  2.3551400e-01
 -3.8085648e-01
  2.3815230e-02
 -1.4330063e-02
  1.6784546e-01
  3.0672532e-02
  3.2891735e-01
  6.8553990e-01
 -2.1203026e-01
  2.1517752e-01
 -1.6109750e-01
  1.5543231e-01
  4.0607817e-02
 -1.9397192e-01
 -3.9631404e-02
  2.4353957e-01
 -2.2656727e+00
  1.3572005e-02
 -1.3431951e-01
  5.2313104e-02
 -1.8664587e-02
 -5.4381251e-02
  1.8456345e-02
 -8.7521486e-02
 -1.1219642e-01
  5.9463803e-02
 -7.2060531e-01
  1.1099108e-02
 -1.5922996e-01
  6.0733009e-02
 -9.7016984e-01
  9.1562665e-01
  1.0902585e+00
 -9.7773063e-01
  7.2936541e-01
 -1.5957737e+00
 -1.3912401e-01
  4.6493340e-02
  1.8006322e-01
 -1.0402684e-01
  3.6113596e-01
  5.4543880e-03
  7.9485901e-02
  4.6366996e-01
 -1.2244171e-01
 -3.5879871e-01
  1.9092946e-01
  1.9968486e-01
  8.1159033e-02
 -2.2129951e-01
  3.8567725e-01
  1.6767781e-02
 -1.0685609e-01
 -1.2052262e-02
 -2.7554888e-01
  3.1758180e-01
  4.2773688e-01
 -2.5543991e-02
 -1.5226462e-01
  1.2786877e-01
 -2.5511935e-01
  9.6471804e-01
  8.1090309e-02
 -1.9984016e-01
  1.1404714e-01
  1.8368869e-01
  1.3488181e-01
  4.3774068e-01
  1.6886868e-01
  1.7861012e+00
  7.1041578e-01
  2.7575385e-02
  6.8626396e-02
 -4.5702539e-02
 -6.9505252e-02
 -1.0790585e-02
 -5.4177407e-02
 -5.5494945e-02
  6.3923173e-02
 -4.0556559e-01
  6.6724145e-03
  4.4897009e-02
 -3.6629602e-02
  4.6520349e-02
 -2.6124090e-02
 -4.5849420e-02
  4.1765976e-03
 -5.2326042e-02
  6.0748972e-02
 -2.8395738e-02
 -8.2137333e-03
  3.5436663e-03
  2.8965047e-02
  1.6134029e-02
 -3.7490681e-02
 -1.3476458e-02
 -3.3035789e-02
 -6.9696582e-03
 -3.0177706e-03
 -1.4118823e+00
 -4.2430878e-02
  3.4979067e-03
  1.1895920e-02
  2.7759667e-02
  3.5748810e-02
  3.6151968e-02
  1.2273285e-02
  1.5562342e-02
 -9.1761090e-03
 -1.8694198e-02
 -2.8880388e-03
  3.8821787e-02
  4.2723104e-02
  1.6965253e-02
  2.2887960e-02
  3.5842535e-01
 -5.7581335e-02
 -1.6752977e-02
  3.3198845e-02
 -3.0935504e-02
 -8.3538527e-03
 -5.1057849e-02
  5.7628982e-02
 -3.4434356e-02
 -2.6527252e-02
 -5.5767458e-02
  1.8726025e-02
 -1.3735845e-02
 -6.2592262e-03
  3.7581238e-04
 -5.7806771e-02
 -1.3192517e-03
 -1.7947372e-02
  3.3421773e-02
  6.4414233e-01
  9.6503848e-01
 -4.0178459e-02
  6.2113780e-01
 -1.4227998e+00
  5.9107411e-01
 -1.8208920e+00
  2.1352534e+00
  2.0348509e-01
  1.1993969e-01
  1.3183393e-01
  8.4766790e-02
 -6.0696906e-04
  2.5263855e-02
  3.7865397e-02
  2.7729011e-01
  1.6534051e-01
 -4.7211590e-01
 -5.7343915e-02
 -4.2721772e-01
 -2.2685428e+00
  3.8406469e-02
  4.3243039e-01
  5.3452051e-01
 -2.6493239e-01
  1.4463907e-01
 -1.4514383e+00
  1.0172568e-02
  4.2400146e-01
 -2.3086247e+00
  9.6015990e-02
 -1.4663006e-01
 -1.4658375e-01
 -5.9058271e-02
  7.8270143e-01
  6.2700289e-01
  4.7183061e-01
 -6.4709777e-01
 -1.7307539e+00
  2.3470828e-01
  3.7445793e-01
 -3.1977940e-01
 -1.3039593e-01
 -2.2701473e+00
  1.9003061e+00
  5.1440526e-04
 -9.4816709e-01
 -2.0605001e-01
 -4.5053557e-02
  1.5099059e-01
  5.6704212e-02
  1.3597024e-02
 -5.4399837e-02
  1.4737765e+00
  1.8101835e-01
  5.8311712e-02
 -4.1246922e-03
 -7.3449731e-02
  2.4007341e-01
 -1.5085338e-01
 -1.6110949e-01
 -4.3572847e-02
  2.4914632e-02
  4.8003264e-02
  1.2087232e+00
  7.2034374e-03
 -4.4108573e-02
 -6.2066247e-03
 -1.1854694e-01
  6.1670795e-02
 -4.8384894e-02
 -2.4857448e-02
  6.3694865e-02
  2.8219277e-01
 -1.4923786e-01
  6.6869619e-04
 -3.9555926e-02
  2.0664194e-01
 -9.1203138e-02
  8.9223377e-02
 -4.2701927e-01
  4.4531245e-02
  8.3099174e-01
 -1.0496890e-01
 -1.6362149e-01
  5.0158415e-02
  1.7773890e-01
  1.1170114e-01
  2.4396257e-01
 -1.0350786e-02
 -2.0545725e-02
  1.5323349e+00
 -1.1815978e-02
 -8.2369611e-02
  3.0881707e-02
 -9.3879914e-01
 -1.0818041e-01
  6.8741381e-02
 -2.2511181e-01
 -1.5240599e-02
 -2.8820762e-01
  4.6456594e-02
  9.5089860e-03
 -1.3564029e-02
  4.2530987e-02
 -4.4168726e-01
 -9.7026557e-02
  2.3047380e-01
  7.6517612e-01
  2.7724507e+00
  1.2923706e+00
 -2.8366271e-01
 -5.9147459e-01
 -2.8056643e+00
 -2.3380213e+00
  4.0881052e+00
 -4.6174416e-01
 -1.5327406e-01
 -1.2485491e-02
  3.0476016e-01
  1.2157954e+00
  6.1867064e-01
 -3.1451516e-02
  8.7910169e-01
  2.6141182e-01
  9.2483485e-01
  3.3490619e-01
 -3.9059895e-01
  1.1614203e+00
  6.5906215e-01
  6.7213869e-01
 -3.7388638e-01
  7.1829891e-01
  5.0718212e-01
  1.3326188e+00
  7.9513735e-01
 -4.3935967e-03
  7.1623403e-01
  7.1883887e-01
 -1.2885803e+00
  8.5000926e-01
  5.5358297e-01
 -2.2069339e-01
  1.8283508e+00
 -1.9761214e+00
  6.4254022e-01
  1.5426388e-01
  1.3765723e+00
  3.8363095e-02
 -1.1405723e-01
  4.3832332e-01
 -5.7407761e-01
  1.5249373e+00
  1.6228192e-01
 -4.7724999e-02
 -8.1668161e-02
 -3.9124101e-02
 -3.1685507e-01
 -9.9635340e-02
 -4.0627816e-01
  7.8413859e-02
  6.3866049e-01
  2.3529230e-02
 -1.8659003e-02
 -1.5370381e-02
 -4.7238383e-02
 -2.1382656e-02
 -6.1421059e-02
 -7.8285918e-02
 -4.6308953e-02
  2.8383695e-02
  3.2993276e-02
 -3.3195842e-02
  1.3578050e-03
  2.7884500e-02
  2.5349591e-02
 -7.2836682e-02
 -2.4328586e-02
  7.8353882e-03
 -6.3051365e-02
  1.9995546e-02
 -1.6874252e-02
 -2.5379494e-02
  2.7088925e-02
  3.2447841e-02
  3.3354461e-02
 -7.5768664e-02
  1.0513116e-02
  2.5383554e-02
  5.6106769e-03
  2.1054074e-02
 -2.7529014e-02
 -1.6450642e-02
  2.4737561e-02
 -2.7573368e-02
  6.6763684e-03
  1.1915615e-02
  1.4771713e-01
  1.6208336e-02
  1.3030489e-02
  2.9422436e-03
 -8.1996329e-02
  2.6874067e-02
 -9.6830480e-02
 -1.9026795e-04
 -3.9392773e-02
  1.1880710e-02
 -1.4526030e-01
 -5.4694125e-03
  1.5280572e-04
  4.8963945e-02
 -3.9477870e-02
  1.7158799e-04
  3.3660385e-01
 -1.1878219e-02
  3.6376973e-03
 -8.2865113e-01
 -2.3670457e-01
  2.7708995e-01
 -8.7821293e-01
 -6.4123492e+00
 -6.8652922e-01
 -5.4291266e-01
  9.9666613e-01
  1.6897426e+00
 -4.8740782e-02
 -2.9014450e-01
 -3.9863229e-01
 -1.4035940e-01
 -1.9734296e-01
  2.5897428e-02
 -2.2169274e-01
 -4.1508123e-02
  2.2063234e-01
  2.0894039e-01
 -2.0699830e+00
 -2.7356164e+00
  9.6365727e-02
  3.4674534e-01
  5.8424961e-02
  3.3171408e-02
  5.4778312e-03
 -2.3401606e+00
 -9.1395885e-02
 -3.3030517e+00
 -1.9864479e+00
  1.3278615e-01
 -2.3762979e-01
 -4.1294339e-01
  2.0740831e-01
  9.9727839e-02
 -9.2084974e-01
  8.8149741e-02
 -5.0752628e-01
 -1.6325232e+00
 -3.0855995e-07
 -2.2219147e-01
 -1.0197081e-01
  6.0177284e-01
  1.3535843e+00
 -7.8887457e-01
 -4.8099279e-02
  2.7697241e+00
  6.5877908e-01
 -6.7726001e-02
  9.7597189e-02
 -4.0198959e-02
  5.1025101e-03
  8.1885811e-03
 -2.7197392e+00
 -8.7802187e-03
  2.4977494e-02
  1.6060518e-02
 -3.2522732e-03
 -4.8278846e-02
  1.0445901e-02
 -1.3064708e-01
 -2.9686436e-01
 -7.1902193e-02
  5.8617755e-03
 -3.8000897e-02
 -7.7339308e-03
  3.9179005e-02
  6.7171231e-03
  3.8126871e-02
  1.4215391e-02
 -8.5249804e-03
  1.6223738e+00
  2.1080634e-02
 -3.8791387e-03
  2.4989108e-02
  1.4697777e-02
  8.2033612e-03
 -6.0955323e-02
  2.5719948e-02
 -1.8598213e-03
 -6.2488258e-02
 -1.0422274e-02
 -1.5137115e-02
  3.9272878e-02
  7.5980830e-03
 -2.3540730e-02
 -5.1610563e-02
  3.4095321e-02
 -2.4054222e-02
  8.1552036e-02
  1.0173755e-01
 -2.1722138e-02
  3.8640961e-01
  1.7871611e-02
  2.0462239e-02
  8.5858010e-02
  2.4088992e-02
  4.5346692e-02
  2.9171526e-02
  3.3403791e-02
  2.9884588e-02
  3.4740630e-03
 -2.3798726e-03
  9.9050216e-03
 -2.0240285e-02
  1.5560940e-02
  3.9190244e-02
 -7.3086172e-02
  1.3804643e-01
 -5.6072503e-01
 -1.6127549e-01
 -4.0645003e-01
  1.4171141e+00
  4.0399838e-02
 -1.3049451e-01
 -8.5893726e-01
  4.2996579e-01
 -2.0747432e-01
  1.4336309e-01
  3.8087524e-02
  7.5429983e-02
 -1.8445240e-01
 -1.0654420e-01
 -6.8648346e-02
  2.8652772e-01
 -1.3619270e+00
 -2.5452831e-01
 -1.7796144e-01
 -3.7193915e-01
  1.6646713e-01
 -5.3303689e-01
 -2.7890599e-01
 -7.0636019e-02
 -8.2330912e-02
 -3.7493122e-01
 -4.4234499e-02
  7.1908019e-02
 -2.0460320e-01
 -8.7431967e-03
  6.4528219e-02
  3.0446883e-02
 -5.6699842e-01
 -2.8887779e-01
 -3.9056286e-01
 -1.7654248e-01
 -3.0719619e-02
  1.2429598e-02
 -2.4352637e-01
 -1.5535776e-01
 -1.4072321e-01
 -4.3585345e-01
 -2.1384971e-01
 -1.6714947e+00
  3.5255387e-02
 -3.7263918e-03
  5.9248209e-02
 -1.9248987e-02
 -1.0784582e-01
  1.2313642e-01
 -3.2741841e-02
  4.0051872e-03
  1.0736872e+00
 -1.6155139e+00
  4.6868138e+00
 -9.4020373e-01
 -1.7576088e-01
  1.8022677e+00
  4.2005782e+00
  5.1719522e-01
  2.9754896e+00
  2.3894725e+00
  6.9047976e-01
  5.7297742e-01
 -1.0305858e+00
  2.9272306e+00
 -9.3615264e-01
  9.6524256e-01
 -2.8113012e+00
  1.4009149e+00
 -2.7383060e+00
 -1.2146873e+00
  4.8995492e-01
  4.9975672e-01
 -1.2535496e+00
 -7.8721267e-01
 -3.4520101e-02
  1.3776792e-02
  1.1940570e+00
 -1.4876391e+00
 -4.4761367e+00
  2.0187736e+00
  1.6632594e+00
 -3.0867431e-01
  2.8302145e-01
  4.6143582e-01
 -2.9935944e+00
  1.8625290e+00
 -3.9674237e-01
 -2.4718330e+00
  1.6809514e+00
 -1.1563784e+00
  2.3407693e+00
 -9.2109042e-01
 -1.3007210e+00
 -2.2310617e+00
  2.8516145e+00
 -1.8412817e-01
  7.5481093e-01
 -1.2929727e+00
  6.2966287e-02
 -2.7451724e-01
 -3.4373157e-02
  4.3341305e-02
  2.4538642e-01
 -4.5536667e-01
  3.1026810e-01
 -6.7729396e-01
  1.2299461e+00
 -1.0344251e+00
 -5.3040493e-01
  1.8862227e+00
 -3.8820595e-01
 -3.2059389e-01
 -2.4553268e+00
 -1.4220372e+00
 -1.1412270e-01
  3.4711975e-01
  2.3877954e-01
  5.2927736e-02
 -1.8145531e-02
 -2.2438845e-01
 -1.6772440e-01
  2.8174323e-01
 -7.5567544e-01
  1.5219794e-01
 -4.0071076e-01
 -3.8436729e-01
 -7.5207338e-02
  2.3121157e-01
  3.1827572e-01
  4.4538401e-02
  1.2342409e-01
 -1.3616488e+00
  3.9289739e-02
  5.2608085e-01
 -7.9782563e-01
 -2.7591383e-01
 -1.4758559e-01
  2.7834463e-01
 -4.0819636e-01
  5.4857388e-02
 -9.3972814e-01
  4.9950700e-02
 -8.5754055e-01
  8.0470574e-01
 -9.8983504e-02
 -4.8894122e-01
  7.5524867e-01
 -1.3611948e-01
 -9.6305288e-02
 -6.2474263e-01
  9.0787366e-02
 -2.8493261e-01
  4.5131441e-02
  9.5566772e-02
 -2.9498506e-02
  3.9088085e-02
 -1.5027586e-01
 -9.3311176e-02
  1.7505939e+00
  1.3828963e+00
 -4.2208630e-01
 -2.4275729e-01
  1.3004717e+00
  2.2444084e+00
  3.8800487e-01
 -4.5325842e-01
  5.7800692e-02
 -2.5454953e-01
  1.6500561e-01
 -4.7662213e-02
 -2.6666713e-01
  3.6083749e-01
 -1.5624450e-01
 -6.2309015e-01
  3.6145112e-01
 -8.7157500e-01
  3.4197465e-01
 -1.3146475e-01
  2.0854513e-01
 -5.0099581e-02
  5.0538403e-01
  3.7653771e-01
  3.9827669e-01
 -5.6015432e-01
  5.0188833e-01
  1.4275824e-01
 -4.0911680e-01
 -2.0760950e-01
 -2.3867461e-01
 -1.1711110e-01
 -7.4359405e-01
 -4.3880332e-01
 -1.4997220e-02
 -5.3246516e-01
  6.6756517e-01
 -4.8782043e+00
  4.8686582e-01
 -5.2376842e-01
  2.0802648e-01
 -1.9761148e-01
  7.2821647e-01
 -9.8608798e-01
  1.2479759e+00
  5.5519503e-02
  6.5032304e-03
  1.2201256e-01
 -1.4589285e-02
 -6.1428200e-02
 -9.0424865e-02
  1.9786080e-02
  2.8108720e-02
 -1.3309762e-01
  6.9289041e-01
  7.4650568e-01
  4.1888204e-01
  1.0884822e-01
  8.8900842e-02
 -4.0213481e-01
  1.4358358e-01
  4.7949173e-02
 -3.3544412e+00
  4.3789711e-02
  8.4556997e-02
  5.8666870e-02
 -8.9459103e-03
 -1.7818913e-02
 -1.4344645e-01
  4.9187787e-02
  1.8319173e-02
  1.1017762e-01
 -1.0347985e-01
  1.9767502e-02
 -4.0106051e-02
 -2.2831130e-01
  1.6749978e-02
  4.5932233e-02
  1.5558650e-01
  1.6538420e-01
  1.8845075e-01
  1.5830375e-01
 -7.0727088e-02
  9.1527544e-02
 -1.0386695e-01
 -1.1224507e-02
 -6.9759764e-02
 -9.4867609e-02
  1.2751319e-01
  9.1595255e-02
 -9.4273105e-02
  1.8820816e-01
 -1.5703382e-01
 -3.1928837e-02
 -1.4798199e-01
  5.0649524e-02
 -2.1467993e-01
  1.8166248e-02
  1.0403343e-01
  1.4556547e-05
 -1.9158905e-02
 -4.3890480e-02
  1.2753276e-02
 -4.1706655e-02
  1.4784340e-03
  4.1699320e-02
  5.4617506e-04
 -1.3533789e+00
  2.0396950e-02
 -9.7677094e-01
  2.1472812e+00
 -2.6310208e+00
 -1.1924678e-02
  2.0382416e+00
 -1.7112471e-02
 -1.7339784e-01
 -1.9502352e+00
  1.8424052e+00
  7.5193822e-02
 -2.3231223e-01
 -1.8111339e-01
  1.0909193e+00
  3.7305546e-01
  4.6270207e-01
 -6.3964725e-01
  3.1780306e-01
  3.8424271e-01
 -4.7250384e-01
  4.7673029e-01
  7.0035672e-01
  7.7960521e-01
  3.0626723e-01
  3.4386596e-01
  1.5991828e-01
  3.3965942e-01
  9.7924751e-01
 -4.0058620e-02
 -3.0713069e-01
 -2.9845101e-01
  9.4588941e-01
  8.2800615e-01
 -1.8235131e-01
  5.3524926e-02
  3.8549787e-01
  1.3373592e+00
 -8.3343154e-01
  2.0658953e-01
 -3.9439806e-01
  1.0766808e+00
 -4.2613444e-01
  6.2407130e-01
 -8.6304247e-02
  2.4878306e+00
  8.5892105e-01
  1.5275481e-01
  9.8150171e-02
 -1.2219274e-01
 -3.5519779e-02
 -1.7317563e-01
  2.4453828e-02
 -2.1183214e-01
  9.0651037e-03
  4.0018469e-01
  1.2531992e+00
  1.2005098e+00
  2.4523960e-01
  1.1259249e+00
 -1.4556743e+00
  9.1244787e-01
  3.8308117e-01
 -1.0545485e+00
  3.6637790e+00
 -2.0972307e-01
  3.3727264e-01
  1.8884280e-01
 -5.5987769e-01
  6.1685909e-02
  1.7308953e-01
 -3.3781216e-01
  2.9108509e-01
 -9.1089740e-02
  7.6849049e-01
 -1.0766731e-01
 -7.4696380e-01
 -2.5992471e-01
  2.9260114e-01
  4.4068763e-01
  8.5136384e-01
  7.7198964e-01
 -5.7262856e-01
 -3.3999485e-01
  3.4170702e-01
 -5.9308391e-02
 -2.8883883e-01
 -8.9190751e-03
  1.7966198e-02
  7.3836929e-01
  1.3184114e-01
 -1.0380440e+00
  5.5295044e-01
 -2.2283049e-01
 -4.6061948e-01
 -4.4412541e-01
 -3.5698034e-02
 -3.4844822e-01
 -9.9939123e-02
 -7.0270570e-03
 -2.3060079e-01
 -5.0605372e-02
 -1.9230770e-01
  1.3333812e-01
  2.4278048e-02
  1.3381617e-01
  1.4706123e-01
 -2.3057367e-01
 -5.4333616e-02
  1.1867597e-01
  1.7283526e-01
 -3.8447851e-01
  1.5809709e-01
  2.1361436e-01
  4.3360206e-01
 -2.2563161e-01
  4.5123082e-01
  1.3143922e-02
 -8.0250412e-01
  7.6009426e-03
 -1.6598521e-01
 -5.6382865e-02
  1.3172714e-01
 -5.6375869e-02
  1.3954419e-01
  1.2433235e-01
  4.1169241e-02
 -5.3308254e-01
  2.3384416e-02
  1.2479757e+00
  5.6772292e-01
  1.4412426e-02
  2.5162193e-01
  4.4450566e-01
 -2.7342945e-01
  2.9731728e-02
  1.8292778e+00
  9.8806664e-02
  5.6094300e-02
  3.8265002e-01
  3.5458812e-01
  4.1361511e-01
  4.1599765e-01
  2.5884742e-02
  5.8514947e-01
 -9.3411726e-01
  2.9433979e-02
  1.4276364e+00
  2.1329129e+00
 -1.2817225e-01
  4.0980607e-02
 -8.8913363e-01
  2.6844859e-01
  1.1338511e-01
 -1.0352106e+00
  4.7964063e-02
 -5.0112075e-01
 -2.4303763e-01
  1.1259861e-02
 -3.2577895e-02
  8.8898063e-02
 -2.1204894e-02
 -8.4248342e-02
 -1.4143251e+00
  3.1725809e-02
 -2.3204223e-03
 -2.2721182e-01
  2.1978872e-02
  8.5488647e-02
 -2.0984283e-02
 -1.2349417e-02
 -7.9746969e-02
  1.8427351e-02
  1.1764343e-02
  1.0958290e-02
  7.7856593e-02
  2.3355328e-02
  4.3364717e-03
 -5.2634489e-02
 -2.5975542e-02
 -2.8806010e-03
 -9.6707828e-02
  7.8875944e-03
 -2.8548142e-02
 -7.7520005e-02
 -1.4568477e-02
 -1.1117247e-02
  6.1190994e-03
 -5.9408125e-02
  3.6782224e-02
 -3.3841066e-02
  2.3315398e-02
  2.2865491e-02
 -5.1153000e-02
  3.6124093e-05
 -5.1599825e-03
 -4.9727904e-03
 -7.8692269e-03
  3.6883786e-02
 -6.9028318e-02
  8.1344703e-03
  4.4712551e-02
  1.5470989e-02
 -4.9096186e-02
  1.4433012e-03
 -7.6447912e-02
  1.4661755e-02
 -1.9113181e-02
  3.7213175e-03
 -2.3818739e-02
 -3.1242067e-02
 -1.6613789e-02
 -2.0189172e-02
  4.4849277e-03
  4.3796666e-02
 -1.6335899e-02
 -3.4781590e-03
 -9.2627853e-02
  3.6028659e+00
  6.1290783e-01
  2.9010408e+00
 -1.8963768e+00
  6.7360115e+00
 -4.2207137e-01
 -3.8939121e+00
  1.1888536e+00
  1.9843845e+00
  2.3819552e-01
 -2.9242548e-01
 -1.2374102e-01
  1.6071541e+00
 -2.8538084e-01
 -3.6712283e-01
 -3.1859550e-01
 -3.3604406e-02
 -3.1691697e+00
  6.2794882e-01
  8.1197840e-01
 -1.0529166e+00
 -3.1968462e-01
 -8.8809833e-02
 -7.9472750e-01
 -1.2312763e+00
  1.0428563e+00
  3.4235802e-01
  5.2807891e-01
  5.4037237e-01
 -1.1123325e-01
 -3.8697803e-01
 -5.4596251e-01
 -7.4870062e-01
 -2.5513938e-01
  4.0865648e-01
  2.2166662e+00
 -5.2983269e-02
  4.0668046e-01
 -8.6287135e-01
  1.6283405e+00
 -1.1382593e+00
 -1.4103211e+00
 -6.4276844e-01
  8.1046320e-02
 -1.1434326e+00
  4.6869244e-02
  4.1853157e-01
  6.3793473e-02
 -3.1702384e-01
  2.2648393e-01
 -2.5901940e-01
  1.0488713e-01
  2.8593451e-02
  1.8740088e+00
 -3.6162436e-01
 -6.4475350e-02
 -6.2170990e-02
  4.4177012e-03
  1.2176239e+00
 -1.2341394e-01
  4.0451580e-01
 -1.2259482e+00
  1.0961032e+00
  2.2191907e-01
  2.6146510e-01
  8.9336649e-02
  1.9251005e-01
 -1.1310269e-01
  2.0183355e-01
 -2.1892297e-01
  2.9453489e-01
  2.4658412e-01
 -1.2368046e-01
  8.3040571e-01
  4.0378767e-01
 -1.4683124e-01
  2.3317198e-01
  4.3831334e-01
  4.9483785e-03
 -3.5959631e-01
  1.3957464e+00
 -1.0047892e+00
  8.0346000e-01
 -2.3434973e-01
 -5.2337104e-01
 -4.6968645e-01
  4.4904506e-01
  8.9424513e-02
 -2.0183368e-01
  1.3982560e-01
 -4.6313867e-01
  1.3125476e-01
  4.7201791e-01
 -2.8739175e-01
 -6.7388393e-02
  5.0495219e-01
  2.8000638e-01
 -1.9292493e-01
  7.1605935e+00
  1.5922566e-01
 -3.1636164e-01
 -2.0904237e-02
 -1.3974820e-01
 -3.4366798e-02
  2.4287708e-03
 -1.0230222e-01
 -1.6590931e-02
 -8.0038178e-01
 -1.5123118e+00
 -1.9288464e-01
  2.3168869e+00
 -2.9708693e+00
  4.2616013e-02
 -3.5722214e-01
 -1.6243614e+00
 -6.6060352e-01
  1.0023413e+00
  2.1061122e-01
  2.2941513e-02
 -1.0032006e-01
 -1.6689217e-01
 -1.9707482e-01
 -1.3069020e-01
 -3.0422831e-02
  2.1683614e-01
 -5.1994365e-01
  2.5887671e-01
 -5.3063887e-01
 -7.0507920e-01
 -1.7352003e-01
 -1.4678378e-02
  6.3162827e-01
 -2.7382460e-01
 -2.7517316e-01
 -7.9046762e-01
 -2.0586602e-01
 -1.2559995e-01
 -4.7523966e-01
 -2.8976434e-01
 -4.7052085e-01
  1.4402939e-01
  7.9753572e-01
  8.9792442e-01
 -1.9648367e+00
 -1.4726795e-01
 -5.0986654e-01
 -2.7874997e-01
 -4.4081286e-01
 -6.4751066e-02
 -1.7290522e+00
 -2.7311569e-01
 -7.5964254e-01
 -4.8405197e-01
 -4.3563202e-02
 -6.3212134e-02
  1.1783572e-01
  6.8816908e-02
  2.0366523e-02
  1.2174412e-01
  7.5686604e-02
 -1.4608459e-01
  5.7608223e-01
 -1.9230194e+00
  2.7780986e-01
 -6.1960733e-01
  1.6473982e-01
  1.3790102e+00
  8.9381355e-01
  1.4370927e-01
 -2.3388317e+00
 -1.1541333e+00
  2.0439410e-01
  1.9859017e+00
 -6.2112462e-02
 -1.4036345e+00
  3.7596494e-01
 -4.0546820e-01
 -1.9974273e-01
  1.8071000e-01
 -7.0070404e-01
 -2.2308373e-01
 -3.2328600e-01
  1.3747351e+00
 -1.4904578e+00
  2.2518094e-01
  8.3456776e-04
 -1.1366732e+00
  1.0653676e-02
 -4.1864592e-01
  3.2639068e-01
 -7.2936527e-02
  1.4076216e+00
 -1.1060643e+00
  1.4550944e-01
  1.4523283e-01
 -1.5317824e+00
 -3.2898805e+00
  3.9453596e-01
 -7.1285832e-01
  1.5667105e+00
  2.5292997e+00
  8.6411244e-01
  1.3435851e+00
  1.0466462e+00
 -4.7110063e-01
 -1.3259214e+00
 -2.6845689e+00
 -2.9173002e-01
 -1.0935010e+00
 -3.6132777e-01
  2.1132867e-01
  3.3246246e-01
  6.3476586e-03
  3.0428949e-01
  5.8451556e-02
 -2.6599723e-01
 -6.0128498e-01
  1.3033336e-01
  1.3214827e-01
  3.9929464e-02
 -5.2436507e-01
 -3.2470737e-02
  4.5158085e-01
  1.5311623e-01
 -2.5906403e-02
 -3.4408767e-02
 -1.5686165e-01
  4.0978502e-02
 -3.5975505e-02
 -1.3075792e-02
 -1.2522447e-02
  8.4198855e-02
 -1.4415383e-01
  6.7946905e-01
  5.4867130e-02
 -2.6417449e-01
  1.7796597e-02
  3.0826756e-01
 -2.9951560e+00
 -7.9510570e-02
  1.1735430e-01
 -7.9619534e-02
 -4.9575710e-01
 -2.1258225e-03
 -1.6316903e-01
  2.4582542e-01
  6.8298541e-03
  6.3416488e-02
 -7.5372972e-02
 -5.8134403e-02
 -1.1251597e-01
  2.9111929e+00
  2.2699428e-01
 -1.4428651e-01
 -1.3314347e-01
  9.4839707e-02
 -2.0103571e-01
  1.6103140e-01
  1.6430093e-01
  1.8560533e-01
 -1.1405352e+00
 -1.9020937e-02
  9.2453785e-02
 -6.6384837e-02
  1.3314886e-02
  9.4728515e-02
 -4.9246226e-02
  3.9624903e-02
  4.8653096e-02
 -1.2274888e-01
  3.4081854e-02
  3.1914417e-02
 -5.5398557e-02
 -2.8791249e-02
  1.1378148e-03
 -4.3745507e-02
 -2.9936196e-02
 -9.0380289e-02
  5.1338080e-02
  4.8180646e-03
  4.6445072e-02
 -2.2535516e-02
  2.3619253e-02
 -9.2149545e-03
  3.3681784e-02
  1.7650155e-02
  4.4938922e-03
 -5.9752498e-02
  1.2869580e-02
 -1.9332187e-01
 -2.9871745e-02
 -1.3467628e-02
 -1.5891637e-04
  4.9660683e-02
 -1.1647213e-02
 -2.3840256e+00
  6.4956956e-03
 -5.6225631e-02
  2.3633244e-02
 -7.1409866e-03
 -3.3476904e-02
  8.1729435e-04
  4.4659921e-03
 -1.1320202e-02
  5.8929430e-04
 -3.7744123e-02
  1.6616747e-02
  7.6365009e-02
  1.4928576e-02
  1.4714331e-02
 -4.8031812e-04
 -4.3500375e-02
 -7.0653828e-03
 -4.5552738e-02
  9.9047154e-01
 -1.8127801e-02
 -7.1133561e-03
  4.7206283e-02
 -1.4555762e-03
  5.7464760e-02
 -4.9352646e-03
  7.6364777e-03
 -2.8505424e-02
 -1.1145937e-01
 -1.2424191e-01
  9.1857630e-01
  1.2613015e+00
  7.4531347e-02
 -1.7116401e+00
 -1.5494469e+00
 -1.2528399e+00
  2.0430395e-01
  1.1922131e+00
 -1.1640748e-01
  1.4069118e+00
  1.1201333e-02
 -2.9284310e-01
  1.2612790e-01
 -1.9368182e-01
 -3.7518317e-01
  7.2322810e-01
 -8.3374500e-01
  5.2831423e-01
  2.0626578e+00
  3.3161557e-01
 -7.7188022e-02
  4.2138875e-01
  2.3464932e-01
  4.1388813e-01
  2.0188074e-01
 -1.1384867e+00
  5.6674111e-01
  2.0474920e-01
 -2.4455850e-01
 -3.6816901e-01
  9.8201990e-02
  7.9161942e-02
 -5.6477994e-01
  9.7535089e-02
 -3.0046442e-01
  2.1204180e-01
  1.3166717e+00
  1.2813850e-01
 -4.3556359e-01
  2.1621099e-02
  9.8992765e-01
  1.3593138e+00
  3.7547052e-01
  1.3870758e+00
 -1.2591515e-02
 -1.6961401e+00
  2.5950757e-01
  8.9774735e-02
  1.0052124e-01
  1.5415064e-01
  2.2427948e-01
 -5.5709038e-02
  2.1078532e+00
  2.2215895e-01
  2.4370959e+00
  4.4969961e-01
  9.1828042e-01
  2.7028198e+00
 -2.9235039e+00
 -2.2216463e+00
 -1.4562069e-02
 -1.7188954e+00
  5.1308393e-01
  9.0585142e-01
 -4.8394707e-01
  5.8809561e-01
 -9.2146021e-01
  2.1578881e-01
 -9.0336859e-01
  2.0067401e-01
 -1.2817975e+00
 -2.6977520e-02
 -5.3926027e-01
 -1.7559061e+00
  2.3140490e+00
 -6.2358361e-01
  3.8351098e-01
  9.7385061e-01
  1.2778924e+00
 -1.9191904e+00
  2.8145308e+00
 -6.4920127e-01
 -5.6056404e-01
 -1.0932203e-01
 -1.0542786e+00
 -1.3634869e+00
  3.1303522e-01
  2.0084518e-01
 -4.1607994e-01
 -1.9388422e+00
 -1.0753061e+00
 -4.4264646e+00
 -8.6703971e-02
  9.5299298e-01
  2.8290915e-01
  1.0975330e+00
 -1.9632982e+00
 -3.6209657e+00
  9.0076809e-04
 -1.3281219e+00
  3.2107189e-01
 -3.7949991e-01
 -4.5097765e-01
 -1.5824635e-02
  5.3608093e-02
 -1.3281208e-01
  2.4593513e-01
  3.7870318e-01
  1.3735929e+00
 -5.9800649e-01
 -2.4356635e-01
 -7.1599305e-01
 -6.7962885e-01
  8.5009623e-01
  7.5063002e-01
  2.2908232e+00
 -1.7507438e-01
 -2.4751627e-01
 -2.0113137e-02
  2.0715412e-01
  1.7626162e+00
  1.2984633e-01
 -6.8506747e-02
 -2.5528041e-01
  1.0567265e+00
 -5.2496147e-01
  3.5623576e-02
  4.5276901e-01
 -2.5189814e-01
 -2.2129387e-02
 -1.9610041e-01
  2.6685944e-01
 -1.3660863e-02
 -3.8334672e+00
 -2.3187711e-03
 -4.9668121e-01
  3.5737062e-01
  3.6243173e-01
 -7.7012998e-01
 -4.0159678e-01
 -2.9115343e-01
 -6.2224931e-01
  2.0749764e-01
  3.8035733e-01
 -1.9174811e-01
 -1.5997944e-02
  1.6244262e-01
  2.0732035e-01
  1.1604366e+00
 -1.4339705e-01
  5.9012657e-01
  8.7949002e-01
  5.3762749e-02
  2.1645513e-01
 -1.0175224e-01
 -5.3968847e-02
 -8.3708152e-02
 -6.4333059e-02
 -2.0094706e-02
  1.6095063e-01
  9.0433013e-01
 -1.4103569e-01
  5.9458995e-01
  1.5832148e-02
 -2.6079929e-01
 -9.1669953e-01
  1.5578986e+00
  4.5970014e-01
 -1.6111968e+00
 -2.6218274e+00
 -1.4215413e-01
 -4.1861001e-02
 -6.8012172e-01
  7.0140727e-02
  5.6656186e-02
 -1.2546170e-01
 -1.3775195e-01
 -1.6349685e-01
 -2.6068118e+00
  7.8409858e-02
  5.2745182e-02
  3.8814668e-02
  2.1821184e+00
  6.0563128e-02
  2.1028006e-01
 -1.4614937e-01
 -1.7923276e-01
 -2.4148859e-01
 -1.4826925e-01
 -7.4048020e-02
 -6.4488888e-02
 -1.2244402e+00
  1.3458197e-01
  7.0673347e-02
  1.7921041e-01
  2.1898855e-01
  6.0901172e-02
  4.5816630e-01
  5.0171733e-01
  4.4910036e-02
  8.2314439e-02
 -4.1611988e-02
  5.9868574e-01
 -3.9656907e-02
  1.6740540e+00
 -5.9182593e-03
  1.3217061e-03
 -8.5761817e-03
 -3.9729737e-03
  4.1656848e-03
 -4.9915102e-01
  1.2000061e-02
 -1.6735736e-02
 -3.5920121e-02
  9.7455822e-02
  7.8217432e-02
 -2.6381831e+00
  4.9346676e-01
  2.4036693e-03
  1.1272762e+00
 -7.9908502e-01
  3.1290805e-01
 -1.2225700e-01
  4.4405428e-01
 -5.8538605e-02
  2.0055845e-01
 -1.4702079e-01
  5.2046839e-02
  6.8778299e-02
 -2.4403214e-02
  1.2893456e-01
  3.6055446e-01
 -7.2071368e-01
 -2.0765644e-01
 -1.7988563e-01
 -2.4359466e-01
 -1.9260111e-01
 -7.7002294e-02
 -4.1597244e-01
 -6.1824605e-02
  2.4088182e-01
 -3.3017865e-01
  9.0253703e-02
  1.4027856e-01
 -1.0263705e-01
 -3.5142101e-02
  4.3207929e-02
  8.8055693e-03
 -1.8326111e-01
 -1.4026988e-01
 -4.4886991e-01
 -5.3746933e-01
 -1.6839480e-01
 -2.9792896e-01
 -2.6602417e-01
 -4.5572803e-03
 -6.0693055e-01
 -9.3074061e-02
 -6.1810881e-01
 -1.0502428e+00
  4.4453740e-02
 -4.6122540e-02
  5.0376225e-02
  4.1643687e-02
 -7.9429343e-02
  1.0768589e-01
  5.7671916e-02
  4.0160883e-02
  4.7594938e-01
 -1.9189063e+00
 -1.0546664e+00
 -1.0715373e+00
 -5.8873504e-01
 -1.4575784e+00
 -2.3856478e+00
  1.0835727e-01
 -2.7482450e+00
 -1.9642782e-01
 -2.2962092e-01
  5.6702137e-01
 -1.4080700e-01
 -4.7852841e-01
 -5.2121770e-01
 -2.3681107e+00
  1.4569054e+00
 -1.2864391e+00
 -1.1498628e+00
 -4.0364362e-02
 -5.2577388e-01
  2.1076183e+00
  1.0278912e+00
  5.6248939e-01
 -5.7863736e-01
  1.5550967e+00
 -5.5590737e-01
 -1.4597666e+00
  7.0222515e-01
  1.0326464e-01
  1.5060065e+00
  7.5701907e-02
  9.4784725e-01
 -1.7877408e+00
  2.5351932e+00
 -1.3771254e+00
 -2.2308247e+00
  1.4966757e+00
 -2.4605305e-01
 -1.8334184e+00
 -1.4368401e+00
  9.6798193e-01
 -5.9934884e-01
  1.2548966e+00
  1.2158332e+00
  3.4532872e-01
 -6.7656823e-03
  2.8329055e+00
 -2.8166454e+00
  6.2642515e-01
  4.1946539e-01
  7.1829605e-01
  7.6180565e-01
 -6.5548378e-01
  4.4633217e+00
  1.8036640e+00
  5.0796753e-01
  5.2025614e+00
 -1.3752331e+00
  5.1855583e+00
  3.2744641e+00
 -4.0735760e+00
  3.8938513e+00
 -7.3264837e-01
  4.3340021e-01
  1.1979267e-01
 -2.0110907e-02
 -5.4716253e-01
 -2.9381115e+00
 -2.8575522e-01
 -2.4861119e+00
 -1.0044887e+00
  6.0235787e-02
  1.1490461e+00
 -9.2696017e-01
 -7.1542031e-01
 -1.3951243e+00
 -2.0512064e+00
  7.2276330e-01
 -1.0888250e+00
  2.2315657e+00
  2.0279107e+00
 -1.6543916e+00
  5.4935992e-02
 -4.3634126e-01
 -1.4770471e+00
 -2.6855261e+00
 -1.9998218e+00
 -5.5250591e-01
  3.8096380e-01
  8.6618227e-01
 -3.1554922e-02
  2.0867307e+00
 -9.0743101e-01
 -1.3890723e+00
 -1.5079888e+00
 -1.9523808e-01
 -8.2926309e-01
  2.2960539e+00
 -4.5816884e+00
  2.6721308e-01
  5.3538752e-01
  1.0604126e-01
 -1.1986983e-01
  6.4347401e-02
 -2.5765726e-01
  3.0551761e-01
  1.1158434e-01
  1.0253111e+00
 -3.1136608e+00
  2.3191943e+00
  1.0723920e+00
 -1.4356048e-01
  3.7360591e-01
  7.9990000e-01
 -3.7223392e+00
 -1.8918071e+00
  1.9024380e+00
 -1.3160874e-01
 -1.2885541e+00
  2.4643199e+00
 -3.3869836e-01
  4.4413373e-01
 -4.1947514e-01
 -2.0933586e-01
  6.2029392e-01
 -9.4386208e-01
  2.3059752e+00
  7.8905475e-01
  2.2364075e+00
  2.0490457e-01
 -2.0903808e-01
  4.3635091e-01
 -8.3685976e-01
 -2.0535375e-01
 -1.3115054e+00
 -5.5331272e-01
  2.8660343e+00
  2.4592273e+00
 -2.7286395e-01
 -7.3860884e-01
 -6.4034963e-01
 -9.5185316e-01
  2.0090730e+00
  7.7390587e-01
 -1.2563682e+00
  1.1818564e+00
  4.6953750e+00
 -1.7022096e-01
  1.8802413e-01
 -5.2636957e-01
 -8.9462228e-02
 -2.0421546e+00
 -1.1787158e+00
  2.5891881e-02
 -8.2074100e-01
 -5.3280020e+00
  1.8736680e-01
  7.9638772e-02
  2.5874242e-01
 -8.4129674e-04
 -1.2552324e-01
  4.1168977e-02
  1.2525703e+00
 -1.3930314e+00
 -1.4823431e+00
 -8.7710643e-01
  1.6905453e+00
 -1.6126935e-01
 -1.2099590e+00
 -3.8948126e+00
  7.4094051e-01
 -3.6298138e-01
 -6.7730621e-02
  1.3525835e-01
 -8.3796186e-03
 -8.5982390e-02
  1.4238273e-01
 -2.6916444e-01
  6.9959566e-02
 -9.7536057e-02
 -7.1058817e-02
  2.2346561e+00
  1.4541788e-01
 -3.6879006e-01
 -2.0472333e-01
 -4.7104228e-01
 -4.2602754e-01
 -6.6711593e-01
 -6.8416405e-01
 -7.6361969e-02
 -3.2774353e-01
  3.9401731e-01
  1.6540200e-02
 -1.2245311e-01
  3.9211771e-01
 -3.5424197e-01
 -2.0260677e-01
  1.9657677e-01
  1.5422490e+00
  2.1826141e-01
  5.8832997e-01
  2.9299513e-01
  6.5880597e-01
  1.3217232e+00
  4.4623189e-02
 -1.4025446e+00
  1.2139596e+00
  5.7783988e-03
  1.6712390e-01
  9.8194249e-02
  2.1271158e-02
 -2.2097876e-02
 -1.1870036e-01
 -4.6168812e-02
  1.2963954e-01
 -1.1805258e-01
  7.5637892e-02
 -1.5198965e-01
  2.1831675e+00
 -3.1934053e-02
  1.0486797e+00
 -2.3651572e-01
  8.2562780e-01
  3.0509543e+00
 -1.8516754e+00
  2.5247280e-02
 -3.9610156e-01
 -2.8063262e-01
  2.7117673e-01
  1.4535624e+00
 -2.5623554e-01
  2.4557401e-01
 -2.2635208e-01
  2.0051247e-01
 -5.5350977e-01
 -2.6089678e+00
 -2.8661599e+00
  3.6347121e-01
 -3.1568122e-01
 -5.0725567e-01
 -1.2585685e+00
 -7.4963176e-01
  1.3142765e+00
 -3.2162659e-02
 -3.7974758e+00
 -1.5094805e-01
  5.9755091e-02
 -4.5389706e-01
 -3.0230281e-01
 -1.7636470e-01
 -2.3040746e-01
  6.8459010e-01
  1.9781612e-01
 -6.5390997e+00
  2.9413980e-01
  3.0306485e-01
 -2.3618208e-03
  7.8468136e-02
  1.9958702e-01
 -6.1560357e-01
  9.6701342e-01
 -8.0220979e-03
  2.1735535e+00
 -6.0995080e-02
 -7.3569082e-02
 -6.9224149e-02
  2.8144631e-01
 -5.3360425e-03
  8.8221937e-02
  1.3723552e+00
  6.8808025e-01
 -9.7559547e-01
  5.4221219e-01
 -1.7721213e+00
  1.2258649e+00
 -3.8890254e+00
  6.1749077e-01
  4.7619075e-01
  2.3937948e+00
 -4.2482305e-02
 -2.6419714e-01
  2.3154473e-01
  3.1023270e-01
  4.1874897e-02
  5.5935621e-01
  2.2763565e-01
 -1.2190016e-01
  1.5759631e-01
 -3.6182347e-01
 -1.3628624e-01
  3.6250558e-01
  2.8134167e-01
  1.2607077e-01
 -7.8538716e-01
  7.6365048e-01
  4.1243502e-01
 -5.8090949e-01
  3.4980249e-02
 -5.5399430e-01
  4.9833202e-01
  5.2739644e-01
  2.2816518e-01
  2.1099843e-01
  1.3046220e-01
 -7.8559500e-01
  1.4863243e+00
  5.6845695e-01
 -6.5342724e-02
  2.7982977e-01
  4.9963021e-01
  2.4360143e-01
  3.9162958e-01
  5.2262187e-01
 -1.4892801e+00
  8.3769959e-01
 -1.0184263e-02
  2.0831436e-01
 -1.7451100e-01
 -2.2433480e-02
 -6.6999070e-02
 -5.1180344e-02
 -7.4007712e-02
  1.5462133e-01
  7.1427390e-02
 -1.5166105e+00
  8.2887396e-02
 -1.3633274e-01
 -6.3534981e-01
 -1.8096925e+00
 -3.4057486e+00
  2.3213091e+00
  1.5872946e-01
 -7.9536575e-01
 -5.4945940e-01
 -3.1433549e-02
 -6.8789043e-02
  6.3251883e-01
 -4.3219921e-01
  1.3186255e+00
 -1.8426846e+00
  1.2828740e+00
  6.8137127e-01
  5.4289025e-01
 -2.6087338e-01
  1.7389411e+00
 -4.5428108e-02
  1.2989472e+00
  6.6432500e-01
  3.7840849e-01
  2.6804831e+00
  1.0291079e+00
 -2.9255721e-01
 -1.9021865e+00
  1.0565650e+00
  7.8580874e-01
 -9.8178858e-01
 -3.0759507e-01
  5.1595926e-01
  1.7990683e+00
  9.2791319e-01
 -1.2646281e+00
  1.2322158e-01
  7.4665642e-01
  7.9274088e-01
  2.2366893e+00
  5.0796574e-01
  1.3086102e+00
  4.4295663e-01
  2.6643002e+00
  1.5157107e-01
  3.0806637e+00
 -5.2375812e-02
 -1.0405979e-01
  7.1008593e-02
 -3.4878418e-01
 -1.3142452e-01
  5.6949723e-01
  2.2076041e-01
  3.3546707e-01
 -7.2505116e-01
 -2.0033930e-01
 -2.9767263e-01
  1.4654187e+00
 -6.1112594e-02
 -2.0453896e-01
 -5.6440860e-01
  6.1526066e-01
 -1.8746890e-01
  2.1665515e-01
 -2.1221770e-02
  3.1036137e-02
 -1.3491607e-01
  1.8249406e-02
  9.6940650e-03
  2.5457686e-01
 -1.9739666e+00
 -2.2459765e-01
 -1.8213078e-01
 -1.6246511e-01
  2.3685230e-01
 -5.9784666e-02
 -2.8389856e-01
 -3.8823623e-02
 -5.5536352e-02
  5.6013089e-01
 -1.5275197e-01
 -8.2740471e-02
 -5.8062482e-01
  7.3244281e-02
 -1.9330381e-01
  4.0096052e-02
 -1.4882831e-01
 -3.5900214e-01
 -1.4216756e+00
 -4.4835544e-01
  2.8579945e-02
 -1.4120083e-03
  2.3745237e-02
 -1.1448022e-01
 -4.0381914e-01
 -2.6830846e-01
 -8.4889543e-01
 -9.0501648e-01
  2.9254381e-02
 -3.5394572e-02
  4.1587543e-02
  1.5085612e-02
 -1.5325370e-01
  1.2787174e-01
 -3.2839391e-02
  3.3632431e-02
  7.6538181e-01
 -4.8607531e+00
  1.0607549e-01
 -1.5805418e+00
 -2.9806144e+00
  1.1460595e+00
  2.4217508e+00
  6.0271704e-01
 -8.8798541e-01
  2.1834741e+00
  6.8881512e-03
 -7.0764154e-01
 -9.5314242e-02
  8.0769753e-01
 -3.0175552e-01
  1.1892859e+00
  8.6242512e-02
  4.3044406e-01
  1.1639655e+00
 -2.4432696e-01
 -2.8687408e+00
 -4.0955400e+00
  3.0619813e-02
  1.6222529e-01
  3.8774112e-01
  3.7373170e-01
 -1.3432315e-01
  1.2359734e+00
 -2.5741777e-01
  1.6727404e-01
 -3.1598419e-01
  1.2381171e+00
  2.4498603e+00
 -7.0467435e-02
  7.7501398e-01
  8.4742552e-01
  4.3060336e-01
 -1.3421608e+00
 -6.4069331e-01
 -4.6332607e-01
  8.7600231e-01
 -1.0058987e-01
  6.1273158e-01
 -3.9891222e-01
  2.8487632e+00
 -3.0395176e+00
  8.3197534e-02
  2.1218048e-01
 -1.4780089e-01
  1.2471403e-01
 -9.1937728e-02
 -8.1900373e-02
 -2.0795518e-01
  2.1366256e-01
 -3.8173541e-01
 -1.0489527e-02
  3.8772848e-01
  4.2015180e-01
 -4.1145435e-01
  6.9578218e-01
 -2.0334883e-01
  5.3362769e-01
 -2.7877042e+00
 -1.2212301e+00
 -3.4956910e-02
  1.9145057e-01
 -1.1325872e-01
  3.0900115e-02
  2.7767364e-02
 -1.7996518e-01
 -4.6781506e-02
  1.5466799e-01
 -2.2550741e-01
  3.1259574e-02
 -1.3091464e-01
 -2.5368044e-01
  3.2718349e-03
  7.4277490e-02
  2.5370073e-01
 -9.2355788e-02
  6.3884474e-02
 -7.4631596e-01
  2.5300130e-01
  2.6356053e-01
 -2.4049765e-01
 -2.2900985e-01
 -1.1956667e-01
 -9.3893170e-02
  1.4413394e-01
 -3.1500246e-02
 -2.8604436e-01
  8.7732166e-01
  1.9021297e-01
 -1.0043254e-01
 -8.1378326e-02
  6.5054722e-02
 -5.6887847e-01
 -2.2066187e-02
  1.3100611e+00
  6.9689780e-01
 -1.8677991e-02
 -1.7025144e-01
  6.0094599e-02
  3.0402860e-02
  2.8610853e-02
  4.1533444e-02
  1.6969113e-02
 -3.1030165e-02
  4.5689872e-01
  2.5286958e+00
  3.4464321e+00
  6.5740848e-01
 -2.9966633e+00
 -1.8471670e-01
 -2.0119810e+00
 -2.1285821e-01
  6.3774657e-01
  5.8591056e-01
 -7.1747375e-01
 -4.4041798e-01
  2.7277997e-02
  3.0974658e-02
  7.2871745e-01
 -7.2226375e-01
 -6.8216848e-01
 -6.9625443e-01
  1.2191869e+00
 -2.4906844e-01
  5.4462820e-01
  7.3687595e-01
  1.3320485e+00
  1.8028466e-01
 -1.4771931e+00
 -1.1414075e+00
 -1.6396408e+00
 -1.6819974e+00
 -1.1015183e+00
 -1.1499805e+00
  4.8484254e-01
 -2.8019807e-01
 -1.9307169e-01
 -5.4938960e-01
 -1.1357060e-02
 -1.1140401e+00
 -8.4063691e-01
  1.4477736e-01
 -4.6498146e+00
 -1.8105928e+00
  1.0787864e+00
  1.1789857e+00
  6.2449944e-01
  3.7866402e-01
 -6.3741131e+00
  1.1933969e+00
  6.3194528e-02
  6.5319818e-03
 -1.2714469e-02
 -8.7360121e-02
 -2.2677228e-01
 -2.7106774e-01
  1.8396677e-01
  1.3361332e-01
  2.3098924e+00
 -2.1317253e-01
 -2.2066804e-02
  2.8505873e-02
  3.0780561e-02
  9.6066684e-02
  4.7842097e-02
  2.3476586e-02
  6.9887465e-01
  8.0516182e-02
 -1.7954970e-02
 -9.8098435e-02
  1.4880181e-02
 -2.9260257e-02
  1.3263969e-01
  8.8310987e-04
 -1.4964529e-02
 -9.6344985e-02
  1.0403596e-01
 -1.2824161e-02
 -4.0745187e-01
  8.7229677e-02
 -6.8096600e-02
  1.0771997e-02
 -1.1444315e-01
 -2.4789214e-01
 -7.2120227e-02
 -2.9713887e-01
 -5.8962703e-02
 -4.6458703e-01
  1.0042343e-01
  6.0407404e-02
 -1.4034667e-02
 -1.2173944e-01
  7.4063912e-02
 -3.8864452e-02
 -6.5536278e-01
  8.3325423e-02
 -1.5644422e-01
  5.6190960e-02
 -5.1808175e-02
 -1.9330028e-02
  1.1654408e-01
  6.5089062e-02
 -2.4446975e-02
 -1.0009505e+00
  8.3023990e-03
  9.3171425e-02
 -4.7557712e-02
 -1.1177876e-02
 -2.5334338e-02
 -2.3812233e-02
  1.2543833e-02
  4.5902412e-02
 -3.3507562e-01
  2.0265975e+00
  2.6308024e-01
  6.0482111e-02
  7.3002255e-01
 -1.2759314e+00
 -3.7788719e-01
 -1.5396074e+00
  3.3476222e+00
  6.5530229e-01
  3.2645926e-01
  2.0069268e-01
 -9.4325438e-02
 -1.4858750e-01
 -2.4482590e-01
 -1.4870332e+00
 -7.3749743e-02
  7.2604603e-01
 -2.0186577e+00
 -5.0011909e-01
  6.8770868e-01
  1.2956081e-01
 -3.9392698e-01
 -6.2112987e-01
 -3.1774437e-01
 -5.2137524e-01
 -6.4514625e-01
 -3.0593338e+00
  5.5440891e-01
 -3.6923473e-03
 -2.4507605e-01
 -4.4184491e-01
 -4.5315498e-01
 -1.1424824e-01
 -4.2455104e-01
  3.6564392e-01
 -4.0377121e+00
 -1.7274145e+00
 -4.5485955e-01
 -1.0370895e-01
 -7.5816005e-01
 -4.1852942e-01
 -1.0709112e+00
  1.6100375e-01
 -1.6551402e+00
  2.8803053e+00
 -5.7632853e-03
 -1.6039219e-01
 -2.1041301e-01
  7.4197002e-02
  1.0447168e-01
 -3.6156368e-02
  1.1480836e-02
 -7.8300014e-03
  1.7061511e+00
  3.9664829e+00
  1.1006365e+00
 -3.5676759e-01
  1.1667398e+00
  1.7526066e+00
  5.1965255e-02
 -6.8163747e-01
  1.4776371e+00
 -4.4920702e+00
  1.7700642e-01
 -9.9101335e-02
  9.4191581e-01
  1.5151823e-01
 -7.0683014e-01
  4.6799725e-01
 -5.7294834e-01
  2.4556950e-01
 -5.1615760e-02
 -1.2739228e-01
 -5.5533037e-02
  7.4266320e-01
 -9.8643683e-02
 -2.2242337e-01
  5.2458167e-01
  4.9824560e-01
 -1.6698964e-01
 -1.1805879e+00
  2.2909653e-01
 -6.6543087e-02
 -1.5538615e-01
  2.0460320e-01
 -1.3809574e-01
 -1.9034481e-02
  1.1541773e-01
  1.3022978e+00
 -5.2299637e-01
 -4.2389216e+00
  1.8582417e-01
 -4.6888629e-01
 -1.9355559e-01
 -1.8871325e-01
 -2.4278541e+00
  1.2286343e-01
  1.4905121e+00
 -6.7336392e-01
  7.6599814e-02
  8.1443615e-02
 -1.5315417e-02
 -4.6310462e-02
  2.8616276e-02
 -4.0143158e-02
 -3.0122515e-02
  1.7886859e-01
 -1.8287297e-01
 -3.2437851e+00
 -1.9432682e+00
 -4.8313847e-01
 -1.3218023e-01
 -2.4586954e+00
  2.5595357e+00
 -6.4717643e-02
 -2.9966843e-01
  2.0725191e+00
  2.1404156e-01
  4.1846465e-02
 -3.7474173e-01
 -3.2683637e-02
  1.1519513e+00
 -6.8071610e-01
  1.4320375e+00
  4.8675808e-01
  2.8632435e-01
 -3.8234437e-01
 -1.8969443e-02
 -2.4769820e-01
 -1.8544838e-01
  1.1180713e-01
 -9.8181862e-01
 -8.7125592e-02
 -1.8042852e-01
  5.9233081e-01
  1.9355717e+00
  2.6850131e-01
  2.3835507e-01
 -2.3037702e-01
  1.1434314e+00
  4.8934653e-01
  2.0553102e+00
  2.1716796e-01
  9.2045255e-02
 -9.3488729e-01
  1.7944364e-02
  2.0027402e-01
  5.3477812e-01
 -1.9408850e-01
  2.2857796e-01
 -1.0466447e-02
 -2.1413879e+00
  4.2846795e-02
 -1.0491449e-01
 -1.0333113e-01
  9.4570868e-02
  6.9476312e-01
 -4.3506108e-02
  5.8486395e-02
  5.4292031e-02
 -1.2658659e-01
  1.6076804e+00
  3.5747368e-02
  2.1014359e-02
  9.0799496e-02
  1.0818035e-01
  1.5752703e+00
 -4.3655209e-02
  1.6767527e-01
  3.0714485e-01
  5.4005560e-02
  2.0186041e-02
  1.4540085e-01
 -7.0702629e-03
 -4.3053053e-02
  1.0894339e-02
  8.7467015e-02
 -1.1103775e-01
 -7.0440434e-02
  3.5440925e-01
 -1.0398542e-02
 -1.4467040e-02
  2.4546189e-02
 -3.6946137e-02
  9.8319992e-02
 -1.5213493e-02
  4.8764877e-02
  7.7399187e-02
  1.4370741e-01
 -1.6619705e-02
  2.1063936e-01
  1.0739739e-01
  1.1379904e+00
  1.7359538e-01
  8.9250458e-03
  9.8245613e-02
  1.7173396e-02
  1.3909185e-01
  1.2418059e-01
 -1.7288822e-01
 -1.4518838e-02
 -4.0034913e-02
  9.0151154e-02
  9.5179237e-02
 -2.0682712e-03
 -1.5885407e-01
  2.3547628e+00
  2.9036659e-03
  7.9757631e-02
  2.0982416e-02
  2.9863933e-02
 -2.6542403e-02
 -4.5551591e-02
 -6.9028683e-02
  2.0574972e-02
 -1.8190634e-01
  6.0466819e-02
 -8.5891151e-01
  3.6143295e-02
 -4.9223877e-03
  1.3712159e-01
  4.1516710e-02
 -1.2784844e-03
 -1.4026244e-01
  1.1609718e-01
 -8.9323067e-04
  4.7763698e-02
 -4.7417257e-02
  7.5377747e-03
  5.0849314e-03
 -5.2088048e-02
 -2.7463019e-02
  1.9325839e-02
 -1.0556535e-01
 -4.2227226e-01
 -2.1766281e-01
 -4.0825397e-02
 -2.7914902e-02
  5.8817016e-03
 -2.8679809e-02
 -4.1261666e-02
  1.4832947e-02
  9.8286886e-03
  1.0458501e-01
  8.2271837e-02
 -6.0840551e-02
 -3.5082698e-02
  5.3307513e-04
  7.3062100e-02
 -3.7359476e-02
  1.3683936e-02
  9.5865680e-03
  3.4641214e-02
 -3.1385601e-03
  8.1242034e-03
 -1.3804717e-01
 -1.6738230e-02
 -7.5084046e-02
  6.0547281e-02
 -1.6304208e-02
 -4.8837334e-02
 -1.7798111e-02
 -3.0039135e-02
  1.1686649e-02
 -2.0489283e-03
  2.3398420e-02
  4.7875427e-02
  1.7468624e-02
  1.1722764e-02
  7.7950783e-02
 -3.6436006e-02
 -3.0337691e-02
 -5.1088739e-02
 -1.1102296e-02
 -8.4316331e-01
  9.6129514e-02
  1.8275449e-01
  2.5376865e-01
  5.1068716e-02
 -4.7186058e-02
 -3.2423407e-02
  4.7510183e-01
  2.2173410e-02
 -1.2949431e-02
  6.6832952e-02
 -2.7969968e-02
  7.3010224e-01
  1.1989256e-01
  2.1613942e-02
  1.6202753e-02
  1.3815631e-01
 -1.3909804e-02
  8.0889232e-02
 -7.4936755e-02
  5.2751426e-02
 -1.8078138e-03
  3.9802138e-03
 -4.4073470e-02
 -7.8548193e-02
  1.8814655e-01
  4.3546449e-02
  5.2931719e-02
 -5.2213293e-02
  6.8653231e-03
 -1.5012798e-01
  1.3893853e-01
  1.1214052e-02
 -6.8246904e-03
  4.0183187e-02
  1.9866064e-02
  2.6240256e-01
  1.0771004e-01
  3.0742345e-02
 -2.4559319e-02
  6.4901091e-02
  6.2420187e-03
  7.5994998e-02
 -4.8347414e-03
 -2.6072564e-02
 -2.7962379e-02
 -8.4683257e-01
  2.9143415e-02
  2.0371996e-02
 -1.3348710e-02
  2.3076683e-01
 -1.3949753e-01
  5.5954605e-01
 -3.6821237e-01
 -1.3056394e+00
  8.6388856e-02
 -2.7122638e+00
  3.3130133e-01
  8.0737218e-02
  2.2556438e-01
 -1.5336942e-02
  1.7839599e-01
  1.1701155e-01
  8.9640655e-02
  1.4307533e-01
  1.2227609e-01
 -1.3762608e-01
  1.5118196e+00
  1.1056516e-01
  1.7481846e-01
  1.6908724e-02
  1.2085740e-01
  9.5311038e-02
 -4.1962914e-02
  5.3415939e-02
  3.4636360e-01
  3.2305166e-01
  1.6482112e-01
 -9.1356821e-02
  8.6039133e-02
  9.0605564e-02
  1.1673397e-01
  2.0800045e-01
  1.2569395e-01
 -4.8019990e-02
  2.5524515e-01
 -3.1700432e-01
  1.5207580e-01
  2.4898216e-02
 -1.8369441e-01
 -2.8119135e-01
  1.9077501e-01
 -2.5223449e-01
 -7.0468895e-02
  3.1077180e-02
 -1.9190406e-02
  9.1683961e-02
 -3.5857629e-02
 -3.3687592e-02
 -5.2198317e-02
  3.0317781e-02
 -4.2746540e-02
  1.6800040e-02
  2.2011310e-01
  5.1931548e-01
  1.5447793e+00
  2.2046497e+00
 -6.8854433e-01
 -3.4473734e+00
  5.0066046e-02
 -1.4426035e+00
 -8.9149565e-01
  1.5667018e+00
  3.8652149e-01
  4.8692408e-01
 -3.6919296e-01
 -4.5385525e-01
  8.6081348e-02
 -1.2699653e+00
  5.2910691e-01
  1.2226088e-01
 -2.4595890e+00
  2.1150565e-01
  1.7560707e+00
 -9.9607080e-02
  8.9321971e-02
  1.0706712e+00
  7.0079464e-01
 -1.7399379e+00
 -1.3038746e-01
  2.2403188e-01
  9.3624133e-01
 -1.3113116e+00
 -8.4417456e-01
 -1.6866174e+00
  4.0323827e-01
  6.9552410e-01
 -1.1701318e+00
  7.7944255e-01
 -1.4632629e+00
 -1.9916029e+00
  1.1228511e+00
 -2.9842517e+00
 -1.0913676e-01
 -6.0999427e-02
  4.0136892e-01
 -4.5969881e-02
 -1.1959984e+00
 -7.8713037e-02
 -5.5869021e-02
  1.9542244e-01
  3.2568669e-01
  1.1253642e-01
  2.2047911e-02
  1.2025516e-01
  7.5841524e-02
 -3.0704865e-01
  1.2483673e+00
 -8.8990882e-02
 -5.4244030e-02
 -9.7326122e-02
 -2.3442041e-02
 -5.5573291e-01
  1.2326311e-01
  4.8346570e-01
  3.0521250e-01
 -1.1463776e-01
 -3.3861727e-02
 -3.6188010e-02
  6.9074467e-02
  5.3232223e-02
  1.2375382e-03
  8.2013518e-02
 -5.7835724e-02
 -5.2184723e-02
  1.3025166e-01
 -3.5983529e-02
  5.5959906e-02
  1.0252196e-01
 -1.8946212e-02
  1.6475065e-02
 -7.2533071e-02
  3.5451531e-02
 -7.2985061e-02
  4.7729743e-01
 -6.6481675e-03
 -8.1580348e-02
  1.3792220e-01
  7.3480278e-02
  1.9587805e-03
 -4.6857461e-02
  1.2963342e-03
 -1.0842790e-01
  1.6349804e-01
  1.4145815e-01
 -4.1312687e-02
  3.1239485e-02
 -1.3250367e-02
  1.0229406e-01
  2.5202581e-01
  2.0885905e-02
  9.0948362e-03
  2.1500748e-02
 -1.4130896e-03
  6.0345858e-02
 -1.0152963e-02
  3.1024428e-02
 -2.5125291e-02
 -3.9150540e-02
 -1.2855790e-02
  5.0430588e-02
 -6.3568793e-02
  1.0717501e-01
  1.2110629e+00
 -5.2348477e-01
  9.7841436e-01
  2.1521215e-01
 -3.6161783e+00
 -7.1819913e-01
 -7.3181337e-01
 -1.2107607e+00
 -2.1993555e-01
  7.0040262e-01
 -1.1348505e-01
  2.0772302e-01
  2.9046080e-01
 -1.7129453e-01
 -1.7928500e-02
  2.7257451e-01
 -4.4368184e-01
  1.8112819e-01
  2.8522706e-01
 -1.6271502e+00
 -2.4867490e-01
  2.2277173e-02
  6.1393702e-01
 -5.8755541e-01
  1.3215610e-01
  1.0202286e+00
  2.7087224e-01
  5.2259976e-01
 -2.3800763e-01
 -1.3513120e-01
  3.9547330e-01
  6.6276264e-01
 -5.8693618e-01
  4.8877236e-01
  9.4859326e-01
 -4.4706953e-01
  4.6828696e-01
  1.6306049e-01
  3.6925592e-02
  3.5435754e-01
 -1.0229611e+00
 -5.9645446e-03
  1.2084965e-01
 -9.1155326e-01
  2.7212879e-02
 -5.7634860e-01
  2.1796870e-01
  1.4757493e-01
 -3.9778978e-02
  1.0579067e-01
 -7.7099904e-02
 -1.3999899e-01
  1.1282039e-01
  4.3424315e+00
 -9.4181228e-01
  1.0366967e+00
 -1.3855268e+00
  1.3562098e+00
 -2.2626889e+00
 -2.0486832e+00
  3.9964824e+00
  3.3485946e-01
 -3.1782210e-01
  3.0771926e-01
 -6.9442904e-03
  1.4453587e-01
  1.0942096e+00
 -1.0647559e+00
  9.4647723e-01
 -5.5589306e-01
 -2.4336407e+00
  8.6001575e-01
 -1.0497434e-01
 -8.3162814e-01
  4.9747199e-01
  3.8527992e-01
  1.5280341e-01
 -3.5572180e-01
  6.2255555e-01
  3.6557999e-01
  9.8293006e-02
 -2.5745314e-02
  2.0338263e-01
  4.4491902e-01
  6.1370111e-01
 -2.1253841e-01
 -1.9391184e-01
 -5.6780761e-01
 -1.9703636e+00
 -1.1772519e+00
  3.6729920e-01
  2.0664969e-01
  1.5800685e+00
 -3.0483380e-01
  6.3495743e-01
 -5.5717969e-01
 -6.6071028e-01
 -9.8321140e-01
 -2.9471748e-02
 -4.9522421e-01
 -7.7735260e-02
  1.2180358e-01
 -1.7838836e-01
  1.5028098e-01
 -3.9384581e-02
 -1.8616702e-01
 -1.5943425e+00
  8.5970521e-02
 -9.4014276e-03
 -1.1658485e-02
  1.4145964e-02
 -9.0579212e-02
  1.4248857e-01
 -4.0037788e-02
  1.2061808e-01
 -1.1915778e-01
 -3.2914050e-02
 -9.9040000e-03
 -5.3659687e-03
  4.7000725e-02
 -4.5588096e-03
  2.8626710e-02
 -1.0095853e+00
 -9.7094961e-03
  1.4794669e-01
  1.1159322e-03
  2.2981446e-02
 -1.9119758e-03
  7.4363467e-03
 -2.6041077e-02
 -8.6199559e-02
  2.4402661e-02
 -3.8755712e-01
  1.1333649e-02
 -1.0053612e-02
 -5.8283605e-02
  1.8383132e-02
  3.2428864e-02
  2.5121137e-02
 -1.1765004e-02
  4.2646516e-02
 -6.0797618e-03
  5.0899360e-02
  6.5922126e-02
 -4.3829732e-02
  1.3791814e-02
  2.6844339e-02
  9.4557498e-03
  1.1138872e-01
  2.8314101e-02
  6.5824509e-02
  1.1370028e-02
  2.0740343e-02
 -1.0258633e-02
  1.8217098e-02
  1.2862600e-03
 -1.2432571e-02
  1.8126841e-03
 -2.0334318e-02
  6.1968867e-02
 -3.6250107e-02
  1.3874313e+00
 -2.4484806e+00
  2.2873328e+00
  1.0855095e+00
 -3.9615052e+00
 -5.2495754e-01
 -1.7759924e+00
 -1.5484408e+00
 -2.3094933e+00
 -8.9567387e-03
  5.0741535e-01
 -4.8773352e-02
 -1.1459217e-01
  5.2856963e-02
 -1.8603390e-01
  3.1274099e-02
  1.3845608e-01
 -1.6174185e-01
  1.4201228e-01
  1.9360992e-01
 -3.3974785e-01
 -1.3367575e-01
 -1.3681453e-01
  3.9953360e-01
 -2.9050744e-01
  2.5490612e-01
  4.4039920e-01
  1.3342799e-01
  4.5789477e-01
 -4.4337976e-01
 -3.5108510e-01
  1.5013394e-01
  3.3279571e-01
  1.9315755e-01
  6.3570291e-01
  5.9607554e-02
 -3.7491824e-02
  2.8415132e-01
  1.0127813e-03
 -1.2637548e-01
 -7.9757469e-03
 -4.0308169e-01
  9.2912251e-01
  1.8153907e+00
  6.0027754e-01
  1.5650773e+00
 -1.6532055e-01
  9.2878684e-02
  7.3928572e-03
 -2.2584174e-03
  1.6720498e-02
  9.5295921e-02
 -1.1939320e-01
 -3.0576402e-01
  2.3451211e+00
 -1.0846074e+00
  1.6718498e+00
  1.3036644e-01
  2.4190317e-01
 -1.9297577e-01
  4.3291745e+00
  2.2509847e+00
  1.3991258e+00
 -3.3401561e-01
  1.6531090e+00
 -8.7789834e-01
  1.2439326e+00
 -2.8891876e-01
 -1.2386318e-01
  6.8241036e-01
  8.7411350e-01
  1.4590403e+00
  1.6513901e-02
  2.2451532e+00
  2.5207481e-01
  1.4890645e+00
  9.7849029e-01
 -8.4736156e-01
 -2.0037827e+00
  9.8604387e-01
 -3.0341148e+00
  4.5173141e-01
 -4.9763218e-01
 -1.8350190e-01
  1.5921217e+00
 -1.0288967e+00
 -1.4740331e+00
  1.7712196e+00
  2.4523592e+00
 -4.6954122e+00
 -1.0711517e+00
  2.7828445e+00
 -1.1475126e+00
  6.3329053e-01
 -1.7188813e-01
  5.0432116e-01
  2.5224382e-01
  1.9969859e+00
 -3.7682312e+00
  1.5399778e-01
 -4.0633348e-01
 -2.3453210e-01
 -2.5742590e-01
 -9.5960982e-02
  4.2273960e-01
  1.9847615e-01
 -2.5210676e-01
  1.5875434e+00
  1.9790992e+00
 -1.1447577e+00
 -8.4921497e-01
 -8.2756603e-01
  3.9848292e+00
  1.1277670e+00
 -3.3998797e+00
  1.5720277e+00
  1.8284554e+00
 -8.8744533e-01
  1.1949619e-01
  2.0006591e-01
 -1.7919336e-01
  3.9344719e-01
  7.4271488e-01
 -2.7136173e+00
  9.2664713e-01
 -2.5639760e-01
 -6.3334748e-02
 -1.3324998e-02
  3.8637313e-01
  5.6187741e-02
 -5.4081127e-02
 -9.4994217e-01
  1.4087071e+00
 -5.7562572e-01
 -1.7219441e+00
 -3.7025067e-01
  4.1057625e-01
  4.2240727e-01
  1.9560008e-01
  5.4589164e-01
  5.1225764e-01
 -1.1272409e+00
 -7.4704087e-01
 -5.5012770e-02
  2.4282899e-01
 -2.4652334e-01
  3.9842522e-01
  2.9887518e-01
  6.3947684e-01
 -4.5914420e-01
  7.1364343e-01
  6.0049510e-01
 -5.7443726e-01
  1.0511362e-01
 -2.2293959e-02
  9.2924513e-02
 -6.7983650e-02
  1.8986227e-01
 -1.1809560e-01
 -3.6410314e-01
  1.9158880e-01
 -8.1018335e-01
  4.1926481e-02
  2.2037721e-01
  1.1145065e+00
 -5.0184631e-01
 -5.1609386e-02
 -1.8385452e+00
 -4.9871993e-01
  1.2315675e+00
  1.4019635e+00
 -1.5661597e-01
  2.3030081e+00
 -5.8584821e-01
  7.8810535e-02
  2.0879342e-01
 -9.0342176e-01
  9.7816259e-02
 -7.5194120e-02
 -5.3911191e-01
  1.4992705e-01
 -4.8658979e-01
  9.9221341e-02
 -1.3890944e-02
  2.7144116e-01
  5.4074717e-01
 -2.5910687e-01
 -4.0475905e-01
 -3.2215967e+00
 -2.5554615e-01
  3.2048092e+00
 -1.0408696e+00
 -9.4715752e-02
 -1.6050544e-01
 -1.3097769e-01
 -4.6076891e-01
  2.8881395e-01
 -1.6334493e+00
  4.1048750e-01
  5.7061291e-01
 -6.6327572e-01
  5.7359290e-01
  1.6277890e-01
  2.1780593e+00
  3.6866907e-02
 -2.4105236e-01
 -2.3908393e+00
 -1.6738333e-01
 -4.4347463e+00
  1.3926281e-01
  1.0387885e-01
  5.7543110e-02
  4.9538810e-02
  1.7096022e-01
 -1.2594458e-01
 -5.4872596e-01
  7.2907758e-01
  1.3633921e+00
  1.5571852e-01
  1.2405199e+00
  9.0573329e-01
  6.7006469e-01
  8.4795725e-01
 -1.4854683e-01
 -4.6460905e+00
  8.5720845e-02
 -1.8554620e+00
  2.9999527e-01
 -5.2274533e-02
  1.1037578e-01
  1.6872277e-02
  6.0063809e-02
 -2.2723360e-01
  1.5993525e-01
 -2.4162458e-01
  4.9894929e+00
  1.9308368e+00
 -4.0364593e-01
 -3.6242309e-01
 -3.0400997e-01
 -4.4424906e-01
 -1.5484148e-01
 -4.0299463e-01
  5.4549571e-02
  2.1824183e+00
  3.8452504e+00
 -2.2176918e-01
  6.3349888e-02
  6.2412930e-01
 -4.1338390e-01
 -1.3989899e-01
  3.8698918e-01
  7.5348848e-01
  1.5915847e+00
  1.3022232e+00
 -3.9168570e-02
  4.7467521e-01
 -3.9157268e-01
  3.3376071e-01
 -9.1102600e-01
 -5.9499264e-01
 -6.4306639e-02
  2.4979660e-01
 -2.3577328e-01
  6.6559441e-02
  1.8618843e-02
  7.1388572e-03
  3.3516649e-02
  2.1804886e-02
 -6.0893321e-01
  3.4764633e-02
 -2.7388823e+00
  2.3872230e+00
 -1.9823630e+00
 -3.7630677e-01
  3.8093770e-01
  1.1284158e+00
  6.3645494e-01
 -5.6199980e-01
 -6.4144087e-01
 -6.4485997e-01
  3.2646728e-01
 -1.4384514e+00
  4.7374070e-02
 -6.6104449e-02
 -5.6559438e-01
 -6.1066276e-01
  1.4989471e+00
 -3.3521959e-01
  2.8694388e-01
 -8.3569378e-01
 -2.8496435e+00
  1.7083415e-01
 -1.1516159e+00
  1.1360570e+00
  2.7755374e-02
  2.1702504e+00
 -9.1172862e-01
 -2.4350905e+00
  4.1002896e-01
  2.0860077e-01
  7.8906059e-01
 -2.9162961e-01
 -2.5437778e-01
 -8.9593649e-01
  1.7653508e+00
  2.0318723e+00
 -7.5486875e-01
 -3.7498030e-01
 -2.8097636e-01
  8.7338835e-01
  9.1333562e-01
 -3.8003168e-01
  4.2794028e-01
 -1.8890204e+00
 -5.9330054e-02
  3.7442523e-01
 -2.4790505e-02
  3.7450081e-01
 -3.9399120e-01
  1.3706712e-02
  3.8266072e-01
  1.7580204e-01
  4.2366705e+00
  7.7545089e-01
  1.2780149e+00
 -6.7846990e-01
 -2.6129990e+00
 -1.2294518e+00
 -8.1707287e-01
  3.4400105e-01
 -7.8948781e-02
  1.3677961e-01
  3.2372677e-01
 -8.5699791e-01
 -1.2167668e-01
 -1.0285728e+00
  6.5008318e-01
  1.3881679e-02
 -4.2607349e-01
 -7.8740090e-01
  2.1170666e+00
  6.7251885e-01
 -5.4288155e-01
  4.6621388e-01
  3.8231069e-01
  5.8529049e-01
 -3.4988601e-02
 -2.1506505e+00
 -5.1866227e-01
  1.7641221e+00
  1.8408000e-01
 -1.4667836e+00
  7.3636568e-01
  8.7400210e-01
  6.2624723e-01
  3.7469423e-01
  1.2178667e+00
  1.2202072e+00
  2.2359619e+00
 -1.7968485e+00
 -9.9974120e-01
  3.4487075e-01
 -9.7772372e-01
  9.8899472e-01
  1.1309766e+00
  7.3351461e-01
  4.3523450e+00
  2.9953274e-01
 -5.8406746e-01
  8.8685706e-02
 -2.8260031e-01
  2.4027076e-01
  1.4293018e-01
 -5.5398065e-01
  4.2464119e-01
  1.1805100e-02
  3.4307510e-01
  8.1616294e-01
  2.5580597e+00
 -1.0576894e+00
  4.6257716e-01
  3.3796341e+00
 -3.3329804e+00
  2.1854844e+00
 -1.1623197e+00
  2.6871481e+00
  2.9853550e-01
  5.2169263e-01
  5.4770250e-02
 -1.8880168e+00
  3.6483582e-02
 -5.8953911e-01
 -2.4312159e-01
 -1.4718772e-01
  2.1645854e-01
  1.2636027e+00
 -1.1004534e-01
 -1.3144732e+00
 -1.3864294e+00
  6.0533643e-02
  1.1542271e+00
 -8.5647070e-01
 -2.0519092e+00
 -2.6886079e+00
  1.1287997e+00
 -1.4982469e-01
 -3.2238489e-01
 -9.9500883e-01
  1.3536552e+00
 -1.4874025e-01
  8.6199462e-01
  1.2238079e+00
 -4.9177637e+00
 -1.7387758e+00
  7.1632665e-01
  1.1069784e+00
 -1.6216326e+00
  3.0116498e-01
  3.2246137e+00
  4.2524332e-01
  3.3579834e+00
 -2.1447027e+00
 -1.8797359e-01
 -7.5292188e-01
  4.2328946e-02
  1.2331645e-01
  4.8657577e-02
  1.8954393e-01
  5.7920861e-01
 -8.6205345e-01
  1.9457039e+00
  7.6613897e-01
  4.9922228e-01
 -2.2953798e-01
  1.5110894e-01
  4.2175984e+00
  9.8490375e-01
 -7.8989953e-01
 -1.6860365e+00
  1.4350250e-01
  9.2931896e-01
 -2.2625488e-01
  4.0687837e-02
 -3.3754608e-01
  1.3833070e+00
 -9.9439043e-01
  2.9608169e+00
 -8.2147175e-01
 -7.0310074e-01
 -1.4008092e+00
 -1.1235434e+00
  6.2834555e-01
 -1.7869637e+00
 -5.6744874e-01
 -1.1725897e+00
  4.5863390e-01
 -2.1177797e+00
 -3.6876931e+00
  2.6152284e+00
 -2.2208641e-01
 -3.1578979e-01
  7.6718539e-01
 -4.7180569e-01
  3.3697972e-01
  8.7664312e-01
 -2.6529760e+00
  2.1069369e-01
  1.3688480e+00
 -9.0170890e-01
  4.2958584e+00
 -6.5066969e-01
  2.4765870e-01
 -7.9961568e-01
  8.2375538e-01
  2.2038579e+00
  7.9202563e-01
 -2.6766375e-01
  3.7756287e-02
 -1.3636791e+00
  4.9517862e-02
 -2.6969772e-02
  3.3076605e-01
 -9.9052181e-03
 -5.8888102e-01
  1.0729296e+00
 -1.9870857e+00
 -9.0464342e-01
 -1.3970675e+00
 -4.9112874e-01
 -1.7541970e+00
  1.9369442e+00
  4.9188763e-01
 -3.7848556e-01
  1.0337479e+00
 -1.5264614e-01
 -1.9217689e-01
  3.2982406e-01
  1.2048990e-02
 -2.9529601e-02
  6.2409735e-01
 -6.1948013e-01
  9.8418750e-02
  4.0300310e-01
  3.4089528e-02
 -2.3316488e-01
 -4.1017205e-01
  8.6542137e-02
  5.6705438e-02
 -5.4037593e-02
  4.8465449e-01
 -3.1834987e-03
 -1.1232610e+00
 -3.1573692e-01
 -4.3117920e-01
  1.2019729e-01
  3.6631036e-01
  7.7486224e-02
  1.5199311e-01
  3.2204032e-01
  1.1784527e-01
  1.0516328e+00
 -2.2201006e-01
 -8.9889687e-01
  6.4869529e-01
 -3.9703804e-01
 -1.5178770e-01
 -1.1163380e+00
  6.9427821e-03
 -6.6437608e-01
  1.7904345e+00
  7.0794336e-02
  2.2732158e-01
  1.5518861e-02
 -4.0426146e-02
 -3.1511919e-03
 -5.3995624e-02
 -8.1098519e-02
  2.1205343e-01
  3.8011971e-01
 -9.7705734e-01
  7.6228029e-01
  1.2486024e+00
  1.7678667e+00
 -1.2742739e+00
 -2.4236922e+00
  1.1332923e+00
 -2.4420907e-01
  8.5527465e-02
 -7.0698008e-02
 -1.4714398e+00
  1.1307970e+00
 -8.1633985e-01
 -1.4278371e+00
 -1.8659177e+00
  9.1785109e-01
 -2.3431923e+00
 -1.5108390e+00
 -1.0081096e+00
 -2.5125134e+00
  1.2314829e+00
 -1.6022623e+00
  1.4116021e+00
  1.4933501e+00
 -1.6821824e+00
  7.2961462e-01
  1.2217883e+00
 -3.7324667e-02
  1.2359409e+00
  2.1058092e+00
 -6.5982848e-01
  1.8000110e+00
 -1.4829299e+00
 -3.0624071e-01
  2.5040755e+00
 -2.2328141e+00
 -9.9197519e-01
  6.3820040e-01
  1.4172530e+00
  7.2816747e-01
 -2.1374588e+00
 -7.1879232e-01
 -5.9182519e-01
 -2.4425695e+00
 -8.1081140e-01
  1.9098932e-01
 -1.6088917e+00
 -1.7470251e+00
 -1.1506574e+00
  1.3854616e+00
 -1.6495982e+00
  8.0889314e-01
 -6.5837657e-01
 -9.0530330e-01
 -1.4740810e+00
  2.3035949e-01
 -1.9162539e-01
  1.5255574e+00
 -1.3831237e-01
  1.1933815e+00
  9.0358889e-01
 -2.7412310e+00
 -3.3692915e+00
  1.2665462e+00
  2.7181242e+00
  1.0870814e+00
  2.6084795e+00
 -7.4958545e-01
  6.0091645e-01
 -4.9504760e-01
  2.1191823e+00
  7.1023703e-01
  1.8148425e+00
 -4.5049411e-01
  7.0825058e-01
  3.6824872e+00
  4.4063349e+00
 -3.2422283e-01
  3.7659398e-01
 -3.2987982e-02
 -1.8867207e+00
 -7.7887815e-01
  1.0098605e+00
 -2.6548797e-01
  2.7579286e+00
  9.7323544e-02
 -1.5171999e+00
 -5.6276069e+00
 -7.0508891e-01
  4.0844460e+00
 -3.5998297e-01
  2.9443178e+00
 -1.8863572e+00
 -1.6119784e+00
 -4.1175976e-01
  4.8021417e+00
 -6.9677889e-01
 -6.2116975e-01
 -4.0208130e+00
  2.0048990e+00
 -6.9216892e-02
 -3.7052033e+00
 -1.8474871e+00
  6.0979056e-01
  9.6098298e-01
 -1.9869106e+00
 -4.4610519e+00
  6.4110260e+00
 -5.7182479e+00
  7.2650081e-01
  2.4903204e+00
  6.5744621e-01
  2.3797967e+00
 -1.7287341e+00
  1.0695548e+00
 -3.6786816e-01
  2.4984972e+00
  6.0801148e-01
 -6.5386373e-01
  1.5727091e+00
 -4.9783478e+00
  2.7737558e-01
 -1.0808694e-01
  3.1669319e-01
  1.2687348e+00
 -1.1778253e+00
  1.7314301e-01
 -2.9098403e+00
 -1.0565178e+00
  2.3475300e-01
 -3.7912849e-01
 -5.3288054e+00
 -1.0332187e+00
 -3.7086787e+00
 -4.3905368e+00
  1.9488994e+00
  4.9075856e+00
 -1.2945926e+00
 -3.5713642e+00
  7.7535701e-01
  1.7392356e+00
  5.0695425e-01
 -2.5535825e-01
 -5.4596788e-01
  2.6903086e+00
  3.2721573e-01
 -1.9597470e+00
  3.7565944e-01
  1.0336399e+00
 -6.5476346e-01
  1.1542599e-02
 -2.8473083e-02
  6.4795367e-02
 -1.2257524e-01
 -1.1448985e-01
  6.4932883e-01
 -1.5369335e-01
  6.5053970e-01
 -1.6285630e+00
 -1.7153471e+00
  1.0253214e+00
  5.6218398e-01
 -1.0736235e-01
 -5.7274985e-01
  3.9986008e-01
  1.0393198e+00
  2.5417802e-01
 -5.2359623e-01
  1.0475339e-01
 -2.7097481e-01
 -5.1228023e-01
 -1.9217087e-01
 -2.7981156e-01
 -6.8251498e-02
 -1.2915330e+00
  2.7518194e+00
 -1.1044633e+00
 -2.2549368e-01
  5.8388624e-02
 -1.0384171e+00
  1.9909005e-01
 -1.9332525e-01
 -8.5220271e-01
  1.6918699e-01
  1.5346630e+00
 -5.6033883e-02
 -1.2068144e-02
 -3.7789773e-02
  5.7941771e-01
 -3.5796504e-02
  4.4080436e-02
  1.2568039e-01
  7.1664624e-02
  2.9283744e-01
 -7.1937454e-01
 -1.1825323e-01
  1.3046235e-01
  7.9961818e-01
 -1.4830719e+00
 -1.4565534e-02
  4.2067680e-01
 -1.9034503e+00
  1.1138450e+00
 -1.9177716e-02
 -6.0192972e-02
  1.3955833e-01
  9.3037762e-02
  3.6432005e-02
 -1.1425144e-01
 -5.4928124e-02
  1.6124721e-01
 -1.0639801e-01
  4.1150540e-02
 -5.4987527e-02
  7.1088217e-02
  9.5392369e-02
  3.0502212e-01
  5.5480105e-01
  1.7234789e-02
  3.5790727e-02
  1.6456610e-01
  1.8550597e-01
 -4.8608258e-02
  8.3357871e-02
  2.7533922e-01
 -2.4108386e-01
  2.6384398e-02
 -8.4153460e-03
  4.7209707e-01
  5.9839797e-01
  4.8356324e-02
 -2.0567028e-02
 -5.9658974e-02
  2.8826717e-01
  8.3458650e-01
 -1.1093599e-01
  1.1029626e-01
 -1.3730098e-01
  4.9589765e-01
 -3.3527671e-03
 -6.5739289e-02
  5.3665970e-02
 -9.7353822e-03
  3.1400375e-02
 -3.9193396e-02
 -2.6396792e-02
 -5.9127897e-02
 -1.4606330e-01
  1.6962694e-02
 -1.8631546e-02
  1.3797930e-01
 -2.7597374e-01
  1.6058689e-01
 -1.0248830e-01
 -1.1604642e+00
  1.7298357e+00
  1.9173443e-02
  6.5164387e-02
  7.7485569e-02
 -9.2215620e-02
 -9.2756236e-03
 -7.5977929e-02
  3.8887259e-02
  1.2900707e+00
 -3.3430625e-02
  9.3631662e-02
 -6.8056017e-02
  8.4661059e-02
  1.5754451e-01
  1.3061726e-01
 -1.3901928e-01
  2.9766161e-02
 -2.7094511e-02
  1.9808578e-01
 -2.9701672e-02
 -1.5853679e-01
  8.5710272e-02
 -8.3466545e-02
 -2.0687342e-01
 -6.1679423e-02
 -2.8682277e-02
  1.4606932e+00
 -7.9736538e-02
 -1.8805075e-01
 -6.8122976e-02
 -4.2102218e-02
 -9.7696513e-02
 -2.2725731e-01
 -6.4371936e-02
  2.7822435e-02
 -2.1331546e-01
 -9.5850550e-02
 -4.0632982e-02
 -8.2138246e-03
  8.2204074e-01
 -4.8285007e-02
  2.4920173e-02
 -2.4449788e-02
  1.0043332e-02
  5.8543213e-02
  4.8355557e-02
  1.0946321e-01
  9.7651649e-01
  8.9263541e-01
  4.7709030e-01
  8.1841546e-01
 -5.4620206e-02
  6.9726753e-01
 -1.0099536e+00
  2.5920305e-01
  6.9134498e-01
  2.6483530e-01
 -4.1325638e-01
 -2.9666603e-01
 -9.1452204e-02
 -1.6150138e+00
 -4.4050539e-01
  2.7904707e-01
 -3.6137915e-01
 -3.4802042e-02
  7.8654104e-01
 -1.0262597e+00
 -1.4409371e-01
  5.5170169e+00
  1.8428801e+00
 -1.2499891e-01
  2.2876026e-01
 -1.8093269e-01
 -3.8753834e-01
  4.0488574e-01
 -4.0948787e-01
  9.5986396e-01
 -2.7405968e-01
 -1.9996092e-01
 -6.9198996e-01
 -1.3182350e-01
  1.6696718e-01
  1.1081774e+00
 -1.5966618e-01
 -5.0447696e-01
  9.8691471e-02
  3.8393137e-01
  6.6262889e+00
 -1.2567350e+00
  1.7145449e-01
 -1.5834831e-01
  1.7741722e+00
 -8.0111548e-02
  5.0536782e-02
 -2.6658250e-02
  1.0920027e-01
 -1.4884165e-01
  7.3529832e-02
  2.6863169e-02
  9.3203098e-02
  3.2315616e-02
  3.6068952e-01
  4.3599653e-01
  1.5293022e+00
 -2.0742886e+00
 -1.7105899e+00
  6.7661238e-01
  1.1455704e-01
 -3.9502713e-01
  4.0340185e+00
 -2.7666396e-01
 -1.3740775e-01
  2.9551300e-01
 -1.4834968e-02
  6.0357666e-01
 -8.3356731e-02
 -4.7392594e-03
  3.2404813e-01
 -3.0943653e-01
  1.0902416e+00
 -1.3323711e-01
  4.7534367e-01
  4.3261650e-01
  3.5672542e-01
 -1.6707371e+00
 -2.4785551e-01
 -3.2436168e-01
 -5.2978969e-03
  1.2186180e+00
 -1.1518466e-01
  3.0873406e-01
  6.9129819e-01
  1.3340488e-01
  7.1949732e-01
  5.9277307e-02
  1.4731710e+00
  3.6482301e-01
 -1.0694668e+00
 -5.6737408e-02
  1.8511003e-01
  5.0650406e-01
 -2.5923094e-01
  3.1419568e-02
 -5.5291647e-01
  1.3191056e+00
  8.0057859e-02
 -2.8046328e-01
 -5.0096855e-02
  1.9281666e-01
 -8.2453623e-02
 -1.3975127e-01
 -1.4850189e-01
 -1.1369527e-01
 -1.5217058e-01
 -1.7945638e-01
  2.9967830e-01
  3.8514268e-01
  1.3974477e-01
 -1.2082037e-01
 -1.2646494e+00
 -1.1325008e-01
  2.3888965e+00
 -1.4228593e+00
  5.7385707e-01
  5.9673332e-02
  2.8888971e-02
 -2.6560524e-02
 -3.8079485e-02
 -1.5901549e-02
 -1.3482024e-01
  8.7787509e-02
 -5.2775387e-02
  1.0957203e-01
 -3.9664742e-01
 -3.2151416e-02
  2.1044385e-01
  1.0525571e-01
 -1.6512573e-02
 -4.8575842e-01
 -1.1246974e-01
  1.3852090e-01
 -4.2706121e-02
  2.3459075e-01
  6.0976747e-02
 -2.7898493e-01
 -4.0635261e-01
 -6.9347128e-02
  3.3187486e-02
 -1.7205709e-01
 -7.3720700e-01
 -1.2154936e+00
  1.0191067e-01
  4.1230153e-02
  1.9482201e-01
 -1.3157497e-01
  3.2203276e-02
 -5.7170098e-04
 -1.3062349e-01
 -3.8421509e-01
 -6.1548609e-01
  1.7644600e-04
 -3.4193334e-04
 -8.8764932e-03
 -4.3491432e-01
 -4.7256071e-02
 -1.1972362e-02
 -1.9734209e-02
 -2.3727058e-03
  2.9955138e-02
 -3.9105922e-01
 -5.5511754e-02
 -2.5025677e-02
 -1.7628303e-01
 -1.9736816e-01
 -1.3326597e-02
 -5.7616752e-01
 -2.6043421e-01
  2.6309139e-01
  2.8409157e-02
  3.2398835e-02
  4.6470724e-02
  1.0951085e-01
 -3.2926302e-02
 -2.8072901e-02
 -3.3310708e-02
  4.8625492e-02
  6.1467092e-04
  4.3531703e-03
  1.8455166e-02
 -2.1129206e-02
  7.3604360e-02
 -9.2185631e-02
 -5.1705722e-02
 -1.9447001e-02
 -9.4437055e-02
  2.5182825e-03
 -2.2686237e-01
  6.4536311e-02
  5.0071895e-02
 -2.1377774e-02
  7.1728595e-02
 -5.6452020e-03
 -4.8960015e-02
 -6.1473232e-02
 -1.6783710e-01
  2.7357474e-02
  5.4618898e-03
 -1.3377135e-01
 -6.7065470e-02
  7.1507245e-03
  2.4606951e-01
 -1.5321053e-02
 -1.5796730e-01
 -7.6597504e-02
 -4.0647276e-02
  1.6772073e-02
 -6.4741895e-03
 -5.4609604e-02
 -9.9703938e-02
  1.8895555e-02
 -5.0350457e-02
 -1.5125521e-02
  8.5513508e-03
  1.1429194e-01
 -2.6218886e-02
 -3.4526672e-02
 -4.8235804e-02
  4.4584718e-02
 -3.9170929e-03
  4.0570432e-01
  1.3471076e-01
  2.5955239e-02
  2.2661498e-02
  3.4354243e-02
 -4.7018550e-02
 -7.0336829e-03
 -3.9917853e-02
  1.9658092e-02
 -1.7845323e-02
 -1.1958045e-02
 -1.5606523e-02
 -4.2055797e-02
  1.7999589e-03
  3.8919676e-02
  8.8186152e-03
 -8.2112655e-02
 -2.1922709e-02
 -2.4499759e-02
  2.8438089e-02
 -2.8165614e-02
 -3.9240640e-02
  5.4315757e-02
 -4.8566799e-04
 -3.3244472e-02
 -1.5714478e-02
 -2.8505182e-02
  1.2227078e-02
 -2.9320700e-02
 -5.6226134e-02
  1.3559650e-01
  1.4205280e-02
 -1.8325031e-02
 -8.3564678e-03
  3.2796398e-02
 -3.2641698e-02
 -3.9651450e-02
 -9.3423843e-02
  1.8844923e-02
 -1.9332306e-02
  1.5718037e-02
 -3.0804256e-02
  8.1514642e-03
 -2.3945175e-02
  9.2715416e-03
  4.3836102e-02
  1.7551014e-02
  4.3315678e-03
 -2.2646897e+00
  2.6470339e-01
  3.0717832e-01
  4.0155706e-01
 -4.0669841e-01
  7.3626298e-01
 -3.7067268e-02
 -3.0484526e+00
  1.7543901e+00
  3.2807261e-02
 -2.7441001e-01
  1.7623761e-01
  1.1389075e-03
  2.7688974e-01
 -1.3781501e-01
 -5.5391297e-02
  1.9610187e-01
 -2.1808298e-01
 -2.4470705e-01
 -1.9426450e-01
  5.1316243e-01
  4.7272006e-01
 -6.4771891e-01
 -1.4403409e-03
 -4.6628114e-02
 -1.1799313e+00
  1.0573288e+00
  1.0865897e-01
 -1.8419424e-01
  1.0930395e-01
  3.9376101e-01
 -3.6254299e-01
 -1.0614793e-01
 -4.7289331e-02
  1.3398672e+00
  8.2368189e-01
  4.1967884e-01
  1.4724837e-01
  2.7430364e-01
  5.8855760e-01
 -1.6353320e+00
  5.2100360e-01
 -3.6620137e-01
  7.8310233e-01
  9.3867284e-01
 -6.9276541e-02
 -1.6293819e-01
  1.1278937e-01
 -2.1643765e-02
  1.2644721e+00
 -1.4074575e-02
 -3.0399898e-01
 -9.7637601e-02
 -9.2358261e-02
  1.1076534e+00
 -8.8687313e-01
  1.4893891e+00
 -1.0472338e+00
 -3.7257472e-01
 -2.3693402e+00
 -4.4086456e-01
  1.4423499e+00
 -2.5350506e+00
  2.1651261e+00
  1.7580853e+00
 -9.2173362e-01
  3.7733474e-01
 -3.5944247e+00
  3.6195621e-01
 -6.0367066e-01
  1.4571240e+00
 -1.3951817e-01
  1.1156976e+00
  1.0608232e+00
  2.1761391e+00
  7.1703494e-01
 -1.8620399e+00
 -1.3417538e-01
 -5.6105214e-01
 -7.8179634e-01
 -1.1670239e+00
 -2.3187773e+00
  3.1120484e+00
 -4.3339532e-02
  7.6549703e-01
  2.5913739e-01
  8.7839651e-01
 -1.3476661e-01
  2.2902658e+00
  2.3137648e+00
 -8.0981094e-01
 -1.3584824e-01
  2.3333604e+00
  5.9138793e-01
 -3.5481102e+00
  1.6197793e+00
  1.8732256e+00
 -1.7709309e+00
 -6.9206327e-01
  1.6610495e+00
 -2.2777303e-01
  2.1859400e-01
 -6.7466050e-01
 -1.1788493e+00
 -6.8226546e-02
 -3.0693176e-01
  2.8123915e-01
  2.9959291e-01
  1.7599539e+00
  9.2843868e-02
 -3.1778803e-01
  2.8266162e-02
  1.8624326e+00
 -6.1179232e-03
 -4.8769286e-01
  6.8893409e-01
 -2.7218425e-01
  7.7688359e-02
  1.4225776e-01
 -1.3715285e-01
 -2.6527755e-02
 -1.2829079e-01
  9.3290843e-02
  4.8761967e-01
 -1.3776931e-01
  1.5863965e-01
 -1.1855877e-01
 -6.0059610e-03
 -3.1727858e-02
 -9.7280063e-02
 -1.7185630e-01
  8.6306982e-02
  1.6097060e-03
  1.4374417e-01
  2.8565323e-03
 -1.5821798e-01
  8.0397405e-02
  1.1089996e-02
 -1.4266016e-01
 -4.8591572e-01
  8.0655575e-02
  3.2351617e-02
 -2.1319687e-01
 -1.2799956e-01
 -9.8977365e-02
  2.0694034e-03
  4.8079938e-02
 -1.7191322e-01
  4.3062821e-01
  2.0172748e-01
  3.2405734e-02
 -1.0801288e-01
 -4.7788146e-01
  1.6901700e-02
  1.8410986e-02
 -8.0507612e-03
  4.0722314e-02
 -7.0849136e-02
  4.6316482e-02
  6.3616879e-02
  4.3941554e-02
  9.4468683e-02
 -1.7017367e+00
 -8.1607211e-01
 -8.8147688e-01
 -3.6423779e+00
 -1.1224509e+00
  1.6928595e+00
  1.4283073e+00
 -2.4592628e+00
  1.9016304e+00
 -5.9534645e-01
 -8.8550258e-01
  1.4267410e+00
 -3.3336848e-01
  2.1954195e-01
 -8.8541889e-01
 -1.6467654e+00
 -1.8900226e-01
 -1.0081943e+00
  9.5606107e-01
 -1.5904707e-01
 -2.2079101e-01
  2.3651114e-01
 -2.3242433e+00
 -1.1432339e+00
  2.7250558e-01
 -3.7809539e+00
  2.3040748e-03
  1.2660593e+00
 -9.5465428e-01
  1.6936675e+00
  1.3599427e+00
  5.2388525e+00
 -2.1143963e+00
 -1.3179910e+00
  1.8259690e+00
 -1.7684926e+00
 -1.8220678e-01
  1.1524998e-02
  3.8465300e-01
  4.0016112e+00
 -3.7214974e-01
 -3.2726276e-01
 -2.6454148e-01
  2.4646685e-01
 -2.5783983e-01
  6.6533885e-03
 -1.0874889e-01
  4.3555522e-01
 -3.2625759e-01
 -6.6600168e-01
 -1.9429316e-01
 -2.8078131e-02
 -6.3836187e-01
 -6.7824686e-01
  1.6552240e+00
 -1.6501827e+00
 -1.0366819e+00
  5.6644666e-01
 -1.0976497e+00
  1.6671711e-01
 -2.6440743e-01
 -1.7188208e-01
 -3.7798069e+00
 -7.5137302e-02
  8.7254889e-02
  3.1575465e-01
 -1.5296569e-01
 -7.4938959e-01
  3.1614390e-01
 -3.3650729e-01
  5.6434691e-01
 -1.5611021e-01
 -4.2577526e-01
  8.0822808e-01
  4.0181741e-01
  4.7900429e-01
 -1.0458790e+00
  1.8410002e+00
  2.6171899e-01
 -8.3445027e-02
  7.9791695e-02
 -2.3773627e-01
  1.1080210e+00
 -1.0538628e-01
 -3.7862504e-01
 -3.6742742e+00
  4.6943828e-01
 -7.2888786e-01
  6.2081420e-01
 -9.1317886e-01
 -5.9286676e-02
  9.6641503e-02
  1.3723130e+00
 -6.7023951e-01
 -1.6935019e+00
  2.9240116e-01
  3.4402728e-01
 -1.8101381e+00
 -4.3575612e-01
  2.7973574e-01
 -2.2705702e-01
  2.7119660e-01
 -6.7161724e-02
 -4.7952812e-02
 -1.1741106e-01
  5.4128353e-02
 -9.1287538e-02
  1.0140195e-01
  9.7550899e-01
 -8.9737427e-01
  5.7445920e-01
  2.8762335e-01
  1.9615930e+00
  1.1353869e+00
  1.1201664e+00
 -3.5952551e+00
 -7.4606186e-01
  7.2547816e-02
  3.5104003e-02
  4.8079467e-01
 -1.4413135e-01
  2.3603952e-01
  1.4936830e-01
  7.0926145e-02
 -2.2540529e-01
 -6.5624416e-02
 -5.1368022e-01
  2.7902883e-01
 -1.4121282e-01
  1.9662042e-01
  7.1733552e-01
  1.0597494e+00
 -1.0235123e-02
  5.0729948e-01
 -6.6338021e-01
  4.2384958e-01
 -3.0619107e-02
 -1.9270669e-01
  1.5865733e-01
  3.4055269e-01
  9.2359239e-01
 -2.8164673e-01
 -5.8244729e-01
  8.0995220e-01
  1.0378096e+00
  2.9363969e-01
  8.6020875e-01
 -2.6038039e-01
  1.7286341e+00
  6.7564237e-01
 -1.4612643e-01
  6.7590624e-01
  9.3521786e-01
  1.7608377e-01
 -1.5138383e-01
  7.5528570e-02
  8.7401740e-02
  1.3875203e-01
  6.6628426e-02
  1.3877444e-01
  1.6147153e-02
 -6.8341523e-02
 -2.4702984e-01
 -4.0446588e-01
 -4.5411310e-01
 -1.1127177e+00
 -6.0040865e-02
  2.3593700e-01
  1.4691120e+00
  1.3034648e+00
  5.6699198e-01
  1.2649877e-01
 -3.4210628e-01
  9.5076948e-02
  1.5742326e-01
  1.9287622e+00
  1.0926747e+00
  2.0062584e-01
  1.0721283e-01
 -2.9503098e-02
 -5.5166572e-01
  2.0022966e-01
  1.9435111e-01
  3.3473518e-01
  8.4765220e-01
  1.8334897e+00
  3.1404737e-01
  5.0075895e-01
  5.3916037e-01
 -2.3403436e-01
  1.5227039e-01
 -1.4542419e-01
  8.8790610e-02
 -1.4882642e+00
 -2.6156163e+00
 -5.8162488e-02
  1.2038041e-01
 -4.6676904e-01
  5.7778363e-03
  2.3944198e-01
 -3.0218744e-01
 -4.2269427e-02
  3.8293102e+00
  2.0359080e+00
  4.4236988e-02
  6.8941951e-01
  4.7121081e-01
  3.7745774e-02
  6.2210429e-02
  8.9453980e-02
 -2.2794316e-02
 -5.0375834e-02
  9.3228631e-02
 -2.6308843e-01
 -2.6366240e-01
 -2.9183593e-02
 -1.8425078e+00
 -9.9170214e-01
  5.5888885e-01
 -1.9304113e-01
  2.5403593e+00
  1.3299447e+00
  1.6947832e+00
 -3.0108726e+00
 -2.9737687e-01
  1.1689787e-01
  2.8106946e-01
  4.3425146e-01
  2.5159684e-01
 -4.3108410e-01
  4.6908509e-02
  2.8712806e-01
  7.7507216e-01
  2.4134642e-01
 -9.7049057e-02
 -4.5869744e-01
  3.9504045e-01
 -2.2296382e-01
 -3.1476882e+00
 -8.5393929e-01
 -6.9895118e-01
 -1.2284974e+00
 -6.0138470e-01
 -3.9975777e-01
 -3.0305086e-02
  1.7799024e-01
 -7.7762347e-01
 -6.1982888e-01
 -2.8753951e-01
  2.6377651e-01
 -4.9229302e+00
  4.7688982e-01
 -1.2278408e-01
 -1.5744986e-02
  5.7405597e-01
 -4.4883576e-01
 -6.1805326e-01
  9.7486928e-02
 -2.9492649e-01
 -1.1329441e+00
 -6.2105936e-01
  1.4799693e-01
  1.2628965e-01
 -1.9163977e-01
 -1.4453031e-01
 -2.5070444e-01
 -1.6476750e-01
 -1.9249409e-01
 -3.4966315e-03
  5.6830641e-02
 -1.7825836e-02
 -6.9074002e-03
 -4.4328194e-02
 -9.2683770e-02
  1.6817030e-01
 -1.3135090e-02
  1.7599238e-01
  2.9900795e-01
 -7.8394987e-02
  1.0362197e-02
  2.3624237e-01
 -2.7066644e-02
  6.1052204e-03
  4.5765091e-02
 -1.6932407e-02
  3.7981119e-02
 -1.6781241e-02
  2.4783079e-02
  7.6629035e-03
 -2.9093735e-02
  3.3127043e-02
  7.3319729e-03
 -1.4198858e-02
 -1.5759761e-02
  3.9417014e-02
 -3.7484434e-02
  2.8156647e-02
 -1.9952914e-02
  3.6130439e-02
 -2.2553474e-02
 -6.9075137e-02
 -9.2265086e-04
  2.1324160e-02
 -9.2407368e-02
 -4.7487199e-02
 -8.3198331e-02
 -3.8424328e-02
 -3.3475809e-02
  1.6753343e+00
  2.7150363e-02
  2.3804484e-02
 -1.4371013e-04
 -8.0830567e-02
 -1.4482714e-02
 -5.0396617e-03
 -1.2470156e-02
 -9.3457531e-03
 -1.0263917e-02
  1.8084677e-03
 -1.2858596e+00
 -2.1610176e-02
  9.8207807e-03
  2.0724587e-02
  7.7974550e-02
 -9.7478110e-01
 -7.4999928e-02
  4.1777921e-01
 -3.3533981e-01
 -1.8811669e+00
  4.2487699e-01
 -1.6584550e+00
 -4.9485829e-01
  2.1378405e+00
  1.3643953e-01
 -3.4242798e-02
  8.4924632e-01
  5.0434586e-02
  5.6066912e-02
 -1.4124501e-01
  2.5739048e-02
  1.8780659e-01
 -6.2190600e-02
  1.8238428e-01
 -4.2610238e-03
  3.1195235e-01
  3.7738225e-01
  3.5832572e-01
 -2.0859754e+00
  2.3876399e-02
  8.0351365e-01
  2.8211054e-01
  3.4094465e-01
 -7.2620749e-03
  7.8703098e-02
  2.9038224e-01
 -7.3604226e-02
 -1.1207582e-01
  1.2149137e-01
  4.8130065e-01
  4.0901083e-01
  3.2693103e-01
  5.6736238e-02
  1.9726203e-01
  1.2191651e-01
  6.1337603e-04
 -1.0006989e-01
 -4.5693469e-01
  5.8516788e-01
  4.7298002e-01
  7.0974387e-02
 -6.8902440e-02
  8.2352661e-02
 -5.3534489e-02
  2.0452352e-01
  8.3314136e-02
 -1.6146827e-01
 -1.5601331e-01
 -7.0095554e-02
  1.6626886e-01
 -2.4549589e-02
  1.1812487e-02
  1.5147251e-01
  1.6362157e+00
 -7.0384376e-02
 -4.0086699e-01
 -5.7893461e-01
  1.8701048e-01
  4.4123333e-02
 -1.4207920e-02
 -1.9727064e-02
 -2.6274089e-02
  3.5050724e-02
  3.7218098e-02
  1.2025540e-01
 -8.9013092e-02
  3.6343705e-02
 -1.4868221e-01
 -4.2498104e-02
  9.2911292e-03
  3.4836862e-02
  6.5689422e-02
  6.4186513e-02
  3.3141881e-02
  6.5850131e-02
 -3.3162513e-03
  1.8405395e-02
  6.4038055e-04
 -1.2804212e-01
  1.1979085e-01
  2.9279729e-02
  7.3508978e-02
  4.2943604e-02
  4.9612246e-02
  3.7951842e-02
  1.9347800e-02
 -3.6364496e-02
 -3.3124522e-03
 -7.7431373e-02
  5.2443874e-01
  2.6769930e-02
  1.4120054e-01
 -3.6486073e-03
 -1.2959823e-01
  2.1876963e-02
  1.6918590e-03
  2.7813932e-03
  1.0569093e-02
  4.3226507e-02
 -4.4243868e-02
 -9.2546418e-03
 -3.9796498e-02
  2.1085143e-02
 -2.1129957e-01
  4.7130376e-01
  8.0682740e-02
  3.1036658e-02
 -1.3096120e+00
 -2.8186816e-01
 -8.7092108e-01
  6.4025849e-01
  9.8227918e-02
 -1.6488032e-01
  8.4601536e-02
 -1.3035233e-01
 -3.7954379e-02
 -3.7479460e-01
  1.1182025e-01
  4.3209159e-01
  1.4806733e-02
 -3.9184295e-02
 -3.3759287e-01
  9.0769333e-01
  2.6034215e-02
  2.5159402e-02
 -1.1643999e+00
  3.6638847e-01
 -2.4625236e-01
  9.7231008e-02
  5.9938502e-02
  2.5316015e-01
  6.8424064e-01
  7.7469930e-02
  9.2013635e-02
 -2.6177015e+00
  1.6000271e-01
 -2.2804682e-01
  9.4323432e-01
  1.0816556e-01
 -3.9562887e-01
  2.6522627e-01
  1.0154230e-01
  5.5879608e-02
 -3.2146044e+00
  3.1149375e-01
 -6.2806654e-01
  8.6954415e-02
 -2.6152615e-02
  1.4341970e-01
  6.0379617e-02
 -9.7573353e-03
  1.5752152e-02
  2.3215063e+00
 -8.7654233e-02
 -1.3692342e-02
  2.2188984e-02
  1.8366866e-02
 -1.6879178e+00
  6.6642962e-02
 -1.0741475e-01
 -1.0986829e+00
  2.6470592e+00
  8.9323562e-01
 -1.1571980e+00
 -7.6755810e-01
  1.3912960e+00
 -5.1260459e-01
 -1.6881815e-01
  3.0430588e-01
  4.7621068e-01
  2.3475707e+00
  3.0338217e-02
 -1.4851698e-01
  3.1745902e-01
 -2.6966503e-02
 -2.5168724e-02
  3.9760479e-01
 -9.0610009e-01
 -8.3855510e-01
  4.1712427e+00
 -6.0537612e-01
  6.9368713e-02
 -1.1495053e+00
 -6.7677975e-01
 -1.0383781e+00
 -6.0425347e-01
  3.0840662e-01
 -8.3137238e-01
  2.4909747e+00
 -3.4678001e-02
  9.7359180e-01
  2.1147597e-01
  6.6055423e-01
 -5.3792369e-01
  3.0828631e-01
  3.4671405e-01
  9.9902386e-03
 -4.4310895e-01
 -2.5039116e-01
  9.6962608e-02
  8.4497851e-01
 -1.3947057e+00
 -3.7749344e-01
  3.5753414e-01
  4.2094156e-02
  8.3745755e-03
  8.5742939e-01
 -1.3770352e-01
  7.6750577e-03
 -5.6158349e-02
 -3.2249942e-01
  6.4519262e-01
  9.4403826e-02
  4.3355185e-01
 -1.5055797e-01
 -1.7774689e-01
 -1.1329439e+00
  3.9418289e-01
  5.5776799e-01
 -8.5921073e-01
 -1.6995318e+00
 -8.0778301e-01
  1.1623001e-01
 -2.6932520e-01
 -4.7999728e-01
 -4.9036193e-01
 -8.3651817e-01
 -2.4861497e-01
 -5.4507595e-01
  9.1692865e-01
 -6.2861800e-01
 -1.0697404e+00
 -2.3971669e-01
 -3.5664356e-01
  7.7595103e-01
 -1.1162425e+00
 -2.4297029e-01
 -8.8729149e-01
  1.2207497e-01
 -7.1084201e-01
 -1.2214443e-01
  2.7301309e-01
 -1.1929961e+00
  1.0433854e-01
 -3.7871057e-01
 -2.4941874e+00
  2.2514572e+00
 -1.4670860e+00
 -2.8467035e-01
  2.7674183e-01
  1.0044292e+00
 -6.7224735e-01
  7.3157167e-01
  6.9608790e-01
 -1.2348045e+00
  3.9641351e-02
  1.0069292e-01
 -2.6078808e-01
  1.2760490e-01
 -7.6038344e-04
  3.9546818e-01
 -2.2060686e-01
  2.4734862e-01
 -4.1521025e-01
 -3.7736568e-01
 -4.4020849e-01
 -1.5908860e+00
  6.8736625e-01
  2.0670087e+00
  1.1921309e+00
 -8.3466250e-01
 -1.7893660e+00
  3.8431570e-01
 -1.2863533e-01
  6.9203633e-01
  6.6320974e-01
  1.3557173e-01
  2.7507880e-01
  1.2296727e-01
  7.0833677e-01
  1.4704466e-02
 -1.9646455e-01
 -2.2365758e-01
 -5.6382978e-01
  1.0163159e+00
 -1.6344773e-02
 -6.6869038e-01
 -1.5089111e+00
  8.0004293e-01
 -1.4087072e-01
 -3.2306930e-01
 -3.1813845e-01
  1.4844549e+00
  4.2650276e-01
 -2.5849530e-01
  1.4147221e-01
  1.3715435e+00
 -8.3190680e-01
  5.0023165e-02
 -1.5727854e+00
 -1.7878518e+00
 -7.6284313e-01
  4.6025899e-01
 -1.9050111e-01
  1.8700100e+00
  4.0960777e-01
 -1.1207091e-01
 -6.2417662e-01
 -7.0728195e-01
  2.3460472e+00
 -1.2298055e-02
  1.0175513e-01
 -3.5610268e-01
 -1.1928145e-01
 -4.7931232e-02
  2.8300151e-01
  4.8203102e-01
  1.6379651e-01
  9.9666514e-02
  6.6833556e-01
  5.1145858e-01
  4.2752184e-02
  2.0006670e-01
  3.6583471e+00
 -1.0603276e-02
  1.5051455e+00
  1.6600351e+00
 -6.6442829e-01
 -7.4301815e-01
  2.8911496e-02
  4.1365065e-02
  1.7976578e-02
  7.6887172e-01
  6.1755300e-02
  1.4104868e-01
  2.3055035e-03
 -4.5718607e-02
 -8.8451493e-01
 -8.0257624e-02
  2.6147321e-01
  4.9441248e-02
  4.1431332e+00
  1.1535953e+00
 -4.5190435e-02
 -1.2190153e-01
 -2.7745315e-01
 -2.7986601e-01
  1.4675760e-01
  3.8809091e-02
  1.9340080e-03
  1.0496672e+00
 -1.0083458e+00
  1.8026954e-01
 -1.7916951e-02
 -2.0650619e-01
  1.2621590e+00
 -7.5968489e-02
  1.0730797e-01
 -1.0970782e-01
 -1.0970063e-01
 -1.1262143e+00
 -1.1321275e+00
 -4.0537249e-02
 -2.6167196e-01
 -8.6937249e-02
 -2.1023209e-01
  4.0059879e-02
  4.6590675e-02
  1.4033406e+00
  2.9724857e-01
 -8.9148708e-02
 -4.7373608e-01
  3.1993676e-02
 -3.1611731e+00
 -7.7977735e-01
  1.7211983e-01
 -2.2052588e+00
 -1.6592813e+00
  8.5304594e-01
  2.6963699e-01
 -2.9632702e-02
  1.3346461e+00
  7.1323603e-02
 -5.3894395e-01
  6.7773622e-01
 -1.9002996e-01
 -1.9249537e+00
 -5.6883997e-01
 -1.0734946e+00
  6.7915477e-02
 -3.6122325e-01
  6.3910824e-01
 -2.4208766e-01
  1.8795234e-01
 -3.8025543e-01
 -4.0298071e+00
 -9.6010745e-02
 -9.1557838e-02
 -7.8502822e-01
 -7.7896464e-01
  2.0603712e-01
 -2.7631596e-01
  3.0642512e-01
  4.3517056e-01
  3.9203827e+00
 -1.8018243e-01
 -4.9651298e-01
  4.2544460e-01
 -1.7776653e-01
  7.1444285e-01
 -2.1130989e-01
 -8.6926050e-02
  9.0897894e-01
  1.9514561e+00
 -1.9789857e-01
 -2.4372134e-01
 -3.3524081e-01
 -1.2211496e+00
 -7.4136987e-02
 -7.4887633e-02
  1.8973294e-01
 -1.2873510e-01
 -4.7281828e-02
 -7.8580976e-01
  8.3980495e-03
 -3.3359480e-01
 -1.9656739e-01
 -5.4296052e-01
 -6.0885739e-01
 -7.7267058e-02
 -1.8661882e+00
 -3.1150874e-01
 -7.9810542e-01
 -1.7500249e+00
  3.2216601e-02
 -1.6631774e+00
  4.8561919e-02
  2.0728276e+00
  6.3862574e-01
  9.8299615e-02
 -8.2184911e-01
 -3.6887294e-01
  4.3743759e-01
 -7.4122727e-02
 -2.3239386e-01
  1.0791293e+00
 -3.3997124e-01
 -1.5260959e+00
 -3.0719244e-01
 -3.5860524e-01
  7.4165303e-01
  1.0738242e+00
  7.8227806e-01
 -3.7157068e-01
 -9.4156332e-02
  2.1908548e+00
  4.5227755e-02
  1.7785007e+00
  2.2648559e+00
  3.8429880e-01
  3.5981074e-01
 -4.3771762e-02
  4.1428471e-01
  3.6723921e-01
 -4.5580795e-01
 -1.5645700e+00
 -1.1639686e+00
 -4.7895780e+00
 -4.4246492e-01
  1.7279781e-01
  8.3915663e-01
 -1.6970692e+00
  8.6144090e-02
 -1.4956471e-01
 -1.5507060e-01
 -1.7683238e-01
  3.5325847e+00
  5.3635895e-01
 -5.8058533e-03
 -5.1678854e-01
 -2.1503438e-01
 -3.1697556e-01
 -1.7673779e-01
 -5.5065274e-02
  2.7265239e-01
  4.9819441e+00
  3.8710168e-01
 -4.2118545e+00
  2.7986219e+00
  6.8364777e-02
  1.4143303e-01
 -2.3498854e-03
  6.2093258e-02
  8.6954817e-02
  1.7284650e-01
 -8.4330998e-02
  4.7133014e-02
  1.3151409e-01
 -2.4574612e-01
  3.1047159e-01
  6.8626910e-02
 -2.7550367e-01
 -1.7499411e-01
  4.1297406e-01
  5.0566310e-01
  3.9877329e-02
 -3.2590139e-01
  2.2803663e-01
 -1.7558746e-01
 -8.2886465e-02
  4.1383657e-01
  5.4412544e-01
  2.4055126e-01
  4.2749509e-02
  2.8947800e-01
  1.1311964e+00
 -4.1781786e-01
  2.4084240e-02
  5.3056423e-02
 -2.0563882e-03
  5.8249485e-01
 -3.6321424e-02
 -3.0058661e-02
  1.3987363e-02
  5.7781589e-01
  7.0449644e-01
 -1.3180745e-02
 -2.2035509e-02
  5.6478936e-02
 -6.1098941e-02
  9.7367302e-02
  5.7806355e-01
  3.1273335e-02
 -3.1276226e-02
 -1.4294629e-01
 -1.3006695e-01
  6.4425334e-02
  3.4876227e-02
 -3.4985617e-02
 -1.8376041e-03
  2.9902318e-02
  6.4308631e-01
 -1.4038197e+00
 -2.1158957e-01
  1.3782968e-02
  6.8273120e-02
 -1.2103685e-03
  6.8828543e-03
 -9.5479928e-02
  4.9168617e-03
  4.0017620e-02
  1.7284758e-02
  1.5284401e-02
  9.8564096e-02
  5.2785676e-02
 -3.3143003e-02
  4.8146203e-02
  1.5720611e+00
  5.4309320e-02
  3.5790168e-02
 -2.2839330e-02
  9.0784751e-02
 -1.1937078e-02
  1.0586130e-01
  1.9329639e-02
  9.7465277e-02
 -7.7795200e-02
 -4.4368092e-02
  1.7582692e-01
 -1.6507991e-02
  3.1120844e-02
 -3.0601739e-03
 -2.0422935e-02
 -5.9839033e-02
  1.4297724e-01
 -5.8767270e-02
  2.1270787e-02
 -9.1739312e-02
  3.5273084e-01
 -1.3891496e-01
  2.6384494e-03
  5.3794105e-02
  1.3241492e-02
 -8.3149143e-02
 -1.5562510e-01
  7.5169556e-02
 -5.6244008e-02
  2.0365037e-02
  1.3983451e-02
 -3.3384857e-01
  1.8220857e-01
 -3.9758733e-01
  2.2060583e+00
 -1.6216236e+00
  1.1518729e-01
  4.5778418e+00
  1.2598687e+00
  1.0732567e+00
  1.6414167e-01
  3.5861215e-01
 -7.2454265e-03
  1.5452260e-01
 -4.0257430e-01
 -2.4852889e-02
  3.3053502e-01
 -1.6402933e-01
  1.3679761e-01
 -8.1069851e-01
  4.2595339e-01
  2.7061412e-01
  2.9662970e-01
 -1.4100091e+00
  1.6640495e-01
  4.9637519e-02
 -2.5322646e-01
 -2.9941964e-01
  5.2386049e-02
  2.5020763e-01
  6.1488795e-01
 -4.3872619e-01
 -1.8012377e+00
 -9.2073852e-01
 -1.4015584e-01
  3.8438642e-01
 -8.7124652e-01
 -1.1888624e+00
  2.9874143e-01
  3.3652049e-02
  5.6621600e-02
  2.2961740e-01
 -1.0967723e+00
 -1.0435228e+00
  7.9895860e-01
  2.6251647e+00
 -2.1233062e-01
  2.6462722e-01
  8.5689249e-03
 -1.3510790e-01
 -2.1967083e-01
  1.4340818e-01
  4.5249730e-01
  1.9659314e-01
  2.5587007e-01
  1.0883527e+00
 -1.3147862e+00
 -6.6837358e-01
 -6.9836766e-01
  1.1803175e+00
 -5.0035715e-01
  2.0373731e+00
 -2.3316019e+00
  1.4257764e+00
 -1.7193478e-01
  1.1146405e-01
 -3.3351716e-02
 -1.5981527e-01
  2.1414720e-01
  3.9508703e-01
  2.1453805e-01
 -1.5363498e-01
  5.7717733e-02
  5.3650337e-01
  3.7152913e-01
  1.0259696e-01
  6.1505449e-01
  6.8807429e-01
  9.2561662e-01
  2.8697785e-02
  3.1964222e-01
  4.6580586e-01
  8.2864451e-01
  3.1696239e-01
  1.0351493e+00
  1.2280859e+00
  7.0975244e-01
  1.7085521e+00
  1.7035343e-01
  3.0332313e+00
  7.2075939e-01
  1.7682593e-01
  3.4723550e-01
  8.1427693e-01
  5.0176769e-01
  9.1052127e-01
  8.8657755e-01
 -2.5455558e-01
  3.5920903e-01
  1.9088441e+00
  1.5039830e-01
 -1.6257609e-01
  4.4050714e-01
  1.0455552e-01
  9.4772130e-01
  2.9481938e-01
  9.6419193e-02
  2.2688492e-01
 -2.9936595e-02
 -7.8310303e-02
 -9.6019286e-01
 -2.7726517e+00
 -1.6275461e+00
  4.6088505e-01
 -9.9628192e-01
 -6.4732057e-01
  2.1976352e-02
 -2.8060958e-01
 -5.8910859e-01
 -3.8304248e-01
 -3.4024738e-02
  1.1118020e-01
  1.5259409e-01
 -2.7513054e-01
  3.1268021e-01
 -9.9139881e-01
  2.0778847e-01
 -5.1749533e-01
 -1.8675889e-01
 -6.6086799e-02
 -5.4319614e-01
  4.8994705e-01
  3.9619693e-01
  1.2548108e-01
  4.9956238e-01
 -2.5073108e-01
 -1.3713935e-01
 -2.6335764e-01
  4.4047111e-01
  1.0153059e+00
 -8.2474965e-01
  7.0757844e-02
 -3.3207342e-02
 -1.2734812e+00
  1.9412147e-01
 -5.0717241e-01
 -4.2940271e-01
  2.9592037e-01
  7.4237891e-02
 -3.5090992e-01
 -4.7590548e-01
 -4.0636101e-01
 -5.8490747e-01
  1.2152810e-01
 -1.2780572e-02
 -3.2666346e-01
 -2.1377124e-01
  1.6904135e-01
  2.6607597e-01
  1.4142446e-01
 -7.1818396e-02
 -1.4009434e-03
 -6.8045922e-02
  2.2882432e-01
  2.7845138e-01
 -2.5675178e-01
 -2.0740350e-01
  9.8083383e-01
 -9.4208475e-03
  8.1933635e-01
  5.2571887e-01
 -5.8596474e-01
 -1.4861658e-03
  1.1915201e-01
 -8.2289673e-02
 -3.2800678e-02
 -1.4523494e+00
  1.5005672e-02
 -8.4324349e-03
 -6.6774629e-02
  9.2084922e-02
  2.3076110e-01
  1.2419871e-01
 -1.2145834e-01
 -1.4588915e+00
 -6.6057491e-01
 -2.7593097e-01
 -2.5543740e-01
  7.7829815e-02
 -1.8992091e-02
  2.4304134e-01
 -2.3325510e-02
  1.2142443e-02
 -1.9098146e-01
 -4.2265731e-01
 -1.2936676e-01
 -1.3262464e-01
 -9.2469800e-01
 -1.9096796e-01
 -7.0432112e-02
  8.8861510e-02
  4.2556107e-02
 -1.6040960e-01
  2.2854142e+00
  1.4764069e-02
  1.0494561e-01
 -1.2616669e-01
 -2.6126418e-01
  1.7527483e-02
  8.8383339e-02
 -5.7511449e-02
  1.0246133e-02
  1.5190195e+00
 -9.6005268e-02
 -1.0100487e-03
  5.9777532e-02
  9.7135268e-02
  1.2257378e-01
  2.3518628e-01
 -1.1654450e-01
  1.1050373e-01
 -8.7372631e-02
 -8.0842189e-02
 -7.3478274e-02
 -1.2475432e+00
 -2.2334036e-01
  2.8073892e-03
  4.3075174e-02
 -3.8500920e-02
 -5.9663426e-02
 -4.3362582e-01
  6.6475175e-02
 -1.2167202e-02
 -4.7947183e-02
  1.1691842e-01
 -3.3359653e-01
  1.0699878e-01
  1.4731365e-01
  9.1422938e-02
 -9.8072749e-01
 -8.4888615e-02
 -2.2420779e-01
  1.2647252e-01
 -1.0889687e-02
 -2.0119785e-01
  6.8201616e-02
 -7.0102550e-02
 -2.9231489e-01
 -5.0901186e-01
  1.3540824e-01
 -9.1961779e-02
 -1.9087753e-01
 -2.8743708e-01
 -1.3229071e-01
 -2.0296520e-02
 -4.9551576e-01
 -8.0368608e-02
 -9.6754665e-03
 -4.4618675e-01
 -2.2442353e-01
 -1.4010161e-01
 -3.1900305e-01
  3.2143582e-02
  1.4692711e-02
 -2.9938158e-02
 -5.7192439e-01
 -1.4586725e+00
 -1.3403825e+00
  6.0265437e-02
  6.9616944e-02
  5.0606947e-02
 -2.7157527e-01
 -8.8884157e-01
  1.7323444e+00
  2.6606146e-02
 -8.1931198e-01
 -1.9045623e-01
 -2.6008096e+00
  2.8037279e+00
 -7.4291396e-01
  4.1363171e-01
  1.0708828e+00
  3.7473235e-02
  4.7593024e-02
 -1.2477673e+00
  1.2802495e+00
 -2.1303955e-01
  1.9322903e-01
  3.4416491e-01
  4.1529882e-01
  1.5551733e+00
 -6.5021402e-01
 -1.6700097e+00
 -2.1523385e+00
  1.0201406e+00
  1.1801027e-01
 -3.0119160e-01
  7.5929753e-02
  3.7504786e-01
  8.8212556e-01
 -6.4615750e-01
  7.8903997e-01
 -3.1869957e+00
  2.4800828e+00
 -6.9779627e-02
 -9.9099183e-01
  4.4003572e-02
 -2.2981284e+00
  1.6060942e+00
 -4.5955679e-01
 -1.0783192e+00
  1.4678010e+00
 -4.5677280e+00
 -2.9108676e-01
  2.1912119e+00
 -3.0565486e+00
 -5.7355380e-01
 -2.1096946e-01
 -4.3324077e-01
  5.5515218e-01
 -1.1716341e+00
 -3.9392826e-01
 -2.8914380e-01
  8.2857162e-01
 -8.4016502e-02
 -2.5575781e-01
  2.6750064e-01
  6.2946625e-02
  7.6656833e-02
 -3.9237666e-01
  3.3211876e-02
  2.1703742e-01
 -1.7269989e+00
 -3.0927584e-02
 -2.3425311e-01
  2.0507485e-01
 -2.3064347e-02
 -2.2403058e-02
  9.9640347e-02
  1.6872387e-01
 -1.3956620e-01
  4.3823928e-02
  3.7969567e-02
 -5.0786382e-01
 -2.2412853e-01
  2.8081350e-02
 -6.8290547e-02
 -1.7720002e+00
  5.2738827e-01
 -3.6580676e-01
  1.4267363e-01
  1.2162090e-02
 -4.2569137e-01
  2.7436849e-01
  5.0547969e-02
 -4.5239788e-02
 -3.9557853e+00
  3.0116418e-01
 -2.3405054e-01
  8.7523386e-02
 -1.9077766e-01
 -4.1804200e-01
  5.7969582e-01
  5.1411804e-02
 -7.9639071e-01
 -2.6847868e+00
  2.9308072e-01
 -3.4091410e-01
  6.5079950e-02
  1.0670902e-02
  1.4871691e-01
  5.3928211e-02
 -1.4619639e-02
  2.2094967e-02
 -1.4024086e+00
  7.7449366e-02
 -2.5469346e-02
 -7.4559576e-03
 -1.5327590e-02
 -1.7682850e-01
 -2.0774119e-02
  2.1341661e-02
  2.6069838e-01
 -6.1763251e-01
 -3.6563519e-03
  8.9909248e-02
 -5.2693373e-01
  6.6140980e-02
 -9.4431108e-03
 -8.6996272e-02
  1.6715424e-02
  1.5229593e-02
  5.4133441e-02
 -3.4337945e-02
  9.8807532e-03
  2.0233234e-02
 -7.3192865e-02
  5.1109567e-02
 -6.3301556e-02
 -5.2329313e-02
  1.5305479e-02
  7.2406113e-02
  7.5554855e-02
  4.5009613e-02
 -3.8750418e-02
  4.5327339e-02
  7.1799032e-02
 -6.1720967e-01
 -8.2550235e-03
  8.6992308e-02
  6.5626726e-02
  3.8977113e-02
  2.1567460e-02
  1.3406828e-01
  1.1995162e-01
  7.2585933e-02
 -1.0344213e-03
  1.2441903e-02
  3.1228928e-02
 -3.8326994e-02
 -5.5898491e-02
  8.0866329e-02
  8.1036620e-02
  2.1641169e-01
  3.5104536e-02
 -3.4815661e-04
  4.1942492e-02
 -8.4850132e-02
  5.5677895e-02
 -1.0213571e-03
 -7.2139956e-02
 -4.6578564e-02
 -3.8283478e-02
 -2.4454463e+00
 -1.3420819e+00
 -2.2778609e+00
 -1.6487988e+00
 -3.8908019e+00
  2.5288582e-01
  1.0706246e+00
  6.1088806e-01
 -6.2795800e-01
 -2.9621354e-01
 -4.2985801e-02
  4.4237670e-01
  3.2152690e-03
 -2.3171778e-01
 -4.0042493e-01
 -5.5479604e-01
 -1.7085096e-01
 -3.6786011e-01
  2.0660841e-01
  3.7004074e-01
 -2.4998984e-01
  8.1791297e-02
 -3.5108477e-01
 -4.4955200e-01
 -2.2103725e-01
 -3.2657513e-01
 -5.4384921e-02
 -1.1931209e-01
  1.4937860e+00
  1.4447355e-01
 -6.2561527e-02
 -1.3809982e-01
 -3.8720796e-01
  1.3726214e+00
  5.7561541e-01
  8.1525832e-01
 -8.4304355e-02
  2.4066123e-01
 -1.0470244e-01
  3.7390232e-01
 -5.3561796e-02
 -4.5013826e-02
 -2.7390823e-01
  6.6032118e-01
  5.6623262e-01
 -2.8697893e-02
  1.0790931e-01
 -1.1589480e-02
 -1.0884046e-01
 -1.7165002e-01
  1.0616203e-02
  7.6171115e-02
 -1.5715577e-01
 -4.2219069e-02
 -1.9296290e+00
  1.1502405e+00
  7.5068104e-01
  1.0644572e+00
 -4.4508803e-01
  2.0396073e-01
  2.8528812e+00
 -7.1601689e-01
 -2.5043973e-01
  1.4093272e-01
  3.9786288e-01
  1.8223587e-01
 -1.3140701e-01
 -1.1193997e-01
 -4.2073557e-01
 -3.8814595e-01
  2.2769530e-01
  5.8754094e-02
  5.1862013e-01
  1.4397332e-01
 -3.4817350e-01
 -1.6030709e-01
  3.1609111e+00
 -1.2559518e+00
  5.7684082e-01
 -7.4535117e-02
  1.5140522e-03
  2.1846625e-01
 -1.3809171e-01
  1.8281685e-01
  3.0654889e-01
  1.4251709e+00
 -2.6551062e-01
  3.9275894e-01
  4.4510877e-01
  6.0358196e-01
 -1.0299728e+00
 -1.5337914e-01
  5.2221841e-01
  8.9798081e-01
  2.2110479e+00
 -1.2453666e+00
  4.8069021e-01
  6.6932303e-01
  1.0360377e+00
  9.8031312e-02
  1.4914271e-04
  4.9525119e-02
 -6.4810939e-02
  1.3596027e+00
 -7.6998934e-02
  6.7411706e-02
  2.8168466e-02
  8.7566584e-02
  4.4779256e-02
 -2.9726401e-01
  3.7954250e-01
 -8.8856351e-01
  1.8988447e+00
 -4.6056348e-01
  4.6859002e+00
  7.2097704e-02
 -3.5632607e-01
 -7.8094862e-02
  1.9108754e-02
  9.7523399e-02
  1.9201227e-01
 -1.1495274e-01
 -1.1285353e-01
  1.5401378e-01
  1.7799964e-02
 -6.9458999e-02
 -8.4213561e-01
 -2.8543776e-02
  3.7007806e-01
  4.2289928e-01
  4.9129263e-01
 -2.8699282e-01
  1.7052980e-01
  1.7299590e-01
  9.7973846e-02
 -7.0113999e-01
  1.1364828e-01
  2.9357994e-01
  4.3983120e-01
 -4.0087759e-01
 -4.8371196e-01
  9.5463529e-02
 -9.0574808e-02
  2.1520501e-02
 -9.2205578e-01
 -1.1946779e-01
  3.2475889e-01
  9.2250772e-02
 -2.6947351e+00
  1.0796679e+00
 -1.8925209e-01
 -2.8874129e-02
 -3.6050260e-02
 -3.4984291e-02
 -1.5151931e-02
  1.3792494e-01
 -3.6101624e-01
  1.3651426e-01
 -3.4517676e-02
 -1.0171398e-01
 -1.4029871e-01
 -4.4467594e-02
 -9.8569047e-01
 -1.1757009e+00
 -2.9787557e+00
 -1.9255511e+00
  4.0898023e+00
  1.5829955e+00
  3.9693627e+00
  6.5663018e+00
 -6.1926413e-01
  8.4240466e-01
 -1.0638750e-01
  1.1907622e-02
  7.9223409e-02
  5.1084346e-01
  6.1164010e-01
 -8.6657625e-01
  1.3367962e+00
  3.4822157e-01
 -6.8653947e-01
  2.0457992e-01
 -9.6728802e-02
 -1.4641299e+00
  1.2622878e-01
 -1.0526850e+00
 -1.2439704e+00
 -1.7365983e+00
  7.4313760e-02
  5.7589215e-01
 -5.7152820e-01
  1.2492698e-01
 -9.5325249e-01
  1.6263851e+00
 -1.7811483e+00
 -1.0653886e+00
 -1.0926636e+00
  5.6974918e-01
 -1.3457601e+00
 -3.0825880e-01
 -1.5689418e-01
 -9.4614220e-01
 -3.3068392e+00
  7.1704733e-01
 -5.8148795e-01
  1.2644389e+00
  5.3325832e-01
  1.2070773e+00
  6.4351596e-02
 -8.5570700e-02
 -8.1613436e-02
  2.5024813e-01
  2.8102377e-01
 -1.3692046e-02
 -1.2937623e-01
 -6.6555820e-02
  1.1972963e-02
  3.4785483e-02
 -6.3316566e-03
 -5.4899976e-02
  1.3488925e-01
 -1.1061091e-02
  2.4176128e-01
  1.3291685e-01
  3.4927167e-02
  1.5774021e-02
  2.5204884e-02
  3.5563886e-02
  8.9719752e-03
 -2.5933076e-02
  4.6773194e-03
  7.1244179e-03
 -2.1503311e-02
 -3.8071838e-04
 -4.9948268e-02
  1.6940974e-03
  4.5983054e-02
  1.5095922e-02
 -3.9458543e-02
 -1.0348333e-01
 -2.2750536e-02
  3.1984653e-02
  1.1232797e-01
 -3.1228835e-02
  9.2101488e-03
 -3.8501199e-02
 -3.9606012e-02
  5.3759150e-02
  4.0893182e-03
  1.3586513e-02
  3.8288713e-02
 -1.6724609e-02
 -2.6673898e-02
 -3.6090303e-02
 -4.8358686e-02
 -9.5847696e-03
 -1.7912770e-02
 -1.2733415e-02
 -8.1630193e-02
  1.8991560e-02
  4.1087064e-01
  7.1633738e-03
  2.3130055e-03
  1.3913264e-02
  5.3208820e-03
 -1.2299976e-02
  5.5018883e-02
  1.3956056e-02
  9.3422122e-03
  3.9535247e-02
  7.5944073e-02
 -4.0965110e-01
  2.2672849e-02
  1.4539404e-01
 -2.5536719e-01
  1.4580849e-01
 -2.4731591e-01
 -1.1250093e+00
  3.6863130e-01
 -1.6158108e-01
  3.4146297e-01
  3.6819119e-02
 -7.4291721e-02
  3.5660203e+00
  2.3349574e-01
 -2.9387431e-02
  1.4679398e-01
 -6.6236053e-03
 -4.6700165e-01
  7.5494909e-01
  3.7704594e-02
  1.1768693e-01
 -3.1943865e+00
  6.5180713e-01
  5.2952297e-02
  2.0623763e-01
  2.4725022e-02
 -2.2849198e-01
  4.9929225e-01
  4.0744949e-02
  1.3534180e-03
 -2.6373301e+00
  6.3460535e-01
 -6.7578055e-02
  1.7187077e-01
 -9.4650126e-01
 -3.9466003e-01
  6.5900195e-01
  1.2164996e-01
  1.7840208e-01
 -1.9057685e+00
  5.7063186e-01
 -4.6799619e-02
  1.3761276e-01
  8.1034070e-03
  1.2485017e-01
  4.8000704e-02
  8.2131857e-03
 -4.2073939e-02
 -4.5635848e+00
  8.5645474e-02
 -3.8198058e-02
  2.3503389e-02
 -7.3632173e-04
  7.9956794e-01
  1.2530358e-02
  1.1635991e+00
  2.2228150e+00
 -8.7549031e-01
  9.0870738e-01
  8.7091815e-01
  1.0845395e+00
  1.0823283e+00
 -1.7892238e+00
 -1.5991298e+00
 -7.8011864e-01
 -3.9086980e-01
  9.9048376e-01
 -1.0552748e+00
 -6.5108180e-01
  7.6642677e-02
 -1.3731446e+00
  1.4119122e+00
 -5.3424144e-01
 -9.2517191e-01
 -2.0061986e-01
  4.6358952e-01
 -8.8062629e-02
 -6.2716848e-01
 -1.6407104e+00
  3.4351972e-01
 -2.6229000e+00
  1.9029498e-01
 -6.1737418e-01
 -6.8013184e-02
  1.6855384e+00
  1.3351802e+00
  6.8307482e-02
 -9.3822300e-02
  3.7863982e-01
  3.0734715e-01
 -3.0454466e+00
 -2.2356322e-01
 -9.5432127e-01
  7.8346390e-01
  1.0413448e+00
  8.1741071e-01
 -3.3292821e-01
 -9.5277393e-01
 -1.4420813e-01
 -1.1468729e-01
  1.7907088e-01
 -2.2459389e-01
  3.7025261e-01
  9.8118001e-01
  6.7279287e-02
  4.3848765e-01
 -6.4484036e-01
 -2.0432405e-01
  1.4965121e-02
