nep4_zbl 2 Te Ge 
zbl 0 0
cutoff 7 7 81 81
n_max 8 8
basis_size 8 8
l_max 4 2 0
ANN 70 0
  3.2714006e-01
 -2.5876734e+00
 -2.8191489e-01
  3.4064038e+00
 -2.0589414e+00
  1.3886955e+00
 -2.2819819e-01
 -1.3007870e+00
  6.8275875e-01
 -2.3531683e-01
  9.9392784e-01
 -2.9987097e+00
  1.3137764e+00
 -1.3334033e-01
  3.3620057e-01
 -4.7511536e-01
  1.1829966e-01
 -6.0348725e-01
 -3.4044209e-01
 -4.0182561e-01
 -4.3633480e-02
  3.0159527e-01
  2.8717053e-01
 -2.1132225e-01
 -7.3255515e-01
 -6.4207143e-01
 -6.4132875e-01
 -8.8292614e-02
 -1.1345721e-02
  4.6005207e-01
  8.5929108e-01
 -3.5104409e-01
 -5.4059219e-01
  2.4649654e-02
  2.9381547e-02
 -1.0221775e-01
 -1.3615546e+00
  7.8934574e-01
 -6.6157967e-01
  1.0094022e-01
 -6.3438308e-01
 -6.2375402e-01
 -2.3221323e-01
  3.1261942e-01
  1.8405375e+00
 -7.6219253e-02
  5.7929522e-01
 -7.2771452e-02
  2.8398260e-02
 -1.1591237e-01
 -5.4794889e-02
  1.2572759e-01
 -1.0203508e+00
  1.9577152e-01
  5.6854993e-01
 -1.5624020e-01
 -2.0471399e-01
 -4.6179581e-01
 -8.0953753e-01
 -6.9203131e-02
  3.7131972e+00
 -1.6228317e+00
  6.3531214e-01
 -1.2229231e-01
  3.3967471e-01
  1.6901298e-01
  3.8468260e-02
  2.1039332e-01
 -4.2516414e-02
  1.3643801e-01
 -1.2193232e-01
 -1.5463839e-01
 -7.2763540e-02
 -5.0183761e-01
  2.1901349e-02
  7.6668456e-02
 -4.4305179e-02
  2.0598865e-01
 -3.0598736e-01
  6.8774998e-02
 -6.9977444e-01
 -1.1200266e-01
  6.7420363e-02
  6.0147160e-01
 -2.5913221e-01
 -1.0747941e-01
 -2.9653531e-01
 -1.0171074e-01
  3.2840797e-01
 -1.9026276e-01
 -1.7842345e-01
 -1.2313552e+00
 -3.6672226e-01
 -4.7843203e-01
  1.5225171e-01
  1.3845132e-01
 -1.6875042e-02
 -3.7746659e-01
 -3.4872559e-01
 -7.0565403e-02
  2.6588011e-01
 -1.5233086e-02
  7.0189171e-02
  6.5181372e-03
 -8.1063963e-02
 -1.1113423e-01
  8.0376230e-02
 -1.1943098e-01
  7.0917815e-02
  1.4726026e-01
  5.1524222e-02
 -3.0177274e-01
 -7.6605521e-02
  2.1196771e-01
 -1.6267935e+00
 -4.6779182e-02
 -6.2116688e-01
  1.0668075e+00
  3.0382976e-01
  1.6953729e-01
  1.3354789e-01
 -1.4988126e-01
 -2.6231745e-01
 -1.9165283e-02
 -6.0091252e-03
  2.3595600e-03
 -3.0746776e-01
 -4.9904983e-02
  1.9434017e-01
  2.0874728e-01
  1.4480571e+00
  7.2045401e-02
 -1.9917903e-02
  1.6174296e-01
 -1.9015215e-01
  1.8575576e-01
  1.2941189e-01
 -9.3499196e-01
  1.1898424e-01
 -1.2201530e+00
 -8.5847490e-02
  3.8250312e-02
  2.5482070e-01
  1.0988752e+00
  9.9967934e-02
 -4.5643595e-01
 -1.7120044e-01
  5.5338852e-02
  8.3638817e-02
 -1.9991380e-01
 -1.8369322e-01
 -1.2667614e-01
  2.0755076e-01
  1.3116106e+00
  1.6798961e-01
 -6.3530421e-03
  3.8056556e-02
 -3.8249614e-03
  9.1158271e-02
  1.3100484e-01
 -2.9271323e-02
 -8.4543775e-05
 -3.5097408e+00
 -1.8345708e+00
 -4.1160500e-01
  1.8955137e-01
  2.1579351e+00
  2.1038752e+00
  5.2910107e-01
  1.2444528e+00
 -5.1720816e-01
 -1.6844489e-01
 -7.1763843e-01
 -1.3392273e-01
  2.4991231e-01
 -1.0479597e-01
  7.4425422e-02
  3.6958486e-01
 -1.0017452e+00
  9.6646315e-01
 -1.4476807e-01
  1.1604731e+00
  3.9812550e-01
  4.1178271e-01
 -1.9835462e-01
  2.4347134e+00
  6.6216004e-01
  4.8746192e-01
  9.0272576e-01
  3.1672735e-02
  7.3472667e-01
 -6.3375282e-01
 -4.0465298e-01
 -7.0818238e-02
  1.9518846e-01
  1.1630836e-01
  3.4411874e-01
  4.5209071e-01
 -8.0427021e-02
  1.1747067e+00
 -1.8817647e-01
 -7.3873335e-01
 -1.7248018e-01
 -1.3196969e+00
  5.1834500e-01
  3.5740983e-01
  9.0075001e-02
 -9.6698496e-03
 -1.9586298e-01
  1.7391162e-01
 -3.7522383e-02
 -1.2292217e-01
 -3.7945250e-01
 -4.2885301e-01
  1.9057806e-01
  6.2496424e-01
 -9.1735750e-01
 -9.1134256e-01
 -6.1637331e-02
  1.4164457e-01
 -2.0830163e-01
 -1.2639864e-01
 -1.3424414e-01
 -1.5560257e-01
  1.8797036e-01
  7.6374491e-03
 -1.1645232e-01
 -2.5079921e-01
 -8.7579787e-02
  3.4499742e-02
 -1.7018108e-01
 -1.6869366e-02
  5.0991472e-02
  1.1947105e-02
  1.2065453e-01
  2.0256625e-01
 -1.6161996e-01
 -9.3129985e-02
 -5.3501450e-02
 -2.2999524e-01
 -6.4765546e-03
 -7.3592469e-02
 -6.7070998e-02
  1.4743623e-01
 -3.3773059e-01
  7.3932014e-02
 -1.7820092e-01
 -1.4976585e-02
 -1.7426299e-01
 -1.1451178e-01
 -2.0687512e-01
 -2.3954691e-02
  1.0951304e-01
  1.9480246e-01
  1.5943830e-01
  6.7954892e-01
 -4.7427766e-02
 -5.3129464e-02
  7.7668108e-02
  2.0572822e-01
  1.8222666e-01
 -7.2924495e-02
  1.2134408e-02
 -5.7110493e-04
 -5.3232864e-02
  9.5202914e-03
 -7.1690224e-02
  1.4201532e-01
 -6.4111443e-04
  3.6460798e+00
 -3.9832704e-02
 -1.1744555e+00
  1.3123818e-01
  3.6042474e-02
  3.9371017e-02
  2.0194131e-01
  2.3449060e-02
 -3.6279589e-02
 -4.5076866e-02
  6.9131628e-02
  2.2168767e-01
 -6.6506535e-02
  1.6410530e-01
  5.6246150e-02
  2.2426961e-02
 -7.2527021e-02
 -1.4665358e-01
 -1.4132846e-02
  2.7826282e-01
  1.0176471e-01
 -9.9579476e-02
 -1.5496220e-01
  5.9873771e-02
  6.7412704e-02
 -1.6995989e-01
 -5.2822597e-02
  1.3753676e-01
 -1.4665873e-01
  1.7749839e-02
 -4.9208291e-02
  2.2543448e-01
 -7.1063347e-02
  2.3362596e-02
  1.7239232e-01
 -4.9835343e-02
  3.1715725e-02
  1.3698180e-01
 -4.2047244e-02
  2.2276701e-02
 -1.3826588e-01
  3.7333701e-02
  6.6015892e-02
  3.5132846e-01
  1.7834330e-02
  3.1574022e-02
 -2.0641731e-02
  7.4595734e-02
  5.3128257e-02
 -7.1599849e-02
  5.5611390e-03
  5.2217335e-02
 -1.7367066e-01
  4.3054666e-02
  1.1268692e-03
 -2.6550466e-01
 -4.3877903e-01
  2.8160912e-01
  1.9388863e-01
  1.4843036e-01
 -9.1397381e-01
 -6.6103518e-01
 -4.5417327e-01
  2.8665653e-01
  1.1022056e+00
 -4.8926497e-01
 -6.5355793e-02
 -4.9547678e-01
  3.0490461e-01
 -4.1331914e-01
 -1.8083752e+00
  4.3450889e-01
  6.9453686e-02
 -4.2236647e-01
  6.1792754e-02
  1.0314580e+00
  1.6182731e-01
  2.8614420e-01
 -7.8769691e-02
  1.8251953e-01
 -1.5886924e-01
 -4.0361312e-01
  3.3904570e-01
  6.8717681e-02
 -3.1698078e-01
 -3.6439738e-01
  6.6149734e-02
  1.3298929e-01
 -1.4367083e-01
  3.2083908e-01
 -1.8981183e-01
  1.8188360e-01
  2.1053006e-01
  3.2270780e-01
 -5.6646997e-01
  4.6356395e-01
  1.4319575e-01
 -2.0786284e-01
  3.8304037e-01
  1.5452977e+00
 -2.7466792e-01
  2.9704219e-01
  7.9753779e-02
  1.6923428e-01
  6.0000636e-02
 -2.1639398e-01
 -2.3318680e-01
  4.1093379e-02
 -4.4107804e-01
  9.6338099e-01
  2.2353220e+00
  4.5260792e+00
 -8.2001328e-01
 -8.9406681e-01
  2.8854582e+00
  2.5971127e+00
  2.1528504e+00
  4.6499510e+00
  2.2583599e+00
 -1.8163730e+00
  1.8220575e-01
  1.0054158e+00
 -2.2420051e+00
 -1.9294620e-01
  1.8348447e+00
  1.0797954e+00
  1.5794708e-01
  3.5987639e-01
  2.1677983e-01
 -7.3538804e-01
  2.2520785e-01
 -1.1930727e+00
 -1.9938018e-02
 -9.0674192e-01
  4.0125197e-01
  6.1901468e-01
  8.8857114e-02
 -1.1968920e+00
 -1.6777829e+00
  3.6764973e-01
 -5.9692538e-01
 -9.9902105e-01
  5.0382096e-01
 -9.5844215e-01
  1.6634661e+00
 -6.3605177e-01
 -1.1560155e+00
 -1.7641572e+00
 -5.9790736e-01
  2.9781296e+00
  5.6335378e-01
 -1.3662830e-01
 -1.2153748e+00
  2.0335083e+00
 -2.1642754e+00
 -3.2965943e-01
  1.0847330e-01
  1.9913020e-02
 -5.6847179e-01
  5.8219321e-02
  1.3270161e+00
 -8.9327738e-02
  4.5505786e-01
  1.0805448e+00
 -4.6733388e-01
 -5.6703407e-01
 -8.4723091e-01
 -6.9783932e-01
 -3.1955445e-01
  9.8244351e-01
 -5.2099508e-01
  3.3359265e-01
 -3.6067981e-02
 -6.4087367e-01
 -3.4546304e-01
 -8.5781372e-01
 -2.3938763e-01
  4.1908830e-02
  8.9059900e-03
 -3.9267677e-01
 -6.9725990e-01
  1.7469283e-03
  5.2358037e-01
  1.0517392e-01
 -2.3503792e-01
  2.2353245e-01
 -3.8423347e-01
 -1.2083481e-01
  4.8168607e-02
 -1.7647752e-01
  4.2294797e-01
 -5.4672182e-01
  4.0640774e-01
 -5.9454262e-01
  1.5691377e-03
 -6.6569322e-01
 -4.2843959e-01
 -9.3538038e-02
 -5.0183910e-01
  3.7192541e-01
 -2.3684832e-01
 -1.1099957e-01
  2.9941729e-01
 -1.2203910e-01
 -1.8701883e-01
  5.6956653e-02
  3.6821100e-01
  6.1787081e-01
  1.0822657e-02
  1.8194865e-01
  4.7101554e-02
  9.7773165e-02
  5.6248490e-02
 -7.1420562e-03
  1.1666172e-01
  8.2750492e-02
  1.2298894e+00
  1.7167134e-03
 -1.6273806e+00
 -1.0451087e-01
  2.9418461e-02
  6.7853028e-01
  2.6610157e-01
  7.7499300e-01
  1.9414434e-01
  3.1007084e-01
  2.3285748e-02
 -2.4281743e-01
  3.2910667e-02
 -8.2171619e-02
  1.4423965e-02
  6.5964796e-02
 -4.5023449e-03
  1.6063489e-01
  2.5922656e-02
  1.3402276e-01
  2.8865781e-01
  5.0828832e-01
 -1.3364005e-01
  4.7214702e-01
 -1.2066724e-01
  1.3930531e-01
 -2.0590751e-01
  2.7813505e-02
  1.7337924e-01
 -3.1214553e-01
 -4.0751446e-02
 -1.1214240e-01
  9.0050496e-02
  6.1899092e-04
  2.5400570e-02
 -1.1577289e-01
  1.0816153e+00
  1.3885722e-01
  2.4508168e-01
  9.5699824e-02
 -6.0672665e-01
 -6.5379618e-03
 -8.5198522e-02
  8.6041242e-02
  5.6503128e-02
 -9.0688486e-03
 -8.0320783e-02
 -2.4296068e-02
  4.2232890e-02
 -1.2008920e-01
 -2.0830609e-02
 -9.9936180e-02
  1.5895983e-02
 -2.2350999e-02
 -2.6505237e-02
 -1.0270455e-01
  5.4352123e-01
  2.8447229e-01
 -5.3206414e-02
  9.6269764e-02
 -1.5345296e-01
 -1.1219659e+00
 -1.2266661e-01
 -9.3648411e-02
 -1.0484388e-01
  1.1781619e-01
 -1.8434651e-02
 -2.0389099e+00
 -2.1344084e-02
 -2.5540835e-01
 -1.5830522e-02
  1.4884342e-01
  2.8452256e-01
 -9.3459330e-02
 -4.2892050e-02
 -2.9677436e-02
 -9.9516340e-02
 -6.3719727e-02
  9.5189987e-03
 -7.2139256e-02
  1.1368314e-01
 -6.8839297e-02
 -2.1378762e-01
 -2.6666023e-02
 -9.7078413e-02
  2.3978013e-01
  4.7354573e-01
 -1.8856159e-01
 -1.3697876e-01
  3.6571443e-02
  1.1430103e-01
 -1.3563152e-01
 -2.5276768e+00
  1.1013353e-01
  2.7943075e-01
 -7.4416332e-02
 -1.1778475e-01
 -3.3748686e-01
  3.4935188e-01
  9.2314355e-02
  1.2654757e-01
  6.5821581e-02
 -5.5560350e-02
  8.7719679e-02
  4.6360764e-01
  1.1611059e-01
  1.2294643e-01
  1.3760677e-02
  7.4372441e-02
  1.0532234e-05
  4.8441075e-02
 -1.1072915e-01
  3.6931492e-02
 -2.5400162e-02
  8.6596772e-02
  1.0527155e+00
  9.4268404e-02
  2.0685206e-01
  5.1857714e-02
 -2.6847324e-01
 -1.5627751e-01
  1.2793668e-02
 -1.0946707e-02
  1.4961917e-02
 -1.6641032e-02
  1.4095581e-01
  5.8849048e-02
 -1.3326776e-01
  6.6729188e-02
 -2.2561410e-02
  6.1203949e-02
 -9.0846457e-03
 -3.2195531e-02
 -3.2525774e-02
  3.6329664e-02
  7.4456312e-02
  1.7571330e-01
 -1.5687937e-01
 -1.4111109e-01
 -2.4362219e-02
  6.3314349e-03
  1.7154371e-02
  1.3352216e-02
 -4.5880515e-02
  2.9605595e-02
  1.2573646e-01
  2.4135946e-01
  7.4637361e-02
 -8.2606979e-02
  3.4792729e-02
  6.7884453e-02
 -4.6768274e-02
  6.2113870e-02
 -1.3982902e-02
  5.3824615e-02
  4.8863128e-02
  9.0651572e-02
 -1.6001445e-01
  5.0614804e-01
 -5.4491349e-03
  1.9325893e-01
  3.0339313e-01
  1.3139195e-02
  3.2421014e-01
 -3.6470762e-01
 -4.3394584e-02
 -1.7498647e+00
 -7.7863240e-01
  4.1652048e-01
  1.7007484e-01
  2.8033793e-01
  5.1982290e-01
 -3.2223601e-02
 -3.9455497e-01
 -4.2039564e-01
 -3.6031139e-01
  1.7209443e-01
  4.2684057e-01
 -3.5704347e-01
  1.8099529e-01
 -4.4845405e-01
  9.2952293e-01
 -5.8608431e-01
 -1.4099793e-01
 -1.8850964e-01
  2.5748232e-01
 -2.2980773e-01
 -3.8894388e-01
 -9.4829357e-01
 -3.7815425e-01
  5.3000224e-01
 -2.7659804e-01
  2.2565429e-01
 -1.9308367e-01
  1.4618130e-01
 -3.3946022e-01
 -7.5074929e-01
  2.2939973e-01
 -9.1044611e-01
 -1.3634673e-01
 -9.9113446e-01
  9.2387937e-02
  2.2766742e-01
  3.3879209e-01
  6.7082059e-01
  3.0130165e-02
 -6.3430630e-02
  2.5514780e-02
 -8.0554289e-01
 -1.4416902e-02
  1.0359524e-01
  3.8078245e-02
  1.0269867e-01
 -3.1219223e-01
  1.5751292e-01
  2.3188812e-01
 -1.1052720e-01
 -3.8680720e-01
  1.7225006e+00
  2.1090262e+00
  5.3736520e-01
 -9.6019769e-01
 -4.7773343e-01
  8.5134989e-01
 -3.3563845e+00
 -9.0858787e-02
 -1.0836688e+00
  7.8844771e-02
 -1.1333592e+00
  3.2365423e-01
  1.2444483e-01
 -3.7723863e-01
  1.5699301e-02
  2.1903257e-01
 -1.2992202e-01
  1.5860811e-02
 -3.7123522e-01
 -8.1372507e-02
 -2.4415462e-01
  2.9900479e-01
 -6.6422291e-02
 -1.6680969e-01
 -1.8610135e-02
 -2.2415018e-01
 -4.2110004e-02
  9.1769949e-02
  1.1164222e-01
 -1.0172816e-01
 -2.9046805e+00
 -3.6566883e-02
  5.0918597e-01
 -6.7843430e-02
  7.8246139e-02
  9.4363123e-02
  1.6084537e-01
 -6.0557199e-01
 -3.0232346e-01
  9.9030808e-02
  4.5291770e-01
 -5.1965749e-01
 -5.1632041e-01
  3.7642050e-01
 -8.5674122e-02
 -7.1148805e-02
 -2.7560282e-02
 -1.5530334e-01
  8.4133357e-02
 -5.2705042e-02
 -1.1496694e-01
 -1.2755886e-01
 -2.0996360e-02
 -9.8806143e-02
  2.3105298e-01
  1.6681409e-01
  1.3067524e-01
  1.6203319e-01
 -1.1213230e-01
 -9.2966128e-03
  6.6074334e-02
 -2.0147531e-01
 -4.4804368e-02
 -2.5159245e-02
 -4.1705821e-02
 -2.7258687e+00
 -2.5034663e-01
  2.8716929e-02
 -3.7655732e-04
  6.2430579e-02
  1.2842516e-02
 -8.1031770e-03
 -6.8353140e-03
  3.3697106e-02
 -9.4131872e-02
 -7.3015437e-02
  8.4541671e-02
  1.7114726e-01
  5.1874503e-02
 -1.9446367e-02
 -1.3452287e-01
 -8.4909923e-02
 -9.8299801e-02
  8.1018664e-02
  5.7917412e-02
 -7.8950964e-02
 -1.5232350e-02
  8.6082071e-03
 -1.5733523e-02
 -9.5250960e-03
 -3.0099189e-02
 -3.8622844e-03
 -5.0298385e-02
 -6.3895904e-02
 -1.4448465e-01
  1.8825051e-03
 -9.5616564e-02
  1.5519116e-02
  7.3078968e-02
  3.2797599e-01
 -2.0650612e-02
  8.6688496e-02
  9.2982985e-03
 -1.4129665e+00
  4.4492868e-01
  5.0536402e-02
 -5.9084602e-02
 -1.1087646e-01
  7.3852777e-02
 -2.8972391e-03
  6.3616998e-02
  4.8119824e-02
  7.4702032e-02
  7.2776146e-02
 -2.3301386e-03
 -1.7052889e-01
 -1.8208202e-02
 -1.6312794e-01
 -6.2887025e-01
  8.0352718e-01
 -1.9247612e+00
 -2.3243751e-02
 -1.4495555e-01
  4.8560638e-02
 -1.2829559e-02
  1.3015590e-02
 -1.2381075e-01
  9.2789000e-03
  3.9414585e-02
 -8.2159385e-02
  3.2500010e-02
 -7.0088714e-02
 -4.5137558e-02
  6.9327347e-02
 -6.8195961e-02
  2.2836991e-03
  7.3048659e-02
  5.9619480e-01
  1.2206451e-01
  2.1978900e-02
  1.5379660e-02
 -1.2035816e-02
  9.7096108e-02
  8.4152017e-03
  2.8517673e-02
 -6.4307265e-02
 -1.8435462e-01
  4.4953682e-02
  2.0621965e-02
 -5.6329321e-02
  5.3963077e-04
  6.1883651e-02
  4.2813233e-01
  4.2140041e-02
  4.6305388e-02
  3.0943358e-02
  6.9333976e-03
  3.5246976e-02
  1.7338399e-02
 -2.1491833e-03
  7.6532961e-05
 -1.5434289e-01
  1.9437008e-01
  2.1346936e-01
  2.5270367e-01
  1.6448370e-01
  8.3152071e-02
 -1.0687757e-01
  1.4725608e-01
 -1.5053943e-01
 -5.0492480e-04
  1.4018156e-01
  1.9522740e-01
  2.8278574e-01
  4.7742434e-02
 -4.7057368e-02
  9.0020202e-02
 -1.8345144e-01
  4.5947638e-01
 -6.6103898e-03
  2.1088995e-02
  3.1469330e-02
  2.0310985e-02
 -9.5691100e-02
 -8.1541561e-02
  1.0532872e-01
  1.4435412e-01
  9.7873144e-02
 -1.2846814e-01
  9.9094205e-02
 -1.0830204e-01
  7.1006358e-02
 -4.7581871e-03
 -2.4526695e-02
  2.1179838e-02
 -3.9401326e-01
  4.0013816e-02
  5.4828320e-03
  1.4767523e-01
  1.0637628e-02
 -7.7613115e-02
 -1.5906495e-01
 -3.2187414e-01
  2.1965031e-02
 -5.0845891e-02
  1.6604692e-01
 -4.7819698e-03
  6.9830164e-02
 -5.5528656e-03
 -7.4645095e-02
  4.1769590e-02
 -4.2516369e-02
  1.0600533e-01
 -5.3400174e-02
  1.7875064e-02
  9.3743458e-02
  5.1861709e-01
 -4.8374366e-02
 -4.9107555e-01
  1.2558568e-01
  7.3245235e-02
 -7.3314500e-01
  2.1022965e-01
 -1.7707837e-01
  3.2211067e-03
  5.8431059e-02
  2.5435258e-03
 -5.9949595e-02
  1.1101086e-02
 -8.6358599e-02
  1.0087128e-01
 -2.2428442e-02
 -1.0346364e-02
 -5.4229591e-02
  6.0409747e-02
  1.4945202e-01
 -1.9198310e-02
  2.4139099e-02
  6.9406472e-02
  8.6621903e-03
  3.3498263e-01
 -1.1405662e-02
  1.4062360e-01
  5.1943833e-01
  1.8958688e-02
 -1.4052150e-01
  2.4129180e-02
 -7.9877615e-01
 -1.5649556e-01
  2.0525540e-01
 -1.2023662e-01
 -5.0680868e-02
 -4.8906464e-02
 -1.8736857e-01
  1.0015436e-01
  8.3202444e-02
  1.2135865e-01
 -2.4540341e-02
  1.9007465e-01
  1.8451174e-01
 -1.5393811e-03
 -5.3450730e-02
  2.4637273e-02
 -2.5449168e-02
  1.8412581e-02
 -6.2935784e-02
 -1.3438442e-01
 -2.4524817e-02
 -1.2015238e-01
  2.2741334e+00
  1.4426085e+00
 -5.9382045e-01
 -2.9130724e-01
  7.3405856e-01
 -2.4520963e-01
  3.0503896e-01
 -2.6737979e-01
  1.5777172e-01
  4.5661497e-01
  1.1933737e+00
 -2.2861199e-01
 -2.3940705e-05
  9.9610157e-02
  5.4124945e-01
  3.7720975e-01
 -6.2936008e-02
 -2.1189356e-01
  1.7341025e-01
 -5.8559060e-01
 -8.9072442e-01
 -2.9393443e-01
  1.1889437e-01
 -2.0198660e-01
  5.2392367e-02
 -4.2964423e-01
  7.2216235e-02
 -3.7219384e-01
  2.8654981e-01
  8.7060630e-01
  1.1633323e+00
 -8.8423379e-02
 -8.1460643e-01
  1.1665348e-02
 -6.1451626e-01
 -1.1467776e-01
 -3.6409202e-01
  7.0620960e-01
 -5.2665806e-01
 -1.3908491e+00
 -1.7650191e-02
 -5.4138237e-01
 -6.9266953e-02
  1.1138965e+00
 -1.4976014e+00
  6.3690156e-02
 -5.9355885e-02
 -1.5434955e-01
 -5.1244956e-01
 -6.0608942e-02
  8.2108997e-02
  2.9645956e-01
 -3.4314722e-02
  2.8916740e-01
 -1.3513123e-02
  2.8099985e+00
  1.3938369e-01
  9.3406610e-02
 -4.8523441e-02
  9.7203121e-02
  3.7097853e-01
 -2.0737574e-01
 -2.6373363e-01
  7.6149069e-02
  6.6680264e-01
  2.0135006e-02
  2.6538569e-02
 -1.5516502e-02
 -1.2290657e-01
 -9.1180153e-02
 -1.1557470e-01
 -1.2883775e-02
  1.2868707e-01
  1.9435598e+00
 -9.3408011e-02
 -3.4887489e-02
 -2.0128702e-01
 -1.9796498e-01
  4.7823414e-02
  1.4368079e-02
 -1.3193367e-01
  8.1436408e-01
  9.5612541e-02
  3.3437472e-02
  7.1102835e-02
 -2.3881227e-02
  2.0783704e-03
  6.1038740e-02
  2.6978999e-02
 -7.8247927e-02
  8.1071213e-02
  2.8119304e+00
 -1.0244286e-01
 -3.1383265e-02
 -4.0166392e-03
 -1.1216224e-01
 -3.0894954e-02
 -1.5479854e-01
  5.7171542e-02
  2.9063779e-01
  5.5431146e-02
 -5.4816928e-02
 -5.5962127e-02
  3.6309764e-02
 -2.1523744e-02
  8.3262034e-02
  7.0973545e-02
  1.0179941e-02
 -1.9528649e+00
  3.1284561e+00
  1.1541841e+00
 -6.4422792e-01
 -3.5479215e-01
 -3.1525522e-01
  4.3832097e+00
  4.2865607e-01
  6.2567002e-01
  4.3058491e+00
  9.0664876e-01
  4.1593042e-01
  5.5419117e-01
  4.4018975e-01
  8.4104276e-01
 -2.1494513e+00
  4.7822598e-01
  2.5942710e-01
 -6.0326946e-01
 -6.7017775e-04
 -3.5824978e-01
 -2.2009911e-01
  6.3797012e-02
 -4.8614644e-02
  1.6646030e+00
 -8.7112200e-01
 -9.2687321e-01
 -1.1133906e+00
 -8.1270225e-02
  3.6219659e-01
  4.0031454e-01
 -9.6634221e-01
 -5.2551180e-01
 -3.4956854e-02
  9.5366105e-02
  6.5237574e-02
  9.7620010e-01
  1.8298221e-01
  7.3965532e-01
  9.9705738e-01
 -3.6452690e-01
  3.7220031e-01
  3.0701530e-01
  9.0818256e-02
 -5.5814102e-02
 -1.6688044e-01
  8.9759663e-02
  2.4426999e-02
 -1.3563302e-01
 -1.4341318e-04
 -3.1450678e-02
 -1.4803688e-01
 -1.7402579e+00
  1.6563271e-01
 -3.5144508e-01
  8.9391768e-01
  5.0687689e-01
  1.0016834e+00
 -8.4419799e-01
  2.5963940e-02
  1.0434514e+00
 -5.4959137e-02
  8.2619481e-02
 -3.7892365e-01
 -3.3727017e-01
  4.9548930e-01
  1.9361179e-01
  2.7510720e-01
 -5.0125480e-01
  6.7297167e-01
  1.3641609e-01
 -4.5271578e-01
 -5.0709802e-01
  5.1007706e-01
  4.5550967e-04
 -1.8588163e-01
 -7.7684931e-03
 -4.0200117e-01
 -7.6410574e-01
  2.8644702e-01
 -3.0393773e-01
  1.0401946e+00
  1.0723886e+00
  4.4394234e-01
 -4.9571097e-01
  3.2512739e-01
 -7.7060491e-01
  9.6332574e-01
 -1.2481722e-01
  7.4785575e-02
 -3.1683261e+00
 -6.0831839e-01
 -9.0283757e-01
  1.8260512e+00
  7.0365644e-01
 -6.4224440e-01
 -7.1684283e-01
 -2.1571862e-02
  1.9721171e-01
 -9.2318922e-01
  2.6975599e-01
 -3.9086130e-02
 -3.2865691e-01
  1.4813477e-01
  5.5521059e-01
 -3.9019766e-01
 -3.1834832e-01
 -3.1607833e-02
  1.0068134e+00
  3.3912647e+00
 -1.7429769e+00
  1.4109738e+00
  3.4908444e-01
  2.5031221e+00
 -5.6846327e-01
 -2.7893333e+00
  6.0530406e-01
  1.9891001e+00
  8.0819488e-01
  4.8446778e-02
 -1.4783360e+00
  8.5393608e-01
  4.5237249e-01
 -2.7882823e-01
 -2.3056470e-01
  1.2570895e-01
  1.9139471e+00
 -1.0734417e+00
  2.5813767e-01
 -1.4799966e-01
 -5.8528727e-01
 -6.8920210e-02
 -1.7313802e+00
 -6.0313475e-01
 -7.1333092e-01
 -3.2576070e+00
 -1.0049106e-01
  7.3961556e-01
  1.0483080e+00
  1.2655488e-01
  6.0558192e-02
 -4.1950035e-01
  3.3000200e+00
 -8.6695224e-01
  3.4014680e+00
  7.5797451e-01
 -2.1681283e-01
 -9.3218970e-01
 -9.7727388e-02
 -3.7021536e-01
 -2.0286614e-02
  5.4706317e-01
 -3.3020794e-01
  4.5212265e-02
  6.4102936e-01
 -8.0743335e-02
 -9.8264888e-03
 -5.8963884e-02
  4.4666845e-01
  3.6500973e-01
 -3.9633554e-03
  3.9962087e-02
 -9.1274627e-02
 -2.3911250e+00
 -2.6180267e-01
 -5.3129137e-01
 -6.7725903e-01
  9.5946223e-01
 -1.8536023e+00
  2.0445621e+00
  7.2677028e-01
 -4.5698279e-01
  8.0429786e-01
  1.1157601e-01
  1.7859371e-01
 -1.6125797e-01
 -1.9033499e-01
  5.2682447e-01
  2.6710808e-01
  5.1874381e-01
 -1.0161461e+00
  7.1514696e-01
  1.4743550e-02
  1.7153986e-01
 -6.9265455e-01
 -2.8750402e-01
  2.3416620e-01
  1.8659022e-02
  5.0921969e-02
 -5.0510597e-01
  6.0646355e-01
  4.0425515e-01
  6.8284249e-01
 -2.9735371e-01
 -4.8870406e-01
  6.4537150e-01
 -5.0557876e-01
  1.1697793e+00
 -3.2110527e-01
  6.2958562e-01
 -2.1830118e+00
 -3.6774056e+00
 -3.4419194e-01
 -1.1404321e+00
  8.4875423e-01
 -4.9205285e-01
  4.8462253e+00
  1.8786608e-01
  6.6128172e-02
  6.5086059e-02
  1.0087163e-02
  3.7165605e-02
  2.6092169e-01
  2.1324852e-02
 -7.0149757e-02
  1.6701298e-02
  2.3054875e-01
  2.7907460e+00
  1.7450343e+00
 -9.0121025e-01
  1.3119326e+00
  1.8377174e+00
 -2.1311195e+00
 -2.2520835e+00
 -1.8817953e+00
 -2.4909917e-01
 -1.6091126e-01
  1.0885790e-01
  4.8894173e-01
  1.1677206e-02
 -6.9122875e-01
 -8.9426112e-01
 -4.0723610e-01
 -1.4672920e-01
 -3.5335860e-01
 -1.3400190e+00
 -3.1289391e-02
 -2.9164303e-02
 -2.0086335e-01
  1.9932568e-01
  1.8567067e-01
 -7.5683974e-02
  7.4269468e-01
 -6.7674905e-01
 -1.4860554e-01
 -8.3329183e-01
 -5.5411202e-01
 -2.3849797e-02
  9.4487071e-02
  1.3893967e-02
 -4.1024643e-01
 -4.0790433e-01
 -4.8617077e-01
  5.8056456e-01
 -5.1748586e-01
  1.8972410e-01
  1.1255574e-01
  5.8104843e-02
  1.0165709e-01
 -1.6488034e-02
  6.4460540e-01
 -3.3052523e-02
  2.2643611e-01
 -8.9631662e-02
  4.6304159e-02
 -9.5306151e-02
  7.3294923e-02
 -1.3268755e-01
  4.3356121e-03
 -1.7826091e-01
 -8.6227387e-01
 -1.3619913e+00
  2.9824831e-02
  1.1038367e+00
 -4.2477787e-01
 -3.1631780e-01
 -5.2690066e-02
 -9.2653829e-01
 -2.6779056e-01
  6.3347341e-03
 -1.1472701e-01
 -6.4343303e-01
 -7.9455271e-02
 -1.8930888e-01
 -1.4608549e-01
 -2.3024617e-01
 -5.1457673e-01
  4.6570396e-01
  2.1625988e-01
  1.7022438e-01
 -1.7759815e-01
  2.6668829e-01
 -5.3398031e-01
  2.9317441e-03
 -1.3630089e-01
 -6.7638540e-01
  2.0717261e-02
 -9.5753449e-01
  2.1033455e-01
 -3.1439549e-01
  4.3025440e-01
 -2.1713595e-01
  2.0584796e-02
 -3.9904791e-01
  8.9765392e-02
  1.3885546e-02
 -2.9002478e-02
 -5.2544290e-01
  4.4649249e-01
  3.5111338e-01
  3.5004202e-01
 -2.0268379e-01
  2.0636983e-01
 -4.8570111e-01
  5.5598593e-01
 -5.2429259e-01
  2.2302073e-01
  2.1060243e-02
  3.9150509e-01
 -1.6759199e-01
 -2.3338531e-01
 -1.2346030e-01
  5.2175087e-01
 -4.6630889e-02
  2.3857536e+00
  2.9926782e+00
  2.3368289e+00
 -2.0232153e+00
  9.3330282e-01
  6.2325931e-01
  2.0488958e+00
  1.9058299e+00
 -8.2492715e-01
  8.7443542e-01
 -2.3582315e-01
  3.0137578e-01
  6.0176380e-02
  1.1677329e-01
 -1.7840616e-01
 -8.5030615e-02
  6.9979984e-01
  4.2802545e-01
 -4.9617928e-02
  5.6248075e-01
 -4.0150833e-01
  5.0808322e-01
  2.2706145e-01
  7.7367157e-01
  4.0730006e-01
  5.7792890e-01
  2.0800774e-01
  8.5433149e-01
 -1.1687028e+00
  3.2829189e-01
  3.1708089e-01
 -2.0381268e-02
 -8.1679493e-02
  6.3245922e-01
  4.5842099e-01
  9.0789795e-01
 -6.6646516e-02
 -1.2868764e-01
 -7.6400226e-01
 -1.9189711e+00
  3.7886626e-03
  2.1643353e-01
 -1.6471742e-01
  1.6777727e-01
  3.5298181e+00
  7.3650986e-02
 -1.5893694e-02
  1.1975519e-01
 -1.4940804e-01
  3.5387430e-02
  2.1616239e-02
 -7.5603880e-02
 -2.4529006e-01
 -3.6223333e-02
 -6.7101640e-01
  8.2366234e-01
 -9.8479174e-02
  8.6037397e-01
  3.9871436e-01
  4.9084371e-01
 -6.7210847e-01
  9.5142752e-01
 -5.7811248e-01
  1.6463406e-01
 -4.2680003e-02
 -1.7014299e-01
  4.5430418e-03
  2.3641798e-01
  2.1378335e-01
 -3.3320120e-01
 -1.0729622e-01
 -8.2535505e-02
  7.1685158e-02
 -1.8428849e-01
 -5.6445926e-01
 -1.9852677e-01
 -1.5097931e-02
  2.2729375e+00
  3.3287230e-01
 -8.6595035e-01
  7.3935390e-02
 -1.7278026e-01
 -6.4220555e-02
  1.3385627e-01
  4.9062401e-01
 -5.3657964e-02
 -6.9778790e-03
  2.7142411e-01
 -1.3145426e-01
  3.7899962e-01
 -1.6836154e-01
  4.8008165e-01
  9.6469325e-01
  9.2822188e-01
 -2.3883288e-01
  9.6833780e-02
  1.1783726e-01
  5.3951836e-01
  8.7410766e-01
  1.2976754e-01
 -3.4258887e-02
 -3.6684759e-02
 -2.7335337e-01
 -2.6220266e-02
  2.3384932e-01
  1.2931280e-01
 -1.3941340e-02
  2.6939237e-01
 -3.0585712e-01
  1.8674810e+00
 -5.9835869e-01
  1.6479911e+00
  4.0323768e+00
 -1.1120024e-01
 -1.0942574e+00
  1.8288748e-01
 -5.1651502e-01
 -8.6146706e-01
  2.5095198e+00
 -5.9858717e-02
 -1.8106203e-01
 -1.0119296e-01
  9.6473217e-01
 -7.5618547e-01
  7.4019325e-01
  2.6283160e-01
 -2.9915700e+00
 -2.3654130e+00
 -3.3092761e-01
 -3.5899195e-01
  2.5940257e-01
  1.3150598e+00
  2.6667233e+00
  5.7166821e-01
 -4.6505147e-01
  7.3116887e-01
 -1.5771760e-01
  1.1689010e+00
  9.0023911e-01
  1.1902490e-02
  7.3214185e-01
 -7.7129424e-02
  7.9406448e-02
 -2.6719159e-01
  2.8003345e+00
 -1.1808817e+00
  2.6394781e-01
 -2.1258626e+00
 -3.7524059e+00
  9.2604607e-01
  1.0120094e+00
  6.7947322e-01
 -7.8711295e-01
 -6.5034467e-01
  1.1542850e-01
 -1.3055526e-01
 -1.2952763e-01
 -1.9093941e-03
 -2.0806907e-01
 -1.2430796e-01
  1.3763502e-02
  7.8367092e-02
  1.3464350e-01
  5.1651245e-01
 -2.0067916e+00
  1.3617324e+00
 -9.7075707e-01
 -1.6045910e+00
 -3.0916595e+00
 -8.1560177e-01
 -4.3192235e-01
  3.5793146e-01
 -4.4086166e-03
  5.1204725e-03
 -3.4507906e-01
 -1.2603721e-01
  6.7458802e-01
 -4.1529298e-01
 -6.6482407e-01
  7.0314986e-01
 -2.2318047e-03
  1.2026185e+00
 -6.4839822e-01
  4.0365538e-01
  9.3533349e-01
  1.3497229e+00
 -5.4578596e-01
 -6.0495985e-01
  1.0498101e+00
  8.6948532e-01
 -7.2750792e-02
  1.2079113e-01
 -3.7472099e-01
  4.9735811e-01
  4.3896073e-01
  5.9023595e-01
  3.2536885e-01
  1.4822026e+00
  2.8014338e-02
  3.4526695e-02
 -1.5462611e+00
 -7.7085435e-01
 -1.3261384e-02
 -9.3368746e-02
 -2.2982674e+00
 -4.7694561e-01
  2.0390210e+00
 -1.3095738e-01
 -3.3183694e-01
  1.0382220e-01
 -2.0298375e-01
  1.0613187e-01
 -9.5022768e-03
 -2.7415773e-02
  9.3772396e-02
  3.5622266e-01
 -2.8220418e-01
  2.2705710e-01
  4.3407777e-01
  1.8439792e-01
  2.4045897e-01
  2.7677000e-01
  5.5775541e-01
  1.2486965e-01
 -1.6834241e-01
  3.4029013e-01
  1.2060338e-01
  1.2835900e-01
  8.0885082e-01
 -3.8584914e-02
 -2.1429166e-01
 -1.0054355e-01
 -1.7047560e-01
 -4.6958484e-02
  5.4435074e-02
 -2.4916302e-01
  1.8432768e-01
  2.9795824e-02
 -1.2192228e-01
  5.4165903e-02
 -2.7987793e-01
 -2.3722766e-02
  7.8431845e-02
 -1.8372215e-01
  1.1640679e-01
  3.8658712e-02
  1.7567614e-02
 -4.1252069e-02
 -1.1165451e-01
 -1.1314658e-02
  5.5484124e-02
  4.1628759e-02
 -3.7826486e-02
 -2.8893054e-01
 -6.3384492e-03
  1.0668615e-01
 -7.6713316e-02
  6.0576964e-02
 -1.6200775e-01
 -9.9810235e-02
 -1.7701913e-01
  9.0621985e-02
  3.5555556e-02
  3.1850811e-02
 -4.1371644e-03
 -1.7534662e-02
  4.3913595e-02
 -4.9142245e-02
 -5.2168183e-02
  1.4288451e-03
  1.8611665e-01
 -4.1548569e-02
 -2.1459566e-01
 -1.7334078e-01
 -5.7495159e-01
  6.2849700e-01
  5.3367203e-01
 -9.7300559e-02
  1.5179057e-01
  3.3920733e-03
 -1.6638190e-01
  2.1464568e-01
 -8.1034027e-02
 -9.1152713e-02
  3.3945434e-02
 -1.3044822e-02
 -3.2775536e-02
 -1.1348177e-01
 -7.0082508e-02
 -3.0158743e-01
 -1.1222416e-01
 -8.6229257e-02
  7.0615456e-02
 -1.6250685e-01
  3.5007637e-02
 -3.9069951e-02
 -4.0286377e-02
 -4.9075957e-02
 -5.7454783e-02
  5.3060442e-02
 -1.5344805e-02
  3.5967690e-01
  3.0538926e-02
  2.9557023e-02
  1.0255913e-02
 -8.8040590e-02
 -2.1366578e-02
 -1.9694327e-01
  1.2905946e-01
  1.9204810e-01
 -3.5450816e-02
  1.9070160e-02
  3.6638546e-01
  6.4794630e-02
  6.2633075e-02
  1.4853615e-01
  5.3570229e-01
  2.2453179e+00
 -4.0801723e-02
  4.1233260e-02
  6.4326875e-02
  6.9949582e-02
 -6.6032216e-02
 -3.0435769e-02
 -2.2852516e-01
  6.7154676e-01
  1.0049617e-01
 -1.9069852e-01
 -1.9812687e-01
 -1.4739773e-01
  4.2291778e-01
  2.7816010e-01
 -5.6663835e-01
 -6.5217257e-02
  2.3042613e-01
  4.9919654e-02
  7.5425699e-02
  9.0828277e-02
  1.0754985e-01
  1.1703369e-02
 -1.1353957e-01
  2.0446326e-01
  6.7549519e-02
 -1.8145093e-01
  9.1678590e-02
  1.4970459e-01
 -1.1521883e-01
  7.3099650e-02
 -2.5722245e-02
  1.1083993e-01
  6.1685912e-02
 -2.3250638e-01
  1.9029450e-01
  9.1801845e-02
  2.7682629e-01
 -2.8465539e-02
  8.7657340e-02
  1.0283818e-02
 -1.4547607e-02
  7.8304470e-02
 -1.4638209e-02
  2.8145736e-01
 -2.4513586e-01
 -1.2757340e-01
 -2.4409316e-02
 -9.0487146e-01
 -8.6249709e-02
 -4.2602632e-02
 -1.6462643e-01
 -1.0174078e-02
  6.6349261e-02
 -3.6013793e-02
  5.3546108e-02
  3.7364423e-02
  1.8858363e-01
  2.6087686e-01
 -1.8792118e-01
  8.0166452e-02
  1.6545551e-01
  1.6410948e+00
 -1.0644628e-01
  3.9173821e-01
 -5.9070718e-03
 -5.1703608e-01
  4.4077262e-01
 -1.3277957e-01
  3.9650130e-01
  1.4864239e-01
 -3.5523596e-01
 -1.5739176e-01
 -4.0605363e-01
 -1.1033289e-01
  9.9102072e-02
 -1.3520978e-01
 -6.0961250e-02
  2.8200395e-02
  1.2852716e-01
 -6.2494881e-02
 -2.2792661e-01
 -2.8410795e-01
  2.9788417e-01
 -1.7008407e-01
  8.1269227e-02
 -4.7244686e-01
 -1.7597455e-01
  2.5728354e-01
 -4.8259491e-01
  1.7040038e-01
  2.1813938e-01
 -7.6686546e-02
 -1.7551208e-01
 -2.0306414e-01
 -2.1591955e-01
 -1.2229614e-01
  7.5186655e-02
 -2.6789331e-01
  2.9356849e-01
 -4.2239988e-01
 -4.9076290e-03
 -1.9690558e-01
  1.1554473e-01
  4.7151071e-01
 -1.6189471e+00
 -7.0352770e-02
 -1.2256559e-01
  9.4416201e-02
  4.8804734e-02
  5.4704748e-02
 -6.2579341e-02
  9.0118729e-02
  6.2331580e-02
  7.1771719e-02
  9.6816224e-01
 -1.5641410e+00
 -6.1340547e-01
 -5.1699138e-01
 -3.5527244e-01
 -3.7607927e-02
  7.6377374e-01
  6.4719327e-02
 -4.2194450e-01
 -1.4679995e-01
 -3.7719062e-01
  1.9057898e-02
 -3.6661586e-01
 -1.0453007e-01
  1.0818151e-01
  1.5263909e-01
  5.0969083e-02
  9.5690880e-03
 -7.9172999e-02
 -1.3087533e-01
  2.2010450e-01
  3.5041941e-03
  2.7287588e-01
 -9.7958244e-02
 -7.3975280e-02
  1.8641664e-01
 -1.7381404e-01
  2.8528780e-01
 -4.0894139e-01
  9.4968393e-02
 -3.2817391e-01
 -1.0117152e-01
 -1.6548327e-01
 -2.3995264e-01
  1.2234121e-01
 -3.5459682e-01
  7.6504439e-02
 -5.4250717e-01
 -3.9378595e-01
 -6.9642723e-01
  3.7701558e-02
 -9.9468932e-02
 -1.4352082e-01
  5.3332869e-02
  8.4990084e-01
 -1.2377217e-02
 -1.2692450e-01
  8.2678013e-02
 -3.1738654e-01
 -2.3478394e-02
 -4.4373523e-02
 -8.9097187e-02
 -1.2911435e-02
  2.7002585e+00
  1.0261476e+00
  1.1167437e+00
 -1.4775464e-01
 -7.6864773e-01
  5.2451253e-01
  7.2655213e-01
  1.8552791e-01
 -2.0320108e+00
 -3.2287902e-01
 -2.6204922e+00
 -8.2964951e-01
 -8.8541847e-01
 -1.8132208e-01
 -4.1169253e-01
 -7.4608970e-01
 -3.0144301e-01
 -1.1497202e+00
 -2.9593316e-01
 -3.5559630e-01
 -4.0439591e-01
 -3.1910996e+00
  6.8474650e-01
 -4.3374410e-01
 -1.1490051e+00
  7.2790921e-01
  4.0040660e-01
 -1.7039433e-02
 -1.5186468e+00
 -2.6435739e-01
  1.9532900e-01
  4.8609456e-01
 -7.4222785e-01
 -1.2177305e+00
  6.9993562e-01
 -3.3413261e-01
 -5.6698686e-01
  8.4487778e-01
 -4.5901012e-01
 -1.6890168e-01
 -4.5423546e-01
  1.5998548e-01
 -3.8619015e-01
  1.6307491e-01
 -6.9321615e-01
 -3.9284989e-01
  7.4275768e-01
 -2.7447811e-01
  3.2747570e-01
 -7.7015303e-02
 -2.9462057e-01
 -1.7007118e-01
 -1.5465987e-01
 -2.0187341e-02
  3.4561062e-01
  1.3990527e+00
 -2.6369068e-01
  1.0215220e-01
 -2.1480925e+00
  1.5494184e+00
 -2.8426683e+00
 -2.9472461e+00
  3.4805265e-01
  8.4138155e-01
 -1.5463033e-02
 -6.8856323e-01
  5.2103281e-01
  2.3054602e-02
  2.9034254e-01
 -5.1002806e-01
  6.0385448e-01
 -1.7420623e-04
 -2.5454625e-01
  1.5287632e+00
  5.0171477e-01
  3.4790027e-01
  6.5421563e-01
  7.2765547e-01
  3.1975165e-01
  1.1236175e-01
  9.0648508e-01
  1.0397656e-01
  4.4334638e-01
 -1.2052798e-01
  1.1597702e-01
 -1.1600782e-01
  7.5645685e-02
 -4.0592340e-01
 -3.9289805e-01
  3.8719875e-01
 -4.6516302e-01
  4.1453215e-01
  1.0248618e+00
 -6.2094039e-01
 -4.6657205e-01
  4.1806653e-02
 -1.5606362e-01
 -3.3264565e-01
 -4.8272645e-01
 -1.2941333e+00
 -2.6950237e-01
  1.0641664e-01
 -2.9026369e-02
 -5.9388623e-02
  1.0445412e-01
 -1.1239959e-01
 -2.3887207e-01
 -1.3288964e-01
 -2.3549499e-01
  1.0202920e+00
  1.6823857e+00
  6.2876099e-01
 -2.4345705e-01
  1.0191497e+00
 -7.8401828e-01
  5.5924380e-01
  1.1956050e+00
  5.4826087e-01
  4.2489737e-01
  1.0302255e+00
 -9.6753860e-01
 -7.3733830e-01
 -2.4528852e-01
  9.4312054e-01
  1.6400862e-01
 -1.8103275e+00
  1.8699680e-01
  4.5219868e-01
  7.7035898e-01
  1.4899241e-02
  6.4022934e-01
 -1.6646703e-01
  5.9527653e-01
  4.9910074e-01
  1.2052068e+00
  6.7774349e-01
 -6.1676770e-01
 -1.2929931e+00
  4.5584580e-01
 -1.1324786e+00
 -1.5064334e+00
 -3.3792842e-02
 -7.3825341e-01
 -1.2177535e+00
 -5.6083310e-01
 -5.9559699e-02
 -4.4353467e-01
  5.2718943e-01
 -7.2900832e-01
  1.2757187e-01
 -1.1530185e-01
 -1.0175321e+00
  5.6592043e-02
  1.1950872e+00
 -9.3295850e-02
  2.5415075e-01
 -8.7560415e-02
 -2.0875406e-02
 -1.1915197e-01
  4.9380088e-01
  3.5749243e-03
 -3.9085394e-01
  4.5356858e-01
  1.7922646e+00
 -8.6806518e-01
 -5.6261849e-01
 -1.9473311e-01
 -4.5963019e-01
 -4.2507952e-01
  1.6766393e+00
 -4.2631173e-01
  7.2118831e-01
 -5.0341940e-01
  1.6330114e-02
  1.3022949e-01
 -2.1223910e-01
 -5.0203237e-03
 -7.9106396e-01
 -2.2794819e-01
  2.1771589e-01
 -2.7588984e-01
 -5.7775700e-01
 -4.0977728e-01
  4.4807553e-01
  4.9356382e-02
  4.3364149e-02
  3.7074000e-01
  2.5966300e-02
  3.4682772e-01
  4.4239119e-02
  4.2825036e-02
  7.5696838e-01
  4.6340000e-02
 -1.8367584e-01
  1.8776460e-02
 -3.0123122e-02
 -3.1780183e-02
  8.4944427e-01
  2.9908112e-01
 -2.3875728e-01
  5.9904355e-01
 -4.2441347e-01
  3.9785275e-01
  1.3164368e-02
 -1.3226192e-01
 -6.1711155e-02
  2.6966572e-01
 -1.8534852e+00
  4.4951063e-02
  1.0909054e-01
  1.0134405e+00
  2.9017016e-01
  8.5867820e-03
 -2.1669076e-01
  9.9762417e-02
 -1.2393368e+00
 -2.3941919e-01
 -4.4335124e-01
 -6.7591166e-01
  1.0260358e+00
 -4.3277231e-01
 -3.6867179e-02
 -1.5663016e-01
 -8.8421427e-02
  7.2150373e-01
  1.2380190e+00
 -1.3134047e-01
 -2.4452719e-01
 -9.0733045e-01
  4.4198456e-01
 -7.8913552e-01
 -3.4675267e-01
 -2.0746337e-01
 -7.0462656e-01
  9.0626788e-01
 -1.5965374e+00
 -1.1434760e+00
 -7.4853218e-01
  7.8677081e-02
  5.2279256e-02
  5.3422540e-01
 -7.3027807e-01
  1.5212305e+00
 -2.2319503e-02
 -1.4579090e+00
 -2.4621921e+00
 -1.8408512e+00
  7.2472131e-01
 -4.1084370e-01
 -6.3909107e-01
 -2.5897441e-02
 -4.8796546e-01
  1.5774955e+00
 -2.7202115e+00
 -6.9058132e-01
 -2.5514300e+00
  8.1984276e-01
 -4.2646918e-01
  4.1686252e-01
 -1.5985548e-01
 -2.5588157e-02
  5.2101213e-01
  9.3834722e-01
 -3.1054440e-01
  1.1712372e-01
 -5.6855015e-02
  8.0329157e-02
 -7.9307950e-01
  2.6362231e-02
  7.2492361e-02
 -9.5785949e-03
 -2.2693892e+00
  2.6946110e-01
 -3.1323893e+00
  5.6779617e-01
  2.9966040e+00
 -6.3188630e-01
 -4.1017738e-01
 -3.4109750e+00
 -2.0066774e+00
  1.7383660e-01
  1.6926138e+00
  6.8290778e-02
 -1.7460966e-01
  5.5165708e-01
  4.5150223e-01
  1.3372595e+00
  3.1812692e-01
 -9.2928869e-01
  1.1372509e+00
 -1.9192305e-01
  2.6276061e-01
 -3.8583180e-01
  6.6583300e-01
  3.4017298e-01
 -3.2324505e-01
 -2.8372246e-01
 -6.4734602e-01
  4.5548952e-01
 -9.0840429e-01
  8.5752261e-01
  9.6321666e-01
  4.9469972e-01
  7.9579258e-01
 -4.5187917e-01
  1.9068718e+00
 -1.2663546e+00
  2.5814930e-01
 -2.5245144e+00
  3.1599107e-01
  1.3293006e+00
  8.7059385e-01
 -2.8674799e-01
  2.9150510e-01
  1.7382885e+00
  3.7228607e-02
  2.2110201e-02
 -2.2053404e-01
 -1.0854051e-01
  1.0510634e-01
  3.9933828e-01
 -1.0370469e-01
  1.6125208e-01
 -2.8186890e-03
 -1.2422371e-01
 -3.9542787e-02
  5.0905846e-02
 -4.3141350e-02
  1.1248020e-02
  1.2620093e+00
 -1.1345728e-01
 -1.7412573e-02
  1.0989577e-01
 -3.8684253e-02
  1.2180095e+00
 -1.6242844e-01
 -1.9704157e-02
 -8.0726696e-03
 -8.4339762e-03
 -3.2497130e-02
 -8.3334871e-02
  6.9603629e-02
 -2.5557039e+00
  1.1716492e-02
 -5.9005048e-02
  9.9020012e-02
  3.0326499e-02
 -2.9733585e-02
 -1.5345576e-02
 -1.7121023e-01
 -1.4157131e-01
 -7.9857774e-02
 -7.3547520e-02
 -4.7645468e-02
 -1.6786289e-01
  1.3759939e-01
 -2.0607674e-02
  8.9529315e-03
 -2.7560947e-02
  6.5130919e-02
  9.5126078e-02
 -1.4692714e-02
 -1.0586812e-01
 -3.3293769e-02
  5.2838180e-02
 -1.4266263e-02
  6.3025147e-02
  2.5211891e-02
  3.3538010e-02
 -4.7020569e-02
  8.7977946e-02
 -4.4550948e-02
  4.0624283e-02
  4.6619516e-02
 -2.1378990e-02
 -8.5349113e-01
  3.8941700e-02
 -2.1735314e-02
  2.9207369e-02
 -1.2753603e-01
  3.4128964e+00
 -6.4389999e-03
  3.8328966e-01
 -2.8337339e-01
  3.7898785e-01
  3.7466744e-01
 -2.6966972e+00
 -2.3745745e-01
  8.4274188e-02
  3.9531654e-01
  7.0262216e-02
  2.3009448e-01
 -1.2082031e+00
 -3.4390429e-01
 -1.1753293e-02
 -2.5453326e-01
 -2.0844963e-01
 -1.1923869e-01
 -1.7523955e+00
  6.6343278e-02
 -1.5531355e-01
 -3.9488968e-01
 -6.2445212e-02
 -2.4634886e-01
 -1.2408347e-01
 -5.3166889e-02
 -3.5244188e-01
  1.0525038e-01
  1.2627669e-01
  2.9417470e-01
 -9.9625289e-02
  1.7841339e-01
 -1.0328891e-01
  7.4061327e-02
 -1.9618392e-01
 -1.4308815e-01
 -2.7090961e-02
 -3.5982549e-02
  1.4091523e-02
  1.0160366e-01
 -3.7135774e-01
 -9.0974577e-02
 -2.8186581e-01
  3.0301225e-01
 -1.4518893e-02
 -1.5937814e-02
  1.1089735e-01
  1.0241073e-01
  7.9411976e-03
  1.0721596e-01
  1.5544899e-01
 -9.6893229e-02
 -5.7473484e-02
  2.3147178e-01
 -5.4535401e-01
 -2.1461560e-01
 -1.1566479e-01
 -1.9956756e-02
 -6.6335000e-02
 -7.8162894e-02
  4.5057025e-02
  4.7729388e-02
  8.6172044e-02
 -2.6322443e+00
 -1.0556429e-01
 -1.1509782e-01
  6.4675741e-02
 -1.7824044e-02
  2.6241882e-02
  2.2648247e-02
  3.1753808e-02
  3.3643518e-03
  2.7439940e-01
  7.9920992e-02
  9.5719442e-02
  5.6436099e-02
 -8.6844437e-02
  1.2338671e-01
 -1.1093134e-01
 -1.5452166e-02
  5.3336848e-02
  5.1710770e-02
 -4.7073796e-02
 -1.2042046e-01
  7.2097354e-02
 -1.3899732e-02
 -2.0466888e-02
 -2.5771301e-02
 -1.2380360e-01
 -4.8379507e-02
 -4.3586642e-02
 -4.5743864e-02
 -9.0842031e-02
  1.5613707e-02
 -4.4520453e-02
 -1.8747965e-01
 -5.5779121e-03
  1.4400619e-02
  4.8519559e-02
 -2.3389636e-02
  9.0379000e-02
  2.0826344e-01
  7.3905602e-02
 -3.6899339e-02
 -5.2913476e-02
 -5.1397048e-02
 -1.6635045e-02
  5.6683261e-02
  1.4493002e+00
 -1.0004219e+00
  3.9032122e-01
 -3.6903191e-01
 -9.1274524e-01
  1.2262671e+00
 -1.5962839e-01
 -1.0216917e-01
  1.5828440e-01
  5.3021419e-01
 -1.6072898e-01
  6.6896659e-01
 -4.3011814e-01
  6.5138444e-02
  2.3821865e-01
 -1.1143619e+00
 -4.2013684e-01
 -2.3183899e-01
 -6.8367422e-01
  3.9993918e-01
 -8.9780074e-01
 -6.2626541e-01
  1.8506973e+00
  1.3749162e+00
  1.4501762e+00
 -8.8231552e-01
 -2.4052507e-01
  2.9767420e+00
  2.1993889e-01
  1.2489489e-01
 -1.3682015e-01
  3.7862417e-01
 -8.3686507e-01
  7.1078435e-02
 -1.0450124e+00
 -4.2108670e-01
  8.0365229e-01
  5.6406248e-01
  1.1716725e+00
  6.8623364e-01
  8.0399573e-01
 -3.4894094e-01
  1.0867164e-01
 -5.3622629e-02
  1.3577719e+00
 -2.4016440e-01
 -1.8752873e-01
  9.9435307e-02
 -2.2173852e-01
  2.3820055e-01
  2.9548545e+00
  8.4796712e-02
 -2.4241351e-01
  4.1832456e-01
  8.3642460e-02
 -1.9566619e-01
  2.8765646e-01
  2.1059828e-01
 -2.3250873e-01
  1.1098704e+00
  2.6478186e-01
  4.9679753e-01
  4.1525472e-02
 -4.3330637e-01
 -1.5463331e-01
  1.1271260e+00
  2.4413040e-01
  7.8017712e-02
 -9.9043861e-02
  1.0117007e-01
 -7.8882754e-02
  4.0248003e-02
  3.0273955e-02
 -1.5976410e-01
  2.2845021e-03
  6.4893238e-02
 -7.3206902e-02
 -4.3899417e-02
 -1.7776424e-01
 -6.2956028e-02
  1.0495578e-01
 -6.2924213e+00
 -9.2508323e-02
  9.0266094e-02
  2.9155273e-02
  1.3188170e-02
  4.3469855e-01
 -9.4310530e-02
  1.3527642e-01
 -1.3568079e+00
  1.2564116e-02
 -2.7640364e-01
 -4.9393332e-01
 -2.6679933e-01
  2.6466244e-01
 -1.0038435e-02
 -1.4592776e-01
 -6.1494505e-01
  1.8999682e-01
 -1.1274491e-02
  4.9738038e-02
 -1.4957291e-01
  8.5203528e-02
 -6.2661633e-02
  3.5356849e-02
  1.8276140e-02
  1.4135030e-01
  4.0312335e-01
  2.0777562e+00
  1.1920444e-01
  1.1414114e+00
  4.7738871e-01
 -1.2821878e+00
 -2.9969105e-01
 -4.9110863e-01
 -7.2162226e-02
 -3.9577192e-01
  8.3776736e-01
 -2.4097198e-01
 -1.0229776e-01
 -2.0773420e+00
  8.5417949e-02
 -1.1007938e-02
 -1.0209612e-01
  4.6108922e-01
 -8.6452946e-02
 -1.4688644e+00
  1.9805724e-02
 -5.9433335e-01
 -2.8825492e-01
 -2.7125913e-01
 -7.1527071e-02
 -4.3459669e-02
 -2.2235264e-01
 -5.5841929e-01
  4.7745126e-01
  2.2467457e-01
  3.0968204e-01
 -2.7367494e-01
 -3.4126863e-01
 -4.2825818e-01
  2.6634860e-01
 -1.9338046e-01
 -3.5553020e-01
 -1.1047788e+00
 -3.0252001e-01
 -4.8017579e-01
  1.1018816e-01
 -3.0442941e-01
  3.0653937e-02
  1.4597895e+00
  6.4063007e-01
  6.6490442e-01
  1.4189075e-01
 -2.0995494e-02
  1.3405286e-01
 -3.1102981e-02
 -2.2708325e-01
 -4.5398429e-01
  1.2297974e-01
 -2.8822008e-01
  9.5781147e-01
 -1.7653645e+00
  1.0328329e+00
 -1.6109464e+00
  4.0880680e-01
 -1.9614680e-01
 -2.5585401e+00
  2.4437615e-01
 -1.1424379e+00
 -2.0170006e-01
 -9.2860609e-02
  1.9956392e-01
  9.9189825e-02
 -2.0454562e-01
 -1.2157600e-01
 -5.7392520e-01
  3.4074944e-01
  5.0889838e-01
  1.3063879e-01
 -8.2955086e-01
 -3.2537052e-01
 -5.1169449e-01
 -2.3884691e-01
 -5.6633049e-01
 -1.1979011e+00
 -5.7738669e-02
  1.5786575e-01
  4.2322081e-01
 -1.9757462e+00
 -2.4848807e-01
 -4.7011575e-01
  5.3870708e-02
  2.1701652e-01
 -7.8134686e-01
 -4.8635906e-01
 -6.5773928e-01
  2.6737356e-01
 -1.5822560e-01
  3.2439706e-01
 -1.7482255e+00
  2.2638075e-01
  2.7984235e-01
 -5.6175064e-02
  9.4801855e-01
 -4.7656608e-01
  4.7538679e-02
 -1.6830079e-01
  1.9126430e-01
  1.8115916e-03
  6.3161105e-01
  2.4788322e-01
  2.0584831e-01
  1.7008519e-01
 -1.8066427e-02
 -1.1820211e-01
  2.2605726e-01
  1.5561177e-01
  2.0839034e-01
 -4.9914708e-03
  1.9382291e-02
  7.8246087e-02
  4.2437177e-02
 -1.5656438e-01
  4.1062076e-02
 -3.8663682e-04
 -2.2057425e-03
  3.2486019e-01
  3.6139809e-02
 -3.2621086e-02
 -9.3606845e-02
 -1.3408540e-01
  1.7958770e-02
 -3.8607880e-01
 -1.9789889e-01
  6.8775572e-02
  1.0134596e-01
 -5.8207247e-02
  5.8471058e-02
  5.3915646e-02
 -4.6064425e-02
 -1.8817522e-02
 -1.1865847e-01
  4.5585688e-03
  4.5959637e-02
  4.0107243e-02
  4.0364088e-03
 -2.3879291e-02
 -3.9380768e-04
 -9.2081297e-03
  7.4627057e-02
 -5.0085753e-02
 -4.5755647e-02
  1.0237338e-01
 -2.9031811e-02
  7.3438725e-03
  6.6288352e-02
 -3.3739649e-02
  8.6546533e-02
  7.6638297e-03
  4.1838311e-02
  7.2304808e-02
  1.0271869e-01
  1.1865115e-01
 -1.6753744e-02
 -4.9225325e-03
  8.3777100e-02
 -2.7874899e-01
 -1.1976598e-01
  2.8374884e-03
  4.1289160e-01
 -4.2151429e-02
  4.6412792e-02
 -1.0633035e-01
 -5.7688881e-02
 -2.0363829e-01
 -2.6913360e-02
  1.8564925e-01
 -1.0878862e+00
 -3.0217788e-01
 -7.2509028e-02
 -3.3363628e-01
  9.2271417e-02
  7.8374848e-02
  3.2503554e-01
  1.3042045e-02
 -9.3849465e-02
 -1.0970374e-01
  9.1947980e-02
  6.0710903e-02
 -1.2116382e-01
  1.0502859e-01
  5.6461137e-02
 -2.2339024e-01
  5.6252640e-02
 -7.3587291e-02
  8.7683618e-02
 -5.9513897e-02
  2.1779227e+00
 -3.1230524e-01
  3.6066193e-02
  1.8614827e-02
 -3.1136363e-03
 -1.3390350e-02
  2.1332715e-02
  1.9343472e-01
 -1.3062257e-01
  1.1615428e-01
 -3.1708601e-01
  7.4967787e-02
  3.9859086e-02
 -3.2985875e-01
 -5.4442942e-01
 -1.8144923e-01
 -7.3744822e-01
 -1.5729189e-02
  1.8046637e-01
 -4.4349324e-02
  4.5501761e-02
 -2.8867373e-02
 -1.0819036e-01
  8.1892312e-02
 -2.3437027e-02
  2.2887774e+00
  1.3528093e+00
  2.6802814e+00
  7.5891656e-01
  2.4744403e+00
  6.1487341e-01
  5.2185220e-01
  5.9208703e-01
 -1.6375018e+00
  1.9212481e+00
 -4.6347305e-01
 -3.9046243e-02
  9.9940139e-01
 -5.2148259e-01
 -7.2907299e-01
  3.4088376e-01
 -1.1893672e+00
 -4.5165896e-01
 -1.3588727e-01
  9.2103511e-01
  1.9259572e+00
  4.3575361e-01
 -4.7242841e-01
 -9.1515392e-01
 -1.2371093e+00
  1.9714596e+00
  1.1874982e+00
 -6.8952930e-01
  1.0470614e+00
 -8.1285465e-01
  6.1510909e-01
 -7.2454467e-02
  2.6412573e-01
  5.3409100e-01
 -4.5991012e-01
  1.2192200e+00
  1.2996964e-01
 -6.3119732e-02
  3.8775173e-01
 -1.6626679e+00
 -5.1938716e-02
 -5.5210203e-01
  6.7845978e-02
  1.1951449e+00
  1.2145264e+00
  1.1084437e-01
  1.6339353e+00
 -1.8133430e-01
 -6.4417154e-02
 -1.3021064e-01
 -3.0212652e-02
 -2.7872396e-01
 -1.9888887e-01
 -5.3892490e-02
  7.0407492e-01
  1.1200585e+00
 -9.8661834e-01
 -2.1591933e+00
  2.2405449e-01
  1.7868208e+00
 -7.7508205e-01
  2.7373761e-01
 -1.5699426e+00
  4.4711438e-01
  4.2155796e-01
  2.8879800e-01
  4.7659126e-01
 -8.5858501e-02
  9.7371470e-03
  1.8570228e-01
 -3.1856224e-01
 -2.7222538e-01
  3.4616125e-01
  6.3571495e-01
  1.3010253e-01
  5.1592344e-01
  1.4271544e-02
  6.3610595e-01
 -1.5764512e+00
  4.2854899e-01
  8.8273816e-02
 -2.9254336e-02
  2.1348441e-01
  2.1832679e-01
  1.5129416e-01
  9.5105350e-02
  7.5997151e-02
  6.8772152e-02
 -1.3721481e-01
  5.3075518e-02
 -4.7424158e-01
 -3.2480508e-01
 -1.6398250e-01
  5.2454579e-01
 -6.2700732e-05
 -3.8758880e-01
 -2.2669089e-01
 -2.0942459e-02
 -6.1041576e-01
  1.4361639e-02
  7.5462013e-02
 -1.0447270e-01
 -1.2448791e-01
 -6.0701478e-02
  2.6594114e-01
  2.6319645e-02
 -2.5577590e-01
  4.8054345e-02
  2.3322672e-01
  2.5135192e-01
  2.8465085e-02
  1.0705779e-01
  5.3935401e-02
  3.1771615e-02
 -1.8484466e+00
 -2.1767406e-01
  2.3255059e-01
 -2.1149684e-01
  2.8491548e-01
  1.0359304e-01
  1.2066720e-01
  6.6026986e-02
 -5.5734817e-02
  4.9432304e-02
 -1.5847352e-01
 -1.8177231e-01
  1.4426094e-01
 -3.0544740e-01
  1.3282634e-01
  1.3466410e-01
 -1.7366022e-01
  1.7621007e-02
  2.4887295e-01
  2.1801597e-02
 -3.5715394e-02
 -2.2300853e-01
 -4.8584890e-01
  1.0835787e-01
  1.7039289e-01
  5.5412361e-03
 -9.4507299e-02
 -1.6021591e-03
 -5.0855909e-02
  2.4722774e-02
 -6.5776326e-02
 -2.3858663e-01
 -1.7866184e-01
 -1.6538723e-01
 -3.7137270e-01
  4.3747146e-02
 -2.9661281e-03
  5.8842343e-01
  3.5891280e-01
  9.1432288e-02
  1.3331148e-01
  3.3045374e-02
  7.7986745e-03
 -6.9137082e-02
  2.0897430e-03
  2.1846469e-01
 -1.9645339e-02
 -1.6902749e-01
  2.0214715e+00
  3.0403498e-01
 -1.6288975e-01
 -9.6335113e-01
  9.5025694e-01
 -2.4206011e+00
  4.8012581e-02
  2.7901563e-01
 -1.4314520e+00
  7.5379759e-01
 -2.0000734e+00
  1.9374624e-02
 -7.3030166e-02
 -1.2564883e-01
  5.5346507e-01
  1.4545792e-01
  1.3447380e+00
  1.3462827e+00
 -2.6394987e+00
  3.4666237e-01
  6.8867487e-01
 -6.5016341e-01
 -1.7551628e-01
  1.3170376e-03
  1.7643497e+00
  5.1386929e-01
  6.6380495e-01
  9.5584899e-01
  8.0643898e-01
 -7.0988405e-01
 -1.5549713e+00
  9.9107899e-02
  3.3027500e-01
  3.7034470e-01
 -1.4207275e+00
  1.9463730e+00
  1.6199890e-01
  7.2519380e-01
  2.3596058e+00
 -2.8552263e+00
 -7.9686397e-01
 -5.1343191e-01
  8.5805500e-01
  9.2241657e-01
 -2.8546309e-01
  5.0309318e-01
 -4.3800365e-02
  3.5396937e-02
  2.2835453e-01
 -9.9875860e-02
 -8.8274956e-02
  2.9089579e-01
 -1.8976681e-02
 -1.0079234e-02
 -2.5107634e-01
  6.2398314e-01
  4.6380350e-01
  2.9038703e-01
  2.4588333e-01
  2.2870818e-01
  1.3631047e+00
 -1.4495039e+00
 -5.4587889e-01
 -1.0751902e-01
  3.9618313e-01
  9.1158554e-02
  3.1965122e-01
  1.2565441e-01
 -2.1501444e-02
 -4.2898536e-02
 -1.0393362e-01
  4.3508891e-02
  2.5882440e-02
 -9.8901451e-02
  7.7094674e-02
 -1.6631949e-01
  5.2166504e-01
 -3.3535231e-02
 -1.2567127e-02
 -1.1012242e+00
 -4.8453521e-02
 -2.7028385e-01
  4.7451146e-02
  1.0378295e-01
  7.1682885e-02
 -5.6179505e-02
 -8.0757299e-03
 -2.4873296e-02
 -2.0330313e-01
  3.4281921e-02
  3.7579775e-01
  1.7068331e-01
  1.5310726e-01
  2.4537756e-01
  7.6247151e-03
  2.7258739e-02
 -6.3149584e-03
  2.2444755e-01
  5.5391949e-01
  7.8454308e-02
 -8.9914024e-02
  2.1059275e-02
 -8.8113416e-03
  7.0868358e-02
  2.2630112e-01
  3.7127946e-02
 -6.2265877e-02
  7.3536456e-02
 -1.2870035e+00
  6.2937665e-01
  3.6759892e-01
  3.4337249e-01
 -2.4705324e-01
  9.4007760e-02
 -5.8547050e-01
 -3.3966044e-01
 -3.8149443e-01
  1.9384073e-01
 -1.9769832e-01
  1.1270365e-01
  1.8090858e-01
  2.6643839e-01
 -8.5683867e-02
 -1.5441804e-01
 -1.6359738e-01
 -2.3490958e-01
  4.3062383e-01
  1.4075402e-02
 -2.2059137e-01
 -3.9828628e-02
  5.7235267e-02
 -1.3782819e-01
 -3.7466071e+00
  2.4236545e-01
  2.1672325e-01
 -2.2166917e-01
 -1.2789711e-01
 -1.9552302e-01
  1.9866024e-01
 -1.2979986e-01
 -2.2684565e-01
  4.9501833e-01
 -4.4675857e-01
  4.2281693e-01
  6.2966377e-02
  4.6349096e-01
  3.2532297e-02
 -3.4813982e-01
  1.7631330e-01
  3.0790937e-01
 -7.9405092e-02
  3.8616362e-01
 -9.7376540e-02
  1.2532753e-01
  3.2390263e-02
 -6.7229688e-02
 -3.0629024e-01
 -9.4655804e-02
  1.1318209e-02
 -7.7399358e-02
  3.1694077e-02
 -1.3860874e-01
 -4.1024348e-01
  1.9719753e-01
 -9.8276675e-02
  6.4533257e-01
  8.1102466e-03
 -1.0301640e+00
 -4.2650824e+00
 -6.0091609e-01
 -7.0073181e-01
 -9.7308189e-02
  7.7383563e-02
  5.5732168e-02
  4.6566191e-01
  6.4124778e-02
 -3.0675358e-01
 -4.9464965e-01
  1.3293682e-01
  4.5312360e-01
  1.3555661e+00
 -2.7003354e-01
  7.9307556e-01
  3.5403517e-01
 -4.7563303e-01
  1.1612991e-02
 -4.7588027e-01
  1.9927053e-01
 -4.7536722e-01
  1.2024979e-01
  9.0310350e-02
  8.0964930e-02
  2.2009030e-01
 -2.0335107e-01
 -1.1420985e-01
 -1.4710498e-01
  5.3876534e-02
  1.3226597e-01
  3.0053374e-01
  1.9833891e-02
  8.0722290e-01
  5.5980128e-01
 -3.4567356e-02
 -3.1271473e-01
 -7.1510628e-02
  6.8202573e-01
  6.1035204e-01
 -1.5906654e-01
  9.1016693e-03
 -4.1726414e-02
  1.4164287e-01
  2.0210363e-02
 -2.7500507e-01
  1.5152411e-01
 -3.0540198e-02
  6.6725123e-03
 -3.9270449e-01
  3.8282764e-01
  2.3144881e-01
 -1.5837812e-01
  1.4080389e-01
 -2.8667066e-01
  8.4661156e-01
 -3.6791268e-01
  7.6498097e-01
 -1.5553513e-01
  3.9520285e-01
  9.6434325e-02
  2.9031900e-01
 -1.6609708e-02
  9.5983781e-02
  7.7890947e-02
  9.6425235e-02
 -9.1167446e-03
  1.0728061e-01
  3.4772135e-02
 -1.0670570e-01
  9.5405978e-01
  2.1630177e-01
  1.3501583e-01
 -1.1148378e-01
 -9.7449198e-02
 -2.0782583e+00
 -4.5146063e-02
 -1.5529428e+00
  2.1020806e-01
  8.9010380e-02
 -1.6475740e-01
 -2.6094034e-01
  3.8597766e-02
 -1.8018667e-02
 -1.8385288e-01
 -1.0026934e-01
 -1.6654977e-01
  2.5932857e-01
  8.3658618e-01
 -1.2924183e-03
 -3.7720438e-02
  1.3292545e-01
 -1.6112542e-02
  2.0416600e-01
  1.9195828e-01
  2.9153617e-02
  6.5200239e-02
 -1.2262080e-01
  1.2130557e-01
  1.6877505e-01
  1.6045649e-02
 -2.5241114e-02
  2.4694735e-02
  4.0900069e-01
 -2.6522896e+00
  6.5431640e-02
 -3.1816730e-01
 -6.9538492e-01
  1.0809968e+00
  2.7753253e+00
  1.7920323e-01
  5.7616127e-01
  8.5479267e-02
 -3.8909295e-01
 -3.0168384e-01
 -2.6905712e-01
  2.0284471e-01
 -4.2814460e-02
  1.5471326e+00
  1.6971217e-01
 -2.0765559e-01
  1.0581683e+00
  3.3354881e-01
  9.6248305e-01
 -2.4975078e-01
 -4.6183556e-01
  2.0784537e-01
 -4.2998251e-01
 -8.8056080e-02
 -1.4652271e-05
  2.1923080e-01
 -3.4323719e-01
 -2.5578180e-01
 -2.7730709e-01
  3.5673481e-01
 -1.0473834e-02
 -2.0465317e+00
 -4.5728126e-01
 -7.2436877e-02
  1.5233868e+00
  6.3030861e-02
 -2.5876907e-01
 -7.8730738e-01
 -7.9864889e-02
  1.6602562e-01
 -1.5490881e+00
 -2.8445563e-01
 -1.2865187e-01
  3.8822148e-02
 -1.6161729e-01
  3.3732613e-03
 -1.5179425e-01
  2.6535634e-02
  1.6628177e-01
 -8.0832489e-02
 -1.1344657e-01
  1.0232896e-02
  7.5096540e-02
  3.8173057e-02
  5.0725952e-02
  4.5127880e-02
 -6.9285236e-02
  1.7255640e-02
 -4.2655267e-02
  3.5312891e-03
  8.3557284e-03
 -4.8281622e-01
  1.5799035e-01
 -3.5886728e-04
 -7.8650475e-02
 -6.7672253e-02
  2.8646300e-02
  3.1054841e-02
 -8.9882590e-02
  8.8611312e-02
 -1.8370247e-01
 -1.1700573e-01
  6.9255069e-02
  4.1809443e-02
  7.5285338e-02
  8.7258443e-02
 -3.9404504e-02
 -4.0827997e-02
 -8.5703209e-03
 -3.7950929e-02
  5.3092208e-02
 -2.4559494e-02
 -2.0332823e-03
  1.3112004e-02
 -1.7189032e-01
 -8.8026389e-02
 -6.5018505e-02
 -7.2922315e-03
 -2.7324188e-01
 -3.8190212e-02
  3.9781153e-02
  3.1948092e-03
  6.0017046e-02
 -7.1383879e-02
 -1.1060690e-01
 -7.2218430e-01
  5.9272666e-02
  2.8303385e-02
 -3.3253063e-02
  7.3451951e-02
  3.2991733e-02
  4.0354311e-02
 -1.1995737e-01
  7.2390534e-02
 -4.2028647e-02
 -4.5266513e-02
  1.9328309e-02
 -1.2367175e-01
  4.2440692e-01
  4.2843607e-01
  2.3187704e-01
 -5.3969461e-01
 -4.4335559e-02
 -4.0687706e-02
 -4.9601197e-01
 -5.6748632e-03
  4.2208123e-01
 -1.5445176e-01
 -4.5534346e-01
 -2.0512755e-01
 -8.3122805e-02
  1.5632048e-02
 -8.1021547e-02
  2.4800816e-01
  7.6260217e-02
 -1.4904137e-01
 -8.1066296e-02
  1.6708915e-01
 -3.0681229e-01
 -1.9975178e-01
 -5.1349658e-01
 -4.3629465e-01
 -1.0861662e-02
 -2.7329394e-01
  2.6823167e-02
  1.9279805e-01
  1.6872406e-01
 -2.4654774e-01
 -1.9512157e-01
 -1.0201199e-01
  1.7986131e-01
  6.6205844e-02
 -3.3334357e-01
 -2.4979116e-02
 -2.5298465e-02
 -3.6792782e-01
 -2.2522557e-01
 -6.1174756e-01
 -2.8470155e-02
 -1.6199353e-01
  2.1063699e-01
 -5.3394057e-02
  1.7385280e-01
  4.3783031e-02
  4.8215177e-02
  8.8570930e-02
 -1.3617371e-01
  2.3593754e-02
  9.6807815e-02
 -1.6382878e-03
  1.2916156e+00
  2.2138336e+00
 -2.0184028e+00
 -4.7087979e-02
  5.8327967e-01
  8.3583319e-01
  1.4210138e+00
 -2.4933462e+00
 -9.6034563e-01
 -1.9932621e+00
 -5.7077384e-01
 -6.7876691e-01
 -1.3290083e-01
 -7.1672410e-01
  4.2200800e-02
 -2.2153935e-01
 -6.4572400e-01
  5.3156033e-02
 -1.6149976e+00
  3.9384013e-01
 -1.5172917e-01
  5.3672624e-01
 -2.4831861e-01
  6.4154905e-01
 -3.7917522e-01
  3.9527598e-01
  8.6718798e-02
 -7.2686297e-01
  2.0696458e-01
 -2.3848855e-01
  4.7371826e-01
 -3.4344837e-01
 -1.0612939e-01
 -7.9633296e-01
 -4.8388550e-01
 -2.7124962e-01
 -8.1033707e-01
  6.7555648e-01
  2.6057318e-01
  9.2441761e-01
  8.9399213e-01
  2.8176150e-01
 -4.9061775e+00
 -7.7384971e-02
  5.0344634e-01
 -2.1196060e-01
 -2.8927079e-01
 -4.5466769e-02
  1.0046165e-01
 -2.0628929e-01
 -1.4019629e-01
  2.5687495e-01
 -1.8167470e-02
 -5.0113149e-02
 -5.7167703e-01
 -1.1983293e+00
  2.8071320e-01
  4.4814986e-01
  2.1973553e+00
  9.7369254e-01
  2.1760218e-01
  2.1990174e-01
 -1.0164053e+00
 -3.5454374e-02
  5.8270878e-01
  3.2405517e-01
  6.8161130e-01
  2.5401008e-01
  1.2929614e-01
  1.5268415e-02
  9.5814697e-02
  4.8247555e-01
 -3.6548132e-01
 -6.9313359e-01
  5.9567600e-01
  3.8706493e-01
 -4.7456107e-01
 -8.1865802e-02
  3.4678718e-01
  5.2623945e-01
  2.0007239e-01
 -1.2375228e+00
  1.3099403e+00
 -1.2373093e-01
  7.4192673e-01
 -6.1507882e-03
  5.7684243e-01
  2.5324954e-02
  5.8028954e-01
  7.6731825e-01
 -1.8811582e-01
  1.4638117e-01
 -4.7111982e-01
 -2.1633573e+00
 -3.0211162e-02
 -4.8371863e-02
  9.5101029e-02
 -5.5695152e-01
 -1.2162193e+00
  4.5798723e-02
  1.9053552e-01
 -6.5796487e-02
  2.1961106e-01
 -1.2499588e-01
 -9.2211336e-02
 -8.6981572e-02
 -1.0403564e-01
 -1.5072918e-01
  2.9604051e-01
  1.4210877e+00
 -4.1447887e-01
  1.2841512e+00
  1.8124770e+00
 -3.6486176e-01
 -1.9419782e-01
 -1.7852075e-01
  6.7876321e-01
  1.0617638e+00
 -5.9592654e-03
  1.3178706e-01
 -1.5159276e-01
 -4.1598425e+00
 -1.5015070e-01
 -3.1969362e-01
 -5.9116863e-02
  3.1383321e-01
 -1.0691199e+00
 -2.9173440e-01
 -1.3598658e+00
 -6.6939592e-01
  1.0282118e+00
  3.0457565e-01
  2.0279748e-02
 -1.0712159e-01
 -2.8265399e-01
 -8.4147823e-01
  5.5496961e-02
  1.4684393e-01
  3.1895369e-01
  5.0570822e-01
 -2.1887515e-01
 -1.2305998e-02
  1.9205421e-01
 -1.0599373e-01
  3.0767614e-01
 -3.8391861e-01
  7.5678907e-02
 -1.5992822e-01
  2.7538087e+00
  1.7983510e-01
 -2.4517907e-01
  1.6261635e-02
  4.2885238e-01
  2.9786508e+00
 -2.1890061e-02
  5.1235534e-02
  1.6603453e-01
 -3.0915138e-01
 -8.8418491e-02
 -6.4950687e-01
  1.6174062e-01
 -1.5549268e-01
  4.7680229e-02
  5.9117061e-01
  1.0788102e-01
 -6.4649796e-01
 -3.4361895e-02
  7.8833565e-02
 -2.4117310e+00
  2.2925848e-01
 -4.6748587e-01
 -1.9744094e-01
 -2.1793932e-01
 -3.2472871e-02
 -5.3151412e-04
 -1.2432241e-01
 -1.2788038e-01
  3.1387982e-01
 -1.4596863e-01
  5.6465536e-02
 -1.5769501e-01
 -5.1781720e-01
  5.6444503e-02
 -3.9533082e-02
  2.5464848e-01
  3.3794999e-02
 -2.6750040e-01
  1.7151242e-01
 -1.8043032e-01
  7.2072707e-02
 -7.7401280e-02
  1.2616518e-01
 -1.4344001e-01
  1.6947212e-03
  2.4412506e+00
 -6.3774019e-01
  3.0352756e-01
  2.8050462e-02
  1.1604517e-01
  1.2883157e-01
 -1.3751589e-01
 -9.0572411e-01
 -6.2858894e-02
 -2.8623888e-01
 -1.6661271e-01
  3.5440597e-01
  1.8826100e-01
 -4.1953683e-02
  7.1017846e-02
 -8.1350971e-03
  4.8405189e-02
  2.9285310e-02
  3.2687478e-02
 -1.1724837e-01
  4.3427002e-02
 -1.2387221e-01
 -1.3795748e-01
 -6.9074683e-02
 -9.7094409e-02
 -9.6598312e-02
 -5.1412135e-02
 -7.1154617e-02
 -3.0799261e-01
  5.2734017e-02
  1.5958463e-01
  4.3648762e-01
 -1.0392515e-01
 -2.8901944e-02
  2.5638167e-02
 -1.0992540e-01
 -1.2900671e-01
  1.3462108e-02
  1.8175606e-02
  1.1017820e-01
 -4.9132742e-02
  1.7284440e-01
 -2.3560004e-02
 -1.2186597e-02
 -8.0323838e-02
 -6.6220604e-02
 -8.6280093e-02
 -2.6834043e-02
 -6.9694325e-02
  1.4526904e-01
 -2.0052038e-01
  1.7634512e-01
  6.4501472e-02
  6.9062635e-02
 -1.0746882e-01
  1.8671019e-02
  1.6433554e-02
 -3.7324652e-02
  6.8278871e-03
 -1.7688487e-01
 -9.3224466e-01
  1.8741706e-01
 -8.0211675e-01
 -2.5743194e-02
 -8.9783832e-02
 -2.5128134e-02
 -5.7895541e-02
 -7.3990159e-02
 -9.9824995e-02
  2.2298301e-02
  1.0620923e-01
 -1.4342856e-02
 -6.1341602e-02
  4.3341506e-02
 -7.4786325e-03
  7.4868247e-02
 -8.4803313e-02
  7.8640091e-01
  2.4877495e-01
 -1.1475622e-01
 -2.1701695e-01
 -6.0490917e-02
  4.2833105e-01
 -2.3137684e-01
  2.8168419e-01
  2.2508712e+00
  1.5523963e-01
 -9.7235583e-02
 -1.0052543e-02
 -1.6514404e-01
  2.2600880e-02
 -7.1601182e-01
  6.5716898e-01
 -1.1911560e-01
 -1.9885714e+00
 -3.1286764e-01
  2.3773222e-01
 -5.9398308e-02
 -2.5185642e+00
 -6.2926789e-03
 -1.1067989e+00
 -1.3218577e-01
 -1.2979871e-01
  1.5061890e-01
  1.3355539e+00
 -6.3291110e-02
  1.5636264e-01
 -2.5412115e-01
  3.4646841e-03
 -2.6576853e-01
 -9.0454966e-02
 -2.2051198e-02
 -9.9104398e-01
 -2.1436454e-01
 -2.0460017e-02
  1.8283571e-01
  2.1147763e-02
 -2.4648203e-01
  3.2857695e-01
  1.0556070e-01
  3.4632275e-01
  8.4833980e-01
 -7.9904377e-02
 -3.1428646e-02
  9.0926670e-02
 -4.7234145e-01
  4.7553636e-02
  3.6021063e-01
 -2.3646357e-03
  7.8910246e-02
  1.0111672e+00
  1.6077480e+00
 -1.1676096e+00
  4.8242232e-01
 -8.6929750e-01
  1.9865908e-01
  8.8235265e-01
  9.8507810e-01
 -6.4006567e-01
  3.2334349e+00
 -2.4820499e-02
  5.5757755e-01
  5.8221865e-01
  4.2398098e-01
 -1.2620244e+00
 -1.1536822e+00
  1.1846881e-01
  1.9585201e-01
 -4.6147820e-01
  6.5141994e-01
  4.7104326e-01
 -7.9924695e-02
  2.0721161e-01
  7.4524742e-01
  6.2989742e-01
  7.4820167e-01
  2.7379890e-03
  3.8162190e-01
  1.3998038e-01
 -4.2312849e-01
 -6.1004972e-01
  1.0424857e-01
  6.6587985e-01
  5.0590312e-01
 -1.0643930e-01
 -3.2740164e-01
  8.5546660e-01
 -2.3444207e-01
 -1.7927360e-02
  1.2598388e+00
  4.2546898e-01
  1.1835891e+00
  1.4052685e+00
 -2.4012940e-01
 -2.1294989e-01
 -2.7482533e-01
  6.1359830e-02
 -1.0954761e-01
  1.0254053e+00
  1.2991293e-01
  2.9145423e-01
 -1.5484591e-01
 -1.1055180e-01
 -1.4507128e-01
 -4.2534754e-02
  3.0749211e-01
  1.1338398e-01
  5.6691176e-01
  2.9894716e-01
  3.4825057e-01
  1.8115863e-01
  3.0798995e-01
 -4.1789582e-01
  1.2689649e-01
  4.8667543e-02
  1.1273079e-02
  3.0204090e-01
  2.7200600e-02
 -1.1484233e-01
  1.7939219e-01
  1.0000996e-02
 -8.9981750e-02
 -6.7818016e-02
  9.5545486e-02
  9.9720739e-02
  6.4622116e-01
 -2.1864897e-01
 -1.3376029e-01
  1.6677006e-01
  1.0911462e-01
 -3.0330780e-01
  1.5841180e-02
  1.8978769e-01
 -1.2176010e-01
  1.3921784e-01
 -1.1716862e-01
 -3.3719733e-02
  1.2432326e-01
 -2.0583288e-01
  1.0639997e-01
 -9.3721472e-02
 -1.7183846e-02
  3.5288551e-01
  3.0058864e-01
 -5.5703752e-02
 -2.0689757e-01
  1.9567515e-01
  1.7050184e-01
  2.0660827e-01
 -1.2914360e-01
 -4.1286234e-02
 -9.6423715e-02
  4.2254347e-02
  8.7454362e-04
  2.2821420e-01
 -1.2751836e-01
 -7.2325990e-02
 -2.9093884e-02
  8.6756907e-03
  5.2348226e-02
  1.4078506e-02
  1.1643729e-01
  7.4514687e-02
 -1.9306801e-02
 -1.0112113e-01
  4.9541933e-03
 -1.0505497e-01
 -8.3621606e-02
  3.8878225e-02
  2.0614957e-02
 -6.1651077e-02
  3.4457156e-01
  3.3072680e-02
  1.0209917e-02
 -7.0965722e-02
  2.6281232e-02
  1.5111186e-01
  4.1197352e-02
 -3.1399445e-03
  1.6396031e-02
 -6.0262777e-02
  7.3348276e-02
  7.4931949e-02
 -6.5892413e-02
  9.9519379e-02
  1.2138636e-01
  6.5384120e-02
  9.0382434e-02
  5.0070804e-02
  2.5620008e-02
  3.6708251e-02
 -4.5608394e-02
 -5.0515484e-02
  5.8924630e-02
  5.7486046e-02
  5.7136588e-02
 -7.3007196e-02
 -2.8324002e-02
 -8.8689125e-01
  2.9107342e-02
 -7.6927558e-02
 -2.1114204e-02
  3.4222074e-02
 -5.7712026e-02
  9.1593258e-02
  8.6956836e-02
 -1.0571751e-01
 -4.1609220e-02
  3.5417270e-02
  5.7325143e-02
 -1.2673364e+00
  1.2010358e-01
  4.3150949e-01
 -1.5161226e+00
 -1.3345187e+00
 -1.3948926e+00
 -1.4870787e+00
 -2.2199130e+00
  1.8440207e+00
  5.4743421e-01
 -1.8892304e+00
 -2.1737938e-01
 -6.9790423e-01
  1.3554997e+00
 -1.6291554e+00
 -1.9174258e+00
 -2.3933852e+00
  1.2157170e-01
  1.4464384e+00
  1.9112606e+00
 -1.2113714e+00
  1.2087691e+00
  1.3359029e+00
 -1.6851828e+00
  1.5760225e+00
 -1.2429397e+00
  1.5627112e+00
 -1.7965149e+00
  8.7097943e-01
  2.1271243e+00
  8.4420010e-02
  1.3652426e+00
 -2.7750266e-01
 -6.6843051e-01
 -1.3807935e-01
  1.7341893e+00
 -1.6666156e+00
 -2.0727761e+00
  2.4220328e+00
  1.2120607e+00
 -2.9307439e+00
 -1.2168508e+00
  1.5525589e+00
 -2.2320710e-01
  2.4076131e-01
 -1.9212002e-01
 -6.8839324e-01
  1.1368536e+00
  4.3796599e-01
 -5.6617242e-01
 -8.8885784e-01
 -1.0541822e+00
  1.1518160e+00
 -6.1439949e-01
  6.7647912e-02
 -2.6703933e-01
 -3.0775857e-01
  2.4425962e+00
 -4.9491379e-01
  1.3718541e+00
 -5.2172893e-01
 -3.1305037e+00
 -1.3896030e+00
 -2.0951929e+00
  2.3360363e-01
 -1.3152196e+00
  2.4817836e+00
  1.8389423e+00
 -1.8820220e+00
  1.2574781e+00
  2.1895995e+00
  2.9531155e+00
 -1.3726939e+00
 -1.8115404e-01
 -1.9970262e+00
  8.1280464e-01
  3.5916549e-01
 -1.0971408e+00
  1.1909389e+00
  1.4901601e+00
  4.2075804e-01
  1.2918541e-01
 -2.4025941e-01
  5.3461611e-01
  5.7208270e-01
  3.7850398e-01
 -4.0274698e-01
 -3.5657614e-02
 -3.4739375e-01
  3.5269845e-01
 -6.7049861e-01
 -4.5666900e-02
 -1.0179372e+00
  1.5473980e+00
  8.4561485e-01
 -6.3124269e-01
 -3.5153660e-01
 -1.9855562e+00
  5.7108480e-01
 -2.9453683e-01
 -1.0740241e+00
  5.2066869e-01
 -1.2726326e-01
  5.2446492e-02
 -1.0727170e-01
  9.6885043e-01
  1.9477889e-01
 -2.0941045e+00
  4.0432051e-01
 -7.8142500e-01
  6.0176402e-01
 -1.3765765e+00
  5.7690221e-01
  1.8822504e-02
 -2.2908317e-01
  6.8314381e-02
 -6.8086928e-01
  6.4444113e-01
 -3.2007086e-01
  3.3439615e-01
 -1.8972619e-01
  3.9366981e-01
 -5.1282245e-01
 -3.2303429e-01
 -1.7272572e-01
  7.1029568e-01
 -1.1160350e-01
 -1.9951408e+00
 -1.8240790e+00
 -5.6293029e-01
  7.4122226e-01
  3.1368953e-01
 -9.2932016e-01
 -7.0920837e-01
 -2.2262815e-01
 -2.1986217e+00
  2.5437686e-01
  7.9092437e-01
 -9.6012402e-01
  6.0066044e-01
 -1.8901610e+00
 -1.6937032e+00
 -4.4595174e-02
  1.3099828e+00
 -2.8372860e-02
  6.2549859e-02
  8.1901260e-02
  2.0580348e-01
 -1.9650860e-02
  1.2681998e-02
 -5.0350238e-02
  1.6078348e-01
 -1.3446556e-01
  1.0019941e-01
 -8.8801319e-03
  2.1276344e-02
 -1.4648500e-01
 -1.1463040e-02
 -1.1736577e-02
 -5.5215262e-02
  1.7586289e-02
 -1.4555946e-01
 -7.2237127e-02
  2.8034579e-02
  2.1535061e-02
  1.0784288e-01
 -1.0282963e-01
 -4.0698063e-02
 -2.1186454e-02
  1.0528880e-01
  1.1660260e-01
  6.8521671e-02
 -5.8573633e-03
  2.7847534e-01
  2.7423577e-02
  2.3406221e-02
 -3.5628315e-02
  7.6150239e-02
 -9.4683029e-02
 -9.4236089e-03
 -2.5838963e-03
 -1.5762376e+00
 -5.6198653e-02
  2.0490237e-02
 -9.2856579e-02
 -1.8378561e-02
  8.6544439e-02
 -3.5146110e-02
 -6.0467914e-02
 -1.2243613e-01
 -1.2744297e-01
 -1.0342718e-01
 -6.0020134e-02
 -6.9745578e-02
  8.1572682e-01
 -9.2980385e-02
  9.7605377e-01
 -9.9657905e-01
  1.3834124e+00
  2.0903873e+00
  3.4702003e-02
  2.6936382e-03
  6.4678371e-01
 -7.1469992e-02
 -2.7482152e+00
  8.8278219e-02
  2.8919342e-01
 -2.5666028e-01
  3.4127885e-01
  7.5397635e-01
  1.8719758e-01
  9.2687108e-02
  7.3360264e-02
  5.0182760e-01
  3.2641935e-01
  7.9266571e-02
  3.8814086e-01
  4.4088989e-01
  1.3347398e-01
  2.3113230e-01
  6.8554699e-02
  1.1617666e-01
  3.8241427e-02
  5.9778034e-04
 -2.8738105e-01
 -9.3257025e-02
  8.5590065e-02
 -1.5963463e-01
 -1.1648820e-01
  5.2105498e-01
  1.4154665e-01
  8.5326351e-02
  2.7344730e-01
 -7.0780903e-02
 -3.2512316e-01
 -1.8730040e+00
 -6.1602592e-01
 -1.3606941e+00
 -2.5208023e-01
  1.2996193e+00
 -1.4187870e+00
  8.0840454e-02
  1.5026069e-02
 -1.1152712e-01
 -1.2951869e-01
 -2.4871601e-02
 -1.5061945e-01
 -2.2190459e-01
 -7.9395550e-01
  6.6343829e-02
  1.7908105e+00
 -1.6710223e+00
 -1.6392831e+00
  8.3484995e-01
  2.6614952e+00
  3.5636230e+00
  1.8290776e-01
  2.1518617e+00
 -2.3090217e+00
  4.2018673e-01
  3.8603565e-01
 -3.8265216e-01
 -9.0417880e-01
  5.4371661e-01
 -2.0488653e+00
 -5.8351707e-01
 -9.8839307e-01
  6.6427660e-01
  1.1498822e+00
 -3.9413810e-01
 -3.0868594e-02
  8.4166503e-01
  1.1526872e+00
  7.8330380e-01
  1.3604760e-01
  7.1338248e-01
 -3.1867912e-01
  8.9733559e-01
  1.3297756e-01
  3.8105023e-01
  6.8822801e-02
 -8.5871029e-01
 -2.8384015e-01
 -1.3436712e+00
  3.4132981e-01
 -6.9246101e-01
  2.4206869e-01
 -4.4607878e-02
 -2.4376523e-01
  6.2631629e-02
 -5.6637377e-01
  1.7904161e+00
  2.3005980e-01
 -1.0546784e-01
 -5.8145517e-01
 -1.6392162e-01
 -6.0719553e-02
 -1.6018011e-01
  2.3723233e-02
 -1.8325171e-01
 -4.4417477e-01
 -5.3796226e-01
  4.1614078e-02
  5.3348053e-01
 -6.3027561e-02
 -4.2698291e-01
 -2.9997097e-03
  9.6354261e-02
  3.8809630e-01
  1.1445590e-01
 -1.6907720e-01
  4.9909130e-02
 -9.4960339e-02
  1.0612324e-01
  1.8998278e-02
  2.9560393e-02
 -6.1738484e-02
  6.8952334e-03
  2.6955888e-01
  1.5983121e-01
  2.3642180e+00
  6.1461896e-02
  3.4788918e-02
 -3.4829447e-01
  4.7872975e-01
 -4.2251360e-02
 -1.2441941e-01
  1.9378799e+00
 -2.2328745e-01
  1.0454513e-01
 -1.5372199e-01
 -5.3343415e-02
  1.3188024e-01
  7.4044056e-02
 -7.4052356e-02
 -7.1028434e-02
 -5.0418720e-02
 -1.3101858e-01
  2.6875630e-01
  1.4719862e-01
  3.4130529e-02
 -9.5037416e-02
  4.7899228e-02
 -2.4108520e-02
 -5.4554339e-02
 -1.9542783e-01
 -2.2350778e-01
  1.3315382e+00
 -9.6165508e-02
  7.1542069e-02
  1.0629343e-01
 -1.4370579e-01
 -1.1747776e-01
 -1.1832597e-01
  2.5442515e-02
  3.7058804e-02
  1.2257976e-02
  2.1818729e-02
  4.1977735e+00
 -2.1438043e+00
 -2.0684385e-01
 -1.5656334e+00
  3.9587426e-01
 -6.5762010e+00
  2.4587538e+00
  2.2370965e+00
 -6.7632872e-01
 -1.0193763e+00
  3.9592665e-03
 -1.2410808e-01
 -1.1015307e+00
 -1.2869580e+00
 -3.9176592e-01
 -4.5202303e-01
  2.3212602e+00
  9.0710050e-01
 -8.4832609e-01
  3.6997479e-01
  2.7735195e-01
 -1.1838006e+00
 -1.2445061e+00
  2.8438869e+00
  2.8167769e-01
 -4.6718058e-01
  1.3513244e+00
 -8.4297693e-01
 -1.2021737e-02
 -4.6753177e-01
 -9.8959541e-01
 -1.1404315e+00
 -1.7257293e-01
  8.1280380e-02
 -6.7744672e-01
  8.0939168e-01
 -7.0633525e-01
 -1.9024439e-02
 -4.1882941e-01
 -1.0928606e+00
  3.4335124e+00
 -4.8163733e-01
  8.6080152e-01
  2.0569282e+00
 -6.2052041e-01
  4.1976374e-02
 -1.0209329e-01
  8.4013566e-02
  5.5397887e-02
 -1.9841424e-01
  1.3559946e+00
  3.5869968e-01
 -5.4349158e-02
  9.0386868e-02
  1.7304862e-01
  7.4204934e-01
  5.4193807e-01
 -1.2393404e-01
 -1.7453852e+00
  2.5765781e+00
 -9.9111915e-02
  5.3665370e-01
 -2.4314672e-01
 -1.0699556e-01
  1.1321952e-01
 -1.1387782e-01
 -9.9542081e-02
 -1.4224142e+00
 -2.7298567e-01
  7.8657165e-02
 -9.4739996e-02
 -1.4990848e-01
 -7.4228722e-01
  1.5919065e-01
  6.8137264e-01
 -2.5786287e-01
  2.2191670e+00
 -8.6335868e-01
 -2.8982970e-01
 -1.4484395e+00
  4.4203365e-01
 -5.2332152e-02
 -2.6844405e-02
 -2.6775765e-01
 -9.0499461e-02
  4.9664211e-01
  1.2763465e-02
  2.5116784e-02
 -2.0988172e-01
 -1.5771914e+00
 -4.3990821e-01
  2.0835358e-01
  9.5755535e-01
 -1.1447853e+00
  3.2132730e-01
 -4.8258352e-01
  1.6421673e-01
 -4.9224016e-01
 -6.3997841e-01
  9.9016473e-02
  3.1418271e-02
  2.8767347e-01
  1.3334601e-01
 -5.7283157e-01
 -4.5373652e-02
 -1.5020123e-02
 -2.4408638e-02
  3.8154427e-02
 -6.8732619e-01
  4.4461465e-01
 -3.5203645e-01
  2.6760602e-01
  4.5399165e-01
  6.4682990e-01
  1.5700771e-01
 -5.7380687e-02
 -6.6744512e-01
  3.1571865e-01
  2.0428988e-01
  2.6242054e-01
  1.5153858e-01
  3.1311241e-01
  4.9414963e-01
  1.2072861e-01
  5.5759260e-04
  2.4059543e-01
  1.4812250e+00
 -4.0562641e-02
 -1.6757254e-01
  6.8135959e-01
  1.8759207e-01
 -5.2579975e-01
 -5.3301368e-02
  1.6887905e-01
 -4.5517075e-01
  8.6737245e-02
 -2.7377952e-02
 -8.1238583e-02
 -3.3278024e-01
  5.0272498e-02
  7.8968316e-02
  2.0040210e-02
  3.5376790e-01
 -4.4274259e-02
  8.5739695e-02
  9.4592400e-02
 -2.6052943e-01
 -2.5556436e-01
 -1.2294826e-01
  6.2756854e-01
 -4.0608710e-01
 -4.3586811e-01
 -3.7849594e-02
  5.4612752e-02
  1.1149202e-01
 -1.0924848e+00
 -1.7912285e-01
  2.8149265e-01
 -1.5859894e-01
 -4.8862341e-01
  3.4354016e-02
  6.6041815e-01
 -3.3154991e-01
 -2.1397092e+00
  2.4713495e+00
 -1.3345901e+00
  1.7200953e+00
 -1.0571998e+00
  3.1809466e+00
 -2.8604443e+00
 -2.3113146e+00
 -5.1066917e-01
  5.3984267e-01
  2.1639829e+00
  3.4344649e-01
 -2.0484498e+00
  5.7063746e-01
 -8.7158704e-01
 -1.5093038e+00
 -1.8825506e+00
 -5.6159449e-01
 -1.2162935e+00
  1.4785287e+00
 -8.5307071e-03
 -1.7591015e+00
 -2.6201153e+00
 -4.0012455e-01
 -1.2694776e+00
 -8.0145860e-01
 -3.5168070e-01
 -9.8089486e-01
 -1.9095492e+00
  1.3656105e-01
  4.9270809e-01
  2.0429113e+00
 -1.0612431e+00
  4.5898563e-01
 -6.0038882e-01
 -1.7411348e-01
  2.2977176e+00
  5.6617856e-01
 -4.2803800e-01
  1.6177278e+00
 -9.1085769e-02
 -3.4411547e+00
  9.0491676e-01
  1.8555833e-01
 -7.3851728e-01
 -3.9938855e-01
 -6.3277465e-01
  4.0081147e-02
  1.0734628e+00
  8.0350822e-01
  3.4822989e-01
 -5.6270552e-01
 -2.7932310e-01
  1.9797173e-01
  3.2508578e+00
 -1.6337470e+00
  1.0086877e+00
 -2.2313802e-01
  2.2973034e+00
  1.0380869e+00
  1.4039974e+00
  1.2767931e+00
 -2.0572233e-01
 -3.9249060e-01
 -1.7601596e-01
  2.3713142e-01
 -5.5580832e-02
  1.1396858e-01
 -2.2238925e-02
 -5.2579306e-02
 -4.0292412e-01
 -6.8950993e-01
 -1.6849564e-01
 -3.0001092e-01
  3.9413604e-01
  1.1843977e+00
 -1.3853313e+00
  4.4018996e-01
 -4.3889683e-01
 -1.4659813e-01
 -3.4074491e-01
 -1.2629430e-01
 -2.5946116e-01
 -3.1031668e-01
 -9.9542785e-01
  2.0194709e+00
  1.6912022e-01
 -7.0100701e-01
 -3.1987348e-01
 -3.7288371e-02
 -9.7566301e-01
  8.6545683e-02
  2.0645529e-01
 -1.6711078e+00
  6.6566920e-01
  4.2702672e-01
 -1.8411431e-02
  8.3433890e-01
  7.3933415e-02
 -6.9938082e-01
 -1.4101461e-01
  3.6500499e-01
  3.2681066e-01
  3.2365017e-02
  2.0241003e-01
  7.1554095e-02
 -2.9859957e-01
 -1.4142284e+00
 -5.3292096e-01
  1.7292247e+00
 -9.4141537e-01
  1.2819570e+00
 -1.0817571e+00
 -1.5553961e+00
 -1.9226512e-01
 -1.8597078e-01
  1.3293000e-01
 -1.5716680e+00
  4.0756413e-01
 -1.5511939e-01
  3.4548792e-01
  5.4215565e-02
 -2.1178569e-01
  1.8463880e-01
  3.4552911e-01
  4.0077060e-01
  3.5261491e-01
  4.3373391e-01
  3.3124864e-01
  1.1789557e+00
  3.4128955e-01
 -1.2681359e-01
  5.4797179e-01
 -1.0503206e-01
  2.0350197e-01
  1.0824014e-01
  2.1635143e-01
  1.5627584e-01
 -2.1814290e-01
  1.1126639e-01
 -1.1392726e-01
  7.1564233e-01
 -2.9734597e-01
  2.0632061e-01
 -8.0503561e-02
  2.8071803e-01
 -3.7266684e-01
 -1.6141881e-01
 -2.8043273e-01
 -4.6470118e-01
 -4.2216265e-01
 -3.4378853e-01
  1.4138580e-02
  1.9177322e-01
  2.0932037e-02
 -1.5269060e-01
 -6.6942908e-02
 -2.3536375e-02
 -2.8828895e-02
 -7.5757517e-03
  1.5283771e-01
  1.1871379e-01
  8.3359014e-03
  4.5280389e-02
 -3.5894133e-02
 -4.4808221e-01
  2.1980536e-01
  5.9586473e-02
  5.8233804e-01
  1.1475751e-01
 -7.3592387e-02
  8.8012896e-02
  6.3765669e-01
 -2.0406008e-01
 -5.3906783e-02
 -8.2470709e-04
  3.0826736e-02
 -8.0657715e-01
 -6.5419719e-02
 -1.1982418e-01
 -8.0609508e-02
  8.5932916e-01
  4.9551986e-02
  1.2803896e-01
  9.7323552e-02
 -8.0325929e-03
 -1.0668374e-01
 -7.9670563e-02
 -5.4924499e-02
 -7.4444048e-02
  6.7811072e-02
 -1.1902836e-02
 -1.1477775e-01
  4.5433521e-02
  3.3122736e-01
  7.2388098e-02
 -1.0028454e-01
 -6.2260856e-03
 -1.5776351e-02
 -2.4334416e-02
  3.8993126e-04
  8.7235682e-02
 -1.1726615e-01
 -1.2537725e-03
  3.5752735e-01
  5.2217588e-02
  6.2614864e-01
  5.2842546e-02
 -2.9862907e-02
  1.8678850e-01
 -1.0900304e-01
 -5.1447600e-02
  1.0370456e-01
 -3.9387595e-02
 -2.9769118e-03
  1.4837086e+00
  2.9892845e+00
  5.6986272e-01
  3.3404975e+00
 -2.5799177e+00
  2.3936182e-01
 -1.8323451e+00
  4.0718846e+00
  1.8733858e+00
 -9.9083662e-01
 -1.3270766e+00
 -1.9371980e-01
  1.0053520e+00
 -2.3728308e-01
 -9.9278671e-01
 -1.6860331e+00
 -8.9441520e-01
  1.9601984e+00
 -3.2384653e-02
 -1.4922436e+00
 -8.6154342e-01
  9.7481674e-01
 -1.9763324e+00
  6.0402036e-01
  1.8052015e-01
  2.3471375e+00
  1.2247440e+00
  2.1062117e-02
  7.3591578e-01
  5.1666509e-02
 -1.9537584e-01
 -9.6813053e-01
  7.1981825e-02
 -5.2559813e-03
 -8.1584740e-01
  5.4173446e-01
 -3.0652875e-02
  4.8398600e+00
  1.0104030e+00
  3.3274713e-01
  2.4974160e-01
 -1.4924935e+00
 -3.4088731e-01
  1.4382248e+00
 -6.1016661e-01
  1.5676014e-01
 -1.3867168e-02
 -1.5868832e-01
  3.0089003e-01
 -1.8112677e-01
 -1.9711804e+00
 -4.1603032e-01
 -4.0442207e-01
  7.6707435e-01
  2.1285620e+00
 -5.0503221e+00
  9.3594533e-01
 -2.0725551e+00
 -3.0209980e+00
  1.1096088e+00
  1.6574700e-01
  3.6283037e-01
  3.6671042e-01
  7.4320865e-01
  2.1469612e-02
  4.9179677e-02
  6.8148635e-02
 -4.7156197e-01
 -4.4540530e-01
  1.7067909e-02
 -2.4793392e-01
 -8.4975429e-02
  1.3456409e+00
  1.4477868e-01
 -8.0535465e-01
  5.0977254e-01
  1.9711019e+00
  1.1032455e-01
 -2.0284887e-01
 -1.6200199e-03
  4.6134606e-01
  8.1745034e-01
 -2.4660450e-01
 -1.1888589e+00
 -1.0794524e-01
 -1.8213867e+00
 -4.6012515e-01
 -1.5658438e-01
 -2.7043667e-01
 -4.1042209e-01
 -1.9599472e-01
 -2.0671983e+00
  2.7499506e+00
 -1.9805631e-01
 -1.9334285e+00
 -4.0828629e+00
  2.0906053e-01
  9.7021568e-01
  1.3658772e-01
  1.7367564e-01
 -6.5208353e-02
  4.2764151e-01
  2.0596197e-01
 -1.8756100e+00
 -3.7891984e-02
  2.2931756e-01
 -5.7952803e-01
  1.5640862e-02
  1.8851392e-01
  1.0047963e+00
  2.9824752e-01
  1.8932208e+00
 -9.1410345e-01
 -4.8086654e-02
  3.0434617e-01
 -2.4235235e-01
  5.3500128e-01
  5.4380286e-01
  4.4742355e-01
  1.1562325e+00
 -2.9668605e-01
  9.0106532e-02
 -1.8569597e+00
  9.3590504e-01
  2.0991167e-01
  1.2204360e+00
  1.0375657e+00
 -1.3543548e-01
  7.5412887e-01
  1.0547597e+00
 -8.0046570e-01
 -2.8144065e-01
  3.8752905e-01
  1.6169627e-01
 -1.4954852e+00
  6.5450573e-01
  1.7026980e+00
  8.4485644e-01
 -3.2635089e-02
  7.8426428e-02
  6.5562582e-01
  8.5671765e-01
  1.4198214e+00
  9.4637197e-01
  5.9560770e-01
 -1.5692147e+00
 -1.7127153e+00
  4.9756920e-01
  7.2204340e-01
  2.1918915e-01
 -3.4879228e-01
  4.3840855e-01
 -9.1718787e-01
 -1.2595323e-01
  5.4206085e-01
  1.6679154e-01
 -8.7613575e-02
  5.5191028e-01
  3.6728886e-01
  9.2388295e-02
 -9.4310991e-02
 -1.8969131e-01
 -4.9381671e+00
  2.1649146e+00
  3.4498215e-02
  5.7863218e-01
  9.7927338e-01
 -2.2538579e+00
 -2.7456758e+00
  5.4005271e-01
 -2.0442874e+00
 -1.2164210e-01
 -3.9506096e-01
 -2.5470400e-01
 -4.2421171e-01
 -1.5654768e+00
  1.4758726e+00
 -4.3413609e-01
 -1.4101884e-01
  5.8681089e-01
 -5.8457309e-01
  1.5825005e-01
 -9.0551299e-01
 -5.9932292e-01
 -2.7836707e+00
 -1.9918643e+00
 -6.3892615e-01
  3.6536512e-01
 -4.4108953e-02
 -2.8267077e-01
 -2.8531262e-01
  3.5589397e-01
  4.1815075e-01
 -9.3620259e-01
 -4.0557694e+00
  4.8285449e-01
 -4.2499296e-02
 -1.3185599e+00
  2.5015074e-01
 -2.6501590e-01
  9.0857130e-01
  3.8797280e-01
 -1.4909537e+00
 -3.8771532e+00
  1.7143948e+00
 -5.3132260e-01
  3.6980718e-01
 -1.4981948e-01
 -1.0297088e-02
 -3.5238147e-01
  3.5028452e-01
  6.8999630e-01
  1.8852928e-01
 -2.1420442e-01
  2.6887543e-02
 -3.4150913e-02
 -4.5001510e-01
 -1.3727239e+00
 -1.3417351e+00
 -1.8298516e+00
 -3.0826813e-01
 -1.1101677e+00
 -1.2852043e+00
 -5.4522258e-01
 -7.5863540e-01
  1.0852523e-02
  1.8382864e-01
  5.0051812e-02
  2.7113825e-01
  2.6986704e+00
 -2.1316006e+00
 -1.5907188e-01
 -1.1109570e+00
  8.1887054e-01
  3.7082830e-01
  2.7042505e-01
 -8.9234158e-02
  2.7862066e-01
  6.9603157e-01
  2.2308722e+00
  8.3844805e-01
  9.3998182e-01
  4.4553524e-01
 -6.0755555e-02
 -3.5397896e-01
 -4.8675281e-01
 -1.7807673e+00
  8.6979306e-01
  1.1895493e+00
  9.2652708e-01
 -4.6746898e-01
  2.7414313e-01
  2.7891555e-01
 -4.8075724e-01
 -3.9134142e-03
 -9.9321336e-01
  1.1410128e+00
 -1.0800911e+00
 -6.1091449e-02
  2.2443534e-01
  7.2248036e-01
 -5.2837372e-01
  4.2568889e-02
 -1.7516376e-01
  1.2885855e-01
 -8.9691259e-02
 -3.6277705e-01
 -4.3293622e-01
  1.4462961e-01
  3.3248085e-01
 -2.4954763e-01
  1.0891603e+00
  1.8538592e+00
  8.3292669e-01
  4.3342915e-01
 -1.6612900e+00
  3.8750784e+00
 -3.1043277e+00
 -1.0734742e+00
 -3.0159813e-01
 -2.7489808e-01
 -2.3340856e-01
 -2.8880327e+00
 -8.5192444e-03
  1.2999445e-01
  1.0027771e-01
 -4.0795821e-01
 -6.8153012e-01
  3.1517541e-01
  2.3936702e-01
  5.8973879e-01
 -1.1242477e+00
 -4.1695100e-01
 -1.9621202e-01
 -5.8812213e-01
 -1.1520660e+00
 -2.1318570e-01
 -4.2564586e-01
 -5.4076171e-01
 -4.9023251e-03
  2.6836962e-01
  3.9232638e-01
  6.9620126e-01
 -2.9027570e-02
 -2.6695892e-01
  1.7349985e-01
 -6.0580172e-02
 -6.5148586e-01
  4.6516350e-01
  2.2306998e-01
 -1.2832460e+00
  1.3060255e+00
  3.6675504e-01
 -4.8645014e-01
 -3.0572915e-01
  1.4486832e-02
 -1.8822983e-01
 -1.9339224e-02
  2.9684782e-02
 -1.4173181e-01
 -1.5197036e-01
 -3.4549198e-04
  1.1164920e-01
  6.2996089e-02
 -1.9470342e+00
  2.5533261e+00
  8.1538564e-01
 -2.0893405e-01
  4.8455791e+00
  7.4803746e-01
  3.4539118e+00
  3.1352470e+00
  1.1128777e+00
  5.1990396e-01
  1.3908243e-01
  4.9832794e-01
 -1.3739740e+00
  1.6017613e-01
 -2.0367887e+00
 -3.5585245e-01
  6.6288894e-01
  8.8492054e-01
  7.0534259e-01
 -6.0144389e-01
  4.2405772e+00
 -3.0794640e+00
 -2.7123542e+00
 -9.2444205e-01
 -3.0099962e+00
  1.3800563e+00
 -3.5682541e-01
  7.6493681e-03
 -2.8281668e-01
 -1.5684063e+00
 -9.1330063e-01
 -5.0404963e+00
  3.6822706e-01
 -3.2447619e+00
  3.2298765e-01
 -1.9187063e-01
 -9.5413613e-01
 -1.2146806e+00
  1.9797251e+00
 -1.8982664e+00
  1.6810436e+00
 -9.8389697e-01
 -2.9654756e+00
 -3.7192932e-01
  9.0202397e-01
  4.7055447e-01
  9.7364724e-02
  5.2571332e-01
 -1.1825049e-01
  1.4621210e+00
  6.5766037e-01
 -1.8841251e+00
 -1.2879442e-01
  4.1009601e-02
  1.1954246e+00
  4.6651578e+00
 -3.4777480e-01
  1.8306520e+00
 -4.5630679e-01
 -9.9145609e-01
  7.9220372e-01
 -2.3138905e+00
  9.3902998e-02
 -8.7387234e-01
 -5.8146656e-01
 -1.1095754e+00
 -3.4128234e-01
 -2.8173158e-01
 -6.0436577e-01
 -7.8537536e-01
 -3.1542751e-01
 -1.2902386e-01
 -2.7062494e-01
 -3.5189033e-01
  3.0660325e-01
 -4.7747672e-02
 -4.9534568e-01
 -1.4145629e-01
  2.1114330e-01
  8.6551124e-01
 -5.3891140e-01
 -3.2148081e-01
  6.8800175e-01
 -5.5943396e-02
  1.6930982e-01
  1.8611003e-01
 -4.7069800e-01
  4.8753809e-02
 -8.9877802e-01
  2.8740329e-01
  6.9396996e-01
 -7.1425252e-02
 -5.6787807e-01
 -2.1538137e-01
 -3.6795191e-02
 -1.1773028e+00
 -8.2215734e-02
  4.7152035e-02
 -6.2212483e-03
  1.7215626e-01
 -1.9928798e-01
  8.7653697e-03
 -3.3894934e-02
  3.7065634e-01
 -4.1090068e-01
  1.9724931e-01
 -1.6960466e-01
 -9.6155949e-02
  4.1630700e-01
  7.3126853e-01
 -5.8891577e-01
 -1.9465429e-01
 -8.0603743e-01
 -2.1156530e+00
  5.9314656e-01
  3.5979313e-01
 -1.1861497e+00
 -2.0394032e+00
 -4.4700041e-02
  9.9874973e-01
  1.1410589e+00
  2.9618952e+00
  1.6643710e+00
  5.0812471e-01
  1.3134902e+00
 -9.1528225e-01
  1.6815119e+00
 -8.7440342e-01
  2.1445289e+00
  7.8812039e-01
  1.2600809e+00
  8.1186406e-02
 -1.7853415e-01
  1.0347704e+00
 -6.2064987e-01
  7.9971296e-01
 -1.3115845e+00
 -5.0259328e-01
  6.0205627e-02
  1.4300598e+00
 -3.9165148e-01
 -2.0552320e+00
  2.6728864e+00
  3.1083317e+00
  4.7370011e-01
 -8.4077716e-01
  1.1050407e+00
  1.4221684e+00
  3.8202803e+00
 -5.2384180e-01
 -1.1035057e+00
  9.1787177e-01
 -2.1508119e+00
 -2.1012002e-01
  3.7089923e-01
 -3.5079840e-01
 -3.7038505e-02
  1.7741510e+00
 -5.2770466e-01
 -5.8925366e-01
  1.0714300e-01
 -1.2304572e+00
  1.3225038e+00
 -1.9766065e-01
 -5.2968693e-01
 -4.2783000e-02
 -3.4147489e+00
  1.5600172e+00
 -1.0140976e+00
 -9.2531121e-01
 -1.0511240e+00
  3.0759839e-02
  1.1712921e-01
  3.5195309e-01
  1.7007028e-01
 -4.1270596e-01
  8.2006651e-01
 -1.4235552e-01
 -3.6017984e-02
  5.1492065e-01
  2.6517653e-01
 -2.8430524e-01
  5.2521162e-02
  4.9878860e-01
  5.4288137e-01
 -7.4910951e-01
  2.9432449e-01
  3.8859358e-01
  2.4493231e-01
  3.4993055e-01
  2.8853394e-02
 -5.4507721e-02
 -2.2602119e-01
  5.5977799e-02
 -2.7374914e-01
  3.0505094e-01
 -3.4609252e-01
 -1.8621770e-01
  4.7571599e-02
 -7.3453546e-01
 -2.5452176e-01
 -9.9422979e-01
 -1.9030724e-01
 -3.7889868e-01
  1.3372993e-01
  3.7129295e-01
  3.7586597e-01
  4.8028819e-02
  2.9223539e-02
  7.2564915e-02
 -1.0999016e-01
  4.0284883e-02
 -3.8977155e-01
  4.1100197e-02
  2.2221670e-02
  1.6406165e-01
 -9.2185819e-01
 -1.6006091e+00
 -8.3923531e-01
  1.4448215e+00
  1.3518935e+00
 -1.9758668e+00
 -3.4114559e+00
  1.4012207e+00
  1.7072503e-01
 -8.1371546e-02
 -2.6679089e-02
 -2.1149118e+00
 -6.5382236e-01
 -1.2924521e+00
  7.1165127e-01
 -8.8138133e-02
  2.2512090e+00
 -5.4707086e-01
  5.5559034e+00
  3.2347941e-01
  1.8575644e-01
 -1.5532763e+00
 -1.6977346e+00
  1.7460649e+00
 -1.4767021e-01
 -4.3068430e-01
 -2.1622198e+00
  4.7633961e-01
  3.1146702e-01
 -2.2419391e+00
  4.9464440e-01
 -1.3605235e+00
  4.3517071e-01
 -2.6648411e-01
  1.3695391e-01
  1.0158821e-01
  1.0435358e+00
 -2.2584350e-01
 -1.0998340e+00
  1.0541185e-01
  7.3523796e-01
  1.2959882e+00
  1.3249521e+00
  2.3719549e-01
 -7.7559500e+00
 -1.3270244e-01
 -1.3093629e-01
  5.1837045e-01
  1.0978120e-01
  9.1484672e-01
 -2.6687869e-01
  1.0779127e-02
 -2.7297504e-02
  5.1895961e-02
  2.3288229e-01
 -1.0635759e+00
  2.5255742e+00
 -2.0387298e-01
  6.3464427e-01
 -5.6806266e-02
 -1.0025213e+00
 -1.7101848e+00
 -2.2752638e+00
  6.9695485e-01
 -3.4006748e-01
  2.7570620e-01
 -7.1413118e-01
 -8.6640292e-01
 -2.7090879e-02
  5.6102097e-01
  1.1968796e-01
 -2.3931770e+00
 -3.5167968e-01
 -7.4387693e-01
 -4.0844470e-01
  1.1759614e+00
  1.4938301e-01
 -3.2339180e-01
 -1.2218670e+00
  6.0674042e-01
 -7.3333436e-01
 -2.5304788e-01
 -2.5826785e-01
  2.6161513e-01
 -5.0299394e-01
  1.3056084e+00
  1.1798682e+00
  3.7629375e-01
  2.6426986e-01
 -2.5290844e+00
  6.7070234e-01
 -9.3066275e-01
 -5.6234837e-01
  2.7051425e-01
  1.2217398e+00
  1.1790115e+00
 -1.0442333e+00
  1.6185253e+00
 -1.2740594e+00
 -1.4091691e-01
  1.4884225e-01
  4.9741226e-01
 -1.1218352e-01
 -5.7726073e-01
 -2.9808474e-01
  8.1308139e-03
  2.0294043e-01
 -3.0272113e-02
 -3.2617261e-03
  1.3810884e+00
  3.7153122e+00
 -9.5356992e-03
  2.0130398e+00
 -4.1949806e-01
  1.9651872e+00
  2.5634210e+00
 -6.2864791e-03
  1.6197993e-01
  4.1518904e-02
 -3.3174190e-01
  2.9886612e-01
 -8.7097234e-01
 -1.3846727e-01
 -1.4264500e-01
 -4.4504809e-01
 -5.2505684e-01
 -1.8864632e-01
 -7.5469279e-01
 -2.1631157e-01
  8.9786667e-01
  4.1356122e-01
  2.0898855e+00
  8.7310535e-01
 -2.4273817e-01
  3.5436919e-01
  3.7041289e-01
 -3.6446387e-01
 -7.0100494e-02
  4.6812800e-01
  1.4349562e-01
  5.2070957e-01
  1.8723065e-01
 -5.0368094e-01
 -5.9075350e-01
  7.0203505e-02
 -3.2208800e-01
 -3.6524886e-01
 -5.8924210e-01
 -2.3301801e-01
  2.5067294e-01
  4.9149182e-01
  6.5155464e-01
 -5.6069815e-01
  1.2365809e-01
 -2.6827842e-01
 -8.6095601e-02
 -1.2798594e+00
  1.4432965e-01
 -1.7835895e-02
  3.6318085e-01
  1.9879776e-01
 -1.2039030e-01
  5.3123055e+00
  1.4907889e+00
 -1.3313832e+00
  2.2827616e+00
  4.2298570e-01
 -3.4207306e+00
 -1.5487672e+00
 -5.2607566e-01
 -1.2388511e+00
  6.5653431e-01
 -2.4969704e-01
 -1.1778530e+00
  2.1955194e-01
 -2.9776769e+00
  8.1255332e-02
 -2.8442371e-01
 -2.1362726e-01
 -1.4154900e+00
  1.3147552e-01
  8.2716964e-02
 -9.2670463e-02
  1.4372518e+00
 -1.7549117e+00
 -2.6213023e-01
 -2.8945088e-01
 -5.7615470e-02
 -2.4406919e-01
 -7.3797095e-01
 -3.3188716e-01
 -7.9746685e+00
 -1.0229490e+00
 -2.6512523e+00
  1.8827916e+00
 -1.2562735e-01
 -5.3279704e-01
 -3.2640272e-01
  4.7657472e-01
 -4.2374805e-01
 -5.4651302e-01
  2.1284389e+00
  2.0188639e+00
 -1.4328640e+00
  5.3184319e-01
  5.7865006e-01
 -6.6513795e-01
 -6.7373462e-02
 -1.3027535e-01
  2.7860930e-02
  4.6038529e-01
 -1.7396013e-01
 -5.8814716e-02
  1.4375907e-01
  1.5516296e-01
 -5.3581899e-01
 -5.5194803e-02
  4.9477527e-01
 -7.4344024e-02
 -1.8956003e-01
 -2.4634892e-01
 -1.1358378e-01
  2.2035368e-01
  2.5094241e-01
  1.7678337e-01
 -7.9873532e-02
 -8.6548597e-02
  1.0731119e-02
  2.9382620e-02
 -5.8132462e-02
  2.7457459e-02
 -1.4840150e-01
  1.3435735e-01
 -2.6720989e-01
 -2.7725603e-02
 -3.3276081e-03
 -1.2757619e-01
  1.5171087e-02
  7.8043163e-02
  9.3783811e-03
 -1.4407361e-01
 -7.7792734e-02
 -2.5873411e-02
 -3.6571780e-01
 -9.0183318e-03
 -5.3132880e-02
  1.4400661e-01
 -4.5111805e-02
 -3.9781147e-01
 -1.8597659e-01
  6.3383684e-02
 -8.1055611e-02
 -5.6999946e-01
 -8.1648000e-02
 -1.0226032e-01
 -7.8886651e-02
 -7.5341567e-02
 -1.3267323e-01
 -6.2021655e-01
 -2.1061149e-01
  1.1984922e-02
 -7.4420691e-02
 -1.0710116e-01
  4.8334442e-02
 -9.6335411e-02
  1.2554815e-01
  4.4676892e-02
  1.0286308e-01
  1.3133906e-01
  3.4736558e-03
 -8.0586851e-01
  1.1825539e-01
 -4.0197471e-01
  2.9820186e-01
  1.2179933e+00
 -2.6887715e+00
  1.3999527e+00
  4.6912670e-01
 -1.6498690e-02
  9.0525039e-02
 -3.0750510e-01
 -4.2978975e-01
 -2.8458542e-01
  2.2490904e+00
 -1.3517520e-01
  5.2220039e-02
  3.3212557e-01
 -3.6900599e-02
 -4.1928276e-01
 -7.5420365e-02
 -2.2238159e-01
 -2.0323415e+00
 -2.9447171e-01
 -1.3259342e+00
  1.7218983e-01
 -2.0883985e+00
 -9.1074169e-02
 -2.8439283e-01
 -3.4853984e-02
 -3.7201798e-01
 -2.3814550e-01
  4.8321966e-02
 -4.9290515e-02
  6.8399988e-02
 -4.3222471e-03
  1.0089750e-01
 -1.9392154e-01
  7.4074738e-02
 -5.3698254e-01
 -2.6132932e-01
  1.6662940e+00
 -4.0150213e-01
  8.7033743e-01
 -1.8462233e-01
 -9.8473221e-02
  1.9358619e-01
  4.3476235e-02
  6.3693762e-01
  8.0893584e-02
 -2.5688496e-01
  9.5396918e-01
 -1.0310266e-01
  1.7950010e-01
 -3.0770907e-02
 -8.9191794e-01
 -7.2844040e-01
 -7.3214245e-01
  2.5276942e+00
  5.6893229e-01
  1.6726789e+00
 -1.0293540e+00
 -1.8019445e+00
 -1.2530938e+00
  6.7055291e-01
 -6.2480676e-01
 -1.2689781e+00
 -2.2182150e+00
 -5.3994600e-02
  1.8023074e+00
  5.1294851e-01
  6.2620217e-01
 -8.1476939e-01
 -1.7875198e+00
  1.0550545e-01
  5.2522296e-01
  7.7251248e-02
  9.6129793e-01
 -4.2915660e-01
 -7.9060942e-01
  1.3264333e+00
  1.3098277e-01
  2.3741062e+00
 -6.4064741e-01
  6.7549191e-02
  1.8703755e+00
  8.7951928e-01
  3.8921934e-01
 -3.8261592e-01
  3.3323812e-01
 -8.2592696e-01
  3.0677614e+00
  3.1821281e-01
 -2.6451114e-01
 -1.3793657e+00
  3.0029503e-01
 -2.2092400e-01
 -4.6373820e-01
 -4.2374220e-01
  2.8749855e+00
 -3.7305468e-01
  1.0989822e-01
  1.8673767e-01
  1.0135478e-01
 -1.2350168e+00
 -3.8227662e-02
 -3.8844004e-01
  1.6898263e-01
  3.2929423e-01
  1.5653335e-01
  2.4874330e-01
 -1.3618024e-01
 -1.2345273e-01
 -4.3093063e-02
  3.2080248e-01
 -7.5993091e-01
 -2.7749541e-01
  1.7399278e-01
 -6.8991706e-02
 -1.0251246e-01
  8.8721126e-02
  2.3266824e-03
 -9.0529218e-02
  1.4409071e-01
  5.0404068e-02
  3.2011846e-03
  3.8483713e-02
 -2.0155294e-01
 -9.0735510e-02
 -1.6119833e+00
 -1.7163466e-01
  5.5194846e-03
 -1.2503873e-01
 -6.3676365e-02
 -1.4044045e-01
  1.0567456e-01
 -1.6472688e-01
  4.1315917e-02
 -7.9994306e-02
  1.0550199e-01
  7.0548289e-02
 -1.9519612e-02
 -7.9587802e-02
 -5.1950578e-02
 -8.1894390e-02
 -3.4296587e-02
 -4.3295482e-03
 -1.7021664e-03
 -2.8970945e-01
 -9.5335701e-03
 -2.8017864e-01
  1.0157099e-01
 -1.4398001e-01
 -1.0645511e-01
  3.7808876e-02
  1.5973097e-02
  1.1227573e-01
  5.5340912e-02
  1.6346420e-01
  4.5945801e-02
 -2.9729443e-02
 -4.0165875e-02
  1.5014675e-01
  6.0962731e-01
 -1.5503978e+00
 -4.2194918e-01
 -8.3770531e-01
  1.5902975e+00
  3.1842334e+00
  3.0167620e+00
  2.8824982e-01
 -9.4289631e-01
  9.2007540e-02
  1.9084550e-02
  7.4373633e-02
  3.0387655e-01
  3.5625204e-01
 -4.2723665e-01
 -8.9097299e-02
 -2.4801856e-01
  2.4356906e-01
 -1.4150203e-02
 -1.9488789e-01
  3.1704021e-01
  4.1142344e-01
  2.5730923e-02
  4.5976901e-01
 -7.2978169e-02
  1.6977944e+00
  3.7198707e-01
  1.2206668e+00
 -5.6470460e-01
  3.3618223e-02
  2.2223510e-01
 -8.6753421e-02
  1.1711606e-01
  3.5320279e-01
  2.4799820e-02
 -4.5661908e-01
 -1.7498289e+00
  1.9160676e-01
 -5.9628258e-03
 -2.5873554e-01
  4.6187185e-02
 -4.1280013e-01
  2.0696500e-02
  3.7459347e-01
 -1.0335647e+00
 -2.1988550e-01
 -8.9777656e-02
  1.2928593e+00
 -1.1585020e-01
  3.4913730e-03
 -1.8289351e-01
 -2.6038244e-01
 -2.6585741e-02
  2.6845950e-01
 -4.4103673e-01
 -2.1803869e-02
  6.6278583e-01
  3.5122424e-02
 -1.0040333e-01
 -6.7019343e-01
 -7.2402811e-01
 -9.4057274e-01
 -3.5226884e-01
  2.2715956e-01
 -1.5406932e-01
 -3.6425192e-02
 -1.2025372e+00
  9.6338794e-02
 -1.6994913e-01
 -7.1555249e-02
  7.9464547e-02
  6.8660539e-01
  2.2062492e-01
  3.3557498e-01
 -3.0157378e-01
  2.5525725e-01
 -2.9752019e-01
 -5.1038913e-02
 -9.9932462e-02
 -1.4635867e-01
 -5.0978047e-01
 -7.2108522e-02
 -5.1555753e-01
 -6.7485017e-01
 -9.9385959e-01
 -6.3573587e-01
 -4.9856776e-01
 -5.6735069e-01
 -2.5601670e-01
 -1.2515552e+00
 -4.0139705e-01
  2.3632069e-01
 -2.5593868e-01
 -1.2882517e-01
  1.3731337e-01
  6.8525237e-01
 -4.7967842e-01
 -3.5885739e-01
  3.6612689e-01
  7.4212253e-02
  2.3197895e-01
  1.1059260e-01
 -3.2096034e-01
 -1.2976816e-01
  4.0026227e-01
 -2.0942833e-01
 -1.8469520e-01
  5.9605073e-02
  3.3017628e+00
 -2.6555488e+00
 -1.3243072e+00
  5.5667341e-01
  8.3424479e-01
  1.1214316e+00
 -4.6828494e+00
  6.1701111e-02
 -1.8934675e+00
 -5.1923804e-02
  4.2057553e-01
  4.3454888e-01
  4.5128393e-01
  6.3720542e-01
 -1.7491919e-01
 -1.2166486e-01
  3.1804162e-01
  7.0821846e-01
  5.4189935e-03
 -5.4893661e-01
 -1.4564142e-01
 -2.2367689e-01
  8.4192693e-01
  1.4053942e+00
  3.3444741e-01
  4.3426138e-01
  1.5292764e-01
  1.3306613e-01
  2.9367799e-01
  4.1746590e-01
 -9.9097019e-01
  5.0153917e-01
  1.5823038e+00
  2.5853124e-01
  5.4806739e-01
  6.8436033e-01
  7.6867633e-02
 -6.6352701e-01
  3.5887465e-01
 -2.6851342e+00
 -1.9427449e-01
  1.3864728e+00
 -6.3630122e-01
  2.3773417e-01
 -2.8600618e-01
 -1.8732601e+00
  2.3218271e-01
 -7.5168334e-02
 -2.1205299e-01
 -1.7804284e-01
 -5.6257948e-02
 -4.6775228e-01
 -1.9482157e-01
  2.6953641e-01
  4.1252431e-01
 -1.7589232e+00
 -1.4923180e+00
  6.0306895e-01
 -1.5067620e+00
 -2.3689857e-01
 -2.0373821e+00
 -3.0003078e+00
  1.9425484e+00
 -1.1117500e-01
 -3.6052692e-01
 -2.0290583e-01
 -2.5391895e-01
 -6.7622013e-02
  6.2233347e-01
 -5.2762669e-01
  6.3082522e-01
 -7.9608239e-02
 -2.1015774e-01
  4.0731877e-01
  3.2141820e-01
 -8.1212622e-01
 -2.9414179e+00
 -3.3740273e+00
 -2.9110504e-02
 -2.2714615e-01
  1.2327743e-01
 -1.1703709e+00
  1.2981042e+00
  3.9904612e-01
 -1.1047052e+00
  3.6446884e-02
  6.2658256e-01
  4.4062096e-01
  1.9828917e+00
  7.9806471e-01
 -4.1866472e-01
 -2.4852523e-01
  1.6708766e+00
  2.3678699e-01
  7.1490490e-01
 -3.8437834e-01
 -2.9225078e-01
 -3.6551032e+00
  1.3874714e+00
 -1.3301878e-01
 -3.0747285e-01
 -2.4412520e-01
  1.7872922e-01
  2.8042910e-01
  4.6330023e-01
 -1.8328326e-02
  1.4823294e-01
 -3.2647988e-01
 -8.9662127e-02
  1.8438706e+00
  6.6623175e-01
  6.5004903e-01
 -7.5002745e-02
  9.0159543e-02
  3.2212931e-01
 -6.7707431e-01
 -1.6078337e-01
 -1.0304176e-01
 -2.7774650e-01
  4.9998071e-02
 -8.6292058e-02
 -3.8095534e-01
 -6.9519445e-02
  1.4550336e-01
  1.7584168e+00
  2.8785525e-02
 -1.4854559e-01
  4.8616245e-02
  3.0067435e-02
 -2.0964631e-01
  5.2432674e-03
 -7.7716142e-01
 -1.5442050e-01
 -1.5897171e-01
 -2.0335504e-01
 -3.4298252e-03
 -1.5440838e-01
 -2.5121462e-02
 -1.0948098e-01
 -2.7518433e-01
 -5.7167411e-01
 -2.3059665e-01
 -3.1035192e-02
 -1.0483844e-01
 -6.3393876e-02
 -4.2457697e-03
  1.4980081e-03
  4.0830490e-01
 -1.3006122e-01
 -5.7936031e-01
 -4.0971320e-02
 -2.3727822e-01
 -2.1559191e-01
 -8.9051083e-02
  1.0543498e+00
 -6.0362481e-02
 -2.0510432e-01
 -1.1819473e-02
 -2.2223923e-01
 -4.9138075e-01
 -5.5291850e-02
  1.2682731e-01
 -4.1205317e-01
 -2.8348827e-01
 -2.1918964e-01
  7.5464301e-02
 -6.0752258e-02
 -9.4542965e-02
  9.4787765e-01
 -8.9118015e-03
  1.7018571e-01
  9.8274767e-02
  8.1980683e-02
  1.7319587e-01
 -7.9358388e-03
  1.4929147e-01
  1.3603021e-01
 -1.6109721e-01
 -2.2467071e-02
 -8.4762953e-02
  1.3955966e-02
  5.8060002e-02
 -4.5340304e+00
  5.3186931e-02
 -9.1043808e-02
  3.0858425e-02
 -7.7744707e-02
 -6.3125163e-02
  8.1120528e-02
  6.3682973e-02
  3.4538664e-02
  6.7742035e-02
 -4.7147956e-02
  4.7755443e-02
  7.6074295e-02
 -2.4371743e-02
  5.9443060e-02
 -8.1213586e-02
  3.1063879e-02
  2.3001501e-01
  1.0328307e-01
 -2.0454681e-01
 -8.7257139e-02
  4.5026490e-01
  3.1265762e-04
 -2.5264623e+00
 -2.2392413e-01
 -3.5361819e-02
 -2.4476543e-02
  1.0366959e-01
 -1.1366533e-01
 -1.9423574e-02
 -4.0481654e-01
 -7.6868482e-02
 -4.0176284e-02
  1.0441490e-01
 -5.8025354e-01
  2.0922530e+00
  3.2087255e-01
  1.2218016e+00
  1.1840364e+00
 -2.2007809e+00
 -2.1682687e+00
  8.8415635e-01
 -1.2006203e-01
  9.1791730e-03
 -1.4131516e-01
  1.5810174e-01
 -3.0708256e-01
 -1.5309225e+00
 -2.8293562e-01
  1.4193922e-02
 -6.1306842e-02
  3.0769901e-02
  5.1335114e-01
 -2.8318688e-01
 -3.7681013e-02
 -3.2258511e-01
  7.7155188e-02
 -1.9097075e-01
 -4.7800105e-02
  2.7156404e-01
 -6.3677845e-03
  3.2986250e-02
  9.5247246e-02
  1.7265262e-01
  1.6887574e-01
 -2.7919614e-01
 -2.5341334e-02
 -9.6127372e-03
  1.8991983e-01
  2.6255220e-01
  1.8773207e-01
 -3.9364357e-02
  1.3355477e-01
 -1.1663604e-01
 -1.4163007e-01
 -1.7015938e+00
 -3.0203554e-01
 -7.3393124e-01
 -2.3743103e-01
 -9.7024128e-02
  9.3756266e-02
 -7.8295060e-02
 -1.0559845e-02
  1.5984403e-02
 -6.3466638e-02
 -1.4895535e-01
 -9.0801544e-02
 -2.9920727e-02
 -1.0736726e-01
 -3.4103546e+00
 -2.2141488e+00
  1.7430978e+00
 -3.1700203e-01
 -9.1768436e-02
  2.0702627e+00
  1.1193358e+00
 -2.5785443e-01
 -1.7403035e-01
 -1.4452553e+00
 -4.0845516e-01
 -3.3409230e-03
  1.7581137e+00
 -1.4721794e+00
 -2.3596370e+00
  2.5688083e+00
  1.4293806e-01
 -1.1600227e+00
  3.0005485e-01
  5.7141501e-01
 -7.4098617e-01
 -1.0958078e+00
  5.2047062e-01
  7.2774655e-01
 -3.4805542e-01
  8.4489417e-01
 -1.3173334e-01
  9.7556058e-03
 -2.9960966e-01
 -2.0454182e-01
 -8.3709407e-01
  3.8856920e-02
  8.6452439e-02
 -6.2793928e-01
 -3.0748207e-02
  5.5959386e-01
 -3.9731610e-01
 -3.7817189e-01
 -3.3514139e-01
 -4.1715465e+00
  3.5707825e-01
  3.9396739e-01
 -5.8003896e-01
  5.5444628e-01
  1.5957990e-01
  1.1506153e-01
  2.4688908e-01
 -2.4187927e-01
  3.3293822e-01
 -3.0966625e-01
 -4.5536228e-02
  2.8976870e-01
  5.2560408e-02
 -1.2216922e+00
  2.1800542e-01
  1.4652997e-01
 -2.4879512e-01
  1.2475132e+00
  2.0594289e+00
 -7.4002790e-01
 -2.9638833e-01
  1.8119062e-01
  1.8485734e-02
  1.1377084e-01
  2.3175297e-02
 -1.2878316e-02
 -1.9396707e-02
 -8.7406620e-02
 -2.6842689e-02
 -5.2239667e-03
 -3.2227777e-02
  8.6229093e-02
 -3.8008059e-03
  1.3985454e-02
  1.2272069e+00
  2.2830717e-02
  2.3173726e-01
 -2.3954453e-02
  2.9549589e-02
 -1.3474792e-01
  8.0551036e-02
  8.4882163e-02
  4.7558260e-01
  1.4362603e-01
 -5.6003408e+00
  5.2100509e-01
  6.2549189e-02
  9.2814200e-02
  1.3302477e-01
 -1.0710653e-01
  8.6913943e-02
 -7.5084105e-02
 -7.5128222e-01
  2.2476561e-01
 -1.2687725e+00
 -2.8929916e-01
 -3.2411473e+00
 -5.2109492e-01
  8.7877512e-02
  1.9016414e-03
 -1.2206017e-01
  1.1505488e-01
  1.3682683e-01
  2.9629221e+00
 -1.1287716e-01
 -1.2615660e-01
 -1.6646649e-01
 -8.2244223e-01
 -1.0304260e+00
 -1.5155149e+00
 -2.0568393e-01
  3.1516452e+00
  5.5732775e-01
 -1.6673914e-01
 -3.1545248e+00
 -1.3876406e+00
  5.4173410e-01
 -1.2179208e-01
  2.7037075e-02
 -2.0484929e-01
 -3.1005582e-01
  1.8193245e-01
  3.0114949e-01
  8.8181514e-01
 -1.2230009e+00
  9.1025688e-02
  2.8006142e-01
  1.2586053e-01
  9.1480875e-01
  7.4654180e-01
  5.8337327e-02
 -8.5572451e-01
 -5.0692058e-01
 -1.0797717e-01
  4.5925099e-02
 -3.2915345e-01
  1.9852081e-01
 -1.0735673e+00
  6.5688014e-02
  6.2738851e-02
 -6.0857636e-01
  4.0336525e-01
 -2.8558308e-01
  2.6113799e-01
 -1.0458235e+00
 -2.7408904e-01
  3.4052318e-01
  2.9748514e-01
  1.3556342e-01
  5.3191346e-01
  3.8654980e-01
  1.5725641e-01
 -4.7480741e-01
 -1.2970597e-01
  3.5202650e-03
 -1.8226581e-02
 -5.9996992e-02
  4.2230579e-01
  1.7222780e-01
  3.1871185e-01
 -2.5562397e-01
  1.4233549e+00
 -6.3423300e-01
  5.5610329e-01
 -1.0788561e+00
  2.5567132e-01
  1.0733622e-01
  1.9351737e+00
 -5.1419801e-01
  6.8888646e-01
  2.3538513e-01
  3.0053541e-01
 -8.1271805e-02
 -5.7340974e-01
  1.7785658e-01
 -2.3947448e-01
  1.4859430e-01
 -3.6089826e-01
  8.4112757e-01
  2.1776629e-03
  6.2386745e-01
 -5.9667200e-01
  5.7886654e-01
 -5.7806748e-01
 -4.3137532e-01
  2.4156186e-01
 -1.4120119e+00
 -5.8893812e-01
  4.4555011e-01
  6.9691992e-01
  1.4893046e-01
  1.0134371e-01
 -1.0713096e-01
  1.4227140e-01
  9.8466665e-01
  1.2360072e-01
  1.0594101e+00
  9.2779070e-01
  3.1880423e-01
 -1.9508097e-01
  3.1308126e-01
 -3.0931339e-01
 -6.0913700e-01
 -3.8719025e-01
 -4.7437534e-01
 -1.0082693e+00
  3.3364505e-01
  1.0018265e-01
 -1.5608887e-01
  1.0197735e-01
  1.9790068e-01
 -2.2826743e-01
  5.9191108e-01
 -3.2696715e-01
 -5.7150662e-01
 -9.4248241e-01
  2.9365793e-01
 -4.9665543e-01
  5.3143077e+00
  5.1403131e+00
 -2.8069339e+00
  2.9816532e-01
 -3.7750414e-01
 -9.3112826e-01
  5.6361073e-01
 -7.7307075e-01
  2.8576282e-01
  9.0603381e-01
 -1.8058405e+00
  1.4900405e+00
 -6.5384334e-01
 -1.3876987e+00
  1.5229622e+00
  8.1350738e-01
 -1.0306844e+00
 -8.0915356e-01
  1.8583215e+00
  2.9729187e+00
 -3.5052128e+00
  3.4216723e-01
 -2.1104556e-02
 -1.4756138e-02
  4.9070516e-01
 -1.3814026e-02
 -5.3965193e-01
  7.6855737e-01
  4.2691708e+00
 -1.3418175e+00
 -2.5629520e-01
  6.8806869e-01
  9.9697226e-01
 -3.0430591e-01
 -1.1040790e+00
  6.1623901e-02
  1.1813096e+00
  7.4210197e-01
  3.7485522e-01
  7.7436876e-01
  1.4065678e-01
 -8.7089360e-01
  1.7227979e-01
 -1.5607095e+00
 -2.8149408e-01
 -2.0351735e-01
  2.3276633e-01
  5.4864889e-01
 -2.3558969e-02
 -8.4745997e-01
 -8.0571190e-02
 -2.4092729e+00
 -7.8297096e-01
 -2.6131175e+00
  2.0984130e+00
  3.3323591e+00
 -1.1107347e+00
 -1.3863370e+00
  7.2300035e-01
 -3.7931338e-01
 -9.3841642e-01
  1.5902656e-01
  4.1398838e-02
 -3.5691518e-02
 -1.9340934e+00
  1.7691320e-01
 -3.2510111e+00
 -1.7255154e-01
  2.1408829e-01
 -1.6727757e+00
  2.3217626e-01
 -3.5224786e+00
 -1.6418473e+00
  1.5292330e+00
 -6.5376401e-01
  1.9905925e+00
  4.4412893e-01
  3.6675084e-01
 -1.3090140e+00
  1.7012396e-01
  3.5246747e+00
 -2.5576599e-02
  7.6634747e-01
 -1.6061119e+00
 -6.1909087e-02
 -1.1277496e+00
  4.6301076e-01
  5.0323308e-01
  5.9534782e-01
 -1.2325279e-03
  9.8237240e-01
 -2.7100033e-01
  1.8952838e+00
  9.9153139e-02
  1.1914535e+00
 -3.4844267e+00
 -7.1268958e-01
 -1.3135357e-01
  1.8564373e+00
  5.4128635e-01
  8.3107628e-02
 -5.0058728e-01
  4.2207379e-02
 -7.7974141e-02
  9.0363659e-02
 -1.4884003e-01
 -3.8952354e-01
  6.1525387e-01
  9.5760715e-01
  3.5001367e-01
  8.8919662e-02
  2.9271886e-01
 -1.4532892e-01
  8.2071525e-01
  3.9153751e-03
  7.7264093e-02
 -1.3564932e-01
  6.9393739e-02
  1.2652194e+00
  1.2683980e-01
 -1.1493874e-01
  2.1481110e-01
  2.2857772e-01
 -2.8583711e-01
  5.1043350e-02
 -1.4271821e+00
  4.4237116e-01
 -9.3531060e-01
 -3.8869029e-01
  1.9622356e-02
  1.7487170e-01
  3.3764732e-01
  2.0930475e-01
  2.9898557e-01
  3.6665928e-02
  6.2872732e-01
 -1.7713208e-01
  7.4076980e-02
  1.4866243e-01
  3.0644014e-01
 -3.4049261e-02
  2.3699053e-01
  1.7404199e-01
 -4.0154228e-01
  9.7187929e-02
 -1.4964752e+00
  4.5753601e-01
 -1.8111299e-01
 -1.1087015e-01
  6.9913496e-03
  2.5495088e-01
  2.5003921e-02
  8.4006405e-01
  7.6991720e-03
  3.1326398e-01
 -5.2303158e-02
 -1.2488975e-01
 -8.4265925e-02
  4.6922021e-02
 -8.2441640e-01
 -8.9546657e-01
